9.85 9.87 -5.94 -7.67 0.36 -8.22 -0.93 -9.32 3.54 5.57 0.42 6 1.29 4.95 8.8 1.79 0.68 4.57 -6.72 6.01 -0.09 -2.38 -3.94 -2.26 -7.28 -9.28 6.02 -5.8 3.93 0.46 4.98 3.31 -3 -2.32 6.26 -7.5 2.63 -8.33 5.19 0.62 0.7 -9.2 4.6 9.43 -3.44 -4.39 -1.53 8.83 -9.08 3.75 -8.1 -4.27 1.87 2.2 -3.28 -3.46 2.86 6.37 -3.93 -2.14 -0.85 -2.61 -4.51 -7.08 -5.13 -0.38 -8.6 1.85 -1.62 3.18 -6.68 1.84 3.64 -0.48 4.1 -5.82 5.74 3.86 -8.99 6.17 -2.15 9.65 8.12 -3.93 -8.69 -2.42 -2.18 -5.92 -7.2 -3.36 -8.9 -9.23 3.28 -8 -2.7 8.85 -2.84 -4.92 -4.68 -7.62 -0.14 4.61 7.81 -5.25 -4.11 -7.75 -2.39 -4.2 0.88 9.13 8.72 -1.23 3.56 9.43 -3.24 -1.63 4.11 -6.52 5.61 -3.99 -7.55 6.31 -3.48 -4 -6.68 -1.3 4.02 -1.12 -6.38 1.85 6.56 -0.06 -7.03 -8.12 7.44 9.07 -3.92 8.68 9.3 2.94 3.47 -5.67 -1.53 6.79 -5.82 -5.22 4.24 -2.72 8.68 8.6 -5.17 8.27 -8.54 3.47 -4.19 9.92 1.64 5.93 -2.7 -3.19 6.17 -1.08 -3.51 7.94 -4.35 4.38 -9.7 6.77 5.25 -8.03 4.12 -3.18 -5.21 7.01 -8.82 -5.83 4.85 3.05 -9.82 -6.61 7.05 8.09 -8.42 6.8 5.68 -2.36 -6.56 -4.98 6.22 -6.94 8.77 -0.69 -6.57 7.33 8.81 -3.36 9.54 1.45 5.6 -10 -0.07 -8.81 -2.91 5.29 -8.46 -3.27 6.68 -5.34 7.78 8.16 6.48 -3.39 9.7 -5.77 -1.96 -3.15 -4.52 -0.84 9.12 9 4.84 -1.15 -8.84 5.24 2.04 2.92 9.73 -0.51 5.47 4.44 -2.51 0.19 5.26 -7.98 -3.09 0.44 8.38 7.34 -1.25 -1.18 -7.84 4.27 -4.11 7.21 -1.78 -0.09 -1.86 -1.81 -4.72 -4.11 -3.09 0.05 5.97 -8.84 2.51 9.74 -4.07 -4.93 -1.62 1.1 -1.66 9.34 5.9 -1.04 6 -7.8 -9.29 -7.52 6.01 8.13 8.71 7.29 -6.12 3.23 2.09 -5.22 2.87 -10 -7.27 2.3 -3.01 4.66 -8.89 -5.63 -3.91 -1.85 4.28 -3.71 -3.99 -5.3 -0.28 5.9 -8.67 0.61 0.11 -5.13 0.39 2.66 -4.88 -6.57 7.03 -1.86 -4.54 2.98 8.89 2.25 -1.07 1.6 5.06 -5.64 -4.55 9.63 9.05 -6.33 -8.63 2.44 8 -4.72 8.85 1.13 1.8 -1.95 7.36 2.58 -8.91 0.56 1.82 0.9 4.33 9.84 5.85 -8.73 -5.07 8.36 -3.16 -2.65 5.6 7.43 -7.01 3.65 0.14 -1.01 -2.56 4.88 2.89 -8.34 8.53 -1.26 -0.48 9.54 3.04 9.49 8.32 -4.72 -2.43 5.76 -6.8 -2.91 -3.87 1.54 6.64 1.5 -1.4 -8.59 4.22 6.46 2.19 -5.84 0.77 9.7 3.9 -0.74 5.76 9.3 8.08 2.31 -0.27 2.08 -5 -4.68 -2.64 -5.27 -5.24 -7.21 -6.81 -5.65 2.66 -6.48 -5.86 0.38 5.16 1.44 -3.35 -6.71 9.74 -9.12 3.23 -1.87 6.8 -9.42 1.93 -3.55 -6.26 -5.81 2.18 -1.7 4.72 5.52 -7.92 -6.78 -6.9 9.68 -7.06 5.74 6.37 -4.8 -5.16 -4.69 -8.34 3.34 -6.77 -5.95 -2.64 0.19 -2.23 -2.56 -4.49 1.56 -2.88 -0.23 7.58 4.21 -0.01 -8.23 -7.78 -2.32 -8.22 -0.98 -3.58 7.98 9.5 -2.65 -8.15 0.8 -2.85 1.11 -5.93 6.46 5.51 2.29 5.36 -8.34 -9 -2.98 -7 7.71 6.46 -8.04 -8.03 -5.5 -3.48 -4.3 -0.9 -5.91 -6.28 5.74 7.82 2.14 -1.42 -4.74 -8.87 -1.62 -0.2 -0.63 7.97 -8.44 -6.96 -9.66 -2.82 0.05 0.98 -6.45 -0.41 -7.38 -6.75 1.88 -4.9 -4.1 8.05 -3.53 -0.15 -0.37 -9.57 -8.85 6.85 1.12 7.55 2.48 2.82 -4.41 -1.94 -6.27 -0.73 -4.55 -8.7 1.81 2.07 8.38 -6.24 1.12 2.6 0.55 -6.09 5.49 4.64 6.88 -4.74 -2.06 -2.77 2.6 8.19 -4.67 9.32 -7.01 7.19 7.39 9.1 -5.66 -1.94 -3.84 -0.51 -5.34 6.57 6.06 7.44 -9.57 9.63 4.1 -2.02 -3.64 -3.39 7.16 8.66 -4.56 -1.73 -5.48 0.31 7.44 -6.05 9.45 2.01 3.2 -5.58 -3.35 6.09 -6.6 -2.85 3.2 -2 -9.13 2.17 7.96 0.39 7.4 -5.5 5.44 1.89 8.46 -2.79 0.11 -3.43 -2.19 -6.02 -2.22 -9.42 -5.01 -9.09 2.66 -3.11 3.79 0.24 -4.1 6.33 -2.82 3.99 1.52 4.26 9.17 1.56 -8 -1.47 -8.84 -3.12 7.87 9.79 8.8 3.17 0.88 -5.14 -6.72 -6.39 7.64 0.54 0.16 -0.79 -3.89 6.86 7.23 2.66 -5.43 -0.87 -2.02 -8.36 -4 2.34 1 1.08 2.52 7.6 -4.31 -7.74 -8.99 3.6 -6.08 -3.5 -1.08 7.26 3.81 8.56 4.47 -1.88 -6.33 -10 -7.68 -5.35 -7.74 -5.75 0.32 4.84 -7.01 -9.56 -8.26 -8.44 -4.14 9.73 -2.48 -2.44 -7.05 1.36 0.87 -8.47 9.35 2.31 0.38 5.15 9.93 7.64 -1.78 -4.49 -3.05 -8.15 -3.47 -7.62 -0.34 -5.88 -2.61 -3.59 5.77 -3.73 -5.19 -6.56 -1.88 -8.85 -3.27 -5.84 -7.1 -1.31 -6.78 -1.23 -3.43 1.27 -0.96 -1.7 1.61 2.62 -8.42 -8.71 0.33 8.19 7.25 5.84 -1.53 -5.95 0.02 9.55 2.31 -9.42 4.83 -8.3 6.82 8.82 -5.66 4.18 -5.21 9.59 2.49 1.05 -9.3 7.75 3.57 8.63 -2.7 0.02 -1.75 1.1 3.37 -7.52 2.35 0.11 1.81 -3.2 1.57 4.07 -0.55 -4.01 9.09 3.94 6.35 -2.87 1.67 1.85 -2.01 -4.54 5.19 -2.07 -6.03 9.02 -9.96 -9.49 9.25 9.1 -1.07 -9.79 -3.62 0.44 -5.73 4.4 4.6 -5.97 -9.55 8.37 -5.78 -2.3 0.03 -5.03 0.83 8.87 8.98 6.86 5.62 3.46 1.01 -9.82 8.5 4.47 -0.3 -2.92 -6.37 7.81 -3.18 8.96 -2.12 -1.68 -0.34 3.44 -7.42 -6.13 -5.96 -5.53 5.16 -9.78 4.95 9.49 1.51 8.2 -9.17 -2.2 -3.05 -9.28 8.22 6.88 5.38 -7.77 3.68 -9.72 1.21 -9.39 0.54 2.94 -2.14 -9.6 0.35 0.12 -1.13 -9.77 -6.59 -5.27 6.19 1.82 -5.87 -6.98 1.91 8.26 8.63 8.74 8.08 -1.22 -3.51 8.22 -6.75 -0.92 6.53 0.69 -0.06 -3.58 -1.39 7.76 9.44 -0.57 0.02 7.85 -2.33 2.21 -9.66 2.13 -1.7 6.69 -9.15 2.76 -9.89 2.04 -8.69 -1.27 7.46 -0.86 -9.66 -5.32 2.28 -2.74 1.67 3.45 -8.84 -8.89 -7.08 0.01 2.72 8.14 -0.23 6.73 1.92 -3.28 -6.13 -6.58 1.71 2.09 -8.29 -6.82 -9.21 -0.51 8.39 3.4 6.5 9.23 -3.45 -0.2 -2.09 5.42 -2.23 9.93 3.69 0.46 -2.02 -7.29 7.5 -6.71 3.97 -5.75 -9.5 -1.76 0.42 -4.89 5.89 1.35 4.37 -3.29 5.54 -7.93 -7.83 -2.34 -8.78 -5.09 6.91 2.34 3.56 -8.8 -4.54 8.45 -6.4 9.62 6.03 -1.53 7.63 -8.47 -3.7 -3.19 0.83 2.52 -0.95 -5.01 6.54 9.63 -8.99 3.13 -1.73 3.48 6.48 -5.85 -4.34 -4.65 -5.67 -0.55 1.82 -1.86 -6.1 -4.78 2.83 -3.55 6.4 0.69 2.45 -8.55 5.2 5.5 1.7 0.79 -5.91 -7.25 -6.92 -9.12 0.22 1.38 6.41 6.81 -6.68 1.76 3.09 -1.23 -1.56 -1.66 -1.63 9.01 -7.95 2.91 -2.83 4.58 3.26 -7.87 -0.18 5.51 -7.28 -1.93 -0.57 -1.84 4.76 -4.84 -6.79 -5.81 -0.19 6.5 -9.61 -2.29 5.71 7.31 6.98 -4.68 -2.6 8.91 -9.03 -0.69 1.95 0.69 6.62 -9.12 -2.04 -5.63 2.01 -2.97 -9.27 -3.47 -2.43 9.89 2.94 -3.43 -9.51 -7.49 5.66 9.09 9.83 7.99 -5.64 4.17 -2.2 9.12 6.38 7.67 -7.62 -8.84 -5.06 -7.21 -7.44 -3.78 -8.61 -6.72 -2.07 -7.18 5.13 -7.15 -2.34 2.25 -0.51 -5.89 -5.64 1.81 2.14 -3.79 9.91 6.58 -9.07 9.3 -7.07 -3.77 3.97 8.17 -3.25 -4.28 -0.7 3.33 2.95 -4.86 -0.76 -0.85 9.37 -1.52 7.04 -6.54 5.53 -8.88 4.43 4.28 -7.41 9.08 8.16 -9.48 5.05 8.12 -9.8 -0.38 2.37 0.65 -1.64 -0.96 -1.79 9.79 3.54 3.4 -3.15 2.9 -3.76 -5.53 -2.72 4 -1.58 3.38 -0.35 0.41 -4.05 -6.17 6.75 4.01 -4 0.29 -5.79 0.27 0.94 3.88 8.01 4.17 -5.38 3.34 8.87 6.39 -2.91 -1.53 7.85 5.23 -9.28 -4.01 8.82 -3.37 7.5 1.69 -5.64 -9.59 -1.73 2.3 4.87 -2.12 -0.42 -8.83 -9.89 -3.98 -5.01 9.03 1.78 1.96 -8.05 9.73 -8.06 8.31 2.67 -9.15 4.07 9.61 -3.04 5.58 -0.36 -1.99 -4.9 7.34 5.54 8.06 4.25 5.58 3.9 9.98 -4.71 -4.83 8.48 8.97 1.93 8.27 2.23 -3.69 -9.34 8.01 -7.69 -2.52 -8.5 -7.74 -4.41 2.71 -9.12 -8.53 1.08 9.43 7.44 -1.23 -3.49 -1.71 -2.99 -0.31 -0.61 0.6 -0.77 -8.17 3.79 8.68 8.36 3.77 -0.36 4.47 8.23 9.67 2.71 9.96 9.96 2.59 -1.48 -2.47 8.14 -9.14 -8.5 6.81 0.33 -4.15 -1.34 -6.36 -3.65 2.06 -3.82 -3.39 -3.19 -5.29 -0.68 7.46 -9.96 2.56 3.59 -9.3 8.04 -0.29 8.96 3.97 -5.88 -5.27 1.21 -5.93 1.14 -4.77 0.77 3.8 -7.58 4.44 -7.9 -9.61 -7.13 -5.32 -8.72 1.77 -8.21 -8.77 -4.92 7.66 5.72 9.93 5.51 -5.75 5.54 -2.02 -1.25 5.89 -8.55 -6.72 6.75 -5.66 8.43 -2.95 4.7 -0.07 -7.03 -6.02 -7.64 4.57 0.27 -5.05 -8.48 -0.86 -1.01 -0.61 -8.06 5.79 7.01 -4.4 1.95 -7.85 -1.74 5.67 7.21 9.78 -3.71 -5.85 -0.63 -8.8 -7.74 -3.22 1.43 -2.15 -5.83 7.15 8.86 3.73 5.68 1.88 -0.17 -4 -5.79 9.47 -4.29 3.57 1.66 9.83 -2.97 5.76 -8.31 -5.41 -3.49 -9.75 -8.99 -0.03 2.9 0.58 -7.13 7.54 1.06 -0.76 -1.7 0.48 -5.26 -5.74 -9.27 -7.96 -6.57 5.42 7.72 -7.89 -1.25 -8.76 -6.09 -2.65 5.63 -1.99 4.66 -2.76 -3.13 5.71 -8.72 1.82 0.13 3.02 8.48 -9.05 -6.89 9.9 6.42 6.82 0.29 -9.74 4.15 -2.29 7.24 -7.04 5.56 8.35 7.93 -6.35 -4.83 9.78 -1.12 -4.03 -6.69 4.69 0.11 -2.02 1.48 1.95 -2.53 -7.04 -8.88 4.24 8.94 -1.97 6.32 7.02 -2.98 7.76 -3.52 -4.92 7.48 4.07 6.93 -1.03 2.35 7.94 -5.96 -9.07 7.89 -3.33 5.75 4.92 -1.76 8.31 0.7 5.88 4.08 0.44 -5.38 -3.92 2.88 8.65 0.33 -4.8 -7.23 -9.92 0.77 -1.73 0.6 7.61 4.3 6.99 -4.24 8.49 -5.98 3.96 7.72 -5 -6.01 4.23 3.9 -8.96 -2.68 -8.62 0.08 -7.54 -6.09 3.74 -4.74 6.23 -3.76 8.75 -2.85 -1.13 0.77 -9.51 -1.7 8.44 -5.06 8.39 -9.79 9.04 6.94 -6.35 2.77 4.71 -2.41 -3.14 -1.78 -1.77 1.96 -9.67 -4.82 -1.61 9.83 4.13 1.5 -8.55 4.42 -7.72 1.78 2.33 -6.68 2.21 7.39 5.26 -9.95 -7.9 -4.29 -0.7 -3.63 0.86 6.77 5.76 -7.74 3.56 5.85 8.93 -8.46 5.94 0.96 -7.55 9.31 -7.03 -5.55 3.91 5.42 4.93 1.47 5.51 -9.57 -3.81 2.72 |
5.63 2.01 -0.65 -7.73 -8.82 -8.61 9.2 8.86 -1.34 -4.69 2.27 7.26 -0.5 -8.99 -7.79 -6.07 -4.08 8.71 6.56 -0.02 8.9 -8.16 -4.42 9.6 -2.31 -9.8 -1.96 2.98 8.86 -9.29 -3.5 0.44 7.7 -4.45 -5.51 8.49 2.75 2.54 3.64 4.99 5.61 7.23 4.4 2.47 -9.6 -8.88 8.87 4.3 -2.27 4.73 -6.58 -7.47 -8.43 -4.52 -3.79 -4.81 4.3 -6.21 7.78 -7.31 -1.37 -3.34 -4.78 3.66 -0.31 5.03 -7.14 7.03 -9.39 -8.92 -4.94 1.62 0.98 -8.18 -3.44 6.37 -9.73 -9.91 3.38 -7.5 -4.11 -5.76 5.2 6.17 2.07 9.84 -4.78 -5.97 5.85 -0.55 5.62 5.71 1.93 2.56 -0.07 -6.01 -3.75 2.57 -4.09 -5.97 -9.15 8.78 -9.08 -4.78 -1.16 9.17 -2.68 -4.61 3.41 -3.64 9.97 0.26 -2.06 -1.67 -2.94 2.91 4.72 2.66 -6.27 -4.31 -1.22 0.29 1.12 6.57 -9.78 -3.72 0.69 -4.25 2.98 -2.62 -0.95 4.87 -3.33 -2.99 -7.48 5.62 6.3 -3.13 -0.9 9.15 -4.88 2.56 -9.7 0.15 -9.33 -4.67 -5.41 5.35 2.33 -6.35 3.29 -9.5 9.58 8.52 4.97 -4.03 2.1 3.9 -7.3 3.21 -7.13 -9.55 6.29 4.26 -8.76 -2.59 -0.04 7.78 -2.34 -8.27 -1.68 9.36 -9.68 -9.92 2.4 -1.73 0.7 2.6 -8.4 4.24 4.18 6.79 -6.95 9.76 -5.49 -1.41 8.58 2.41 -4.23 5.11 -4.35 8.51 9.2 -2.64 0.82 -4.24 2.23 -9.79 7.75 2.39 |
4.62 1.99 3.75 8.08 -0.54 6.5 7.45 9.82 4.01 -3.62 -2.61 9.68 -1.87 -2.42 -2.44 -5.65 -8.76 -1.08 -6.57 5.48 5.17 -0.26 -9.97 5.26 -2.89 6.33 -4.4 -7.76 0.61 5.89 0.81 0.88 8.58 5.21 -3.15 4.49 -1.35 5.46 2.2 -9.85 -2.65 -0.35 -1.02 0.28 9.94 5.9 8.47 -6.06 -9.75 4.48 -9.85 -0.01 -0.4 -8.14 -8.42 -6.26 3.4 8.53 1.22 4.97 |
