2.94 -6.88 4.22 7.37 0.74 -6.88 3.04 -0.55 -8.4 3.97 -0.58 1.14 -7.99 4.91 -8 5.3 -6.84 -5.35 -4.93 -0.57 -2.36 4.9 -4.34 4.8 -4.05 -8.25 -1.66 7.15 -0.19 -9.72 -1.73 4.8 -2.91 0.49 -1.21 -4.47 1.29 -9.41 7.78 -6.3 -6.36 3.6 -0.19 3.15 -8.25 9.18 1.86 -2.74 8.21 7.04 0.4 -1.04 -2.43 3.06 0.06 8.14 6.02 -6.28 -1.42 -4.8 1.82 2.45 1.67 7.9 0.33 5.82 -8.68 -1.15 3.15 -7.19 -6.57 5.9 -3.57 -1.97 9.03 8.67 -2.67 2.59 -5.27 -2.19 -4.27 -5.38 -1.43 -5.4 -1.55 5.82 -6.87 -0.81 -9.84 2.97 -5.79 -7.56 -2.57 4.97 -9.74 -2.26 -2.84 -8.22 4.11 -6.92 1.85 9.26 -7.47 0.4 1.31 -4.22 -9.61 -7.04 -5.4 4.24 5.01 -3.18 -6.45 5.61 -9.01 -0.62 -4.99 6.69 7.63 -7.42 -1.35 9.54 4.74 0.07 0.96 -5.83 3.37 6.02 6.71 3.25 8.27 -5.63 -2.01 0.48 2.79 8.9 -8.94 2.95 -6.39 9.06 0.8 -3.57 1.56 7.57 -5.69 -5.34 -2.31 7.36 -6 6.09 4.37 1.14 -4.93 -9.14 -5.2 -2.52 1.27 2.04 7.6 2.4 -5.29 -2.57 9.34 -4.47 -6.57 -1.42 5.26 -4.03 1.29 6.32 -8.32 -2.35 2.69 -8.46 -1.79 7.5 4.47 3.87 -4.74 -6.52 2.89 -8.68 8.41 -5.7 -1.47 0.84 -4.98 -7.55 -2.95 -5.79 -6.36 5.08 -8.34 -2.71 7.38 -6.85 3.73 0.02 -0.64 -3.2 0.19 3.82 2.09 -9.49 -6.81 3.04 2.72 -9.24 2.32 3.96 -7.55 -1.19 -5.02 3.39 -1.24 -0.37 -4.24 2.05 -1.85 -9.73 4.84 -4.77 6.61 -5.52 -3.88 -2.14 5.56 2.17 8.34 5.17 -5.22 3.7 -8.46 1.3 -8.98 -5.92 6.33 -4.99 5.54 8.9 -4.93 2.96 4.3 -3.23 -0.64 8.4 8.46 7.18 -8.84 -0.49 -2.41 -8.44 1.67 4.18 -7.98 6.48 2.27 -9.22 9.49 9.11 6.7 -2.3 -4.78 3.42 -1.11 -0.51 4.51 8.21 -5.98 0.35 1.16 -1.42 0.89 8.63 2.68 3.28 3.55 -7.58 -7.55 -0.37 5.58 4.77 2.68 9.23 8.46 7.07 -1.52 -1.89 -7.59 1.53 -0.43 8.12 -9.02 -4.82 -2.27 6.49 -7.93 5.66 4.09 6.08 -5.16 6.04 4.73 1.52 3.93 2.82 -1.12 2.44 5.72 -5.05 -2 -5.85 8.37 -2.04 -0.47 8.57 -3.29 -9.96 -4.31 2.4 -2.58 8.84 -5.88 -2.06 -4.49 5.12 3.85 9.36 -5.3 9.86 -5.6 -8.89 -3.3 7.5 -8.38 1.42 6.39 -5.28 -0.31 9.89 0.35 -1.56 -7.58 0.01 -5.9 0.72 4 3.04 9.67 2.6 |
-7.37 -7.3 0.96 4.22 1.68 -6.27 -0.67 7.22 -0.11 -7.5 6.42 -5.85 -7.25 5.82 4.59 9.56 -8.27 -1.64 -6.15 8.81 -5.43 3.67 -9.63 3.08 -0.24 -5.29 -2.12 -0.11 6.26 -8.23 -4.21 6.62 -0.54 -7.81 -6.57 -9.76 8.35 0.87 -7.1 -7.94 -0.31 -1.97 -9.14 0.87 5.32 6.68 -1.94 -0.67 -9.76 9.38 -7.16 -5.89 6.77 7.89 -3.19 -3.99 3.23 -1.24 0.78 1.43 -4.63 8.45 4.32 -2.17 2.81 -1.61 -6.72 1.87 -9.5 7.91 1.49 2.39 -1.89 -5.54 5.97 -9.55 6.89 -7.53 -3.74 -6.26 1.48 9.11 9.1 -5.18 6.39 -2.67 -7.7 -8.37 -0.62 5.04 6.95 -3.52 0.37 -5.01 0.56 7.3 9.91 6.4 4.9 4.86 9.78 -4.41 -6.93 6.5 -2.1 -6.28 -4.99 1.94 -8.51 9.47 -6.29 1.6 9.37 5.74 4.47 8.89 -1.92 -0.68 7.27 5.51 -1.53 -3.12 6.96 -4.37 8.12 -4.1 -0.68 1.61 6.55 2.24 5.44 -5.06 -9.03 -3.22 -9.97 9.87 9.74 -6.64 0.35 7.5 9.25 2.97 -5.64 3.87 -3.43 0.07 -0.49 -5.27 -3.14 -5.35 -2.03 -1.7 9.84 -7.35 9.42 4.83 -5.39 6.28 6.46 -1.98 -6.02 -8.36 -8.41 -6.02 -9.78 0.73 -2.77 -4.5 -0.84 -5.6 -0.63 -6.65 -7.54 2.61 -2.47 -9.83 -2.97 4.31 -3.79 -6.71 -8.72 3.03 5.14 -1.47 -1.74 3.79 -6.65 6.98 -3.44 -0.71 2.63 4.23 4.19 -4.06 -1.87 5.9 0.5 1.75 -3.66 -3.6 -6.96 5.2 8.51 -6.44 -6.64 4.93 3.15 1.31 4.38 -4.37 1.48 -2.38 -0.29 -2.83 5.38 -0.26 -2.55 5.65 5.85 -5.69 -9.77 5.48 9.15 -7.24 -8.64 4.16 -5.17 8.89 -0.76 2.59 -2.99 5.71 9.92 -9.42 1.8 3.66 -6.68 -2.03 3.14 8.52 -3.67 -2.3 -8.87 -7.76 -0.94 7.15 5.08 1.43 -5.42 3.96 1.07 1.6 -7.49 3.74 9.38 -2.68 5.28 7.93 1.75 -0.3 1.61 -4.82 8.17 5.86 9.29 -6.22 -3.52 -2.53 8.1 8.23 4.66 6.02 1.06 -8.12 3.24 -1.38 2.97 -4.6 -6.63 4.03 8.88 -3.1 -2.87 9.53 -9.03 -8.18 7.54 -5.95 -8.71 -1.98 -2.83 5.84 -0.14 4.9 -6.14 0.31 6.63 9.25 -1.01 -9.56 -5.83 -0.33 -1.95 0.54 5.08 -5.83 -5.54 -7.03 2.77 7.56 -0.22 1.22 6.63 -6.27 -7.47 5.76 5.32 -6.74 2 -1.03 -2.85 -2.77 8.47 7.66 4.05 -5.01 -2.04 -9.48 -3.21 -0.93 -5.85 0 2.63 -4.19 -5.75 -2.34 0.26 -6.6 7 -4.8 -3.5 4.27 2.05 2.32 -9.13 9.93 7.37 2.2 -9.15 8.87 -7.66 6.11 2.45 9.92 6.29 4.17 7.03 -7.77 -3.71 -2.59 3.9 -8.94 -4.03 -2.44 1.05 5.5 9.16 -5.69 -7.15 -7.41 8.39 -6.88 -7.59 3.13 -3.38 1.04 4.78 8.55 -8.63 9.88 -2.05 -4.27 4.22 9.38 5.16 -6.92 -5.97 -4.94 4.76 -1.26 -1.51 -4.06 -9.46 4.4 -3.19 -6.62 1.86 8.92 -4.31 -0.17 -4.85 8.82 0.82 -9.04 0.91 6.61 -8.12 3.07 -5.25 3.2 0.14 1.97 -2.53 7.54 8.92 -2.04 -9.49 1.56 -9.25 -2.34 -6.36 -9.76 8.62 3.02 7.44 9.57 2.29 -8.56 -7.79 0 -0.85 -8.29 3.79 -1.84 -0.26 5.97 8.25 6.67 -9.54 -2.8 -7.43 2.46 -5.7 -2.91 -4.91 -1.75 -2.68 -2.49 6.96 -2.77 1.09 0.41 6.7 5.69 -9.33 -6.56 -4.98 -7.35 1.22 4.93 8.36 -4.8 2.61 7.54 0.63 7.67 -2.34 -9.62 2.45 0.66 -9.37 2.99 4.59 3.51 6.57 3.22 -6.47 -7.08 2.35 3.99 4.54 -0.37 0.22 -2.73 1.63 -6.05 -0.91 6.25 7.53 2.06 -1.69 7.87 -5.78 -0.21 -3.44 -0.43 7.86 0.79 0.51 1.87 |
-5.29 -5.61 5.16 -7.04 2.69 -8.55 -9.81 -0.58 -5.95 6.72 4.34 -1.24 -4.88 9.16 -3.38 -9.51 -9.03 -7.19 0.97 -8.95 9.81 6.87 -0.14 -9.42 -4.05 6.24 7.82 1.63 -9.18 5.11 3.03 4.11 8.87 5.63 9.65 -4.23 -5.49 1.06 -9.35 1.14 -7.03 -3.72 -4.73 6.47 2.25 1.44 -2 -6.36 -6.16 0.32 1.74 -3.77 -0.04 5.39 8.83 0.6 -4.49 9.53 -6.69 -3.09 6.94 -0.88 -1.23 2.9 3.74 -1.94 -6.51 -1.36 -3.1 5.18 2.48 7.33 8.97 -9.36 -0.69 3.57 -3.1 4.46 -8.26 5.34 0.72 8.29 -1.69 3.9 8.17 -6.1 -4.67 -4.03 -8.12 1.59 -7.72 5.86 -5.85 -4.53 8.66 -4.36 -2.7 -5.38 -2.84 8.67 -5.47 3.53 -8.11 -1.51 9.59 3.45 7.91 6.05 7.22 4.92 -4.74 9.54 7.64 1.71 -5.38 -8.92 -5.03 -6.7 4.24 -1.91 |
