-2.16 -8.02 -2.39 3.86 9.03 7.73 0.7 7.84 -2.37 1.65 -4.13 7.29 -1.34 -1.06 5.33 -4.82 -9.86 8.17 3.67 -6.63 -7.07 -2.93 1.01 5.64 -1.96 -1.18 -6.74 -5.28 6.18 -0.88 -6.21 0.81 -2.17 -9.45 4.27 0.05 -9.01 -9.97 4.95 4.76 5.76 -9.7 0.27 6.88 1.55 3.07 8.97 3.95 3.81 2.76 -9.53 -1.32 -7.66 -7.9 1.17 7.03 4.15 -2.94 9.59 -1.03 6.74 0.66 -7.12 2.87 5.88 -4.43 -2.98 1.78 7.38 -7.75 -3.8 -3.81 -5.65 -9.09 -7.11 4.24 -5.28 -1.1 -5.53 1.01 4.66 6.19 -4.87 -2.8 2.37 3.13 -2.08 4.95 -5.34 -1.3 -6.98 -0.8 -7.36 2.7 -1.45 -0.44 5.94 -0.65 3.99 7.31 -1.65 0.07 -0.52 -7.2 8.09 -5.72 -6.45 5.14 -0.27 8.04 -0.9 9.2 -7.6 0.89 -4.05 -2.47 -1.98 0.18 -5.69 -3.68 -0.38 7.67 7.79 -9.93 3.89 6.12 6.71 -8.45 -7.19 8.6 0.68 -0.42 9.17 -3.58 -8.1 5.46 3.79 4.24 -8.75 -5.17 -4.89 7.73 0.63 8.34 9.07 -4.65 1.41 -7.43 8.8 2.43 2.85 4.39 -3.47 5.38 -3.38 8.77 0.9 -6.95 -9.11 -7.38 0.48 -0.69 3.88 -5.11 2.93 1.36 -1.44 -5.95 1.81 -9.4 6.12 -4.55 1.37 1.88 3.46 5.23 1.13 -7.6 3.45 5.11 -4.78 3.65 -9.35 -9.82 -1.88 -8.63 5.69 4.27 3.49 0.53 -3.1 -0.27 -7.58 -9.35 -1.29 9.66 -3.64 8.74 -5.13 -6.16 4.22 -1 -0.88 -6.31 -2.8 9.19 3.73 -3.66 -2.74 -4.75 -6.92 6.63 -0.45 0.36 5.72 -9.25 -3.12 3.23 6.18 3.27 -5 -0.19 9.18 -2.04 -3.62 -2.89 6.32 -2.32 -5.33 4.26 -8.51 -5.22 5.14 -1.81 2.03 -1.41 -5.91 0.28 -5.54 -2.63 4.48 -7.55 8.09 -9.78 -4.48 7.08 0.55 4.46 4.27 -8.41 -6.67 8.67 4.07 0.61 -7.65 -0.57 3.86 -9.08 1.65 8.61 5.1 -6.56 -8.12 9.89 0.76 -9.37 8.53 -0.67 -5.17 8.64 0.19 2.42 8.96 4.58 -0.06 -3.68 5.74 -1.43 -4.39 6.94 3.25 5.4 6.02 -3.94 9.16 8.04 -7.11 5.25 7.43 1.4 0.05 4.76 -4.55 -4.19 7.17 -7.95 -6.52 -6.5 0.28 9.19 -8.66 -8.02 -1.16 7.32 -1.67 -2.08 -7.35 -1.99 1.44 -5.69 -3.46 8.6 -6.52 -9.75 -1.44 -9.67 7.99 6.06 -7.29 -1.3 7.14 5.03 9.05 -4.37 7.3 -1.79 -6.42 -8.37 -3.75 -7.99 -6.33 -2.27 7.12 -8.7 0.39 4.64 1.92 5.76 7.49 8.82 -9.96 -3.18 2.53 -1.28 4.25 5.02 5.71 9.81 -1.49 -1.04 8.47 -8.16 7.25 -1.74 5.52 3.6 -5.15 -2.46 -3.08 3.68 6 -3.12 0.51 2.61 -5.74 9.71 -3.93 4.76 -4 3.54 -5.38 8.18 -2.45 3.75 0.23 5.29 7.77 0.78 0.11 -6.31 -6.65 6.03 4.71 2.56 -3.99 6.79 7.21 -5.5 7.03 0.68 -1.43 7.16 -0.24 -6.05 4.2 -8.15 9.27 8.77 8.49 8.96 7.24 -5.08 -0.31 -5.18 -4.4 -7.56 -2.87 -5.31 -7.76 8.72 6.38 -9.66 0.5 6.24 -4.89 8.83 7.11 -3.44 8.41 -7.6 -9.56 -2.71 6.26 -2.97 6.3 9.7 -1.51 -7.28 -1.85 -2.21 -1.85 3.08 -1.46 1.39 -2.7 -7 -4.48 8.46 -2.55 -2.82 9.68 0.65 -3.91 4.63 0.23 -8.73 -9.11 -7.28 -2.35 4.5 3.36 6.54 0.62 0.7 0.8 -5.85 6.37 8.3 7.51 -7.4 6.91 -1.33 7.23 5.06 9.04 -4.27 4.25 5.87 -3.99 -6.17 7.94 4.38 8.91 -6.1 -0.96 -6.11 6.67 -4.45 6.23 2.14 -6.68 0.19 -4.8 -4.45 0.87 9.47 5.84 3.48 2.34 -8.43 -1.25 -0.36 2.45 -6.38 -0.77 -4.71 1.74 -7.81 -4.42 -3.66 -5.4 5.33 -3.51 5.5 1.17 -6.84 1.33 -4.93 9.82 1.32 -1.7 -7.11 -4.05 5.93 3.84 -2.74 6.22 3.61 -4.18 3.74 3.98 2.06 0.28 9.66 9.22 -7.4 -2.12 -6.6 2.72 -4.13 2.55 1.59 -4.28 -5.1 -6.17 -9.57 -5.76 -0.73 1.7 -6.39 -6.75 -7.77 -2.34 8.6 -2.41 6.69 9.36 2.78 -5.61 -3.37 7.4 -1.67 -0.54 9.71 3.78 3 -0.4 -8.41 1.67 0.74 8.92 -7.94 3.36 6.21 -1.93 -3.93 5.22 -2.65 -1.66 7.15 -2.1 -6.56 -0.78 9.18 6.33 -4.36 -7.41 0.57 -4.13 -3.79 2.99 -3.71 1.72 -8.02 -3.06 0.48 8.23 -0.49 6.83 7.75 -4.8 6.89 -9.08 4.55 5.7 9.81 3 -1.53 -7.74 -8.06 4.09 -1.22 -3.1 8.17 3.64 1.11 6.61 -2.53 2.76 -6.7 4.77 -9.91 -5.24 3.92 -4.46 -7.97 -8.86 8.81 -9.5 -1.74 3.06 -3.25 -4.91 -3.6 -6.95 9.11 6.53 1.04 -4.46 -4.78 -0.97 5.12 7.8 -7.43 1.44 2.9 -8.47 7.8 6.44 -5.09 -0.66 9.41 -1 -1.44 -5.32 8.44 1.8 4.51 1.49 6.59 -6.73 -8.04 -7.08 7.03 2.9 8.97 0.98 -5.67 -3.27 -9.27 -0.43 8.8 1.03 -2.15 3.95 5.36 1.09 6.19 -0.77 -2.91 0.23 -3.38 -2.68 -6.09 -5.02 1.1 -6.18 -1.95 3.5 -5.92 -1.87 2.2 -5.69 -5.2 5.64 0.23 -5.92 -0.06 -1.39 6.07 -8.2 -4.66 -1.44 -0.65 4.67 -7.28 2.08 -4.92 -6.42 3.57 4.62 -6.26 -8.99 -2.6 -1.55 1.07 7.65 8.12 -8.62 -7.34 4.88 -8.97 5.71 0.65 8.93 -5.77 0.24 -8.32 3.18 1.23 -6.73 -4 2.61 5.66 2.46 -3.52 -4.39 9.92 5.45 3.91 3.45 -4.3 -3.33 0.83 -0.8 -2.91 6.48 3.65 -4.13 1.41 9.99 -7.6 6.76 7.37 2.8 5.8 2.73 2.9 6.88 -1.82 7.11 2.16 -0.38 -0.34 -9.88 -1.09 7.07 0.17 8.2 -8.64 4.58 -6.01 2.24 -0.03 -7.33 2.47 -5.73 8.33 7.85 -6.88 1.5 7.33 -5.21 -5.01 4.12 1.11 6.37 -7.06 5.54 -6.46 -0.59 5.43 -8.29 4.09 9.32 -0.54 3.45 6.69 -1.84 6.72 -7.18 8.14 5.8 -7.26 9.9 -7.35 7.61 1.77 -6.75 -8.32 9.42 -0.22 7.36 3.33 8.77 -8.33 0.44 5.53 0.34 0.65 5.45 -9.63 -8 -8.53 8.53 6.43 -1.82 -0.5 0.07 -9.99 4.86 2.49 5.08 6.16 -6.3 -8.29 9.97 1.45 -3.79 2.45 -9.34 -9.16 2.59 -5.12 -1.92 -0.97 3.42 -9.76 5.55 -7.12 -8.72 -6.05 -3.38 -1.86 -8.15 0.32 -6.94 9.64 9.03 8.18 -7.33 -3.85 -4.45 0.8 -8.98 8.57 7.18 2.47 -4.76 -0.27 -1.76 0.2 9.97 -2.55 -0.63 1.5 3.75 3.86 9.61 -1.8 3.37 -1.46 0.46 1.88 7.34 -1.29 -3.06 -5.72 5.13 -4.88 -5.48 -2.5 -3.79 6.48 -5.8 0.46 -9.14 -4.86 5.5 6.58 5.28 9.56 -9.38 -2.66 -0.49 2.74 3.49 4.73 0.8 3.14 -6.62 8.77 -5.5 3.91 3.65 5.17 9.94 -0.93 -3.41 0.56 7.71 2.04 6.96 -1.35 4.44 -1.32 -0.42 2.62 7.94 6.63 8 9.01 -6.95 -3.53 -5.18 4.6 -5.97 6.54 8.22 -7.84 -1.23 7.86 7.68 -5.43 -2.59 2.48 0.53 7.55 -7.97 5.52 -9.13 -1.77 -2.8 8.87 8.58 6.27 6.5 4.14 -7.48 4.91 -1.3 6.95 6.51 -1.37 -5.63 -4.48 -8.92 9.92 -3.51 -8.83 -5.36 -7.62 -2.96 1.07 -0.32 -0.53 -5.17 8.09 0.06 8.17 2.17 5.43 0.1 -6.98 -2.07 -8.95 -7.5 4.42 -7.9 9.29 3.51 -5.9 0.04 7.05 7.52 -3.62 0.82 -3.39 4.89 7.93 -2.36 2.43 -2.52 -6.14 -6.66 -4.56 8.13 -5.83 0.94 7.53 3.77 -7.92 2.04 -6.78 -8.61 -5.41 -3.1 9.45 1.11 7.98 4.7 4.47 -4.97 -1.45 3.52 2.2 4.9 -6.82 -2.28 -5.76 1.34 -9.34 -2.85 2.53 -5.61 0.08 -6.61 -3.12 -8.37 -6.67 4.15 -6.96 -6.7 -5.89 -5.41 9.04 9.07 -8.51 -6.47 -4.68 1.48 -2.37 8.89 0.65 -3.41 -3.02 -4.72 4.95 9.46 3.26 -7.96 1.25 -7.46 -2.4 -6.62 0.72 8.78 -2.08 8.62 -7.65 -4.49 -4.59 5.91 -4.21 -3.51 -2.94 5.57 4.37 -8.04 -3.47 -3.09 9.95 -6.29 4.45 -7.81 -9.92 8.11 9.54 -0.85 3.66 1.3 5.46 -1.75 9.28 7.81 -1.26 -2.87 7.51 7.62 7.53 -6.54 -5.31 9.52 6.99 8.4 1.53 -6.08 -5.57 -1.54 -3.5 -1.14 -4.27 -4.2 -4.2 -8.04 -3.42 -7.01 -6.75 -0.22 4.64 -6.41 -8.74 0.3 -8.91 8.88 -9.19 -4.12 8.92 -2.62 4.96 -6.87 1.14 -4.09 5.45 7.67 -8.83 4.14 7.91 2.49 5.61 7.09 4.86 -0.25 4.5 0.06 0.03 -4.84 -2.84 -9.61 6.99 -7.15 -1.79 0.12 -7.35 4.39 2.31 8.78 -5.93 9.32 7.22 7.38 -3.99 1.93 2.85 -0.59 4 5.98 1.29 5.73 1.92 -8.59 5.83 -7.15 2.78 1.78 5.38 1.13 -2.36 -3.31 -3.44 -7.97 -8.2 9.59 0.16 7.57 7.12 9.21 3.06 -3.97 -6.34 -4.81 -7.15 -7.82 -9.43 4.19 -8.75 2 6.97 -7.28 4.68 8.9 7.51 -9.54 3.83 4.96 -8.96 -1.39 9.96 -4.92 7.26 3.1 -4.29 8.03 5.65 2.02 4.53 -6.18 1.35 8.65 -1.84 -8.01 9 -1.43 -8.95 3.01 -6.11 5.36 -0.98 7.82 0.73 -3.23 1.17 -7.44 -0.58 3.46 6.31 -6.23 -6.07 8.13 -6.96 3.29 -2.15 4.4 7.87 -8.34 -3.82 4.28 -8.87 -2.45 0.29 -4.12 -7.03 9.14 1.98 -2.09 -2.28 4.95 1.04 -9.64 8.64 7.27 -5.32 -8.18 -7.97 -6.03 -4.76 1.31 -9.85 3.99 -4.17 -9.76 -7.31 -6.21 -1.65 -7.73 9.02 9.86 6.58 3.13 -4.71 -1.06 -5.68 -1.35 9.17 3.46 -7.92 -0.65 -9.48 -4.55 -1.79 -5 -6.39 -0.06 2.3 -7.2 0.6 -5.94 -3.96 5.59 -7.36 -3.68 7.7 -2.01 -7.74 -8.65 -8.45 4.32 9.96 8.52 -4.18 8.36 4.42 -4.42 2.14 3.64 3.65 4.73 -0.49 9.23 3.36 -8.83 -4.74 -5.44 1.34 9.51 -7.46 4.7 -8.48 -3 -9.29 -5.31 9.89 8.06 -2.69 -3.08 4.51 8.73 6.5 -4.47 9.8 -2.65 9.83 -8.71 2.08 -2.96 9.74 9.05 8.59 2.79 -9.75 5.89 -7.47 9.04 4.87 7.94 -3.57 9.63 -9.33 5.34 -3.16 -7.18 7.81 4.43 8.72 8.46 8.53 3.13 3.5 -4.9 3.9 4.6 6.13 6.72 8.97 7.47 8.64 -3.79 -0.32 3.39 3.07 -7.1 4.02 -3.82 -9.85 7.89 -3.12 -4.54 9.33 -1.16 -1.61 -8.63 -4.77 1.39 1.63 -4.81 1.21 -6.9 -7.69 4.61 -1.61 3.52 -0.63 -4.8 9.71 7.35 -8.14 6.34 8.88 6.97 1.06 -9.03 -9.7 1.82 -3.06 -4.53 7.58 -3.59 -7.21 3.52 -2.75 5.42 0.82 8.89 6.71 -9.63 -4.77 0.93 7.01 -8.38 5.6 -7.71 -2.67 2.7 -7.67 2.1 -7.4 -7.81 9.23 4.68 -9.69 -9.54 -7.34 -4.19 -8.41 2.96 0.54 -3.66 4.68 1.25 9.96 -9.73 -3.91 -9.32 9 -3.91 -3.82 6.66 -7.13 -2.39 4.74 9.66 7.1 -5.8 6.66 0.59 8.3 4.48 0.23 3.98 4.92 1.24 1.73 1.53 3.55 -3.03 -0.68 0.14 9.88 0.61 4.19 -1.44 -1.94 -0.6 -3.12 5.93 -4.81 -6.88 6.03 1.73 3.79 |
-1.89 1.96 -4.75 9.76 -0.94 -1.27 1.12 2.26 4.61 -6.36 -9.6 -3.55 -5.94 7.06 1.4 2.2 6.69 3.8 -6.93 -9.1 -6.94 -9.38 1.13 3.81 -3.38 -2.3 1.84 -5.57 -2.41 -8.14 -2.82 -7.78 5.62 0.34 4.51 -5.22 -2.34 4.47 -7.85 4.77 2.63 6.34 6.81 -0.29 1.12 -2.07 6.92 5.58 -9.75 -1.77 3.34 8.69 -1.56 -0.14 -3.39 -4.11 6.34 4.91 -4.75 -5.72 -8.93 6.65 0.1 9.84 1 -5.94 -0.36 4.35 -4.07 -6.54 5.27 -8.9 3.54 4.84 -2.45 -5.63 2.18 -8.74 -2.8 -9.28 1.36 6.92 9.18 -6.69 -9.22 0.53 2.11 5.78 9.33 0.44 5.14 3.3 -1.47 8.68 9.49 1.52 -7.21 -8.03 -7.85 -3.25 5.75 5.66 -1.62 9.52 6.86 6.41 9.5 -4.87 -0.92 6.08 3.78 -9.45 5.58 4.8 -0.87 -2.24 -1.89 1.42 -9.65 9.48 -8.74 -2.33 2.2 9.17 -2.29 9.61 2.72 4.01 7.97 1.14 -5.14 -2.95 2.18 1.11 -3.06 0.8 -8.66 -5.62 4.17 3.02 -7.59 -9.32 5.43 9.84 -0.83 -2.53 -8.9 -0.65 0.97 9.87 8.8 -1.22 -6.01 1 -8.12 -1.31 -6.53 7.26 2.58 -3.95 5.07 5.11 0.95 6.06 3.66 3.09 -4.88 5.74 -4.38 -8.34 -3.34 8.75 -9.55 -9.53 -9.32 2.48 -6.33 -8.81 7.28 9.01 6.14 5.45 -8.57 1.91 6.07 -0.25 6.09 6.12 7.45 3.85 -4.33 -4.41 8.76 2.5 -3.65 -6.35 -9.77 4.95 9.15 6.69 |
-6.21 9.9 2.06 1.95 -6.28 -6.66 -2.66 2.08 4.93 2.13 2.6 -2.66 9.81 8.72 -9.63 -0.53 6.35 8.44 -0.3 0 2.85 0.17 6.58 -1.07 7.86 -3.24 -3.32 -1.51 6.75 7.33 -4.86 1.59 -3.74 -4.85 -3.59 -1.2 5.64 -7.3 1.53 -3.41 3.39 7.65 -3.58 -2.55 -9.01 5.5 -0.99 -0.18 4.63 9.58 6.97 1.73 8.2 -8.19 1.54 2.2 3.63 -3.09 -4.46 4.92 |
