-2.63 -1.55 9.28 -4.34 5.73 -8.59 -8.45 9.16 -6.58 -2.53 1.93 -0.13 4.76 6.31 7.79 9.19 -4.86 -9.45 8.72 8.6 6.91 1.92 2.88 -2.4 -4.48 -3.84 2.67 -7.86 7.04 6.15 7.51 -1.79 -9.58 1.03 1.9 8.46 2.46 -1.26 1.47 -8.07 4.54 9.03 -4.69 9.03 -1.98 -5.23 1.58 1.11 -6.39 1.42 5.17 5.05 -1.64 -3.81 -8.61 9.16 -1.98 -1.76 3.76 7.27 -1.05 2.8 -2.32 -8.52 2.93 2.89 -5.44 5.73 -1.71 3.01 -2.39 4.02 6.93 -2.7 -6.57 -8.15 -6.45 -3.31 -3.79 -3.65 8.14 -5.58 -1.63 9.77 -2.81 -5.3 -9.48 8.94 8.1 9 3.9 6.73 -9.55 8.45 4.31 -9.49 -7.91 8 5.6 -3.84 -8.78 -5.12 -5.11 7.25 3.27 0.74 -3.32 -1.42 8.99 6.68 8.64 -0.92 0.14 4.76 -6.63 2.22 2.35 -0.77 -2.84 2.42 0.79 -3.45 -9.88 -7.88 1.79 -7.28 -0.88 9.67 4.02 2.68 5.17 4.96 -2.31 -0.48 -2.29 -0.94 4.27 3.61 6.4 4.97 2.34 1.28 1.77 -4.32 -1.8 -2.66 6.6 8.32 -3.34 1.58 1.38 -7.58 -6.03 -7.09 0.99 -3.75 7.19 5.36 -0.46 -5.79 6.46 3.06 2.18 -5.98 -5.67 -2.65 7.3 -5.54 -3.45 6.03 5.62 4.03 -7.43 5.57 -8.97 -1.63 -7.42 7.21 1.13 -4.46 -4.47 3.75 0.13 -0.2 6.22 -7.9 -7.22 -6.34 -4.81 -9.65 1.75 -0.19 -2.95 -9.63 9.34 8.31 -1.29 6.19 -5.36 9.83 -5.24 9.39 -2.81 -8.88 -3.95 7.62 2.28 4.17 -3.31 -1.12 -6.53 3.52 0.17 -0.82 2.46 -3.35 -3.99 1.81 -5.33 -3.99 8.64 -8.9 9.82 -3.29 1.26 6.23 -3.17 -8.55 -0.48 -6.6 6.08 -1.6 0.52 -7.76 -7.94 2 -6.42 -9.06 7.34 -0.44 6.09 0.97 8.99 9.17 -8.29 0.65 -0.02 -9.66 -0.9 -6.89 1.48 -2.74 -3.33 -8.77 -6.26 6.35 -1.13 -5.06 9.05 4.04 4.04 1.34 6.82 7.12 2.78 2.5 4.53 1 -2.53 -8.19 6.66 -4.33 -7.3 -8.45 4.53 1.37 4.43 8.58 -7.03 4.91 -2.64 -8.11 -7.61 5.47 -0.64 -5.26 1.58 3.39 -0.55 -0.44 7.47 2.57 3.47 5.53 2.9 0.42 -1.74 7.43 -5.37 0.33 6.21 1.4 7.36 4.18 5.75 -0.42 -5.14 1.2 1.87 9 -5.24 5.47 5.48 -0.52 6.57 -8.54 7.87 -8.72 -5.79 -7.64 -5.77 7.09 -3.64 7.13 -4.41 -4.74 -1.7 -1.49 -4.21 -5.06 -3.49 -6.78 -3.29 -6.03 0.14 1.88 -3.6 2.91 8.89 -2.11 -3.13 0.29 -0.83 -2.91 -4.68 -9.63 -3.79 6.33 -0.06 -2.37 -7.88 9.74 1.63 9.68 -6.19 2.99 -5.32 3.39 -5.97 -6.13 -6.82 1.95 2.3 -6.03 2.12 4.47 -3.71 -1.62 -5.85 6.2 5.25 -8.47 1.34 6.57 -9.77 -5.51 -4.54 -3.33 3.32 2.6 -9.43 4.9 -5.53 -8.08 -8.24 4.56 0.92 -7.27 1.84 5.67 -4.41 8.01 -1.25 -7.31 2.64 -4.67 8.95 2.6 -3.14 -9.17 4.91 9.53 -6.99 7.34 -2.94 -2.79 5.26 -0.3 7.91 -0.75 -7.94 -8.06 -8.45 -1.65 8.27 -4.84 -6.81 -0.39 1.32 -3.22 5.51 3.69 -8.48 -6.68 -8.72 5.72 8.52 3.99 -0.49 3.01 -0.78 5.75 -1.24 -5.94 0.53 8.62 3.35 6.12 -6.35 6.6 1.36 -8.7 1.41 -4.95 -9.84 1.9 6.49 -4.57 -8.6 6.92 -3.2 -5.05 -6.92 3.84 1.61 9.16 0.77 8.94 -3.19 -1.56 3.86 9.14 -3.95 -8.69 7.88 -9.24 0.53 6.49 -1.81 -3.63 -1.33 7.76 -1.8 4.4 9.98 0.56 0.6 -2.32 1.7 -7.88 -5.06 9.58 -2.82 -8.93 9.15 0.07 -0.31 -2.56 -3.83 -0.23 -1.92 6.85 -2.08 7.27 -2.07 3.6 3.1 7.01 -4.93 -0.4 -8.71 -1.2 3.72 9.27 1.97 -2.78 7.76 -7.99 4.69 -8.47 -0.54 -6.68 2.76 7.04 -9.65 7 1.22 -1.23 3.37 -5.72 -2.35 3.52 1.41 8.59 -4.93 9.86 -5.97 -1.07 -7.58 2.75 2.79 -1.41 2.99 0.17 2.66 -8.38 -3.19 0.14 -9.28 -7.86 8.85 -9.09 4.06 -8.11 -7.89 4.56 -4.56 -0.68 2.19 -1.94 -0.44 -5.84 4.58 2.31 6.8 2.7 5.81 -6.45 -3.39 0.35 -9.6 -2.39 -8.71 2.54 -7.33 -1.46 -0.75 0.87 4.92 -4.21 1.56 -8.11 6.58 -4.7 4.71 -6.51 8.93 9.1 -8.22 2.37 -5.95 -9.53 -7.69 2.06 2.35 -4.83 -2.71 -9.56 -2.51 -5.89 2.36 5.94 5.21 4.92 0.57 6.96 -5.67 -1.25 -2.82 8.62 5.62 -3.67 -2.47 9.82 -5.99 -0.91 -8.16 -7.49 9.96 1.63 -4.6 5.36 6.06 -7.51 7.98 -5.55 2.4 -3.64 -8.04 -4.29 -5.79 -9.51 -6.32 6.3 0.17 -4.78 4.35 6.75 -8.71 -4.38 -8.36 6.41 9.14 0.15 -3.04 -1.32 -5.59 9.82 4.08 -2.11 2.77 -9.07 8.47 -8.23 9.9 1.86 2.25 8.91 -5.25 -4.65 -7.4 -2.42 -2.54 -8.45 6.97 9.2 -2.81 7.38 2.86 5.33 -5.33 -7.98 -1.57 2.06 8.85 -5.53 6.89 4.28 -7.41 -3.89 2.19 3.48 -8.4 6.61 -6.9 6.63 3.03 -7.87 9.32 0.96 8.03 6.97 -6.11 -4.05 -9.05 9.61 -2.02 -2.92 1.3 -7.52 1.79 0.13 7.22 -2.04 5.7 9.28 9.32 -8.15 8.66 -6.73 8.83 0.12 9.58 3.78 -2.69 -4.37 -6.31 -8.5 -9.4 7.36 1.22 -9.9 -3.92 0.37 -6.46 4.54 -5.21 -9.53 6.36 9.57 -4.85 5.03 5.61 9.32 -2.72 -7.94 3.9 -2.18 -0.7 7.47 2.93 1.52 -8.48 -8.04 9.74 7.92 0.89 3.51 -7.59 -3.6 4.81 -2.5 0.72 1.72 7.33 6.76 4.51 7.9 -9.33 3.63 -4.63 1.5 2.55 -8.81 0.33 -2.69 -1.4 7.61 4.04 -0.62 4.74 0.17 9.09 4.19 -7.46 -6.29 -0.62 4.35 3.04 -3.23 -9.98 -3.11 9.8 -7.27 4.19 3.65 -7.53 4.42 -1.01 9.96 3.46 6.29 3.78 9.91 -7.28 -7.24 2.43 -2.68 9.42 6.03 -1.47 6.53 -9.53 5.63 -3.62 -2.08 -2.3 -2.02 7.53 -6.33 4.28 -9.91 -1.09 -9.3 -9.84 -0.92 7.71 2.63 8.46 -2.44 4.88 -8.73 8.19 8 -9.16 8.2 -0.3 -6.55 -2.19 4.62 6.01 -8.6 6.82 -0.63 2.49 9.93 7.98 9.09 -7.44 -4.9 5.93 -0.17 5.95 -8.58 -4.92 2.18 8.09 5.77 9.07 -5.48 3.06 -1.03 9.51 -5.2 -9.99 -2.87 9.71 1.1 -6.86 -3.56 -0.06 -1.39 -4.58 2.42 -2.27 -5.56 -5.87 -2.52 5.62 -2.02 0.98 -8.06 3.56 3.94 4.5 -4.1 -8.24 3.39 7.99 3.71 8.49 8.6 -9.7 -8.63 -5.32 -2.6 5.97 -5.6 -8.37 -1.96 5.8 0.49 -6.54 4.58 4.11 3.98 6.27 -7.99 -3.08 9.18 0.41 -5.3 7.77 -4.64 -3.97 4.46 -1.34 8.14 -9.88 2.61 1.16 5.31 -0.54 5.1 0.63 9.44 -4.86 0.84 8.3 3.74 -1.83 -7.89 -9.44 6.44 7.56 -3.72 -5.83 -1.8 -2.09 -9.96 7.23 -6.38 3.27 -4.63 -7.46 -6.83 -0.87 -4.8 0.73 -4.77 -7.75 -4.87 -3.91 -2.12 9.87 3.69 -0.08 -2.98 7.01 -2.17 -0.19 -1.94 4.1 -3.13 -8.06 -3.22 1.43 2.39 -7.19 -7.15 -4.68 -6.55 -2.6 4.88 0.35 -3.98 -0.79 -8.42 5.22 6.94 -0.49 8.11 3.82 0.46 -6.08 -9.9 -1.99 3.69 4.5 0.78 4.85 1.77 -4.61 -4.95 4.71 3.78 6.21 8.38 5.02 6.52 3.96 -2.45 -0.03 3.78 5.71 -5.86 1.31 5.62 -6.05 9.76 -4.33 6.23 2.52 -3.77 2.98 8.04 -7.33 -0.96 2.15 -1.84 0.56 3.04 7.37 -3.71 -1.11 7.77 3.47 3.62 9.17 -3.79 4.71 3.58 7.62 5.46 1.27 3.28 -4.41 -2.42 7.48 -4.12 7.42 8.96 -8.47 -3.66 -9.79 -8.2 4.39 9.1 6.16 6.94 -9.7 -7.41 9.21 -1.19 -8.2 -9.63 -0.07 4.51 -7.49 -7.57 8.55 -6.28 8.14 8.07 -7.67 -3.29 4.7 -3.82 -3.98 1.18 -6.36 -6.43 2.87 5.2 -2.15 -2.03 3.83 -1.44 -5.52 -1.49 -2.17 8.96 1.11 6.73 -2.34 0.98 5.44 9.55 3.12 -5.45 8.57 9.4 -8.44 -3.7 -7.77 3.85 -3.92 -3.68 8.48 2.24 -2.04 -4.17 4.61 -2.36 -0.9 -8.66 1.47 -7.53 -8.85 0.82 -5.08 0.37 -8.62 7.95 -6.15 9.14 -7.84 1.83 5.84 -1.52 -9.38 -1.63 -2.3 3.78 -6.79 7.81 -1.05 -4.78 -3.91 -3.49 6.49 1.36 -2.59 3.65 -6.42 7.45 7.57 3.16 2.87 -1.49 -1.18 -6.4 -6.29 -5.36 -6.07 0.19 1.7 -2.22 -6.92 -5.59 -5.11 -9.14 -9.78 1.96 5.74 6.6 8.42 -9.04 -5.94 1.65 -6.24 8.3 -0.41 2.63 -8.01 -8.68 -3.34 6.73 4.01 3.65 -2.56 4.37 -1.25 1.42 -6.42 9.76 -1.85 5.73 8.03 -3.39 9.39 -2.01 -8.84 4.44 -7.25 8.18 -8.24 4.77 1.66 -7.74 0.78 -9.16 9.15 9.21 -8.94 4.44 4.85 2.28 -8.94 -5.83 -7.96 5.96 -0.26 6.47 -4.98 6.9 9.69 -4.23 -0.79 7.55 4.84 -6.36 -0.71 -8.21 -9.14 -7.08 9.15 0.37 1.56 -2.45 -3.53 4.38 5.66 -0.17 1.61 1.47 -5.37 2.28 -3.6 -3.33 -9.94 -7.63 -3.49 -9.52 1.77 5.74 8.69 9.36 3.58 9.83 9.03 1.38 -6.8 -5.9 5.79 6.4 -4.83 -0.69 -2.4 -0.41 -0.19 -7.44 -4.12 4.39 -5.89 9.66 -0.56 -0.74 -5.31 -0.73 8.2 -9.68 2.18 -0.62 8.52 -6.55 -9.56 -4.82 -4 -5.55 7.74 -0.16 -7.23 -8.03 7.73 -6.1 -1.51 -8.73 -4.28 1.94 -7.98 5.36 -2.42 7.12 -1.54 9.73 0.18 7.13 -8.04 -1.69 5.3 3.5 3.36 -0.87 -7.92 -0.82 -1.39 -8.77 -3.63 1.88 -2.09 -6.11 -6.42 5.65 -2.43 4.44 4.98 -1.24 -4.08 -5.63 -0.53 2.31 -2.7 6.38 3.97 -5.3 -3.04 -6.95 -2.71 -0.66 4.84 9.21 8.81 4.11 6.54 3.85 -3.74 -2.89 4.4 -6.71 -1.09 9.73 5.35 -8.65 -7.53 -0.29 -1.94 1.2 -6.85 -6.24 2.77 -2.87 -0.17 2.62 3.47 6.09 4.69 9.24 2.59 -1.77 -7.09 -8.51 -3.18 -6.92 -7.03 -1.83 -1.46 -7.78 3.18 7.85 -3.63 -6.22 -4.39 -7.85 1.6 -7.66 -7.53 4.68 -7.1 7.88 0.01 -2.28 0.45 9.06 -3.58 3.35 2.38 5.73 1.14 -1.64 -4.7 -5.97 3.93 6.54 6.91 -4.88 4.11 3.19 -0.25 -9.87 -2.77 3.38 -1.71 -4.73 3.75 -4.95 6.67 0.77 -3.81 -9.88 -6.29 8.95 -1.91 -5.77 -7.08 8.88 -2.45 0.28 -3.84 7.84 4.06 5.34 2.47 3.04 0.62 2.99 5.49 -9.66 -1.6 -3.45 -4.34 1.69 -1.52 -7.22 4.16 1.05 9.62 -3.78 6.13 -2.46 -4.21 -7.91 -0.44 3.3 4.3 -0.04 1.55 -9.12 -4.08 -6.08 -0.37 3.77 -5.21 -6.8 4.47 5.54 -5.1 -4.5 1.1 -7.31 -4.58 0.45 4.63 8.65 4.32 -8.39 -0.61 4.78 -0.07 2.95 -2.68 -3.34 -5.64 -7.76 -1.8 -9.72 0.55 -0.73 8.57 5.07 -1.92 -0.02 -0.77 -4.3 -8.88 5.2 7.05 -0.18 -1.55 2.54 -8.34 -5.17 6.29 -6.82 -9.79 9.13 7.72 -2.69 -4.9 4.01 9.41 -7.72 -7.69 0.84 5.83 9.65 -5.47 9.08 -7.93 9.26 |
8.48 5.07 7.05 8.55 -8.97 -9.42 4.16 1.45 8.44 5.19 -6.11 -7.93 -0.32 5.91 3.54 -4.96 -5.65 3.52 -3.59 -1.45 5.74 1.46 -2.8 9.31 6.59 3.01 2.93 0.68 -5.33 -9.46 -8.96 -4.4 1.38 3.25 -1.35 9.59 5.15 -9.63 -0.37 5.16 4.77 -5.8 -9.1 6.54 8.27 -2.05 5.07 -7.01 4.25 -7.19 -3.28 3.85 4.41 -8.48 8.21 2.88 -6.32 -6.21 -0.11 -8.57 -4.58 3.78 -8.18 -6.73 -9.58 9.68 -8.84 3.14 7.64 -4.41 -0.04 -8.64 9.27 -6.41 -8.17 -8.11 7.05 -4.33 -8.91 -6.29 -0.68 -0.87 -9.21 -6.76 5.11 -2.75 -6.22 -1.89 2.83 -1.03 8.42 -7.99 -7.27 -5.96 -4.81 3.41 -5.07 7.3 4.71 6.38 0.89 -0.6 -8.11 0.53 3.49 7.58 3.05 1.17 -3.59 0.95 -0.9 5.57 0.96 -9.09 -7 -6.59 1.05 7.78 8.07 -3 4.74 -6.14 8.42 -8.75 4.69 -9.44 9.46 -1.27 0.1 -5.76 -1.17 -4.12 9.25 0.14 4.61 3.74 8.17 9.87 -9.77 1.69 6.2 -4.01 0.03 -4.17 4.22 4.56 -6.42 -8.53 -0.66 -5.37 3.95 6.2 -2.8 0.46 -2.46 -4.99 0.14 1.75 5.92 9.74 9.41 3.18 0.93 4.71 4.75 -6.9 -4.46 -4.87 -3.31 -1.56 9.83 -0.43 -1.57 3.44 3.05 8.54 6.65 -2.04 3.71 -0.32 0.42 -2.29 2.8 0.35 -5.17 5.65 4.94 -5.46 5.38 1.51 -1.8 3.04 3.18 1.78 1.86 -3.37 7.56 6.59 2.77 5.67 |
7.9 5.61 -2.24 9.65 4.21 -3.77 -6.61 6.84 -4.38 1.89 0.07 -4.4 6.36 -5.59 1.53 -3.64 -10 9.15 -7.15 -1.88 -4.46 -1.06 2.35 1.01 0.54 -5.79 -8.19 -1.23 9.22 -3.19 5.15 9.81 -7.66 -8.18 9.61 -5.19 1.34 -1.61 8.81 8.46 5.65 5.78 -8.31 -2.74 -4.03 9.25 -9.32 -7.84 -8.76 -2.35 -5.19 -1.22 7.36 -4.05 -9.48 8.08 3.27 -4.07 -9.96 -0.61 |
