-1.3 3.37 9.02 -5.74 -8.63 8.4 2.1 9.15 -5.69 -3.84 5.19 -1.8 9.15 -8.9 2.16 8.65 -9.3 4.47 5.35 5.1 -9.81 -4.36 -1.26 2.62 -2.57 -8.09 -4.22 -5.06 3.34 3.89 6.22 -0.35 -4.82 3.6 -3.11 0.64 -2.23 -5.87 -4.56 6.38 6.9 8.46 -5.51 -4.72 -0.49 -8.27 9.81 -6.16 3.68 -4.82 -8.42 0.28 -9.82 -6.23 8.4 9.04 -1.82 -4.58 7.37 0.72 0.63 -2.03 3.71 -2.07 -0.75 6.73 -6.3 3.86 1.58 0.43 8.84 6.86 -9.21 0.16 3.52 -0.1 -4.54 -5.03 4.22 -1.61 3.72 -9.65 -2.43 -7.39 -6.74 -1.75 5.94 7.25 -5.66 0.16 -3.06 3.9 2.54 5 7.54 -9.96 7.67 4.32 1.76 9.6 6.26 4.84 -0.39 -4.71 1.45 -8.78 -7.3 7.56 -9.49 0.14 -6.9 0.93 -8.93 -2.8 -6.22 6.72 5.42 8.7 0.38 -0.8 9.05 -0.62 -7.91 1.97 4.17 -6 -2.76 5.49 8.71 2.29 -2.8 -2.1 -5.54 -5.93 -4.72 -7.21 9.27 -9.63 8.83 -3.47 2.83 7.23 -3.14 5.14 1.1 7.55 1.8 -9.43 -9.17 3.54 2.8 -7.83 5.61 9.47 2.4 -1.64 0.38 -4.46 -9.99 -1.35 -8.06 -7.67 8.73 3.97 7.31 -4.14 -5.94 -4.07 6.09 -3.78 -5.09 4.85 7.87 6.84 6.4 6.87 3.76 -7.38 9.56 -4.19 3.62 -8.3 5.48 0.05 0.34 -5.13 -0.83 0.49 -3.25 9.42 8.73 3.34 -5.73 2.6 -8.38 7.97 9.36 0.02 8.73 4.22 -6.21 -0.82 -9 5.02 9.92 1.1 -3.31 -4.44 -0.88 -2.47 9.18 9.89 8.78 -9.42 -0.08 -1.4 8.05 -3.88 2.35 9.33 -3.5 4.04 -2.81 -8.14 -7.57 5.73 3.84 -7.15 6.92 -4.71 0.18 -1.8 3.5 2.03 -3.38 3.73 -7.09 4.89 -9.87 -8.27 -3.19 -6.96 8.13 -2.58 2.91 -5.31 -3.86 -7.6 0.17 -4.12 -5.87 6.51 3.09 3.43 -5.96 5.58 5.68 -1.04 -1.61 -3.81 -1.82 1.8 -4.58 -2.62 -9.28 6.13 -8.25 1.36 -2.33 -4.78 -7.54 5.65 5.95 -3.54 5.2 -0.02 -9.06 3.76 7.82 -3.16 -9.95 -5.13 4.45 0.73 7.11 8.38 -7.23 -3.89 1.31 0.48 1.97 1.55 -2.78 4.9 9.27 1.16 -2.91 1.67 2.21 -7.08 -6.25 2.37 -5.42 -6.68 -4.18 9.25 -7.95 -7.65 6.32 -4.34 2.81 -0.44 7.65 7.9 4.21 6.62 -5.43 0.52 -1.89 -0.45 -0.97 0.07 9.14 -5.26 -8.53 0.08 1.06 2.62 -9.37 5.95 -2.07 8.58 7.43 2.16 4.03 0.48 -2.78 6.55 6.52 -9.52 3.8 2.25 7.99 -8.25 -8.56 -8.1 2.41 -7.52 3.43 -0.82 |
-9.91 4.47 1.03 6.26 4.99 -4.84 4.94 2.41 -0.71 5.33 2.03 -4.5 -4.17 5.83 1.86 -9.45 1.56 5.89 6.45 2.31 -5.79 -7.91 7.08 8.92 -0.54 4.56 9.04 -7.12 -0.26 6.3 5.14 8.65 -6.67 -4.7 -6.08 -7.58 2.75 -8.41 -9.7 3.47 8.91 1.32 -9.91 -5.79 6.26 1.7 5.17 9.07 2.29 -3.12 -7.15 -0.47 2.73 7.12 4.04 -8.56 1.13 -4.27 2.33 2.56 2.41 3.34 2.11 5.82 6.41 -9.3 -4.59 -8.38 9.57 -9.85 -4.62 2.49 -6.4 -0.43 -0.55 4.68 -0.64 9.95 -5.12 -1.99 -6.57 3.31 0.54 7.18 -6.11 -8.21 -3.47 -2.49 -1.12 -6.79 7.01 1.13 -7.98 -9.86 -1.92 -3.58 -2.29 0.51 4.75 -8.42 -7.67 5.21 4.18 -5.73 -6.56 -0.47 8.98 5.55 3.23 2.24 4.9 -6.38 6.85 -0.88 5.54 -8.72 1.31 1.97 -2.27 -0.01 2.99 4.89 -3.14 7.99 7.81 0.17 8.3 9.32 -3.88 9.92 5.69 3.81 -3.28 2.63 3.11 9.8 6.46 -8.59 -8.37 -7.39 0.47 4.56 9.77 8.88 0.22 -7.88 -5.74 -5.97 -7.68 7.9 -1.89 -1.62 -5.61 4.83 -4.12 -1.48 -1.51 -8.45 1.16 -6.36 3.07 7.56 3.92 0.61 -8.24 -9.66 -6.15 7.96 8.9 3.42 7.01 -2.72 -0.36 -0.18 -8.13 -5.4 0.5 2.02 2.1 -0.72 -8.32 6.75 -1.84 -7.52 -3.16 8.13 9.88 6.1 0.87 2.76 5.94 8.49 -7.49 -1.79 -4.41 -6.81 -5.09 -0.06 7 -4.39 1.62 2.23 1.92 3.03 6.22 1.36 -9.78 -8.09 -2.02 -2.25 -1.37 2.38 0.67 8.4 -2.3 4.57 5.05 -4.3 -4.98 8.57 5.42 3.91 -9.05 3.28 -8.21 -5.22 5.35 6.6 3.6 0.51 -5.62 -1.41 -5.96 -5.65 -9.36 -0.71 -3.93 -0.24 4.77 2.27 -6.93 4.18 1.08 2.29 7.33 -7.97 7.54 -0.77 -3.59 -9.19 -2.17 -1.69 6.34 -3.51 -8.77 -6.98 -1.81 -2.44 2.38 -3.07 -4.72 0.45 -2.87 5.71 -5.33 4.45 -8.7 8.37 -8.94 -4.33 7.03 -4.19 9.29 -5.8 0.73 -2.89 7.57 4.46 2.04 8.76 6.58 -2.22 -5.79 -3.34 -4.77 3.92 -8.54 -1.68 9.68 -3.81 -2.01 -2.31 -1.3 -0.9 5.23 7.26 4.88 -3.12 -8.44 0.22 -5.55 -6.93 7.19 -2.36 -5.77 -9.96 -5.91 -0.33 -8.74 -2.69 -8.44 9.87 -2.12 -3.81 8.94 7.58 -8.25 8.02 -9.52 -2.59 9.57 4.41 6.81 0.84 -8.79 3.95 -1.38 1.65 9.97 0.69 -6.99 -2.1 3.19 -5.28 7.2 6.71 9.9 8.01 -2.28 -2.36 2.16 -6.57 -2.16 2.27 -3.39 3.57 0.87 7.85 -2.11 -8.72 -1.37 -6.78 -3.1 0.86 -2.8 6.55 -0.13 2.46 0.44 -2.49 -9.87 -3.93 -8.06 3.61 5.15 8.13 2.02 5.61 9.58 -4.64 -3.3 -6.11 0.12 9.19 8.77 6.34 -2.49 -4.05 -6.36 -5.35 -5.93 6.15 -8.79 2.45 0.55 6.94 -4.05 9.58 -0.44 9.07 -5.32 -5.71 8.43 -7.65 -9.07 -1.74 3.3 -1.36 3.49 0.26 -3.94 -5.08 4.21 -6.77 7.2 2.47 -7.99 4.45 -9.69 0.26 0.59 0.29 -7.11 1.37 -7.17 5.84 -2.36 9.58 2.68 -3.11 -5.18 -6.62 -7.89 -0.69 9.3 -8.23 -0.32 -3.11 -8.01 -3.71 4.33 3.05 -4.37 3.37 4.06 3.78 3.25 -0.16 -0.38 4.7 -0.71 -3.63 -3.11 -7.33 4.24 -8.71 -7.83 -0.89 -6.95 9.15 8.58 -3.59 -3.36 -2.81 5.93 3 9.29 -9.17 -0.83 -6.58 9.21 2.17 -5.17 -4.4 -9.04 -5.78 -6.61 -9.79 7.12 -8.47 3.67 8.53 6.53 3.52 -1.7 8.4 6.74 4.92 3.38 -3.71 -7.52 -1.16 7.72 8.57 -2.93 -7.85 -1.79 -9.98 2.41 -0.17 0.38 3.03 2.71 -1.92 -8.97 0.76 -0.16 3.37 4.36 5.83 |
-5.45 -2.76 5.72 6.75 6.67 -0.26 -1.31 -1.94 -9.89 3.77 -5.22 9.26 -1.58 9.33 3.03 -3.82 9.45 6.75 -5.43 0.2 4.38 0.02 -4.15 -8.72 6.98 -3.58 -7.2 9.77 6.85 8.56 -0.29 -1.33 4.81 9.61 -8.5 -6.78 -9.59 8.38 -4.46 -9.11 -7.3 1.46 5.45 -7.8 5.45 -9.64 -2.82 1.43 1.1 4.6 -2.05 0.06 6.52 5.79 -3.88 5.88 2.43 6.11 5.24 3.44 -0.68 0.3 -7.48 9.21 1.06 3.32 -6.2 -3.79 -6.12 2.67 8.99 -1.98 -4.36 -0.03 -7.76 -5.69 3.49 0.05 5.16 -8.91 3.99 -3.32 -5.48 -6.6 -0.76 9.4 -3.86 5.59 -1.46 -1.82 9.41 4.2 4.49 2.86 -8.1 4.68 -4.19 -4.53 9.96 1.13 -3.14 7.13 6.26 0 -9.39 -8.74 -4.46 3.11 -3.45 -3.29 -0.27 6.84 -2.43 -2.94 4.02 5.12 5.81 -0.34 7.31 6.38 |
