-9.5 5.02 9.92 -2.73 0.26 -6.89 5.81 -5.96 -2.88 -1.04 -5.06 4.95 9.76 -9.27 -4.62 0.52 0.25 7.17 5.4 1.25 8.25 0.28 -3.14 -2.63 3.36 0.09 -6.81 -7.02 1.67 1.76 8.22 6.29 -0.14 4.39 -9.58 1.71 2.78 8.46 -9.37 -1.08 -9.23 -6.8 -8.61 9.55 5.42 1.56 3.58 3.73 -1.47 -9.5 8.02 0.05 7.81 -4.73 -8.46 -5.8 -4.84 -4.48 -3.16 8.54 0.32 7.34 -6.59 8.2 -1.81 -8.26 3.56 -9.8 -4.7 3.82 6.93 6.51 -1.37 4.9 3.22 -1.81 2.47 -8.42 -4.18 -0.84 -5.08 7.66 6.13 3.12 -8.57 -9.12 2.88 1.66 -3.8 8.68 8.15 2.57 3.15 -3.19 1.99 -5.75 4.56 -3.51 -3.67 -2.78 9.08 1.99 -2.09 9.37 5.57 -9.64 3.92 -5.32 -6.16 -9.34 1.32 3.5 9.32 -1.84 -9.61 7.75 -5.82 6.6 -3.8 -6.06 -2.83 -2.93 3.87 8.08 4.73 -5.07 -1.4 -0.75 9.32 2.86 4.27 -2.22 7.74 -4.85 7.83 1.42 8.33 -2.03 2.72 -6.33 6.69 6.28 -4.55 -7.74 1.5 1.07 8.69 5.07 2.07 -2.94 5.65 -4.69 -2.84 3.46 2.95 1.29 4.25 -7.25 -8.47 -5.86 -7.98 -4.05 1.96 -9.84 -6.03 5.03 -1.96 7.06 6.65 -0.68 9.05 -0.89 -5.47 9.14 -1.71 -8.14 9.9 -9.59 -4.88 -6.56 0.67 -4.16 -2.29 5.18 0.84 -1.69 5.82 7.57 -8.83 -7.21 -6.63 -8.73 1.31 -6.6 -5.38 -2.43 1.75 -3.7 3.97 -0.36 1.16 8.28 -0.05 -1.38 6.38 -0.2 7.59 1.98 -7.38 -5.37 5.47 6.68 -8.42 8.73 -9.23 -9.26 4.64 -1.44 5.54 6.39 -6.72 -8.26 -6.91 -2.99 8.15 -9.24 9.16 5.9 -7.24 8.48 -5.73 -2.08 7.79 -9.52 -2.04 3.99 -5.74 -1.02 4.4 0.09 3.67 -2.75 -7.98 -5.22 9.51 -8.37 8.18 -5.71 -4.76 -6.15 -1.59 5.84 -6.46 5.48 -4.64 -6.76 -9.51 -0.54 -9.34 -7.61 -4.46 -1.39 7.57 2.52 0.95 -1.79 4.65 6.79 9.22 9.14 -7.44 0.34 -6.69 1.69 -2.02 -2.57 8.2 -2.4 -8.35 4.91 -9.73 -0.3 5.24 -9.64 2.93 5.66 0.35 -4.74 -0.47 9.75 9.33 -2.54 -0.25 5.26 -2.48 -6.68 -6.06 0.33 6.8 2.07 -6.58 0.57 -7.37 0.33 -6.42 8.71 -9.4 -6.83 -7.45 -0.3 2.89 5.23 9.92 -9.1 -6.94 8.08 8.85 -7.7 -5 -2.37 -5.73 -5.68 9.99 -2.85 5.71 1.99 -2.29 2.98 -1.89 -0.74 -3.17 5.02 -4.95 1.94 -7.99 -4.97 -0.23 4.33 7.3 4.85 6.8 -1.96 -9.74 -8.1 5.47 5 -2.54 -7.41 9.55 5.53 |
5.61 0.96 -7.78 -2.47 -4.76 -1.6 -4.48 0.69 -1.69 8.54 -1.06 -3.73 -4.13 -2.3 2.9 -5.16 4.97 8.02 -4.58 -1.95 0.61 6.25 -7.26 -0.54 2.01 3.31 -7.9 2.46 -8.09 -2.7 -3.54 7.01 -5.34 -0.44 -9.68 -9.45 -0.86 7.35 9.04 7.17 0.06 1.74 -1.1 -0.76 -5.77 -9.46 -4.71 0.79 -0.12 -7.84 2.9 5 -9.32 2.25 -0.93 8.59 -3.71 2.65 -2.8 -5.32 9.26 -1.83 1.64 1.14 -1.52 7.19 7.37 6.62 -6.54 2.35 9.55 -5.83 -1.87 -6.74 5.14 5.61 5.56 0.49 -9.61 3.41 -2.99 -0.56 -4.75 7.22 -1.96 8.28 -4.63 3.52 -8.92 -6.87 -6.82 2.51 3.88 -3.32 7.61 -4.11 -6.4 -4.36 4.09 -1.39 -5.03 4.79 0.4 6.47 5.15 -6.54 -0.26 -6.54 -5.79 0.78 3.22 2.77 1.57 -5.93 -8.5 -3.26 4.29 -5.05 3.52 -7.42 3.58 1.72 -7.47 4.84 -2.62 -5.25 3.76 1.66 -1.9 1.68 -4.13 2.1 -3.72 -0.4 -9.82 4.24 7.87 -8.82 5.72 -8.71 -6.01 -9.59 9.99 8.49 -0.46 1.45 -0.02 9.03 9.3 2.86 2.12 1.93 7.53 -7.6 -7.26 2.87 -1.49 -9.21 6.28 -9.1 -4.41 -1.45 -2.26 -7.09 -3.22 2.81 2.77 3.07 4.52 0.04 6.75 5.25 -4.36 -9.34 0.46 -8.36 4.19 -9.88 2.1 4.51 6.23 2.96 5.37 -2.8 -3.91 7.32 -5.64 -6.64 -7.18 -2.63 -8.54 -5.21 -3.35 -4.33 -5.47 -1.26 4.76 9.32 -1.97 -2.11 7.26 -0.14 -3.08 -5.21 6.62 9.15 6.55 0.33 6.31 -4.59 -1.5 -4.85 7.97 -1.1 9.44 -9.21 -8.11 -7.94 8.38 8.03 8.04 3.45 -4.96 -3.37 2.78 -3.11 -1.68 -9.16 -5.96 1.3 -4.91 -6.14 -6.19 -3.32 -4 1.08 4.99 -3.53 -2.25 -4.7 5.42 -7.71 -5.02 -5.22 -0.67 -1.99 9.75 -9.98 2.89 7.63 -9.59 3.91 5.28 6.72 -7.2 3.39 -3.96 -9.77 8.79 -4.47 -5.85 0.08 -7.43 1 -0.01 -3.79 -9.84 3.18 9.57 1.43 -8.96 -8.13 -0.84 -9.26 7.61 -5.88 8.16 -1.69 -6.17 9.38 -9.16 -1.92 -7.95 8.5 -2.85 5 -8.72 2.8 6.69 9.79 0.91 -8.19 -3.11 6.32 -5.75 3.55 3.12 -5.77 -2.84 -4.8 -0.16 1.43 6.19 3.5 6.78 2.32 1.86 6.77 -0.43 -2.2 2.1 3.24 -6.46 9 4.62 -7.67 -6.81 -3.75 -3.25 6.43 3.08 5.93 -3.99 4.37 -8.42 -0.39 -4.32 5.65 -6.05 -4.71 2.26 -8.61 8.74 6.02 -2.73 -2.4 -5.46 -6.96 -6.12 -5.19 1.8 5.03 -3.96 -9.75 -3.29 4.98 5.8 2.52 4.73 4.64 -2.13 7.46 -9.72 -8.13 2.94 -1.55 2.68 -9.84 -3.77 -0.82 -2.22 -1.19 2.89 -5.25 5.99 7.07 -2.81 -6.72 2.29 9.63 -3.48 0.67 1.51 2.11 -1.44 5.61 5.64 -5.87 -8.58 3.13 6.92 -4.49 -0.58 4.76 7.5 -6.56 -1.5 3.98 -9.98 0.2 -9.6 -8.75 0.75 -5.76 8.28 -8.88 -6.49 3.93 1.68 1.1 9.33 1.67 1.09 -8.41 7.71 -7.65 -1.96 -4.49 -5.63 -0.51 9.95 8.7 -9.87 6.02 -1.22 -3.48 8.05 -1.36 -3.53 4.86 3.55 3.26 1.59 -8.81 -9.71 4.85 9.58 -0.08 4.39 -3.8 -2.44 0.12 9.75 1.92 3.18 8.21 -4.62 3.4 -4.02 0.97 -4.62 9.85 -2.5 -4.84 6.64 -2.86 -0.35 -0.44 -6.05 -6.58 -8.46 3.59 9.53 -4.53 -6.47 -0.79 1.91 9.16 -1.59 9.49 6.97 4.63 9.52 3.39 -5.89 -9.91 1.19 4.97 9.37 -8.36 6.87 -1.51 -5.32 -6.96 3.32 9.96 3.72 -3.89 7.66 1.08 -7.07 -9.59 -8.5 4.9 -0.77 2.93 0.6 -3.64 -2.19 3.08 -2.98 0.4 4.02 -5.66 4.1 6.89 5.16 -5.54 1.84 6.68 |
3.41 -6.47 1.9 2.86 -9.51 -8.87 2.08 -5.37 6.24 0.59 8.6 -4.45 1.35 5.32 2.47 -3.43 -9.39 5.18 9.29 -2.78 -5.08 -3.27 -6.87 -7.31 -1.78 3.33 6.59 1.82 -7.45 2.18 -2.13 -0.91 -0.13 -2.94 2.47 7.38 -0.94 -3.82 -7.58 -7.34 2.31 5.41 -2.94 -9.41 -1.84 -9.72 -2.73 1.33 6.11 -9.24 -9.71 -6.66 -8.1 9.65 -1.2 -5.69 3.66 -5.16 -9.61 -6.9 2.06 -4.1 -7.8 3.58 8.28 -6.81 8.49 0.75 -2.84 2.18 9.29 -0.73 9.06 8.52 -3.08 -8.43 -5.18 -6.52 3.88 -6.1 9.66 1.75 1.43 9.44 -9.89 -8.03 -3.12 6.28 -1.22 -0.72 8.89 8.3 9.02 0.23 -6.64 -6.96 6.35 -1.46 3.67 -3.42 5.45 -6.21 7.44 2.2 -8.91 -1.46 1.91 -7.54 9.53 -3.18 7.43 7.38 6.06 1.1 -5.79 3.75 -3.12 1.97 0.22 5.23 |
