0.73 -7.24 -8.87 -9.13 8.63 8.88 -8.97 -9.2 0.28 8.44 -5.79 -9.41 -4.6 7.05 -5.93 4.92 -8.47 9.36 -0.41 -5.34 -6.37 7.34 3.39 1.8 7.93 -9.57 -1.29 1.47 -6.39 -8.14 9.72 6.31 -4.1 9.89 2.62 8.07 -4.64 -8.35 -5.74 -2.53 2.34 7.61 -5.67 -1.21 3.92 -6.98 -3.94 -0.93 1.78 -2.73 -1.72 -5.83 -5.57 -9.46 -6.95 4.42 6.85 -8.76 -1.76 -9.44 3.52 9.38 6.54 -7.19 -3.91 -3.41 6.26 6.6 -6.87 -8.95 -1.15 2.45 -2.43 -7.69 6.37 9.45 2.9 2.84 -1.26 -6.49 -6.43 -2.53 -6.77 -6.95 -1.66 -9.67 9.77 -6.91 3.79 -3.97 -8.19 -1.25 8.51 -6.79 8.61 9.88 0.04 -7.99 2.41 4.46 0.11 3.21 -9.68 -1.73 -6.3 -9.19 -9.06 -8.62 2.2 -7.29 4.64 3.75 -2.56 -7.8 8.74 -5.24 -9.14 3.33 -5.81 -3.8 6.54 4.24 -5.82 -1.33 0.93 5.63 2.13 9.29 8.61 5.56 8.5 1.51 -9.36 -3.97 -1.14 -0.19 -9.98 -8.98 -5.7 -6.43 9.47 -3.56 8.9 -2.41 -0.52 -2.44 -5.43 -0.16 2.27 -7.03 -2.25 0.75 -6.6 6.85 5.95 8.59 2.57 4.29 9.4 3.88 -9.22 9.92 7.08 -1.38 -6.76 -1.8 4.85 9.85 2.71 1.17 -9.81 1.02 -8.95 -8.79 8.44 -4.21 0.84 -2.67 2.72 2.33 -6.94 7.83 9.88 -5.27 4.77 8.58 4.43 2.02 -7.22 -9.34 4.95 -9.83 -1.7 3.12 -6.62 -1.55 -4.62 7.68 -0.86 -6.31 6.72 7.24 7.12 9.93 9.9 -0.09 0.86 8.67 -7.93 7.36 -5.84 -9.46 1.5 8.74 8.92 -9.4 1.62 -6.04 -4.77 4.79 -7.19 7.17 0.7 -0.98 4.45 -7.05 3.89 -8.89 -8.7 -1.47 4.92 2.17 -4.75 5.35 -1.83 -7.48 -3.68 -8.86 -4.2 4.16 -3.04 0.47 -3.22 -2.01 7.85 7.77 -0.54 9.27 8.67 -9.58 4.55 -5.74 6.37 -9.39 -1.24 -5.45 1.98 -8.23 1.75 7.38 -6.42 -0.28 2.86 -2.1 0.4 3.68 3.75 -6.49 -9.11 -8.86 1.14 2.34 -4.71 -5.19 -9.77 8.54 -9.2 0.09 -9.74 -0.11 0.96 2.12 -0.64 -6.08 -5.06 -4.8 9.3 7.34 -5.06 4.49 -1.24 -7.19 -9.75 -5.34 -6.98 4.61 -4.82 -8.03 -2.25 9.3 6.97 9.37 9.01 -1.23 -0.55 -7.58 4.9 2.44 5.66 -6.45 -4.76 4.63 6.82 7.26 -1.39 -9.23 -0.54 -1.8 -5.13 5.79 -1.5 1.78 5.75 -8.42 -5.83 1.76 3.32 6.51 5.35 7.81 -6.37 -1.65 4.42 6.7 -5.36 6.33 5.3 2.09 5.3 -5.83 5.73 1.1 2.47 -0.85 -4.02 6.98 -2.94 8.66 -9.52 1.26 |
-8.71 -1.34 -3.38 -0.06 5.67 -1.39 -5.06 -7.69 -5.88 3.12 -2.88 -7.19 7.14 1.49 -2.19 4.14 -7.84 -2.33 1.28 1.63 3.7 0.8 -2.29 3.61 4.49 9.84 -4.85 -4.2 -4.09 5.55 -3.19 1.01 2.38 -7.78 0.68 -9.18 1.21 -7.08 -1.12 0.49 4.16 -2.38 -9.19 -6.34 0.46 -5.07 -6.62 8.85 4.65 -3.87 1.82 -8.74 2.75 -5.08 -5.56 0.28 6.27 -5.6 9.26 4.84 7.39 -7.99 3.42 3.63 8.96 9.49 -8.01 3.47 -8.97 -7.13 0.76 -6.69 3.02 -4.86 9.81 2.44 8.04 -7.22 -0.83 -5.79 -6.44 -9.25 -3.46 1.06 8.16 -5.2 7.58 8.75 -6.75 1.18 8.82 7.74 -8.11 -3.99 9.73 0.85 4.6 5.66 -6.15 8.01 -3.11 -9.41 -0.32 0.43 -7.44 1.06 4.72 -8.31 -3.24 9.64 2.69 7.51 -8.86 -1.93 6.02 9.65 -9.88 -2.59 3.89 -1.89 -5.11 -3.68 -0.39 -6.99 5.98 0.16 3.63 -7.42 -7.43 -1.26 7.72 6.35 6.02 -0.47 1.52 -3.95 9.61 8.46 5.03 8.51 -5.33 0.17 -5.14 5.14 -3.71 2.49 -1.88 8.87 0.03 -0.43 7.22 2.02 3.09 5.11 -9.71 0.54 -5.43 -9.85 8.91 6.51 1.45 6.25 -3.35 -1.75 4.96 -7.49 2.64 -4.01 -8.23 -6.48 1.52 -8.76 7.38 -5.69 0.88 2.86 3.23 4.5 -7.28 -4.57 -4.42 3.47 -6.34 -3.95 7.29 -8.53 -0.31 -2.23 4.56 -1 3.4 3.62 6.69 1.5 -3.01 -6.58 2.79 -9.46 -5.75 3.43 9.26 3.62 6.15 -5.41 -6.02 -6.26 -1.65 -2.97 7.81 8.81 -9.15 6.8 -4.42 -0.09 -6.89 7.83 9.55 5.14 -8.75 1.53 -0.28 2.1 -8.27 -1.66 -5.74 7.9 -4.91 2.78 -9.67 -2.86 -5.49 -3.81 6.68 -6.1 -5.42 -1.22 -2.11 3.75 -7.06 9.46 -8.09 4.55 -3.49 -6.97 9.28 -8.7 1.88 -1.66 -2.76 -0.91 8.33 -9.99 -9.79 7.11 -1.09 3.06 6.93 2.24 -9.99 5.2 5.84 4.59 -5.91 8.35 6.89 -3.7 0.29 -7.45 0.63 -8.2 -4.06 1.2 -2.1 2.16 3.2 -0.29 1.88 -5.38 9.42 1.19 -9.04 2.85 2.77 -4.87 1.3 -0.09 -7.91 8.33 -3 8.28 8.49 -4.66 -6.88 -8.87 3.51 0.7 -3.36 4.34 -0.18 -0.44 -0.59 -2.74 -1.08 6.04 -1.88 -4.53 -2.77 5.08 -4.19 9 0.96 8.6 -4.77 -8.28 6.7 0.5 1.47 -7.05 -5.17 -3.81 9.65 5.94 2.72 -8.94 2.39 8.67 -7.72 1.86 -5.96 -2.28 -7.53 6.8 8.8 -9.58 -9.78 -7.64 -2.38 1.04 -1.58 -9.21 8.44 9.14 3.49 -9.19 8.63 -7.46 2.61 -7.94 -1.26 4.84 -1.58 4.78 0.3 -7.9 -2.91 2.6 -1.54 -1.51 5.81 -4.24 7.85 6.19 -3.35 -4.99 -9.45 1.82 -4.9 -5.59 -6.91 4.15 7.88 -0.6 4.2 -0.01 7.76 -5.13 -4.36 0.62 3.96 9.78 0.21 3.78 6.04 8.28 -0.13 -3.73 0.15 3.79 9.86 -1.6 7.25 -6.8 -2.06 4.26 -7.09 -0.97 -5.07 -6.5 -6.95 3.75 6.89 -8.01 -1.91 -1.04 -5.37 4.63 8.73 2.01 2.22 -9.19 -7.55 4.66 -1.38 -2.6 -1.5 4.64 -1.76 2.38 -7.91 1.51 -3.12 -8.4 -8.64 -0.67 7.25 5.89 -8.7 -4.76 -4.65 -6.87 -3.87 3.62 8.39 3.14 7.32 5.54 -4.84 -1.36 -0.23 5.22 8.02 7.76 1.69 -1.65 -8.48 5.65 -8.16 8.6 7 -2.98 -2.28 9.69 8.14 9.91 -2.38 -6.73 -6.41 4.94 1.63 -0.92 -0.53 0.09 -7.76 7 -7.22 -5.31 -7.03 -9.73 -4.12 2.85 2.8 -0.36 5.37 5.07 -6.22 -2.81 -6.55 -8.56 -8.29 3.98 2.29 -3.64 3.61 6.27 3.66 6.04 1.38 -8.61 0.35 2.63 2.57 -5.12 -7.24 6.92 -7.58 -1.62 -7.62 6.62 -5.44 4.33 |
2.19 -9.6 6.89 -6.99 4.72 -8.64 -3.93 -8.13 -3.75 1.57 1.88 -7.81 -5.42 8.99 6.5 -5.42 -2.67 -4.69 4.57 4.4 -7.7 -3.66 5.71 1.55 -9.34 2.39 2.74 2.36 -9.66 -7.58 -8.89 -8.42 5.18 0.14 -7.9 0.09 -8.23 4.62 9.76 -0.93 -1.29 -3.94 -3.18 5.95 0.33 -3.78 -0.83 1.2 6.26 0.02 5.64 0.02 6.27 -7.86 3.21 0.6 -4.79 -3.25 -9.09 -5.38 9.59 1.45 -7.89 7.17 -7.15 -4.19 5.37 -1.38 -1.35 0.28 5.4 6.12 -0.95 -5.46 8.76 2.28 0.07 3.57 8.33 0.05 -2.82 -4.01 1.44 5.71 -7.17 -0.35 9.47 8 -2.72 6.28 4.72 3.14 -4.04 -0.52 3.66 2.59 7 -7.73 7.19 8.05 6.15 5.6 2.87 -3.8 -7.16 -0.36 8.57 -9.45 9.31 -6.44 1.13 -2.8 9.47 -5.38 -0.1 -3.56 -4.51 2.62 -6.5 0.26 |
