1.05627918243408 -9.80184555053711 0.0778665542602539 5.02217292785645 -1.41755676269531 -4.71869373321533 -9.60887145996094 -8.05016708374023 -2.55862808227539 -5.44488143920898 6.27423477172852 9.19912338256836 -9.83205604553223 7.30936765670776 -3.67026424407959 5.45181751251221 0.182896614074707 -5.39769649505615 -7.76773643493652 9.59609222412109 8.67452621459961 -2.18421840667725 -0.827122688293457 7.50969362258911 -9.54600524902344 6.78589296340942 -7.67246246337891 1.78287601470947 -7.86658811569214 2.63215041160584 6.02713584899902 -7.36322212219238 -5.09317207336426 -5.13504505157471 4.06928062438965 -0.991996765136719 -3.40354824066162 -9.93957901000977 -0.286861419677734 5.03788471221924 -7.64988708496094 -7.18446922302246 -1.13132095336914 2.32843017578125 8.33375930786133 0.906538009643555 8.9445915222168 0.0791778564453125 9.86488342285156 -3.12547779083252 -2.59875679016113 5.67615699768066 -7.65907716751099 -9.93661880493164 -2.97530269622803 9.17996215820313 3.51963019371033 -1.23455619812012 8.89542579650879 4.19130802154541 9.02367782592773 7.22927284240723 0.0996770858764648 6.94687604904175 -4.69872379302979 -9.62884140014648 5.84501457214355 -7.13774681091309 -2.24979305267334 -2.54489326477051 -7.384033203125 -5.72975158691406 -9.88972473144531 -6.86188173294067 -5.35078811645508 -9.03635787963867 -0.888396263122559 -2.33762645721436 -1.57053565979004 -8.33705139160156 -3.93745803833008 -0.548783302307129 2.51060676574707 -4.27852058410645 1.39920139312744 -7.46511888504028 5.84961652755737 5.27135372161865 -6.69490623474121 -6.34255599975586 -2.81662845611572 -9.69280433654785 -0.244659423828125 -2.42046928405762 -9.23059272766113 -4.02241134643555 -6.52159690856934 7.36303091049194 -3.77658462524414 -3.70808219909668 8.38323783874512 -4.36548137664795 -7.99112749099731 8.34209823608398 7.62582778930664 -2.612548828125 -6.72563982009888 -3.67902374267578 -6.16532850265503 0.240307807922363 -8.36298751831055 1.6829833984375 9.25951194763184 -8.51016807556152 -8.66199493408203 9.54087734222412 8.18964004516602 -1.54144382476807 5.11703252792358 -9.29422569274902 8.7481861114502 -9.36017608642578 -4.24157047271729 9.03771591186523 2.28353404998779 6.42497062683105 0.521105766296387 1.39334583282471 -1.25482654571533 -2.94297313690186 2.29649448394775 1.5769681930542 -9.27094268798828 -7.31867980957031 -2.36744022369385 -9.527099609375 4.387526512146 1.3930025100708 -8.64438247680664 4.76459264755249 -1.61225414276123 3.43773818016052 8.22040748596191 2.37276458740234 2.98643827438354 -1.19522953033447 0.993653297424316 3.687748670578 9.12390518188477 7.91814804077148 -2.28675270080566 9.89158821105957 -5.20758152008057 -9.89463806152344 -4.26557445526123 7.49414014816284 3.92819166183472 -0.0122394561767578 4.48683261871338 0.116802215576172 -8.85208129882813 3.09676885604858 0.90791130065918 -3.01724529266357 -9.89661979675293 -4.39748382568359 -4.29246807098389 -3.38689708709717 1.59746742248535 9.65148735046387 -3.58201599121094 -7.85629081726074 -0.581807136535645 -4.1054573059082 -0.969468116760254 6.04984045028687 0.367945671081543 -8.45596504211426 -9.74062728881836 -4.79220294952393 -0.83934211730957 2.30347728729248 3.74362921714783 -8.27785110473633 -1.00328826904297 3.93080902099609 6.53897047042847 -0.563126564025879 1.92943000793457 6.18448257446289 -0.876141548156738 -7.98113632202148 0.136336326599121 -4.02798748016357 -7.97423553466797 9.59851264953613 2.4099817276001 -1.50347137451172 9.24254417419434 -4.55156707763672 0.640531539916992 6.55978202819824 -3.69398975372314 6.31957769393921 -8.14083290100098 -4.37701797485352 1.32701301574707 -4.36230564117432 5.66207647323608 -9.27921295166016 4.17330932617188 3.64839744567871 -4.51192951202393 -6.42232894897461 -4.94517230987549 -5.72481632232666 -2.08571815490723 -8.88359451293945 -7.07140922546387 6.44156455993652 3.45258212089539 5.14039039611816 2.11693382263184 9.26072883605957 -0.63752269744873 -6.52140092849731 5.07377147674561 0.431567192077637 -8.27281188964844 -0.247344017028809 1.36905097961426 -3.60354328155518 -7.41367340087891 -1.3142786026001 2.09810352325439 -8.21228790283203 9.92273139953613 -9.06543922424316 -4.69811058044434 -8.44521713256836 7.68290281295776 -8.28567695617676 4.63101148605347 -3.74813461303711 -3.63278007507324 -2.09049129486084 -5.95687866210938 -7.62361335754395 -3.17914390563965 5.92756032943726 0.472673416137695 1.69564819335938 4.80283260345459 -0.861968040466309 -0.559988975524902 -2.18086338043213 -1.22799015045166 -1.60223865509033 7.83963394165039 4.86805152893066 7.02590942382813 -9.88613319396973 -3.09364223480225 2.72870516777039 -2.85360240936279 -5.58595848083496 -6.30733489990234 -1.00201034545898 8.1576042175293 9.34006690979004 7.56452989578247 1.96275806427002 1.97809600830078 2.06858253479004 7.05958557128906 -7.05108451843262 -8.3289794921875 9.67753601074219 -2.85959625244141 -0.0591983795166016 -6.2737889289856 2.9349536895752 5.06304264068604 0.581549644470215 -6.48086738586426 6.05469465255737 1.20323085784912 0.54630184173584 4.16054487228394 9.31357574462891 -7.25067138671875 -0.913244247436523 -5.97072792053223 -8.41977119445801 -8.31485366821289 -6.70729112625122 -0.639806747436523 -7.74968147277832 1.15696048736572 -3.93422222137451 2.31661415100098 5.38676977157593 0.0699672698974609 0.285216331481934 -8.19772338867188 1.97752857208252 -1.23736000061035 9.0606575012207 5.77793312072754 -6.40629005432129 -7.76908111572266 -9.85560607910156 -6.14433717727661 1.3848934173584 -8.94767761230469 9.79168128967285 8.76105308532715 -6.72547340393066 -1.68100929260254 -9.3419303894043 -1.71033763885498 8.15925979614258 -6.6441535949707 -8.74857711791992 -3.26486968994141 -5.45969772338867 6.62178993225098 -9.87863922119141 7.04635190963745 -4.16087055206299 7.08739805221558 3.36015677452087 -7.91818809509277 2.48671436309814 -8.83019638061523 6.56418561935425 8.34779262542725 6.77697706222534 -1.55872249603271 -2.82146072387695 -3.63505458831787 2.71306014060974 6.77232933044434 1.49729347229004 -1.73392391204834 -5.53622245788574 -1.6631326675415 -0.785022735595703 -9.3739013671875 7.83885955810547 1.93670845031738 9.04923629760742 8.52243614196777 -8.61256408691406 -6.14726066589355 -3.38894271850586 5.34065246582031 -4.64897060394287 2.49809169769287 -4.99866390228271 -2.61319541931152 -3.65152454376221 -9.29390335083008 8.5544490814209 1.5055046081543 -3.10676956176758 -2.83716583251953 3.54669761657715 -3.957763671875 -4.44844818115234 3.82487273216248 4.04239177703857 2.30978870391846 3.0530641078949 6.35183334350586 -2.08631610870361 -7.47841644287109 3.30866312980652 -4.45564842224121 -0.561245918273926 -7.55160856246948 6.78244066238403 4.14641857147217 -7.07508850097656 3.5689971446991 -5.0997428894043 -2.93789482116699 -3.17683601379395 -4.91577529907227 -7.2493839263916 2.88821935653687 -0.899518966674805 7.67688322067261 2.9027247428894 5.57433605194092 7.81761884689331 -3.17081546783447 -0.865525245666504 6.43567609786987 3.7541720867157 -0.0235500335693359 -7.13168334960938 -7.54994583129883 -5.32896518707275 0.0855674743652344 8.13930320739746 7.03245878219604 2.71698927879334 -0.729228019714355 6.0789942741394 -1.03740119934082 -4.45939445495605 9.44332122802734 -6.50634336471558 -0.0381240844726563 0.936790466308594 -8.76899528503418 3.09103202819824 9.43658351898193 8.53291988372803 -5.17191696166992 5.68363666534424 -1.64687252044678 0.912217140197754 -4.03612232208252 -2.16698265075684 4.26720380783081 -1.03110408782959 -9.20015525817871 -3.68822956085205 -4.60663890838623 -8.9858512878418 8.85952949523926 -8.44197845458984 -9.19633102416992 7.11634826660156 7.86372900009155 -1.14706611633301 8.43472290039063 6.50687408447266 -3.05821514129639 -3.74863529205322 8.88330459594727 -9.80261039733887 8.54823875427246 -4.15223693847656 -5.52093696594238 7.2401237487793 3.17308187484741 -9.11852264404297 -9.19445991516113 6.65108442306519 2.47844791412354 7.57651519775391 -5.69126605987549 5.933518409729 9.84657096862793 -1.94440937042236 6.63699150085449 8.12113189697266 8.88476181030273 4.24508094787598 -6.61177110671997 -4.26602458953857 -0.593303680419922 0.791698455810547 2.72299003601074 -5.44631004333496 -9.86813354492188 0.233968734741211 -2.74192905426025 4.89070415496826 -9.35196876525879 -4.09928894042969 -4.77329635620117 6.94379043579102 7.59607315063477 6.3634033203125 5.23661613464355 -3.94553089141846 0.167097091674805 9.12227630615234 5.28932571411133 1.65914440155029 -1.73410987854004 -1.55127906799316 1.60592651367188 -6.67581367492676 -2.18187427520752 2.92546987533569 1.81807136535645 -5.99986267089844 -8.70158958435059 -1.1931791305542 7.32776832580566 3.30450248718262 -2.639723777771 4.5794792175293 -9.54624938964844 1.7057523727417 1.41951179504395 -3.61644840240479 -1.3466272354126 5.57434272766113 -3.89876270294189 -1.98972129821777 -1.10420799255371 7.4750919342041 8.08262634277344 7.76513624191284 0.463541984558105 -8.06369972229004 -8.4517650604248 1.34122943878174 8.38020133972168 7.82757949829102 -6.1473560333252 8.37281703948975 -1.99672603607178 -2.08359336853027 -2.78280162811279 1.52878189086914 -8.34936332702637 6.12312078475952 5.53412914276123 4.7956657409668 1.79905986785889 2.99111557006836 -5.85745048522949 5.5153226852417 -2.6193962097168 8.88253211975098 5.91947555541992 -5.88434982299805 2.59797286987305 9.04265403747559 5.15586614608765 -2.71278476715088 1.24704742431641 -3.20947074890137 9.04714965820313 -5.76735305786133 -4.33682537078857 -8.66377067565918 -2.43639373779297 -3.22163486480713 -6.67243194580078 3.68008804321289 -1.5418062210083 7.1979808807373 0.791133880615234 -2.73073291778564 4.63587760925293 2.3548641204834 1.22501945495605 -9.69984245300293 -6.94902420043945 -0.95195198059082 -1.12001514434814 7.38511085510254 0.972346305847168 -6.61990690231323 3.32808685302734 2.40423583984375 7.24903535842896 7.46259880065918 -5.50757884979248 -2.08350086212158 -4.37024974822998 -6.4958553314209 -5.90223789215088 5.36807250976563 -8.42981338500977 4.46417570114136 2.55781626701355 6.29269599914551 -1.80813407897949 3.74982070922852 5.51091909408569 8.71369361877441 -2.56301307678223 -1.48621654510498 9.11482238769531 4.03182744979858 -9.65475082397461 -5.41023254394531 5.40226173400879 -7.18179702758789 -6.82083129882813 6.62787199020386 4.15036201477051 -8.73360061645508 1.81011295318604 -9.20173835754395 -7.23546028137207 5.01662731170654 -4.23644161224365 3.32331848144531 7.6695556640625 3.25339293479919 7.7413535118103 -0.429459571838379 0.0591049194335938 -6.46303176879883 -5.01031875610352 4.35603141784668 -2.82134628295898 -0.935379028320313 -4.56486129760742 4.08260107040405 4.91228818893433 8.06073379516602 -4.56662273406982 -3.70066070556641 -3.0101432800293 3.95877599716187 1.05852031707764 5.95035314559937 4.22384262084961 4.7398853302002 -1.35721588134766 6.94808197021484 8.87722396850586 0.538920402526855 6.28036260604858 6.77902221679688 6.61071014404297 2.93028807640076 -5.00413703918457 -9.84025955200195 -7.62551116943359 5.30851554870605 2.04092884063721 -8.06135177612305 -5.27555274963379 8.54335021972656 -5.89624214172363 7.06359434127808 -1.92616844177246 -7.97959852218628 -7.42809724807739 0.374971389770508 3.7976930141449 -1.70743083953857 5.81352710723877 8.10693550109863 -4.12984275817871 -9.77956771850586 -3.50337409973145 8.07133865356445 -2.84632110595703 -2.23715400695801 0.272260665893555 5.08274555206299 -5.29868125915527 9.18377876281738 -7.05099296569824 -8.1145191192627 -9.05645370483398 7.19322919845581 -0.065516471862793 -2.36166572570801 -9.5403938293457 -0.65362548828125 -7.65593338012695 8.4312744140625 1.82115936279297 -6.08732414245605 9.24945640563965 0.299300193786621 -6.96649980545044 -7.95214128494263 2.44437313079834 0.100172996520996 -3.00789737701416 8.71563911437988 -2.51212501525879 -5.82011413574219 2.93416213989258 3.5616443157196 -3.91989135742188 9.49123191833496 -8.09641647338867 8.64064693450928 3.42583632469177 -9.4200553894043 -0.579694747924805 0.88377857208252 0.529793739318848 -2.81031513214111 -3.98641967773438 -5.24593162536621 -0.313695907592773 9.3623685836792 6.71775817871094 1.95133590698242 -7.88815689086914 5.74093818664551 7.28611421585083 -0.55660343170166 5.6344051361084 -5.76067733764648 2.4930419921875 -4.09622097015381 4.15677261352539 -4.74867725372314 -1.27974891662598 -2.66060924530029 1.13786602020264 7.04339981079102 -0.935057640075684 9.27416801452637 9.16806411743164 -8.13072204589844 -2.42476844787598 -5.02728939056396 -8.23904418945313 -1.71152496337891 -4.60186386108398 -4.21660327911377 -3.69288349151611 -5.30194473266602 0.426630020141602 4.00681972503662 9.07066535949707 6.06219053268433 -9.60522079467773 8.50010108947754 -6.48890495300293 -7.81488609313965 8.38961029052734 3.60582113265991 -6.78484153747559 -3.25996017456055 -7.71434020996094 7.30709266662598 0.535598754882813 8.18550872802734 -8.85082244873047 -3.82933521270752 -7.49966621398926 3.52632713317871 2.2758092880249 -9.90544509887695 -2.73551845550537 2.71609282493591 -1.43401718139648 -4.25660705566406 8.11417770385742 6.18811798095703 -9.7707462310791 -0.736857414245605 -5.85399436950684 9.9675464630127 6.15352821350098 9.45942115783691 6.85526323318481 8.38158416748047 1.58926582336426 -8.58162307739258 -9.52936553955078 -7.82976341247559 6.64421272277832 9.13503646850586 -3.38281059265137 4.77353286743164 -1.35826683044434 3.64934420585632 3.61697173118591 1.59000015258789 2.39405536651611 -3.4105978012085 0.416689872741699 -4.47519207000732 2.66356229782104 8.18771553039551 1.23357677459717 2.89656615257263 -8.62581443786621 4.20087814331055 -5.34210014343262 6.49112701416016 3.70853877067566 8.14655685424805 6.33926153182983 7.15349388122559 7.86466598510742 0.71015453338623 9.5414924621582 -8.08651161193848 4.84879493713379 -4.50565242767334 -2.35104465484619 9.33854579925537 1.61983108520508 -7.64051246643066 0.00551128387451172 -4.97863388061523 -5.60348320007324 1.1184253692627 7.81838607788086 2.34731578826904 -1.61662197113037 -7.58598518371582 -5.78970909118652 -0.597700119018555 4.53542470932007 1.9712028503418 1.13492584228516 7.48119354248047 -7.08655166625977 -2.66394710540771 -2.37028980255127 -4.963942527771 -7.02081680297852 2.85169100761414 -9.81359481811523 2.4042501449585 7.67992210388184 8.99825286865234 8.20159435272217 5.03036689758301 -2.0262393951416 8.30577659606934 -8.64666175842285 5.92863273620605 -5.99348545074463 -6.11430168151855 5.21304845809937 4.61302947998047 3.7840723991394 -2.08384418487549 1.96767425537109 9.53403854370117 1.77329158782959 -1.99573612213135 0.533408164978027 3.6197612285614 8.92438411712646 8.00285530090332 -6.37869071960449 -6.89068603515625 4.73486137390137 7.84649848937988 -4.24714946746826 -7.97464370727539 -9.41369247436523 7.84111213684082 9.46846199035645 -3.19532775878906 -9.75343894958496 -6.1442608833313 5.87342262268066 -2.20096015930176 1.75815486907959 -8.2050666809082 0.962124824523926 -7.15096473693848 1.06277084350586 -9.87415504455566 3.31411552429199 0.429502487182617 -8.32291030883789 -8.83373069763184 9.76412773132324 -4.2235221862793 -2.18912029266357 2.5315260887146 3.76939272880554 -6.48742866516113 -8.11432075500488 4.82062530517578 -0.489648818969727 5.23445129394531 6.39874219894409 5.2022910118103 5.04423856735229 -4.2435302734375 -2.22445392608643 -4.78702449798584 8.04478073120117 -5.62394905090332 -7.68369245529175 4.80804634094238 -0.0533447265625 3.03728556632996 -6.48751068115234 -4.79923820495605 5.37038803100586 -7.46250915527344 -8.6025447845459 1.661940574646 4.19064521789551 -6.57324028015137 -0.680817604064941 9.09779357910156 -1.76483058929443 -9.29279327392578 -6.58832740783691 -0.0382575988769531 4.84323024749756 1.46297359466553 3.01350569725037 -8.40719604492188 -0.961832046508789 -6.11753273010254 9.38209533691406 -4.82879543304443 -8.71667671203613 -7.67347526550293 -4.41483116149902 9.0408878326416 5.39469242095947 -1.59111404418945 0.599184989929199 -7.08740043640137 8.14740180969238 -9.11654281616211 -1.38011074066162 -5.27733039855957 2.70146560668945 -2.27164363861084 1.03745365142822 2.7666163444519 7.5413556098938 -7.54553604125977 -9.96030044555664 4.62836027145386 -1.46347904205322 -6.39414596557617 -2.18112373352051 9.84201240539551 6.88991737365723 3.85529708862305 -9.79106903076172 -4.98375797271729 -5.66557121276855 -3.19340801239014 5.61134338378906 2.56558179855347 -3.57597923278809 9.70433235168457 6.59226942062378 -9.72479248046875 5.85489749908447 4.02565717697144 -2.30548000335693 -5.50543308258057 -8.77118301391602 -9.49009704589844 0.644644737243652 -7.4603157043457 1.51492691040039 -9.83637237548828 -3.04308319091797 -3.6052885055542 -6.4849705696106 -9.18485450744629 7.19238042831421 6.24966049194336 3.01918959617615 3.75215721130371 -6.84319305419922 -6.9841046333313 -2.30437660217285 9.03963279724121 -0.352779388427734 -6.2623553276062 -8.97078323364258 1.19968509674072 -1.58723735809326 0.30513858795166 6.24516677856445 -0.714143753051758 7.26146268844604 8.63427352905273 -1.68758010864258 -6.39126014709473 -1.61928558349609 4.08691883087158 -8.32815361022949 0.470539093017578 6.828284740448 -8.04108047485352 -5.68461418151855 -5.60070991516113 7.62315511703491 7.48117637634277 5.34895133972168 1.61089038848877 -9.12580299377441 -1.90321063995361 3.43842959403992 8.37985992431641 -2.70801639556885 7.17877388000488 -0.378786087036133 0.109299659729004 8.67630195617676 -1.94933986663818 -1.15734958648682 -4.93323230743408 3.22639656066895 6.8338794708252 -4.17201614379883 -4.80301952362061 -6.78661775588989 -7.54324150085449 5.65743637084961 -6.71444368362427 -0.487314224243164 -7.94558715820313 0.293551445007324 -4.81963539123535 -3.6944637298584 1.60534286499023 -3.23540782928467 4.13016510009766 -0.751038551330566 -7.80906677246094 -5.54821491241455 -1.74112224578857 -6.76346015930176 0.0820150375366211 -1.34692287445068 -5.46119499206543 6.85734939575195 -6.1002368927002 -5.36571311950684 2.48020267486572 7.64124345779419 -6.35188627243042 -8.7149658203125 0.121268272399902 0.809341430664063 -0.587495803833008 6.07818126678467 -1.52391529083252 1.10522842407227 -0.865215301513672 -8.33607482910156 -9.38897323608398 4.03679084777832 -5.80767631530762 -8.72672271728516 6.06342315673828 7.40940523147583 9.55649375915527 3.61507177352905 -9.60031127929688 0.356673240661621 -1.01167106628418 8.52891731262207 5.19511222839355 8.67424011230469 9.02449417114258 2.91141963005066 5.59166145324707 -9.2390079498291 -8.64276123046875 -5.8909273147583 0.73983097076416 8.50057125091553 3.77123069763184 -0.550025939941406 -9.2256908416748 -9.38752174377441 -2.52753829956055 -6.01829719543457 -0.446685791015625 -6.88171195983887 4.78256225585938 -8.77956581115723 -4.94748497009277 -4.9962100982666 -8.91152954101563 -7.69625473022461 6.58393859863281 -1.54693984985352 3.289954662323 1.08557796478271 -8.30984306335449 5.91310262680054 -6.32892417907715 5.19255399703979 -5.97629737854004 -2.8789005279541 -5.21732330322266 5.52541255950928 -9.62869453430176 9.83299446105957 -0.19736385345459 -6.97902250289917 1.46512603759766 -2.10592651367188 -5.55530548095703 -7.24715423583984 5.39341163635254 7.14468193054199 7.94147682189941 4.71778106689453 8.59246444702148 2.83477020263672 3.22064161300659 0.0890407562255859 -1.35554218292236 -8.44868469238281 -2.99624061584473 -7.24795341491699 -5.48937320709229 5.02283811569214 9.83249473571777 -1.68301010131836 -2.93718433380127 6.89055204391479 -3.81598567962646 9.3985481262207 0.549469947814941 6.39830780029297 3.95026922225952 9.9308032989502 -9.61052894592285 -1.48130989074707 5.02636671066284 9.55652236938477 6.84661436080933 9.68433380126953 -1.42498397827148 -7.92878913879395 -2.02218151092529 9.87958908081055 -7.72056579589844 -6.70824480056763 5.24047613143921 9.4898624420166 -2.41573715209961 -5.82857131958008 -6.34350967407227 8.71125030517578 9.41566467285156 8.93317699432373 -6.06941223144531 3.06188344955444 -1.67866134643555 -9.13652801513672 1.80207824707031 3.85122060775757 4.49105739593506 9.88119506835938 9.315185546875 -5.63918113708496 -0.571700096130371 -3.01597690582275 -6.90012168884277 7.54119634628296 9.85201835632324 1.94886779785156 -2.07671737670898 -4.94076347351074 -0.993231773376465 -3.76232242584229 -7.67971038818359 9.83338165283203 9.74311637878418 8.08493423461914 -0.681127548217773 7.24435806274414 -9.55434799194336 2.9241464138031 2.93993186950684 -2.07510089874268 -3.68666553497314 3.57644057273865 -9.73879241943359 -6.66738939285278 9.23164558410645 -3.8019552230835 3.65386724472046 -7.86468315124512 -0.639184951782227 4.64567375183105 -3.75570201873779 8.82902336120605 3.37431669235229 -3.75773334503174 -2.91017150878906 -0.630868911743164 7.52887916564941 8.65112113952637 2.82434916496277 9.60502815246582 3.10358023643494 7.26370286941528 4.99947071075439 0.255979537963867 -9.85765266418457 -1.59079647064209 4.06445693969727 -5.11190891265869 -1.4494457244873 9.1881217956543 9.1640453338623 3.5302562713623 7.50734090805054 -3.30380535125732 6.92032289505005 -5.4819393157959 8.80610275268555 5.97246885299683 -7.76618528366089 -8.23598480224609 -1.25248527526855 -5.12661170959473 4.86630201339722 8.50112724304199 -7.02035713195801 1.21168994903564 5.24883985519409 -2.24056339263916 7.17830419540405 -8.17255401611328 -6.87899398803711 1.29516220092773 -4.4240608215332 -4.41732025146484 6.05273962020874 -9.51266860961914 5.01836013793945 -2.33553791046143 -4.41244220733643 -7.6966667175293 6.09944534301758 6.78441762924194 -7.62206840515137 -8.18317031860352 8.54326629638672 -4.33464622497559 9.79652404785156 -4.13023567199707 3.2709002494812 9.9973316192627 1.36874580383301 -1.74530124664307 -2.51973247528076 9.54613494873047 -1.57299613952637 -8.86257362365723 -5.06587028503418 -7.9409556388855 -2.28353595733643 0.929924011230469 -0.944305419921875 -4.5433464050293 5.24017524719238 -1.86218643188477 -9.27659606933594 1.70738124847412 -6.5068244934082 3.14481711387634 -4.56405258178711 -8.92210006713867 3.93260192871094 4.45270538330078 -2.06298732757568 -0.0984582901000977 6.57266807556152 5.26259183883667 8.30726146697998 -2.68265342712402 -2.50253772735596 -4.76028060913086 9.44644451141357 0.82245922088623 5.22850036621094 -0.294824600219727 0.292409896850586 1.39312171936035 -0.0572528839111328 -9.79590606689453 -8.35085296630859 -0.928193092346191 -4.75708103179932 8.46784973144531 4.20268058776855 9.89536285400391 -0.162206649780273 2.87887072563171 -5.353684425354 -1.58813095092773 1.76052951812744 9.83044815063477 0.557914733886719 -2.131103515625 -3.21050548553467 4.06464767456055 8.89430236816406 -4.64748764038086 -4.17490386962891 -9.11769485473633 -5.28727340698242 7.2252631187439 -4.88215065002441 -0.336986541748047 -9.75653457641602 -1.28772354125977 -8.27858924865723 0.281344413757324 8.28134727478027 -6.57678174972534 -8.64671897888184 -9.31081581115723 -0.262092590332031 5.11544418334961 7.64337968826294 -4.98338603973389 -8.61496162414551 9.34063148498535 8.41034889221191 -0.0847015380859375 -3.57237911224365 9.16879463195801 4.85479116439819 5.4970908164978 -0.366865158081055 2.60499453544617 -6.2096118927002 0.722332954406738 -5.96575736999512 7.64965486526489 5.12025594711304 6.90256834030151 8.568434715271 -2.18910121917725 9.90044403076172 -3.72551536560059 5.16755294799805 -6.29729795455933 2.57090067863464 -7.69223976135254 -7.56982612609863 5.27164459228516 -5.47118949890137 8.32641983032227 -3.76425647735596 -9.50794982910156 -1.84009647369385 3.87755846977234 3.67019152641296 -9.43648529052734 6.82734251022339 -7.61580276489258 -5.7843132019043 -3.49220371246338 8.07153511047363 1.92604160308838 -4.10841083526611 6.63934278488159 5.1194429397583 3.56485819816589 4.0350341796875 9.0813159942627 2.2170295715332 -9.38827896118164 -3.81085300445557 9.00019454956055 -7.73862075805664 -6.54065895080566 2.57926177978516 1.16524314880371 -4.1321382522583 -9.69408416748047 0.823012351989746 -2.53748798370361 2.92046737670898 0.365167617797852 -4.44771385192871 2.4786958694458 -7.33481931686401 3.34917998313904 -7.81502914428711 -4.64395427703857 -1.99556446075439 9.72361373901367 -1.43636131286621 0.121699333190918 -2.39361190795898 -7.81502199172974 -8.63495826721191 6.81803178787231 -4.58045101165771 -8.28642654418945 8.56442451477051 -5.03534126281738 -7.07544136047363 1.46184539794922 4.23697662353516 -2.38779163360596 5.9311695098877 -0.378631591796875 1.29777812957764 -5.10600852966309 4.98653602600098 9.67592620849609 -3.16985988616943 -3.20603942871094 -0.687746047973633 -0.516284942626953 7.35529136657715 4.19138145446777 6.26998901367188 -2.52057647705078 7.09541749954224 9.56237983703613 -6.79287147521973 -6.04662704467773 0.391887664794922 -8.55366516113281 2.27511024475098 6.09795761108398 2.07604503631592 |
0.310359954833984 -4.60410022735596 -1.49546241760254 4.78147983551025 9.86417770385742 2.73007369041443 -4.37843704223633 -2.23627662658691 1.29358863830566 6.36373519897461 -7.2870044708252 -1.01989364624023 -7.34208106994629 0.19431209564209 -5.80700397491455 -5.2576208114624 8.62137031555176 0.448941230773926 -9.64752388000488 8.45248222351074 6.28742218017578 9.4541015625 -2.55746936798096 0.0542411804199219 7.04085350036621 -0.437046051025391 9.86007690429688 -1.21509170532227 -3.04955101013184 -3.20826148986816 3.55356931686401 -8.60006523132324 7.74925231933594 7.94913482666016 8.83503341674805 -2.89321041107178 -3.01872634887695 -5.60711097717285 9.63571929931641 -7.15526390075684 7.29142379760742 -9.73528861999512 7.95752000808716 7.72761869430542 -0.269903182983398 -4.88163089752197 5.21576118469238 0.573297500610352 -2.8709545135498 -5.83549976348877 -0.433588981628418 -7.99802350997925 -9.05123138427734 -4.61069011688232 -4.46803665161133 8.89600944519043 1.69320201873779 -9.34723091125488 5.27795553207397 -7.19953107833862 -2.90371513366699 7.61949110031128 2.1850528717041 -3.47822761535645 5.75041007995605 5.19862651824951 -6.4326286315918 -9.20960235595703 -9.12445259094238 -8.75356674194336 -3.93530941009521 -8.15896224975586 -8.44020843505859 2.50626754760742 5.37800550460815 -8.17611312866211 -0.775757789611816 -5.52341270446777 -9.07742500305176 -4.42133522033691 7.52417039871216 6.36516571044922 -7.9502911567688 -2.57434463500977 7.6797251701355 -5.31343650817871 7.80388832092285 1.62999534606934 1.67572116851807 5.16727447509766 -3.41911697387695 3.90377020835876 3.48692655563354 -1.35825538635254 -7.42346954345703 -2.27445030212402 -0.666080474853516 -0.903669357299805 1.04872608184814 2.84500098228455 -3.61986255645752 0.403460502624512 -0.45948600769043 0.505217552185059 -1.7448558807373 -7.32509422302246 7.21202611923218 -0.0147809982299805 -4.30383777618408 -3.97696590423584 -3.05902862548828 1.53902912139893 8.60027122497559 9.81548500061035 -7.69527006149292 9.72835350036621 5.16747236251831 -2.53938579559326 -4.93562602996826 -0.989514350891113 9.50002670288086 3.65682792663574 -0.510930061340332 7.16358613967896 3.39773368835449 -1.1762752532959 -7.95577049255371 2.17404270172119 5.65310478210449 9.74846649169922 1.32204914093018 -1.31826496124268 -5.79571914672852 8.18843650817871 -4.5819034576416 -1.2239875793457 -5.26434707641602 2.50082206726074 -8.83477783203125 -7.69342231750488 2.4612340927124 1.68097400665283 -5.49153804779053 4.34241485595703 5.96793365478516 -0.873435974121094 -0.594352722167969 -6.63600921630859 0.89494800567627 5.64249515533447 6.35453939437866 -8.27531051635742 7.40310668945313 1.90404987335205 -6.15639877319336 7.43039655685425 6.39143419265747 -9.74543571472168 1.42633819580078 4.07503128051758 1.09240913391113 -6.57274436950684 4.89750862121582 -2.63945484161377 -3.88290786743164 -3.57807731628418 -9.08272743225098 1.4213285446167 -9.8038444519043 -3.61920928955078 0.557197570800781 -7.77543592453003 4.0576171875 -5.00430107116699 0.852397918701172 -5.48807144165039 -3.1857385635376 2.26753807067871 3.763432264328 2.45046043395996 5.71127891540527 0.831302642822266 -6.15165519714355 -4.90389251708984 -6.59798812866211 -9.40535354614258 -8.21626281738281 -6.00359153747559 6.67100477218628 -4.89510440826416 -5.03669929504395 -2.04439258575439 -2.8001537322998 0.506400108337402 2.11499309539795 5.50148010253906 -0.551694869995117 -1.23073482513428 6.90169858932495 1.5104808807373 8.41799163818359 8.77773284912109 7.78337907791138 -7.36982536315918 -1.07455348968506 2.78643107414246 -2.69659614562988 7.26119565963745 0.654839515686035 6.69344139099121 -8.58832931518555 9.41259765625 4.26012754440308 0.548611640930176 8.63646984100342 6.66872215270996 9.67284202575684 9.12416839599609 -3.1156120300293 4.20251369476318 -5.5396728515625 -4.30229759216309 -4.33973217010498 3.99487471580505 -4.8890266418457 -3.4052267074585 -9.50736236572266 7.80643224716187 -2.53316020965576 -2.35951042175293 -6.96826934814453 9.87769603729248 -7.29110908508301 8.7174072265625 -0.141201972961426 2.73885226249695 -4.43372344970703 -9.73506736755371 4.83696460723877 1.50895977020264 -3.33673572540283 -6.62186098098755 -5.45965671539307 -4.74714851379395 -2.09179782867432 -6.86661529541016 -7.833251953125 9.79669094085693 -9.43856048583984 -4.83176612854004 -0.837861061096191 -7.67589569091797 -2.79703998565674 0.0985136032104492 -8.38574409484863 7.18488264083862 -9.18685531616211 5.92116355895996 4.51856803894043 3.05454969406128 -9.83621406555176 -6.58182144165039 -6.58668947219849 5.60876369476318 -4.94361019134521 6.39742088317871 5.71259689331055 -8.81826591491699 2.89579367637634 -0.897856712341309 -6.40871047973633 -6.34776639938354 -0.00682735443115234 7.6639461517334 -5.79265403747559 4.35308647155762 -6.54056549072266 3.11186552047729 -7.74562072753906 -0.968090057373047 -8.83712387084961 2.32121849060059 -4.25457572937012 1.84469795227051 -0.362912178039551 3.2473418712616 9.68024444580078 -4.64347743988037 4.07005786895752 3.64821624755859 9.68813323974609 7.91368913650513 1.33477592468262 -4.18011093139648 -5.30495452880859 -9.10610961914063 -7.64111328125 4.23304319381714 -1.24935245513916 9.39297485351563 7.60335922241211 9.77253913879395 -3.78246879577637 9.42745590209961 -3.36731052398682 9.57305431365967 4.46821928024292 2.42380714416504 7.44747591018677 5.98948240280151 8.43762397766113 7.74418830871582 -5.53819179534912 -9.02202415466309 -2.62627220153809 7.07955551147461 -6.49591016769409 -6.30854606628418 -2.37310981750488 -9.34227180480957 -6.64848518371582 8.5918025970459 8.565993309021 -6.44993257522583 -1.45977115631104 5.58051300048828 -8.4150505065918 -5.04659652709961 -8.98078155517578 4.54517364501953 -1.51302433013916 -5.04408645629883 -1.09291172027588 -9.76074600219727 7.75005340576172 9.17441558837891 3.96973371505737 5.11137008666992 -6.57462644577026 7.48358917236328 0.320464134216309 6.92358732223511 -9.01909255981445 -1.70497798919678 -2.44327449798584 -9.94441032409668 2.54782438278198 2.70042872428894 -9.48097229003906 9.74615287780762 -6.36111259460449 0.951882362365723 -9.95995330810547 5.7042384147644 -4.33752918243408 -7.52029418945313 -1.40658760070801 3.36334419250488 -7.76858329772949 7.09071350097656 0.987385749816895 3.07171583175659 4.45204925537109 -8.89763641357422 2.24413013458252 -9.70520973205566 -1.59494018554688 -0.417777061462402 -4.62884998321533 -3.83466148376465 7.35798597335815 4.8408145904541 -4.68428707122803 1.67133235931396 -7.04874992370605 -8.81990051269531 -4.29198360443115 8.68150234222412 -0.66346263885498 -3.29258823394775 -9.99333190917969 3.24117851257324 -7.02406358718872 4.57592725753784 -5.47649192810059 3.22648024559021 -2.30448818206787 7.59294939041138 -1.0972728729248 -0.593052864074707 6.61444854736328 6.03633880615234 -0.486287117004395 3.42185950279236 -1.47900676727295 -3.80494022369385 -6.20943069458008 4.01004314422607 -1.70903587341309 2.55139112472534 |
2.55254244804382 9.22327041625977 6.56996488571167 -8.79129791259766 7.52238035202026 4.89203453063965 6.26091432571411 0.0623359680175781 8.00831031799316 -3.99679756164551 -1.71814346313477 -0.309714317321777 2.22042179107666 6.73448753356934 6.37015533447266 5.28557538986206 -6.39832496643066 2.88686943054199 2.9825541973114 -0.981479644775391 9.47582626342773 -5.3074836730957 0.482787132263184 -0.273517608642578 -7.91488218307495 4.97861099243164 8.25441741943359 9.02466201782227 -9.01995849609375 -6.3234806060791 7.08773803710938 -7.58232879638672 5.55196285247803 -3.61605262756348 -0.949078559875488 9.47958946228027 9.86982154846191 -6.76851272583008 1.99062252044678 1.78629302978516 9.82199668884277 0.442174911499023 8.69907569885254 0.661674499511719 6.13153219223022 -9.57114219665527 -3.02745914459229 -4.26870441436768 -3.87256717681885 8.08809089660645 2.25545787811279 -5.98085403442383 -7.03259468078613 7.02593994140625 1.80669403076172 -0.829943656921387 -4.02207946777344 7.74208498001099 -6.95743989944458 -3.87087917327881 -6.15241241455078 -0.699800491333008 6.05820846557617 -3.34843254089355 -5.5612678527832 7.96800804138184 -3.769606590271 3.99187064170837 -0.639761924743652 -8.62375640869141 3.02516913414001 0.443347930908203 0.500740051269531 -6.38367128372192 2.83554267883301 7.58888959884644 1.33552169799805 -3.29919242858887 3.9328715801239 7.08416700363159 -6.86833906173706 -0.925122261047363 -0.19403076171875 -7.92218017578125 -0.258379936218262 -1.40655422210693 -2.52269172668457 -9.99631690979004 3.11650729179382 5.76040267944336 -5.15913963317871 -7.02123832702637 4.06978130340576 -5.16127777099609 1.0852632522583 -6.20874404907227 -7.24303770065308 3.27864623069763 -0.769852638244629 -0.459195137023926 0.796700477600098 0.342806816101074 -4.30735015869141 -5.31008529663086 6.57278251647949 6.53136444091797 -7.84912538528442 -6.9650502204895 -0.728579521179199 -4.45664501190186 -2.22197151184082 -3.14003372192383 2.09059143066406 -8.79059219360352 -3.77638912200928 -4.86516571044922 -3.4876766204834 6.02168083190918 6.69284820556641 -7.8087043762207 6.90958452224731 -0.8101806640625 6.97531700134277 0.986517906188965 2.27953338623047 -6.06741380691528 -5.44966506958008 2.72229909896851 0.988913536071777 -0.451091766357422 -8.38372230529785 -9.80812072753906 -8.21281623840332 4.65994834899902 7.67926216125488 -4.16690731048584 -6.35821342468262 4.46380805969238 -9.69821548461914 -3.87298202514648 1.35774707794189 1.78373241424561 -9.85846328735352 -1.11515617370605 -2.67374610900879 -4.74524879455566 6.99904441833496 -3.17121410369873 6.93139266967773 3.79817461967468 6.62249040603638 1.18507289886475 -4.85814952850342 4.05414772033691 5.26920318603516 -9.80539703369141 -0.875659942626953 -1.36283016204834 4.08961486816406 5.98524284362793 -0.135499000549316 3.66932845115662 -3.90049362182617 2.66509032249451 -9.61563110351563 1.95379161834717 -2.88936996459961 3.1060836315155 4.25085544586182 -8.24155044555664 -3.82522201538086 0.350481033325195 5.26519966125488 -3.56641387939453 -6.83794450759888 -8.60605430603027 -7.15598297119141 -0.374308586120605 8.81416702270508 3.03012347221375 |
