-2.06 -1.04 -8.2 -2.94 6.7 -2.11 -6.52 -8.03 -7.04 0.39 -8.07 5.96 -5.57 -0.65 8.52 0.15 -5.35 8.61 -5.78 7.7 -0.07 -5.07 -1.53 -2.87 0.55 7.84 1.98 -6.85 -0.33 6.41 -4.74 -4.6 4.99 -9.54 8.23 0.76 -7.69 1.47 3.18 5.44 -6.73 1.49 4.2 -7.73 7.88 9.73 5.24 6.22 5.76 -4.05 9.48 9.83 7.16 -0.1 -2.92 -7.47 3.97 -8.67 -1.17 -4.07 -4.43 2.01 -1.22 -2.49 -2.88 0.44 -8.25 -7.85 1.46 8.78 4.91 -1.58 -7.16 8.26 8.22 0.09 -2.24 8.57 -9.95 -1.98 -6.14 0.65 4.32 -6.26 0.83 3.24 6.61 -2.52 3.34 -2.22 -0.99 -9.84 -10 4.4 -9.47 4.84 -1.36 5.94 -5.95 -2.22 1.97 6.67 6.17 -2.26 -7.91 -1.17 -4.49 3.42 9.06 3.83 -4.09 -3.51 -2.02 -8.95 6.92 -4.59 2.01 4.38 -3.02 2.27 -8.2 -4.19 8.09 -6.32 -3.19 8.24 2.24 5.1 6.17 -0.62 -5.42 4.33 9.5 -3.79 -7.9 7.37 -7.34 3.27 -3.19 -4.59 -8.77 -7.77 -9.51 -8.93 -4.03 -6.8 -7.94 6.31 -2.41 -7.71 -7.4 3.53 9.76 4.66 -6.81 7.63 7.16 -0.05 -4.37 -5.29 -3.84 2.23 -3.39 3.64 2.59 -6.32 -4.01 -3.09 5.07 3.72 -6.65 5.69 -3.21 -5.31 -0.33 -1.74 -3.96 -6.58 -9.51 -0.82 -8.93 -7.72 -0.54 1.46 -6.79 2.34 -2.28 -4.15 3.62 8.42 1.38 5.74 8.2 3.09 -7.94 -4.47 5.44 5.8 1.4 7.71 7.15 8.63 5.82 8.41 -8.79 -9.69 -5.93 -1.7 1.45 0.84 -0.1 1.31 6.33 -2.79 3.32 0.42 4.03 3.51 1.57 -2.95 -1.77 0.18 5.51 7.35 6.56 -5.29 9.87 -1.62 -6.53 -0.65 -5.81 7.73 1.97 -0.36 9.27 -0.25 -4.05 -7.76 8.13 2.79 8.31 4.21 4.27 -3.44 0.18 -8.8 -9.77 -9.16 6.53 7.34 -4.34 -2.94 2.33 -7.96 3.52 9.42 -3.35 -3.82 9.13 1.46 4.36 -8.18 0.17 8.65 2.53 5.69 7.03 -0.23 7.02 2.12 0.18 3.19 6.98 4.23 -8.62 -8.83 7.84 3.46 -6.17 7.13 8.06 3.69 -0.76 2.01 4.99 -7.64 -2.45 3.32 7.11 -6.42 2.72 6.17 -4.79 -4 -7.4 -4.89 7.23 -9.96 -4.83 -0.99 -6.65 -3.24 7 9.39 9.28 1.97 7.81 -9.68 -2.95 1.15 1.86 3.32 -0.93 5.55 8.73 8.18 6.6 -5.84 6.04 -2.59 8.46 6.98 -5.41 -1.99 -1.24 -6.58 6.18 7.58 4.94 -0.59 -6.65 7.51 -3.59 2.68 -4.73 -5.27 -5.38 3.68 3.27 6.8 -4.25 -6.61 7.27 -0.31 -4.89 5.73 1.57 7.19 7.23 9.18 |
-1.08 9.64 -4.91 5.76 -4.35 -4.17 -9.65 -5.68 4.12 4.54 -2.65 -5.87 -2.95 0.25 -4.61 -1.53 6.05 9.37 0.43 -7 -3.39 9.4 -3.07 6.86 8.48 8.81 1.89 -1.17 -7.64 -7.08 -6.94 1.86 -6.54 -9.61 -7.95 9.22 0.46 6.15 -2.72 6.79 -1.32 -4.76 -6.75 0.27 0.19 -3.65 6.45 -9.59 1.2 -3.71 -6.16 -7.27 4.83 4.3 6.11 7.06 6.17 -5.31 3.7 -3.57 5.37 -5.81 7.03 7.32 -4.14 -7.89 -9.13 6.77 -9.94 9.04 2.01 5.63 -1.84 -5.87 9.15 -6.13 -5.43 2.62 -9.26 -8.58 -7.36 -2.81 5.13 5.93 -2.45 8.86 4.82 -3.87 4.53 9.94 8.34 3.68 6.09 -1.77 -5.23 3.04 7.07 9.11 1.11 -3.69 -8.23 -6.17 9.67 -0.23 -6.35 6.64 -2.4 8.9 -3.25 7.25 -7.77 0.04 0.16 3.76 -1.92 -8.32 -1.9 -1.2 2.54 2.81 -4.97 -8.24 -4.34 3.74 7.26 -1.82 5.95 8.38 -9.52 -7.49 6.26 -4.33 -4.14 -6.51 9.19 2.59 7.03 -8.63 -2.16 -4.14 0.76 -3.98 3.58 -8.29 4.9 6.57 -1.98 -7.66 0.96 6.59 7.08 8.68 8.63 -1.4 0.04 6.1 7.96 6.18 0.58 1.06 9.61 -3.78 1.05 -9.12 -3.52 6.21 6.45 -1.56 8.85 1.5 3.66 -4.25 7.83 5.94 5.72 -3.65 -6.87 7.06 -6.31 -8.84 0.21 9.77 -2.2 -0.59 -7.1 0.03 4.62 -5.02 7 -7.03 6.14 -1.42 -7.49 6.34 2.2 -4.99 -1.82 7.64 -4.02 -1.45 3.44 0.96 8.65 -0.2 -3.62 7.31 0.88 -0.79 -4.3 -10 -8.52 2.98 9.17 -2.39 4.91 1.03 -6.29 4.7 -1.32 -8.53 -1.98 8.81 -7.54 0.3 8.05 -7.3 -2.9 -1.98 -0.44 8.41 5.46 3.91 1.36 -6.32 9.68 7.22 -9.41 -9.81 4.5 1.86 -3.68 9.91 6.3 5.52 4.95 7.33 -3.88 2.21 8.28 -0.5 7.9 -9.84 -1.92 -2.43 3.08 9.52 9.6 4.96 0.12 -0.85 6.71 0.69 4.71 3.83 3.68 -8.44 6.68 -6.36 2.65 7.58 -5.1 1.49 6.42 9.17 -6.44 -2.14 0.72 4.88 7.22 8.52 -6.91 2.13 7.9 -9.6 -8.31 -5.23 9.2 7.52 0 8.11 -9.46 6.94 -2.47 6.91 -3.04 4.83 -6.51 7.12 1.96 -2.91 -3.4 1.23 4.99 9.75 -3.6 -4.23 -7.75 -2.33 -4.12 -1.7 -9.68 -7.93 -5.05 2.01 -1.39 9.77 -6.85 7.79 -3.13 8.84 8.07 9.56 1.68 -4.45 0.98 3.67 6.5 6.66 2.77 7.79 -4.4 -6.95 -1 -1.09 8.2 -8.98 -2.82 -4.11 1.79 -8.08 -8.39 -8.6 0.65 1.16 -9.97 -9.02 -4.75 -8.03 -4.07 3.28 8.33 -3.17 -5.66 4.16 -8.51 -6.45 -7.78 -3.93 -8.45 -4.63 8.59 6.36 5.88 -6.05 -3.32 8.91 1.41 3.79 1.97 -2.38 4.51 -8.82 1.86 3.58 -9.49 1.24 5.21 7.52 -5.94 -2.58 1.44 0.42 5.1 -2.6 9.2 -0.77 -2.84 -4.96 -7.78 9.28 -0.39 3.38 3.91 -5.84 -2.6 -9.57 -0.46 7.07 0.64 -1.21 -4.24 -2.27 7.9 8.5 -8.17 -2.1 1.72 6.94 4.95 2.25 6.39 7.17 -6.16 -7.73 5.76 -4.8 -7.56 1.72 6.55 -3.76 -0.63 4.34 -6.86 -6.82 -8.14 -3.22 -6.73 3.35 1.74 2.6 9.51 8.27 -7.44 1.81 1.03 4.26 -3.43 2.83 1.63 4 -3.22 5.43 -1.51 5.98 -0.09 5.26 0.23 0.73 -7.71 -9.38 7.16 6.18 -4.68 8.03 -0.73 -2.51 -4.83 -3.91 -2.54 -2.44 -8.67 8.88 -4.7 -9.05 -4.54 -9.05 -1.32 -2.14 2.35 -9.51 4.96 1.71 -0.58 5.92 -0.92 3.18 -0.98 -4.89 3.9 4.37 -8.4 7.18 -4.11 -5.82 1.26 -9.38 2.96 -8.4 -3.65 0.08 -4.42 8.7 -9.53 1.14 9.03 5.07 -4 2.56 -3.11 6.72 |
-3.76 -4.88 6.83 -2.08 9.01 9.98 0.29 -8.86 -3.24 -1.36 4.52 -6.44 9.73 7.37 -8.02 -7.37 8.41 4.16 -8.08 0.38 4.94 6.12 -9.03 5.63 4.24 -0.16 4.88 -8.5 6.91 -0.9 -7.11 -2.12 8.34 -4.75 9.84 8.04 7.44 -1.49 -7.81 -1.37 -7.79 8.8 9.68 5.96 5.13 -0.54 7.72 -5.16 6.89 -0.81 -9.81 -5.5 5.65 7.79 3.82 8.36 -3.22 1.57 -1.92 -9.03 -7.47 -8.23 8.94 8.13 -3.57 5.72 -6.12 -6.24 -7.77 2.52 -5.1 3.56 7.26 2.73 0.19 0.43 -9.54 -6.82 -8.2 5.87 -6.95 -6.7 3.41 5.93 -3.43 -8.89 -1.07 -9.8 8.82 -5.89 4.15 3.68 -3.73 -0.33 -6.28 -1.36 -8.47 -3.05 -4.23 -5.3 -1.01 4.54 -6.97 -8.98 -3.87 6.88 1.08 9.71 1.21 2.7 -0.57 -3.43 2.75 -6.04 -3.19 -1.15 5.5 -0.74 4.4 7.78 |
