-6.20634078979492 -3.45553016662598 4.17360305786133 1.68089485168457 -6.73649978637695 -9.98229789733887 -5.48607063293457 1.74049472808838 2.67360663414001 -3.53220367431641 -3.59805965423584 2.98519587516785 -9.24875450134277 -0.452112197875977 6.49691343307495 -4.27867031097412 0.634426116943359 1.54752635955811 7.7290153503418 7.45073509216309 -7.18108177185059 -3.88501739501953 -6.06891202926636 3.78986811637878 5.81307411193848 0.230244636535645 -7.7189679145813 -7.40917205810547 -8.60158538818359 6.85472249984741 -3.13870525360107 -3.93387413024902 -6.95394706726074 3.83272886276245 7.47161102294922 4.81575489044189 -1.95778751373291 3.39897346496582 4.00268745422363 8.14287185668945 -9.77632141113281 5.14052867889404 7.54739952087402 3.98312544822693 -1.92566967010498 0.925926208496094 0.531929969787598 -7.47205305099487 7.34905433654785 9.4632511138916 -7.18314695358276 -9.59846496582031 -6.84845161437988 7.95710754394531 -4.63123226165771 -0.261377334594727 6.5422797203064 1.91716289520264 0.213829040527344 4.71719932556152 4.15761184692383 -1.08167266845703 -3.1497917175293 -6.64941024780273 1.69918441772461 -2.85545921325684 1.71188735961914 -1.7425594329834 0.113969802856445 -5.77958869934082 -9.9920654296875 -7.05094861984253 -9.33765602111816 7.33672142028809 2.03173732757568 -5.16069602966309 9.277099609375 -8.10514831542969 -3.58265781402588 -0.06036376953125 2.58813834190369 -2.26040744781494 -3.8577184677124 -3.86395359039307 -1.92569637298584 5.10438442230225 -9.10546875 5.17113876342773 -0.485793113708496 -1.98603248596191 4.29292678833008 -6.73551750183105 -9.43474578857422 -4.8312816619873 -6.35675430297852 -6.38010454177856 5.73129844665527 -1.91306495666504 6.61383390426636 4.69527435302734 -4.61294555664063 -5.76830387115479 4.42088317871094 -0.450858116149902 -5.20611763000488 -2.39644145965576 -5.23171234130859 -2.14354419708252 6.31071090698242 2.41216564178467 8.07878684997559 -5.58937835693359 -6.71557235717773 0.328673362731934 7.13153076171875 -0.5098876953125 -3.01105117797852 -2.21977615356445 7.7754020690918 -2.18897914886475 9.48685073852539 1.08561611175537 7.96649932861328 6.68121528625488 -1.29523181915283 9.8298168182373 -8.68940353393555 -6.82774543762207 -5.1866340637207 6.77053213119507 6.46581649780273 -9.18580055236816 -0.0289592742919922 1.54746913909912 -6.51207160949707 8.6251163482666 -9.18461036682129 -1.67650127410889 -1.8872537612915 -5.66721725463867 -0.497127532958984 9.58338928222656 9.55380439758301 4.13104248046875 -3.97508525848389 7.1703028678894 0.874995231628418 -0.115002632141113 6.53683662414551 3.3999080657959 -4.53856563568115 -8.18029594421387 9.17884826660156 -4.23042869567871 8.91086959838867 1.04744815826416 6.31917524337769 5.02816915512085 4.98337745666504 -4.90177059173584 -8.0421085357666 4.23679828643799 5.01282453536987 6.18601226806641 4.11862134933472 -6.1755518913269 -0.120674133300781 -7.16247749328613 -9.15290069580078 -4.28052997589111 6.56513214111328 -8.81547546386719 2.0605411529541 3.59330892562866 -4.94714641571045 6.27584028244019 8.3252477645874 0.18128776550293 1.05137920379639 1.02645015716553 -7.84124803543091 0.197497367858887 -1.03952980041504 -4.37707805633545 4.37633037567139 3.38273763656616 3.23852300643921 6.53139114379883 3.18991422653198 4.06591415405273 4.73883819580078 2.67590284347534 0.633429527282715 -0.738767623901367 7.74258375167847 5.14235019683838 -2.31786632537842 -2.70758056640625 4.79372978210449 3.69743323326111 5.10379981994629 -2.46031188964844 3.36710691452026 7.47564744949341 -7.21040534973145 0.167569160461426 9.43508911132813 -2.60722255706787 -2.57653617858887 3.45194315910339 8.05009078979492 7.79721975326538 -4.82606983184814 0.257955551147461 8.33350372314453 5.35600185394287 -6.05629730224609 4.75627422332764 9.76869773864746 -1.46207237243652 -1.93930721282959 -6.35778617858887 0.132597923278809 -9.66129684448242 -8.17538261413574 -2.31925392150879 3.05949664115906 -3.43569660186768 -4.15775394439697 -1.14595794677734 4.64601516723633 -7.00371551513672 2.20511531829834 0.215755462646484 -4.48691749572754 -9.93295478820801 9.7225170135498 9.60501098632813 -5.57282638549805 -1.78851222991943 5.46586513519287 6.31288528442383 5.13484001159668 -8.98031616210938 2.65394186973572 -8.21307754516602 9.59071159362793 -2.04592800140381 -4.59075546264648 -4.59961032867432 5.58982610702515 4.01659488677979 -5.86783885955811 -4.24011611938477 -3.25949287414551 7.28722333908081 3.25109672546387 -2.39999866485596 -9.98533248901367 5.8254599571228 -1.26814937591553 7.4007773399353 4.1021842956543 -1.90075302124023 -0.297225952148438 -4.8204288482666 -1.63066005706787 7.05439043045044 -6.18184089660645 6.55518531799316 4.50344800949097 -5.48547267913818 2.82660937309265 4.55974578857422 9.95549201965332 -3.48475074768066 7.68769788742065 3.1737277507782 6.20419692993164 7.58724403381348 0.215243339538574 -7.30542707443237 0.140532493591309 0.919147491455078 2.5606894493103 -5.23527336120605 3.90671491622925 -7.60009574890137 -4.21853446960449 8.70393943786621 -5.39778900146484 6.52752637863159 6.04244947433472 -2.48819923400879 6.54238700866699 7.15226697921753 4.89999532699585 2.31694316864014 1.99964141845703 8.81913185119629 -2.16632461547852 -5.05374908447266 7.88207769393921 -7.74071502685547 -9.703369140625 -3.91952419281006 7.90850830078125 -6.29145431518555 -1.56412506103516 7.1723895072937 2.98082113265991 7.02475309371948 9.13809776306152 -8.24874687194824 -2.14194679260254 -1.37307071685791 -2.9450855255127 -5.35485458374023 3.20646262168884 -6.28833770751953 -4.24072647094727 2.64287185668945 8.39226722717285 7.17558860778809 -4.88615894317627 -8.36900520324707 -8.42601585388184 -5.90429306030273 -3.07292366027832 -6.02313804626465 5.45367956161499 -2.00802898406982 -0.553670883178711 -3.9673433303833 4.35035228729248 -8.17507743835449 -2.31028652191162 -4.78155517578125 5.02508163452148 7.8616099357605 8.73493576049805 -7.4786491394043 9.53634452819824 -3.03082084655762 7.22164583206177 -2.21398735046387 9.16411399841309 4.48317718505859 2.48019790649414 -0.0349464416503906 -0.553141593933105 1.78502655029297 -9.46672248840332 -6.35538530349731 2.40899467468262 -1.94999313354492 -6.64255142211914 2.35937213897705 -8.7096004486084 9.04265403747559 -0.307904243469238 -7.92185258865356 0.249165534973145 7.73493003845215 1.75211334228516 -2.14996910095215 -6.88249778747559 8.56390762329102 8.55908584594727 -8.23447036743164 -7.72770118713379 -2.32838535308838 -2.23293685913086 3.78070592880249 -4.45022678375244 -1.78933715820313 -7.99788665771484 -3.69588470458984 -0.0395002365112305 -2.63529396057129 -9.93954658508301 -8.97628402709961 -8.95907974243164 -0.541624069213867 8.76298427581787 -6.73228788375854 -5.45845985412598 8.70470809936523 2.40065479278564 -6.17901277542114 -9.12836456298828 -5.36892414093018 3.59601211547852 -1.69684505462646 -4.80972194671631 -7.20291566848755 3.05339050292969 -1.24055480957031 8.69853782653809 -1.78760623931885 2.26175403594971 7.02654075622559 -8.43733024597168 8.38529968261719 7.43549776077271 -2.95582866668701 -2.15986633300781 2.01396083831787 -9.82357788085938 7.09693145751953 -1.92371940612793 1.63830661773682 -6.60684394836426 8.76749992370605 6.08167409896851 -8.80120849609375 1.62753009796143 -9.26171875 -8.21142387390137 -4.23303699493408 9.73430156707764 3.67025136947632 3.78133535385132 -5.77313232421875 -2.16285610198975 -6.66745710372925 -4.91551780700684 -5.53767967224121 4.27657604217529 8.96579742431641 0.676859855651855 0.490108489990234 -8.96268463134766 -5.17880630493164 -1.3490571975708 7.71208238601685 -0.282760620117188 -9.4548397064209 -4.31820011138916 2.80038595199585 -5.67609310150146 -7.30554151535034 9.02753353118896 -5.12708854675293 -7.00854110717773 -1.3771333694458 3.91891241073608 9.29684448242188 -6.34906339645386 6.56718444824219 7.90419769287109 0.376263618469238 -0.72461986541748 -2.10959529876709 -7.61560440063477 0.623126983642578 -6.06253433227539 0.940603256225586 4.14119911193848 2.68832921981812 -2.63283348083496 3.50820517539978 9.95783615112305 -8.12414169311523 -6.03977966308594 -9.32558822631836 0.47108268737793 -2.36746692657471 -0.594996452331543 3.16567873954773 -1.40069580078125 -5.85211563110352 1.6058931350708 1.07958221435547 2.55599737167358 0.740636825561523 -9.25642776489258 -5.23511123657227 3.33460569381714 1.70556926727295 4.5359206199646 9.27248001098633 0.728689193725586 0.225163459777832 -9.49812316894531 6.07927083969116 -5.34868717193604 -5.99435329437256 4.0706992149353 9.52593994140625 7.38126516342163 -3.30855274200439 -0.29936408996582 6.37344121932983 1.4548864364624 -1.01267242431641 6.28646612167358 -1.85542964935303 1.899169921875 3.99533724784851 -3.61126804351807 4.67998266220093 5.05902481079102 4.45965766906738 1.828537940979 1.23837375640869 2.39999866485596 -3.93579578399658 -7.78516960144043 9.44566535949707 -3.7107982635498 -4.30463695526123 -4.83652019500732 7.29717016220093 -2.25201034545898 2.19338512420654 -1.52890777587891 -7.17947769165039 1.54798603057861 -2.60186290740967 -9.58042335510254 -3.0553617477417 8.49352645874023 -6.99289131164551 -4.37277698516846 8.28555583953857 -1.92175483703613 -7.23008346557617 -6.15102577209473 -9.9091739654541 -4.03746032714844 -0.143593788146973 -6.26724433898926 -9.3497257232666 5.66906452178955 5.03048658370972 -7.08733367919922 -7.73361206054688 8.34321975708008 8.92650127410889 0.748225212097168 9.66509628295898 -6.19180679321289 3.4188289642334 -9.51929092407227 -8.10299301147461 3.55930304527283 5.09829521179199 9.59536552429199 -9.67447090148926 3.25076818466187 4.26147937774658 5.8247184753418 7.22097587585449 5.50560712814331 -0.920394897460938 -2.54108810424805 1.02100944519043 -1.52773952484131 6.21870231628418 0.357517242431641 3.33981704711914 0.939165115356445 -4.60189437866211 -8.22433090209961 -3.20285892486572 -8.43237686157227 9.1965274810791 0.0626411437988281 -0.0412521362304688 4.88619995117188 5.95576763153076 -9.60920143127441 6.05259895324707 -9.46689414978027 1.48707962036133 -0.114131927490234 2.95202016830444 2.08483600616455 5.75775146484375 7.5850887298584 -8.80763244628906 4.88605690002441 3.17776441574097 9.10109710693359 1.87793350219727 6.28579664230347 -4.67785930633545 9.18108940124512 1.13706970214844 4.59572315216064 4.12487506866455 8.21994018554688 8.97599029541016 5.31954526901245 5.23879766464233 -7.45109128952026 -2.37894153594971 -6.60787773132324 -4.59000682830811 -8.15034484863281 9.78875637054443 -9.84281730651855 2.42240047454834 -6.7741436958313 9.13983345031738 7.86748456954956 4.35733985900879 -0.532322883605957 -4.93567848205566 3.39605093002319 6.95497703552246 8.30981063842773 7.76338768005371 2.82725310325623 -9.49974822998047 8.09020805358887 1.04621982574463 6.08452987670898 5.968918800354 1.53662300109863 6.05058431625366 2.19614410400391 5.48326015472412 0.450519561767578 -3.54854202270508 4.55474090576172 8.02302169799805 -6.17971420288086 0.594481468200684 6.1548113822937 -5.97598266601563 -1.96061038970947 1.78609752655029 -1.32577991485596 -2.91214561462402 8.97995185852051 -2.81171417236328 -1.71358203887939 -5.31616401672363 -6.05483245849609 3.08847403526306 -4.82796287536621 2.62790870666504 -8.58476448059082 9.38012313842773 -8.97544860839844 5.32785177230835 3.54374647140503 -7.70690155029297 4.27279472351074 1.69366931915283 -0.728811264038086 -2.88597965240479 1.7234935760498 8.98213863372803 9.05556488037109 -0.921741485595703 2.5506112575531 -8.66251182556152 -8.79068565368652 7.0753116607666 8.9100170135498 4.58664894104004 1.98352241516113 3.41429686546326 4.03679847717285 5.40931463241577 5.54775714874268 0.628701210021973 -3.17016220092773 2.30889225006104 -5.28200912475586 3.01885581016541 -6.57107162475586 6.45213651657104 0.448025703430176 6.48310136795044 8.08189392089844 -4.41572093963623 -6.39475297927856 -4.66137027740479 9.73595428466797 -2.03437900543213 -6.58689069747925 4.60686445236206 5.33398628234863 4.49235439300537 1.88673877716064 7.96687316894531 8.31889629364014 9.07553100585938 -0.371242523193359 7.74445009231567 7.93972206115723 -7.22439575195313 2.36316299438477 -5.2383975982666 1.6158618927002 1.47145652770996 -5.44053554534912 -9.56262969970703 -0.382452964782715 9.27128982543945 -8.54883193969727 0.682307243347168 -7.88697052001953 -1.46478271484375 -7.81610298156738 -5.75846195220947 3.34267377853394 -3.94943618774414 -5.81217288970947 0.223926544189453 0.839863777160645 -9.09988403320313 3.79801940917969 8.21950912475586 9.90739631652832 -8.63816261291504 -9.97659683227539 9.2486457824707 -7.68033027648926 -2.93300247192383 6.93851041793823 5.3883695602417 -0.385469436645508 4.50676441192627 -7.26787567138672 7.96118927001953 -9.20772743225098 9.64410591125488 -6.07242155075073 -5.10240364074707 3.15252494812012 7.28453636169434 2.99995875358582 5.84622859954834 -1.77647686004639 -6.5761775970459 -1.01026439666748 -1.96231937408447 3.08436584472656 6.19462966918945 7.59711456298828 1.19366264343262 -4.09779453277588 9.93016719818115 -2.27325820922852 -6.38935518264771 -1.45026779174805 3.3747501373291 -0.288924217224121 9.15597438812256 0.879487037658691 -9.0255241394043 2.1995267868042 -6.71143007278442 7.56282997131348 8.43984794616699 0.613075256347656 4.90119171142578 0.453315734863281 -3.85787391662598 0.498150825500488 -5.66751956939697 -3.0282154083252 -7.26456451416016 3.22928404808044 -3.53009605407715 -0.58989429473877 5.8219165802002 -8.09306716918945 3.58159780502319 7.59313344955444 3.78764605522156 -7.69804191589355 -3.86593914031982 6.46398305892944 -0.761059761047363 0.373230934143066 -7.75848817825317 5.41172218322754 3.21761846542358 7.30301094055176 4.57217407226563 0.559049606323242 8.51830673217773 -5.74264526367188 3.49036192893982 -5.5422420501709 -3.12838649749756 -3.02460098266602 1.76077270507813 -2.75913333892822 1.60754299163818 -9.1370964050293 -7.04362440109253 -7.38182258605957 -0.0104150772094727 -9.83943557739258 -5.8747386932373 3.2499098777771 -5.53264141082764 1.13053226470947 -9.00417709350586 9.62323188781738 3.08276891708374 0.26826000213623 6.63634061813354 6.21016979217529 4.84005689620972 -1.23276329040527 -9.75227546691895 -3.076735496521 8.16302108764648 1.33997535705566 4.11962270736694 5.44292211532593 -9.66071891784668 -1.38549900054932 2.02939414978027 6.03096199035645 -0.0948867797851563 2.03514003753662 -0.0858678817749023 9.89530944824219 0.146265983581543 0.375314712524414 2.60198354721069 3.34373235702515 6.34687614440918 8.16894340515137 3.15389394760132 -8.0076904296875 0.250596046447754 3.35301852226257 7.46880006790161 -7.73216247558594 2.03344249725342 -5.8235912322998 9.5985050201416 6.23736381530762 8.37226104736328 6.63331747055054 6.10398054122925 -9.05761528015137 3.70960211753845 -0.195540428161621 -6.44153165817261 2.11991882324219 6.40599012374878 4.3864631652832 -8.91838264465332 9.23519134521484 5.46282529830933 8.35955810546875 5.69278478622437 6.59315299987793 4.10354375839233 -3.14487838745117 1.44980812072754 -5.5698184967041 -7.16075897216797 -9.16224479675293 4.21879291534424 -0.102142333984375 6.05437755584717 7.20710515975952 -9.38675689697266 1.00068187713623 -0.202861785888672 -6.1622257232666 7.25022077560425 -6.35579299926758 -6.83382987976074 -3.222900390625 -7.8956241607666 -0.640658378601074 -1.15879154205322 0.436595916748047 -6.87740755081177 8.87979030609131 -5.28217506408691 -7.97879981994629 -5.30976104736328 -6.05625152587891 -7.12615537643433 5.96907138824463 -3.53354549407959 1.67216396331787 -2.5892915725708 -4.76843738555908 5.03268957138062 0.814462661743164 -8.72017860412598 8.76576900482178 1.41202545166016 -6.15256309509277 3.48853302001953 -3.22336769104004 -6.33401870727539 6.19676351547241 -7.69053983688354 3.12421774864197 -3.43809986114502 0.761700630187988 2.602698802948 -0.646938323974609 -3.61338233947754 8.28026008605957 -8.92752838134766 -3.16454315185547 2.73801565170288 9.44493770599365 1.37926959991455 4.38365173339844 -5.96808624267578 -7.58737564086914 4.01195287704468 -6.71951293945313 -6.28825378417969 -4.9351921081543 -6.17058229446411 8.83481216430664 -8.23583984375 -6.37206077575684 -0.347562789916992 -2.13626003265381 -0.797504425048828 -1.99897193908691 -7.26154327392578 1.77768135070801 -1.01854228973389 4.88853216171265 -1.33356952667236 -6.77375793457031 6.70320272445679 -4.55971813201904 9.53677177429199 5.71153402328491 8.2100248336792 -7.70685625076294 1.22320747375488 4.98149633407593 -2.93179416656494 -6.74040603637695 -5.75230121612549 7.95022535324097 1.63024044036865 4.37390327453613 2.07614517211914 -2.19132328033447 -0.802651405334473 1.71892738342285 2.91226363182068 2.54782652854919 -5.52712249755859 -7.2288818359375 1.52560806274414 -6.95763397216797 -9.41510009765625 2.80963397026062 8.20811748504639 9.80741882324219 4.13275480270386 -1.72754192352295 -0.0569429397583008 3.03890681266785 2.58077120780945 -1.2482795715332 -3.95547962188721 -9.83215522766113 2.23835372924805 1.47427654266357 9.56633377075195 4.6516227722168 8.79646682739258 -3.16825294494629 -1.50260066986084 3.89318656921387 -9.02995872497559 4.68051433563232 -9.03032302856445 -6.24939727783203 -6.32712173461914 -3.30051040649414 7.37030029296875 8.32817268371582 -1.5626392364502 6.51717710494995 5.05362510681152 -6.08696937561035 5.9521746635437 -9.76047325134277 -7.69237089157104 -0.0915822982788086 -4.2099723815918 0.753373146057129 5.65729856491089 5.1945972442627 -2.90329074859619 1.94451427459717 -1.35359668731689 0.849610328674316 -3.02966213226318 2.04506969451904 -8.21657180786133 8.95057487487793 2.73636317253113 5.35373449325562 -5.43341636657715 -0.363449096679688 1.40605068206787 4.55455780029297 -4.2256965637207 2.38138103485107 4.46161985397339 3.06711173057556 3.30532264709473 -5.45723152160645 9.90458679199219 7.28850126266479 8.96524429321289 -4.98860740661621 2.88724660873413 0.35218334197998 -2.97594928741455 -7.10915040969849 -5.72687339782715 -7.90922594070435 -0.683249473571777 6.29863500595093 -0.169595718383789 3.63110995292664 -7.86600112915039 -4.8408899307251 1.18172740936279 3.47411131858826 -8.89078521728516 0.307470321655273 8.75936889648438 -2.97563171386719 -3.19697284698486 6.79760932922363 6.05485916137695 -5.80030250549316 5.88521003723145 -0.50151252746582 -9.00711822509766 2.64239287376404 3.11700797080994 8.96401214599609 5.73209285736084 2.35200023651123 -6.5450496673584 -6.51188325881958 -4.321533203125 1.0653772354126 -4.99557590484619 -0.67935848236084 -9.34526824951172 -0.591860771179199 8.40544700622559 7.32438278198242 -4.46142101287842 2.98389196395874 -5.5951042175293 4.84683036804199 5.09513378143311 -8.76277923583984 8.44433975219727 4.55996513366699 2.02597045898438 8.32228851318359 4.03040647506714 9.07576370239258 -3.2417573928833 1.80158996582031 -4.67325592041016 -9.06167602539063 8.48944091796875 3.26978445053101 -0.111326217651367 -7.0207576751709 -2.21465969085693 -2.30630302429199 2.78215599060059 -5.88463592529297 -8.01171875 3.45282530784607 5.03101539611816 3.54879570007324 -9.59467315673828 4.49400901794434 2.27277183532715 5.40536403656006 4.6842212677002 4.0211820602417 7.9798698425293 0.239514350891113 4.82532262802124 -5.07367324829102 6.85150861740112 9.15997505187988 3.40336990356445 9.79220867156982 5.59390783309937 1.21223831176758 8.22552490234375 -4.1731128692627 -8.04861831665039 9.36819267272949 -1.562255859375 -4.13856410980225 1.83453464508057 -9.86598777770996 2.61951637268066 8.67164421081543 -2.04188919067383 0.146261215209961 0.923496246337891 -4.77584743499756 1.22075176239014 5.70920705795288 -6.78399610519409 9.01786994934082 -5.3804874420166 -7.32961845397949 8.66206645965576 -0.538667678833008 -4.54166793823242 2.33605766296387 6.86432313919067 1.74031352996826 -5.33116817474365 7.48470497131348 2.90179705619812 2.55434012413025 -4.84546279907227 -3.54704761505127 7.79491853713989 -1.85772323608398 0.574749946594238 -3.03334140777588 -0.774334907531738 5.0980544090271 0.0656595230102539 -8.73907470703125 9.88285064697266 4.49028491973877 -7.76207733154297 2.73226928710938 4.17505025863647 1.91070461273193 -4.59795379638672 0.418294906616211 -4.27710437774658 4.67711210250854 -7.81951475143433 -6.5070629119873 2.18278312683105 -1.26556491851807 -3.48882579803467 -2.49522113800049 1.21425724029541 -0.724338531494141 7.54703092575073 3.66147971153259 3.17897772789001 8.38234329223633 9.30950355529785 4.59742069244385 -0.895360946655273 7.20712423324585 4.29395866394043 -0.0795516967773438 -0.236076354980469 7.12398719787598 -7.15081977844238 1.2245569229126 -8.08501243591309 5.25075435638428 -3.12167263031006 2.30031871795654 -6.04157447814941 -3.61927127838135 9.10805702209473 -4.09256839752197 -3.69181060791016 -9.30109786987305 4.84589576721191 2.57140612602234 -7.76655006408691 -5.88555526733398 -2.79962635040283 -8.37401390075684 7.59966087341309 -6.86212730407715 -7.23772048950195 -3.63494491577148 1.43079853057861 -7.86744117736816 -3.87249088287354 -8.93136787414551 5.72391271591187 7.63484191894531 3.9071033000946 -0.0544776916503906 5.70534467697144 1.51293182373047 4.27058219909668 7.81341552734375 4.74996566772461 6.19675827026367 1.69878101348877 -8.15277099609375 6.54930114746094 -7.75846290588379 0.383358955383301 -7.24272537231445 8.91211986541748 -5.6468677520752 1.96328258514404 -6.44763517379761 2.88584685325623 6.11387014389038 7.32317399978638 7.35045957565308 4.63416290283203 8.96344947814941 -2.76691055297852 -4.12835025787354 -0.659724235534668 1.75563907623291 -3.88935661315918 3.81257772445679 3.26759099960327 -7.35367012023926 7.57390213012695 -8.77930450439453 7.47142362594604 -0.286370277404785 -4.23964881896973 3.76013731956482 -8.38069152832031 5.84173393249512 4.59990692138672 -7.18867492675781 0.831223487854004 7.58889389038086 3.16936945915222 -0.659538269042969 7.00540733337402 6.57434463500977 4.50667572021484 -8.47101593017578 -1.24580955505371 8.25771713256836 -1.08542537689209 -3.49480533599854 -8.6915283203125 0.494336128234863 -4.68821907043457 9.14417266845703 2.23159217834473 -2.62574768066406 -1.63957691192627 -6.6840648651123 -8.4316349029541 4.50945615768433 -8.3888053894043 1.02249717712402 8.54982566833496 9.7706413269043 6.07896995544434 7.48640775680542 -0.754202842712402 -7.2436351776123 8.01673412322998 -1.43083667755127 1.98977088928223 -5.07099342346191 3.62114143371582 3.87185549736023 -9.9851245880127 2.06578350067139 8.85999488830566 5.57534408569336 7.03308296203613 2.20006561279297 -6.82958173751831 -3.86599159240723 2.29546928405762 -8.29450416564941 -2.15427494049072 3.81455183029175 -9.88387298583984 0.898741722106934 5.09285449981689 0.383571624755859 3.0700204372406 0.0406684875488281 -0.878487586975098 -4.38113594055176 1.62301921844482 0.152402877807617 -3.38834190368652 1.20921993255615 -3.08754825592041 -7.06633377075195 -7.51866865158081 -5.53369998931885 -9.44907379150391 -1.20281314849854 9.29242324829102 -3.37532138824463 4.49772071838379 -7.85978746414185 7.23170471191406 4.7302360534668 -8.26480674743652 4.2336368560791 9.53951835632324 -3.11271286010742 -4.25025844573975 -4.79942226409912 -6.56037139892578 -8.3535270690918 2.20451259613037 -6.22148323059082 -0.73731517791748 -4.02687168121338 1.61625003814697 3.79738306999207 -6.51864814758301 -6.09798240661621 8.69922161102295 1.30340671539307 2.56483268737793 -0.102754592895508 -7.71866798400879 -2.63336753845215 -8.42083740234375 6.62579011917114 5.82034826278687 8.37724208831787 -0.600580215454102 -7.01840400695801 -0.657673835754395 9.27946090698242 -8.00825881958008 -0.405096054077148 3.26808905601501 7.3888373374939 8.69836616516113 5.45089244842529 0.452107429504395 0.388039588928223 6.07365036010742 3.93588519096375 2.80286550521851 -8.90057754516602 9.81417465209961 8.09152603149414 4.17982292175293 -6.90769624710083 -0.497020721435547 -7.01593399047852 6.92624616622925 0.652112007141113 1.28188037872314 0.894213676452637 -0.212312698364258 -0.867284774780273 -2.90615653991699 5.70133924484253 7.4082202911377 4.44153785705566 -7.04270362854004 0.782218933105469 7.55642127990723 4.15641784667969 -5.55118083953857 -8.03684043884277 9.26047325134277 0.492509841918945 -0.298213005065918 1.49799728393555 -2.14181804656982 -8.12657928466797 -8.01032257080078 -2.28864097595215 7.37802934646606 -1.56340503692627 5.70489406585693 -2.97375106811523 5.02965450286865 -2.63029956817627 4.36972141265869 -3.92186069488525 -3.50348854064941 2.41611099243164 -7.15841722488403 -0.509925842285156 -4.74710369110107 4.28776741027832 5.47075033187866 -4.42920589447021 -3.40750312805176 8.29810619354248 -6.8358211517334 -8.12506866455078 -0.737510681152344 8.2213020324707 -6.66204643249512 7.16657400131226 7.78799772262573 6.46984529495239 5.5361385345459 |
3.05448722839355 3.4945125579834 7.97188949584961 0.963315010070801 5.67619514465332 -2.59498977661133 -4.36382865905762 7.17245101928711 1.60609817504883 -1.81779289245605 9.30480194091797 1.18575191497803 -0.566495895385742 6.96631956100464 9.83049392700195 -8.44721603393555 -5.90612888336182 -9.28065872192383 6.86268043518066 -5.59744071960449 -3.10106658935547 5.99848937988281 7.76385498046875 5.9919548034668 -4.86416435241699 0.338787078857422 -1.5499439239502 0.589994430541992 -3.41605758666992 -9.83730125427246 -9.36847686767578 -7.3302173614502 -2.01747035980225 -5.10066795349121 -8.73684120178223 -4.17071437835693 -2.67853355407715 9.80651378631592 -2.33110523223877 7.04106330871582 0.755023002624512 6.02420806884766 -3.01284885406494 8.02266883850098 -0.0356540679931641 2.53741455078125 -1.34482955932617 -0.446247100830078 2.70784139633179 -7.16626691818237 -1.67819404602051 7.89411973953247 1.18595695495605 5.23129940032959 6.79767370223999 9.15596199035645 -4.3930492401123 -4.06137084960938 -7.65593338012695 -2.08810234069824 5.24481964111328 -1.50068378448486 0.368832588195801 9.07210540771484 8.36977386474609 2.47686958312988 -6.26919937133789 -1.47881126403809 8.69681549072266 -4.88325691223145 0.332006454467773 5.08126974105835 -1.10196685791016 9.33367729187012 -0.679813385009766 1.22387504577637 8.18008232116699 7.77178001403809 -5.92766284942627 0.506662368774414 2.92119741439819 2.30571365356445 7.37224340438843 -5.96069526672363 -4.05040836334229 9.44600105285645 1.82013416290283 0.353268623352051 -3.97853755950928 7.21209716796875 -7.47279357910156 2.79500937461853 3.20519423484802 0.689188003540039 8.93601226806641 5.02942800521851 -0.938440322875977 -5.9655237197876 6.33796882629395 -5.3920841217041 -5.71335983276367 7.82431602478027 9.90349578857422 2.67237639427185 -7.44897413253784 7.57331848144531 -8.83757400512695 -2.78725719451904 -4.89578151702881 -5.6893253326416 -3.00722694396973 -5.41111755371094 1.3400354385376 -6.4357967376709 0.317305564880371 -8.31315231323242 8.29362392425537 -1.31092929840088 -0.849843978881836 9.42723751068115 7.45263290405273 0.164028167724609 5.96091270446777 7.51714897155762 -7.27716636657715 -4.19368648529053 -1.00710296630859 -6.51950407028198 1.09010124206543 -2.46386623382568 2.54274821281433 -9.66457366943359 2.41184329986572 2.60787725448608 8.02113723754883 9.11005210876465 4.85748291015625 -6.79276275634766 -8.17842292785645 -1.9249095916748 2.22147560119629 -0.565587043762207 -5.57003498077393 4.29202795028687 2.63809180259705 4.85129547119141 0.622950553894043 -1.73615074157715 -0.355812072753906 -7.67522621154785 -7.3419017791748 3.07240676879883 1.43444442749023 -0.780300140380859 -7.62561368942261 3.69188761711121 -7.23586273193359 -2.04625701904297 -4.25283336639404 9.52383804321289 -3.07656860351563 6.94491910934448 8.92400741577148 -4.41355133056641 -7.57191848754883 0.935541152954102 -0.423375129699707 -5.15571403503418 4.69966125488281 -9.53092956542969 -0.293644905090332 5.24875164031982 7.52226305007935 -2.33847045898438 -9.220703125 -5.19376754760742 3.66808390617371 8.53689956665039 -7.14250135421753 -8.69368362426758 3.58115172386169 -3.35998916625977 1.27708339691162 4.95193672180176 -5.54522514343262 8.56731605529785 0.650449752807617 1.38541316986084 2.25461101531982 8.7404613494873 -5.64984321594238 6.06874847412109 -4.03565502166748 -6.83454942703247 8.48673057556152 3.75810599327087 -1.31522274017334 8.03815650939941 -7.33705711364746 -2.49557399749756 3.60130286216736 -1.60845375061035 7.08309602737427 5.43852996826172 -6.94779396057129 2.194748878479 -7.49293518066406 6.8945426940918 -6.00118207931519 -8.43733596801758 -4.8717794418335 -4.03345966339111 5.97670316696167 -6.73825263977051 7.19070625305176 -4.41035842895508 -1.76450634002686 -0.0419864654541016 9.05464363098145 -7.31970024108887 -0.336342811584473 -3.01900482177734 -8.25136184692383 4.29925680160522 -8.00749588012695 -5.5515308380127 -0.935698509216309 -3.14070129394531 5.243821144104 -3.46638298034668 -8.22016143798828 1.12892246246338 -6.02779197692871 -4.07710933685303 -9.36168479919434 -1.93050479888916 0.261296272277832 4.31941223144531 -8.19710731506348 6.60780143737793 -3.43430137634277 -6.21381950378418 6.33325338363647 -7.15763521194458 -1.97316265106201 -8.11813735961914 6.57350301742554 -4.01069068908691 -5.62397766113281 -0.209282875061035 2.25202655792236 9.79843330383301 9.42561340332031 9.28718948364258 -9.16406631469727 -5.12635707855225 -0.86154842376709 1.08560943603516 -9.19008445739746 -7.68804121017456 -4.86263179779053 5.94330024719238 -6.56320142745972 -8.49136734008789 6.70195055007935 -3.5423412322998 -0.464333534240723 2.7959201335907 -7.24942016601563 5.63237905502319 1.40275573730469 -3.62224197387695 7.63938140869141 -1.20288944244385 -4.84011745452881 -6.49972915649414 -7.85517501831055 -5.57756233215332 -5.65100860595703 -5.49222755432129 7.74958372116089 9.98336791992188 -9.20011329650879 -9.95039367675781 -1.06749629974365 5.1417179107666 -7.53294944763184 5.6586217880249 -4.85397720336914 6.50926160812378 -1.00673294067383 3.18320250511169 -0.138531684875488 -9.9802360534668 3.04428815841675 -0.496855735778809 0.336956024169922 -9.76216316223145 1.32198905944824 -9.44265747070313 -3.8849630355835 7.57696866989136 6.15647506713867 -0.804690361022949 4.73963499069214 1.78677177429199 1.24938583374023 3.53317451477051 -1.79816627502441 -2.54772567749023 -7.87480354309082 0.576911926269531 5.95517873764038 2.01683616638184 -8.94132423400879 1.72441864013672 -5.21477508544922 -5.96129608154297 9.20566749572754 0.585404396057129 -5.48104763031006 -0.0869073867797852 -3.17282104492188 4.00862693786621 6.37990713119507 1.08532333374023 5.28460025787354 4.50128316879272 -1.9677152633667 -3.53686714172363 -2.62377834320068 0.155853271484375 -3.25006866455078 7.45730400085449 -3.27762699127197 6.41888618469238 5.65863800048828 0.926548004150391 -1.23984432220459 5.91345977783203 9.89836883544922 -5.56635856628418 5.29147148132324 9.8852653503418 6.07302093505859 -6.17147874832153 4.14462280273438 -9.73991394042969 7.84052085876465 -5.84284019470215 4.69130039215088 8.98235321044922 6.5739893913269 -6.40820503234863 1.52701950073242 -3.47439861297607 -0.509811401367188 9.49991607666016 5.3247332572937 2.92931056022644 1.8795051574707 -4.75135231018066 -6.16054725646973 1.65072822570801 8.26865673065186 -0.0120887756347656 2.66293716430664 -6.46454811096191 -8.20257377624512 7.4420280456543 1.02638339996338 1.3754358291626 -9.07004928588867 -1.15760707855225 2.38541030883789 -0.285888671875 4.2706127166748 -6.74102020263672 -1.26431560516357 0.850945472717285 9.84593391418457 0.162266731262207 -6.90113258361816 5.46392631530762 -2.33437633514404 -8.61812591552734 -1.99213886260986 -0.494638442993164 8.33197021484375 1.2262544631958 2.97844862937927 -1.57965087890625 5.08439540863037 -1.08127689361572 0.35002613067627 9.82193374633789 1.44927597045898 1.9788064956665 8.27088356018066 -8.72303199768066 |
-3.14006423950195 4.80828046798706 6.35725736618042 -0.466166496276855 3.74722933769226 -5.4288501739502 -0.838016510009766 -9.07399940490723 -8.94941329956055 7.50799608230591 -2.20448398590088 6.28334474563599 -9.28792572021484 6.3835186958313 7.39827156066895 4.72596883773804 -9.0575065612793 -8.76386260986328 -1.47991275787354 5.58004379272461 -0.146841049194336 3.97375559806824 5.17411708831787 4.81748580932617 -8.31730270385742 -2.6032075881958 4.36563014984131 2.10140800476074 -0.0869216918945313 4.38896179199219 -4.52267074584961 -9.41613006591797 -9.09481811523438 -0.803004264831543 5.93317985534668 7.70719957351685 4.01118993759155 3.98387408256531 3.59308958053589 1.09933280944824 -8.6930103302002 -0.0133810043334961 3.89150595664978 5.74375152587891 -8.89068984985352 0.473729133605957 7.6129150390625 -8.99344635009766 3.10032820701599 0.477252960205078 -2.66109848022461 1.73295593261719 9.08436965942383 -5.47004890441895 -7.88235473632813 0.988069534301758 2.38030052185059 -3.07623291015625 -3.69480991363525 8.90958595275879 2.20937633514404 -2.49584102630615 -4.40691089630127 -7.15009880065918 -0.0809898376464844 -6.18532180786133 -2.19549083709717 7.82443046569824 -0.640507698059082 3.99785757064819 2.7503604888916 -1.60992240905762 3.0465075969696 8.30171775817871 3.15646147727966 8.94657516479492 -9.3552131652832 3.31998324394226 -5.52831649780273 -6.68001365661621 2.01092147827148 -5.56500244140625 0.210684776306152 -2.3850622177124 -8.78126525878906 9.41781806945801 4.2084903717041 -1.47186183929443 4.38216209411621 -1.93140125274658 -3.51995086669922 4.9212646484375 5.80080986022949 -2.8030481338501 1.84984111785889 -0.557440757751465 7.48909950256348 -2.29520225524902 5.36553144454956 6.24887466430664 -5.0775318145752 1.68500995635986 -2.22487831115723 6.34651899337769 -5.8914737701416 2.1609058380127 0.656022071838379 8.54679298400879 5.0698184967041 -0.433784484863281 -0.410956382751465 -0.298911094665527 0.170427322387695 5.55236339569092 -2.63807201385498 2.50749564170837 -2.54026508331299 2.10435962677002 -3.28200435638428 -1.65408515930176 -0.368341445922852 1.55181312561035 -8.61650848388672 -0.182543754577637 9.12906169891357 -1.20235824584961 -8.51947402954102 -9.85282135009766 9.1270751953125 -2.02326679229736 -6.92226839065552 -4.56298446655273 -7.03581047058105 -8.89165115356445 -2.60581874847412 7.77437210083008 -0.262619018554688 9.79697704315186 2.70624136924744 2.71325302124023 9.13088226318359 9.04008865356445 -3.28830337524414 5.02592802047729 -3.12545680999756 0.507064819335938 -6.66773796081543 4.92775440216064 -6.13555479049683 -1.47575759887695 1.32402515411377 -9.61325073242188 -2.24714183807373 6.58205461502075 8.37822723388672 -2.63785266876221 -7.32959747314453 1.02440929412842 -6.0067195892334 4.28324222564697 5.44110059738159 1.23043918609619 -5.07759857177734 -1.37363052368164 -4.60605525970459 0.0704374313354492 8.13491344451904 -0.210741996765137 -2.70062065124512 -4.81822109222412 -7.79284286499023 4.42538738250732 -8.65401458740234 -7.59802055358887 1.69528102874756 -9.58792495727539 -8.93740653991699 0.446290016174316 -7.11496162414551 -5.55758953094482 |
