9.8 6.73 3.98 5.6 -9.01 -4.54 3.63 1.87 -2.76 -0.05 -0.69 -7.84 -2.68 5.51 7.65 4.74 -2.66 -3.52 0.44 -0.09 -5.33 -2.5 3.25 -2.06 8.72 3.09 -3.71 -1.61 -8.7 8.6 -8.04 -8.85 -4.85 -2.83 5.44 -1.43 -9.15 1.96 -9.22 2.32 4.42 -1.35 -7.81 -7.17 -1.17 6.13 1.07 7.82 3.52 0.96 3.38 2.73 -2.79 4.62 -3.46 8.65 1.57 -3.19 -9.85 2.41 -5.39 -8.33 1.08 4.91 5.53 -9.35 9.96 -5.52 -3.32 -8.48 -6.33 -0.49 2.96 9.48 6.53 1.94 -9.72 8.63 -8.61 -9.93 -8.49 9.48 -1.77 -1.12 3.98 -9.71 0.06 0.23 1.64 4.79 -1.4 6.37 -4.72 9.26 -1.35 -5.1 5.69 -7.3 -3.7 6.88 5.84 2.43 6.43 3.44 -0.56 3.89 -5.51 8.33 -9.37 -3.75 -1.41 -8.67 5.16 -4.64 -6.19 -1.76 6.38 1.82 -3.74 0.62 -5.04 7.26 8.17 -0.21 -4.33 1.23 3.07 9.51 0.04 -7.37 -2.56 -8.06 7.99 5.13 1.48 -9.82 -5.69 -7.14 -4.93 -4.26 -6.1 8.23 -6.03 -8.99 -0.17 1.34 8.19 5.49 3.59 7.41 1.82 6.17 2.66 -6.34 -0.56 3.9 4.44 -8.71 -8.04 -0.75 -0.42 -8.37 3.26 4.89 -7.66 0.35 7.36 4.15 5.53 2.46 0.04 -9.11 8.23 -1.15 8.79 -1.22 -5.41 4.5 -9.65 1.76 6.79 1.78 7.55 -9.22 3.05 -4.19 -1.32 -6.9 2.78 -8.88 -7.18 0.16 -2.67 2.6 5.69 -7 -10 5.12 -7.78 -8.96 -3.26 -6.31 5.13 -8.18 -9.38 -9.96 8.62 1.87 0.61 -6.38 -4.78 1.33 -1.5 -9.16 -3.57 9.41 4.3 -9.34 9.19 9.34 0.35 -7.76 1.93 4.49 -4.28 -3.65 -4.25 6.4 -1.78 8.75 0.16 2.72 -6.11 6.72 -3.46 -4.54 -6.72 6.7 4.35 3.63 1.51 -1.98 -6.09 3.44 0.77 -9.43 8.23 2.83 -3.13 -0.66 7.25 -6.41 -3.11 -6.54 0.87 4.01 9.79 8.41 5.27 5.15 6.76 -8.09 7.52 6.97 2.11 7.19 -2.59 5.05 0.07 -4.15 -8.82 -8.54 3.78 -0.16 -7.92 -3.24 5.35 -1.54 -6.38 1.7 -3.45 -2.66 -8.87 3.06 -8.01 -1.75 5.19 -3.09 -5.39 -0.65 8.04 -1.78 -3.37 -1.51 2.45 0.04 4.23 4.06 1.36 -6 -4.78 -0.24 -0.79 5.17 -7.22 -0.1 -7.55 3.82 -8.53 -7.38 8.82 2.88 3.79 -4.08 7.11 -1.47 5.27 -0.97 -5.48 -7.94 -7.05 3.34 -6.31 -3.94 -9.37 1.41 2.24 8.61 -2.94 2.18 -5.7 -8.47 -3.02 -9.01 2.88 3.67 3.54 5.2 5.95 3.45 2.97 -3.84 -7.61 -7.45 -3.61 -5.31 -5.47 -9.43 -2.15 -8.97 7.8 5.62 -3 9.18 9.7 -6.31 -7.22 -1.79 -7.72 -0.9 6.36 -2.76 7.86 -1.98 -0.36 2.65 0.48 1.24 9.53 2.41 -6 4.7 -8.83 -6.52 -5.74 -2.67 -3.66 -5.49 -3.64 6.93 -1.37 -5.97 6.32 7.95 5.81 7.05 -6.34 8.96 1.34 -9.78 -6.81 -7.71 5.67 -6.47 -0.55 8.26 -5.02 8.91 8.28 9.05 8.35 -9.98 4.21 0.92 2.4 3.77 9.29 -0.95 -6.64 -7.35 -9.97 -6.18 6.86 -7.94 -4.09 4.06 1.57 4.32 8.56 1.38 -2.33 1.56 2.95 -9.53 4.06 -6.03 -9.51 0.25 1.07 0.49 -1.97 7.29 -8.85 -6.3 6.9 -5.2 -2.84 4.26 2.03 -8.25 -4.53 -0.67 -9.61 9.96 2.55 1.62 -0.66 5.19 -0.53 -4.53 7.76 4.73 -2.16 -2.21 1.01 -8.94 8.87 0.5 4.01 -2.4 -3.4 -4.97 7.01 -8.4 7.17 0.69 -6.57 6.9 -0.5 4.29 -5.29 6.37 -5.15 3.09 3.62 2.94 -6.28 -4.84 -0.55 3 -4.9 -0.01 6.23 -6.53 -6.12 -7 -9.73 9.54 -3.47 -3.8 -8.63 0.25 -5.25 7.73 7.03 -0.91 -5.53 -2.7 -3.66 9.61 -2.11 -5.82 -4.27 6.47 -9.63 -2.24 8.49 -5.64 -6.09 -1.99 -9.21 9.32 -6.04 -2.2 -3.78 6.35 -9.73 9.28 -5.44 -1.93 -3.79 6.12 0.56 -0.11 -3.6 -9.47 0.64 -1.62 2.71 -4.15 4.44 9.36 -8.76 -8.56 2.21 -4.22 -3.97 -1.57 7.24 -2.47 -7.28 -9.01 4.98 8.46 9.98 -4.76 9.69 4.86 1.33 6.5 8.45 6.09 4.58 -9.52 -4.84 -1.47 -7.07 -5.71 -5.75 4.58 -8.28 0.06 -2.88 6.38 -4.71 9.79 -5.67 -4.51 -2.18 -9.03 6.65 -4.59 -2.06 -1.94 -0.39 0.12 -8.46 0.07 -5.27 7.87 7.6 -3.66 -5.88 8.13 -5.88 -5.62 2.24 -5.15 6.15 2.41 -8.55 -9.47 -9.39 6.27 0.87 7.3 3.04 -3.08 -1.15 -0.14 -6.3 -0.38 0.12 3.46 8.89 2.11 1.96 6.44 6.36 -9.23 6.29 8.07 -1.86 1.84 3.13 -8.81 -0.55 0.84 -4.5 -2.02 -3.25 7.4 6.64 7.95 7.26 -2.97 5.28 4.48 -0.84 7.49 8.16 -4.91 3.71 -6.05 -8.42 9.52 8.19 2.28 -5 -7.07 4.93 -8.61 9.35 -1.84 -4.35 -5.96 -6.11 -7.35 9 -6.16 -7.98 8.55 7.76 1.35 1.7 8.61 5.9 -3.83 1.88 9.37 3.91 9.68 1.44 3.42 -4.16 4.89 8.72 9.97 -3.82 -0.92 7.3 -3.2 1.84 -8.34 -4.04 -1.81 9.64 -4.71 -3.75 8.65 1.12 -0.89 -7.4 -0.22 -6.43 8.47 3.65 -9.72 8.1 -3.32 -9.21 8.22 -3.91 5.91 -4.37 -1.87 -0.45 7.68 -7.8 7.46 -5.61 8.59 6.39 -9.66 2.72 2.91 5.95 -2.03 -2.23 3.22 -5.05 5.61 -1.94 -4.8 8.58 5.69 3.59 5.52 -2.21 7.71 -4.66 -8.97 7.76 -1.28 -5.31 8.7 0.4 1.49 -1.07 3.05 2.24 1.67 7.51 3.02 3.69 5.5 -8.96 7.4 1.2 -2.13 -5.12 8.12 2.49 -9.61 -8.67 9.75 -9.55 7.36 1.21 -3.07 7.72 8.05 -1.26 -0.85 -4.78 2.71 -8.92 -6.64 -3.36 7.21 1.86 8.55 6.76 9.89 -1.66 -3.17 -6.88 -2.33 -6.14 8.82 5.24 6.22 -5.69 -9.15 9.98 -2.71 2.28 -1.4 -6.5 1.97 7.61 -2.97 -5.16 1.72 -8.82 3.68 4.9 7.61 -5.32 -3.14 2.38 3.36 3.53 2.38 2.63 -1.35 3.81 1.63 -9.59 4.03 -2.54 1.84 3.86 9.23 -0.69 0.69 3.2 7.02 -2.03 1.53 7.8 -6.54 8.68 9.78 -5.17 8.49 -4.99 -5.62 -2.74 9.69 3.02 1.48 -2.75 -0.18 1.35 -6.6 -7.65 -4.93 1.54 -0.72 4.08 5.26 -9.37 1.96 4.17 4.15 -1.65 -4.94 -3.11 -7.32 -1.33 0.52 0.35 -5.02 3.84 -9.1 -3.89 -6.3 -8.98 -0.78 -3.71 -1.26 -9.91 1.12 9.95 2.2 1.2 -8.11 -4.94 5.15 -7.66 -1.86 0.13 -4.71 -7.15 -2.72 3.11 3.69 -4.07 -6.08 2.38 -8.7 -6.65 8.03 3.39 -5.73 1.39 6.13 -0.13 9.14 2.19 -9.55 -10 6.39 -3.06 -4.06 -4.88 5.33 -0.9 -3.12 -8.96 4.65 9.12 -7.04 0.29 -2.64 -2.83 2.31 1.59 -0.44 -0.49 -0.02 3.82 -8.12 7.03 -4.17 -1.26 -6.31 -5.83 4 -2.92 5.87 2.79 8.18 4.11 -2.32 -0.99 -2.83 4.99 5.49 -9.9 -9.21 -7.9 6.37 4.41 -7.6 -2.53 -8.53 -9 -2.45 5.53 -2.31 1.95 5.87 2.06 6.32 -2.34 -8.19 -7.73 9.26 6.93 7.94 -9.66 3.61 -3.23 -9.76 2.55 -7.25 -1.46 -2.12 9.89 -4.31 1.31 -5.97 4.02 -8.19 8.02 7.95 -0.19 -9.29 8.17 -3.08 -8.58 -5.09 7.06 -0.87 5.53 9.17 1.4 3.86 5.13 -3.75 8.63 -2.89 5.6 4.41 -0.52 8.06 -7.66 2.6 -5.62 -0.48 1.65 -9.71 -0.62 -1.39 -3.73 -2.97 8.8 -7.07 -9.21 -1.52 0.41 -1.59 -5.88 0.67 9.31 3.22 8.01 2.36 0.76 4.49 -9.59 5.93 -6.5 0.36 4.04 1.02 4.65 -4.59 5.54 0.99 9.14 -3.12 9.91 -0.32 6.5 3 -9.21 -3.62 -0.19 -7.7 -8.84 9.03 -6.91 -9.36 -4.16 -7.31 -6.4 -4.77 -9.64 8.46 -6.6 6.92 7.05 3.38 0.37 -5.23 -9.63 9.7 2.1 3.26 -3.76 2.41 3.11 8.49 -2.68 1.37 -4.69 -6.52 -5.17 6.62 -0.38 2.78 1.99 2.3 1.08 -6.52 8.88 0.11 9.99 -0.74 0.64 4.95 3.31 -7.73 -5.26 -3.28 3.77 -8.58 -7.65 -4.88 -2.31 7.31 -8.45 3.19 2.67 -1.62 -2.97 0.79 -0.45 -7.65 -6.19 3.48 -4.76 1.09 -2.19 -1.55 -6.39 4.77 -1.36 -6.36 1 8.94 7.34 -3.03 -4.43 -1.07 0.86 9.91 -4.19 8.94 -5.66 4.51 3.92 -7.52 2.8 6.13 -2.47 -9.11 -5.51 -7.37 9.87 -5.9 -8.53 6.34 8.26 1.7 7.6 -3.67 6.7 5.81 5.85 3.85 5.61 -6.6 -9.22 3.17 -6.62 9.06 -9.62 6.54 -9.16 -3.87 -3.7 -3.08 -7.52 9.7 2.01 -1.11 2.83 6.1 0.84 7.28 8.07 2.82 -2.22 7.14 -6.68 3.94 -3.81 2.39 -4.46 1.79 9.52 -0.74 8.1 8.2 -1.79 -3.01 9.99 3.1 -5.88 8.64 -1.94 -1.62 1.79 -7.42 -3.97 -1.36 -1.45 -8.88 -1.63 -6.34 -9.86 -5.7 0.26 -5.94 4.32 -3.66 -4.71 -7.42 -5.05 6.38 9.07 -2.72 2.42 -7.81 8.06 7.91 5.13 9.89 3.67 -6.64 -9.67 1.71 -2.27 -2.83 7.14 3.76 -7.45 -6.28 -7.19 6.97 -1.36 -6.4 -2.56 -0.85 2.72 2.23 6.84 5.9 -9.87 0.29 1.86 -9.91 9.42 -9.25 8.3 6.35 -9.35 -5.38 -4.56 2.26 -3.91 -5.17 8.3 1.39 5.02 6.53 6.86 -8.89 1.33 -7.91 -0.5 -0.62 -7.56 4.66 -5.48 8.97 -2.14 1.66 -6.11 -8.29 7.26 0.51 4.45 -8.6 7.27 5.5 3.4 6.33 2.14 -9.4 6.89 -8.56 2.39 -9.28 -2.53 9.25 -8.84 2.77 -5.37 3.74 -5.63 -4.83 2.01 8.42 3.02 -8.65 -4.36 8.01 -6.53 -7.21 -7.06 -5.68 2.47 -5.17 5.36 -5.36 2.44 7.57 -6.08 5.77 5.36 -5.92 6.48 7.58 7.71 -5.67 7.37 -5.98 -8.37 -6.84 3.33 -0.16 -1.81 -8.91 8.76 2.94 8.03 -0.39 -3.96 2.62 -6.94 5.83 2.4 6.37 -4.77 2.81 -5.04 4.8 -6.99 -6.86 -8.13 7.14 1.14 -8.54 -9.59 4.53 6.98 0.91 9.66 -9.92 -6.69 6.03 1.97 0.85 9.73 -2.89 1.91 6.09 9.6 -7.45 9.68 7.63 4.56 -9.22 3.89 8.22 2.94 5.01 7.17 -6.82 -2.66 -3.55 -5.64 -8.45 9.84 7.29 7.86 7.33 -8.64 1.64 -8.97 -8.07 0.01 -6.52 2.93 -4.57 -8.74 1.62 -7.52 -3 9.86 -0.06 7.63 9.83 5.79 5.42 2.78 -0.41 -8.39 -6.89 6.66 9.64 -0.45 -1.99 9.04 -8.62 -3.98 -1.51 7.91 4.3 -4.15 -9.72 3.61 2.59 -7.32 -0.26 -10 4.73 -5.02 8.47 -4.56 -6.65 3.39 4.05 -3.49 -2.3 6.9 6.34 -7.5 8.46 1.27 -0.63 9.42 -2.94 -4.22 -9.25 -1.69 7.41 -9.21 -6.81 -4.58 -3.47 -3.36 -6 -8.44 6.51 6.54 -6.42 3.31 -1.91 8.51 6.43 -2.91 -6.85 1.83 -2.71 -9.78 -7.52 -7.77 8.29 3.06 -1.4 -2.3 4.71 -1.13 9.32 3.64 -0.39 1.03 -3.83 3.19 6.42 -8.59 6.89 9.95 -0.99 6.25 0.24 -7.79 9.21 -2.53 4.41 4.11 -5.8 -4.6 -7.33 -8.33 -5.3 8.19 -3.54 -2.9 8.7 -3.62 4.62 -0.01 -1 -4.89 -0.25 -5.95 2.54 -9.75 -3.71 -8.64 4.09 -9.39 -5.9 |
-7.68 -7.12 7.74 -0.84 -4.38 5.51 -5.71 5.76 1.19 4.35 -7.79 3.07 -5.28 9.86 4.2 -6.11 -4.45 8.48 -4.09 -3.1 5.05 -2.68 6.27 5.85 -3.32 3.37 2.5 3.05 3.59 1.96 0.12 8.34 3.01 1.04 -9.55 -1.41 9.98 8.32 2.25 -6.79 3.15 -2.1 -1.3 -6.91 3.94 7.78 3.47 -1.81 -4.14 -3.12 3.79 -1.69 -9.51 -1.35 3.98 -6.03 -0.13 -3.31 -1.3 7.03 5.52 -4.03 -6.5 -2.03 -8.8 4.31 -5.63 -8.38 -4.09 6.41 0.41 7.35 2.61 9.02 3.11 -3.26 -3.18 -2.38 -8.13 -7.3 -6.51 -4.2 -5.66 6.56 6.43 -5.86 4.84 -4.96 -0.16 -3.86 -5.79 8.36 2.4 5.83 2.8 5.79 5.28 -0.33 -0.02 -2.8 0.96 -4.15 -3.68 -6.84 -6.61 -2.02 -6.04 -6.07 2.21 -0.17 -0.87 -5.17 6.85 -7.44 2.81 7.16 3.56 -2.34 5.16 -4.59 9.03 4.69 1.64 8.71 -4.55 -5.45 1.03 -0.55 5.63 -4.88 -7.23 -7.12 5.4 2.04 3.56 8.65 -1.05 -8.23 -6.25 9.27 0.58 -2.83 -0.13 -5.57 -2.89 -0.48 -3.29 3.69 0.38 -1.75 -5.24 -4.17 4.04 -5.15 -5.58 -1.93 0.45 4.28 -0.41 -5.27 9.02 -7.82 -9.82 2.94 9.24 -8.05 4.96 2.41 5.45 -6.72 0.45 9.86 7.28 -3.09 -9.36 3.19 -9.36 -3.21 4.28 7.37 4.1 6.74 9.85 0.9 -3.9 -9.42 -7.3 -7.54 2.8 1.6 -6.31 6.54 -3.68 -9.54 -1.18 0.72 -0.11 -7.05 -6.22 3.91 |
-1.13 9.91 9.4 3.01 4.14 -1.99 -4.03 -6.86 8.75 -6.17 -4.63 -2.02 -8.52 7.98 -8.97 -7.52 5.86 9.71 -5.89 -1.48 2.06 2 -1.37 -8.46 4.4 0.53 -9.55 -5.74 2.76 2.63 -2.78 7.5 -1.96 0.44 1.99 -3.89 5.26 -8.13 -0.14 -6.39 -5.29 -7.02 8.34 -5.73 9.54 1.69 -2.1 -5.23 -3.95 8.29 0.26 -4.38 0.18 1.15 -3.32 1.37 1.87 -1.04 -8.99 -1.98 |
