-5.23 -8.82 2.54 -7.25 6.73 5.14 1.64 2.73 8.94 -2.52 -7.33 9.29 5.99 -4.95 -8.75 3.61 2.73 3.2 -0.48 6.69 2.22 0.43 8.62 -3.52 -9.21 8.66 7.43 3.76 -1.16 9.43 8.38 -1.01 -1.93 -7.87 9.95 8.69 -9.04 -4.72 4.76 -4.79 -1.63 -1.89 -5.77 -5.31 6.79 -2.66 -3.16 -9.92 -7.7 7.74 2.8 -7.42 -3.34 6.85 4.32 5.78 3.1 0.41 -7.21 8.03 4.18 -3.65 7.96 3.73 9.1 4.55 5.06 1.3 -1.75 3.9 -3.24 2.65 0.89 1.77 -6.11 -0.37 -6.24 -8.24 2.16 -4.99 -4.44 -2.98 0.96 0.8 -4.75 2.02 1.02 4.34 -6.98 -4.61 -6.37 -0.34 7.03 -9.15 8.44 5.72 7.22 2.45 -9.2 -2.85 -6.43 -4.92 -2.09 7.29 2.17 -4.23 1.61 5.85 1.6 -7.71 -5.25 8.76 -2.62 7.39 4.4 -5.49 -0.68 7.11 5.29 -6.62 7.33 -7.39 0.49 -8.91 0.32 -8.33 -5.27 3.6 9.6 8.11 8.02 -2.1 0.15 -0.13 -9.74 -3.2 9.64 3.57 6.4 -9.27 -7.3 3.91 9.05 9.63 -1.95 -8.98 9.17 5.93 0.52 6.77 0.98 -6.39 2.85 -7.31 -0.87 5.66 4.92 8.04 7.03 -4.63 -3.87 8.04 9.45 0.86 9.59 0.84 9.7 -2.26 -0.67 3.38 -4.66 3.39 -3.41 8.51 2.39 3.72 -0.25 -2.2 1.96 4.66 -3.26 -3.32 6.57 4.22 1.98 9.97 -1.55 9.29 0.27 -0.59 -2.91 1.89 -5.77 -6.98 5.39 -0.7 -2.68 -9.47 -2.77 4.33 1.26 1.36 -6.03 5.86 0.02 -5.7 -2.96 8.62 0.7 -0.85 -2.79 5.63 -2.24 -2.39 8.27 4.23 3.81 6.42 5.47 0.28 -6.48 9.17 -9.49 5 -7.89 3.97 -0.59 0.72 -1.51 -1.91 -3.32 1.13 7.09 -7.2 -2.55 1.11 8.91 -1.04 5.94 7.74 -3.84 2.02 -6.18 9.99 -4.11 -2.08 1.38 -0.78 -9.1 -8.59 9.88 6.59 2.04 9.14 -2.35 -9.88 4.27 -8.83 -1.59 8.91 -4.62 8.07 -7.33 2.95 -7.01 5.18 1.81 -2.23 -8.29 0.35 -7.15 -5.42 5.52 4.05 0.39 -3.07 -2.88 -8.64 -2.66 -8.01 9.7 -1.76 -7.69 -0.43 -7.3 -1.4 -1.55 -5.87 9.8 2.26 9.3 1.14 -2.76 -4.41 4.88 -8.43 6.5 -0.24 -0.41 8.96 -9.21 0.01 -8.12 8.91 -8.3 1.64 4.27 -7.53 6.43 9.05 1.66 0.13 -8.64 6.14 9.61 4.24 0.83 7.07 8.06 -8.59 8.68 -7.96 8.17 -7.25 -0.45 2.84 -7.3 6.61 2.35 8.75 2.65 -5.35 -5.07 -1.72 0.32 -0.43 -3.12 -3.83 -0.05 -1.54 7.76 1.37 -3.94 8.38 3.58 7.25 2.97 -5.52 6.03 -7.96 |
8.87 9.88 7.41 0.84 -3.7 6.13 -4.93 3.59 -1.42 2.13 -5.25 -1.9 2.51 -2.04 -8.71 -9.72 -5.94 -7.02 -7.44 -7.64 -8.73 -3.66 -8.96 6.02 -7.46 8.79 -5.37 -2.68 6.44 3.42 -2.24 -0.9 -1.98 -9.79 3.99 -5.46 2.14 6.97 -3.01 0.03 -4.5 -6.11 -6.4 -2.41 -2.81 1.41 0.33 0.04 5.84 4.78 2.62 -4.36 -1.96 -7.39 4.27 -0.23 1.85 7.19 6.85 -8.24 -6.01 -1.9 -3.41 8.55 -3.38 -9.14 -5.51 -5.09 -9.24 -0.13 -0.05 4.02 -2.86 -2.23 -0.26 5.62 8.3 8.42 -8.26 2.77 -3.07 -2.56 0.47 4.68 -0.57 9.66 -7.5 -0.53 3.59 3.13 -9.95 -2.78 6.2 7.12 -9.92 1.48 6.75 5.83 7.85 1.56 3.11 1.91 -1.71 -6.94 -2.16 -4.82 5.16 3.36 3.18 4.61 -2.74 -7.62 -6.4 -6.29 -8.29 6.76 1.89 -0.53 8.47 5.14 -5.9 -1.34 -2.94 -0.81 6.75 8.04 -4.28 -5.93 9.92 -5.44 -9.54 -5.06 -4.76 -2.87 -4.5 -5.45 -6.17 -3.24 2.97 2.67 -2.24 3.03 0.99 8.45 -0.97 1.38 -9.84 -2.99 -9.64 -7.97 -4.25 2.68 5.9 3.29 1.1 -1.83 -3.34 -8.84 7.56 -6.71 -8.66 -1.61 -9.61 -9.49 -3.15 4.23 1.39 -4.85 4.68 0.32 6.59 -5.12 -0.9 6.43 -0.62 1.41 2.75 3.77 8.09 -1.42 1.37 -5.44 -3.5 6.63 -6.79 2.07 -5.46 -5.27 -9.73 1.27 3.15 8.68 2.07 -7.36 6.07 -7.13 -6.08 4.56 -0.94 7.61 8.63 -3.61 -1.09 1.78 0.66 -8.81 -3.82 9.27 0.07 9.02 -6.38 -8.07 -9.12 -3.71 0.13 -7.35 6.32 7.74 -5.56 -6.02 0.31 6.83 6.08 7.06 1.69 0.2 5.97 7.32 -4.23 -1.82 -4.77 3.48 -6.3 9.06 -5.05 -0.57 -6.32 -9.79 -3.51 -9.44 5.74 -3.2 -9.71 6.29 -9.05 6.32 -7.4 5 0.95 -4.14 -3.11 -3.41 -1.22 -9.13 2.38 -4.85 -7.32 -0.16 -3.18 -8.78 7.5 -4.04 2.77 -0.5 -6.72 6.81 -8.36 -5.42 -4.67 3.8 -9.95 -8.69 -3.22 8.57 7.08 -6.29 -1.96 5.2 -5.32 -3.47 -2.49 -3.88 0.49 -5.46 0.68 9.26 -9.3 4.19 5.78 -1.87 -2.21 9.1 4.87 2.69 -9.49 4.43 -9.98 -8.29 9.21 7.23 -1.72 -2.6 0.32 -5.59 8.34 -9.23 6.1 -5.76 0.19 3.11 -5.56 -1.51 4.06 8.69 3.43 8.4 1.08 -9.92 -1.01 -1.16 6.79 9.93 -4.64 -1.91 -4.48 2.64 0.98 -7.64 -9.78 6.31 -2.39 -6.21 -5 1.56 -7.91 9.02 2.06 1.8 1.11 2.27 -1.82 -9.39 -4.8 -3.06 1.34 -2.14 3.73 -3.22 -2.84 -2.14 -6.55 7.66 -8.52 -7.1 -0.38 -5.52 -7.61 8.76 -7.68 9.32 -1.3 -5.7 3.13 7.91 -5.07 -6.18 -6.71 -2.89 -2.65 -4.44 -5.34 -5.7 2.91 -8.88 -4.62 9.13 8.44 -7.55 8.47 -8.97 0.25 2.22 -9.97 -9.1 -2.4 -6.69 0.66 -2.92 -3.38 8.26 5.72 -5.06 -5.56 -4.46 -2.39 -6.13 -2.3 -5.93 -8.45 2.2 -0.59 1.28 -1.7 -3.87 7.6 1.23 7.62 -9.42 5.3 -3.7 3.82 5.3 2.13 -5.95 -6.41 -6.25 9.85 -2.42 0.3 -8.94 6.12 9.22 -4.45 5.14 6.15 3.38 6 -3.22 -6.48 4.15 -8.49 7.86 -2.85 2.17 -2.79 4.95 -9.91 5.97 7.3 -6.15 -6.54 -6.93 6.77 -4.44 -7.87 6.5 9.39 -0.7 -0.61 4.22 -2.13 -9.09 -9.45 -2.6 0.69 1.55 -5.88 6.12 8.92 -7.35 1.14 -8.36 -6.73 1.44 -7.17 0.74 8.52 -3.44 -8.08 -2.91 -5.64 0.54 8.19 6.08 3.19 5.21 8.67 8.15 -5.56 -5.41 -0.74 9.87 -2.15 -9.14 -6.99 9.86 4.58 5.7 -0.67 6.47 6.42 3.52 4.05 0.21 9.48 2.92 -5.12 -9.31 2.37 -3.08 |
7.83 -8.77 -5.14 -5.21 -5.04 -2.01 3.05 9.68 -5.62 0.82 6.96 -1.59 -3.21 -7.55 -3.77 7.61 -2.42 3.05 1.96 -0.09 -4.15 7.83 4.19 4.99 -0.75 -6.88 -4.32 3.39 1.11 -4.81 -7.85 8.98 3.76 3.61 -2.38 -9.16 3.07 -4.6 4.63 -4.61 2.28 -8.48 -6.26 9.41 0.61 8.59 9.33 9.06 -9.04 6.36 -2.76 1.48 -0.43 -2.82 -5.23 8.84 -2.54 1.24 7.17 -5.88 4.92 -2.35 -4.95 8.98 8.54 5.43 -5.34 -2.63 1.83 -2.36 8.28 -1.48 2.09 5.59 -7.33 4.37 -1.75 -3 0.21 0.4 5.65 4.43 6.22 -3.01 0.27 4.5 3.92 4.77 5.07 2.18 6.17 -4.3 3.57 -3.02 -2.89 -6.25 -0.57 -1.86 6.74 6.24 0.33 2.32 -1.16 0.55 -9.3 2.8 5.26 -7.42 6.9 0.27 -5.08 2.69 6.17 -5.02 -2.06 -0.79 4.07 8.06 1.86 4.78 |
