-8.58 1.71 -0.66 2 -3.27 -2.61 9.2 -4.93 9.62 -3.6 -0.13 7.46 -3.36 9.78 -9.14 -0.79 3.86 4.67 -7.31 1.3 -4.77 9.17 6.3 8.81 7.93 2.3 -7.46 5.08 -3.39 -9.24 5.61 0.97 6.32 0.84 6 -0.01 1.61 -5.25 -4.37 -2.69 -3.27 3.33 0.53 -5.11 -3.17 -3.35 1.69 -0.17 1.95 4.4 -6.97 -6.49 -5.38 -0.61 -1.98 0.45 5.38 8.5 6 6.73 5.78 4.44 9.43 2.31 9.67 6.54 -3.07 -8.25 2.95 4.2 7.52 -5.98 -7.28 -1.71 -1.73 -8.28 4.54 -3.1 0.78 -2.52 6.92 -5.96 9.08 -0.12 -5.02 -8.83 1.53 -5.99 1.17 9.46 -6.94 -0.15 1.8 1.42 -0.22 -7.3 0.6 -7.77 6.61 -4.9 2.1 -5.22 9.04 -5.54 7.48 8.98 -5.58 4.73 -5.59 -3.16 8.91 1.37 -2.67 6.53 3.67 -4.08 -7.37 -2 -7.48 6.96 -4.07 -5.31 -4.87 -2.16 -7.9 2.73 -5.03 8.25 0.81 -0.71 7.29 9.8 -7.52 -6.07 -1.43 -4.46 6.71 -7.46 6.2 9.05 8.53 -6.47 -8.52 4.2 3.53 8.36 -5.28 -6.05 -0.68 7.05 7.72 2.35 1.41 -2.68 -2.19 2.29 -7.71 5.1 5.89 1.93 -7.74 -8.13 8.53 -4.65 -1.69 5.37 -0.12 3.12 -7.01 5.3 -8.81 8.68 8.67 -4.53 9.24 3.57 3.28 7.8 -9.97 -0.2 0.43 -0.13 -7.64 8.87 -2.98 5.41 -8.73 7.13 5.62 3.19 5.65 -6.42 9.55 -9.11 7.85 9.85 -5.15 6.01 4.95 9.95 -4.92 -3.09 -6.09 9.52 -3.39 -2.15 -0.01 2.53 -9.7 2.39 1.01 -4.84 9.48 -7.3 6.27 8.67 -7.68 7.63 -2.51 -1.54 0.52 3.87 8.16 -6.96 0.22 4.28 4.76 9.15 8.85 1.38 -6.42 -9.26 7.5 -2.36 8.78 -4.73 0.38 9.65 -7.4 -1.66 3.08 -6.36 -0.37 -2.84 -7.33 -8.22 -4.59 6.51 0.67 -6.43 -4.92 -4.31 7.16 -6.43 6.37 -5.66 -0.6 6.27 -9.27 -8.66 7.46 0.33 -0.07 1.95 9.3 -2.63 5.52 2.32 -9.97 4.49 3.26 -4.19 -3.04 -6.08 -6.63 -5.18 6.7 4.59 -3.34 -4.12 -5.13 8.48 8.41 7.5 3.91 3.24 0.8 -4.46 -1.67 1.41 -0.26 8.06 9.62 -1.89 5.08 -2.73 6.68 -4.29 -6.22 7.84 -4.93 0.82 -0.16 -5.22 8.69 -3.41 -2.73 9.65 -0.35 -6.88 3.53 -6.14 -2.06 -0.68 1.6 9.4 0.7 -8.18 6.87 2.03 0.68 -0.2 -1.47 -7.82 -0.59 -7.56 5.97 -7.83 -4.78 6.77 7.54 7.05 -5.06 -6.46 2.34 -8.99 0.54 -0.91 -4.1 4.51 -7.46 -1.03 -1.33 6.3 -9.28 9.93 -0.48 7.44 8.69 2.64 |
1.3 4.51 -9.51 -3 -9.7 -1.98 -4.13 -3.71 2.43 7.68 6.04 8.18 3.75 5.14 -9.42 -5.44 5.18 1.63 -1.41 1.66 -0.13 3.26 -6.88 -5.77 -9.27 6.17 -0.69 -8.48 -8.12 -8.62 6.56 -0.33 -0.27 -2.46 -9.28 9.36 -6.7 -0.21 -7.04 -2.22 -4.18 8.91 -9.51 4.24 -5.37 -0.73 -4.16 -5.57 5.57 -5.46 0.62 -2.01 5.56 7.31 6.07 -8.38 -5.23 2.95 -3.73 -9.06 -5.28 6.08 -6.68 -5.36 1.85 7.13 7.68 9.5 0.51 1.3 8.71 0.75 6.06 -5.96 -8.97 -8.12 7.7 -4.19 -1.85 9.1 1.4 6.36 5.24 -9.07 6.66 -9.53 -3.66 -4.92 5.68 -6.42 -8.33 -6.21 9.27 1.66 -0.93 5.07 -7.16 6.44 3.2 -7.26 1.57 -9.97 6.27 6.46 3.14 4.26 2.74 4.62 -9.35 5.6 5.27 9.68 7.26 -7.32 9.26 -9.07 6.8 1.66 5.57 6.78 4.29 -8.77 -3.7 -2.24 9.72 8.67 4.47 9.6 0.9 -3.23 -0.87 -6.93 -4.84 2.55 -6.17 1.71 9.09 2.55 -8.34 5.72 -6.33 4.68 -0.49 8.9 -0.71 -9.57 7.48 1.51 1.93 0.39 -9.41 -6.76 -4.46 -3.58 3.61 -1.51 4.87 -6.28 2.63 -8.57 5.17 -9.82 2.95 -5.08 1.93 -9.41 0.16 8.36 3.39 8.83 -6.56 -4.71 9.73 -4.83 6.19 1.05 5.69 9.87 4.14 1.23 -6.2 0.75 -3.03 -0.53 1.6 -1.06 0.12 -9.77 -9.38 -6.77 -8.46 -9.28 9.16 -7.17 2.28 8.37 4.94 -5.66 -7.29 8.24 -5.26 7.61 7.36 -9.3 -3.42 -0.17 6.27 6.07 4.82 -5.33 8.37 4.63 -6.91 -0.61 9.88 4.44 -8.98 0.11 2.63 3.55 -4.36 -4.18 5.65 5.15 4.08 -4.17 -2.08 9.02 8.58 -3.65 4.78 9.61 -4.95 -0.53 2.86 -0.83 -2.35 7.57 -0.42 7.15 -2.09 -10 -2.4 -2.93 7.58 5.71 -4.94 -5.99 -1.26 -3.55 0.45 5.91 -4.25 6.36 -6.55 -4.88 2.55 -2.11 -2.17 7.41 -7.82 8.69 -3.51 7.66 6.75 8.36 -2.97 6.02 1.8 -5.84 -0.62 7.01 -8.63 -3.82 -6.9 -0.28 -9.93 9.29 1.69 -1.04 3.27 -9.97 1.19 -8.84 -5.84 6.08 3.12 -2.61 2.71 4.49 -7.87 1.63 -4.24 -4.59 -2.23 0.9 8.63 -8.58 -6.03 -2.14 5.64 -4.23 2.31 9.78 3.18 0.41 -5.28 -5.42 2.19 -2.63 2 -4.84 5.17 3.34 5.27 0.54 2.92 -8.93 -0.12 -4.15 9.73 -4.39 2.05 -6.06 -1.48 -6.39 -5.31 -8.42 2.99 2.68 -5.01 5.48 -2.9 -5.68 6.95 -1.89 -5.15 7.84 -4.11 3.61 -6.84 2.04 7.5 -3.14 4.76 6.52 9.57 -8.18 6.89 -5.84 -3.8 7.04 -1.58 1.29 -7.14 -9.85 8.66 -2.01 -7.17 -4.94 -4.44 -3.13 8.69 8.57 -5.79 9.95 -2.34 -1.69 8.57 8.74 0.97 1.09 -5.82 -4.28 9.64 -7.31 7.19 -9.24 -8.93 -1.63 -5.06 6.7 8.75 -2.08 -2.89 8.11 6.79 -1.48 -9.9 6.99 -9.56 6.53 9.27 -2.86 -7.36 2.06 -2.14 1.77 -2.79 2.07 9.33 8.81 -9.26 -1.49 9.22 -0.5 8.28 -9.51 -5.83 -5.26 -6.65 0.13 -2.12 -4.17 -5.38 -0.97 -2.4 1.54 5.92 2.15 2.09 5.88 -8.9 -3.5 9.41 2.15 0.34 5.66 -3.5 0.14 -5.6 6.7 6.58 6.32 -4.99 4.8 -1.19 2.92 -6.7 8.07 0.51 -4.76 2.6 -2.05 -5.11 -5.44 5.42 2.77 -2.28 0.49 -8.29 2.19 -4.73 7.07 -2.34 -7.37 -7.77 -5.58 -6.51 -5.59 -9.31 -4.64 7.18 -3.91 4.23 8.1 7.53 9.93 -9.07 -9.95 3.6 4.83 -6.18 -4.57 0.43 9.89 0.6 -5.97 8.83 6.78 -0.08 -4.08 2.16 -7.92 -0.56 9.04 9.51 0.48 -7.91 -3.09 7.27 -1.12 1.98 -6.75 -5.53 5.67 -8.58 -2.84 7.51 -5.01 |
3.96 1.39 3.93 0.94 -9.43 5.78 -9.98 -6.81 -2.38 -1.38 -6.89 1.74 -7.68 6.58 -2.87 1.8 3.38 3.93 -8.38 8.55 6.68 0.36 -7.59 5.93 -3.91 -7.8 -9.11 2.87 -5.15 4.65 9.87 -2.59 6.4 0.21 3.67 8.17 -6.4 5.57 4.94 7.64 -4.34 -4.42 -1.14 -6.47 0.22 -3.1 -3.53 6.04 7.15 -7.74 4.78 -1.46 -7.69 -7.14 -4.88 -3.46 4.98 -6.28 7.27 -7.61 2.18 -5.56 -1.76 -0.02 -7.05 7.52 -7.12 8.79 -3.64 -9.78 -4.67 7.33 6.77 9.35 -6.23 -1.87 -1.95 9.54 0.8 9.54 -2.78 7.17 5.6 -7.55 -7.53 5.42 9.17 -3.58 -2.75 6.14 5.29 -5.19 -0.79 4.71 2.3 -1.68 -1.19 -0.5 9.76 -7.91 8.85 -3.08 -4.77 7.61 5.04 7.61 2.94 9.85 -9.61 -0.3 -2.63 -1.44 6.46 -8.88 -2.9 -2.64 5.23 3.52 7.67 4.62 |
