-5.84512901306152 -1.30107498168945 7.78959465026855 -4.12343883514404 -4.04494380950928 -7.75004196166992 -9.63229942321777 3.55652570724487 -1.08133220672607 -6.73785400390625 -5.63029098510742 -0.0164785385131836 -5.12188911437988 1.76033878326416 -8.48192405700684 -1.3643159866333 9.81808090209961 5.99935293197632 2.61899447441101 -5.82216262817383 1.81823825836182 -2.39632225036621 7.97966957092285 -9.84047317504883 3.35036039352417 0.514286994934082 2.21091842651367 -8.12504959106445 -5.45366764068604 -6.00693893432617 6.98568344116211 2.79713129997253 -0.371583938598633 3.55358099937439 -1.95650005340576 3.2669997215271 1.20660400390625 7.16339302062988 -7.88911819458008 -4.86621761322021 2.78621172904968 3.63046836853027 5.76934814453125 6.05945587158203 -7.17089462280273 -0.180920600891113 -7.4601001739502 -8.16976165771484 -3.8532772064209 -0.200704574584961 5.31478118896484 -9.01101303100586 2.15293979644775 0.649422645568848 -6.45865631103516 6.09936141967773 0.416215896606445 3.13892817497253 -1.10710716247559 5.90430736541748 5.78612089157104 -2.82696151733398 -4.51850032806396 8.44130706787109 4.22784996032715 -2.74279975891113 -4.69570255279541 -0.960411071777344 3.39477729797363 -5.71469116210938 -3.706711769104 4.1032862663269 5.77775192260742 -3.19578266143799 -6.30729866027832 7.53889799118042 -4.47880363464355 1.59194374084473 -2.89839172363281 3.59566187858582 2.91884613037109 8.92586898803711 8.16763305664063 -4.36139488220215 -0.313502311706543 0.481184959411621 2.22771739959717 -6.94708299636841 5.37231206893921 1.95001220703125 9.89573955535889 8.23332595825195 9.88707733154297 -0.380572319030762 3.9693660736084 -5.48633766174316 3.6037871837616 -4.08007526397705 -5.29138565063477 3.22504234313965 -6.88889503479004 6.17316961288452 -4.62452030181885 -0.412846565246582 -5.84563732147217 9.3081169128418 -6.55944395065308 -3.10855007171631 -5.90571212768555 8.21977996826172 3.53849387168884 -0.803996086120605 -0.248788833618164 4.5351619720459 5.14419317245483 -0.700882911682129 6.41725301742554 9.80191040039063 -3.49107646942139 -1.4100513458252 2.12978458404541 -2.7753267288208 7.28982496261597 9.54146385192871 -8.68865585327148 -3.71313190460205 -0.160866737365723 8.41345977783203 7.89460182189941 8.95166778564453 -1.36955642700195 4.94647026062012 2.71887540817261 -2.84104251861572 6.93358612060547 9.17331218719482 -3.36907958984375 -8.68830108642578 -8.86134338378906 7.78413009643555 1.3699254989624 7.05353212356567 1.05181121826172 2.38201999664307 -8.13055801391602 1.18270492553711 5.45672416687012 4.05591487884521 7.032630443573 1.51231670379639 -1.70854949951172 5.10486602783203 -6.67716026306152 8.10883522033691 -5.70412635803223 8.2834358215332 -1.74252128601074 6.63025617599487 -5.22668361663818 1.52422332763672 7.50781059265137 3.12087988853455 -4.56953907012939 7.27804183959961 9.50741577148438 2.01012706756592 1.97219753265381 0.928750991821289 -2.95635318756104 8.08770370483398 -6.71648788452148 -9.86092758178711 1.01699733734131 5.64439535140991 2.46090793609619 -9.90395355224609 9.40273284912109 -5.07778644561768 -3.73993301391602 7.0462532043457 -5.73698997497559 -9.11259078979492 -7.35792350769043 -9.85317611694336 -1.6740665435791 1.17006206512451 -5.32524299621582 -3.04773902893066 -4.54806423187256 8.44193267822266 -7.44672966003418 2.9366729259491 2.37751865386963 0.546055793762207 -1.22974491119385 7.25314664840698 -1.37082195281982 -7.54120826721191 -0.725564002990723 5.29614210128784 -8.67992401123047 -4.95016479492188 -4.37262916564941 -1.37102508544922 -2.36700630187988 -9.82760620117188 5.41890621185303 -9.63214683532715 0.283323287963867 -0.46639347076416 1.02744960784912 6.10199928283691 7.66150236129761 1.92816829681396 -1.01789855957031 5.23166847229004 5.1696252822876 3.16641306877136 2.31048202514648 -4.83727550506592 -8.27698707580566 2.31748676300049 2.79911494255066 -7.05282974243164 -3.03613090515137 6.0125846862793 -3.81138706207275 -0.0761833190917969 -9.8608283996582 3.36200213432312 -7.95183372497559 -4.94961643218994 7.36562490463257 -1.29391288757324 -3.61413860321045 -2.06766986846924 9.0232105255127 4.935622215271 6.05522155761719 7.0584602355957 -6.93568992614746 5.360107421875 -1.3268575668335 2.43574714660645 1.09047317504883 -4.8030366897583 8.74187278747559 2.16639423370361 -3.24762725830078 -0.39744758605957 -1.0026969909668 6.35482978820801 2.22456836700439 7.62131690979004 -9.26582145690918 -3.71891593933105 -6.17950439453125 -6.25562477111816 -8.31304740905762 0.895973205566406 -3.62809562683105 3.3290479183197 -0.641311645507813 -7.18823623657227 -1.42577266693115 -6.96572494506836 2.22030067443848 -9.15573501586914 -6.61155271530151 3.24707007408142 -5.94108104705811 9.58492279052734 7.04928159713745 9.6552677154541 -8.45401763916016 -8.35714721679688 -2.36463642120361 2.92445635795593 -3.83734607696533 -2.22503089904785 -8.83792686462402 3.08720779418945 -0.674825668334961 5.43761730194092 -0.648459434509277 0.228668212890625 -0.80027961730957 -0.889788627624512 -4.68787574768066 3.33958125114441 -8.90549087524414 -4.64613819122314 -3.75710868835449 8.20552825927734 9.4400634765625 -9.58784484863281 -1.32076358795166 -7.88804578781128 -1.63328266143799 -8.50108337402344 5.49846410751343 8.02489280700684 1.67900466918945 3.30018019676209 8.00159645080566 -4.98134231567383 0.25269889831543 5.89130163192749 0.0569162368774414 -8.42702865600586 8.28811168670654 3.1328558921814 2.48256301879883 -2.304931640625 3.58487844467163 0.189842224121094 4.83160972595215 3.01996684074402 -0.740805625915527 7.0013575553894 1.45248508453369 -2.02046298980713 4.04900741577148 -5.60964107513428 7.16596174240112 2.74822950363159 2.70264387130737 6.92824554443359 5.65534591674805 5.05453300476074 -4.73488426208496 -9.2428092956543 4.72594451904297 -9.27913475036621 -1.17545700073242 -3.07307147979736 -1.69466876983643 1.92211532592773 3.80347442626953 3.15929865837097 -3.47744083404541 -4.71723175048828 -1.62540054321289 -0.678783416748047 5.33525657653809 3.02791094779968 -6.09000968933105 2.45993518829346 -5.37469863891602 -1.90621948242188 -8.3693904876709 0.256300926208496 7.69356203079224 2.72141909599304 -7.69342422485352 2.70721888542175 -2.2832670211792 -0.983814239501953 8.15579891204834 -5.05083560943604 6.44216966629028 5.99649906158447 -4.91654014587402 -9.76576805114746 -7.77811050415039 -2.19760990142822 -5.23585510253906 9.88494110107422 6.24661636352539 4.23868179321289 6.51256132125854 4.12603569030762 -3.6638011932373 -4.94611835479736 -0.849801063537598 6.74091339111328 -2.47554206848145 3.86307907104492 0.241166114807129 -7.49524116516113 -0.885306358337402 -0.488285064697266 -3.77962684631348 -5.23098754882813 -6.35748100280762 6.8270206451416 2.98819518089294 3.87304067611694 3.79400968551636 -8.74829292297363 -1.80796051025391 3.51991844177246 3.22172141075134 5.46414566040039 5.45945358276367 -1.270827293396 -4.79541683197021 -3.40591526031494 -0.298248291015625 -9.35755729675293 -0.68734073638916 -5.87163925170898 4.02155637741089 1.93645095825195 3.73216128349304 5.86615562438965 8.40875434875488 6.504798412323 7.45659065246582 7.70310163497925 -8.07568359375 8.70378494262695 -2.24069976806641 -5.48684883117676 1.84995746612549 -9.12911224365234 -1.34550952911377 -2.99692535400391 -4.81465721130371 -3.38093185424805 1.74670124053955 6.78620100021362 -3.23368644714355 -0.675436019897461 -9.92850494384766 -9.75595474243164 1.00026988983154 1.93992710113525 9.80339241027832 -8.1849308013916 2.06184482574463 7.3828239440918 2.33204746246338 -1.09716510772705 8.135085105896 -4.2131986618042 -7.6827335357666 0.857199668884277 5.34274578094482 7.27231979370117 8.84263515472412 -5.05758762359619 4.54728841781616 1.96788692474365 -2.65748119354248 5.15071630477905 -8.38853645324707 0.96859073638916 7.78385591506958 9.39056587219238 -5.46354103088379 -9.22596168518066 9.50351905822754 8.97323989868164 8.65505409240723 -9.56582641601563 9.12906646728516 5.87719917297363 -5.27451515197754 8.20741176605225 5.17347097396851 -5.46273422241211 7.60432767868042 -1.04748153686523 -6.2564754486084 9.1995906829834 -8.12161445617676 7.62905120849609 -8.10323905944824 5.76439619064331 -1.85413265228271 2.96830630302429 6.55881118774414 3.25391960144043 9.65986251831055 5.42647838592529 -9.71406173706055 -5.8474178314209 5.07953405380249 -8.53089904785156 -3.16281414031982 -4.78201484680176 -5.39151668548584 9.52397155761719 -7.84383010864258 -6.55661392211914 0.358935356140137 7.64762449264526 -1.70556163787842 -7.67403078079224 3.07491493225098 -3.46433258056641 -1.4752254486084 -6.39999389648438 -8.8264274597168 8.37618637084961 -2.00216197967529 0.77370548248291 2.44485473632813 -6.35640907287598 -5.86419296264648 -8.06986045837402 5.25665998458862 0.419448852539063 -8.14778137207031 -1.09657669067383 7.50642967224121 6.13742828369141 2.06015491485596 -2.5315465927124 0.181160926818848 0.995749473571777 -8.42324256896973 -3.28020477294922 9.63175964355469 8.55387878417969 6.47437810897827 -9.23102569580078 8.04537963867188 -2.23688220977783 -1.76588153839111 3.75921010971069 5.55586814880371 3.95939064025879 -2.43739700317383 -8.51953315734863 9.72344207763672 4.23068523406982 -5.93819141387939 1.72184562683105 -2.71742725372314 1.27174472808838 3.7126898765564 0.739069938659668 -4.30590534210205 8.2940788269043 -0.0166282653808594 2.02083492279053 -6.39811515808105 -1.88175106048584 -7.55890846252441 6.50883674621582 5.14236640930176 4.69173431396484 0.951844215393066 7.35919189453125 9.34391021728516 7.7897047996521 0.651532173156738 6.07601881027222 6.69007301330566 5.39670467376709 -2.18849754333496 -5.31769752502441 4.43218946456909 -0.495580673217773 5.79926013946533 5.73452472686768 4.50463771820068 -9.86894798278809 -5.34640312194824 4.38288450241089 3.67706274986267 -1.43906688690186 0.077606201171875 5.48740386962891 1.24976062774658 2.28129768371582 -9.22784423828125 5.54707717895508 -0.0767049789428711 9.74754333496094 -7.36969947814941 3.76121020317078 4.32035636901855 3.24589228630066 -5.6624870300293 1.71292877197266 -8.28165435791016 4.80907440185547 7.14293670654297 -0.84326171875 1.89639949798584 -0.470462799072266 3.49963164329529 -6.13996076583862 3.85603666305542 -8.66592025756836 -7.21149015426636 -5.69417762756348 -8.38327026367188 6.97122573852539 -1.93391895294189 -1.77224731445313 -0.635732650756836 7.46122550964355 -9.81475448608398 -9.81575965881348 -9.02240943908691 2.69439888000488 1.01078128814697 -1.58970260620117 3.50286936759949 -5.63027858734131 -4.13858795166016 -2.09749126434326 7.60014533996582 -6.06374931335449 -4.19489288330078 -7.76913118362427 -9.82343864440918 1.58813095092773 7.36912202835083 -1.22722053527832 8.539306640625 -1.6579761505127 0.0586023330688477 4.66586112976074 -4.40422630310059 6.88915252685547 -1.83666610717773 8.68244361877441 5.09257507324219 -5.98222923278809 -2.71185970306396 0.278779029846191 -9.61874961853027 3.32270383834839 6.71400260925293 -2.08043479919434 6.54983520507813 -0.364426612854004 0.567656517028809 0.316062927246094 -0.596529006958008 -4.287672996521 -4.99931716918945 4.73472356796265 -0.855976104736328 9.49967861175537 -0.456422805786133 -9.91126823425293 -6.87047529220581 -4.93160629272461 7.7930736541748 2.88325071334839 7.98826932907104 3.15070605278015 5.37571907043457 4.61216449737549 -3.93300914764404 6.8161506652832 -8.71421432495117 0.212921142578125 4.26428556442261 7.88356351852417 -2.26414585113525 8.00014686584473 3.15954661369324 4.21754360198975 -3.94617176055908 5.14562606811523 2.27597618103027 8.0407543182373 -8.32378387451172 -3.44312763214111 -5.84978103637695 0.684207916259766 9.23142623901367 -2.68641090393066 5.38353157043457 7.54300117492676 7.37501859664917 -7.0146484375 -0.899614334106445 4.72568511962891 -1.46329307556152 -4.15944194793701 -6.31548881530762 0.46281909942627 0.883749961853027 -8.16920852661133 -1.76257038116455 -5.39654922485352 -4.72606754302979 0.36810302734375 -6.46005201339722 -7.54674482345581 -0.439997673034668 9.09614944458008 -8.44573020935059 -1.16917705535889 4.00590896606445 4.2761754989624 0.317496299743652 8.08988571166992 -1.40498542785645 2.07252597808838 2.68951869010925 -3.34166145324707 -6.30224418640137 4.71199512481689 4.83464002609253 -5.06313800811768 -3.24203586578369 -7.27574348449707 -9.71868133544922 -6.72623825073242 -3.92282104492188 -4.99555206298828 6.46868896484375 -3.62654113769531 6.30932283401489 6.51107358932495 2.09597969055176 -7.82612037658691 -6.9597225189209 2.12488746643066 5.4788875579834 -2.69455337524414 -7.10464477539063 -7.60157060623169 -1.73564052581787 -3.04970359802246 4.2669506072998 -1.42514324188232 -7.57117080688477 -2.82528495788574 -1.36334991455078 9.49709701538086 -1.05921649932861 -5.881667137146 -3.301025390625 -8.28973579406738 3.37742781639099 9.34185028076172 8.06341552734375 -3.40586757659912 -8.49622917175293 -1.1553201675415 -8.68136215209961 -3.51601696014404 1.91275024414063 -2.22775554656982 -0.703946113586426 8.14055442810059 7.87044286727905 6.01393461227417 -3.29391384124756 7.51657676696777 -9.04144096374512 -7.71724510192871 -5.06142616271973 5.84589958190918 5.98383903503418 4.32214260101318 -4.37149429321289 -2.49281024932861 -0.124897003173828 -4.18572807312012 5.28301954269409 4.47146892547607 5.92692565917969 -1.46916484832764 -8.94136619567871 -0.143786430358887 7.04107713699341 -9.43166732788086 -8.75379943847656 7.76258230209351 -4.37408828735352 7.02462911605835 5.69516181945801 9.6015567779541 4.70788955688477 -9.57223892211914 7.1360182762146 0.655287742614746 1.71493148803711 -8.67300987243652 9.12044525146484 7.78076601028442 -6.12701606750488 -0.327144622802734 -0.0205411911010742 -0.307622909545898 4.2845630645752 5.85853338241577 8.39665412902832 -1.36201763153076 6.98076677322388 -7.39592742919922 -0.698355674743652 -2.81703853607178 1.33105850219727 5.37197589874268 6.08275890350342 4.99175786972046 -3.52773571014404 5.2220606803894 6.94603395462036 -0.511609077453613 0.760201454162598 -3.42775917053223 3.76990079879761 -7.91500091552734 7.77000617980957 3.71920561790466 3.18980407714844 1.71862030029297 -8.67352294921875 -6.9109992980957 8.25712013244629 -9.17659568786621 3.46008062362671 -4.78360271453857 -9.96794128417969 7.86109495162964 8.51230430603027 0.153594970703125 9.26138877868652 -3.99297332763672 -9.47384262084961 -2.72467517852783 -8.55094909667969 6.37277364730835 9.54276275634766 -6.72451210021973 3.75361633300781 1.4640417098999 4.19075012207031 8.43174743652344 -5.24451732635498 -9.29866981506348 -8.03643035888672 9.01527404785156 6.35405302047729 -9.01425933837891 -9.19046211242676 7.81573295593262 -2.53188514709473 0.347646713256836 -0.824533462524414 2.30271244049072 -5.76930046081543 2.11751079559326 -3.0635871887207 -5.72247695922852 -8.3891487121582 3.65037894248962 -1.05098628997803 5.31094551086426 1.87744045257568 -2.28537940979004 5.32227993011475 -1.50136852264404 -8.390625 -7.60611009597778 5.64223766326904 -8.87071228027344 -7.27946281433105 -6.79575729370117 4.04764652252197 -3.31675148010254 -5.57778835296631 4.99573469161987 0.184651374816895 -9.41105079650879 6.58458709716797 -4.0123405456543 0.719174385070801 5.94449996948242 9.22225952148438 -4.59725475311279 -5.65803337097168 -5.64670372009277 2.25332164764404 2.96923136711121 0.486651420593262 0.410953521728516 -9.15201950073242 2.18087100982666 -0.40556812286377 3.82048583030701 8.00851821899414 -8.39317321777344 1.73676872253418 2.09883594512939 7.41129875183105 -2.90952301025391 2.18405628204346 0.69658374786377 -3.85804557800293 5.98314762115479 4.74806785583496 6.67494535446167 -9.84530448913574 6.06680107116699 -7.23025512695313 8.50224685668945 -0.96373462677002 -9.65610694885254 -6.83019208908081 -8.71494102478027 9.10527992248535 -5.62264919281006 1.14119911193848 4.00875806808472 -0.307468414306641 4.43338394165039 1.38317966461182 -0.855273246765137 0.253101348876953 -6.51908683776855 5.55528163909912 -9.01847839355469 -9.37303733825684 3.4307074546814 5.75497627258301 4.26044654846191 -5.789794921875 0.643650054931641 -5.06844043731689 9.16976737976074 -0.414303779602051 -5.84956169128418 -3.73321151733398 1.53088188171387 -3.47507095336914 -7.66031455993652 -9.90695190429688 -0.78736686706543 -8.97556114196777 0.0781641006469727 -8.69610786437988 3.66380190849304 -7.87922096252441 2.62957072257996 1.66221714019775 6.36208009719849 6.77173376083374 8.39371109008789 1.84042835235596 -9.57184982299805 1.22387981414795 8.01909255981445 -5.35345268249512 -0.593343734741211 -3.57258701324463 -6.58869218826294 4.32964515686035 -8.54192352294922 -6.52568387985229 -1.88105487823486 -5.82725524902344 -8.04410552978516 -6.20990324020386 2.04415416717529 -2.3308219909668 3.121342420578 1.66282558441162 4.83329963684082 -6.62714195251465 -6.17667961120605 -1.20958709716797 -8.27993392944336 -0.538731575012207 -6.4538426399231 -9.07125663757324 -4.10706901550293 6.22923851013184 3.71308517456055 1.41530895233154 8.43060970306396 3.26321363449097 -9.87058639526367 0.117527008056641 -3.93651866912842 8.50569725036621 9.90058708190918 7.13510704040527 6.39165115356445 -4.72178840637207 -6.73404264450073 1.82614707946777 9.19683456420898 8.59621810913086 2.07231426239014 9.05352592468262 7.74341773986816 1.34656810760498 -0.900636672973633 1.48210430145264 -5.01020622253418 2.72499799728394 2.44372940063477 -0.970335960388184 5.77511787414551 -8.15705871582031 2.62958979606628 4.4350004196167 -4.56771945953369 -9.20342254638672 2.84158682823181 -1.1767635345459 4.8928427696228 -0.00450515747070313 -4.7939338684082 5.28224945068359 -3.80048179626465 7.31624603271484 -1.67680168151855 -7.04783964157104 0.59963321685791 4.93448972702026 -9.91353988647461 8.02359008789063 2.71718740463257 9.73378658294678 7.71940422058105 8.63993072509766 0.117391586303711 -1.86795139312744 -2.28259468078613 4.80837345123291 -5.31309127807617 -8.90629959106445 -9.75202178955078 0.152193069458008 -7.07423734664917 8.74716758728027 8.12614250183105 6.59894180297852 -9.0871696472168 -2.60476493835449 9.5814323425293 -8.76567840576172 -0.360494613647461 5.11296272277832 5.72530269622803 -4.69606304168701 -1.31382083892822 -8.97282600402832 -7.29056882858276 -1.81801223754883 -4.730149269104 -1.19208717346191 8.61783981323242 7.08896207809448 7.33355283737183 -6.72715187072754 7.68291902542114 3.44437575340271 -6.99696731567383 -4.57176113128662 -0.445247650146484 -9.11407279968262 -5.76348114013672 -4.85209369659424 -7.14468002319336 -9.96536445617676 -9.74395751953125 6.67969179153442 -0.24565315246582 3.27067136764526 -6.19921684265137 -4.70185852050781 7.88836240768433 -3.53479480743408 5.95627546310425 3.24814033508301 -8.5186882019043 1.72443962097168 -9.83608245849609 -8.85750198364258 5.80097389221191 -4.25979518890381 -8.22658729553223 -6.54603958129883 -0.885892868041992 9.95731735229492 -8.30282402038574 8.72178077697754 9.43522453308105 7.26375770568848 -4.14830780029297 -3.00590419769287 9.54033851623535 5.29458999633789 -1.49654769897461 3.60121917724609 -0.14861011505127 4.2400598526001 1.4031400680542 5.65096378326416 -8.78614044189453 0.388637542724609 -7.54988670349121 -7.20144081115723 -0.969118118286133 -1.95896053314209 4.92278099060059 1.639479637146 -6.26636695861816 6.65793609619141 -1.63012409210205 5.96469116210938 3.75195956230164 1.09072113037109 -5.09226989746094 -8.09297752380371 -2.91092014312744 -2.03168964385986 0.52369499206543 2.48077774047852 4.93383169174194 -4.44817924499512 -4.68994522094727 -0.424717903137207 5.41187763214111 1.40646076202393 9.59317207336426 8.97012710571289 -6.54250144958496 3.00699687004089 5.3131365776062 5.29615163803101 -2.59103393554688 7.77276229858398 -7.87210893630981 8.05298805236816 -6.50481986999512 -9.6321907043457 -6.24648857116699 -6.22633934020996 6.79990768432617 -5.15867042541504 -0.571666717529297 -4.2983922958374 2.82820677757263 -5.26326370239258 -3.34140396118164 -3.96299934387207 8.26564025878906 7.87561178207397 -0.750704765319824 -3.74540901184082 -5.34920501708984 -7.53538131713867 -0.454140663146973 -9.25783920288086 8.52605056762695 7.99847602844238 0.665498733520508 6.58655166625977 -4.69045543670654 8.37948036193848 -7.50629234313965 3.24207282066345 2.18326950073242 4.79656219482422 5.53237915039063 -9.05056953430176 6.24552726745605 -1.96650123596191 9.88802909851074 7.45886993408203 -3.10413932800293 -6.70690536499023 9.24997138977051 -3.67824935913086 -2.40689373016357 -8.61610221862793 8.77095031738281 -3.02154159545898 6.58052635192871 9.92866706848145 1.0626802444458 -9.8287410736084 -3.86530494689941 1.78401374816895 -1.51068115234375 -0.992049217224121 4.84161138534546 -2.27066612243652 6.4217734336853 -5.98571300506592 -0.929211616516113 -3.82776641845703 -5.26885509490967 7.09493207931519 4.14079427719116 5.79894256591797 -7.66253995895386 -7.01198387145996 -3.8351001739502 -3.51260757446289 -7.37441062927246 -1.22469043731689 -1.97612380981445 2.2448673248291 -6.9787745475769 0.503143310546875 2.90097689628601 -6.16115570068359 -9.26713180541992 -9.08366012573242 -2.94139957427979 9.86983489990234 9.03825759887695 -5.80459785461426 6.15017127990723 -2.86095237731934 1.01301288604736 3.28596568107605 2.4689302444458 2.38099002838135 8.06270408630371 5.49713611602783 8.21022033691406 2.04143619537354 -2.84211730957031 -5.63504219055176 -5.04820823669434 -3.44127559661865 4.24292755126953 -8.6302490234375 -4.17022609710693 -1.82900810241699 -6.25999450683594 2.74836301803589 -2.33278179168701 -6.10177993774414 6.93943977355957 1.37967491149902 -8.47732162475586 7.51487493515015 -5.34323501586914 4.50658988952637 9.54992485046387 -3.14970397949219 -5.48956871032715 -6.05606269836426 -4.15920829772949 3.28872656822205 -0.222750663757324 -6.23031425476074 -1.79156875610352 5.19576072692871 5.42572212219238 -0.920595169067383 6.47583961486816 5.01124143600464 -6.00301742553711 -2.67363166809082 -0.242923736572266 -9.64052581787109 6.66095304489136 6.21542358398438 -9.21898651123047 -5.40744781494141 -7.13836669921875 8.21431159973145 9.4495792388916 -9.65252876281738 0.46782398223877 9.84927654266357 -0.264512062072754 -3.62161064147949 -6.35554122924805 -5.84794044494629 -7.97969627380371 -9.8648853302002 1.819091796875 3.17197561264038 3.7120361328125 -6.63689804077148 1.70371150970459 -4.8125638961792 0.592742919921875 6.12754058837891 4.11566925048828 -3.6698637008667 3.42122268676758 1.47762870788574 1.98385143280029 0.676406860351563 -7.89640617370605 7.57013320922852 8.15106391906738 -1.52080631256104 3.61337637901306 -6.94994163513184 6.50082588195801 -7.08669233322144 8.80935859680176 8.81562042236328 8.72923851013184 1.81617164611816 3.20370435714722 -3.77020263671875 -4.25286388397217 7.03160047531128 3.33304166793823 -4.462815284729 5.31866073608398 -5.16987323760986 2.73858261108398 4.00569677352905 7.30024337768555 1.7045841217041 -5.51992893218994 -8.64094161987305 0.625571250915527 9.16111755371094 -1.28696346282959 5.01548290252686 6.7472882270813 -7.04320907592773 6.64531469345093 5.12846183776855 2.02385997772217 2.13039016723633 9.60962677001953 -5.62516403198242 -7.82983779907227 7.01878309249878 1.84473419189453 2.89523100852966 1.42745399475098 0.771242141723633 -4.71677207946777 -3.83083915710449 0.767959594726563 -7.42331695556641 -3.46581363677979 -6.37226104736328 5.71700811386108 -1.31548976898193 6.50337219238281 -8.4360466003418 6.51183319091797 9.87142944335938 5.20796298980713 -4.64743995666504 3.99792170524597 -8.43929100036621 8.23612976074219 -4.86513042449951 -6.14157676696777 7.36611557006836 7.22971677780151 -1.87147998809814 -2.6407995223999 0.282293319702148 6.9636607170105 3.07501292228699 0.824502944946289 2.69038915634155 -6.42677307128906 1.32898902893066 -9.63266563415527 3.74182200431824 -6.35942029953003 9.81393051147461 8.7343864440918 6.17374610900879 6.01291179656982 8.14181804656982 -3.53322887420654 -5.0742130279541 -7.46119689941406 -8.22103500366211 9.20960903167725 6.42287015914917 7.86095809936523 7.87260055541992 3.09319257736206 -7.3875470161438 1.14769077301025 6.24897718429565 8.16211891174316 2.84423804283142 0.0729236602783203 -8.89268684387207 1.04027366638184 -5.13421821594238 8.26175880432129 -0.770153045654297 -5.98021507263184 4.04843807220459 -5.5649356842041 -9.82246208190918 2.09917163848877 -3.25228786468506 0.163351058959961 7.45748281478882 -8.80364608764648 0.438290596008301 9.8991756439209 -2.66915702819824 -5.81576538085938 5.93739032745361 1.9440803527832 3.31955146789551 1.21200942993164 4.32264518737793 3.35555052757263 -6.41935348510742 -5.63944625854492 -2.25443935394287 -1.77427196502686 -6.28853988647461 -9.47751235961914 -5.17016220092773 -8.66246223449707 6.49919939041138 -1.98507213592529 -2.68673515319824 -2.75872135162354 |
-7.78841209411621 -4.25334358215332 -6.1505274772644 5.54022550582886 1.84328460693359 4.3000864982605 4.37089681625366 3.13939547538757 5.57675838470459 -9.63907051086426 -7.6473217010498 0.0411548614501953 -4.66697788238525 0.508161544799805 3.45816373825073 -0.0381050109863281 -1.46452045440674 0.647822380065918 7.12417793273926 2.87636518478394 -9.8675537109375 -2.70216369628906 9.38269805908203 5.92986822128296 3.57627105712891 -6.25884246826172 -2.73298645019531 -2.35555267333984 9.87089157104492 -3.94411659240723 -2.05527687072754 4.41108465194702 -8.96110343933105 5.76887845993042 2.54927611351013 4.29898262023926 7.67032814025879 -8.1178092956543 9.34585094451904 1.34387397766113 -0.725277900695801 9.88866806030273 -7.64470624923706 6.70772743225098 1.86826133728027 -8.48011779785156 6.31962776184082 3.76416397094727 2.22446823120117 -7.54749298095703 -6.06949043273926 -4.93432903289795 -5.94475269317627 -9.7193717956543 8.93779754638672 1.87256908416748 5.58613014221191 6.5670223236084 0.488983154296875 9.57451248168945 4.04619693756104 3.43348264694214 0.969162940979004 -1.92520046234131 -5.08890914916992 5.59509992599487 -5.12750148773193 8.17444801330566 -6.50258827209473 -9.1115550994873 -3.64317989349365 8.05380821228027 2.05303573608398 -5.7822208404541 1.19074249267578 -5.33054828643799 7.90134620666504 -1.66914367675781 2.05915546417236 -3.17227745056152 8.95738983154297 9.15445137023926 7.08449363708496 -1.08373260498047 -7.66850662231445 -1.93375205993652 -5.57188034057617 -6.84975433349609 -6.20048522949219 -7.03522157669067 8.63492202758789 -5.96813011169434 -8.97795677185059 0.12452220916748 4.97470092773438 -5.0101375579834 -7.71797609329224 0.129281044006348 2.19167137145996 8.93181037902832 -0.846108436584473 5.55038452148438 -7.52029609680176 1.22955417633057 -3.72286224365234 2.74446249008179 6.69296979904175 -4.0372314453125 -6.65977668762207 0.403243064880371 -5.15326499938965 8.1072998046875 -9.6913890838623 -1.10054397583008 -3.12626266479492 -9.68534278869629 7.52441167831421 0.959390640258789 -6.03435325622559 -5.28558921813965 6.12280607223511 -7.23516654968262 2.08246803283691 4.95615005493164 3.47694158554077 0.132745742797852 -2.17343425750732 8.67324352264404 -4.46229362487793 -7.1322135925293 -6.86968803405762 -8.58274841308594 8.61315536499023 3.77526473999023 4.8141975402832 -9.38374519348145 5.65105199813843 -8.57385635375977 -1.58026313781738 -8.60257911682129 4.07248497009277 -4.53399753570557 -7.88348388671875 4.95107173919678 -4.18160820007324 1.99307823181152 9.06683921813965 9.1655387878418 7.19409942626953 -4.81259918212891 -0.756801605224609 9.25365447998047 2.1788272857666 -8.25182342529297 -8.81895446777344 -0.166626930236816 2.28478527069092 -0.224427223205566 -3.4605655670166 1.25125503540039 5.87527275085449 -0.649727821350098 8.09611320495605 -0.409320831298828 6.5721321105957 -6.21241044998169 6.91948366165161 -0.865963935852051 -6.43435478210449 -1.05904960632324 6.3721752166748 2.67257881164551 -0.0958051681518555 -6.8777232170105 -5.57131767272949 4.04001951217651 -1.19732475280762 -9.03077125549316 -7.58283615112305 1.7926778793335 2.3919734954834 4.14460182189941 9.36637878417969 7.6446385383606 5.08430004119873 -8.22247695922852 -5.62104415893555 -0.984453201293945 -5.01858520507813 4.19119596481323 5.1030445098877 1.74070739746094 8.54596138000488 7.72637128829956 4.1998119354248 3.32685232162476 -1.31469345092773 -0.371359825134277 4.59158134460449 1.02518177032471 3.2827205657959 -0.579694747924805 5.81089210510254 -8.70762825012207 -7.376708984375 0.261930465698242 0.856348037719727 -0.249642372131348 -0.480598449707031 5.21104574203491 1.62699794769287 8.42184257507324 2.09280872344971 -5.82505702972412 -8.32772445678711 -7.37971496582031 -9.67872428894043 6.0437126159668 4.18304443359375 0.655511856079102 9.49437618255615 -1.04055500030518 2.51782870292664 2.82859039306641 8.37757110595703 2.18146896362305 -5.1605224609375 -2.87265205383301 9.7631721496582 -2.48944664001465 -3.79310035705566 -8.68286514282227 -6.33455085754395 2.97571158409119 -0.426975250244141 2.3758373260498 -4.88439464569092 -4.05979251861572 1.06769943237305 3.29477500915527 1.516037940979 -4.88075828552246 3.81249189376831 2.23793125152588 3.77875781059265 -9.10246086120605 3.77900314331055 8.54292678833008 2.54827952384949 -3.00985908508301 4.92320251464844 -5.86790561676025 3.32560729980469 -7.33623504638672 -5.51213455200195 -2.97810649871826 -6.11359405517578 5.09973049163818 -5.22780227661133 -3.41929817199707 2.79062986373901 9.09815216064453 -1.51571655273438 2.42788410186768 -9.25846099853516 3.97525024414063 -6.04203748703003 8.76232147216797 1.53196716308594 0.0107822418212891 -1.52417278289795 2.35689544677734 -9.1818733215332 -2.15387439727783 8.06239128112793 8.86674690246582 1.83143997192383 3.45849967002869 8.40236854553223 4.65175819396973 -1.8060359954834 7.13436555862427 -1.91635704040527 -1.39100646972656 4.47890758514404 9.40567207336426 1.8993034362793 -8.58866119384766 -1.81751346588135 5.63311767578125 1.68516540527344 0.190605163574219 -5.26359748840332 -1.52638816833496 -1.2927188873291 -3.77660179138184 1.78588485717773 -1.9672737121582 0.570660591125488 0.111946105957031 8.13451290130615 1.02122688293457 5.62552642822266 3.52901911735535 -4.65679550170898 -9.56325340270996 -7.83486890792847 0.64510440826416 -5.42258453369141 -9.5690803527832 -9.84248352050781 6.4792366027832 -4.84875106811523 -9.05418014526367 6.40757751464844 -3.43035316467285 6.11083745956421 4.45200681686401 7.95721244812012 4.55732345581055 -8.99349594116211 0.541299819946289 -6.90904808044434 8.63435745239258 -3.07582473754883 1.99001407623291 0.631813049316406 -1.62320232391357 -9.54051208496094 -4.85570812225342 -2.61943435668945 7.92300415039063 4.81704473495483 -3.6502685546875 -0.573307037353516 4.90141105651855 2.81696081161499 -6.68226671218872 -8.90846633911133 -9.71859169006348 4.11434650421143 7.34653663635254 5.22684288024902 7.60569047927856 -5.84889221191406 -7.13745880126953 -1.85927486419678 -9.69116592407227 8.8441801071167 -8.3238582611084 8.71594905853271 -0.45472240447998 -2.06545734405518 -2.16558837890625 -1.89223670959473 4.39904928207397 7.46202898025513 -4.92868804931641 3.47489547729492 7.78436851501465 7.68394899368286 -8.53055572509766 -4.64724159240723 -1.83876132965088 -4.9140682220459 -3.82357501983643 8.57192039489746 -0.0967826843261719 8.42733573913574 7.39361524581909 -8.62798881530762 -3.90991592407227 6.76863431930542 -6.18003082275391 7.9156494140625 -2.84064865112305 2.92597007751465 2.22792720794678 5.18168926239014 -6.74805116653442 -0.59785270690918 -4.96046924591064 -2.79027080535889 -5.00143051147461 6.30400419235229 0.945788383483887 -7.11007118225098 7.13420104980469 4.7775764465332 -6.47495079040527 6.7106032371521 -3.58987712860107 -9.77658081054688 -4.29634952545166 6.27932548522949 -1.81255435943604 -3.27002143859863 -9.87416458129883 -1.28807163238525 1.84444332122803 |
-5.49507617950439 3.38251090049744 -2.24194431304932 2.52801871299744 8.84872627258301 5.51155805587769 9.06956672668457 -7.07147407531738 5.92586040496826 -8.68335342407227 0.826693534851074 4.73706436157227 -5.18108177185059 7.23864316940308 6.82933568954468 -7.71735954284668 4.83320713043213 2.43025875091553 2.59199595451355 1.14472961425781 4.57124471664429 -4.37012767791748 -0.0397500991821289 5.39744138717651 3.22633504867554 -1.0332498550415 -4.1483154296875 -4.37083148956299 -3.05280780792236 9.02546310424805 -9.03351783752441 5.70448398590088 -4.08867931365967 0.13783073425293 -9.08237838745117 -2.82529258728027 -3.59634780883789 0.286711692810059 -8.59306144714355 3.57183218002319 -3.56174850463867 -4.78367233276367 -1.65999031066895 0.578456878662109 9.51910972595215 4.66510772705078 2.12958908081055 0.349954605102539 0.0189151763916016 0.567813873291016 -4.03389358520508 -9.47294998168945 -1.48194885253906 9.47102737426758 -0.695122718811035 8.36505699157715 0.215734481811523 -9.71484375 -3.13559150695801 -3.10253047943115 5.73039770126343 -2.89772605895996 -8.2827091217041 9.90081596374512 1.18249034881592 7.26866483688354 6.87374544143677 2.32107257843018 1.90419101715088 -4.19711208343506 1.45989513397217 -4.78685283660889 -0.811539649963379 0.91352367401123 9.0345287322998 1.81020355224609 -7.97443199157715 -0.921286582946777 2.32544326782227 4.87021636962891 -3.9967737197876 -8.51530456542969 -2.93732738494873 -3.68793869018555 3.91922187805176 5.03016233444214 -0.408092498779297 9.05348587036133 1.65876293182373 -5.54355144500732 -8.93734931945801 -2.5592794418335 -8.42430114746094 -2.07137680053711 -0.318866729736328 -6.38199043273926 6.97208404541016 -0.863985061645508 -4.05769729614258 -4.07208061218262 -6.0129017829895 6.49851036071777 -6.41850662231445 5.05568504333496 0.0392208099365234 -9.48134994506836 0.898202896118164 -6.39600324630737 -4.28078269958496 3.00807452201843 -3.63812828063965 -9.14584732055664 -4.61583518981934 6.09450531005859 9.67421340942383 -6.0668773651123 -4.52835941314697 0.0939235687255859 -0.216794967651367 6.47990942001343 -4.43947696685791 7.74724197387695 3.47150039672852 -6.78562355041504 7.56466102600098 -7.3390007019043 -9.84436416625977 -9.0471363067627 6.61457777023315 -4.11268329620361 1.21594524383545 -3.21236038208008 9.06222343444824 -0.131031036376953 -2.06165885925293 2.96581983566284 -5.49258422851563 -6.0909481048584 2.32881641387939 -5.45662117004395 -4.36067485809326 -4.21569728851318 0.120192527770996 -6.99526023864746 8.59279155731201 -1.56917190551758 -4.18157482147217 4.06177282333374 -2.43260955810547 -6.4057445526123 -5.27842330932617 -4.29294204711914 2.88176989555359 8.64560317993164 5.23061752319336 -9.93895721435547 -2.86224269866943 -6.77829313278198 3.43365168571472 5.8897876739502 -1.44472503662109 9.32547569274902 -3.00475215911865 -5.92034530639648 6.22915649414063 6.12285614013672 -5.78240871429443 7.93426942825317 1.85444927215576 6.79726362228394 -3.08545017242432 -5.58570861816406 -4.44733047485352 8.12114715576172 8.2680778503418 -1.21470546722412 9.24695205688477 2.97028303146362 8.61209869384766 -1.36210346221924 |
