4.62 -3.35 -6.39 8.97 8.48 -6.27 -9.46 3.75 8.2 5.07 1.7 -2.16 5.78 -8.63 -3.79 2.16 0.62 -0.01 9.58 -4.83 -3.3 -9.6 -6.51 -2.08 6.99 -1.49 -8.46 0.93 -7.24 -2.01 -8.9 4.08 3 9.13 -6.69 -1.77 9.93 5.62 5.26 -7.43 0.85 8.78 1.71 -4.73 -9 -4.1 7.35 0.42 4.58 -5.15 -4.95 3.21 -8.36 -9.01 -7.18 -9.47 3.65 -5.53 5.66 0.25 -6.21 -5.08 8.48 5.63 -5.78 2.92 6.12 0.5 -9.64 -9.69 4.81 -9.81 5.41 4.72 -9.88 3.49 8.75 -7.51 -4.9 6.45 4.86 7.06 5.27 2.51 -5.81 6.17 5.6 7.37 4.91 0.39 2.1 -0.57 5.25 4.95 -2.25 0.65 -6.64 6.99 -4.85 -2.5 -2.86 4.85 -4.68 8.12 -0.01 -2.02 7.93 -0.88 6.8 -3.36 -5.07 6.28 -0.44 -4.74 8.14 4.36 -0.34 -6.48 -2.12 3.57 -0.45 9.13 -4.66 2.85 3.16 9.96 4.87 7.28 -5.28 2.13 5.56 -0.38 -4.31 8.45 1.52 8.58 -2.51 0.01 4.37 -0.17 -3.5 2.07 -0.52 -8.66 -9.17 2.97 -5.92 -7.61 -8.22 -2.21 5.77 -3.93 2.26 3.01 1.94 7.52 -0.85 -3.14 -3.4 1.41 -9.51 -2.08 4.75 -3.03 -9.87 2.85 -3.21 -1.78 -5.58 -4.83 0.27 -2.74 -8.26 -9.92 7.79 -6.53 -3.14 2.33 -9.09 5.64 0.8 -1.99 0.68 3.31 1.64 -2.36 4.86 8.72 8.31 8.66 1.78 9.27 -4.42 -0.81 9.55 9.23 0.33 -0.6 -6.46 7.36 -3.9 1.75 -8.52 -3.87 6.98 -2.24 5.39 8.95 -8.64 -5.7 -7.35 0.43 -1.46 -2.07 9.62 -8.79 -7.67 -4.44 -2.59 -9.1 -7.48 7.38 -5.32 -2.94 9.06 8.51 -4.22 5.6 -6.91 0.03 -1.93 -2.09 0.96 6.6 2.99 -9.64 9.46 -7.26 3.68 0.42 -4.7 -0.7 1.3 7.41 6.14 4.4 4.59 8.51 0.12 -8.97 3.45 4.72 -3.7 3.5 -0.72 8.18 -9.21 -5.13 3.14 6.61 -1.71 2.65 -4.74 0.94 8.99 3.34 9.13 1.12 1.79 -4.78 -3.38 -6.18 5.43 -3.63 -2.56 -2.21 1.08 1.17 7.78 -9.12 7.72 -9.1 -7.54 -3.53 -8.26 5.42 -7.36 -9.98 7.61 9.64 -8.77 -1.66 0.95 -1.54 -6.2 -8.52 3.87 -5.08 -0.03 -1.65 -6.69 -6.59 -9.27 -0.76 -6.7 2.55 2.26 9.82 1.76 3.85 5.54 -9.24 -2.74 3.49 5.38 9.94 -8.31 6.8 -2.87 7.51 9.47 4.2 -8.86 -6.57 -8.1 -6.8 -6.92 -3.82 -6.94 4.88 5.52 1.25 9.4 -6.08 -4.67 6.96 3.63 -1.04 1.09 -8.21 3.73 -4.17 2.88 -9.91 -9.83 -2.97 -2.81 -2.48 -3.45 -9.41 |
8.39 -2.32 -8.15 5.09 2.83 2.06 -6 6.81 -6.1 -3.66 8.92 -6.7 -1.28 -0.04 -9.88 -0.3 -2.12 -2.83 3.32 -1.65 2.74 4.17 0.25 -3.47 9.12 1.79 2.34 -3.95 0.59 -0.16 9.19 -3.73 -7.72 6.72 5.96 2.21 -7.48 -0.56 -6.21 5.63 -0.93 -3.55 5.64 -7.26 -0.95 9.55 5.58 -3.66 -9.04 -1.62 4.68 -8.86 6.92 6.71 -8.61 2.11 -4.6 -4.87 9.13 -9.39 -0.47 4.56 3.01 -1.73 7.26 2.46 -2.34 -4.02 -9.09 -9.43 4.12 -8.47 -3.8 -5.06 3.66 1.59 7.25 3.53 -4.86 -3 -3.62 -2.79 -3.09 -0.02 -9.7 -5.37 3.25 4 9.45 -6.51 -5.45 6.54 -1.47 -6.78 -8.49 -2.46 -9.76 0.7 -0.93 7.45 -7.7 -7.96 -8.8 3.95 -8.01 -2.53 4.22 -3.07 6.4 6.76 8.85 1.39 -4.32 5.63 6.05 2.98 -3.97 -0.22 -3.24 -0.28 2.21 6.95 6.9 -6.55 8.26 2.07 -9.68 2.24 -7.06 -3.81 7.36 0.31 7.13 -1.63 -1.86 4.99 -8.48 1.27 3.92 -2.68 8.59 -6.53 -2.76 -0.28 1.27 -2.41 9.64 -4.93 -5.05 -0.57 -2.79 -2 -2.25 -7.12 -9.92 1.98 -5.09 2.83 -4.19 -3 -4.06 -7.06 3.01 -0.92 8.17 5.38 -5.85 5.96 -5.64 -1.54 3.34 -9.04 -5.18 7.32 -7.5 -5.79 -0.8 4.01 -6.63 -3.72 -2.84 -2.51 -3.57 5.94 -9.76 4.41 7.29 -1.95 0.2 2.75 0.83 -4.44 -3.09 -4.54 3.98 7.63 8.64 -0.09 -2.79 -2.94 8.39 -4.38 -8.3 8.67 -7.73 9.72 -8.44 1.8 -7.37 -4.34 4.68 6.86 -7.37 3.05 6.16 -9.62 6.03 -2.45 5.1 -9.47 6.74 4.24 -1.26 7.29 0.06 -2.29 9.26 -3.85 5.05 -7.22 -7.35 7.39 1.37 7.7 1.59 0.29 -5.14 3.38 9.77 9.85 8.38 -0.26 2.94 -0.34 6.01 6.59 6.81 -0.38 5.39 -3.74 8.37 2.48 4.86 -5.57 -5.59 -9.01 4.24 -6.01 -2.93 1.97 4.86 -1.82 2.03 -7.22 -2.73 -5.07 -6.09 2.96 7.04 9.57 -6.44 -3.59 2.16 -1.17 -7.84 -5.74 9.37 -5.69 2.88 -0.93 3.46 5.26 9.08 -6.93 -2.08 4.46 -4.64 -1.41 0.42 -3.34 -3.62 1.89 6.34 -9.81 6.28 1.97 7.58 -5.89 -2.5 1.75 7.21 2.5 6.73 -3.68 2.79 -6.9 3.4 1.79 6.5 -0.06 5.63 -4.35 3.56 -9.59 -4.41 -7.04 1.84 1.83 -3.51 5.3 -2.65 9.8 -4.54 -4.71 -7.65 1.06 -0.33 -4.17 6.04 9.05 0.85 -2.42 -2.2 -7.06 3.43 -2.19 -8.31 8.67 7.47 -5.04 -7.38 3.52 -7.9 5.12 9.3 -3.42 -3.57 1.04 7.83 -4.78 -7.7 1.74 -1.93 -1.56 -9.11 -0.38 -5.31 3.79 2.88 -5.03 -8.6 4.73 4.31 1.54 -2.69 -7.9 -6.45 8.43 -8.9 9.01 6.53 -9.21 3.99 -8.73 2.99 5.6 1.73 7.01 -5.6 2.73 -3.64 5.88 2.95 1.06 7.64 6.12 3.27 6.25 5.62 1.33 -5.74 -6.74 7.56 8.46 -1.58 -8.17 9.53 -9.18 -7.88 -6.3 4.85 -0.59 -3.36 -4.9 8.85 -3.59 8.79 7 0.8 -5.24 6.35 -1.56 8.16 -8.45 -9.3 8.14 7.16 5.84 -6.89 -4.53 -7.44 -7.28 6.3 7.4 -5.84 -2.89 4.14 -1.12 -7.59 -3.42 6.8 4.72 -3.8 9.63 6.37 7.92 7.72 1.39 0.36 9.49 8.95 7.42 3.14 0.15 -1.24 -8.46 -3.05 -9.85 4.3 -8.69 -2.31 0.64 8.41 5.54 -3.11 -9.88 -6.8 -3 -1.27 -9.07 -1.31 -2.61 -3.36 1.3 -4.2 8.92 5.29 -2 2.78 9.15 1.19 7 -8.46 -8.2 7.78 1.92 -5.7 -9.24 0.51 -5.97 -6.1 -2.87 -9.85 -8.53 7.89 -0.59 -1.92 4.9 3.83 7.44 -7.38 -0.29 8.61 1.2 -1.7 -8.05 5.88 1.33 2.36 6.84 |
7.24 -3.81 -0.36 0.26 7.4 -9.45 0.49 6.94 7.65 7.48 2.03 -1.7 3.17 1.28 8.31 8.97 -1.22 5.43 -7 -6.15 -6.96 -6.04 5.64 5.94 -8.09 -5 -2.64 1.27 -5.61 7.23 -8.58 -2.65 -6.9 3.02 2 5.59 3.96 -1.14 -6.84 8.91 -9.38 2.64 1.9 -0.02 4.4 8.65 4.07 -7.34 -0.71 -6.7 4.58 -5.39 -3.07 5.13 5.41 -0.12 -6.92 6.61 8.26 -8.19 -3.41 -8.38 3.77 8.73 6.85 9.38 6.4 -6.81 6.87 9.65 -5.1 -3.88 -3.86 9.69 -0.74 8.42 7.02 -9.49 -9.48 2.02 -8.09 0.74 3 -7.42 0.63 9.79 3.58 -5.64 6.17 2.61 9.19 0.76 1.99 -6.49 4.01 4.5 -3.5 2.2 -9.29 5.98 -8.37 3.55 -7.87 7.27 -8.62 -6.16 1.6 -5.66 -5.51 5.62 6.3 8.72 -9.56 -4.36 -7.39 5.82 -0.37 0.26 -5.28 -7.65 |
