-2.5 8.33 -3.75 2.75 -4.19 -8.15 1.75 5.64 -0.64 -9.03 8.77 -9.62 -6.51 -1.55 1.36 7.14 9.11 7.45 -0.62 4.12 -6.41 6.48 8.28 2.15 -9.32 -8.92 -2.06 -8.26 -2.95 -9.95 -7.08 0.17 6.11 8.98 2.36 -3.52 3.63 -2.19 8.64 -6.54 -7.85 -1.92 -6.27 2.42 -6.89 3.25 8.56 5.41 -3.63 2.93 -2.83 4.06 -7.39 7.26 3.45 7.32 -7.79 -2.73 -9.62 9.32 -1.79 -6.07 6.99 -4.11 8.82 0.68 6.64 1.06 -4.67 8.1 8.58 -6.3 1.08 6.44 -3.05 -0.48 3.87 -8.98 8.69 -6.65 8.87 -9.33 -8.65 -2.28 1.83 8.98 3.17 0.21 -9.85 -8.33 -0.17 -7.44 -7.52 -9.47 -5.13 8.44 7 -2.72 -4.53 3.59 9.38 7.53 6.71 -6.98 4.06 -3.51 2.71 4.88 -4.58 4.47 -5.86 1.99 -2.89 8.71 -0.51 -4.36 -8.55 6.46 -8.99 -9.63 3.68 -0.64 -4.41 1.73 8.72 -8.96 -3.02 -1.95 -7.62 -9.55 6.81 8.98 5.59 -5.78 9.2 -3.13 3.55 -7.36 8.23 -3.82 7.53 6.71 -0.8 9.77 -2.01 -9.54 6.97 0.74 -8.19 -6.17 1.46 -1.06 -5.1 -4.98 6.78 -9.61 -8.06 2.49 -6.19 -2.81 2.93 0.07 6.65 9.23 6.93 -2.57 -7.21 -2.66 0.71 -0.98 -1.33 0.7 4.65 7.18 -1.09 -5.27 -5.54 -9.43 4.95 8.32 9.1 4.49 -5.76 5.19 -2.49 -3.27 -7.67 6.36 -2.72 1.77 -5.92 -3.79 1.92 -0.8 7.51 -3.18 -7.94 2.01 0.86 -6.75 6 6.4 5.78 -6.52 -5.28 6.97 -5.31 -0.3 7.5 0.04 8.05 -4.42 -4.8 2.03 -6.9 -3.28 8.14 -2.56 -8.29 0.11 -4.63 0.77 6.47 -2.55 3.02 2.27 4.92 1.16 2.46 1.93 -9.97 4.75 -6.93 -5.09 -9.73 3.52 -0.72 2.2 2.08 -9.21 -1.42 4.89 4.64 7.17 -3.61 3.3 -0.26 -5.54 6.18 -4.76 1.9 0.89 9.55 8.92 -6.78 -8.76 3.32 0.87 -6.79 1.2 -2.32 2.48 7.62 6.7 -8.55 -6.84 0.93 -1.98 -4.36 -0.2 6.97 3.67 1.25 6.47 8.2 4.48 1.22 7.54 -5.77 1.78 8.94 -5.96 -2.05 -8.75 -5.75 -2.45 7.13 -3.64 -6.55 7.1 -7.42 -8.74 -3.44 -7.72 -6.19 4.9 -6.37 8.17 8.96 1.91 -7.92 2.19 -9.77 -5.6 -3.7 -2.15 -7.07 8.29 4.67 5.66 -5.89 -3.04 -2.59 -3.9 -1.39 -3.58 -4.08 5.34 2.88 -3.46 9.52 2.76 -0.94 3.73 -2.29 -5.22 3.44 -3.15 0.16 0.35 1.55 2.92 -7.13 -1.44 -2.34 1.97 6.62 -8.15 2.64 7.82 -8.38 -8.22 3.47 6.91 7.58 -0.19 2.19 2.83 4.56 9.03 |
-8.54 6.78 -2 -1.39 -9.64 -0.85 -0.68 1.66 6.73 4.32 1.22 -8.93 -4.35 6.85 4.03 -7.68 3.49 0.5 -1.48 8.79 4.22 3.08 -9.22 3.85 -4.92 -7.27 -5.24 -9.56 3.36 8.56 5.45 -8.23 0.11 5.83 9.12 0.47 -2.74 -3.99 4.52 -4.66 8.48 -3.88 3.33 3.84 -6.41 -1.46 -9 9.62 1.82 4.84 -4.95 1.75 9.46 6 -6.43 9.68 -3.34 2.16 -0.52 -0.11 -8.12 -6.7 7.13 1.39 5.84 -4.9 -2.26 1.81 3.25 -4.51 -8.69 3.87 8.68 3.68 3.74 -7.53 3.61 -5.23 0.27 -4.61 6.07 2.59 0.96 -6.53 6.67 2.15 -5.37 8.72 9.99 4.02 -7.28 5.45 2.76 -0.97 -5.97 -5.39 -2.56 9.65 -9.9 -8.88 4.92 6.22 -0.66 -3.58 8.76 2.46 -9.22 5.98 9.33 1.42 5.04 -2.06 2.17 5.45 -2.84 -3.58 0.54 -1.9 -2.65 1.22 7.66 -1.91 1.7 2.13 0.57 -4.92 -5.48 2.25 4.91 -8.73 -8.31 7.63 -4.56 8.85 0.35 -1.87 -9.59 5.51 6.31 0.24 -8.4 6.53 1.36 -1.24 6.36 4.62 -6.25 -9.38 8.46 8.94 -9.92 5.18 -5.27 8.82 9.42 7.29 0.78 0.49 6.07 0.63 2.04 -4.73 9.67 -0.92 -0.19 8.51 6.57 -6.59 9.09 2.54 -7.33 -0.09 -0.36 -1.59 1.14 -7.53 -6.65 2.88 2.7 3.27 4.3 4.03 6.17 -5.73 -0.77 6.42 7.95 6.35 -0.97 1.84 1.55 7 6.41 -6.24 -2.44 1.69 -3.12 -7.05 7.62 3.88 1.26 0.86 -2.08 -4.82 -5.36 -3.95 9 -9.54 -0.41 -7 9.34 4.42 -8.54 -5.77 9.07 5.04 -1.15 5.91 -8.48 8.12 1.62 3.61 -4.21 -4.79 -8.72 1.8 -8.01 -5.54 -6.23 -4.92 -6.54 -7.11 -6.71 -0.31 3.93 9.87 2.57 1.94 -4.81 4.19 -2.44 -7.97 4.83 0.9 -9.79 7.93 1.21 1.2 -7.52 5.75 -0.31 -7.58 9.18 2.53 0.41 -1.63 -2.43 8.22 1.25 -5.24 3.48 -2.94 5.27 5.39 5.44 7.3 9.59 0.55 -5.99 -8.86 -6.18 7.65 3.42 -4.23 -1.57 -0.8 4.43 3.25 4.79 2.9 -5.77 -6.23 3.2 9 1.59 6.4 -2.39 -2.11 4.25 6.62 -9.72 -7.99 -2.07 -5.95 0.36 -0.09 -1.39 -0.95 -7.53 1 -6.5 7.96 6.41 -0.43 1.52 -4.08 -0.79 -9.83 -9.06 4.01 -9.25 9.68 -6.04 4.62 -5.52 1.46 9.13 1.22 -4.97 -4.48 -1.31 0.53 -1.92 3.01 7.63 -4.14 -8.77 -6.15 4.24 -7.5 9.99 4.26 2.31 -9.22 2.15 -5.46 9.8 8.58 4.52 -9.88 7.27 6.39 -7.14 -1.28 -2.07 -0.26 3.93 4.91 -3.59 -5.5 -1.33 -5.24 4.8 9.96 1.01 -0.77 -4.36 5.63 7.42 -3.03 -3.88 0.63 -4.35 -9.19 6.73 -5.64 6.82 5.24 -3.32 4.73 7.53 -5.79 -5.2 -9.47 6.85 -6.07 5.72 -1.89 -8.01 -1.61 -9.79 -4.4 -3.58 -2.73 6.38 -0.65 -1.4 1.5 -5.96 -2.22 -2.28 -5.45 1.89 9.78 -7.41 3.06 1.58 -7.67 1.86 -6 4.01 -4.19 2.92 8.01 -5.72 -6.94 8.33 -2.47 -6.43 -8.34 -9.37 4.14 1.58 -0.37 9.25 -8.44 8.74 -4.14 8.21 -6.33 2.77 4.49 -6.63 -7.32 -9.29 1.71 1.28 -3.21 6.24 3.79 -4.41 -1.81 -5.47 -9.67 -2.24 -3.94 4.02 6.79 -1.98 4.82 0.61 -7.26 3.28 -9.64 5.01 3.23 -8.82 -0.8 9.06 0.88 -8.23 -5.22 -3.92 8.07 8.4 -4.18 -8.72 2.58 0.24 8.22 -0.96 -8.46 9.51 -1.25 1.04 7.88 -9.14 1.21 4.62 -3.99 -9.62 -0.47 -3.21 -2.67 -8.1 -2.02 -1.6 -4.71 -5.73 4.88 0.43 8.7 6.54 8.02 -5.26 -5.95 -1.33 5.78 -0.72 -0.13 -4.8 -7.2 -7.84 -8 4.43 -8.93 5.94 -4.05 8.46 -2.98 |
-5.18 5.88 -5.08 -5.83 -9.56 -6.93 -1.76 -1.94 3.32 4.35 7.15 -4.5 -6.7 -9.64 3.01 -3.77 9.37 7.51 4.31 -0.03 -8.06 4.91 2.75 -2.41 -8.81 -5.51 -5.39 -7.39 -3.12 8.82 9.74 -9.66 1.96 -0.09 7.73 -5.07 5.39 6.18 -5 8.51 -5.33 1.16 -8.54 9.3 -2.07 0.29 0.05 4.57 -9.19 -0.06 6.46 3.32 9.06 9.63 -2.73 -5.52 -6.09 5.01 -3.56 5.51 -2.33 2.05 -6.95 4.81 -0.32 -4.02 -5.97 -6.01 2.43 -7.28 6.18 -5.2 6.7 -5.63 3.51 -1.38 5.84 3.11 -9.69 6.7 -9.43 -0.41 6.17 1.37 1.15 -2.32 7.28 7.14 -9.77 1.75 -9.11 1.4 -6.26 -7.73 -7.68 9.86 4.46 7.08 -4.22 9.3 4.44 6.93 4.25 -5.9 -0.64 -3.14 7.14 -2.31 -1.52 9.59 -2.81 -3.23 4.77 4.68 4.61 6.27 -1.69 -9.23 2.49 -0.19 |
