-1.2041482925415 -2.88459873199463 4.29059219360352 6.79394912719727 -2.00007820129395 -6.84738922119141 5.08444309234619 -6.56742858886719 -9.3921070098877 -0.117134094238281 6.8183856010437 1.80276298522949 2.52981638908386 1.94420433044434 4.42515134811401 -1.89250373840332 3.48034620285034 5.53534698486328 -0.135880470275879 -6.96644258499146 7.46719360351563 -4.31750202178955 -4.65320205688477 -1.72064208984375 -4.92764854431152 0.526398658752441 -6.54782104492188 -7.33153867721558 4.88226890563965 -5.81344127655029 -4.15925121307373 -7.30156373977661 -6.24742698669434 -3.02998924255371 5.31672239303589 -5.14844417572021 -8.97990036010742 -8.79447174072266 -1.46451854705811 -8.89793586730957 -5.05893230438232 9.39204025268555 9.97511672973633 5.12804222106934 -7.38483858108521 6.05501890182495 4.15011596679688 0.372146606445313 3.49084091186523 -1.99774837493896 -8.28311729431152 6.80322647094727 6.34109258651733 -2.71031951904297 2.52822637557983 4.79875326156616 4.93553638458252 9.0433406829834 -8.11190795898438 8.58346462249756 0.790719032287598 6.14479064941406 5.76857328414917 -7.70201873779297 -7.17658805847168 -9.71736907958984 7.07692861557007 -2.84636878967285 -6.50796890258789 -0.0787677764892578 5.18813848495483 -7.56702613830566 -2.77326488494873 -9.62019348144531 -2.27646923065186 -2.80269718170166 7.61140394210815 8.67924880981445 -3.1342306137085 5.50744533538818 1.00606346130371 9.80614471435547 -9.59806060791016 6.56925201416016 -6.70934677124023 -3.55507469177246 4.52066421508789 -0.992413520812988 0.549355506896973 -1.87430000305176 8.19058895111084 6.46787214279175 4.31239128112793 -2.56970500946045 -4.37931156158447 -2.11477851867676 -0.761341094970703 -8.40721130371094 4.82359409332275 -1.4699182510376 -1.02928066253662 8.48171615600586 -9.84754753112793 8.3643741607666 -2.40264797210693 -9.06833648681641 -4.78202438354492 -3.31540489196777 0.0866498947143555 9.34562492370605 -2.47491264343262 9.34599304199219 -9.72327423095703 -8.91913223266602 5.15511035919189 8.83345603942871 -1.3439998626709 -1.11294841766357 3.922607421875 -1.26664257049561 6.08900785446167 -2.19920539855957 -3.34665870666504 -8.72714996337891 4.71883010864258 -3.19342041015625 1.58954048156738 -4.811767578125 7.024085521698 -0.296779632568359 7.64883232116699 -9.29721069335938 4.34677839279175 -3.17978286743164 3.19211935997009 6.38763189315796 -7.03546714782715 -4.26942253112793 4.51102256774902 4.32180595397949 -5.91098308563232 4.39415168762207 8.08136367797852 -1.83183574676514 -1.22272396087646 5.94589233398438 2.5175998210907 -1.63236999511719 -4.53709697723389 6.81370496749878 -2.73309326171875 2.01393222808838 -6.34850692749023 5.61140060424805 0.877799034118652 -4.25982570648193 5.05828380584717 -7.63511657714844 2.79933905601501 0.561956405639648 -8.24630737304688 8.76374435424805 -7.56099510192871 -0.518640518188477 4.72922325134277 0.259374618530273 -1.73854923248291 1.90449333190918 -2.13292217254639 -5.81653785705566 2.13223361968994 7.08259582519531 -8.25302314758301 3.30694389343262 5.45798301696777 -6.31175231933594 9.01615142822266 7.08699750900269 -9.38499069213867 -2.54809284210205 9.7974157333374 8.65313529968262 -0.474740028381348 -4.95019340515137 0.627633094787598 8.08639049530029 4.58665370941162 -7.89401578903198 -7.64003753662109 6.53973579406738 -4.18960952758789 0.253538131713867 3.64101600646973 -9.97483253479004 -6.92773389816284 9.56725597381592 7.24577140808105 3.88570761680603 -2.59363079071045 -7.8774528503418 -4.37178516387939 9.02639198303223 -9.93492126464844 4.44892883300781 4.89426374435425 -6.81126594543457 9.19201850891113 1.30208396911621 -1.90495586395264 -5.76660633087158 7.6617579460144 -7.41633415222168 -0.973671913146973 1.4976634979248 0.794142723083496 -3.76312828063965 -3.93801116943359 -8.42091369628906 9.62408447265625 -0.234989166259766 5.68974494934082 -0.971473693847656 -3.01342105865479 5.93230724334717 -4.58536243438721 1.43362617492676 0.0600948333740234 1.19863605499268 2.45082759857178 -0.558072090148926 6.70805168151855 -7.33028221130371 -6.26755714416504 -1.41167736053467 7.23544311523438 -1.88970184326172 0.685824394226074 1.84863185882568 3.27514839172363 1.99435138702393 0.676979064941406 -9.36386489868164 -2.3271951675415 5.83129644393921 -5.9957103729248 -2.13613128662109 -5.49178123474121 -6.31015968322754 -5.511962890625 9.00673675537109 7.82010269165039 7.5788688659668 -6.64170265197754 -3.82125949859619 0.033045768737793 -4.0770206451416 0.321703910827637 0.947054862976074 -8.98789978027344 5.20189476013184 5.67114067077637 -0.895987510681152 -0.904417991638184 5.00893115997314 -4.57685089111328 3.73334383964539 6.14953517913818 8.41181182861328 -6.61280632019043 1.65266132354736 5.82626533508301 -0.140572547912598 -2.81603240966797 0.842703819274902 -0.529991149902344 2.20685863494873 2.21562767028809 -3.53822612762451 2.9493350982666 7.41199064254761 -4.63049793243408 -6.92545700073242 1.34010410308838 -2.01548480987549 -8.41050148010254 0.527101516723633 8.68184852600098 4.58122968673706 3.82396459579468 7.9466438293457 3.3685131072998 3.21737051010132 2.74359893798828 -3.4651050567627 -1.30488967895508 -0.243831634521484 1.97624778747559 -0.17050838470459 -0.66384220123291 -3.3476505279541 -2.53814601898193 7.08187532424927 1.06721782684326 0.987411499023438 -5.83456039428711 -2.09211444854736 1.96090126037598 -2.63182544708252 0.561004638671875 -1.95443534851074 3.55103254318237 0.594796180725098 -6.69930267333984 0.531615257263184 -3.08442974090576 -4.49817752838135 6.66505575180054 -9.33338928222656 -2.19924831390381 6.58504676818848 6.18840408325195 -8.7429084777832 -2.16772937774658 -9.17709159851074 -8.30911445617676 3.89227628707886 3.01544904708862 -7.54630613327026 -4.97392749786377 -7.40617942810059 5.15399169921875 -6.66011619567871 7.59430360794067 -6.17573213577271 6.87407255172729 8.84073638916016 5.80403089523315 9.36107444763184 0.834203720092773 -4.47580242156982 -9.5055103302002 5.47270965576172 -7.22762298583984 7.2342414855957 4.11634635925293 -0.0788917541503906 9.64716911315918 -4.48662853240967 -3.31869029998779 7.20511198043823 0.849834442138672 -1.87104320526123 2.44426822662354 -3.13001537322998 5.41680526733398 9.13603591918945 -6.53433275222778 1.80930233001709 7.92617034912109 -5.20788383483887 1.37236499786377 -1.66424369812012 1.20035743713379 6.01372146606445 -8.1252269744873 6.59499168395996 -9.92289352416992 -1.93849658966064 9.61715888977051 -6.53351259231567 1.02754688262939 0.808371543884277 -5.98206520080566 1.01648712158203 -8.57708740234375 -3.59825038909912 -4.60863018035889 -9.92177200317383 3.38398694992065 -1.52982807159424 5.74626922607422 5.48410415649414 4.55133199691772 9.39750862121582 8.79824066162109 -0.022984504699707 2.58011317253113 -7.89438247680664 9.68464088439941 -2.27543449401855 -6.69828844070435 2.71092176437378 -9.12650108337402 9.65956115722656 -5.26331424713135 4.61039066314697 6.57502889633179 8.97304534912109 9.07665634155273 7.97686052322388 3.1248927116394 1.87337303161621 -9.97725296020508 -9.84558486938477 4.63429641723633 1.05730152130127 -9.9335880279541 -6.86189222335815 6.03180885314941 -8.36226463317871 -0.453163146972656 -9.45738220214844 2.07218265533447 -7.75539207458496 -8.99734687805176 0.99622631072998 -6.65078353881836 9.18059158325195 -5.60997200012207 5.7867546081543 -3.30550289154053 -8.18017578125 -9.98397064208984 -8.73800086975098 -5.68215370178223 -5.48422050476074 5.03227949142456 -0.245448112487793 -5.82495498657227 -9.33343887329102 -0.521102905273438 -3.39033222198486 -0.29392147064209 -6.3002872467041 2.3632869720459 1.72931289672852 -2.84279251098633 -0.331388473510742 6.25663757324219 3.46518278121948 6.77026748657227 3.59190440177917 3.31411814689636 4.12522315979004 -3.70722675323486 1.0548677444458 0.203858375549316 -6.12594175338745 -5.21182060241699 7.41860389709473 -3.19223499298096 5.792724609375 9.55331802368164 4.6019721031189 -2.35146427154541 8.11982154846191 9.86618423461914 8.28000259399414 -2.13572883605957 -0.951348304748535 -7.0936541557312 7.07298040390015 0.715299606323242 -6.97196197509766 0.410722732543945 -5.8018684387207 -4.20830345153809 0.0640974044799805 8.96522331237793 -0.928648948669434 -4.16731739044189 1.81486701965332 5.76464414596558 1.82296657562256 5.91511249542236 9.47360515594482 -2.69089794158936 -0.775708198547363 3.43183279037476 -9.00974464416504 -2.29267978668213 1.1821756362915 -9.2581958770752 -3.09011077880859 -9.19425010681152 8.03128242492676 -9.79034042358398 -2.29813194274902 7.04422187805176 -2.22955799102783 -7.91838836669922 -0.454153060913086 3.1813428401947 6.58838033676147 0.390256881713867 -3.88048267364502 -7.1555347442627 -8.11808013916016 5.22331953048706 -7.72747993469238 -8.06218910217285 -0.226816177368164 6.85794401168823 -9.55375671386719 -4.72057247161865 -6.31100463867188 1.14427947998047 8.09085369110107 8.11118602752686 -2.05044364929199 1.3523473739624 -5.7436466217041 -3.12479877471924 -3.40209102630615 -6.5513973236084 3.22453951835632 8.85752868652344 -9.78178787231445 -2.90662384033203 6.58834028244019 9.07856941223145 8.03608894348145 -5.10681629180908 8.96949291229248 6.13961410522461 -0.0511684417724609 7.51946640014648 -7.83901405334473 1.95783233642578 8.07433891296387 -1.31253147125244 -9.52122116088867 -5.81445693969727 9.76764488220215 -5.07003021240234 -0.486808776855469 7.37714958190918 4.4012451171875 6.99899244308472 -0.268982887268066 -9.54284286499023 -4.97133159637451 9.82898235321045 8.87096214294434 -6.90240669250488 9.2047004699707 -6.07265472412109 0.134459495544434 -9.56115531921387 -9.72617149353027 -7.5963191986084 7.72523880004883 -7.67911911010742 -3.5594310760498 5.4482364654541 5.37481069564819 -0.985642433166504 1.98665046691895 1.62465667724609 8.04166984558105 8.5279655456543 -8.09780883789063 1.33802509307861 -9.46882057189941 1.95592308044434 6.27110242843628 6.27483558654785 1.91264533996582 3.50695371627808 -2.24035358428955 2.3007926940918 -8.6311149597168 -6.38155746459961 -7.53405046463013 0.793475151062012 1.09779930114746 -1.34817028045654 8.80891799926758 -9.5896053314209 5.52671432495117 -6.16727066040039 -3.48777675628662 -3.09870147705078 -4.94211769104004 8.62385559082031 -9.33412933349609 7.36403656005859 4.62811946868896 -7.99718427658081 -5.1228141784668 -0.386043548583984 -4.99560737609863 -1.86932945251465 -7.2973518371582 2.07606887817383 2.55311465263367 -5.94704818725586 9.05494499206543 3.10074305534363 9.27625465393066 4.21164989471436 -6.8575382232666 3.01161003112793 -8.18169403076172 -6.4276270866394 4.88746643066406 6.27143430709839 -0.711818695068359 -9.28789329528809 4.49817848205566 8.97352981567383 0.568872451782227 -7.98525810241699 3.94522643089294 7.27601051330566 6.81230545043945 5.38424968719482 -7.713294506073 -4.80268859863281 -8.78615570068359 -4.45265674591064 9.75734710693359 -1.84054756164551 3.64836883544922 8.79415035247803 -1.29262828826904 0.227478981018066 -9.16990089416504 -6.70849990844727 -9.3730640411377 -4.90561389923096 -5.53804874420166 -5.17879295349121 7.05664396286011 -7.12425661087036 -2.7889928817749 -1.14626979827881 -1.11225032806396 1.22846984863281 -0.406390190124512 2.21853637695313 4.4364333152771 7.78581619262695 1.15351581573486 -0.73045825958252 3.04364657402039 8.08793067932129 1.12955188751221 4.52445030212402 -2.01160335540771 0.800193786621094 -6.87895774841309 1.59768676757813 1.98827838897705 6.84076499938965 4.57447052001953 4.81578063964844 4.09245014190674 -3.20788764953613 -1.22855758666992 -6.27971839904785 -8.95934677124023 -9.8838062286377 -2.61943244934082 3.1246395111084 0.636745452880859 -1.91900157928467 -8.46285057067871 -4.71727752685547 -5.79133987426758 1.33187198638916 -8.62570762634277 6.6273021697998 -7.78936815261841 -0.105291366577148 4.21204328536987 9.7572135925293 6.14932250976563 -1.11449813842773 -3.00028228759766 -5.17530250549316 -7.89659070968628 7.34358787536621 2.16776752471924 8.18375778198242 4.04381275177002 6.99974489212036 -7.67206382751465 0.99061393737793 3.66963148117065 -6.83637189865112 -4.08316040039063 -2.52952671051025 -4.36987972259521 -4.5991382598877 -5.19615650177002 -9.72430801391602 1.66307067871094 -5.28490829467773 -7.87940788269043 4.97628927230835 -8.41058731079102 -7.37003755569458 -8.78425598144531 0.741559028625488 7.0632266998291 -4.42187404632568 3.09034323692322 5.95252227783203 -4.77037334442139 -5.01288604736328 -0.792885780334473 9.95863914489746 1.71074771881104 -3.86471652984619 -1.23705768585205 -3.51594066619873 -9.25197601318359 -0.631524085998535 -3.39279556274414 9.40674018859863 -2.86273574829102 5.65071582794189 2.95955157279968 6.87630844116211 4.3561053276062 -7.81355667114258 3.77382040023804 -2.34608554840088 -0.307563781738281 2.45889091491699 -7.52481031417847 -2.88937473297119 -8.39714050292969 9.12210464477539 -1.44221687316895 -7.02931213378906 8.72103500366211 -4.22161674499512 -9.66695594787598 -9.01960372924805 -4.57876777648926 -1.43403911590576 4.64136600494385 -4.90574932098389 -3.32601642608643 9.93385314941406 2.27375602722168 2.84745669364929 1.67000198364258 8.69170188903809 1.57855415344238 0.236376762390137 4.21074390411377 1.32251358032227 0.32718563079834 0.702086448669434 4.89519309997559 -9.18255805969238 5.36771011352539 4.91076946258545 -3.96843528747559 -8.34958839416504 -6.43802452087402 6.39342498779297 -5.87728309631348 -8.80078315734863 -6.45009803771973 2.34900093078613 -1.45227527618408 3.84694814682007 2.6170060634613 -2.59659671783447 7.96685743331909 7.18148422241211 7.41251707077026 6.38335752487183 9.22246742248535 6.33879852294922 8.49585723876953 -4.7972240447998 -5.2887134552002 4.17789649963379 8.37234497070313 0.664177894592285 -6.95272445678711 4.37973213195801 -4.74518203735352 -0.903707504272461 -2.0451602935791 2.42627048492432 -1.50138282775879 6.11931228637695 -6.71146821975708 -5.1589412689209 6.33676099777222 9.07058715820313 -7.07938718795776 2.52514815330505 -5.76203155517578 8.26794624328613 8.24995422363281 5.37800550460815 -8.99272155761719 -4.33893775939941 -3.73025035858154 -1.26060390472412 -4.91594219207764 1.64058113098145 -8.25790405273438 9.3142147064209 -5.5904369354248 5.40725708007813 7.75166273117065 8.16753387451172 -8.79709434509277 -3.68088626861572 -5.31784057617188 2.75281667709351 5.09443044662476 -8.17306518554688 7.02389192581177 9.20407295227051 2.80557608604431 4.65537071228027 4.03163433074951 7.18246030807495 -2.69429111480713 7.86950826644897 1.91976451873779 0.00281238555908203 -7.2464542388916 0.925768852233887 7.8255820274353 -6.06136322021484 -9.67687225341797 -0.165065765380859 8.5605001449585 -9.86627388000488 6.03387355804443 0.574840545654297 -0.16145133972168 3.53840065002441 -2.17392539978027 1.88249683380127 -1.30436992645264 1.1576452255249 -9.99770355224609 1.552659034729 -7.88865280151367 0.251317977905273 7.28368330001831 0.205765724182129 -3.27583408355713 5.63832473754883 9.87380981445313 1.44052124023438 8.55142593383789 1.05483913421631 -8.2877197265625 8.50139427185059 -7.52261686325073 6.83457374572754 -2.05739402770996 6.48303556442261 2.25658321380615 -1.83534717559814 5.59572696685791 -5.34848690032959 5.70547294616699 1.2157735824585 0.65510368347168 -6.24942350387573 9.94472026824951 -7.42824983596802 -1.48000621795654 1.42096424102783 4.61789608001709 1.35754203796387 -2.20114803314209 2.91979289054871 7.29180526733398 -3.46630954742432 6.22035217285156 -8.50530433654785 -5.51795768737793 -3.40245819091797 7.1099681854248 -8.61819458007813 -9.75867462158203 -4.44641971588135 6.90046310424805 -0.109668731689453 -4.12814712524414 0.324221611022949 -3.72517204284668 0.18797492980957 5.81899833679199 -1.91080951690674 1.54848194122314 9.49668884277344 -5.20553112030029 3.16434836387634 0.147503852844238 2.66789627075195 -6.1268138885498 6.08573913574219 -2.17317962646484 -0.791434288024902 2.32074165344238 0.6630859375 -8.58335494995117 -8.24764060974121 3.53059959411621 -7.86579895019531 2.09724998474121 6.94119215011597 0.0345430374145508 -9.505859375 5.6065845489502 -0.847305297851563 -1.73529052734375 5.4446907043457 4.4171667098999 -1.51291751861572 -7.17979621887207 -3.15546417236328 6.14772033691406 9.81352615356445 -0.741973876953125 -9.60998344421387 -6.18823575973511 0.229459762573242 -1.98422336578369 -3.46543407440186 -6.54739809036255 9.07115745544434 6.4683723449707 -2.83985996246338 7.96091270446777 -8.81061363220215 7.03322601318359 -2.87835693359375 1.22234439849854 7.7600359916687 -3.64663028717041 8.8923168182373 -4.22649002075195 6.89690351486206 -9.59072875976563 5.08419227600098 5.50861835479736 -9.59248733520508 -5.07589530944824 -6.14236402511597 9.07277870178223 -2.10096740722656 -4.3412504196167 -0.724824905395508 4.46389389038086 1.3879861831665 -0.150810241699219 7.50654220581055 -6.96370315551758 -7.05167961120605 5.93710899353027 -4.94089698791504 -7.62402725219727 8.22821807861328 0.0191726684570313 -9.70086288452148 9.4776439666748 3.40844869613647 8.31292629241943 3.72804141044617 -3.82601833343506 5.34112691879272 -8.78516387939453 4.3146276473999 0.507549285888672 1.98552703857422 0.36958122253418 0.448480606079102 -2.60378932952881 9.94972991943359 -3.67577934265137 2.94142913818359 -4.59518527984619 8.00721168518066 -6.95466804504395 1.10024356842041 -2.19555759429932 -6.04524421691895 0.717357635498047 2.3478307723999 -3.17283725738525 6.92288398742676 9.47362899780273 -2.86728286743164 1.22980690002441 -7.65083312988281 0.295544624328613 0.105513572692871 8.0588264465332 -3.54361152648926 -7.18434524536133 8.82798671722412 0.187135696411133 6.78465604782104 0.481544494628906 1.46391773223877 -7.98611450195313 6.38933897018433 -8.10149765014648 6.26520586013794 -5.68682479858398 0.450095176696777 2.41734600067139 -3.43337154388428 2.80450582504272 8.30813884735107 1.63877582550049 -9.46587753295898 9.19965934753418 -5.74609565734863 -8.01870155334473 7.5434684753418 4.22723531723022 -4.57747840881348 8.70456504821777 3.4450147151947 -9.36063575744629 -9.80611801147461 4.8715705871582 -8.14246368408203 -4.20504665374756 7.97341871261597 -7.54950332641602 -6.50647354125977 6.30654335021973 0.742005348205566 8.26114654541016 -2.10750961303711 -3.46864604949951 -9.40998458862305 3.74733424186707 -5.98636436462402 9.98791122436523 -4.62398147583008 -0.922812461853027 3.87864828109741 3.77140021324158 -4.50580024719238 -7.29471015930176 -9.07346725463867 -8.9182014465332 6.5882682800293 -4.892014503479 8.10633087158203 6.83490753173828 1.49818515777588 9.20159149169922 -3.33810234069824 -4.23297500610352 1.09711742401123 -2.18297386169434 -1.82665920257568 -8.38908386230469 -0.217465400695801 2.5514075756073 7.86350440979004 0.45207405090332 -6.14952850341797 0.277548789978027 8.80947303771973 -7.96254920959473 1.32377243041992 -4.03851890563965 3.31762504577637 -2.47333908081055 3.31335520744324 1.61844635009766 3.86578750610352 -0.0608119964599609 -8.81380081176758 -4.74810218811035 -3.47820377349854 9.06892013549805 0.233506202697754 -9.53011322021484 -0.922698020935059 9.61711692810059 9.65985298156738 2.6057813167572 -0.886968612670898 5.89540672302246 9.54867172241211 9.4387264251709 -2.76689434051514 3.36889719963074 -0.0382556915283203 0.519643783569336 -6.8460865020752 -8.53941917419434 -3.48445510864258 0.491071701049805 -8.66701889038086 -1.92268753051758 6.58872175216675 -9.38119697570801 0.371562004089355 -3.35001850128174 5.97259998321533 9.17907524108887 8.39585113525391 9.49974250793457 -5.6614875793457 -7.71618843078613 -7.80951690673828 -3.62584686279297 4.84270095825195 0.14769172668457 -1.11733818054199 -6.60232543945313 -5.80508232116699 8.85680198669434 -1.28368282318115 4.39418792724609 2.68627142906189 -2.36724948883057 6.55088186264038 -2.47687244415283 -2.62557125091553 7.88463592529297 -0.664986610412598 3.07040667533875 -3.94708251953125 5.30627250671387 -4.22454261779785 9.03015899658203 7.17038869857788 1.02133369445801 -6.25282096862793 -4.28841209411621 -0.047389030456543 5.84245872497559 -1.67846298217773 6.6357250213623 5.33699989318848 -9.86876487731934 -5.37065505981445 -5.49983215332031 -7.99105644226074 -1.70436477661133 9.90995597839355 -8.94270324707031 7.48080968856812 -6.34179639816284 9.26299095153809 7.42668581008911 0.618757247924805 6.65415239334106 -2.32343578338623 -6.79819297790527 -3.70080375671387 -5.73112678527832 8.51704406738281 -9.1809253692627 -7.4216365814209 2.91466903686523 1.15152740478516 1.28912544250488 -3.36009883880615 6.65222597122192 -2.54782581329346 -7.89929389953613 4.34956741333008 -7.94242429733276 3.29613184928894 2.50339961051941 -9.91863632202148 9.74762153625488 9.05847930908203 -0.844808578491211 -7.07022142410278 -3.85696029663086 6.14317655563354 -1.60708522796631 -2.45951557159424 8.24122619628906 -9.40971565246582 3.74036288261414 -5.90717792510986 -2.43844890594482 -8.28515815734863 -3.36997413635254 1.66980648040771 3.12793231010437 2.41884326934814 -0.101865768432617 3.31795454025269 -9.34601211547852 -1.47775077819824 1.70499897003174 8.89478874206543 -3.30989456176758 3.6539933681488 -4.48215579986572 2.72970652580261 -3.03997898101807 0.17621898651123 -5.83084297180176 -9.9973258972168 2.35462760925293 7.6189136505127 0.534295082092285 5.12198209762573 5.085608959198 0.333939552307129 4.88487243652344 -6.09291505813599 0.0825986862182617 -7.19915390014648 -2.48967742919922 7.10702896118164 2.29919052124023 5.06844711303711 5.70804357528687 9.73726081848145 3.51381063461304 1.30214595794678 -8.80895805358887 4.77972030639648 4.36199378967285 -7.85313081741333 2.73046684265137 8.22974681854248 -3.53756332397461 -5.62587928771973 -6.82065534591675 0.490192413330078 1.52834987640381 -4.26304912567139 -6.56960678100586 6.02467727661133 2.84289336204529 -5.96171855926514 -5.41950035095215 -7.97138404846191 1.54044055938721 -9.87415504455566 -5.37418174743652 0.828117370605469 6.85374975204468 8.98967266082764 -0.030426025390625 4.91580009460449 3.1042594909668 -7.49754905700684 -5.0504093170166 8.66075706481934 -1.2199125289917 -9.11526870727539 0.0227365493774414 -3.5090389251709 9.57312393188477 -1.89130687713623 0.578261375427246 -5.69552612304688 -4.16043853759766 -3.45617389678955 9.5278434753418 7.3480372428894 1.99581527709961 5.73082447052002 5.73904752731323 6.37049674987793 -1.72409629821777 2.15269184112549 -3.97730255126953 -9.31914520263672 -1.4383544921875 1.89619445800781 -1.64662742614746 -5.95174026489258 -3.21902656555176 9.11534309387207 -0.00627613067626953 -2.17728519439697 -3.05505180358887 8.97622585296631 -5.59675407409668 5.3741455078125 9.12726593017578 -9.16245651245117 -4.11690330505371 -6.56929779052734 -3.3095588684082 -2.31062984466553 -6.80465507507324 5.98802089691162 7.16007661819458 5.61383962631226 9.39146041870117 2.11914157867432 -8.72672080993652 1.70637512207031 0.608564376831055 5.27049541473389 -3.43119525909424 -6.60229682922363 -0.514110565185547 -0.730589866638184 3.06358098983765 8.38802719116211 -3.2162389755249 1.17378807067871 3.73110008239746 -1.20673561096191 -6.90093231201172 -2.25816822052002 -8.59794807434082 7.68065977096558 -2.45351219177246 7.52836418151855 -7.90329170227051 1.01191425323486 6.20579481124878 -8.7747974395752 6.10463333129883 -8.78985214233398 1.85090923309326 -9.80314064025879 -2.96113109588623 8.57844161987305 -4.37346363067627 2.4302396774292 3.83328890800476 -1.48718452453613 5.61058759689331 -8.91914367675781 -0.651697158813477 -3.68452930450439 -0.118874549865723 -1.54405975341797 -1.13238906860352 -0.160907745361328 -7.1992130279541 -0.231317520141602 -8.28263473510742 -0.855990409851074 -9.85160827636719 1.31649112701416 4.33220100402832 8.59114456176758 1.64978122711182 4.11545515060425 -5.71859550476074 -1.72747993469238 0.749045372009277 3.11456656455994 4.14929389953613 -0.574807167053223 -0.325289726257324 1.09716987609863 4.80453681945801 -3.65149879455566 -8.82963180541992 -2.60696315765381 -1.98921775817871 1.14929103851318 2.43794822692871 -8.83198928833008 -2.61314964294434 8.430908203125 -8.85563850402832 -9.26017570495605 -3.34627723693848 4.47685432434082 -5.6178617477417 9.89235877990723 -0.484190940856934 -7.78876113891602 0.62193489074707 2.69081568717957 -6.28249931335449 -2.74322605133057 3.87938952445984 -3.68690395355225 8.35506820678711 -9.71981430053711 0.0213232040405273 -1.74619770050049 -6.62592124938965 -3.22153186798096 -7.11185455322266 -7.38870429992676 7.93757438659668 7.60352325439453 -0.545581817626953 -3.86502838134766 -2.60225868225098 -0.915216445922852 4.98473882675171 1.69143772125244 3.40773558616638 -0.862387657165527 0.70634937286377 -9.21587944030762 -1.92394351959229 1.1262264251709 4.78479385375977 -6.79421615600586 -5.53942203521729 -9.15689086914063 7.09209012985229 -3.03455257415771 -4.40046215057373 1.06537914276123 7.68451261520386 |
0.50533390045166 5.80521106719971 9.06352996826172 3.24439239501953 1.70309638977051 -7.48723554611206 2.28048706054688 8.27436637878418 -7.9371337890625 6.53890180587769 6.81035757064819 -6.5716552734375 6.05401039123535 2.71956634521484 -9.67567253112793 1.85998821258545 8.16550445556641 -5.51830768585205 -7.08278656005859 7.26680326461792 3.63359904289246 -4.69061756134033 -6.78502082824707 5.56167125701904 -1.03643798828125 5.29340934753418 -7.4849796295166 5.35256576538086 -1.56535053253174 -0.752798080444336 8.21222686767578 0.321859359741211 1.27869987487793 9.71599769592285 5.37858963012695 -3.6769905090332 4.73323583602905 4.13901519775391 -3.7145528793335 6.97511863708496 0.391098022460938 9.24738121032715 6.62506532669067 -0.741215705871582 -1.76169967651367 -1.35858917236328 -9.06606674194336 1.59000778198242 9.99229431152344 5.74554443359375 -6.68962907791138 -6.84999656677246 -2.38150024414063 -0.744119644165039 -0.410279273986816 -3.1998929977417 -3.47176170349121 1.89189529418945 6.70254707336426 9.55532073974609 2.11171531677246 7.09087133407593 2.3945484161377 0.357028007507324 8.8546895980835 1.14044761657715 -0.534428596496582 -1.34668254852295 -4.47280979156494 -7.39303159713745 6.96882247924805 5.78293991088867 -6.18360710144043 4.80121374130249 2.68323135375977 7.9681396484375 -6.81803512573242 -5.92654228210449 9.17429161071777 5.25679111480713 -3.00982856750488 9.14865016937256 -2.54622840881348 -0.700746536254883 9.05459403991699 -6.90333557128906 3.81061744689941 1.79684257507324 -9.11110877990723 -5.39645957946777 0.600486755371094 0.722208976745605 -3.46822834014893 -3.11185264587402 -6.9513111114502 6.01964950561523 6.43264532089233 -3.76252269744873 3.00387358665466 -7.06573677062988 -8.86917304992676 6.01036262512207 -2.17853164672852 1.87908267974854 8.06912899017334 5.71375846862793 -9.7912425994873 9.56739234924316 -8.68780326843262 -2.21354579925537 4.06676292419434 0.341096878051758 3.56716132164001 5.78372192382813 -4.34310340881348 0.307973861694336 7.69384813308716 1.09899616241455 -6.38618278503418 -0.640941619873047 1.96807289123535 6.22776985168457 -8.59443473815918 -3.04341411590576 0.458308219909668 6.65911674499512 -9.90400695800781 -8.85160636901855 -4.02657890319824 9.20815658569336 -7.30764579772949 5.47089767456055 -1.63276767730713 -0.26610279083252 -2.87719631195068 -4.72601509094238 -6.97056579589844 8.49186134338379 -6.67118263244629 4.45512771606445 2.36174964904785 8.81140518188477 7.05339622497559 5.83701848983765 -8.73902130126953 -2.5123462677002 4.8227596282959 2.93198347091675 0.811223030090332 5.00839948654175 -2.22772693634033 2.13453197479248 -5.15385818481445 7.97722053527832 -0.266436576843262 5.99509954452515 -2.40328407287598 8.83715057373047 -2.59040260314941 -6.58416748046875 -6.15137529373169 2.01663398742676 6.78305387496948 -1.43299961090088 -3.23972129821777 3.57182955741882 7.07907676696777 -4.78261566162109 -6.73235893249512 -9.80560302734375 9.3203239440918 -4.29201221466064 -2.48933410644531 -9.09845733642578 -0.480772018432617 7.549720287323 8.38916015625 -8.595947265625 -0.199943542480469 -5.12137222290039 -3.89481163024902 -0.446194648742676 6.75216245651245 0.14351749420166 -9.10737228393555 1.3598165512085 4.17145252227783 -2.99755668640137 -3.74162101745605 7.81904220581055 7.17534589767456 1.70340156555176 -6.41135406494141 8.43297004699707 -7.15607833862305 -2.19333076477051 -0.601655006408691 8.66645050048828 2.51592135429382 -0.319642066955566 -6.29879760742188 4.9193286895752 2.08665943145752 0.0396690368652344 -2.41423511505127 -6.33673477172852 -3.44012641906738 -2.34142684936523 4.28659439086914 5.73095321655273 6.04840755462646 -3.75968074798584 -8.98338317871094 3.14008212089539 -4.40322780609131 4.53569602966309 -9.05382919311523 -8.48241996765137 -1.13223934173584 7.09590911865234 -4.96630096435547 0.475951194763184 -2.04634761810303 0.28220272064209 3.95519971847534 -9.10737800598145 -7.91438627243042 8.56241035461426 -4.41063499450684 -0.225845336914063 -6.32560300827026 9.44579601287842 -2.75950050354004 5.52630424499512 7.17000722885132 -7.3318247795105 4.13998794555664 7.01695966720581 7.70098447799683 7.20648527145386 3.97883176803589 8.83282661437988 2.05888843536377 -0.323515892028809 -6.84532356262207 -7.436851978302 3.30579519271851 -9.21471405029297 -5.26871490478516 4.63079643249512 6.44209623336792 9.29001808166504 -3.29244232177734 6.68026161193848 3.67995023727417 -0.835436820983887 -1.98698902130127 -6.72770309448242 -8.1939525604248 7.56004095077515 9.76298332214355 7.21042633056641 1.5489330291748 3.83508658409119 -9.82913208007813 -1.63362884521484 -2.76312923431396 1.48324394226074 -4.09315204620361 1.71892547607422 -4.93580722808838 -8.90145301818848 5.72912693023682 8.08465003967285 4.65847015380859 -8.81162643432617 5.20558547973633 2.10596466064453 -6.31271362304688 9.62457466125488 2.35109901428223 3.38455176353455 4.90485191345215 3.66533732414246 -8.27922439575195 -1.58872032165527 6.4903564453125 0.831686019897461 -6.67889595031738 -5.42917728424072 7.19072341918945 4.62314128875732 5.02303314208984 -8.07159233093262 7.69111204147339 4.79413986206055 -5.83079814910889 -1.36220836639404 0.260290145874023 -5.14363479614258 -2.6101598739624 8.70354080200195 -2.01168155670166 4.97053623199463 -4.22064399719238 -2.94117832183838 -7.84620094299316 -7.8212718963623 -0.401557922363281 -4.07133197784424 -3.95035362243652 2.15486145019531 -5.50765991210938 -2.31778526306152 9.52421569824219 -9.51668548583984 7.46416807174683 -6.97700500488281 7.05738258361816 6.40482139587402 -9.73679351806641 -9.26498031616211 -0.521965980529785 -3.02895927429199 -3.7908878326416 -8.25277519226074 -1.16901779174805 -4.52725982666016 -5.71860122680664 9.45457649230957 -2.97583961486816 8.70805740356445 -4.79197120666504 -7.46500968933105 -7.61141014099121 -4.21995735168457 6.65794372558594 -2.98841381072998 -5.0039005279541 6.15626335144043 8.91783714294434 -6.9007396697998 -6.55142784118652 9.44321823120117 1.54025459289551 0.239377975463867 -8.18322372436523 -3.52960968017578 6.69871091842651 1.7759952545166 8.93850326538086 -6.94988250732422 0.0889978408813477 -8.63698959350586 -6.73346328735352 -2.36429786682129 -0.698343276977539 -7.01052665710449 7.62091636657715 1.01131820678711 -3.61918354034424 8.01884651184082 -4.51305484771729 8.12446117401123 -3.96799468994141 -7.31259346008301 -5.936767578125 -9.75621032714844 -9.17612457275391 -7.33318758010864 -9.99599266052246 -1.78334140777588 -9.48425674438477 -0.760673522949219 -4.04740905761719 5.15461158752441 5.81743717193604 2.82109713554382 7.60693025588989 2.46243858337402 -8.34808158874512 6.56598281860352 8.30106925964355 7.6656699180603 6.10930633544922 7.25126028060913 -0.944699287414551 6.81626844406128 -3.85758781433105 7.37543106079102 -7.51290130615234 -3.55287170410156 0.954586029052734 -4.15367698669434 -7.2304515838623 0.640009880065918 8.97624492645264 -4.28887748718262 -5.00413703918457 -0.177701950073242 |
-0.598417282104492 4.64293241500854 -5.80536365509033 9.22305297851563 4.32150602340698 2.51971006393433 0.445331573486328 9.60694789886475 4.54315185546875 -8.16880989074707 4.52129364013672 -6.14009428024292 -0.468591690063477 -4.11152935028076 -1.86130428314209 1.18390941619873 9.64628982543945 -1.40438461303711 -5.06799507141113 -0.318294525146484 -7.6489086151123 1.84413051605225 2.51877760887146 -2.0447883605957 -7.92975616455078 -2.38940143585205 3.29178047180176 -6.56235504150391 8.33914947509766 -8.07868003845215 4.61953163146973 5.54426908493042 0.443848609924316 -5.71654510498047 1.44457912445068 -4.49313259124756 -4.51828861236572 3.15189123153687 2.46723556518555 -0.117277145385742 7.38724708557129 -9.34384536743164 -0.314980506896973 9.89664840698242 7.63652563095093 -2.08952045440674 5.66553831100464 -8.1177978515625 -9.19400787353516 9.14505767822266 1.23703575134277 -0.0324926376342773 -6.02065849304199 -8.4033203125 6.52427434921265 -5.95312881469727 8.38001251220703 -0.416492462158203 -2.34267807006836 6.94258689880371 1.53905773162842 0.53913688659668 6.6943507194519 9.04801177978516 -9.12922859191895 6.75364255905151 -2.89793586730957 6.43432188034058 -5.50168800354004 -6.01055574417114 7.08310127258301 2.43473434448242 7.07875442504883 3.43134117126465 -4.4700756072998 1.65910148620605 -0.0867786407470703 -6.68827247619629 2.35474681854248 7.19885301589966 -5.09773254394531 1.18717765808105 3.04274535179138 8.01576137542725 -9.46437072753906 -6.18728828430176 9.18121719360352 0.427459716796875 -5.04703521728516 1.87703514099121 -2.30819606781006 5.45977783203125 0.524190902709961 4.87504196166992 -7.97423887252808 -1.09014129638672 3.34129095077515 0.036402702331543 -8.28247451782227 -7.47300148010254 0.30396842956543 -2.34526252746582 -7.33289909362793 9.71680450439453 -3.4935245513916 -6.38529014587402 -4.82922458648682 -7.20722961425781 7.08256196975708 -8.38205718994141 7.45070457458496 -2.20326519012451 4.82648849487305 9.10493850708008 0.192727088928223 -3.10548400878906 3.75005698204041 5.66044330596924 6.17819547653198 -3.04607486724854 9.37367248535156 1.86930084228516 9.22178268432617 -6.19706916809082 9.40140533447266 8.73061656951904 4.45663452148438 4.02199935913086 -9.11197471618652 -4.55954647064209 -2.75992774963379 6.01313018798828 7.83467817306519 2.70845174789429 4.22538757324219 1.65316009521484 8.56071281433105 7.62524795532227 0.17665958404541 -1.39169120788574 -6.09265327453613 4.6000337600708 8.90990447998047 -1.28373718261719 -9.74261093139648 -9.04633712768555 0.340017318725586 -6.97661590576172 -7.74753999710083 -8.6074047088623 0.35657787322998 3.32331418991089 -6.16664123535156 -3.41444110870361 6.75896406173706 -3.24667358398438 -0.636082649230957 -7.20433044433594 -7.14570236206055 -3.40118312835693 5.49350929260254 -1.93940544128418 -5.83508491516113 5.29610633850098 -5.09468078613281 -4.8101224899292 6.61499214172363 -5.87145805358887 -1.38163471221924 8.71882247924805 0.0499477386474609 7.48711347579956 -2.26477527618408 3.14343428611755 -0.290216445922852 -8.20340728759766 5.7793664932251 2.08818340301514 -2.66574954986572 -8.87422561645508 |
