2.27 -9.36 -4.6 8.04 -8.41 4.92 -8.71 1.8 -4.01 9.32 5.43 5.31 -0.45 -2 9.5 -8.96 -9.94 -4.59 -2.42 -4.42 -7.87 -9.14 3.86 -0.31 -4.49 -0.78 5.17 -7.2 -0.52 -6.49 -9.44 -4.54 6.02 -3.75 -6.37 -0.73 9.48 3.08 8.68 7.72 6.99 2.99 4.51 5.77 -0.52 -9.69 6.51 -6.09 7.88 7.74 7.7 -9.86 -6.28 -1.1 -0.69 -3.19 -5.38 9.14 4.4 2.32 5.43 -1.8 3.11 -1.74 -7.67 -7.56 -9.2 3.78 8.51 9.19 -5.47 6.14 -2.47 -0.17 -2.12 -8.01 7.14 -5.05 -9.62 8.69 -5.4 6.02 -1.61 7.15 -1.92 2.35 2.34 -2.25 -6.08 -8.81 -1.53 -4.3 4.57 9.49 3.19 -9.15 -4.54 -5.33 -2.12 -2.52 -6.84 1.55 -6.48 9.18 3.14 -8.33 1.74 -3.44 -9.18 6.95 4.46 6.87 5.22 3.21 -6.15 -0.27 3.63 3.62 5.07 -8.53 6.98 6.12 -4.11 1.02 6.02 2.97 2.61 -1.66 6.69 -3.8 0.25 0.58 -5.87 -6.57 -5.77 -2.27 -9.2 5.17 3.3 8.34 8.72 8.72 2.68 -7.56 -5.79 2.34 9.8 -6.46 -6.53 -9.79 -1.76 7.11 -2.02 -8.32 7.23 2.58 -2.59 -9.91 4.94 -4.6 -9.13 6.57 3.25 -7.53 8.22 5.73 -5.81 2.77 -1 1.51 -0.08 0.08 0.14 4.85 3.23 9.86 -1.86 -5.79 3.78 -6.57 -4.45 2.52 3.39 1.28 -4.68 3.67 7.33 -8.34 -4.79 -1.5 -6.46 -1.98 -3.84 -8.21 -1.58 -1.37 -1.42 7.82 -0.79 -5.66 -5.81 5.59 -0.25 -9.97 4.65 5.72 -6.29 6.69 6.35 -6.45 5.24 -4.26 4.87 -3.56 -8.14 2.85 0.4 1.45 4.05 -0.42 -2.85 -3.64 -6.44 -5.35 -2.69 4.33 -9.67 0.1 -9.81 7.51 6.14 1.45 -2.14 0.22 -1.81 9.81 7.64 -3.05 -0.58 2.46 -6.73 -4.13 -2.39 5.63 -8.66 7.17 -5.55 -8.5 4.47 4.08 -1.7 8.47 7.62 1.69 -1.8 2.74 -2.27 9.52 1.84 4.84 8.07 6.76 -2.73 -6.12 -9.72 -0.63 8.13 9.24 -4.91 -5.32 -1.6 -1.11 6.98 9.96 -8.72 -1.33 -1.26 1.87 6.45 4.57 -3.4 -9.19 8.25 -4.65 9.44 9.37 -5.82 -6.03 -0.06 8.81 -8.33 8.4 -8.15 -5.27 -5.94 4.38 -1.11 -2.35 4.35 2.67 -1.57 2.58 -4.95 9.9 -2.52 -2.52 -9.78 2.27 2.25 -1.17 -1.44 -6.25 -0.43 3.02 3.17 9.67 4.91 -7.47 9.82 -4.1 -9.53 0.48 -5.11 2.41 6.24 5.82 -6.16 7.07 2.47 3.79 -1.55 6.46 9.61 -2.38 -3.99 -7.16 1.24 -4.78 2.18 9.76 -5.55 -8.36 -5.85 -5.96 8.33 1.19 3.51 -0.57 -1.52 -1.77 |
0.54 1.81 5.17 -9.45 -5.78 1.97 2.96 7.43 3.88 -5.36 6.24 4.99 -9.91 2.48 -5.63 -3.09 9.6 -4.48 4.68 -8.03 -3.85 -4.52 4.04 1.58 5.35 -1.34 5.31 -5.67 -1.81 -5.73 -7.14 -3.59 -6.82 -2.17 7.55 3.45 6.37 -2.88 -6.75 9.09 -6.76 -4.29 0.54 0.2 3.61 8.97 -2.41 2.56 -1.32 -0.33 5.88 -0.83 -8.76 -5.79 -4.63 -5.87 -1.38 -2.67 -7 0.76 5.59 -4.17 4.17 4.79 -8.6 0.53 -5.55 -0.12 8.87 -4.61 9.31 -2.97 6.84 -4.99 -3.91 6.97 -5.77 -0.17 -3.79 1.22 -9.97 -2.03 -8.68 7.42 -1.33 7.02 2.23 -1.61 -3.57 -2.99 -1 -3.52 -1.75 7.85 9.78 6.2 -1.14 -4.48 -5.89 6.63 4.73 7.76 -3.65 7.45 -0.36 -2.09 -2.15 -6.19 5.53 -1.66 1.89 -9.77 -9.1 5.98 -8.25 -0.89 7.58 6.31 5.01 -4.81 -8.34 8.92 -4.23 -7.76 0.65 -8.45 -9.33 9.38 5.36 8.18 -0.88 -9.58 4.29 7.86 9.32 9.8 -2.93 -4.67 5.66 9.56 9.44 5.91 3.38 -8.76 -4.65 0.08 -9.3 -3.99 -2.8 8.22 5.52 -0.52 0.16 -4.08 -2.5 4.31 -6.54 -1.51 8.12 -0.16 -9.17 -7.49 -1.86 5.97 -1.1 5.98 -3.16 9.65 0.63 1.67 -1.6 1.56 -0.89 6.78 -0.34 2.17 -1.24 9.84 4.73 6.33 8.08 2.18 -8.75 -4.48 7.34 -3.39 2.27 8.31 -1.04 -6.66 2.95 -2.59 4.7 -6.01 1.15 -2.12 -3.2 6.6 1.57 3.17 -8.68 -9.15 1.28 0.86 -9.86 -6.66 -1.77 -5.37 -1.42 -9.11 -7.97 -4.86 9.53 4.78 6.88 3.42 -2.19 -5.85 -5.18 -8.98 -0.82 0.24 -1.92 7.46 0.35 -2.46 -9.72 8.24 6.63 -3.68 -6.06 -5.88 1.26 3.83 4.3 2.93 2.65 -3.53 -1.37 -6.08 8.79 -1.88 3.49 -2.07 4.16 -7.29 9.33 7.24 3.64 -6.4 -2.41 -1.45 9.96 -4.76 -0.77 7.19 -0.41 7.44 6.56 -2.8 0.69 -8.24 5.99 -5.35 -7.91 3.91 1.65 1.59 -9.38 4.17 4.09 0.57 0.51 -8.78 3.42 -9.38 0.27 -7.17 -1.78 3.15 7.95 -7.16 -8.33 -0.57 5.63 -7.82 -1.88 -3.4 1.74 -9.61 -8.72 -8.95 -4.16 4.45 -0.17 -1.78 7.61 2.27 4.51 3.54 2.43 6.49 -0.99 -9.52 -4.36 -5.25 -3.13 0.52 -0.39 -2.96 -0.94 -7.01 -4.3 6.17 -4.09 -0.37 5.91 -8.47 4.82 3.86 6.3 9.38 7.08 -2.92 -8.26 7.59 -8.45 0.03 5.57 -1.33 3.74 9.74 3.22 -8.82 -5.91 4.96 7.14 -4.5 -6.49 -4 -3.73 -3.42 1.77 7.87 -5.91 -8.1 -6.03 8.76 2.71 2.23 -3.34 -2.43 6.69 -4.17 9.79 2.68 -6.74 -2.17 6.38 0.68 -2.4 -8.63 -2.99 -6.4 -9.23 -7.53 1.21 -2.18 2.08 -5.99 -4.35 7.14 -1.18 -7.41 -2.81 -1.28 -7.32 1.24 -2.72 -0.95 4.33 3.72 3.64 -5.12 -8.94 2.36 2.73 -0.39 -9.6 -8.39 -6.26 -0.69 3.42 9.49 -9.66 -0.88 7.76 -0.82 0.67 5.36 9.21 2.73 1.48 -6.34 7.9 2.94 3.93 1.8 -5.23 -2.58 9.94 3.64 -2.58 4.76 -3.07 8.29 -2.05 -2.49 -6.74 1.64 -5.3 -7.98 7.15 6.71 -5.2 2.92 -4.35 -4.84 -5.31 4.25 4.78 0.87 -3.53 9.85 -0.9 -9.32 -3.71 8.87 7.94 -7.24 -5.59 -4.78 -3.65 -1.25 6.91 -8.28 2.16 6.7 4.69 -2.58 -6.53 2.6 -5.51 6.41 -9.43 -1.67 -3.75 1.63 4.55 7.21 -3.36 5.06 3.86 -8 -6.99 4.72 -2.71 8.67 7.85 -4.79 -3.87 1.24 2.81 5.84 -1.83 2.09 7.52 -9.27 6.13 6.46 -3.34 4.02 0.6 -2.53 -2.4 9.72 7.01 -5.53 6.84 4.37 3.39 -2.38 -8.99 2.73 6.63 3.17 2.4 0.51 -9.42 -5.19 |
-5.81 1.42 -9.43 8.23 -9.25 -0.55 -8 7.01 -1.2 -9.15 1.32 -8.22 4.78 -9.83 -6.19 9.02 4.04 -8.88 -4.64 -0.17 -7.68 6.77 8.09 3.04 -8.99 4.71 0.67 4.58 5.08 8.72 0.09 -9.49 1.92 5.28 -4.87 -5.13 9.23 0.43 -6.34 -1.42 -4.32 5.89 9.1 -3 2.05 6.61 -0.47 -2.04 1.71 -8.08 -7.5 7.81 5.42 -8.15 4.71 -6.32 9.5 -4.72 3.09 5.87 0.21 1.56 3.35 -9.78 5.17 5.43 -7.32 -2.23 -1.89 -2.8 -0.51 -3.93 -0.6 -6.56 -2.67 -5.5 -8.65 6.23 8.33 7.33 5.21 -4.62 -8.52 9.21 -1.5 8.53 -2.85 1.7 -9.89 -0.3 -7.81 1.45 -7.69 6.46 9.09 9.6 -3.52 5.65 9.67 -2.46 5.26 3.29 -0.37 4.38 -3.29 7.12 6.33 6.21 3.35 6.17 6.53 -2.21 -4.83 -6.61 3.68 8.76 -0.75 6.89 -8.88 5.56 |
