0.25 0.04 -8.42 0.88 4.6 -2.15 -6.48 9.15 -7.47 2.1 9.86 9.33 8.77 -4.05 4.42 -6.7 -2.95 -9.78 9.68 -6.1 -3.42 5.94 -8.82 -6.49 4.07 -3.01 5.82 1.96 -4.2 -2.77 -7.25 -2.48 4.38 -8.9 5.82 -5.15 9.33 -1.99 8.95 8.98 2.29 8.66 -4.66 -4.92 -7.87 5.91 -9.92 7.35 -1.2 -5.17 6.4 5.13 2.45 -5.89 -7.52 -7.28 5.65 -9.52 5.06 -0.25 -1.49 5.5 -9.81 -6.45 9.8 -8.81 3.99 3.68 -6.18 8.51 -6.78 -0.3 1.41 4.85 -2.5 1.45 -6.52 7.07 -8.97 1.35 1.34 5.34 6.9 6.04 8.71 -2.76 -2.68 0.83 -8.71 4.62 0.86 -4.36 -5.81 -9.56 5.75 -7.41 -2.75 0.49 7.57 0.67 2.43 -6.99 6.32 7.45 3.49 -8.94 8.22 6.4 -4.6 5.23 5.39 -5.18 9.18 -9.57 8.89 -7.13 1.31 9.75 -2.21 7.21 3.94 -6.51 6.1 3.14 -3.92 -9.8 3.38 3.95 -8.65 -3.56 3.22 -2.93 1.66 -4.21 5.96 -3.49 6.15 6.46 7.15 5.84 5.93 -2.43 -6.97 -5.92 -9.32 -2.64 -0.46 1.04 4.36 5.54 -0.8 3.29 -0.86 1.13 7.45 -4.65 1.34 0.52 -8.51 -3.02 -5.1 -8.24 9.25 -0.44 9.3 -2.19 -8.22 5.1 9.75 1.53 3.33 -9.74 -4.61 2.24 -2 -9.36 4.35 -5.04 5.69 -9.27 -1.14 -7.14 2.46 4.37 -8.47 1.46 -2.18 -7.9 -3.51 -1.86 -5.28 -8.95 6.71 -4.38 -7.5 5.66 -7.82 0.79 6.07 -9.97 3 -5.43 5.35 3.63 -3.32 -3.66 -9.17 4.76 -0.41 -4.01 7.52 -0.77 -5.98 3.35 -7.75 -6.16 -4.96 3.62 -2.95 -6.37 -4.37 0.99 9.02 9.72 8.52 -1.24 -5.09 1.75 -4.44 -8.35 9.81 9.59 5.37 -0.3 -6.8 9.62 8.83 9.11 2.11 7.68 -3.59 4.19 5.05 -7.14 -7.5 3.72 -7.98 6.98 -2.91 3.74 0.75 0.42 -4.78 4.42 -9.78 3.41 -0.81 -4.35 0.42 -2.95 -2.49 -8.28 -7.36 1.9 9.57 -6.68 4.18 -8.84 0.84 -1.48 -8.19 -1.94 -3.47 3.3 2.88 5.2 -4.24 -5.4 9.5 -4.89 9.56 9.25 -8.67 8.5 4.14 8.09 6.94 -6.54 0.12 9.87 -4.56 7.67 -1.74 -6.41 5.86 8.35 -2.34 -8.26 -0.02 -2.71 -2.05 7.42 7.48 -8.02 4.18 1.49 -0.91 -3.28 -9.73 -7.88 6.47 -4.27 5.52 0.54 -8.39 -0.17 3.45 9.05 6.03 -8.78 5.66 2.43 1.18 -6.45 -9.44 -5.61 0.57 -5.45 9.12 -8.62 -3.89 9.04 -5.68 7.37 -1.36 3.83 -6.28 0.78 6.88 -5.7 -5.37 7.88 -2.58 -1.1 -5.79 3 -3.51 -5.3 -6.98 1.47 |
-2.23 -6.89 -7.38 -1.41 -8.82 -1.09 3.09 -9.89 3.33 -9.65 -2.24 8.31 -0.16 5.96 7.49 8.58 8.3 -3.38 -3.68 -1.39 -6.66 -1.25 6.03 -5.44 3.44 2.54 -0.19 -7.42 -7.63 1.65 1.29 0.46 1.21 8.77 3.62 -2.21 -0.81 -1.64 9.87 0.05 5.52 7.1 -5.55 -1.74 -9.04 5.88 -8.16 -7.14 5.46 1.67 -6.82 -6.1 -7.67 1.36 -9.83 7.31 1.9 -6.15 4.96 3.38 9.71 -5.27 -9.77 -6.72 -5.18 0.65 3.86 -8.43 4.99 -8.39 6.73 5.43 1.16 4.65 -4.58 9.43 -3.59 -5.34 -5.62 6.12 -9.36 -4.04 -2.38 -1.02 1.93 -3.44 0.22 -2.07 3.94 -7.04 3.93 -2.38 3.36 8.25 3.31 -9.91 -4.06 -0.21 -7.16 -8.47 -0.54 7.18 8.48 9.34 1.02 7.22 6.28 3.34 9.43 3.61 -2.91 -6.03 -0.1 2 9.44 2.09 1.37 -8.02 -0.04 -5.27 -5.29 -5.94 8.72 3.46 2.15 9.55 6.94 1.82 -6.37 -1.81 -6.85 3.06 -4.77 0.76 -0.98 6.67 6.05 5.61 -0.47 9.83 5.19 -1.76 7.97 -0.79 8.24 -0.14 -1.11 9.89 -3.9 3.76 -6.86 4.12 -3.84 4.64 8.37 6.39 1.94 -2.28 0.31 4.35 -8.83 -9.34 -6.2 9.59 8.42 8.85 -4 -9.31 3.75 -0.43 -6.81 1.47 5.87 6.19 -8.41 0.59 7.9 -5.93 5.08 5.75 -2.4 -0.78 -8.5 -0.73 -2.99 -7.51 -0.74 -4.37 2.33 0.16 0.67 5.35 -8.14 9.96 6.64 -6.29 2.36 -8.23 -2.38 -2.35 1.96 -5.19 -5.2 0.34 -3.85 3.91 2.61 6.88 -2.37 5.88 -2.87 -3.69 5.38 -9.86 -6.32 -4.18 8.79 -6.16 -7.05 4.7 -3.51 -5.78 3.07 -3.9 7.61 8.38 -3.34 -4.47 0.04 -2.33 7.98 -8.99 6.44 9.2 -1.38 -8.71 3.84 -8.64 -4.41 -8.81 -6.31 -4.59 -7.32 7.63 -6.33 -3.56 -7.72 5.76 -7.66 8.25 7.05 -3.17 1.72 9.94 -0.33 0.95 -1.63 -4.4 -8.28 -5.15 -9.94 1.25 1.29 -3.57 2.18 -8.29 -6.37 7.74 6.46 7.24 -6.47 -6.97 -8.51 -5.31 7.65 9.65 2.49 3.12 6.43 -3.35 0 -8.95 -6.19 -4.82 -2.39 -3.28 -0.29 0 -2.99 -3.1 7.66 6.09 -5.11 -1.65 7.65 -9.35 -6.09 7.98 9.98 -5.99 3.94 -0.85 9.32 5.69 -1.76 5.99 -6.98 -3.46 2.33 -7.06 -8.77 8.36 8.58 4.81 -2.82 -6.04 -3.64 -7.06 -1.22 1.53 7.8 -4.36 7.76 2.44 -6.71 4.38 -6.3 -4.2 6.44 -8.35 6.63 -4.05 -9.21 3.48 -4.58 1.64 -7.53 -1.01 7.99 -6.36 -9.64 -3.23 -8.78 5.48 -0.9 2.02 8.33 2.44 -4.95 -6.74 6.95 8.11 -8.47 8.32 -2.62 -2.02 -1.64 -4.16 0.26 6.6 3.52 4.02 -1.46 -1.31 -7.42 4.46 7.13 -6.9 -4.29 5.16 -4.37 3.91 7.89 -4.49 4.57 9.68 -5.89 9.43 -4.94 5.31 -3.98 7.86 5.53 9.84 -1.88 -7.39 7.41 2.1 0.9 0.95 4.51 9.36 -6.72 -7.18 8.01 -3.56 -1.13 5.71 -9.1 -0.59 -2.09 8.89 -2.63 -0.27 7.24 9.08 -7.43 -8.32 0.2 -5.24 0.57 6.25 4.93 9.3 -7.92 4.15 0.74 -4.29 0.67 6.13 -4.42 -8.59 -7.81 6.29 -2.75 -3.27 -3.46 -1.85 -1.74 5.49 7.11 -7.58 -0.77 -9.7 -5.27 -0.24 -7.07 6.22 7.76 3.97 1.86 1.69 -8.58 4.76 -4.63 3.09 7.17 -3.02 5.57 1.27 9.9 -9.28 -2.55 -4.59 2.3 -4.52 -0.35 -2.93 -5.01 -2.53 6.15 -3.66 -6.08 6.22 2.89 8.87 4.83 -9.84 3.93 -1.02 6.98 -6.25 0.14 9.4 6.23 -5.14 3.96 6.78 -6.01 -8.24 7.07 9.47 -6.85 -9.22 9.34 0.76 8.49 3 -2.6 -4.14 4.92 -7.24 -7.71 -1.23 6.98 -1.89 -8.45 -7.99 8.53 -9.49 |
9.13 -9.61 -7.01 3.8 4.19 -9.58 7.56 -3.34 -3.93 -8.47 -3.01 6.65 9.67 9.13 2.54 3.38 -5.95 5.15 9.23 -5.22 7.32 2.81 -8.37 3.42 -0.16 6.59 -9.24 6.34 -4.8 5.8 -2.71 -2.71 0.71 -7.55 4.77 -9.58 9.8 -5.99 -1.77 -4.05 -3.29 -6.66 3.77 -7.39 -1.47 -7.89 -8.87 -1.13 8.92 -9.61 -2.66 -4.8 6.81 -7.28 3.22 1.83 -0.32 -9.47 9.02 3.77 -9.38 3.55 8.42 -9.89 4.82 -6.36 -7.12 7.05 0.6 0.43 2.25 5.17 6.22 8.84 7.44 2.11 6 8.91 -9.8 8.01 -3.09 -9.77 7.31 1.43 5.17 3.73 -1.13 0.59 -2.37 1.12 7.54 -7.26 3.41 7.8 3.7 1.53 -2.89 4.93 -4.83 6.41 -3.9 -7.79 -1.33 -9.09 3.48 -2.9 -2.11 -4.62 -2.46 9.48 -7.04 9.08 2.9 -2.1 6.22 7.88 -9.87 -9.38 -3.59 -6.71 |
