0.56 -2.74 -6.04 -3.54 -7.8 2.01 7.86 -4.71 -7.78 -1.93 -5.46 1.38 -9.36 -2.12 7.83 -9.6 -1.34 6.84 7.07 1.93 6.61 -5.84 4.13 3.08 0.4 1.74 5.75 -0.6 -9.8 7.73 6.73 -0.77 4.28 8.69 8.52 8.5 9.52 -0.77 -4.26 -8.57 -1.02 -6.6 -2.66 -7.57 8.03 -3.68 0.17 -6.76 -4.42 0.59 -3.77 9.93 -3.09 1.59 9.97 -8.67 2.98 -4.74 -2.07 -6.31 2.49 -1.38 9.55 -9.22 9.08 -8.87 -5.96 8.2 -0.16 1.5 0.22 -4.59 1.25 -3.52 -4.3 6.68 7.24 -7.47 3.1 -0.94 8.76 0.49 -8.54 6.5 -4.76 -1.89 -0.33 3.49 9.61 7.39 4.46 -8.69 9.38 4.23 1.2 -6.43 2.15 -9.15 6.72 -8.65 -0.92 -2.36 0.13 6.52 1.82 5.74 8.46 0.4 -3.65 1.86 1.65 9.48 -4.35 0.53 -0.77 1.17 -0.77 -4.69 -0.43 5.5 -1.02 -6.81 -8.52 -1.52 -7.58 -7.42 5.27 4.73 4.65 -0.04 8.21 -3.16 6.18 -8.76 7.4 9.28 -5.16 0.92 -2.73 4.07 8.87 -5.64 -6.08 -5.9 -1.6 1.27 9.83 0.9 1.81 -1.38 -1.71 7.41 -3.81 -3.24 -6.86 -7.77 1.45 -1.11 9.11 2.53 0.9 -2.47 -6.87 2.27 2.98 -2.71 5.55 -8.46 -7.87 7.96 1.33 8.33 3.49 -9.05 -2.79 1.56 6.99 4.71 -4.66 -9.82 1.12 -3.62 5.61 -7.88 9.06 0.68 -6.3 -6.1 -1.75 0.11 -6.28 -6.71 -1.21 -0.7 -7.27 -9.47 0.86 -7.04 6.89 6.84 4.27 -4.89 -4.45 1.63 7.49 -8.09 -8.2 -5.93 -2.31 2.45 8.53 -2.45 -9.37 -1 -1.19 -2.4 8.73 3.82 -0.46 2.45 6.42 2.58 -5.36 -4.72 -6.32 -3.79 2.78 -8.14 -6.55 -4.71 -0.24 2.91 -2.98 2.88 -8.35 -6.44 -4.25 -3.39 3.3 1.45 1.94 -0.12 4.36 5.8 3.68 1.13 8.64 -6.5 -4.39 6.52 -2.25 -1.01 9.51 1.59 -2.93 -8.64 8.09 2.66 -0.03 3.92 6.16 5.18 0.76 6.23 -9.49 -1.36 3.19 -5.18 5.31 7.67 -1.05 5.22 -1.8 3.01 -5.3 -2.58 3.07 3.05 8.21 -7.68 -1.88 -9.88 1.88 -0.48 -0.87 4.57 -7.86 0.78 2.37 3 0.37 -9.08 1.29 5.63 -7.5 6.71 -8.33 -8.66 1.1 -3.74 8.06 -4.41 -4.71 -6.71 -1.61 -2.38 7.11 -0.02 -7.54 2.5 9.21 -2.69 -9.72 6.97 -6.45 5.23 -6.12 5.13 3.73 -6.21 -3.03 1.85 3.71 -0.95 9.61 -6.64 -0.07 -5.09 -5.38 7.07 0.31 -6.92 0.58 -4.29 -6.89 -9.19 9.83 4.9 -4.03 3.9 0.68 -2.99 7.04 -1.42 -3.97 8.52 -2.79 -7.76 6.02 9.13 -3.22 6.76 6.72 4.03 5.94 4.97 5 9.58 -9.83 -2.42 -2.22 -7.8 -5.99 -1.45 -8.19 2.19 0.26 1.7 0.94 -4.97 -1.99 -8.36 9.1 4.59 7.01 0.2 5.13 9.68 3.1 -5.37 -1.65 0.34 -5.27 7.03 -0.71 -1.9 9.07 -7.97 -6.11 0.92 0.54 -1.87 -6.04 -9.06 -4.12 -0.96 -2.1 -7.56 1.57 5.82 -6.61 -2.48 -0.87 1.38 0.78 6.43 2.02 9.68 -5.26 -2.17 5.89 2.97 5.68 -0.75 7.03 9.65 8.23 -6.94 -7.34 2.76 -5.72 -2.19 -9.87 5.11 -8.36 -9.51 2.5 -2.28 -6.19 -9.43 8.17 5.44 4.94 -4.73 -1.26 5.37 4.66 5.48 9.99 -0.37 -0.13 6.01 9.36 1.12 -3.37 -7.27 -2 -1.16 9.3 -4.61 6.53 -9.82 8.63 0.99 7.65 -2.06 2.57 -6.14 -7.36 5.4 -8.23 6.54 9.69 5.1 7.96 9.88 3.61 -5.45 -7.39 4.3 1.65 -0.62 -6.24 7.27 6.23 -5.91 -0.83 -0.87 7.46 3.69 -2.09 -1.36 -4.93 -1.6 8.79 -8.38 5.74 9.84 -2.7 -1.15 -8.24 0.1 2.86 -4.31 7.98 -9.52 2.24 -7.91 4.89 -7.46 3.55 8.86 1.38 -4.4 7.48 -2.11 5.11 0.22 2.2 6.02 2.19 2.73 6.56 3.78 3.64 1.67 -6.32 4 7.11 7.48 -2.37 1.52 -0.34 -9.93 -9.26 2.78 8 8.15 9.78 -1.67 -1.02 8.95 6.93 -8.56 -8.51 5.17 2.07 1.29 4.76 -2.89 7.94 -8.26 -7.27 -0.18 -8.78 0.23 -9.56 2.78 -5.06 -4.8 -7.53 4.09 -7.7 -3.44 3.55 4.6 -8.07 -0.07 -5.89 -7.7 5.81 -6.19 5.46 -4.92 8.07 0.44 -0.01 -3.27 2.55 -6.6 1.23 0.89 -0.95 1.91 5.01 3.54 -0.78 -6.91 -3.48 -3.86 0.85 -1.93 4.04 7.48 2.51 -4.84 -6.52 1.84 -6.63 1.04 -4.83 -4.66 8.73 1.35 5.88 -2.95 2.69 0.82 4.81 -2.32 -8.99 7.34 -3.74 8.8 4.34 4.39 -9.95 -5.19 4.04 -1.61 1.11 0.08 -3.44 3.06 7.12 0.47 -4.92 -5.89 -0.8 1.02 7.75 9.17 1.92 -5.13 -7.61 3.88 -5.38 0.24 7.56 -9.39 3.48 -5.6 -0.96 8.12 5.02 -9.23 -8.49 -9.03 -9.65 -7.97 -9.93 9.37 -7.36 2.34 3.29 -4 3.41 3.85 -1.05 -8.01 -7.58 -7.56 3.25 4.19 4.19 6.61 -1.71 -1.87 -6.22 3.57 2.88 9.07 -5.54 2.01 -1.69 1.73 -2.57 4.21 9.77 1.12 7.06 1.22 5.15 -2.8 -1.4 5.31 -4.08 7.72 0.67 -4.23 -4.41 6.48 -3.54 -6.01 -2.28 4.41 9.94 7.03 -0.19 -6.72 3.33 -2.71 -8.8 -0.77 -5.03 -1.15 -5.78 5.44 -6.26 7.98 -9.92 5.68 -6.83 -6.83 6.4 -4.07 5.97 -0.74 -3.53 9.77 6.67 1.26 8.32 -9.51 -9.77 -4.41 7.86 5.22 -2.97 9.46 -2.49 1.99 0.47 -8.21 1.04 -8.63 -1.96 1.97 0.8 -7.34 9.33 6.65 1.25 0.89 -0.9 4.33 8.16 -4.03 -6.25 -7.87 6.54 -5.29 0 0.35 5.76 -8.67 6.82 9.41 8.19 -6.4 -9.2 2.24 -5.37 -8.93 8.64 -6.58 -5.57 2.28 4.07 -7.94 -2.24 0 -4.5 -5.66 -6.77 1.95 -8.75 -2.04 -5.28 8.9 -1.23 8.45 7.03 -6.57 8.65 5.26 -2.64 -0.61 -6.86 -2.39 6.93 5.76 7.9 -1.27 4.9 -0.67 1.14 -3.09 -2.34 7.14 3.07 0.2 -8.76 -5.15 3.35 8.09 -2.32 -3.44 1.69 -9.51 3.97 -2.58 6.26 0.57 -3.34 -4.97 4.34 5.9 -3.83 -0.69 2.27 7.52 -5.39 6.92 -1.01 7.55 -1.24 -9.35 0.98 -4.87 -5.73 4.69 6.26 -5.77 -5.08 -8.66 -7.81 -3.55 6.76 3.62 -9.08 1.45 -6.78 3.83 5.34 9.41 1.15 -9.03 9.74 7.34 -9.44 0.49 5.92 -7.48 2.87 8.38 3.94 7.01 9.93 2.01 5.9 -8.77 -0.21 8.07 9.57 -7.49 -5.8 -7.57 5.23 -2.76 3.88 3.37 6.16 -1.18 -1.26 -8.22 -8.41 -7.92 -5.95 0.61 -6.39 1.74 -9.28 8.97 -0.77 -6.96 -5.11 8.18 -5.35 -7.6 7.14 9.75 1.21 -0.48 9.73 -2.45 5.29 4.39 -4.91 3.55 7.81 -0.94 6.91 -0.88 3.72 -1.18 -0.23 6.95 3.29 -0.18 3.49 5.75 2.35 7.52 4.86 6.14 0.01 -9.73 8.34 2.02 -2.78 -0.2 7.33 -8.33 -0.57 -5.19 6.45 -2.97 5.1 9.92 2.01 -5.37 -1.21 4.22 7.12 -2.14 9.39 -6.81 -5.9 3.09 3.03 -5.39 9.84 2.63 5.18 -2.67 -7.58 -0.46 -9.92 4.92 1.1 -1.74 9.29 -4.84 -8.46 3.17 -9.73 -7.31 2 -4.15 -0.57 -3.43 2.85 -9.8 6.79 -1.13 5.91 9.72 -7.66 -2.48 3.72 -9.54 -9.82 -6.58 -9.08 8.95 0.51 2.16 -9.88 6.25 -5.46 3.76 5.02 -0.76 0.49 -4.57 1.78 -1.41 7.42 -1.76 1.95 9.67 -9.16 6.57 9.36 2.56 -5.58 6.42 1.71 6.23 6.82 0.25 -0.59 -6.17 0.37 7.33 3.24 0.04 4.67 6.11 -8.61 1.68 -4.74 -6.24 3.9 -0.24 -4.28 6.28 -9.17 -5.77 -5.56 9.48 -2 -3.89 0.7 -6.53 1.05 6.35 3.04 -6.42 -4.29 -9.53 7.49 -5.99 4.86 2.85 -1.5 1.26 5.33 -9.27 9.7 5.5 -2.24 3.19 -6.21 2.46 1.66 4.73 -4.14 5.89 -8.49 -1.93 -6.62 -1.87 0.51 6.35 2.75 -4.6 -1.03 7.52 -1.17 -8.02 4.7 3.94 6.4 -4.12 -6.08 2.06 9.96 -8.57 8.09 0.99 0.41 -5.07 -7.28 6.37 6.1 9.87 5.59 4.35 0.71 -4.36 -2.62 5.52 4.74 -6.27 -4.24 -6.46 -2.39 -1.03 -1.07 6.43 1.29 3.9 -7.37 -1.29 -4.91 -7.18 0.47 -2.58 6.35 1.79 9.13 1.51 -4.82 5.86 -9.31 -2.15 3.38 -3.22 0.58 -0.79 7.78 -10 -1.42 2.39 0.68 -9.2 1.31 -2.32 -9.21 -8.91 -8.41 2.54 -4.92 -3.7 1.85 8.89 9.74 -3.15 5.68 -1.76 -3.52 -1.2 -6.24 -8.51 -2.14 -2.63 -3.07 -7.66 3.04 -5.05 2.23 9.92 -1.83 -2.17 4.84 8.75 -1.19 6.33 6.86 -3.81 -6.93 -6.39 1.73 -1.89 -4.7 0.33 -2.25 -6.32 -2 3.31 -9.08 1.03 3.74 -4.38 6.98 7.86 1.82 -9.26 7.55 1.93 1.98 4.97 0.82 4.59 8.01 7.97 -9.2 6.96 -9.01 -8.48 1.14 6.05 8.85 -7.63 -2.68 5.45 5.06 8.13 -5.49 0 5.55 -3.82 -5.21 -8.89 2.97 7.25 -0.91 3.57 -0.18 6.87 7.94 1.85 5.33 5.33 5.05 -2.99 -5.24 -0.64 -9.22 -0.15 5.26 -0.39 9.17 7.99 7.75 4.73 -3.76 2.62 2.65 9.73 -1.24 8.24 0.92 -9.33 3.98 -9.87 9.64 5.49 9.54 0.99 3.2 1.44 6.18 1.14 -3.75 -8.47 6.88 -9.15 -5.39 2.58 -0.79 -7.57 -4.52 -5.22 -8.77 7.3 5.25 -5.89 -2.88 2.83 7.6 3.6 4.03 8.82 -6.34 -3.5 5.66 -5.82 -0.93 3.52 0.13 -6.1 -5.25 -1.8 -9.37 2.82 -5.87 4.39 6.76 -9.55 9.48 -7.88 -4.5 9.81 -7.88 5.15 -5.79 2.1 7.01 -2.52 -5.54 5.45 -3.59 -3.98 -9.14 -0.71 -3.32 -2.03 0.5 3.42 7.39 -7.51 -5.91 -5.85 3.1 -2.92 6.93 -4.34 -7.35 -3.92 3.09 -6.85 -2.9 9.63 -1.63 -7.86 -2.81 -2 7.95 4.37 9.81 -2.31 3.67 5.64 6.12 -2.37 9.81 -9.41 5.1 3.55 5.89 8.47 1.73 0.67 -2.64 6.32 5.01 -4.14 1.44 9.97 -2.05 6.2 4.15 -7.36 -2.33 6.77 -8.23 0.76 -0.11 3.22 -0.52 -3.92 2.86 6.95 7.53 8.92 0.76 3.41 6.79 6.77 2.06 1.06 4.21 -7.32 8.12 6.88 -1.01 -5.54 1.96 1.6 -9.64 6.43 8.11 -5.28 -5.11 3.72 4.82 6.72 8.11 7.19 6.87 -3.61 -6.2 8.33 -8.52 -5.17 -5.74 -0.96 2.55 0.47 -2.67 0.55 3.9 9.84 9.6 1.52 8.09 -0.58 7.75 3.94 -8.06 -4.95 2.64 2.69 6.34 -6.92 -7.72 4.53 5.47 2.7 4.66 -8.29 -9.14 -3.69 -0.56 -8.49 7.15 4.36 -6.93 -3.4 8.79 9.57 -3.29 8.01 -0.35 5.31 -6.22 -4.59 -1.62 -8.2 1.44 -9.71 -8.76 -4.59 -7.47 5.16 -4.47 7.49 -1.11 9.96 -2.33 -0.11 -4.03 -4.06 1.68 -2.25 -6.16 5.89 0.19 -5.71 -2.27 2.68 -8.96 5.94 -7.5 -8.35 -6.2 -2.77 0.16 -8.82 7.55 -5.22 -4.36 5.5 -4.97 -5.24 5.73 4.91 4.62 -8.32 7.67 -8.74 -5.83 8.77 8.86 -3.9 8.53 0.76 5.5 -2 1.5 6.55 5.24 -2.81 -5.75 -3.35 4.64 -4.26 -9.62 7.76 9.42 0.61 -7.13 -2.8 -7.71 -3.6 -4.28 -2.81 |
-2.92 -4.42 -0.78 3.07 -9.62 -7.82 2.79 1.18 7.43 3.84 1.68 5.84 -3 8.06 -3.15 2.4 -8.25 -3.07 -8.09 8.43 3.2 8.62 9.04 -1.47 -2.17 -0.96 2.46 -5.41 -9.12 -8.02 -4.03 -2.33 -1.34 -5.32 9.08 9.66 -9.01 3.43 -0.31 -7.16 -4.57 7.31 -5.26 6.2 2.53 -8.25 8.72 0.88 -7.22 3.82 4.74 7.7 -4.48 -6.26 -8.78 9.41 6.91 -5.47 3.99 -9.29 -8.81 9.36 -8.51 4.59 -1.6 4.37 1.1 0.8 -4.47 -4.91 3.67 0.87 -5.85 -1.92 -6.31 5.5 3.09 5.29 -2.69 -1.58 2.12 -2.08 0.6 -9.84 -9.21 -3.39 -3.82 4.07 6.27 -5.3 -1.45 0.19 -2.1 -5.41 -0.84 4.56 3.15 6.65 2.5 7.02 -1.35 -6.58 -6.44 4.36 -8.3 -3.19 -2.91 -4.64 -7.05 4.6 3.22 -7.17 -1.75 -0.72 2.16 0.99 1.45 6.89 -4.58 3.84 -8.79 4.44 8.29 -1.5 6.43 0.24 -2.7 -0.21 -3.62 6.87 -1.6 -2.27 2.34 2.71 5.19 -0.71 9.66 -8.69 -2 -0.21 5.16 -0.72 -1.35 -7.57 -6.51 4.11 1.89 9.4 -1.85 8.92 -2.75 -6.64 0.27 5.62 -1.39 -9.08 1.07 0.84 9.16 2.4 -2.86 -4.23 7.35 3.15 9.44 -6.06 4.18 -4.19 -4.21 8.04 9.09 2.05 -1.26 -3.5 -3.42 7.85 -5.83 -7.34 9.88 5.51 9.17 6.45 0.62 3.97 -0.27 -7.37 0.37 9.19 3.27 1.25 5.1 3.85 5.52 -0.05 0.69 -6.9 -9.46 -7.86 5.85 -4.37 |
-0.07 -0.77 9.51 2.63 9.75 0.8 2.73 6.29 -4.11 -4.02 0.54 1.88 7.57 -2.09 7.29 3.29 0.25 -2.6 -7.55 6.33 -6.61 2.03 -0.04 -9.85 -1.89 -0.14 2.53 6.1 -3.25 5.77 -4.89 -2.12 6.77 3.89 -5.03 -2.72 8.88 -7.3 6.68 6.43 2.37 -7.03 6.73 6.94 -2.15 -6.93 -6.11 5.36 -8.17 -9.17 0.57 -5.56 5.39 -9.93 -9.49 -7.96 2.46 -4.38 -2.34 2.46 |
