6.97 6.7 0.74 5.85 -3.32 6.63 -7.83 6.38 -3.24 1.01 -4.73 -0.88 5.47 -5.84 -5.24 -2 -7.03 4.97 9.63 5.38 -6.96 -4.73 -7.03 -9.74 -2.29 -8.43 -1.41 5.94 2.33 -4.65 3.23 -1.27 -1.88 3.48 -3.9 -2.13 7.96 -6.63 -6.31 -4.34 -2.84 7.92 0.25 -0.67 9.88 2.09 8.42 4.56 0.81 -9.23 2.68 4.97 -3.47 0.51 -4.96 -1.77 -1.42 7.26 -0.25 8.81 8.67 8.79 2.68 -8.91 -6.15 -2.66 8.87 -3.86 -5.72 2.66 -0.42 -1.6 -5.84 8.85 -7.3 -1.94 8.74 2.46 5.22 9.47 2.99 1.33 -3.82 3.52 -3.33 4.44 6.04 -2.98 -0.37 8.75 -1 1.81 9.09 1.02 6.08 8.75 3.76 1.39 -3.38 1.81 3.35 -4.05 9.33 1.33 -2.22 -8.65 -1.21 3.01 -6.17 0.59 2.19 -8.45 -2.37 0.99 -0.19 -3.15 9.69 -8.34 -5 -4.9 3.57 -2.52 9.51 2.46 9.3 -6.38 -0.93 2.83 1.07 -8.66 9.26 -4.27 -1.38 -5.38 -2.72 1.43 -6.31 5.18 -6.29 9.82 4.74 4.38 -7.98 -5.48 -4.83 -8.48 2.3 -3.37 1.71 2.45 -0.33 -9.07 -9.68 -4.73 2.55 -2.38 7.33 4.7 -5.96 6.35 7.65 3.61 -0.71 -5.99 5.84 7.8 9.53 -6.9 -4.18 -1.71 4.55 3.05 -0.06 2.55 5.42 2.64 -2.84 4.23 9.91 1.68 -3.71 4.36 -1.22 4.72 -6.31 -4.35 6.43 -5.39 -1.22 -0.52 1.89 -9.41 -0.64 5.42 -4.74 -8.31 -5.56 -0.54 -0.9 2.53 4.36 8.06 -3.28 -9.97 -3.84 5.31 2.14 -4.41 -8.42 -3.11 1.18 2.71 -4.08 4.55 -5.55 7.05 -5.76 3.87 8.74 4.15 3.36 0.06 3.99 3.28 3.93 6.49 -3.67 -0.09 -3.62 -9.89 -9.51 -8.44 2.65 3.01 -9.51 3.57 -1.57 4.22 0.26 -3.37 -8.6 -7.45 -4.14 4.62 6.11 -8.17 -3.41 6.07 -8.51 -1.23 5.35 4.53 -6.92 -1.01 2.04 2.79 -4.6 3.7 9.53 2.58 -3.13 7.91 5.33 4.94 -4.51 -1.37 -3.15 1.3 8.43 -7.38 0.46 -1.83 2.38 -0.03 8.8 8.83 -3.02 -5 -8.76 -8.87 1.08 2.62 0.37 3.8 3.23 -7.43 -3.77 7.7 -2.48 1.86 -3.28 7.13 5.78 -2.36 6.17 3.23 0.17 5.89 5.82 7.28 4.84 -8.42 4.83 -9.64 7.68 -7.27 -5.85 -0.73 5.75 -0.54 -3.44 -2.3 -3.82 -2.34 -4.14 -0.26 -7.87 -2.32 8.77 2.25 8.45 0.96 5.47 -8.85 -2.23 -1.13 3.33 2.02 2.29 6.06 4.67 7.7 -0.76 1.77 4.56 -6.62 -3.57 -7.3 -2.07 -6.51 -9.56 8.54 8.92 5.26 3.4 5.76 -8.35 4.63 9.86 -2.71 9.9 8.15 -6.4 9.75 -7.4 7.14 2.34 -6.94 -4.21 4.29 6.29 -8.56 -8.67 2.26 -0.98 -1.98 -1.23 0.92 4.26 0.09 -1.92 -2.51 -2.19 1.48 2.35 -9.7 -2.65 5.72 8.54 0.63 6.53 0.26 -3.78 7.99 9.77 3.23 6.36 6.97 -7.26 -3.46 4.61 5.51 -1.56 7.84 5.4 2.94 0.73 -2.56 -7.1 3.1 -1.6 -4.07 6.08 -0.77 0.75 -0.37 1.92 -4.4 9.98 -0.63 -9.23 5.36 -9.69 9.25 9.68 -9.23 3 -6.51 6.86 6.07 7.29 -8.67 -1.99 -8.84 -8.31 -7.85 1.4 8.58 -9.28 -7.29 -1.62 -8.25 5.74 -0.83 -0.14 -8.83 -0.06 -3.04 8.31 8.99 -9.78 2.86 -9.89 -3.34 -0.75 3.28 -2.5 -2.72 6.14 3.25 -8.47 2.14 -3.29 -9.81 -5.29 -3.35 0.19 -3.09 9.37 -0.42 9.69 -5.05 -2.71 -9.02 -0.86 -2.1 5.25 3.64 0 -3.6 3.27 -4.28 -2.66 -6.39 4.54 -4.86 4.61 -2.18 6.44 5.04 1.95 -5.51 9.2 1.13 -6.98 -6.58 4.45 4.75 -9.98 -8.05 -4.09 6.29 6.96 1.91 -4.29 4.5 -4.48 6.49 2.12 -5.9 8.66 9.68 0.83 -8.9 -8.71 7.04 2.94 5.57 7.16 -8.71 2.19 5.43 -3.12 7.41 -6.33 -6.61 -2.01 5.38 5.26 4.64 -7.62 8.75 -8.48 -4.11 -2.27 3.59 4.88 -3.76 -7.69 7.5 2.2 9.04 0.65 5.14 -7.16 6.51 7.6 -8.21 -2.54 9.63 5.43 9.07 9.49 -4.63 9.57 -2.84 4.77 1.06 -5.83 2.12 9.61 9.27 4.18 4.62 1.9 9.62 -0.98 5.69 8.26 -5.23 9.43 1.14 -1.89 7.53 -4.14 3.11 5.94 -8.49 7.84 6.5 -1.38 6.92 1.2 -6.87 5.03 -6.9 -5.43 -3.11 3.98 -1.89 -5.44 9.19 -2.02 7.53 8.06 -8.95 0.92 3.11 -0.72 -0.28 -9.43 6.09 -6.06 0.95 1.01 8.5 -2.14 6.35 0.34 6.46 -7.41 -2.13 7.08 6.06 -2.45 -9.58 1.29 6.64 6.55 0.85 -1.31 5.9 -3.6 -1.47 -5.8 -6.67 -2.81 7.15 -3.48 -2.65 -4.75 9.59 1.16 -8.63 3.91 -9.26 9.84 5.14 5.58 4.6 1.8 -2.08 0.33 -6.87 9.41 -1.35 2.78 9.44 3.33 4.73 3.85 3.77 -3.41 -8.08 -5.53 -9.02 -5.07 -7.43 7.04 0.26 8.66 2.72 -9.23 5.73 -5.34 4.66 7.54 3.94 6.64 8.9 -2.37 1.85 -6.69 -8.18 7 4.91 -0.69 -5.53 -5.95 -6.78 8.4 -5.38 -9.9 6.25 -1.31 2.52 8.82 5.42 6.71 9.24 -6.81 -4.11 8.49 6.67 -3.03 9.95 -5.39 -1.5 -3.87 -5.5 9.34 -1.7 5.38 0.11 6.32 -0.78 3.67 0.33 3.23 1.94 -7.85 -0.5 -4.14 7.8 -2.94 2.76 4.22 -5.91 -1.24 -5.29 0.05 -0.97 -2.19 2.14 9.56 9.32 6.46 3.19 -4.5 -2.23 -8.76 8.97 1.24 2.1 -8.94 -1.11 8.76 -7.7 -0.82 5.92 8.29 4.72 -3.35 1.99 -0.82 4.16 8.07 -3.65 7.11 -2.35 -6.52 1.41 -7 8.36 -6.74 -9.64 7.06 -6.73 -0.96 -2.58 0.46 1.37 -8.85 7.3 3.65 -2.57 -7.16 3.86 -1.39 2.9 4.68 -2.13 -3.03 -8.89 -8.78 8.64 -3.97 -0.55 -1.13 9.19 -7.75 3.18 -5.86 8.07 7.3 -0.14 7.82 3.93 8.45 3.63 -3.96 -5.1 3.68 6.27 -8.77 0.42 -2.25 -4.46 0.77 0.54 -1.87 -1.38 7.47 7.92 -4.61 0.29 -2.74 -5.08 -8.95 3.39 -7.46 -6.87 -5.18 5.41 -8.63 -4.44 7.68 -5.13 6.07 -6.78 9.67 7.3 -6.92 8.07 -5.23 -3.94 0.39 -0.95 5.72 0.92 1.38 -8.9 -1.61 5.48 6.65 9.12 -1.64 -1.27 6.69 1.73 2.17 2.94 7.86 5.23 3.95 -1.26 -8.19 5.6 1.5 5.17 -9.97 8.69 -0.18 9.84 9.16 -2.98 -9.78 -8.01 -8.74 -3.74 -8.07 8.53 -1.78 -0.69 -8.79 -0.41 -4.74 -0.42 -8.54 2.63 -6.25 -7.93 3.37 -9.1 -6.82 -9.03 -2.52 -6.76 8.91 7.75 -4.17 -1.6 -2.22 -0.55 -1.01 2.85 2.87 9.07 4.26 -2.95 3.85 8.77 -2.73 -5.94 -2.02 0.1 9.57 6.96 2.04 2.97 -8.74 8.56 6.69 3.75 -0.67 1.63 0.91 -9.64 0.85 -3.7 4.14 -8.85 -2.28 4.2 2.4 -6.85 1.26 -5.84 -8.67 1.11 0.02 -1.7 7.53 -1.52 1.36 -4.82 -4.62 9.61 1.56 1.55 0.06 -2.88 2.38 2.6 -6.4 -5.32 -9.33 3.57 7.05 -4.17 -8.42 -1.29 7.74 -6.85 7.03 -4.45 -8.77 8.78 2.69 -7.21 -5.29 9.95 -4.61 -9.51 -7.09 4.14 -3.83 -5.92 0.14 -5.35 0.95 7.33 -6.7 -4.98 -5.28 -4.57 -6.59 -5.44 7.17 -3.15 -8.09 2.47 1.46 8.53 -3.61 0.06 -7.09 7.04 -4.44 7.22 9 -8.71 -0.53 -3.09 -9.4 2.73 -6.19 -2.64 -2.12 8.17 -8.73 6.11 6.4 0.2 -6.09 -0.89 7.25 9.2 6.75 -3.03 -7.36 -5.81 3.21 5.47 -6.21 -6.58 0.48 8.48 9.89 0.18 0.33 8.81 6.2 1.97 -6.63 4.84 -9.08 3.1 -8.89 5.6 -1.83 -5.8 -2.19 0.19 -5.79 7.72 9.25 5.98 4.74 -7.03 9.57 -5.57 7.15 5.38 -3.11 -9.81 -4.91 7.49 -6.47 -4.25 1.8 0.7 -3.75 2.28 -0.01 7.06 -1.7 -3.79 -4.01 -3.81 -0.14 -8.74 -5.55 3.77 -2.61 8.2 -2.96 7.83 -1.42 -6.41 8.32 2.98 4.94 4.13 8.37 9.62 2.56 -6.08 -8.03 -3.7 -3.46 4.71 -2.9 4.91 -4.26 -3.09 9.75 4.03 -7.2 -4 0.67 -8.59 -2.6 1.14 -5.36 -3.42 -0.52 -6.99 7 -2.73 -2.38 -8.83 5.51 7.22 9.21 7.09 -6.41 1.33 -3.47 -6.92 7.31 4.26 -6.59 9.99 5.51 -1.56 3.85 3.3 -0.87 -9.2 -1.28 -5.98 -9.17 -8.7 5.96 7.15 7.47 7.71 4.91 -8.72 6.02 -8.78 7.38 8.89 -1.01 2.27 1.3 -2.89 9.4 7.3 3.05 -3.56 -5.1 -8.01 7.27 -3.35 -9.42 -3.91 5.17 -2.52 -0.89 1.77 -1.9 5.71 1.25 -3.6 -6.22 6.62 -1.77 -3.06 -4.21 6.48 1.92 -0.77 0.03 0.86 -0.64 -8.59 -7.29 -1.14 -2.15 -2.24 8.12 -8.36 1.68 6.94 5.92 -4.89 0.05 -0.44 3.37 -9.16 -0.53 -2.03 5.49 9.53 -0.7 -1.86 -1.14 8.12 -7.1 -0.12 -5.6 0.54 -0.55 -4.71 -1.68 -6.74 0.3 -9.67 0.72 5.47 6.03 -4.39 4.11 -1.74 -7.71 -9.88 -9.78 1.71 7.1 5.63 -2.24 0.1 -5.97 5.9 2.08 -8.62 9.78 -5.26 -7.46 -3.9 1.1 -7.62 8.13 2.37 1.72 2.51 -2.48 -6.58 4.65 5.8 -5.12 8.34 2.46 7.73 3.08 9.37 -6.07 9.58 -2.55 -2.09 -1.64 -5.89 5.58 6.8 8.77 -7.98 2.4 7.07 3.56 5.8 5.73 -3.12 -4.32 4.92 0.58 7.69 3.14 6.38 5.18 -7.08 6.18 -9.37 -5.75 -0.82 -2.73 -6.36 4.52 -2.77 7.12 0.05 -1.03 -7.3 1.17 -3.27 0.37 -5.78 6.69 -6.79 -8.22 4.03 9.37 1.14 -1.76 1.72 9.61 -5.75 4.08 -6.72 0.46 -0.56 -5.15 6.7 -7.54 7.39 8.94 -4.35 2.94 -1.16 -3.57 4.55 -4.68 -0.81 5.29 9.53 6.43 -5.41 8.64 3.95 5.3 -3.67 -6.4 -0.15 -4.09 -4.27 8.06 9.48 8.17 -3.15 0.23 -8.39 0.69 -4.33 -9.2 -7.43 -5.27 9.78 -2.59 1.63 0.29 -4.23 -4.42 -7.26 -2.09 5.44 0.42 -0.49 -4.78 -7.5 3.66 -9.87 -3.93 -2.77 3.05 -1.16 8.74 9.18 5.9 9.88 2.66 9.16 8.23 -8.7 8.55 -9.35 -1.04 -7.43 -8.72 9.84 -0.9 -3.08 9.36 6.13 -9.71 5.17 -9.75 6.37 6.8 7.07 -3.01 8.88 -6.43 8.28 4.19 1.07 -6.62 -0.61 -2.89 -9.85 3.6 -7.85 8.5 -2.43 -7.48 -6.63 -3.59 -0.56 -7.55 2.73 5.18 4.05 2.71 -1.85 5.51 4.77 6.55 -2.22 3.04 -8.03 -4.54 -0.65 2.06 5.74 -3.73 0.5 -9.35 0.65 8.78 5.18 4.23 9.51 -9.88 -1.46 -5.35 5.05 4.21 1.2 -9.39 -4.49 8.61 2.47 -6.68 4.82 1.6 7.63 -3.18 -2.17 2.01 -6.32 0.41 2.72 0.6 1.93 -4.09 4.08 -7.97 -0.04 -7.08 -2.53 -0.85 5.2 -1.18 6.93 4.12 -7.29 0.72 7.88 6.54 7.88 -2.06 -1.28 5.77 -0.65 1.55 2.73 8.74 -9.88 -0.17 2.18 -1.53 0.69 -2.27 1.3 -3.98 9.02 0.68 -6.82 4.42 -8.07 -5.68 6.32 4.65 -7.27 7.56 -0.11 6.69 3.97 -6.73 8.87 8.88 -3.31 7.99 9.82 5.21 9.72 -5.01 9.3 -4.09 -3.12 -6.6 8.84 5.54 -9.02 -6.86 2.83 -9.45 -3.91 9.36 -5.78 |
-3.98 6.75 4.61 7.67 8.99 -8.75 0.72 5.95 4.14 1.82 -2.26 9.44 4.21 -7.06 -1.22 -0.38 5.15 -3.26 -1.85 3.19 8.47 -5.41 -6.19 0.19 5.91 -2.43 -8.29 6.97 -6.26 6.31 9.16 -9.26 9.83 1.44 1.13 9.44 2.48 5.05 1.03 -4.41 -5.43 8.24 1.14 2.72 -1.59 8.8 5.02 -4.66 -4.94 5.57 1.11 -6.43 -7.66 -6.95 -4.95 -4.73 6.91 -6.83 -3.46 9.54 -1.24 5.67 -5.09 -1.46 -2.75 -0.51 -1.71 -8.51 4.52 -0.02 4.59 -0.2 -8.32 2.58 -7.93 4.89 -7.75 -9.24 -4.87 0.64 0.65 8.53 0.43 -5.8 -2.45 -6.51 5.83 1.28 -5.82 -8.37 1.14 0.99 -9.48 -8.95 0.99 4.76 6.56 8.55 0.65 3.51 6.54 4.26 -9.79 4.42 -5.09 2.58 3.13 8.14 5.49 -8.44 -0.56 -4.37 8.99 -5.1 -1.61 7.77 5.15 -6.15 7.54 2.48 2.93 -0.27 0.83 -8.99 3.43 -9.67 -0.41 -2.75 -2.34 -0.51 -8.25 -5.89 -4.74 -6.43 -8.81 -4.99 9.54 -4.48 5.8 -0.23 -1.66 1.98 3.73 1.69 -1.31 -8.6 -9.85 9.51 -2.38 0.66 -4.83 -0.7 0.89 -8.84 1.75 2.43 -1.01 6.64 3.22 9.9 3.03 -2.39 -7.66 -4.29 3.22 7.46 1.89 -2.71 6.21 -3.01 7.61 5.64 6.22 -3.12 -2.69 -6.37 8.84 -0.33 -0.75 -9.01 1.33 2.95 4.02 -2.24 6.45 4.14 -8.24 9.55 0.34 -6.27 3.11 2.25 -0.69 -1.2 2.16 2.7 5.75 -3.15 -5.63 -4.94 |
-7.44 0.47 0.25 -3.38 9.32 2.21 5.27 -6.88 -5.3 7.61 0.66 -0.56 -3.71 -0.51 -3.22 -9.23 8.29 3.53 3.55 -9.49 -8.29 -4.96 -7.09 1.14 -5.58 -2.86 -4.62 -0.4 -2.45 5.09 -1.65 5.71 -5.03 1.63 0.32 -8.11 -3.34 -5.47 -9.02 5.67 5.85 -1.77 -4.01 -0.18 -7.98 -1.93 -0.67 8.16 -5.62 -4.98 -2.68 -3.86 9.29 -0.72 6.7 -3.16 -4.51 8.62 6.29 7.42 |
