2.14 7.91 0.67 4.97 -1.13 3.27 8.67 5.52 0.76 -1.67 8.45 1.45 -2.01 -6.73 0.09 -1.75 9.54 2.47 8.89 3.83 -0.92 8.92 4.33 4.37 6.67 -4.85 1.2 8.78 -3.65 -9.76 5.8 7.72 3 3.16 3.34 -5.82 1.15 0.01 9.95 1.6 -2.87 -4.75 -4.39 0.23 5.85 8.5 -2.1 5.15 -1.65 -8.55 -2.36 -3.82 7.51 1.17 -3.56 4.41 -5.09 7.5 -8.38 -5.31 -7.88 -1.34 5.57 9.16 -8.8 3.2 -4.16 7.75 -2.58 1.59 -9.66 -5.61 -5.88 7.43 -3.81 -7.1 -8.59 -6.84 -2.07 -7.75 -9.76 3.7 7.15 -8.34 8.11 -2.86 -7.85 3.83 1.96 -9.86 8.33 3.39 -7.42 -1.65 1.25 -7.27 -8.88 -1.82 -5.96 2.94 7.08 -5.26 -2.78 -3.91 -8.79 3.94 -0.98 5.84 3.05 9.29 2.26 1.07 -4.46 -8.52 -3.65 -1.27 -3.93 -2.78 -2.09 8.46 2.07 7.66 3.71 4.47 4.51 5.6 7.16 8.02 6.21 2.24 3.88 -4.44 0.1 -1.37 -0.02 -0.84 -1.85 5.67 5.31 -0.62 -8.94 4.92 -4.08 3.5 -1.93 -9.33 9.67 -1.9 3.83 5.65 -4.43 -6.9 1.96 1.79 9.06 1.52 4.63 8.58 6.1 2.04 -4.22 3.34 -9.47 -6.34 8.23 7.33 -4.86 2.03 3.41 -4.33 -0.95 7.96 3.38 2.25 2.89 -1.04 -4.31 -8.08 5.41 -7.01 -9.04 8.58 -8.09 -5.83 -3.55 -9.46 -4.98 -3.57 0.4 2.65 -5.99 6.11 -7.74 -0.37 -9.67 -6.9 -8.47 3.66 -9.39 9.1 4.97 7.75 2.69 0.84 4.69 -3.02 -8.82 -2.21 -4.66 8.52 -3.51 -1.8 -1.83 -6.55 -1.98 -0.33 1.07 0.89 -6.67 5.13 5.8 1.48 1.42 4.3 0.69 1.3 -4.73 -7.46 7.56 -4.1 -2.22 7.9 6.58 6.89 6.49 2.76 0.4 8.46 6.14 6.78 -0.54 4.13 -6.91 5.27 6.85 2.53 -5.31 -2.04 8.94 -0.98 7.83 8.99 6.1 4.7 1.32 7.06 -8.83 5.79 4.34 -8.08 6.57 -7.28 1.64 -1.45 -0.95 2.36 -4.9 2.9 -3.4 5.48 -5.03 -6.89 1.95 4.31 7.29 6.8 5.38 6.71 -7.02 3.62 0.13 -0.53 -1.81 5.63 -0.68 -4.95 -3.74 -1.98 -2.17 -5.87 -2.35 7.5 1.85 -9.35 1.8 -3.66 -7.83 -1.22 7.97 -9.96 7.15 -2.03 -5.03 -4.69 8.89 -1.65 0.8 -9.54 -4.62 -3.74 0.8 3.14 -2.04 0.21 4.26 9.07 0.87 0.98 6.74 -7.29 0.18 6.31 4.92 -3.44 8.33 7 8.14 -3.37 5.41 -1.06 -4 4.92 1.33 6.72 -7.18 6.98 -8.5 7.98 -8.64 0.25 4.18 5.28 1.27 -4.88 3.95 1.34 -7.43 -4.71 -7.68 4.8 |
-1.8 5.53 3.36 -0.97 4.04 -7.77 6.63 -1.75 -7.51 -8.1 -3.15 2.82 9.09 5.12 2.07 5.52 -8.14 -7.17 6.26 -7.08 6.49 -4.43 -1.35 -8.06 4.5 4.64 -7.06 -4.11 2.51 6.09 -9.64 -0.12 -5.86 3.5 -7.92 3.18 5.82 6.2 -5.36 -2.7 5.12 8.67 -8.29 8.44 3.75 -1.4 -3.38 -0.67 0.62 9.3 -1.61 6.68 2.77 -3.78 4.43 8.31 1.39 9.86 -3.06 -9.15 -3.6 -9.58 -6.39 5.19 -3.22 -1.83 1.1 -9.36 -8.63 -6.54 -1.11 2.52 2.21 6.95 4.52 9.81 2.8 -7.57 -2.5 6.18 -6.76 -6.92 8.94 1.65 -0.31 9.93 -3.73 -1.05 -3.28 3.91 -7.92 5.17 4.83 -8.83 8.4 -7.41 -3.55 -5.24 -6.09 3.93 5.8 -5.81 -8.18 4.43 6.05 -4.7 7.73 -8.89 6.53 4.49 2.03 -7.56 3.13 3.03 8.77 1.22 -4.41 -7.57 6.78 -5.82 -8.28 -3.67 6.73 -2.56 -2.34 -5.3 0.7 7.78 -9.1 -0.78 -7.92 1.68 -4.11 3.01 -5.85 -9.2 -0.05 -4.09 2.88 8.46 4.34 -6.16 2.16 -7.46 2.18 5.74 8.44 -2.61 3.51 3.69 1.89 -1.33 -6.14 4.69 1.84 -5.88 8.29 -1.19 0.28 5.25 5.35 1.81 -1.77 8.06 -9.85 -1.81 0.28 0.59 -9.16 -6.97 2.78 8.2 -1.08 -6.91 2.29 3.04 -7.53 -7.96 5.59 -6.47 -3.59 -8.12 -2.51 -4.36 3.86 0.27 -6.55 -2.17 2.85 5.95 0.51 9.36 -4.94 -0.16 -4.32 6.13 4.91 -0.94 0.24 9.14 3.26 6.4 1.79 -0.03 -2.72 0 -8.83 8.21 -9.18 -8.43 -9.34 0.46 5.96 4.32 -5.27 5.99 -3.26 8.38 2.38 -5.99 3.28 -8.79 -9.66 -8.31 -0.24 6.38 -3.6 8.95 5.8 -7.72 1.86 -5.74 -8.79 4.02 -7.13 5.95 -4.08 3.17 -9.09 7.87 -6.48 -4.94 5.44 -1.17 -7.33 -0.7 9.01 -6.63 -9.92 -0.71 -0.28 5.96 3.26 -2.04 -2.72 -1 5.18 7.77 -2.9 1.33 -5.92 -2 7.29 -7.05 8.05 5.6 5.02 -2.88 1.65 5.43 6.97 -6.63 8.3 -6.91 4.29 7.31 -2.05 2.37 4.41 -9.25 -8.81 -1.37 1.84 -5.53 8.2 -6.15 -3.04 8.26 5.97 -2.74 -9.07 8.79 -8.49 -4.52 -9.1 -9.86 -3.24 2.35 4.54 -4.65 -8.66 -3.36 -1.05 9.32 -1.9 -8.91 -5.89 -1.21 -0.25 -6.58 -7.96 6.92 -8.21 9.83 0.4 -4.72 -3.51 1.81 -7.95 7.9 -1.17 -7.34 2.58 -3.7 4.08 0.33 4.42 8.97 4.98 3.19 3.2 9.16 -7.39 0.99 8.7 -5.73 -3.17 2.01 4.06 2.91 7.36 5.15 6.2 8.06 8.43 8.26 -3.79 5.2 1.4 0.56 -4.29 -2.22 7.36 -8.66 2.14 -7.82 -5.98 7.96 -9.39 -6.17 4.25 2.09 4.72 6.84 -3.94 -3.11 -9.29 -6.27 -8.6 2.14 9.06 1.28 -9.59 1.48 2.18 -8.96 -4.7 1.23 4.15 1.89 -3.69 6.46 8.35 1.15 8.94 -8.9 -5.56 -4.23 -5.07 1.81 -6.45 -6.9 0.61 -8.08 3.84 -3.93 4.73 -5.28 -4.12 7.38 2.95 4.97 -8.96 9.5 -5.75 -0.75 -0.57 -3.8 -7.61 1.04 7.74 8.24 3.02 -1.2 -9.73 1.14 -8.52 2.79 -7.01 9.98 2.15 5.99 7.85 -5.98 9.19 -5.91 0.23 -9.1 -2.78 -7.07 1.61 9.1 -1.17 -6.89 4.15 -1.94 -6.57 -0.46 0.88 -2.2 9.62 1.64 -7.22 -5.06 9.65 -2.44 -4.75 -3.41 -7.27 -0.25 5.83 3.83 7.49 -7.06 -4.24 3.84 -3.87 7.93 -4.66 6.18 -4.19 9.88 5.32 4.59 1.41 -3.9 5.45 -1.93 -0.86 2.71 -4.12 4.89 0.06 3.23 -5.86 8.32 8.49 4.9 8.25 -4.66 7.95 2.3 5.56 1.04 7.11 1.72 -6.22 4.24 1.69 -1.95 2.61 5.35 -9.61 8.17 -8.08 -5.27 -8.43 -0.45 -9.2 -8.67 |
-0.94 0.35 -1.66 7.38 1.8 -6.48 8.27 -3.55 -4.17 4.04 0.06 1.89 -3.77 7.29 -6.43 0.46 9.48 7.15 2.67 -3.32 -5.48 -4.1 -2.73 -2.19 -6.36 5.53 -3.46 2.68 -8.58 -9.39 -9.95 2.04 -0.94 -5.79 5.27 -3.95 -3.93 8.26 -2.54 -3.35 2.24 -3.37 -8.43 -4.99 -6.48 -3.3 -1.93 2.58 4.52 -3.62 8.18 -1.11 -1.88 -9.82 -8.73 7.01 -8.72 -5.87 -7.89 -4.26 7.45 -10 8.98 9.18 -8.2 -6.57 0.31 -8.79 3.76 6.86 -7.62 -3.1 -7.38 -3.72 -1.5 5.63 7.77 -2.91 -3.47 -3.38 4.24 -7.59 0.57 5.67 -6.84 -9.95 3.06 -0.12 -7.59 1.84 5.74 -5.15 -5.5 0.6 -5.74 -4.67 -6 5.29 6.5 -2.12 -1.07 -9.02 -3.96 -2.11 2.14 5.76 8.31 2.44 7.02 -8.78 -6.05 1.4 -8.28 0.26 0 2.59 5.5 -1.63 4.91 6.46 |
