-3.32 -8.44 6.63 3.06 -2.54 -5.76 -8.5 0.64 6.49 8.85 -7.61 -7.05 -9.44 -4.89 3.99 8.07 0 -1.64 -2.65 -2.05 1.14 5.1 5.21 0.66 8.45 9.25 3.69 9.77 -2.32 -6.17 9.01 1.4 -6.09 6.09 -4.84 3.88 -7.29 -1.21 7.89 -2.47 6.94 3.3 -5.73 -8.59 5.96 4.78 8.17 6.7 4.45 7.62 -8.6 -4.68 3.65 -9.78 -9.33 5.27 7.65 -9.47 -2.11 3.58 -8.48 2.7 2.75 -1.05 -8.09 -0.91 8.67 9.15 -0.85 9.21 9.89 3.29 3.9 -0.27 -3.46 -4.18 -8.56 4.98 -0.01 -6.83 -8.4 3.15 1.87 4.1 -7.7 -3.7 8.65 4.96 4.18 6.07 5.2 -6.44 9.63 8.67 -2.36 -6.36 9.4 4.54 4.87 0.13 3.33 -6.81 -3.29 1.27 6.01 -1.75 3.44 9.55 7.92 4.36 6.62 -7.31 -3.66 1.82 8.37 7.96 3.07 4.07 -8.7 8.26 -0.32 -5.87 -5.72 9.01 -4.13 6.7 -3.42 -7.38 3.71 8.29 2.37 -8.12 7.05 5.62 -3.45 8.91 -3.2 -9.96 5.72 -5.67 3.23 -5.42 3.65 5.92 -3.62 1.07 9.28 -9.39 2.8 0.94 7.05 6.77 -9.18 6.57 7.75 1.44 -3.87 1.08 -5.28 7.1 -8.56 3.4 -6.18 3.58 -8.88 2.04 -0.97 0.42 -4.56 -2.7 8.68 2.45 -8.73 0.36 -8.8 2.9 -6.7 -2.3 -8.74 4.43 0.56 5.5 7.9 6.6 6.84 8.97 8.06 -6.53 4.5 4.51 -0.13 6.37 4.6 -1.58 -4.35 -9.22 -6.69 -6.71 4.71 3.47 -2.24 1.57 9.35 8.36 -9.63 -8.45 8.87 -5.78 9.72 8.78 3.38 -7.34 6.57 0.2 -2.77 -4.94 8.79 5.4 -2.07 -9.66 -1.27 -4.26 5.71 1.96 9.53 -2.89 3.09 -7.1 -0.01 9.65 4.03 9.08 -2.03 -7.53 -8.96 -2.1 8.92 -2.31 -0.63 1.78 -9.83 -7.35 5.53 4.16 -4.22 -5.87 -9.34 -7.36 -1.12 8.54 -2.31 -9.59 3.29 5.05 9.44 -1.33 -6.41 6.88 7.32 2.46 -7.38 1.17 4.84 -2.06 8.6 0.73 -2.88 -7.59 -5.58 -6.9 -5.6 6.15 -3.48 -0.61 2.64 -1.69 2.44 -9.35 2.51 0.85 -6.49 6.21 -4.43 7.52 7.03 -7.15 -5.77 -9.97 -6.13 0.31 -9.22 6.51 -6.73 -3.73 -2.62 -5.98 6.13 -3.86 -8.49 7.46 1.68 -10 0.12 8.02 5.02 1.47 4.83 5.77 8.02 6.59 -5.57 -6.44 3 -2.99 1.68 -3.89 -2.1 -1.44 -9.44 4.57 4.59 -9.03 -9.1 -3.04 1.41 -5.61 -3.98 -1.51 4.36 -8.84 3.48 6.67 -7.37 5.92 -3.59 9.95 -6.8 8.56 -4.16 0.91 4.94 5.67 9.47 -0.71 5.71 9.8 5.6 6.3 4.85 -7.02 |
8 -2.37 1.78 -9.66 -6.02 5 7.36 4.2 1.6 5.07 -1.73 6.27 -0.08 -2.9 -8.36 -1.24 -5.91 -6.3 1.29 1.87 0.5 1.59 3.7 7.57 6.57 -3.04 -0.81 -9.45 -7.03 6.41 -2.98 1.81 6.89 9.28 2.89 7.2 -3.25 5.53 4.27 7.65 5.86 9.49 -2.74 3.96 -9.59 -6.66 -8.04 -8.11 2.72 -1.25 0.6 5.04 3.32 8.44 5.96 -3.81 0.74 2.49 -2.56 -3.23 -1.75 -8.17 9.93 3.95 9.21 -1.23 -1 5.96 -3.31 8.3 -3.2 -7.81 0.98 -7.46 -8.74 5.45 8.26 5.26 -8.39 0.38 6.21 6.7 3.11 6.2 -1.85 -4.82 1.88 -7.07 -9.93 -5.88 -1.8 0.78 -1.17 5.97 0.84 3.66 -1.49 -5.28 2.69 -5.05 -4.93 -3.31 -9.72 -7.66 2.53 3.9 -8.07 7.12 0.28 0.77 4.31 -2.2 2.41 -6.68 8.57 7.46 3 -6.04 -6.89 -4.46 -9.74 -5.72 -6.74 -8.27 3.22 -9.89 -8.09 -1.37 0 -2.64 3.52 -8.86 -5.03 0.83 6.07 -1.6 -5.72 -0.22 7.63 0.69 2.18 -2.09 9.82 4.52 -6.14 -6.09 -2.48 -2.91 -7.25 0.73 1.74 9.87 4.71 -4.67 1.43 -6.07 -8.29 -0.56 -3.73 -5.88 -0.38 2.14 9.48 9.59 8.59 -3.61 -2.02 7.88 9.46 4.65 -0.06 -4.1 -8.79 2.37 3.79 -9.62 -0.44 7.93 0.3 -0.71 8.39 2.47 -7.65 -4.13 7.73 -8.63 -8.35 -4.62 2.24 -0.33 -9.58 -3.61 0.32 -7.02 -9.25 -3.73 -3.3 -2.56 -9.27 -6.53 4.35 -0.41 6.79 3.45 2.34 9.27 7.51 -1.17 -2.41 0.05 -7.73 6.33 7.19 6.59 -6.3 -6.78 -8.19 6.5 8.84 2.31 9.68 -9.47 7.15 5.98 -9.7 -9.66 -0.89 -2.25 -9.97 4.52 -7.14 -9.28 0.33 -9.75 -2.99 -7.95 5.28 -4.24 -7.83 4.51 9.55 -4.85 -3.47 9.93 -0.01 9.89 -0.77 4.34 -7.32 -9.6 7.16 8.95 -2.59 -3.8 -9.39 3.62 9.25 6.53 -3.56 0.28 -6.02 1.75 -3.34 3.08 0.49 7.12 -0.21 7.25 -3.41 -6.19 3.98 -2.53 3.82 8.44 5.14 -9.28 3.12 0.95 5.36 -3.33 -8.91 2.57 -8.7 -0.26 0.53 1.1 4.06 7.25 -0.25 -0.11 2.25 8.02 9.16 8.36 -9.48 2.07 1.32 -1.91 -5.22 -0.73 -3.24 8.28 8.97 6 9.3 -5.41 7.64 7.66 5.67 -0.49 9.55 -8 -3.22 6.54 8.03 -4.04 2.59 -1.71 2.55 8.41 -4.21 -8.3 2.47 7.32 7.04 5.69 -1.51 7.82 9.13 0.55 -6.93 5.46 5.28 -4.15 -2.88 9.09 -4.22 -5.24 1.71 -5.43 8.51 -4.24 -5.31 1.33 -5.91 0.55 -4.45 -8.17 -8.69 -5.18 -6.42 3.49 -1.05 4.23 -3.81 1.3 -7 3.12 -1.13 -9.79 8.8 2.88 -4.06 1.09 1 3.78 7.3 5.45 2.45 -2.52 -9.6 0.75 -3.03 -2.27 4.83 2.29 2.74 8.23 1.12 -4.26 2.68 5.37 -1.06 8.92 1.75 0.18 -0.49 -5.82 4.85 3.33 -8.21 0.33 2.3 -5.78 -5.84 -2.25 8.79 6.96 6.49 1.79 7.8 -2.69 0.71 5.57 2.13 -1.8 -5.45 0.03 -7.52 6 -8.22 8.82 8.27 5.54 8.42 -1.53 -9.42 -8.29 -3.07 -6.76 4.99 -9.67 8.95 -9.34 -0.33 3.09 -9.96 1.4 5.59 -3.38 -2.26 -7.3 5.75 5.11 -6.05 3.86 7.09 3.4 -9.5 -6.73 -0.4 -2.21 7.24 1.6 8.33 -8.55 1.37 1.64 4.55 1.06 -2.29 -2.62 -8.63 -0.14 -5.96 5.09 1.55 5.59 1.61 8.27 1.11 1.14 -0.47 9.2 -3.6 3.99 -8.42 -3.34 7.2 6.96 7.09 -1.07 -2.84 5.86 5.52 -2.39 8.96 -0.92 6.61 4.57 -8.47 -5.56 9.78 7.31 5.51 6.6 3.17 6.55 -1.29 -0.04 2.27 0.42 6.2 -6.47 -3.82 -9.33 -9.38 -8.63 6.07 0.72 |
-7.51 -7.71 5.03 9.97 -0.47 -6.74 -2.41 -5.94 4.35 -2.57 -8.08 5 -3.13 -8.35 -4 -9.32 4.93 -4 3.01 -4.27 3.36 -9.8 0.59 -3.53 4.47 4.8 3.9 -2.82 -3.67 2.26 -9.99 4.89 4.73 -0.83 2.64 -3.47 7.57 8.12 1.31 4.83 -8.33 -2.83 -6.47 -7.02 6.59 2.06 9.83 -0.27 -0.95 1.38 -3.24 3.44 5.04 -6.19 0.71 -2.41 -2.45 -4.15 -2.68 -7 -4.31 -0.53 2.75 9.51 -4.24 4.75 1.46 -6.11 -4.94 3.93 -9.16 -4.8 6.94 -8.37 8.96 9.92 -4.84 -3.22 5.75 -3.12 -2.76 -1.95 9.85 -6.67 -3.43 0.53 -7.86 5.21 -6.6 7.89 5.06 3.68 3.06 7.37 3.98 6.47 0.23 -8.1 -5.99 6.66 -3.1 3.05 3.97 -7.83 -5.87 8.71 3.58 1.71 7.23 -9.83 -4.56 2.33 -7.56 -0.57 -2.07 2.01 6.41 5.37 -4.47 -0.71 |
