-7.95 8.69 -2.45 -8.32 -4.96 -1.09 -4.75 -5.04 -0.53 -0.85 -6.01 6.29 0.03 3 -4.87 2.47 5.71 -1.14 6.53 -6.62 -7.08 -7.29 -5.38 5.93 8.96 1.2 1.81 7.18 -7.54 6.55 -4.24 -9.46 4.96 2.5 2.66 2.73 8.75 1.9 -8.09 5.73 -9.93 -7.09 -8.66 3.72 -0.89 -5.74 4.32 -6.57 -8.61 9.61 3.08 -7.7 6.53 -5.92 -9.69 -8.49 -6.27 5.05 -0.99 2.31 0.16 3.34 -6.95 3.73 -0.93 -8.92 4.95 6.31 -6.12 -9.14 8.15 2.27 -2.53 6.91 0.3 -9.38 -3.83 -9.47 5.62 7.44 -2.53 6.75 -1.84 0.15 -3.61 2.41 7.48 -8.78 -6.58 1.57 7.78 -7.57 -1.99 -8.96 7.58 -2.21 5.43 -5.58 -6.58 -1.52 8.08 3.79 -2.19 -6.06 2.14 6.33 4.13 -3.62 7.69 -2.11 -5.97 -7.5 1.63 7.44 4.53 -2.28 -4.68 -8 6.15 -8.72 -4.35 0.52 2.89 5.4 -7.23 -5.65 -5.54 -6.47 -5.23 3.96 -3.52 9.79 -7.17 -2.28 3.41 -5.04 -4.89 0.72 5.61 8.66 -2.91 5.48 -4.93 -7.87 -4.08 -2.75 -0.47 2.61 8.26 3.22 -6.67 1.9 9.65 -0.55 -8.01 8.29 0.95 -9.92 0.52 -2.83 1.21 -6.59 0.76 9.03 -9.2 -1.46 7.43 -0.51 1.51 -2.72 8.19 2.71 -6.26 -7.08 7.94 3.74 0.86 -6.56 3.4 -5.52 3.39 -5.63 3 7.59 -7.25 -6.93 -0.97 -6.2 -3.09 -5.14 -2.47 5.61 9.2 -1.67 -9.54 4.37 1.73 -7.86 -5.81 2.17 6.38 -3.92 9.21 3.77 9.82 8.96 8.9 -7.94 -3.31 8.92 -0.75 -2.85 3.16 -4.34 9.64 5.59 -5.8 -7.57 8.56 -3.58 6.8 5.28 -4.7 9.33 0.89 2.1 3.5 -0.04 -6.91 8.98 4.84 -1.2 6.74 4.47 5.23 -3.76 1.2 -2.66 7.94 -2.85 8.86 -3.4 -4.77 -9.51 -1.95 2.24 0.31 9.87 7.44 -1.64 -9.13 -8.23 9.04 -4.8 7.33 -2.42 -0.67 -5.27 8.54 3.58 -2.25 1.56 -5.88 9.53 -9.95 -7.35 -8.08 2.67 7.6 -2.6 -4.72 -5.67 -5.01 0.2 -4.45 5.03 6.24 -9.91 -8 -6.69 -7.24 -1.24 1.41 -0.5 1.22 -6.72 -5.32 7.21 4.41 2.57 -5.69 8.52 -0.27 0.53 -8.13 4.53 -8.39 5.02 4.93 3.02 6 0.21 7.86 4.13 -4.41 2.1 0.35 -0.47 3.98 4.04 -7.1 2.12 0.31 -4.04 -0.73 -0.78 -8.18 3.58 7.66 -4.48 -8.96 -3.11 7.74 -5.42 1.4 5.07 -3.54 0.85 -5.4 3.44 -5.33 -3.3 -3.89 -2.05 -9.6 0.63 8.45 -4.55 -9.77 -8.01 -8.54 1.1 9.54 -1.11 1.53 7.42 -9.22 -4.85 9.13 -3.2 |
-1.94 0.75 0.42 -8.52 -1.65 -0.7 -5.91 -0.1 3.72 4.96 3.65 -5.1 -0.7 1.98 2.58 1.8 2.58 -8.58 4.43 1.85 -1.56 6.66 4.44 0.86 7.46 0.29 6.47 6.25 6.23 -7.9 0.97 6.55 7.13 -0.36 9.79 9.76 7.39 4.13 5.37 -1.4 8.05 7.03 1.01 -1.62 3.55 -5.21 6.65 -1.33 1.42 -8.76 -9.06 -5.47 -1.08 7.03 5.82 1.5 3.61 -9.23 -8.31 -1.42 1.9 -0.04 4.52 -4.89 6.9 6.62 3.89 -9.09 8.42 -2.22 5.14 -6.1 -0.01 3.18 0.9 -6.09 -2.26 7.41 5.03 -4.05 6.67 5.69 4.56 -2.36 0.2 -9 -7.98 2.02 2.73 -6.83 -4.13 6.48 5.71 -2.41 3.46 4.14 -2.97 7.82 7.48 -0.36 7.05 9.24 3.64 -4.54 -5.44 -4.76 -0.03 -8.72 -3.17 4.82 -0.53 -8.42 -1.96 8.51 -7.29 5.41 4.25 -3.07 1.64 -7.24 -0.42 6.06 -6.57 -1.23 0.73 5.9 0.26 -5.48 -1.38 -4.35 3.93 -3.54 0.57 -9.79 6.48 5.09 -2.35 6.04 -5.07 4.78 -3.25 5.09 -9.63 -0.03 3.58 -0.2 3.04 -3.07 6.85 7.56 -6.12 -7.5 -0.8 1.82 5.7 0.58 -1.34 3.42 -1.02 -0.53 7.58 3.92 6.34 2.04 -1.94 4.38 -8.8 8.06 -5.08 2.9 -7.64 -2.69 0.08 4.08 8.87 -2.93 -3.15 1.61 3.06 -9.86 -2.77 6.83 5.54 9.15 -1.93 -9.99 0.11 8.52 2.15 -7.9 3.88 -0.41 1.11 2.02 2.41 9.43 -5 -3.71 1.09 -3.49 -7.05 -8.57 3.86 6.7 0.32 -2.95 -3.04 0.05 -6.25 5.69 -9.53 0.13 -8.73 -3.12 5.58 -2.01 -7.19 -5.68 9.63 -1.38 -0.63 4.91 -3.04 8.41 -0.05 -9.07 3.45 3.37 -6.24 1.82 -9.89 6.8 -2.14 7.36 9.67 7.1 5.55 -1.34 -6.44 -9.93 7.19 -4.21 8.89 -6.48 2.72 8.96 -7.38 2.69 -7.93 1.47 -4.02 1.62 -7.48 9.27 -3.61 -3.86 3.57 6.49 7.02 3.22 1.49 8.29 -3.52 -6.33 8.49 4.68 1.24 7.75 4.15 6.61 -4.63 0.11 -7.76 -1.85 -7.36 7.75 2.39 -2.31 2.02 -6.2 -2.64 6.95 6.34 0.54 -9.67 -8.19 0.31 -5.82 8.86 -5.01 -4.14 7.8 4.5 -3.06 4.7 -2.92 -6.46 0.73 -9.13 4.97 -3.43 4.92 -9.33 8.26 -5.89 -0.97 5.27 1.98 8.93 -5.43 5.82 -0.62 7.62 2.03 -2.64 3.68 -6.21 9.54 -1.03 1.41 1.13 -9.5 6.87 9.18 0.03 0.44 -0.56 -6.03 -5.96 3.61 -7.53 -9.6 -1.25 -2.56 -2.02 7.98 9.32 -5.69 -6.83 -3.36 8.02 0.77 5.21 -2.55 3.86 -4.65 -9.08 5.31 6.9 -5.75 7.64 9.56 -3.31 -2.74 2.49 -3.83 -3.83 3.23 0.28 -3.87 -0.3 0.96 -1.2 2.29 -3.45 -4.95 4.16 0.17 8.17 -8 2.76 -1.53 -7.37 -5.29 3.77 1.56 3.8 -0.39 -3.32 -6.14 -5.74 6.2 3.69 7.91 -6.09 1.5 1.6 6.46 -9.12 -7.08 -6.19 -0.85 -3.86 -8.83 3.88 -0.45 -1.87 0.49 3.67 -7.71 1.55 1.3 -1.38 3.04 9.98 -8.57 -4.13 -1.22 -6.65 -9.02 4.57 -0.29 2.34 -2.65 -7.69 -9.45 -5.18 -2.38 8.4 7 6.91 -6.33 6.5 5.87 0.45 -8.55 9.84 -0.41 -5.28 2.34 -4.31 -4.99 -3.74 -4.31 -0.71 4.55 -6.14 -3.67 5.59 -6.65 -3.32 -6.03 8.05 -6.12 -3.99 -9.86 2.64 0.26 0.72 2.43 -0.3 8.54 -4.24 -8.67 6.6 -3.47 -4.96 -7.07 -6.25 -4.58 7.57 9.53 3.19 9.99 4.3 0.6 1.65 -1.54 -8.66 -7.83 -2.1 4.55 6.9 -4.03 -2.71 8.36 7.9 5.17 9.26 -6.09 6.41 6.91 -4.16 9.29 4.76 -3.85 1.82 -3.73 1.39 8.68 -7.1 5.39 -5.01 3.42 5.45 2.13 -2.94 2.08 6.58 -2.36 |
-7.76 7.47 0.99 -3.2 6.01 2.79 2.7 -3.53 -3.44 0.45 4.7 8.76 1.53 -4.94 -7.48 -7.83 4.54 9.77 -5.46 -7.83 -6.47 9.56 1.87 3.69 9.93 0.42 -6.44 0.1 -0.05 4.5 -4.34 1.42 -1.4 -1.19 -0.79 7.64 -4.62 -9.22 6.77 2.59 1.61 2.05 -8.27 -0.78 5.15 -6.67 -6.48 1.29 3.49 -4.98 -1.44 6.96 -7.87 -7.93 -8.02 0.81 -1.14 -7.83 7.58 8.36 -2.6 1.92 -0.31 3.97 8.84 -7.36 7.02 -7.7 -0.09 9.18 8.65 -6.76 -3.72 9.51 3.6 -3.43 7.43 -0.21 1.71 -0.89 -8.45 -8.62 2.51 1.58 -2.91 3.74 -8.27 4.63 -0.03 -3.44 -9.39 -6.93 0.87 7.59 3.94 -1.64 -4.23 -7.79 5.62 -1.43 -4.1 3.72 9.58 -5.63 -6.54 -2.82 -5.56 0.54 4.97 -1.76 -0.93 4.23 2.2 1.02 7.75 -5.67 -8.95 2.09 -9.98 0.47 |
