-1.76 4.97 6.69 3.4 -1.55 8.08 6.59 -9.32 5.57 9.5 -3.39 4.37 -8 9.57 2.59 -7.47 5.17 4.59 -8.33 7.66 -5.96 -3.78 4.96 -2.06 -4.74 -5.4 2.35 7.05 9.27 1.88 9.56 2.13 -1.12 4.69 -7.51 5.61 -5.09 -7.62 -3.32 -5.75 4.48 -8.09 -0.8 -9.82 2.19 -2.33 1.66 -5.81 1.36 7.43 2.13 -3.64 -8.48 -9.03 2.2 6.1 -3.91 -8.01 0.91 2.83 3.17 4.2 3.99 1.32 -4.98 -5.3 -4.83 -8.18 -2.63 -5.08 0.87 0.98 -6.78 -5.76 -4.47 7.67 -5.31 3.98 5.73 -0.85 8.51 0.36 -3.87 -3.57 8.71 -4.65 8.14 7.55 -0.33 7.78 0.44 -6.91 5 -8.24 3.38 -6.5 8.68 -5.04 4.65 4.52 -7.02 7.67 -1.55 -7.8 8.91 -8.23 -9.77 5.09 -7.74 -3.16 7.96 -1.47 2.32 3.12 -7.61 0.07 9.19 2.23 7.94 -8.48 -3.99 -9.79 -2.84 2.85 -8.06 3.19 -7.48 -8.98 -4.68 -6.25 7.43 -0.4 1.72 -1.12 1.19 -0.03 8.03 3.01 -5.97 -1.37 -3.84 -4.1 9.61 -1.86 1.76 0.22 5.92 -7.85 9.82 -9.82 -9.03 7.66 9.63 0.89 7.08 3.37 -4.05 9.56 1.01 -1.06 -6.27 -2.78 1.05 3.63 -9.32 2.05 -1.08 -5.83 -8.64 2.17 4.14 7.04 2.41 7.75 -9.46 -1.65 -9.43 6.26 5.76 -1.44 -2.76 -7.05 0 6.37 -9.98 0.21 8.55 8.09 -1.8 9.13 -8.95 3.86 1.64 1.86 4.48 -0.89 3.49 -8.15 -2.4 -6.59 -0.36 9.66 -3.62 1.25 2.94 8.02 -2.35 -6.74 0.87 -3.14 4.82 -2.15 1.36 1.87 -2.12 -0.13 5.57 9.18 9.14 1.56 8.56 -2.94 6.57 7.94 -7.48 4.48 0.65 -8.85 -5.19 -7.48 -9.3 7.31 -4.62 -1.1 3.73 9.38 1.59 8.13 -1.52 0.14 4.64 9.36 8.94 6.63 -9.44 3.98 7.28 3.7 -0.66 9.99 8.46 2.33 7.04 -4.92 -7.29 2.33 4.27 7.48 7.52 3.56 -3.57 -0.49 4.77 -9.28 2.21 5.46 -1.09 4.73 1.3 3.9 2.58 -8.14 -0.16 9.14 3.1 -3.77 0.02 1.48 5.23 0.19 -9.79 3.17 -6.37 1.24 6.08 1.18 -7.46 -5.34 6.68 8.27 0.47 6.85 -3.17 4.58 7.56 2.77 -0.48 9.8 -6.48 4.33 -6.04 -4.2 8.46 9.15 9.78 -4.71 -1.31 -4.21 -1.01 1.52 -0.22 -0.39 -9.21 9.24 -6.91 -0.43 -7.32 -9.82 -6.84 9.44 -4.07 -0.89 1.2 6.96 -0.06 -3.22 -6.6 0.69 9.35 -2.19 7.53 -5.78 -7.52 -6.3 -9.6 0.59 2.37 -5.62 -1.85 -3.49 -1.51 -7.65 -8.51 7.24 2.33 -8.65 -4.35 -0.14 -5.36 0.77 |
-0.63 8.83 -9.56 5.7 6.79 9.73 -6.69 4.75 8.74 -0.82 2.91 -5.69 7.63 -7.53 -6.97 -2.58 -1.89 -6.45 -3.1 -8.27 -6.08 2.82 5.54 2.38 0.06 -2.9 -1.34 5.5 -9.83 0.2 -6.54 -1.35 1.94 0.17 4.89 3.22 -3.42 -9.99 -9.33 2.97 -7.52 -1.19 7.47 -3.58 -7.41 5.66 -3.19 -0.9 -2.83 -4.77 2.69 0.14 -0.31 4.43 -2.69 -9.29 -3.12 0.26 -9.19 -6.43 3.14 -6.7 4.08 -4.23 -3.3 -5.9 -3.17 1.21 9.87 -2.63 -9.39 9 6.37 -8.33 -0.96 3.77 -6.87 -8.9 -4.93 -0.66 -9.79 8.39 4.69 6.59 7.05 -9.84 4.56 -3.84 -6.54 0.79 -3.61 5.37 -9.87 3.3 2.35 -6.53 2.44 5.8 7.38 -1.18 2.52 -4.3 -5.97 7.82 -4.99 4.29 5.45 3.09 7.37 -2.86 -3.85 -9.28 -3.2 0.01 7.17 7.77 -6.84 -9.23 3.41 -6.78 1.65 1.03 3.82 1.05 4.84 4.9 4.97 8.55 6.66 4.74 8.31 0.04 -6.27 7.92 -6.81 9.49 1.59 -5.33 9.41 9.28 6.99 3.79 2.75 -9.77 9.13 5.35 -8.45 -0.93 8.45 7.45 -1.5 3.88 9.13 -7.37 0.51 -7.52 -8.03 -3.9 4.62 -4.49 -7.31 0.78 3.67 8.09 0.14 2.35 -2.03 -3.44 0.87 -8.18 6.22 4.08 -7.69 5.96 4.72 7.77 1.89 1.19 -9.47 2.35 2.93 -1.14 -6.08 1.14 2.05 -2.48 6.36 -4.36 -2.23 0.83 1.52 -4.98 3.8 7.59 -6.94 -7.1 1.47 6.78 -4.49 -8.64 -6.54 0.36 -1.46 -3.9 -5.48 9.63 -0.04 -2.01 0.58 -7.02 -3.89 6.33 8.32 -6.22 3.99 7.66 6.98 6.07 5.02 -2.76 -9.12 1.18 -8.95 -0.5 8.35 -4.14 -4.46 6.21 1.44 5.08 -2.2 -6.11 -9.4 7.55 -3.76 6.59 0.53 -9.87 7.14 4.38 0.54 -9.71 0.61 -9.47 -0.06 -9.66 -6.03 -5.71 9.24 7.2 7.36 5.25 -4.66 0.42 3.56 9.56 -0.25 0.99 9.85 -2.08 -0.91 -0.17 0.84 6.19 2.44 -4.18 -4.29 7.78 3.84 3.65 3.69 2.69 6.83 7.81 -0.12 -4.37 -4.16 0.63 5.94 8.79 6.1 4.55 6.36 -6.49 -4.02 7.97 3.05 -5.59 -4.89 -9.58 0.87 2.74 -3.71 -6.51 -9.31 7.85 -6.55 2.79 0.65 -5.69 4.49 3.34 -1.66 -9.55 -8.91 -7.2 8.88 -8.18 -5.57 5.59 -3.49 -4.67 -4.12 9.43 7.04 6.35 -6.46 -2.65 5.49 4.58 -7.64 2.92 -2.87 -0.48 9.15 -9.66 -5.66 6.38 6.72 -2.93 -3.26 -5.99 -3.81 -9.65 2.27 0.77 -1.33 6.93 -3.54 -0.37 4.42 -4.31 -1.08 0.52 8.06 7.95 -4.39 6.76 -5.67 -9.66 3.51 -2.93 6.07 -6.42 7.56 0.48 -2.86 -2.01 -1.83 0.32 4.13 -8.05 5.35 4.79 -8.84 -9.19 6.41 5.35 -8.63 9.09 0.73 -3.23 -6.99 5.14 -8.93 5.28 6.84 -6.45 1.96 -1.33 3.2 6.35 -1.8 -3.6 2.94 -5.22 -1.35 1.39 9.19 1.46 4.36 3.31 5.55 -2.63 8.9 -2.35 -7.32 3.77 -0.55 -7.23 -8.89 -7.94 -5.21 5.66 -2.86 7.15 8.86 -0.33 0.63 2.77 -8.18 5.75 -1.21 6.71 5.95 -9.19 -3.61 -2.03 5.89 3.51 8.13 -7.36 -4.1 8.59 7.98 -1.34 -8.02 -2.65 -2 -6.09 6.41 -2.84 2.91 9.19 -3.16 7.44 -2.45 1.49 0.44 2.13 8.38 -9.33 5.5 -4.33 3.32 1.72 -2.59 6.96 -0.61 0.24 -4.33 5.32 -4.24 -4.47 -3.65 3.94 -0.85 -4.4 -1.19 -0.31 -0.4 -2.63 9.23 8.5 4.38 -8.86 -9.76 -6.89 -6.62 -5.77 3.39 -0.57 8.58 -4.35 -2.16 -7.2 6.87 -9.64 2.23 -5.97 9.5 6.37 8.53 8.3 4.31 -0.96 -2.07 4.4 -5.2 -4.3 7.2 -5.57 -1.89 -3.8 8.73 -1.05 -7.91 -0.16 7.83 0.52 |
4.85 -2.95 -5.27 -4.65 0.73 -0.71 6.79 -2.54 1.22 7.31 -4 4.74 -9.21 -6.89 2.49 -4.84 9.25 3.02 9.76 -4.58 9.04 0.4 -4.72 2.85 -0.62 -3.67 -5.3 3.22 4.92 8.54 -3.99 -0.6 -0.87 4.92 8.03 -5.25 5.57 5.42 -4.19 -0.86 -0.22 4.9 4.63 9.38 -3.35 -3.21 9.15 5.25 6.82 2.4 -5.75 -1.14 4.92 9.29 -5.5 -4.56 7.92 -0.19 -2.68 -4.03 3.71 -8.64 -8.36 -7.92 -2.48 1.1 -9.89 -8.59 6.45 -4.31 -3.99 -6.01 6.2 -2.64 -8.83 0.18 5.47 -4.02 -1.65 -6.06 -1.6 4.89 -4.1 -1.05 -5.18 -5.35 -2.25 -2.95 -2.61 -3.08 -5.36 4.15 8.96 -9.89 -6.87 -4.21 8.69 -2.73 8.2 6.47 1.32 3.16 -3.1 2.87 -6.01 -0.64 -7.04 -4.03 4.46 9.85 7.68 0.87 -7.59 -9.61 -8.68 9.55 -7.61 -8.47 8.94 -8.27 |
