0.54 -0.84 7.2 5.61 1.81 6.4 1.83 -9.29 1.26 -6.8 -9.69 6.83 2.83 -6.32 0.44 -2.49 -8.23 6.33 -4.28 -3.41 5.49 9.17 -6.02 -1.57 0.38 8.15 -4.37 9.41 9.6 9.14 -8.9 -4.47 -4.89 -8.9 -6.53 4.23 9.5 6.1 4.88 -8.4 -2.58 -0.17 -6.02 6.25 0.25 8.31 6.07 3.08 -2.42 8.7 -4.44 7.26 2.24 2.24 2.07 -5 -5.95 6.09 2.13 7.57 6.9 5.72 -4.18 -0.34 5.78 0.48 2.85 6.58 3.42 2.13 1.43 -1.31 -1.26 -2.98 -8.98 8.22 -3.08 1.74 6.36 -4.63 4.1 -0.47 -2.73 -7.98 -7.77 -4.62 9.7 5.45 -4.68 2.99 -8.62 -7.09 -7.33 -7.25 0.16 8.73 -8.92 6.96 5.22 2.03 1.38 -5.67 6.71 -7.79 -5.4 6.03 -0.01 0.22 0 -3.32 -4.71 -1.41 0.77 9.14 6.19 3.98 3.04 -6.94 9.49 7.04 -0.61 5.88 -8.65 -8.62 -9.26 -2.91 1.97 -3.47 -7.58 -5.01 -1.77 6.69 -8.27 -0.33 -9.92 -4.49 8.76 -1.87 -4.17 -1.75 2.33 6.64 5.96 -1.73 -6.41 -4.51 -8.44 -8.71 -7.99 -6.94 -3.24 4.55 4.54 0.23 -6.2 4.69 -7.4 -2.96 -7.88 9.08 7.26 -8.15 -5.61 -8.25 4.35 -1.35 2.62 -7.51 5.54 0.69 2.41 1.75 -8.95 6.42 0.28 4.83 -8.66 1.11 7.58 -3.95 -5.51 -5.08 -5.6 -6.67 -2.28 -3.63 2.3 9.98 5.31 1.42 2.88 6.27 2.58 5.13 5.83 -9.43 5.58 9.53 7.99 -1.24 -5.85 0.45 -6.3 5.95 8.57 -8.17 0.15 1.2 -7.5 7.42 -7.62 -7.38 1.72 0.7 -3.8 -9.01 -0.73 -0.75 -4.09 3.78 3.07 3.09 -5.5 -3.22 -3.46 -8.04 -1.95 -4.9 7.85 -1.55 -5.32 0.13 -1.39 -9.85 -6.34 -8.13 3.19 3.7 7.12 -3.27 7.1 -6.96 4.06 -8.47 8.34 9.78 1.76 -4.2 -1.41 3.87 2.52 0.47 -8.33 -0.47 -5.93 4.01 -8.17 -6.46 2.29 6.69 -1.37 6.45 4.08 5.77 -9.68 9.34 -1.45 0.19 2.35 -3.59 -0.78 -6.54 -9.34 2.04 -8.74 -7.41 1.42 4.96 -7.3 2.52 -9.88 -5.5 2.81 -8.84 9.81 -1.77 6.05 2.83 9.82 -5.68 3.32 -7 -8.66 0.7 7.5 3.63 -7.62 -7.98 -9.73 5.75 -1.64 6.8 -6.91 6.06 3.74 -1.98 7.66 -9.49 -0.28 5.84 7.96 -1 -6.28 -2.03 -6.63 -4.37 5.1 -6.63 8.26 -3.31 6.96 -3.48 -0.08 6.6 8.05 2.42 -9.63 -5.41 8.29 3.23 -5.07 0.9 -4.76 -3.14 4.56 1.12 -9.22 -5.16 7.78 4.18 3.12 2.67 4.57 3.13 -2.65 -3.2 3.07 -5.26 2.65 -4.92 |
3.25 7.78 -6.27 -2.97 0.81 7.46 1.56 6.22 -8.5 -7.38 -2.76 2.82 -7.28 5.53 -7.29 -4.72 4.43 0.58 -9.39 6.57 2.55 0.36 0.72 3.18 3.43 9.17 -7.22 -7.11 -4.22 -9.41 -9.15 -5.86 -6.91 5.67 -4.01 2.1 -1.83 -0.3 -5.86 -0.73 6.69 0.19 -5.78 -8.79 -8.38 -7.25 -8.05 -8.61 9.69 -1.83 -5.99 0.18 8.95 2.06 -5.78 -0.9 4.69 -1.94 -8.97 8.7 -0.72 -8.15 2.07 2.22 -4.07 7.04 -1.41 -8.5 3.9 9.96 -6.67 3.03 0.88 2.43 2.55 -7.63 1.41 8.66 -1.05 -5.68 -5.52 4.72 -8.14 -2.93 1.31 9 2.07 0.86 -0.26 -1.05 -6.49 -3.34 5.8 -5.82 -4.06 -6.35 9.3 1.79 -1.35 9.25 1.34 -6.71 2.43 5.37 -6.31 -0.71 -1.69 1.87 -9.25 -4.78 7.03 -6.18 8.32 2.08 5.19 -7.39 -3.96 -2.12 -3.73 -7.73 7.73 6.8 2.85 4.65 -1.39 -9.97 -9.4 5.51 -1.27 -6.74 4.05 9.53 7.9 -6.27 -2.72 -9.35 6.39 -0.23 1.87 -1.31 2.95 -5.82 -5.41 -2.54 1.21 -3.29 3.81 -8.85 5.57 -4.09 -6.95 -6.21 -6.95 -4.61 -4.81 1.8 -4.62 -1.3 -1.92 -6.96 2.89 8.54 9.99 2.05 2.26 2.85 9.22 0.86 -9.14 -1.52 -1.21 -5.11 2.31 -9.65 9.22 3.93 3.74 -2.55 -0.55 6.8 4.64 1.89 -2.58 -4.31 0.36 5.51 9.53 -4.15 1.47 4.43 -8.58 -4.47 -1.1 -6.61 9.9 -1.94 1.86 -5.77 -1.76 7.27 2.96 -3.64 1.7 8.76 1.26 1.15 6.37 7.36 5.02 -0.32 2.27 9.53 7.23 3.65 -8.39 -2.64 -0.37 6.6 2.14 -5.81 -9.02 4.99 -7.38 -6.41 5.52 -7.57 3.19 3.55 -0.91 -1.94 7.56 6.38 2.43 9.76 -5.47 5.11 4.66 3.77 -5.92 -7 -4.13 -7.08 3.7 -2.73 3.44 -3.57 -7.09 -4.69 -2.13 7.46 4.87 8.31 5.14 -9.83 9.7 6.58 3.92 1.93 4.22 6.14 6.49 -7.4 3.28 2.01 -6.2 -0.66 -4.18 -0.05 -9.8 5.17 -5.56 -5.68 -1.27 4.67 -0.68 -7.33 9.84 -7.56 -6.12 8.93 -1.5 -8.75 9.32 2.94 1.57 4.96 -6.9 -9.59 5.96 5.19 -0.71 -5.3 3.56 -1.1 8.55 -8.45 4.19 9.02 7.95 0.76 -3.42 -9.54 -8.58 -1.07 -1.04 3.61 8.98 -7.81 -1.41 -5.26 3.47 3.51 5.96 9.03 -3.15 1.78 -0.96 -5.63 3.46 -7.76 5.15 -3.21 2 -0.56 -1.41 -6.02 -7.1 9.8 -4.29 5.7 -6.31 7.64 3.85 9.14 -4.54 4.99 -4.71 -9.71 -3.91 9.79 -4.08 8.72 -3.05 3.72 -9.97 -7.51 2.7 -5.89 -9.69 4.57 8.65 4.39 3.3 -7.75 -2.93 -1.07 -3.4 -7.73 -6.53 3.96 -1.68 8.68 6.1 -1.2 8.82 4.75 -3.45 -7.76 8.99 -5.64 9.08 -5.08 -5.94 8.88 -6.42 -9.24 3.49 -0.25 -7.63 9.65 7.37 -9.38 6.32 1.75 -2.63 -5 -8.46 -4.95 -9.68 0.7 -1.56 -6.96 -8.71 -8.27 -9.29 -9.01 4.65 -1.94 0.13 9.27 -1 -7.06 -8.26 -9.35 7.19 8.03 8.06 -8.45 4.87 -7.94 -2.61 -8.45 -8.05 2.76 -4.48 -4.73 7.39 4.37 -1.91 7.82 -9.91 8.48 2.11 9.72 5.35 6.13 -6.83 -6.59 -8.31 -4.45 -7.31 1.93 4.88 -9.69 2.26 5.82 8.66 -6.44 -3.78 -7.91 -2.39 -2.83 6.96 -7.51 0.61 -0.05 0.93 -8.43 -3.63 -5.43 7.82 1.24 -3.63 -5.43 6.57 7.06 -1.94 -8.57 -1.61 -8.63 9.36 4.49 5.32 2.77 4.44 -9.79 -5.41 9.45 -7.86 5.57 4.34 5.81 -2.01 -6.49 9.99 -1.16 2.11 -2.47 -6.86 8.29 -1.94 -8.27 5.01 -9.68 -3.81 -1.8 6.6 -7.9 -4.14 2.04 1.23 9.21 -8.59 0.65 -2.25 1.8 9.17 3.44 -7.5 -8.23 |
7.83 -6.61 8.43 -1.92 6.5 6.08 6.23 -3.96 8.38 -1.63 -9.55 -4.05 5.56 6.35 0.14 -9.86 3.07 -5.33 -4.98 -7.37 -8.96 1.14 6.95 -9.63 7.74 0.95 7.38 9.91 -3 -6.09 2.61 -3.93 -0.85 4.76 7.83 -7.89 -3.84 8.66 0.18 -3.96 5.12 1.93 7.08 -6.78 1 -9.92 -7.75 -8.97 2.91 6.8 4.42 9.26 -3.57 8.59 -0.85 1.76 4.23 -6.34 0.24 4.39 -0.09 7.56 5.86 2.33 3.25 -1.48 -1.13 2.33 -4.66 0.05 7.88 2.04 1.76 -1.79 -1.79 -8.23 -5.3 8.36 1.22 -4.02 6.71 3.71 -0.34 2.61 3.99 5.04 0.2 6.82 -8.49 -0.7 3.23 3.82 3.31 -9.88 -1.85 -6.92 -9.83 -1.14 5.01 -0.78 5.38 -6.11 -0.19 -3.07 -9.92 -9.3 -0.41 3.82 -5.41 4.11 -8.45 7.41 -7.85 -9.06 -8.85 6.09 -5.76 5.73 -5.82 0.17 |
