-2.87 5.96 -1.16 8.7 -1.41 2.47 -9.87 -2.83 0.13 5.24 -5.6 4.32 -0.12 -7.16 1.81 5.99 -7.7 -9.28 -4.53 -6.85 9 -9.8 5.14 -0.73 -0.25 -9.4 -1.43 6.31 6.78 -2.18 1.27 -6.67 -4.48 3.86 7.35 5.9 8.54 -9.36 9.32 -5.94 -7.04 4.01 6.83 -0.66 -3.06 8.22 -7.46 9.54 8.99 -2.05 -2.73 -1.61 -7.9 -5.82 -3.11 -6.2 0.44 4.98 -8.66 2.69 3.92 9.48 -2.16 -3.94 2.27 0.39 7.49 -9.46 5.9 3.58 3.45 -7.25 -8.28 7.51 5.87 0.6 8.09 0.96 -7.62 -4.06 0.16 3.59 4.96 -5.92 3.89 1.78 5.48 9.46 -8.42 -3.04 8.4 8 -5.27 -4.26 0.61 -9.8 2.28 9.31 3.47 6.33 -9.88 1.58 7.16 3.04 7.78 3.68 3.42 8.01 0.29 5.11 -1.68 0.98 3.4 4.38 4.29 5.92 4.75 -7.9 5.44 2.07 8.1 8.17 -2.94 9.56 3.46 -8.14 -4.42 -1.33 9.72 -7.82 7.17 -9.92 -9.33 -2.74 7.62 9.18 -9.81 -9.42 -0.21 7.96 7.03 3.37 -5.99 -0.49 -1.14 -9.77 0.93 -4.83 2.27 -1.26 4.62 -6.39 9.58 1.28 9.16 -9.96 0.91 -0.1 5.42 8.6 3.49 2.84 -1.78 2.32 8.08 4.94 -3.04 -6.12 -4.48 4.06 -5.01 -0.43 -0.17 -3.31 7.44 4.49 8.58 5.78 -9.6 3.42 0.95 5.68 3.25 -8.88 -1.31 -5.67 1.85 -1.66 -0.82 -7.33 2.21 6.3 5.06 5.73 2.96 -2.55 -6.46 7.31 2.06 4.36 -8.36 5.14 -5.24 8.85 7.79 8.93 0.35 8.46 -7.42 4.82 -1.82 -7.44 -9.29 2.74 -3.62 7.19 7.77 2.49 9.36 0.63 1.4 -0.35 1.82 1.15 2.41 -0.15 -5.19 0.97 -1.1 8.5 -5.87 -9.88 3.19 -4.43 -4.77 -1.62 4.96 -9.5 4.74 1.5 -3.44 9.36 -1.03 8.54 1.26 -7.45 -5.53 -6.09 -6.69 -6.89 -7.36 2.56 -1.6 3.55 0.23 -8.49 -8.06 9.19 3.61 -0.6 -6.03 -0.16 -6.29 1.08 -1.74 -1.18 3.58 -7.83 -8.52 -6.18 2.71 3.85 -0.83 6.25 -2.01 8.84 -8.75 8.26 -9.09 0.9 -2.1 -4.38 7.35 9.49 4.53 4.28 6.41 -7.89 7.31 6.41 4.79 2.79 9.02 0.92 8.79 2.7 0.18 2.72 0.55 2.42 -8.7 -3.79 -7.01 2.41 5.2 7.01 5.2 -1.1 9.02 5.94 -4.9 9.83 -8.13 7.2 4.61 1.18 0.82 2.79 2.29 5.56 8.63 -9.14 1.62 -0.95 -7.49 -3.5 0.86 6.76 -8.96 0.97 -6.37 2.34 9.24 -5.03 -4.21 -1.93 -6.26 -9.85 -5.12 -6.65 -6.54 -6.39 -0.18 -8.26 7.77 3.93 -8.84 -0.03 -1.6 2.28 |
-8.16 3.42 1.68 9.57 -1.21 -1.04 -3.04 8.02 -3.39 -2.87 3.27 5.05 -5.98 5.67 2.47 -8.52 0 -9.87 9.43 -9.33 0.01 -9.15 -5.62 -10 3.72 -4.79 -0.83 2.04 -9.74 3.54 9.53 2.83 0.14 3.9 7.69 -1.42 -1.68 -6.43 2.5 -5.7 8.06 -6.4 -9.28 -5.79 3.33 -7.39 9.22 -0.18 -1.98 2.56 -5.25 -0.88 -0.3 4.85 2.75 -1 -6.72 7.77 -8.13 -9.79 -9.36 -6.61 -4.49 -7.7 -0.94 -0.34 4.33 9.8 -7.67 -0.15 -7.75 -9.82 2.1 -3.14 5.91 -9.11 1.14 -0.48 -2.76 -5.29 -8.08 1.4 0.16 -9.95 2.9 6.14 -2.68 -2.17 -5.16 -1.98 4.24 -1.49 -8.76 -7.36 -7.95 7.88 1.5 3.85 -1.71 2.44 1.47 -0.3 -7.43 -6.69 0.63 3.35 8.95 -0.35 -8.05 6.6 -8.32 5.44 2.93 3.85 -4.04 2.13 -7.86 -7.13 -9.75 1.18 8.16 -9.53 1.51 -0.12 8.38 2.55 7.6 -1.21 6.22 -7.44 -8.07 -8.51 -2.43 0.63 -6.97 -3.52 8.47 6.31 4.08 -9.24 3.99 -5.56 -2.43 3.65 -0.14 3.77 6.99 1.35 -5.75 -0.51 -9.73 -7.29 7.62 -4.27 0.51 -0.02 -7.88 1.93 -9.73 -5.85 4.88 -7.36 5.56 -8.82 -7.39 7.23 -2.14 9.27 -6.01 2.18 5.13 0.79 8.61 0.76 0.9 5.45 -7.16 -4.22 9.37 -1.6 0.43 -4.34 -1.49 2.07 -2.32 9.29 -4.08 -3.62 -1.98 -4.2 8.61 9.19 2.32 -8.11 -4.38 -6.8 -4.18 6.81 -7.25 4.4 0.92 1.21 1.98 5.85 9.06 4.61 4.19 -4.45 8.05 1.21 -5.95 5.73 -6.09 4.47 -4.47 5.68 0.31 3.66 5.55 9.41 1.4 1.05 6.51 -0.42 -8.74 -6.08 8.8 -7.24 1.7 6.29 -8.74 7.29 -2.27 -1.85 -5.66 4.69 -8.25 4.04 -3.46 1.99 -1.03 2.25 0.83 -1.39 4.39 -2.44 -7.32 -7.27 -9.37 -8.3 -5.61 -6.94 -4.9 -3.54 3.14 3.62 -6.52 -6.18 1.5 -5.64 2.86 -9.86 9 -3.95 -7.76 1.79 -5.1 5.29 -9.93 7.96 3 -2.42 3.02 3.85 5.01 -1.66 -4.06 0.05 6.44 -2.37 -9.56 4.97 1.26 -2.67 -6.58 -8.89 8.28 -8.32 -4.09 2.55 -0.22 -3.55 3.96 -1.43 8.99 -8.61 9.22 6.98 3.6 -3.96 -8.39 2.63 -3.71 3 -8.74 -0.58 1.79 7.77 -6.97 2.02 5.34 -8.2 7.91 8.94 4.58 -3.6 -3.83 0.43 -2.95 -9.16 2.56 -2.08 -8.31 4.03 6.34 -9.63 -8.72 -9.98 2.58 -4.41 6.55 -1.83 -2.99 -5.59 2.29 8.64 7.06 2.31 2.75 7.02 4.94 -2.15 4.62 -4.94 9.98 -8.14 -5.25 9.93 2.22 8.62 -9.9 9.19 -5.61 -1.99 -0.51 3.44 -4.39 -8.13 -9.3 -7.39 2.35 9.47 -4.99 -3.99 7.07 -2.52 -2.83 2.85 8.96 2.72 -8.35 -3.76 8.21 -1.58 -9.26 3.36 -6.47 3.68 -5.47 -7.1 4.75 9.4 9.32 -0.03 3.23 7.07 -6.85 -9 -2.67 -5.2 1.46 -5.79 3.35 -9.97 5.37 -1.3 -0.36 -3.8 -5.68 -3.39 8.32 1.06 5.39 -0.68 -6.13 -9.3 9.87 4.42 4.77 2.41 0.29 -5.39 4.53 5.9 1.15 -1.86 -3.89 -5.02 0.64 -1.63 7.84 -9.03 -1.48 2.34 4.39 0.58 0.84 -1.12 -5.45 -9.96 3.49 -0.89 8.91 2.12 2.6 0.14 -5.14 -6.58 8.81 -4.92 0.96 8.16 0.36 8.95 -3.05 0.49 5.68 -8.99 -4.37 -5.22 7.85 -9.25 -8.36 -5.72 3.12 -0.79 2.15 -6.73 6.71 3.72 5.83 6.45 5.6 -0.32 -8.55 2.12 4.25 5.58 -1.06 -9.35 2.46 -4.9 9.34 -4.15 0.52 7.09 9.32 -5.76 9.21 -4.82 8.42 -2.43 2.17 0.82 -5.8 7.03 3.51 -0.78 0.66 -9.52 5.89 -0.72 4.47 8.16 2.62 -4.15 8.82 -5.5 -1.57 -0.15 |
1.17 1.43 -8.21 -9.55 -3.65 0.27 -1.43 0.82 -9.93 6.09 5.69 -7.07 2.6 6.23 7.83 -3.46 -8.03 7.43 7.06 5.59 3.3 -0.26 -2.86 9.08 -0.53 -8.98 -6.7 8.89 9.49 -9.75 -1.48 -1.51 -5.83 -6.88 -0.52 5.49 4.97 5.94 2.98 7.66 5.05 6.07 2.16 5.06 -2.83 -3.86 -7.86 5.38 -1.32 1.59 -7.46 9.92 -5 -1.82 -8.67 -7.33 -2.75 8.67 0.97 0.86 5.3 2.63 7.83 -7.6 -8.97 9.62 0.76 7.53 -0.95 1.69 -5.6 -3.41 -1.26 -4.54 3.05 3.37 -5.27 8.96 7.75 -3.21 3.77 -5.37 -2.08 -1.37 -5.05 5.88 0.65 -8.23 -7.92 -0.14 -5.27 7.44 -3.12 -8.72 3.26 -1.54 -2.68 -3.3 -7.99 3.79 -8.6 -6.83 7.63 -8.12 7.82 7.91 2 6.37 -6.77 -4.55 2.01 -4.52 6.58 -8.9 -3.87 7.85 -4.25 6.54 -0.86 2.57 |
