-1.49 -5.41 -6.35 -9.61 0.13 0.3 4.84 8.14 -0.79 9.61 8.15 -1.13 6.49 -8.17 5.63 2.99 -7.34 6.85 -3.63 9.79 7.83 -5.35 6.97 4.64 -6.45 2.31 1.94 -8.51 8.99 8.98 5.54 6.37 8.73 8.06 -4.95 5.89 -2.3 -9.34 -8.5 1.47 6.98 -0.28 6.28 -8.57 4.44 8.98 8.46 -7.86 3.48 -5.02 -7.69 0.56 -2.32 9.63 5.75 2.14 -4.15 -4.42 5.33 4.23 -7.4 4.18 6.64 7.73 -7.38 -1.58 2.59 5.05 -2.61 6.64 4.53 -9.49 -6.64 -8.61 7.47 -2.74 6.97 7.34 8.89 1.4 -3.54 -3.65 -3.84 -5.25 6.37 -8.64 9.73 -9 5.44 6.63 -6.7 2.64 3.26 -5.15 6.94 6.46 -3.64 4.89 -6.05 -2.83 -8 -8.89 -6.75 -7.93 8.52 5.96 -5.6 -7.08 -6.74 4.39 2.41 -5.15 0.14 8.69 0.92 -0.04 -9.09 1.78 -9.21 -3.84 -7.95 7.69 1.1 -9.79 4.64 3.41 7.26 -8.72 -7.14 -8.49 -7.14 4.04 4.08 -5.51 8.99 -8.39 6.2 -2.54 3.82 -3.59 -9.55 -2.06 -9.8 -0.73 4.57 -4.4 -8.47 3.05 0.21 -6.48 9.2 -4.93 2.02 -7.56 -5.69 -2.05 -2.97 8.76 -6.92 6.9 9.75 6.93 -0.91 6.84 3.94 -5.54 -5.36 -9.13 -5.89 -4.68 -1.58 -2.15 -8.43 7.27 -3.04 6.97 -4.33 -1.35 5.9 -3.32 -3.62 8.49 8.2 -4.05 -8.25 -4.07 -5.06 7.23 0.55 4.52 6.96 5.33 -6.66 -1.5 7.98 2.59 -3.64 -7.07 -7.69 7.6 9.93 2.87 7.15 -6.48 7.14 -9.3 -3.13 -3.94 -9.32 8.37 -6.99 -0.2 -1.8 -1.45 9.94 -5.58 3.58 -9.41 8.85 -8.66 8.1 -8.3 8.56 -3.49 -4.62 5.54 0.7 8.04 -9.88 -3.75 0.1 9.61 -2.03 7.52 -6.33 6.58 0.28 -0.35 -3.99 7.33 2.34 -5.65 8.37 -0.79 6.42 5.26 6.77 6.83 -6.88 -7.56 -8.11 -1.69 -7.2 6.05 -2.51 -9.68 -5.1 9.62 9.85 -9.44 0.41 7.22 -9.96 -6.66 -3.97 8.65 1.42 8.99 2.12 -5.33 -2.35 6.75 7.46 6.41 9.44 -0.22 8.89 -7.49 9.02 -4.94 0.64 1.07 8.19 9.56 5.84 2.88 9.56 -5.37 1.49 -4.99 -4.85 1.29 7.52 -8.66 -0.32 5.58 -3.12 -8.05 -0.24 -3.36 6.36 4.26 7.81 8.05 1.8 0.81 0.12 -6.77 -9.79 4.61 -9.25 -9.73 -1.87 4.83 5.4 9.11 9.69 8.7 3.66 0.44 1.76 -0.54 -0.78 -4.53 -1.69 3.39 8.94 9.41 -5.39 -1.37 9.65 5.66 -7.71 -5.6 -5.7 0.37 -7.06 -6.65 -5.84 6.72 3.19 -9.14 0.97 -8.96 3.25 5.68 -7.94 2.04 3.03 6.29 |
6.64 -2.53 7.34 -8.87 -3.02 -9.3 1.96 3.4 3.74 -8.57 -2.13 -3.24 9.07 -6.52 -8.58 9.88 -0.7 -2.92 -8.42 9.71 7.05 -2.36 -4.34 7.36 3.79 -5.71 2.12 -1.91 8.49 -2.4 -8.57 -4.46 -4.34 -6.82 -9.25 2.88 6.58 8.81 -7.02 -5.58 -8.94 5.85 -8.23 -5.56 9.67 -4.45 5.2 3.6 -2.76 -1.04 -6.44 3.97 3.55 -4.58 4.86 1.1 -8.19 4.16 -9.62 4.1 -5.89 3.15 0.41 -0.68 -9.64 2.01 -5.01 4.63 -6.19 5.86 -5.32 5.69 9.83 2.62 6.15 -6.93 4.08 -9.76 -7.5 -7.31 -7.53 7.96 -2.3 -5.62 -6.52 -1.73 5.12 6.33 -7.19 -1.27 -2.11 -8.05 4.99 -2.89 9.73 -4.63 6.01 -0.85 -1.72 6.6 1.47 4.95 1.1 -5.45 -3.52 -4.4 -3.74 -0.83 -8.06 -3.42 5.98 -4.53 1.34 1.64 -3.8 -7.84 8.15 -6.7 -0.42 4.98 6 5.84 -3.66 -2.79 -5.61 -0.28 -5.41 5.28 -3.87 0.55 6.8 -5.1 8.3 5.92 -3.29 6.99 -3.39 6.06 8.17 -8.68 0.12 1.81 -3.26 -2.17 2.73 2.04 5.6 -2.23 -7.29 0.01 -9.23 -9.27 -6.99 7.73 9.79 -3.44 6.65 5.18 7.84 -0.52 8.98 0.2 0.99 -9.39 6.46 -5.84 8.73 -6.49 8.91 4.15 -3.45 0.38 -9.42 9.57 4.21 5.26 2.82 -1.39 -2.59 7.83 3.06 -0.59 7.44 6.65 1.57 -3.41 3.91 7.68 9.45 -7.46 8.26 -6.9 7.14 -5.99 4.76 9.74 1.23 -2.83 3.61 7.46 9.22 -3.01 -9.65 -5.13 6.94 1.36 -6.71 -3.64 -3.84 3.2 2.64 8.97 5.72 5.29 1.21 5.87 3.05 -3.03 -4.15 6.71 2.93 1.56 -0.11 -8.56 4.93 9.56 0.02 5.7 -7.37 -7.15 1.97 -3.54 -7.55 4.21 -4.81 4.08 3.69 -7.86 -4.57 5.69 3.53 -3.06 1.82 -7.26 -0.39 -3.3 3.21 5.7 -0.92 5.2 -0.28 5.52 -5.47 0.76 -4.51 2.75 -5.46 -3.86 9.68 -7.15 7.66 -8.86 -9.07 0.46 9.66 -4.31 -2.86 2.97 -4.32 -5.49 -7.34 7.35 7.89 0.65 -3.01 7.41 -2.98 9.12 5.95 -7.83 5.01 -6.12 6.02 9.77 -4.82 0.82 -4.47 1.98 4.55 9.49 -3.06 -9.29 6.46 -9.09 3.02 6.18 -0.95 -8.83 5.74 2.2 9.68 4.08 9.75 -3.1 -9.82 -4.17 9.5 -5.24 -4.42 4.66 -2.78 2.55 1.58 -9.81 5.91 6.95 -5.32 -9.99 7.43 -6.53 6.64 -4.03 7.23 3.47 -5.17 -1.42 7.6 0.98 0.46 -8.85 7.9 -7.75 3.54 -8.72 4.95 -7.54 2.29 5.83 -6.14 -1.77 -3.86 -4.49 4.55 1.07 -7.16 -9.03 -6.52 -7.02 6.08 -5.56 8.58 8.06 0.71 4.58 4.29 7.42 -9.47 8.46 1.94 7.72 3.54 -6.33 -9.1 7.34 -1.48 -8.29 8 -9.5 7.34 4.94 3.46 -8.31 -6.07 2.99 -5.11 8.57 5.25 -7.36 9.18 -2.6 -1.95 9.13 9.03 2.74 -2.39 4.23 -8.65 6.2 2.75 3.24 -5.55 1.78 8.48 -1.09 4.76 -5.56 -8.42 -8.45 -3.82 -5.74 -4.29 -9.17 -6.2 -1.33 6.39 9.45 9.02 7.96 -3.03 -9.95 6.07 -5.67 -4.29 8.7 3.26 -8.25 -4.82 1.98 -7.43 -5.93 -9.87 6.44 4.32 3.07 -0.77 2.63 7.89 5.25 6.6 -4.57 9.55 7.29 5.67 9.12 1.33 -6.28 3.41 -9.68 9.48 -4.15 -0.95 -0.64 3.62 -1.33 3.11 -1.99 7.46 -4.59 9.68 -7.87 -3.45 -3.68 -5.05 -9.26 -5.29 -1.58 -4.85 -5.33 7.34 2.67 -3.97 8.69 8.48 -8.89 1 -3.3 0.7 7.04 -4.41 -4.76 -5.71 9.77 2.3 -9.56 7.52 3.8 1.48 3.57 -1.65 -9.19 -2.53 3.21 7.9 -6.08 9.4 -9.15 8.8 4.56 -1.88 -5.38 3.01 6.37 4.73 4.23 -8.45 -0.72 7.05 3.17 1.14 9.3 |
6.52 -6.12 7.05 8.86 4.65 3.33 -1.59 -8.98 -8.66 -6.14 -0.39 0.59 6.54 2.72 9.65 -0.34 -6.04 -5.75 9.55 -8.28 -0.35 7.53 -4.11 -3.72 -1.28 -9.59 -7.29 3.43 -4.21 -5.82 -4.62 0.45 2.23 -5.52 1.19 6.88 6.66 -4.82 -5.74 -0.26 6.88 4.55 5 -3.6 4.96 5.47 0.48 -1.56 -4.49 -8.86 -3.44 -6.39 -2.62 -3.04 3.92 -3.94 1.64 2.56 -2.33 7.77 6.66 -6.77 6.75 1.59 -3.02 5.06 5.58 0.14 7.75 -5.82 9.17 5.52 8.74 8.4 5.15 -3.97 0.15 8.93 2.36 -7.35 -1.23 0.15 -4.24 -1.98 -2.48 -7.85 3.7 -9.37 7.5 6.13 -8.7 -3.48 -2.57 -9.92 0.56 -8.64 5.81 6.6 1.24 -1.07 -4.68 1.55 6.07 -7.15 2.37 6.41 7.85 9.36 9.43 1.76 2.36 1 5.06 1.53 6.46 0.14 5.79 6.67 -8.97 -4.38 |
