9.02 7.25 4.72 -9.81 6.37 -7.34 -6.86 7.44 9.94 -6.18 -1.48 7.37 1.68 -9.94 -6.52 4.54 -9.13 1.31 8.15 -0.54 2.75 9.72 -8.74 0.16 4.61 -8.05 -5.33 1.97 4.97 5.53 -2.89 1.27 -7.73 -3.89 -6.73 6.36 1.89 -7.13 -7.37 -0.99 -5.45 -2.76 -2.71 -7.76 -5.39 -5.28 -2.77 7.77 -7.62 -0.16 -9.6 9.07 3.27 -7.66 -8.8 -2.26 4.98 -1.4 6.91 -10 0.76 -9.74 4.81 0.93 9.27 -8.73 0.07 -0.57 5.45 8.76 -2.7 -6.9 -1.08 -1.69 -0.95 3.67 -3.56 8.91 -1.05 -3.14 -3.03 6.06 5.05 4.96 -5.24 -3.15 6.46 1.34 -3.17 -8 -3.72 -7.55 -2.58 -6.14 -8.29 -8.55 8.32 8.98 3.18 0.93 8.27 -1.69 -1.19 5.51 -7.14 -5.66 -5.99 8.31 7.57 4.35 1.28 -6.36 -8.23 4.9 3.71 -1.69 2.83 0.95 -0.79 7.82 -7.05 1.09 6.25 -5.48 -9.51 8.98 4.28 3.41 -4.56 -5.29 -0.34 -1.87 -8.66 4.6 5.58 -6.68 4.29 -9.85 -8.76 6.45 4.01 -4.5 -7.88 -1 9.05 5.19 -3.8 -7.1 -6.63 -7.28 -2.84 -5.1 3.53 -1.54 -8.73 0.13 -3.03 4.2 9.93 9.53 0.04 -6.14 7.06 -8.88 -9.67 -4.23 -8.48 2.76 5.85 8.52 -7.89 -0.07 -2.43 -3.51 0.66 8.04 7.55 -2.22 -6.76 0.35 2.01 -9.93 3.48 -4.09 4.67 -4.21 1.07 -9.78 4.26 -0.2 -8.2 -8.48 -5.71 -7.28 4.34 -5.92 7.93 5.62 8.34 -9 7.64 8.41 9.65 3.01 0.7 -2.91 1.42 -2.38 3.79 5.47 9.05 -3.25 9.94 0.13 7.72 -1.49 9.56 4.33 -3.23 6.25 -2.16 -4.11 4.41 4.84 -9.13 -6.31 0.27 4.55 5.79 -6.43 -3.38 -0.07 3.98 -2.23 1.29 -4.74 -9.87 -6.65 -1.82 -3.85 -3.77 6.74 3.44 8.01 -8.05 5.91 -2.89 -0.56 -8.16 0.65 3.8 -6.63 9.83 4.77 4.37 -2.29 -5.58 1.88 -8.29 -4.56 -3.05 -1.94 9.44 -2.36 -0.76 -7.69 3.3 -8.08 -1.83 -8.19 -8.6 0.11 2.48 6.12 -7.56 -5.53 -3.94 9.64 -9.53 3.16 9.26 8.39 2.84 0.34 6.61 8.56 0.48 -3.66 8.53 -1.02 1.96 8.2 5.17 -3.64 -5.25 6.11 -5.75 7.32 5.56 7.48 -0.16 -2.54 -1.03 -1.32 1.38 5.41 0.53 -0.52 8.16 5.81 7.22 8.08 3.34 2.73 3.48 -1.26 2.88 3.07 -7.11 3.12 8.06 5.98 -3.65 0.69 1.96 3.93 -8.87 -6.2 -5.26 -2.97 3.94 6.58 -8.52 -5.35 5.94 -8.82 -4.96 -9.9 6.86 -2.14 -4.33 7.4 -6.55 -4.6 0.92 5.97 1.84 -5.52 4.39 0.81 |
4.97 -9.56 2.58 -1.47 -6.47 3.26 -4.02 -5.68 2.74 0.2 0.37 0.42 2.61 0.29 0.13 9.81 4.62 -2.06 -8.19 7.5 6.89 -1.6 8.68 2.07 8.15 7.61 -6.6 7.82 -2.85 8.7 -2.06 6.81 1.06 4.53 6.65 -6.49 -6.04 1.18 4.51 6.12 -3.45 7.1 8.28 9.36 0.96 7.27 8.72 1.38 -2.75 3.3 2.57 4.02 7.32 5.68 -7.14 8.15 -0.62 8.04 1.87 -9.98 -0.7 4.8 -0.2 6.61 -6.36 3.26 2.13 3.25 9.32 2.86 -8.91 -6.76 -9.32 -1.5 -5.08 -7.13 1.07 -7.01 -0.8 9.99 -1.78 -4.65 -4.06 -2.88 -0.6 3.14 -2.99 4.44 0.89 -6.61 1.37 0.7 1.85 -8.35 5.02 -6.69 6.42 -0.22 4.43 -1.91 -3.8 5.72 -7.83 -2.74 -4.92 -2.78 -1.92 0.2 -3.72 -0.29 1.14 4.94 -2.86 -1.52 -1.35 8.59 -7.06 -1.85 -8.41 -9.68 6.84 -7.65 8.82 1.23 -3.34 -4.64 -8.93 3.42 -6.58 7.7 4.78 -9.13 6.71 9.48 -1.16 3.28 8.2 7.46 8.47 0.81 0.2 8.86 2.85 0.56 -3.46 -0.98 1.88 -9.38 4.98 -0.34 -7.76 -7.01 -3.64 6.73 3.3 -4.67 9.01 -7.32 8.41 1.79 -0.99 0.62 1.72 5.47 9.51 2.28 -7.92 6.58 -8.07 9.63 -3.3 -7.69 3.16 1.92 8.08 3.84 5.99 -7.91 7.92 -8.67 -3.66 8.38 5 1.62 -1.31 -5.84 -0.86 -8.77 9.97 6.56 1.2 -8.38 5.52 8.84 -5.9 -2.11 -4.31 -9.08 2.47 2.7 3.02 -0.21 -7.3 3.65 -6.69 -6.15 -2.01 4.73 -1.97 -0.87 6.18 7.78 -7.29 -8.16 -9.41 -2.62 5.09 2.88 1.37 1.62 -3.42 -8.85 -5.9 -0.77 -3.4 6.91 9.6 9.51 -1.39 4.22 -4.15 -8.75 4.05 -1.22 -4.86 -1.44 5.67 3.15 1.03 -8.7 -0.94 6.26 -0.14 -1.65 -0.03 0.04 7.51 -3.72 2.24 -2.81 -1.72 -3.83 2.31 8.25 -3.16 1.77 5.74 3.91 -1.5 4.74 -1.82 4.83 -6.3 -3.27 -9.93 9.92 -2.09 4.35 1.87 0.55 -0.14 -1.19 -9.37 -5.83 -6.67 -9.59 -1.16 -4.15 -7.62 4.83 -8.83 -4.31 1.01 3.87 -3.96 1.01 7.55 -2.69 -1.29 -4.78 -9.35 -8.69 -8.72 -9.53 1.43 -9.75 5.62 -4.32 -4.99 -0.44 -8.81 1.66 -6.11 7.41 -3.99 -7.41 5.16 8.44 2.2 5.83 4.22 -1.58 -4.8 -6.73 4.09 -3.14 3.54 -6.78 5.3 9.81 -5.71 -7.78 -0.66 -7.7 -0.65 8.2 -5.09 -6.78 8.16 -9.26 -4.75 0.4 3.64 -3.45 -9.39 2.74 -9.52 -2.26 9.77 9.18 7.46 4.32 2.01 -1.11 -9.07 8.42 1.97 8.97 1.12 3.23 5.33 2.39 -2.48 -5.73 -5.69 0.79 8.01 7.33 6.8 3.27 -7.9 -2.59 8.66 3.02 8.36 9.89 6.41 6.3 -7.67 5.66 4.88 4.56 2.09 -7.93 -5.52 1.89 4.7 -4.94 7.99 8.56 -9.82 -2.42 -3.58 -5.12 8.64 7.83 1.74 -9.38 -1.81 -9.29 6.32 -5.82 -4.6 -5.9 -5.71 -7.11 -7.78 -0.07 -5.59 -0.96 -6.28 -3.1 -9.02 2.56 3.04 -2.25 -4.03 -7.36 -4.37 -3.53 9.05 7.38 -0.87 6.08 6.95 7.92 -8 4.55 -1.28 5.46 7.66 -3.53 1.89 3.29 1.94 -2.03 3.58 9.53 -0.97 6.73 -4.08 2.05 9.43 1.52 9.51 -7.21 8.44 0.34 -2.07 -9.29 5.83 7.18 1.9 2.73 -6.95 -0.16 2.28 2.11 2.15 6.31 -0.69 -7.31 -9.1 -2.32 -6.88 1.66 -2.54 -0.54 3.05 0.24 -0.7 5.63 4.71 -5.09 0.64 -8.14 -4.52 6.4 3.03 -2.9 -4.37 -0.11 -7.61 2.4 -3.86 4.97 -4.43 -5.79 0.17 -9.72 -9.5 -5.88 -3.52 8.78 -2.58 0.28 7.34 4.52 -9.13 7.64 7.31 -7.96 7.3 -9.18 5.08 -4.07 4.78 9.49 -3.42 -1.93 |
-5.73 -1.93 -8.07 1.87 5.81 -4.82 6.2 -7.88 -9.75 2.83 4.31 2.94 -1.42 5.4 2.92 -2.74 8.32 3.88 -0.17 -5.3 -2.93 -4.02 -0.19 -5.05 -7.17 7.56 -2.05 0.52 6.59 -9.05 8.76 -6.55 -6.05 7.34 -4.03 -2.44 5.54 1.07 -4.14 -9.85 1.96 -6.55 -5.32 6.17 0.56 1.33 2.22 2.35 7.98 7.52 7.97 -5.74 -7.1 -4.38 -0.69 -9.19 -5.89 -5.41 -4.1 -1.76 -0.36 -4.87 6.25 -9.91 -9.14 0.86 -1.75 2.4 -5.17 -8.41 5.04 -4.04 5.9 2.31 -3.28 -7.19 -6.93 -5.81 5.63 -7.99 3.44 -6.64 -5.38 -1.66 1.31 3.62 -2.81 -6.15 6.47 5.11 9.3 -6.87 -3.76 -5.74 -4.89 -4.01 -2.45 2.37 -0.56 -2.25 -1.75 -1.97 6.71 5.97 -5.93 4.61 9.63 4.56 4.31 5.68 3.62 -9.74 -1.89 0.79 -1.06 -3.5 8.89 1.99 4.98 4.87 |
