0.61 3.04 -7.72 4.71 -3.77 9.86 -2.87 1.9 -9.37 -1.94 6.57 -8.42 9.89 -2.5 8.9 -8.1 -2.69 -3.23 2.22 2.23 -3.35 -0.24 -6.55 -8.06 4.13 6.41 6.82 -4.85 -0.91 5.83 -2.25 5.84 1.66 4.6 1.73 0.88 -3.09 -9.91 0.61 5.98 5.86 -6.04 -8.23 9.14 -3.61 -3.43 3.26 3.28 -2.44 2.25 8.33 1.8 -2.1 -4.92 -7.42 4.77 -8.62 -2.33 -7.02 5.34 2.94 -2.96 -8.71 -5.35 2.2 2.6 9.8 -9.26 -8.9 2.33 -1.37 4.03 9.21 9.97 3.9 4.85 -8.15 8.36 9.36 9.35 5.03 -0.86 -7.84 3.74 -7.12 -9.29 4.55 -3 -7.6 9.12 1.07 -3.84 8.98 8.28 -2.65 -8.18 -5.26 -8.21 -4.76 1.53 -5.28 4.9 3.92 -1.8 7.21 -0.82 -0.37 4.15 -7.8 -8.14 -9.78 4.38 -4.73 -6.15 -5.73 -3.23 -1.95 -6.99 7.3 0.37 -2.15 8.01 5.49 -0.44 -2.4 3.72 -9.9 1.01 -7.25 -5.29 -4.79 -2.31 6.15 7.49 9.13 -9.35 -6.13 8.3 -0.53 6.1 2.66 1.53 -0.3 2.03 1.27 3.06 0.67 -0.59 0.67 3.62 -8.28 3.73 9.03 -9.47 -3.68 7.02 8.74 6.42 -0.94 6.56 -4.69 1.33 -5.32 -3.91 -0.8 -1.32 -5.33 3.23 2.58 1.2 6.1 8.64 2.33 -6.33 -1.35 4.12 8.97 4.96 -6.76 0.58 4.97 -6.32 -8.05 -3.81 9.4 3.88 -6.99 0.06 -1.71 0.45 5.97 0.63 -4.28 8.26 9.99 4.02 9.2 -3.98 -6.62 7.14 4.08 5.7 -3.83 -9.92 8.65 8.03 1.78 2.84 -8.88 2.44 4 -1.32 -1.87 8.6 -9.41 4.67 -4.39 -3.59 -3.91 5.18 -0.52 8.65 -0.15 5.43 7.12 -9.6 2.46 2.25 -4.98 0.61 -7.66 -3.87 3.83 0.79 6.58 -3.72 5.55 -6.66 -4.41 -5.28 -1.73 6.6 -6.04 3.1 -9.03 7.31 -9.22 0.28 -8.86 9.59 -8.45 -3.06 -9.01 2.76 4.8 -2.05 -8.14 5.37 -6.5 2.36 -7.53 -1.57 -2.76 6.39 -5.83 7.39 -5.28 5.02 7.62 -6.73 3.88 5.32 -4.74 -3.5 3.63 -7.47 7.65 7.08 -9.38 -0.84 8.53 7.09 -1.26 2.65 -1.87 3.9 8.88 7.43 -3.38 9.18 -8.45 -9.47 -4.28 -7.68 0.84 2.94 1.34 7.45 9.47 8.44 9.66 -6.31 -0.35 1.98 -8.95 -5.54 8.2 -1.66 -5.38 -9.1 -0.94 -5.58 -1.26 -5.68 0.8 -8.06 -7.29 -5.08 -4.45 1.22 -3.95 -2.74 5.54 9.17 -6.39 0.18 -4.33 3.27 -4.56 -0.83 -5.68 -0.69 2.46 9.72 -9.91 4.1 -1.66 -5.58 -8.15 -3.81 1.19 3.96 1.88 5.39 3.12 4.29 -5.02 -3.46 8.71 -9.35 |
-2.73 8.06 2.01 0.3 4.11 0.34 1.23 -0.07 1.88 -3.06 6.11 3.78 -3.51 8.43 -0.3 5.1 2.54 3.34 1.19 6.51 6.96 6.16 -3.79 -5.1 -6.05 -2.02 5.25 -4.76 -4.94 3.26 8.95 5.74 -8.61 8.49 3.05 0.54 -7.18 4.02 0.01 -5.01 -8.44 4.99 3.22 -4.67 -0.78 5.02 -2.25 -3.02 1.44 -4.86 9.03 9.73 -8.52 -4.56 -8.3 1.53 6.67 3.51 7.24 -6.43 -2.49 7.2 9.91 -3.11 -4.62 -8.89 -9.45 -8.85 -0.8 4.68 -2.65 -4.44 -8.1 -3.95 7.48 7.22 4.68 -9.24 -6.81 2.42 1.31 -8.26 -2 -8.52 -4.25 -8.26 5.82 4.49 3.11 1.94 -0.01 -8.34 -5.19 5.33 7.63 5.99 3.09 -2.83 -2.16 1.99 -9.67 -3.02 -6.22 9.01 3.82 7.28 1.73 9.99 9.69 9.96 5.7 -7.82 -9.61 -4.7 3.57 -4.15 2.39 -5.43 -0.75 -0.62 -1.98 3.37 3.3 7.2 4.34 -9.64 -8.22 -7.12 2.22 -9.81 -4.51 4.69 -8.93 -6.77 6.72 -0.87 -8.66 -7.3 -2.09 9.89 -0.65 1.25 -4.77 -6.28 -6.08 6.62 -1.64 -2.4 -9.01 7.26 4.21 0.2 4.95 -2.35 -3.5 -4.36 -4.1 -9.46 -7.71 -5.31 5.94 -0.97 2.08 9.79 0.61 -5.56 6.94 6.67 -8.63 6.95 7.48 -5.22 -6.43 1.99 5.17 7.81 8.41 -4.35 0.7 -1.3 4.46 -8.77 -9.41 -2.48 -5.76 6.45 -7.39 -8.72 2.62 2.27 2.18 -5.34 -8.68 0.95 -7.59 -5.44 -2.33 3.24 -1.45 -3.9 8.2 -7.3 6.9 2.29 -7.2 2.97 -0.39 -2.58 -6.6 0.04 -6.97 -5.39 -2.09 0.02 2.5 1.27 -2.3 -8.88 7.38 -3.96 6.77 -6.3 -1.88 5.27 8.75 4.78 -2.13 1.28 -0.82 -7.81 -1.8 0.99 -7.76 -9.35 -4.34 -0.16 3.31 0.57 5.01 2.97 -1.26 -8.52 -6.1 -3.42 5.5 -1.52 6.54 -3.95 2.2 -2.38 6.69 6.39 -5.95 -3.65 7.89 -2.79 -9.54 6.25 -3.38 2.95 9.65 9.03 2.4 0.43 -8.7 -8.46 -9.29 -8.67 4.51 -5.98 4.72 -8.35 -1.08 -0.25 -0.66 -9.62 9.65 -8.24 7.37 1.53 4.31 1.61 -5.35 6.23 -7.47 -0.84 8.58 1.8 9.35 -5.88 -0.87 1.98 6.05 0.99 8.24 -2.91 2.56 4.15 7.24 5.12 -1.17 4.77 -1.33 -9.34 3.31 -4.93 1.73 -2.19 -6.19 -1.27 -1.38 -1.35 6.9 -7.5 -6.18 -2.33 -7.02 -8.59 2.19 4.21 -1.02 -3.45 -5.91 9.39 5.19 9.94 2.98 -1.75 6.43 -5.74 -1.36 1.83 7.95 -1.36 -7.09 -4.35 4.71 -7.85 2.41 4.86 -3.82 7.17 9.61 -4.86 5.13 -7.43 -2.12 6.65 5.8 8.29 4.1 -5.7 7.71 2.97 -3.53 7 6.82 -9.97 7.75 -2.35 0.36 -0.43 5.4 -1.05 -7.46 1.45 -0.96 1.76 -2.63 -8.76 9.78 -3.68 -4.39 3.9 -9.9 -5.32 -1.16 1.12 2.92 8.18 -6.88 2.95 0.5 -1.22 3.89 9.07 6.42 -1 -3.91 1.45 6.61 -7.06 4.77 1.16 5.07 9.85 1.56 -4.29 -4.97 0.44 3.73 6.76 -6.28 7.61 5.16 -8.85 3.79 -1.07 9.07 -2.6 -9.43 -2.18 3.93 -3.71 1.03 -2.58 4.79 -5.77 3.87 -7.31 9.89 -6.67 -3.28 6.92 -2.49 -6.98 -7.41 -2.01 8.73 8.94 0.88 9.91 2.04 -4.48 7.61 5.29 9.01 -5.8 7.74 -3.53 -5.73 2.18 5.12 -6.6 1.56 3.28 6.21 7.85 -6.35 2.05 7.25 -6.44 -3.03 -3.92 9.55 3.82 -5.29 8.2 -10 9.86 -7.87 -0.41 1.18 2.59 -6.88 -1.61 2.7 0.52 4.73 7.75 1.2 6.94 -9.43 -8.18 -4.57 6.33 6.35 -9.36 7.36 3.68 8.3 -5.61 -2.01 8.86 6.81 -8.71 -1.28 9.45 -7.61 -0.79 -7.41 -1.51 -0.53 9.99 5.27 -2.68 1.61 3.3 7.97 5.22 |
6.93 5.57 -9.52 -0.03 3.75 2.86 5.56 -1.89 -0.73 8.26 -4.91 -4.74 5.8 0.78 7.27 3.64 -9.88 1.19 7.32 5.8 6.78 9.4 2.55 9.5 -9.19 5.63 6.46 0.6 -1.93 2.56 -9.24 -1.77 1.36 9.1 -1.41 3.03 -1.42 7.21 -8.41 -6.84 -8.83 7.52 -7.88 -3.41 2.43 -6.81 5.93 -0.04 9.17 9.63 0.86 -9 -4.77 -4.6 4.45 -1.31 -5.8 -8.62 -8.62 -9.29 -5.73 8.35 -3.48 -3.9 7.09 -2.44 -6.87 -0.79 8.34 4.07 7.7 0.16 2.02 7.68 -5.07 5.77 4.17 -2.86 -4.96 2.12 1.42 5.07 -0.78 -2.65 -1.71 -7.59 -8.29 -4.74 -7.99 -8.98 -0.11 9.37 8.86 -2.49 -4.54 1.01 -4.5 -5.56 -8.35 6.66 -0.98 -1.21 -5.09 -2.95 -1.79 5.78 1.77 7.87 7.11 2.04 -3.02 8.94 9.36 -9.65 0.81 -5.1 9.48 9 -9.37 -3.93 |
