2.48 5.68 -0.66 -2.57 -0.75 4.08 -7.63 5.86 -0.96 -0.45 -1.32 3.72 2.97 -3.98 -6.98 -4.97 -6.81 -6.6 9.15 9.73 6.08 5.9 3.79 -9.8 -9.28 5.35 -9.39 1.77 -2.7 -8.19 3.56 -8.78 -2.62 7.7 -7.51 8.17 6.95 -1.35 -0.27 3.87 5.25 -4.93 4.92 3.09 3.65 6.37 -2.84 -4.54 -2.97 -5.31 -6.25 9.2 -8.81 4.33 -6.77 1.25 -1.71 1.64 -5.06 1.07 7.12 3.72 -3.87 5.16 4.3 -6.4 8.79 9.87 2.37 -3.35 7.86 7.72 6.36 4.45 5.97 6.88 4.71 9.45 6.96 -0.54 -2.95 -1.04 -3.18 6.22 -5.32 9.84 5.09 2.22 -6.61 8.88 9.37 7.08 6.27 -6.92 6.01 7.52 -1.3 -9.53 7.12 6.77 -8.35 -2.3 -1.51 7.57 7.64 4.78 2.37 -5.04 -0.35 -6.61 6.16 6.07 -1.76 -3.94 1.7 -9.96 7.44 -6.96 9.15 6.78 4.9 8.32 -7.25 5.6 -5.01 0.15 -0.77 8.79 6.81 -8.82 -5.5 -0.26 -0.21 3.57 3.3 0.97 -9.28 -9.24 -5.48 -5.37 -7.61 2.04 3.06 -3.39 -6.03 -8.95 4.32 -9.33 8.08 -4.15 -1.72 -0.09 -6.34 5.93 2.26 1.91 7.91 4.91 -5.74 -3.34 4.06 1.61 -9.57 -4.98 -9.01 -5.89 -7 -8.37 -7.92 0.64 -4.28 6.77 -5.04 3.29 -1.51 -5.01 4.65 -3.19 -6.67 3.08 2.24 4.31 4.52 0.15 -2.88 2.88 -0.7 -5.23 2.58 -0.81 -2.03 9.08 8.67 3.88 8.91 -4.38 -2.92 9.77 8.11 8.98 -3.61 -2.5 7.33 -5 3.61 3.96 5.38 3.51 -1.19 9.37 -7.4 3.13 -7.67 5.07 8.68 4.97 2.94 -3.45 -3.89 5.37 7.02 -6.77 -6.49 -6.91 -5.76 8.21 9.44 9.95 9.68 4.53 -0.4 -8.86 8 -6.05 0.47 9.1 1.98 9.44 1.46 2.14 9.94 -7.26 8.66 7.21 2.16 -5.27 5.56 5.57 -0.37 -9.31 -3.82 -2.88 -9.92 -6.42 -0.63 -4.76 -0.51 3.37 4.52 4.5 -8.03 5.93 -7.95 6.66 9.43 9.85 4.47 -4.88 -7.09 3.95 9.4 7.36 6.92 -4.59 -0.81 -0.1 -6.86 9.93 3.71 9 -1.29 -3.94 -4.57 -4.82 2.55 3.67 9.09 -8.66 -5.48 0.62 -5.38 -3.14 6.53 7.5 2.73 -7.42 -4.18 3.24 -1.99 -7.75 -8.42 5.63 -8.15 0.63 1.97 -9.89 -8.31 4.9 1.03 5.7 -3.85 -1.85 -1.15 -6.1 -0.13 5.11 9.4 -5.46 -6.08 6.85 4.02 -8.77 7.1 -9.35 2.36 -6.23 5.51 -3.72 3.44 -0.93 -1.79 -1.76 -1.11 8.01 2.84 -9.44 7.21 -8.47 5.3 7.43 4.26 4.55 7.41 -2.33 6.59 -6.61 -0.24 5.87 -4.86 -1.04 |
-2.94 9.53 9.79 8.94 4.04 3.34 -3.26 -6.16 7.78 1.41 -7.1 -9.85 9.6 3.59 -8.56 1.59 0.74 -8.83 -2.7 -3.52 -4.65 -6.47 9.4 4.96 -0.22 4.48 -8.57 8.15 -3.39 9.02 7.03 1.66 -1.5 -7.97 -3.84 -1.95 -1.36 5.29 6.56 -8.75 -0.18 6.03 4.23 -1.18 2.08 0.73 5.15 -7.56 7.89 -7.9 -8.05 1.6 -0.74 -3.89 1.93 5.39 1.03 7.76 2.78 -4.01 -5.31 1.44 -2.73 6.53 -8.42 -3.13 -4.08 0.77 -8.49 0.7 6.44 -1.71 -6.72 -4.81 -5.48 3.75 4.26 3.28 -6.97 4.38 -6.55 -6.33 -4.63 -9.39 4.32 -4.41 -5.61 1.97 -9.56 9.29 -7.88 7.86 3.78 -4.15 -5.19 -8.47 2.74 -0.97 -5.7 8.32 6.46 -8.14 9.41 -6.5 8.65 8.28 -3.78 -1.36 1.78 -3.66 1 9.06 7.32 3.48 -6.14 -3.17 7.65 -8.59 1.71 -9.95 4.12 6.88 -3.53 -6.82 4.24 4.57 -1.13 9.78 -3.47 -3.77 -2.48 -4.38 -8.51 6.68 -6.63 -5.62 -3.66 1.88 6.75 -2.51 -2.07 -7.03 -9.75 -9.62 -4.84 -4.77 1.39 0.59 1.61 0.23 2.65 2.96 -7.5 8.06 0.8 0.84 -9.63 -7.28 -9.88 4.27 1.93 4.34 1.88 -5.71 8.4 -1.97 8.81 6.94 -1.68 8.62 5.43 -2.94 -0.2 -8.53 -2.6 -8.85 4.38 -1.59 2.38 -6.61 4.2 -3.86 9.65 2.26 4.29 3.17 3.73 7.2 8.28 5.34 -4.43 -0.6 -6.44 8.13 2.05 -9.14 3.17 8.77 2.97 -5.99 0.85 -7.02 8.21 -1.79 6.03 -3.5 3.31 0.23 -6.24 7.62 7.1 -6.84 -5.56 -5.22 -1.31 -7.47 0.77 3.75 2.23 7.54 4.86 -9.97 -6.04 -5.7 -2.23 2.45 -1.15 -8.42 -4.56 -9.11 -2.17 -5.86 -5.36 4.75 -3.72 1.03 -8.31 4.86 -6.44 1.76 -7.61 9.97 -5.04 -9.27 -9.52 -4.47 -4.56 9.25 0.35 9.6 2.01 1.58 3.33 2.08 6.17 -3.3 8.33 -6.55 -8.08 -5 -5.19 8.44 -3.33 1.99 5.22 7.13 8.2 -6.29 -5.7 -6.85 7.09 1.51 -6.61 2.63 -4.47 -6.73 -3.3 1.87 -1.87 -8.93 4.12 -4.61 9.65 -9.56 6.08 -0.61 7.47 2.64 9.52 -0.85 2.83 7.98 0.56 -9.6 4.67 0.88 6.57 2.33 5.2 7.2 8.83 3.56 1.12 -0.72 -4.53 -3.39 1.92 2.89 5.99 -3.22 -0.78 -4.32 -6.07 2.76 2.17 -3.18 -2.13 -3.73 7.32 -5.66 -9.45 -4.14 -1.5 -2.91 -5.68 -6.48 -9.61 4.11 -2.85 8.91 1.34 3.8 5.87 -8.66 1.84 -1.56 -8.54 -3.12 -1.73 -0.74 -8.49 1.2 5.32 5.17 -1.4 -3.04 -0.52 -6.53 6.08 1.14 0.48 -7.54 -4.83 6.28 -4.15 -4.97 7.68 -0.22 7.44 7.03 -4.86 -4.97 -5.38 -3.27 -4.73 8.02 0.35 -1.25 -5.84 -4.8 7.33 -5.6 0.18 -3.82 3.85 8.08 -9.31 2.21 -8.76 9.28 -4.16 0.6 6.66 0.12 3.77 -3.69 -0.82 -0.86 6.07 3.81 8.08 2.71 -7.28 -6.94 1.92 7.1 -8.99 -0.87 -8.69 0.52 -3.74 7.26 -7.77 6.79 -4.7 9.88 -4.21 5.04 -7.49 9.54 5.84 -1.46 3.7 -6.38 8.94 2.43 -7.69 -8.44 4.81 -1.84 7.01 -8.78 -2.57 3.64 8.94 -9.94 -7.83 3.39 -9.12 3.97 2.28 -4.35 -0.3 -8.31 -6.56 7.29 6.89 3.03 1.18 -8.66 -6.01 -2.38 4.32 -2.1 6.79 6.86 -4.72 -0.92 -5.88 1.85 4.93 -2.39 -1.75 -2.66 8.23 -9.39 -2.44 -9.47 3.35 -2 -7.02 2.76 -6.14 -8.83 5.54 -1.78 4.21 -4.21 -3.17 -7.92 -2.86 3.22 7.43 -7.05 3.23 -0.61 2.96 -9.92 5.4 8.32 2.5 -8.36 -9.97 2.88 0.99 9.52 -8.22 -1.48 -3.85 5.21 -6.92 1.09 -3.8 -0.91 4.19 0.77 0.18 1.37 4.67 -2.6 |
-6.11 -4.81 3.67 -4.21 9.35 3.28 -2.43 5.37 6.34 8.7 8.83 9.04 4.37 8.13 -5.09 1.88 -3.45 4.76 -3.03 -5.23 8.03 -7.16 1.12 9.43 8.18 -8.05 9.55 1.64 -6.4 9.95 -8.19 7.58 -6.27 6.7 9.49 3.46 -2.74 -8.1 -2.04 9.11 2.97 -2.99 -8.46 -8.62 7.17 -9.76 9.97 -3.23 0.91 2.23 1.21 8.54 -2.23 4.72 -4.42 -3.69 -8.55 6.97 -3.7 -4.11 -3.99 -4.33 -2.6 7.23 -4.27 1.81 7.49 2.99 -9.05 -5.33 1.9 9.77 -6.15 4.73 3.55 9.49 5.07 6.4 3.84 1.87 -9.5 -7.42 -4.67 7.7 3.93 6.14 0.17 -3.5 0.96 -2.33 5.97 4.27 -9.05 -6.71 -2.8 3.19 -6.85 -3.2 -2.18 7.68 -4.83 -6.43 2.92 9.03 1.73 -1.37 3.2 0.06 -9.21 -0.56 6.13 4.95 -4 8.62 -0.08 1.74 -5.28 -5.89 0.03 2.54 |
