4.95 6.41 0.25 2.86 5.42 5.76 -6.82 2.87 -8.64 5.19 -7.91 -0.94 -9.11 -6.28 8.74 4.43 7.87 0.38 6.91 3.14 7.36 6.2 0.58 3.55 -5.56 -5.95 3.35 -4.47 5.1 -6.33 -5.01 4.48 1.62 7.29 -8.89 0.41 -8.83 -5.41 -9.1 -4.97 -3.9 6.63 -7.61 0.41 -8.05 2.96 -5.29 -4.9 8.27 5.35 -3.77 7.61 -2.3 -8.25 2.59 -9.54 -5.22 2.96 1.74 -4.99 4.58 8.59 1.97 6.33 -0.91 -4.55 -3.34 0.47 -8.23 -4.22 -0.29 2.76 2.11 -8.44 -3.09 9.74 -1.5 -1.18 -9.04 -6.03 9.27 -9.61 3.79 0.08 -0.92 -3.61 -7.49 5.29 -1.81 5.65 -6.26 0.69 -7.19 5.12 5.31 3.33 -5.48 -9.17 -6.5 -7.8 -5.54 5.88 -5.86 4.3 6.07 -4.17 -6.18 7.61 2.67 -3.81 7.94 -0.51 -5.24 6.08 -8.73 -6.11 5.78 6.84 -8.99 5.75 -9.07 -4.17 -3.03 9.56 -8.69 3.83 -1.39 7.81 -4.52 -8.93 5.92 0.89 6.15 4.77 -3.98 -0.22 5.62 7.7 -1.19 -4.81 0.61 -4.33 4.27 2.43 4.72 7.9 -6.28 -6.76 3.8 -8.52 -5.28 -3.29 5.35 -7.57 -3.72 3.56 9.73 -0.63 -1.73 -3.71 0.21 -3.89 -1.21 -2.53 5.58 2.27 5.21 2.33 -8.64 -6.64 -9.84 2.53 -6.96 9.53 1.03 4.22 0.48 -5.47 3.28 -2.25 4.09 9.24 -0.47 9.18 0.85 -0.2 -7.91 -1.32 9.19 3.74 4.56 -6.71 6.34 -4.55 -4.97 8.07 -7.38 4.73 -8.6 -9.51 -2.58 9.18 -0.05 -3.95 -2.62 -4.53 7.18 6.16 1.57 6.47 1.47 1.05 0.18 4.53 1.73 -3.08 -0.23 -6.66 -7.56 7.5 -0.35 -9.53 0.92 -9.14 5.94 -9.03 -7.43 6.99 2.14 -4.45 7.04 4.31 2.96 6.81 6.27 -6.96 -0.94 4.99 -2.56 -6.07 -9.97 8.75 -3.77 -8.32 -5.91 4.08 2.36 5.48 -0.49 -5.95 5.49 -4.37 -7.42 5.84 -6.55 3.1 -3.78 3.14 -0.23 -5.66 6.41 -7.82 -1.29 -2.36 6.43 2.71 -5.19 -1.51 0.44 7.64 4.56 4.28 3.82 8.39 -8 -5.98 7.88 5.08 7.4 -7.17 4.75 -0.57 -2.79 -2.2 -0.86 4.86 -4.41 -4.69 -9.63 -6.44 8.22 -9.44 -5.45 -0.2 -0.64 -4.26 -5.08 -2.16 9.67 -9.94 6.19 7.27 8.07 -3.32 -0.71 -3.94 8.41 4.78 -3.31 -1.41 -2.49 -9.1 2.76 -3.8 -3.89 5.84 7.62 8.91 8.27 0.68 -2.22 6.96 -1.19 0.37 -8.55 7.28 6.21 -2.86 -0.91 5.94 -4.4 -6.9 -1.62 -1.2 5.31 3.85 6.67 -8.99 -8.31 3.3 7.23 -3.33 -2.96 -0.31 5.78 -8.74 1.75 4.18 -1.65 2.07 |
-0.47 7.78 8.75 -6.27 4.46 3.09 -1.12 -0.74 1.36 5.44 -0.61 7.4 3.08 3.39 1.36 -9.17 3.86 -6.94 0.42 -5.15 -5.91 -6.56 0.56 -3.81 -8.85 0 8.21 -4.92 5.91 -1.64 -1.6 -3.06 5.78 3.65 -3.45 -1.8 0.01 4.99 7.44 4.47 9.98 3.6 0.58 6.84 -0.8 3.79 6.11 -9.16 -1.46 -4.23 -6.96 -3.34 8.27 9.99 -6.33 -7.41 -8.01 -4.9 7.17 -3.75 -6.93 3.89 1.82 6.88 5.45 5.78 -3.19 6.24 -5.81 7.56 -5.28 3.01 4.52 -5.36 -8.2 7.42 -4.84 0.57 -7.48 8.55 -2 3.11 -2.1 -0.35 -4.72 4.5 5.12 8.89 8.19 0.76 -8.61 3.76 0.8 9.88 -0.26 -3.03 9.07 -4.07 5.04 1.77 -1.38 -4.47 8.32 -0.02 7.77 -0.07 8.76 -1.39 4.7 -0.83 -2.54 -6.9 -3.1 -3.59 -5.14 -0.7 -6.91 1.94 -2.87 -1.52 6.71 -9.12 -8.8 2.41 -1.06 9.19 4.69 -5.46 -3.13 1.86 8.66 6.55 5.87 3.35 1.09 -5.1 -3.8 -8.51 -5.21 5.98 1.41 -6.82 1.75 -0.29 4.05 -9.5 2.56 8.38 0.93 0.55 2.27 4.53 9.05 -6.83 3.11 2.07 -0.34 -5.03 8.89 2.86 -6.27 7.27 -6.18 8.72 7.76 -5.72 1.34 7.19 2.36 -5.65 6.74 -5.3 -9 6.58 6.2 -7.82 -8.18 8.02 9.3 6.86 -0.47 -0.28 -4.35 4.01 -1.88 -8.61 2.72 7.14 5.59 -3.2 3.56 -1 -0.88 -9.57 9.23 -3.3 -7.82 5.17 3.5 1.87 8.68 4.53 9.08 4.07 -8.98 -7.45 -1.12 -4.96 5.05 1.71 9.34 2.51 -0.62 2.08 9.3 4.72 -1.86 -6.62 9.48 1.05 -7.9 6.16 -6.32 -9.51 -4.33 -7.8 -4.38 -3.08 5.55 3.65 3.3 6.78 -7.03 -2.42 7.51 7.01 -9.66 3.56 4.7 3.4 3.25 -0.66 7.66 -5.47 -5.31 7.39 -4.68 -1.37 4.76 7.03 -8.93 5.25 9.61 9.85 8.56 -8.1 1.55 1.5 6.55 -6 -7.8 5.31 0.33 -8.36 8.46 -0.01 4.85 -5.16 -2.61 -8.09 -0.6 9.5 -1.39 -7.55 -0.03 -3.15 6.55 -6.17 -8.08 -6.24 0.65 4.12 0.37 1.55 1.44 7.98 -3.56 -8.68 -0.89 -2.48 -7.84 5.49 -3.84 2.79 -6.01 3.75 -9.27 5.21 4.55 7.84 -9.16 -8.52 -3.29 1 -3.62 -3.05 -5.12 -1.94 -1.6 -9.42 5.46 0.22 -7.62 -0.97 -8.16 -3.29 -0.86 7.54 7.65 -5.29 -0.74 9.64 0.29 -0.46 -8.93 -2.08 2.78 7.61 6.07 -6.99 -8.04 -1.52 5.43 -8.67 -1.7 -9.58 1.73 -8.67 -0.3 -5.28 -1.17 -1.11 -6.33 -5.6 8.25 -7.48 -4.81 6.62 1.71 6.07 -9.04 -6.89 9.13 1.53 5.87 2.35 -3.95 -4.62 -7.31 -4.05 5.22 -6.46 8.35 -6.33 1.75 -3.44 -3.45 7.97 0.78 9.31 -8.49 2.52 -4.17 -8.43 -6.26 -3.86 -9.5 8.75 3.66 -1.29 -8.14 -2.6 4.91 0.11 -2.21 8.42 0.12 1.75 -0.42 -8.27 3.86 3.75 0.55 0.39 -6.79 6.3 -6.95 -7.91 -9.35 2.1 -7.98 -3.57 -7.05 -7.01 4.2 3.56 -1.81 -0.98 -6.27 7.45 -7.77 4.29 5.79 -9.05 2.09 -8.54 2.98 -2.04 -9.54 5.44 -6.5 -5.55 7.32 8.67 7.29 5.08 -0.44 -7.17 -2.64 0.18 7.94 1.48 5.02 6.21 -3.52 -2.43 1.6 3.96 8.02 -3.67 -4.57 -7.84 1.29 4.14 8.22 -0.59 6.43 1.88 3.1 -1.88 -3.26 -9.78 4.72 0.47 4.15 0.54 1.41 -3.26 6.51 -3.37 -8.04 4.23 1 7.4 2.01 -9.94 -7 -8.35 -7.28 -7.32 -4.98 -8.9 4.86 2.33 -1.31 -6.72 -0.28 -3.15 -5.49 -3.25 -6.34 -7.18 -3.68 -9.27 -1.78 -6.29 -9.53 7.61 -5.8 -3.59 -5.44 -0.06 1.24 5.33 -8.69 -5.67 -2.71 8.95 -4.56 4.94 |
9.68 -0.42 -2.64 -3.66 -5.54 -6.08 3.9 3.99 -7.76 0.44 0.06 3.79 -7.46 0.09 -7.94 2.01 -7.01 5.66 6.09 -2.33 2.77 -5.95 6.21 -2.23 -7 5.43 3.73 -1.49 -2.14 -5.23 -0.62 5.73 -5.4 4.07 6.68 -0.14 -9.72 6.22 8.66 6.2 -9.28 -5.19 -8.48 6.52 3.64 -9.49 3.73 -6.54 2.33 -4.13 0.6 8.78 1.08 -9.34 -4.44 -6.06 -5.02 3.29 -0.34 4.6 -6.36 7.67 5.32 -3.97 -0.28 -4.75 2.26 -3.99 6.44 -8.45 8.28 9.53 -6.68 0.21 7.07 3.98 2.96 5.55 -7.79 9.05 0.45 -9.56 8.85 3.26 -8.87 1.7 -9.6 8.56 -5.65 1.43 7.59 4.26 9.78 7.11 7.92 -8.81 -8.52 1.31 9.45 9.65 -2.45 8.17 -8.75 3.28 5.42 0.15 9.93 7.81 9.52 3.86 -6.46 -3.59 -1.07 8.23 7 -0.63 7.89 8.21 -1.89 -1.48 |
