3.81 -6.04 7.64 7.98 -7.37 2.16 5.83 -9.02 -4.38 0.7 -2.79 2.05 -2.51 -1.31 9.16 -8.98 2.17 -0.35 -7.17 -5.16 9.5 2.63 -4.49 -3.71 7.41 -9.14 -4.26 2.02 -5.51 1.04 1.71 7.89 -4.69 -1.51 -4.35 7.11 -2.52 -8.66 -1.07 8.69 6.87 -3.71 5.29 3.52 0.29 7.12 -5.07 -0.82 -4.68 -3.77 -9.43 -7.08 -7.14 4.71 5.52 5.92 8.64 -0.86 2.33 -4.49 -5.33 4.48 2.04 -3.07 3.82 -9.08 6.76 3.97 8.39 -7.96 6.09 -7.02 -5.68 6.6 -5.73 6.57 -0.23 0.8 0.76 -8.51 -7.79 6.59 9.68 8.97 -3.63 7.23 -4.16 8.37 4.66 -5.28 -9.65 3.51 -7.05 -3.12 -7.4 3.88 -8.03 8.69 -0.75 3.71 -2.65 4.12 8.41 -6.17 -5.98 -6.03 -6.77 -6.11 -1.67 8.29 0.07 -9.74 4.48 -2.4 -4.84 1.16 1.53 -4.84 -5.67 9.94 8.94 8.07 -5.28 -5.33 4.69 -8.04 -5.43 -9.52 2.57 -9.71 3.33 -4.12 -7.54 2.47 1.41 -8.06 -7.89 2.07 3.8 5.2 -4.3 -9.32 4.04 4.71 -4.22 -7.73 -1.22 8.27 2.18 -9.37 -0.69 -8.52 -3.89 -1.05 -9.63 -8.53 1.66 -4.06 2.41 -7.93 -8.14 1.15 0.08 3.13 2.58 -0.61 -3.78 9.76 -8.18 -7.12 -7.63 3.25 2.97 -6.31 0.63 7.45 1.96 5.76 -5.7 3.22 0.3 8.62 -1.94 0.5 8.43 -7.82 5.79 -0.67 9.88 -7.98 5.72 -7.65 0.25 0.92 2.82 2.44 -2.3 0.35 -5.92 -1.68 0.31 3.01 3.97 8.96 0.33 0.68 3.41 5.6 0.51 8.19 -4.33 -7.67 -3.95 0.39 -3.65 9.5 -9.1 9.15 -9.7 -9.86 -8.32 5.86 5.67 3.5 2.56 -0.65 9.28 4 3.35 9.95 -5.97 6.35 -4.75 -3.9 -2.45 -2.03 2.57 7.67 -5.86 8.92 -8.73 6.63 -0.98 9.74 -9.67 9.85 -3.33 6.74 8.35 -6.54 3.16 3.69 6.99 -5.87 -5.72 3.96 -2.24 -2.14 1.41 -7.64 8.1 5.74 1.46 1.59 6.92 -0.97 3.3 -3.7 0.06 -3.5 2.83 -5.85 -9.2 6.83 -3.03 -2.01 8.87 1.53 -0.79 8.6 -8.41 1.41 -7.41 0.98 -8.16 -1.72 -5.11 3.65 -0.83 8.52 4.66 -3.73 -2.4 7.64 -3.91 7.11 5.83 2.18 2.77 2.33 -9.03 5.13 -2.47 9.74 -8.13 -8.26 1.09 -4 -7.71 5.99 -0.93 4.11 8.69 2.89 -2.3 1.83 -1.86 3.81 -4.5 9.81 3.2 -8.89 3.53 7.72 -4.48 7.69 6.62 -8.95 4.96 -4.77 6.89 2.86 -0.76 3.22 -0.48 -2.53 2.72 -0.3 -6.72 0 -9.86 1.07 -1.85 -0.64 -4.68 3.54 2.73 -0.13 2.12 -1.61 |
-9.52 4.77 7.22 -2.46 5.44 -1.89 -4.11 4.31 0.22 4.39 -0.98 -8.61 -7.29 2.28 5.85 7.99 -4.05 -0.68 -2.44 4.15 9.09 8.26 -8.32 7.1 9.32 8.42 -6.11 -4.01 -7.73 7.4 1.8 -7.69 0.83 -9.44 6.2 5.5 0.14 6.96 7.36 1.52 -8.48 -6.61 -7.87 -0.87 0.91 -8.13 -0.62 1.05 0.03 -3.11 -0.35 -3.26 -2.41 4.71 6.59 8.16 -6.07 6.66 1.33 9.94 7.96 -1.08 6.94 8.69 2.87 -4.37 9.25 3.58 -8.64 3.97 -1.39 4.9 9.29 -9.33 -5.51 2.34 0.67 -3.03 -9.49 -8.85 4.48 -2.78 4.65 -7.67 9.44 -7.13 -4.63 2.14 -2.31 0.57 6.24 6.56 5.59 -6.61 -7.09 -3.38 -5.9 -8.54 -5.37 8.56 1.2 -7.59 0.53 -1.13 2.41 -7.58 2.09 -4.74 5.27 3.71 2.79 1.79 -1.03 -9.24 -6.31 -8.61 3.33 3.54 5.77 -3.75 -8.48 7.78 -1.06 -7.2 -7.23 -3.81 -5.64 0.41 -1.74 -7.94 -9.75 -4.6 1.7 -3.21 -1.64 -7.31 8.25 3.89 8.63 8.04 -0.47 1.82 6.37 -8.57 -0.96 8.45 -2.38 2.78 -9.38 6.72 -7.75 3.68 3.2 -7.43 8.31 -4.21 0.71 -6.26 -9.5 -0.29 -5.83 8.19 -3.38 7.22 -5.83 -9.04 5.42 -2.47 1.71 -4.77 3.77 -9.46 2.92 9.05 -6.01 -2.17 -5.42 -3.63 -5.51 6.97 5.48 -9.39 -0.1 8.54 7.89 -7.94 8.77 4.47 -7.39 -2.6 -2.73 0.72 -7.82 3.39 -5.74 -1.01 8.9 7.32 7.44 -8.8 3.87 -8.76 -1.71 -6.36 -8.77 -8.37 -6.22 4.65 -5.33 6.24 -2.99 6.23 -8.88 3.1 -7.56 3.44 6.01 3.23 2.96 5.18 -7.95 8.09 0.08 0.5 1.36 2.53 2.24 -0.73 7.81 -7.65 -5.95 -0.07 -8.31 -1.76 -0.05 9.24 9.48 6.8 6.09 -5.56 -3.96 -4.46 -8.49 -2.58 -4.65 -0.83 -9.37 1.67 -7.98 1.73 6.74 -0.38 9.5 5.08 7.15 -6.06 9.55 -9.95 3.69 -8.01 -7.86 -3.02 8.56 -9.78 0.19 -8.53 4.72 3.7 -2.25 3.27 2.8 -5.66 1.2 -8.78 8.44 2.43 8.58 4.99 3.35 -2.58 2.97 2.19 5.58 5.82 -9.8 7.06 1.36 -8.54 8.04 -1.52 -5.48 -4.22 -0.95 -7.18 1.64 -8.3 4.34 -9.71 -1.03 2.91 0.58 -4.36 8.31 4.6 8.75 -5.46 4.03 -6.32 4.88 -9.92 2.57 8.08 -8 -4.8 7.47 6.36 7.93 5.73 -1.42 -1.52 -2.88 4.43 -5.28 4.83 -7.31 -2.84 -3.98 6.59 -7.54 3.9 8.39 4.9 -9.89 3.26 4.85 4.88 0.18 0.38 8.34 -6.16 9.13 5.63 2.87 -0.45 -8.65 0.08 -8.95 4.21 -9.87 -5.53 5.68 7.74 7.82 5.07 4.52 5.68 -4.48 -4.96 9.75 -6.13 4.36 -6.35 -4.67 1.04 -9.05 6.94 -4.79 2.45 -6.15 -2.62 5.3 -6.29 5.6 -5.89 2.8 -0.62 6.6 -0.35 -9.7 -3 -8.36 -9.03 6.84 8.59 9.53 4.74 -0.44 -0.93 2.31 7.91 -0.33 7.73 -3.47 0.96 -1.47 5.41 -9.98 -1.24 6.75 1.97 3.48 1.4 3.91 3.12 -7.17 4.7 -9.1 9.23 5.53 9.78 -3.88 6.45 2.73 -8.16 4.19 6.63 7.12 4.37 -7.5 -4.47 6.91 6.44 5.7 1.87 3.89 -6.11 -0.2 -7.52 -8.73 8.09 -1.52 7.37 4.11 -9.48 -9.12 -4.82 -1.76 5 -5.61 -7.1 7.61 5.18 -3.44 -3.22 -9.01 3.23 -7.98 4.65 7.06 -5.37 -4.39 7.54 -2.51 8.65 -6.52 6.1 7.29 3.38 2.23 7.64 -3.54 -4.1 4.84 2.63 -7.84 0.93 -0.12 -4.06 -9.16 -9.04 4.6 -7.54 7.3 7.87 9.91 9.37 -1.05 7.04 -1.61 7.79 -3.4 6.41 0.24 -6.38 1.62 -7.42 -7.48 -8.52 8.35 -0.05 5.3 -7.71 4.15 -6.58 -1.7 5.14 7.88 -1.31 -3.14 -8.38 |
-5.72 -5.03 -3.74 9.27 8.02 -0.81 -2.71 -6.14 -2.98 -9.1 3.58 5.8 5.03 -7.73 -7.66 -5.83 1.74 1.42 -5.68 -2.99 3.04 -8.81 9.08 9.21 6.68 -0.38 6.2 8.02 9.84 0.72 2.07 -4.92 0.02 -2.52 -5.79 0.79 -8.62 -2.04 -8.72 -2.55 0.83 1.1 7.15 1.33 6.9 4.11 -6.79 4.93 -3.27 8.67 8.94 9.85 -1.15 6.14 -0.45 9.19 4.95 8.77 5.06 -2.78 -2.19 9.33 -7.43 9.56 0.07 -7.53 8.65 -6.31 -4.63 -1.77 -9.05 6.81 -5.32 -4.35 -1.93 3.19 2.33 -7.07 -0.34 7.49 4.66 7.43 -7.04 2.61 -7.09 2.74 -7.49 0.45 7.41 -8.27 2.14 7.68 -7.41 3.05 -3.5 4.02 -3.58 1.5 -6.74 -6.29 -8.23 -9.73 -4.74 -0.76 -6 -8.49 6.89 6.23 3.23 6.81 6.68 -5.5 -8.64 3.32 5.08 0.12 6.73 -0.48 3.06 6.04 |
