8.05924224853516 5.44920444488525 -5.40690231323242 9.23881053924561 -0.795737266540527 -8.20435333251953 -0.0600347518920898 -2.24485778808594 -4.25879383087158 -7.84759712219238 -1.55174350738525 9.40424728393555 -9.06824111938477 -6.88259553909302 -1.45462608337402 -7.36352729797363 5.76122999191284 -1.43767261505127 7.13100624084473 9.88400650024414 8.90949630737305 9.55963516235352 7.24898099899292 -7.12500381469727 5.66100311279297 -0.153998374938965 4.05277013778687 -1.00205993652344 4.53014373779297 -4.40128231048584 -0.46070671081543 -2.44874382019043 5.849769115448 -0.444379806518555 -9.29064559936523 -3.55992412567139 -5.37038040161133 2.87570452690125 6.5638542175293 9.19935607910156 -5.76983642578125 -1.9709644317627 -4.89598846435547 -1.48598766326904 -2.51898860931396 -6.16936159133911 -7.6387767791748 6.9439549446106 -4.97884654998779 3.427738904953 -3.42176055908203 7.55816221237183 7.81946611404419 8.068603515625 -3.58789348602295 9.77821350097656 -2.51141166687012 5.2278470993042 2.31553936004639 -0.0154628753662109 -4.57854652404785 5.77827930450439 -5.25618553161621 -7.97284126281738 -7.43688154220581 -1.2262020111084 -0.276399612426758 -7.59384155273438 -5.40631484985352 9.48977661132813 -0.0301685333251953 4.2331428527832 -9.28711700439453 -8.61802673339844 7.00741004943848 4.23353672027588 9.47162628173828 -5.7336311340332 -7.24057960510254 0.773595809936523 5.79262733459473 -2.3417387008667 -4.81395149230957 2.83611273765564 -2.67834758758545 -6.53470802307129 6.6692328453064 5.40551662445068 -6.49809312820435 -0.563736915588379 2.38216304779053 -2.63003253936768 -6.29590797424316 6.83086395263672 0.676833152770996 6.66602659225464 -3.14368629455566 -7.50743865966797 8.45798301696777 6.7679500579834 -8.43707656860352 -8.59647941589355 -1.58466720581055 2.06038570404053 -5.28236389160156 -7.08236694335938 -7.96985626220703 -5.85024642944336 7.06165504455566 0.543266296386719 5.69684982299805 1.04118251800537 -1.56867599487305 -5.83954811096191 -7.9298357963562 -9.53717803955078 -6.62982749938965 1.21694660186768 -5.46075344085693 9.53545379638672 -9.53105545043945 -1.71183490753174 -9.97092819213867 4.20372486114502 4.66831207275391 -0.682000160217285 -3.9991340637207 5.29456329345703 -4.96303462982178 -2.99965476989746 -6.07299613952637 4.35076713562012 -0.286074638366699 -5.42529296875 8.11019134521484 -2.8215446472168 -9.86224174499512 -7.01851081848145 8.88000869750977 2.34159088134766 7.60627317428589 4.8436164855957 7.26167678833008 -9.98098564147949 -9.63467788696289 1.52236080169678 5.76119613647461 -4.59835147857666 -0.674835205078125 -6.11748886108398 9.1757698059082 -0.871063232421875 6.14263296127319 -4.53100299835205 7.13625383377075 -0.336574554443359 -3.16282176971436 2.00745964050293 -8.17671203613281 -1.33268737792969 -8.69423675537109 8.61602783203125 -2.98153972625732 8.5572624206543 7.52201271057129 7.61225461959839 -9.23733901977539 -3.14756488800049 5.10830402374268 5.63772201538086 -9.11056900024414 -5.20008850097656 4.60846424102783 3.99480581283569 8.72392177581787 -0.805774688720703 -1.39219665527344 -4.37713527679443 6.84523582458496 -9.99691200256348 -3.41706848144531 -3.4357271194458 -3.18856811523438 -4.79444122314453 3.53422880172729 9.23174667358398 5.28393936157227 -0.408977508544922 -8.18681335449219 -1.62314510345459 6.73467636108398 7.6860499382019 -4.49704265594482 5.14743804931641 -8.37409782409668 3.30411410331726 -9.58560180664063 3.63617658615112 4.69620227813721 2.33121299743652 -5.39324283599854 -6.51205825805664 -0.56566333770752 0.975345611572266 -7.00099182128906 -3.07733154296875 7.92188215255737 -7.15840530395508 6.03512954711914 -6.51466369628906 2.13915729522705 0.1077880859375 8.28284740447998 -6.5374903678894 -1.86867618560791 -6.91769599914551 -7.46963930130005 -0.534530639648438 4.93877410888672 1.17303276062012 9.97403621673584 4.85857200622559 9.67951011657715 -7.79522895812988 -9.0345344543457 9.52870845794678 1.05249309539795 4.80081748962402 4.99495506286621 -4.20871353149414 4.17774677276611 -3.85708713531494 1.33227252960205 6.98386383056641 8.30109596252441 7.84040212631226 4.23319578170776 2.69243431091309 -0.392688751220703 -4.39245796203613 4.11097526550293 6.82694625854492 8.66034698486328 9.93121147155762 -0.586625099182129 -8.39494323730469 5.19927501678467 6.18849515914917 2.67126274108887 7.21346616744995 -8.69784545898438 -1.37350940704346 6.873450756073 9.01443481445313 8.40219879150391 -0.807033538818359 0.0915946960449219 7.52367210388184 -1.17323303222656 -7.8582911491394 8.17315101623535 9.75308609008789 -3.29324817657471 -7.85264205932617 0.853787422180176 -1.47687816619873 -7.79374647140503 -1.71630477905273 -8.08018112182617 4.26802825927734 -6.34467124938965 -3.37269687652588 0.863479614257813 -8.60383605957031 9.62794494628906 -9.38338851928711 -4.71614265441895 8.76626205444336 -2.11391830444336 -7.34306526184082 1.46799468994141 7.71540117263794 -9.20011901855469 -1.25074481964111 2.2204647064209 8.19228649139404 6.36653137207031 8.8545036315918 -9.8559684753418 -5.33174705505371 -7.31788444519043 7.82287788391113 -3.1367073059082 0.573225975036621 -9.56760406494141 -4.90229034423828 9.39315986633301 0.514182090759277 2.4595365524292 -8.50892066955566 -8.58480644226074 3.14768981933594 7.7508373260498 9.96030807495117 0.858722686767578 4.19237327575684 -1.76363372802734 3.32002401351929 -5.22866439819336 -9.31395721435547 4.84170150756836 2.46597671508789 -8.77432632446289 -7.79862213134766 -7.28358459472656 -8.49073600769043 -8.9676570892334 -6.35597229003906 6.11575317382813 -7.73628234863281 0.786918640136719 8.10471725463867 7.55517530441284 -2.29457759857178 4.29991245269775 -0.00423526763916016 -4.19744396209717 -8.53852462768555 4.90492057800293 0.0934085845947266 8.32962036132813 2.90134406089783 1.69124221801758 -2.02757930755615 6.20520353317261 -4.6863374710083 0.0670061111450195 0.608087539672852 7.15162706375122 -8.14766693115234 0.368305206298828 3.82827734947205 6.7631721496582 -0.903314590454102 -9.29384422302246 3.71088004112244 -5.94158935546875 -8.79145812988281 -7.15320777893066 -5.07176876068115 8.78975677490234 -0.450979232788086 3.52856397628784 6.65027618408203 5.26239156723022 1.02540397644043 -2.59186363220215 -0.461522102355957 -6.47828102111816 -0.174130439758301 7.11881828308105 -3.00672912597656 -2.73696517944336 8.04917812347412 -0.113612174987793 7.34534454345703 -4.52448749542236 6.83641862869263 5.5990743637085 7.77759742736816 -0.0772705078125 -9.31303215026855 0.681515693664551 8.32489395141602 7.62088775634766 5.10844421386719 8.53074073791504 8.60211563110352 5.37699890136719 5.19884824752808 -1.10824012756348 -7.59785842895508 8.11296653747559 -6.14643526077271 5.4203052520752 -9.94222831726074 -1.33120441436768 -0.861848831176758 3.31700086593628 -2.61825942993164 4.93321180343628 -5.9326000213623 1.42802143096924 -5.91215896606445 1.55971908569336 -8.89089584350586 -8.01021766662598 -7.35684204101563 2.19961738586426 -2.65291786193848 7.22266387939453 -2.57928466796875 0.310140609741211 4.42567348480225 0.496588706970215 -2.75982761383057 8.5245532989502 -0.198422431945801 4.34694051742554 3.20041847229004 9.13521766662598 8.06178855895996 -0.98044490814209 4.72830009460449 -2.51256847381592 -9.57989692687988 -0.719390869140625 7.21112251281738 -1.10139274597168 7.06891775131226 -3.43404674530029 -7.3543758392334 1.09179401397705 1.40460872650146 -2.79122257232666 -5.45818519592285 -2.56926441192627 5.17623138427734 5.37039279937744 -9.89020347595215 -3.62580871582031 -3.90817737579346 8.81838798522949 2.49734020233154 -4.35970211029053 6.10126686096191 -4.63022136688232 -6.08237266540527 -5.64203071594238 6.77929353713989 0.802150726318359 3.76016592979431 -8.19717788696289 5.01179456710815 -0.377412796020508 -7.27475690841675 2.94058036804199 6.27423477172852 4.54896688461304 8.61702346801758 -9.92275047302246 6.52143049240112 6.9061393737793 8.87360000610352 2.3847541809082 7.86629152297974 -3.16726779937744 4.89551305770874 -2.77652835845947 5.58982086181641 -9.70048522949219 -5.67087364196777 -2.9683723449707 -4.53981781005859 -4.12920570373535 9.09476757049561 1.79098987579346 4.93286848068237 -0.229946136474609 -3.03550624847412 -8.47078514099121 -9.28508567810059 -5.76692581176758 6.1138129234314 -6.54792022705078 -6.94275856018066 2.416015625 8.48253059387207 -0.393973350524902 9.37984466552734 2.30382823944092 -3.45354461669922 -4.3071231842041 4.65715169906616 -8.9206428527832 -8.95561408996582 3.62543821334839 -9.46907234191895 -9.21332550048828 -0.282448768615723 -1.94178199768066 -9.66658020019531 -2.97629737854004 6.81384611129761 -6.79262161254883 2.04054260253906 -2.60755920410156 -9.60866546630859 -6.01603698730469 -7.48994636535645 -0.367647171020508 -0.549472808837891 -2.03450584411621 -0.834287643432617 -4.96138954162598 2.40189647674561 -0.0624599456787109 -9.52401924133301 1.47366428375244 -5.99207401275635 -5.15411186218262 -5.52887153625488 -0.647663116455078 6.3243842124939 3.19709539413452 4.82706546783447 6.43326234817505 8.45172119140625 8.19743633270264 0.0280799865722656 5.08254051208496 1.21043109893799 -6.18234825134277 4.36852645874023 4.98107147216797 7.29582977294922 7.43215560913086 -5.13596534729004 -0.86089038848877 -3.78766632080078 2.58256411552429 4.5846700668335 1.22558689117432 -3.13839817047119 -0.51207447052002 3.39763402938843 0.464581489562988 -7.34195280075073 -8.30064392089844 -9.20105934143066 -8.17313957214355 -0.0472078323364258 -1.46965599060059 -9.04789924621582 -4.03819179534912 -0.541959762573242 -2.25128078460693 -4.16043663024902 -1.96543312072754 -4.22498321533203 2.72483325004578 9.25191402435303 4.06657218933105 1.74233341217041 3.6678524017334 7.52155065536499 -1.7953052520752 8.09039878845215 9.27762794494629 2.71092391014099 -0.0854530334472656 -0.685940742492676 4.94873523712158 2.48737239837646 4.64999389648438 4.94198799133301 -9.10359954833984 9.16084671020508 9.18706893920898 -4.96832752227783 8.69186782836914 -4.70474147796631 3.13511085510254 2.77144193649292 -7.28371095657349 -8.7208366394043 -0.159496307373047 9.25527763366699 -0.274933815002441 5.33904075622559 8.00797653198242 8.05373954772949 6.64369344711304 2.9339714050293 3.01669573783875 -3.42199897766113 -1.11201190948486 0.230196952819824 -8.51798248291016 -5.2116756439209 -8.85199737548828 5.24422407150269 1.25003433227539 8.45603179931641 0.241409301757813 -7.67533493041992 5.75600624084473 -0.748151779174805 -1.55195331573486 8.9364767074585 -5.05542755126953 -8.94235610961914 2.55794978141785 7.83226203918457 -7.3952579498291 -0.529047012329102 1.55270195007324 -2.71050357818604 -1.84831237792969 4.19557762145996 -2.73114776611328 3.48301124572754 3.0099675655365 8.95376396179199 -0.381726264953613 3.63528966903687 -1.79733371734619 9.99953269958496 -8.04117012023926 9.97861385345459 -9.53104782104492 -1.85459518432617 5.42016983032227 8.24763774871826 -3.06348419189453 0.402880668640137 3.58960342407227 -2.83202075958252 8.08930397033691 5.48479795455933 3.79611206054688 0.266963005065918 -7.62541580200195 4.34453010559082 0.768185615539551 2.19556427001953 2.50543570518494 -0.565567970275879 -8.47168731689453 -0.582388877868652 2.01719188690186 -0.966073036193848 0.746187210083008 -4.43937397003174 -0.114432334899902 7.94332075119019 4.46079254150391 4.16662931442261 -4.78494262695313 -7.44174766540527 8.29845428466797 -8.90852355957031 6.00372505187988 -1.5115795135498 7.28948593139648 -4.36391925811768 2.40522480010986 -2.27073574066162 -0.0478897094726563 -3.4895601272583 2.87413358688354 6.96121406555176 0.519433975219727 -2.39132976531982 -9.14729118347168 -9.0035285949707 -0.914076805114746 7.18662691116333 4.00065183639526 4.9361629486084 3.61782789230347 -9.01861190795898 8.7548828125 4.16776847839355 -1.72404861450195 1.91959285736084 1.62693405151367 5.19301414489746 -7.91996431350708 7.49292135238647 9.93254852294922 -4.78207683563232 -8.02511024475098 6.98951292037964 -4.80740928649902 -1.15383243560791 -8.60840606689453 -1.6404972076416 -7.41980361938477 0.183549880981445 2.66256308555603 -4.27938556671143 -5.20589351654053 -9.38352584838867 -5.11704921722412 -3.10238456726074 3.39735960960388 -8.89424324035645 -4.68196487426758 8.17578125 4.46798086166382 -5.16043472290039 -0.145832061767578 9.01680183410645 -9.05458831787109 9.22460079193115 -4.66684913635254 -9.63908386230469 -7.64213991165161 -6.46870613098145 -1.93255043029785 -2.3423376083374 9.10253715515137 -0.0784931182861328 -0.112472534179688 2.09887409210205 1.96005916595459 1.26224613189697 -1.62275218963623 -2.24902057647705 5.06493330001831 -3.2797679901123 0.625062942504883 -9.40068817138672 3.69138216972351 7.61848449707031 5.592529296875 -8.45376968383789 -4.62605381011963 5.72314023971558 -1.13943195343018 5.80382108688354 0.507301330566406 -7.39178657531738 -0.991507530212402 2.74226641654968 2.63278722763062 4.46124792098999 -0.130008697509766 -9.30074882507324 -4.24043750762939 4.07266616821289 -9.80652046203613 -3.09807205200195 -1.46755313873291 -8.29887199401855 5.90960693359375 -3.07562446594238 1.7647066116333 3.30139136314392 4.9168701171875 0.11302375793457 2.51990079879761 9.63951301574707 1.99437046051025 4.92512226104736 -6.76004600524902 7.33704566955566 6.47571992874146 1.72632122039795 -2.98756980895996 -4.16510009765625 5.98456859588623 -2.69465065002441 0.826292991638184 -7.0106463432312 7.03517913818359 -5.11041450500488 2.87199211120605 8.56309700012207 -7.35676240921021 -3.55571365356445 -4.71120262145996 8.22850036621094 8.34632873535156 4.06483173370361 2.56366491317749 7.02120018005371 -9.48581886291504 -9.04658889770508 5.62947273254395 5.72353363037109 -6.27431678771973 -8.57680320739746 9.89043998718262 -2.90428066253662 9.80212211608887 -7.05849647521973 -2.58751964569092 0.457993507385254 8.2396125793457 -2.17471694946289 -5.69686126708984 1.45021820068359 -4.22797298431396 -7.82173919677734 -1.52963066101074 -1.21318244934082 -1.41160583496094 5.77220439910889 -8.50408363342285 2.80537104606628 -8.77667999267578 9.08926391601563 6.62522077560425 3.49675631523132 3.17495107650757 -3.66027450561523 -4.96622180938721 -9.10833358764648 -7.1064567565918 2.76243185997009 -3.49311256408691 -0.252427101135254 1.80923557281494 4.79594421386719 3.99446249008179 8.53860092163086 8.08744812011719 2.23117256164551 2.05136680603027 -1.87543296813965 -2.2655668258667 -4.48922252655029 1.88710594177246 8.04012107849121 0.797537803649902 -2.33640766143799 2.17084980010986 -0.83962345123291 -0.418163299560547 -3.33663368225098 2.17993831634521 5.47862768173218 8.66817283630371 -2.38117122650146 -7.02728700637817 5.31991481781006 3.23713755607605 -9.08453369140625 -0.385566711425781 -0.443438529968262 6.97871923446655 7.74027299880981 -6.91434669494629 9.79129314422607 7.8572154045105 2.44671726226807 -2.94161891937256 9.58843040466309 8.08497905731201 -4.83339405059814 -2.74096584320068 -9.62920761108398 9.93747520446777 6.49954271316528 5.70014476776123 2.07186603546143 -0.92143440246582 2.72459959983826 2.00365161895752 -3.42294788360596 -9.46995544433594 8.03006935119629 -0.752740859985352 -1.87187767028809 -9.10469818115234 -5.83013534545898 1.87484645843506 -3.43398666381836 -6.23993873596191 -3.20163822174072 4.7174596786499 6.8179087638855 -2.44788265228271 -9.59749412536621 -2.37721347808838 -2.3132266998291 2.01312446594238 -2.5227746963501 4.15029716491699 -9.83851432800293 -2.91541004180908 1.03155994415283 3.43186354637146 -9.74956130981445 -6.42042589187622 2.2163257598877 2.36845397949219 2.0258321762085 8.50780487060547 -4.42713832855225 -3.78224945068359 -6.69183301925659 -9.64059066772461 0.167573928833008 -4.86188793182373 -5.71949768066406 7.82357931137085 -9.26076889038086 -9.18375778198242 -6.56093168258667 -7.14640808105469 -0.169893264770508 -0.0455436706542969 1.75697708129883 7.65146255493164 -4.32057762145996 3.03189730644226 4.51419830322266 -2.25085163116455 -9.62263488769531 7.31474876403809 4.32488203048706 3.4288477897644 -0.79093074798584 -8.57830047607422 -9.82919502258301 6.6780047416687 -3.91068363189697 3.00462484359741 -3.93269157409668 -9.68389892578125 3.04540133476257 9.52622604370117 -2.37785911560059 3.01387763023376 -5.68160533905029 8.86250972747803 -8.76811981201172 1.06707000732422 -3.36496448516846 0.664864540100098 7.52025175094604 5.20176410675049 -9.99674987792969 -6.46933364868164 -1.61032581329346 -4.25489807128906 4.60307121276855 -2.32760810852051 8.38403511047363 -4.3292293548584 -5.99996566772461 6.71277236938477 -6.82769775390625 7.97884702682495 -7.49808835983276 8.52929592132568 -7.7757625579834 3.60625720024109 4.84623432159424 -7.04733324050903 -2.38932037353516 7.22600698471069 9.18640518188477 1.52071571350098 -9.96111106872559 -5.74754524230957 8.80268096923828 -0.751518249511719 -7.52394151687622 -2.3251953125 -0.40838623046875 -8.69331359863281 -4.30871868133545 6.50219917297363 6.47067594528198 -7.7615852355957 0.424217224121094 -2.775954246521 1.64748764038086 -2.56278896331787 2.1964750289917 -3.08261489868164 1.35636901855469 -9.71900749206543 -9.56963539123535 -0.543957710266113 7.45628356933594 -9.99298095703125 -3.87425804138184 4.30874586105347 5.13905048370361 4.08882617950439 -2.9928503036499 -5.37715911865234 4.85381841659546 2.5220890045166 7.66216039657593 7.21577119827271 -3.73510932922363 -1.5111837387085 -4.13706398010254 4.56959247589111 9.05817222595215 -0.435372352600098 3.37804770469666 -0.536275863647461 -3.57548332214355 9.80750846862793 -4.00922870635986 5.55854988098145 2.75727248191834 -5.19495964050293 -3.41142559051514 -4.09238433837891 1.34614086151123 -2.97371292114258 -4.62036514282227 -9.3516845703125 -4.82346153259277 7.36993789672852 9.37446403503418 4.8401927947998 2.35806369781494 5.42360496520996 -8.18164443969727 3.53202319145203 1.09320735931396 -8.61733245849609 -4.22273063659668 -4.75756072998047 9.64502143859863 -2.4591007232666 -7.55939483642578 -1.02882957458496 6.60187196731567 4.87936735153198 -6.4375114440918 -8.80782699584961 8.67953491210938 2.88323855400085 8.43898010253906 4.80088949203491 8.72393417358398 -8.86269378662109 -3.63081836700439 -7.06037330627441 -6.78252410888672 1.80726146697998 -2.92442893981934 -6.98063325881958 9.52302932739258 5.33182859420776 -1.74637699127197 2.72930598258972 5.44556140899658 -8.10642433166504 3.36381888389587 -7.95794486999512 2.10102462768555 1.23426055908203 6.50696229934692 3.75976324081421 1.117919921875 2.51111745834351 0.531901359558105 -8.33204078674316 -4.03882598876953 6.29993200302124 3.50775909423828 4.44739532470703 -6.00996208190918 3.55799865722656 -8.98064041137695 0.999268531799316 1.19135475158691 -0.651062965393066 -7.4075984954834 2.03388118743896 -5.86623191833496 -8.8510684967041 6.14104747772217 -5.41201400756836 5.02220630645752 -7.3472957611084 8.10504150390625 -4.41405200958252 5.10454893112183 -9.51415634155273 4.7135329246521 -9.3825569152832 4.40866661071777 5.82129240036011 -8.465087890625 5.20528554916382 6.29082441329956 9.47728157043457 -5.3905200958252 -1.94424057006836 -4.18483829498291 3.4873218536377 -7.78167533874512 -2.48258686065674 -8.00653839111328 4.10400867462158 1.63694000244141 -5.61196517944336 0.21941089630127 0.520805358886719 -1.71746826171875 0.222545623779297 2.99073672294617 -0.664032936096191 4.80453491210938 4.14967060089111 7.8793830871582 3.27213740348816 -9.84286308288574 4.24920272827148 -2.51578903198242 -2.37633800506592 -4.93106937408447 1.43064880371094 -4.02192974090576 -8.55495071411133 9.1420841217041 -2.6538143157959 -1.92816352844238 4.91884708404541 6.01687622070313 -8.54862022399902 7.21104383468628 -9.2115364074707 -9.91467666625977 -6.86131477355957 -1.80992698669434 -4.96744728088379 7.21572637557983 -2.59075546264648 2.57927870750427 -3.7418212890625 -4.08598804473877 -2.7926197052002 7.48926877975464 -9.2899055480957 -1.01241683959961 5.94460487365723 -5.13485908508301 3.46279335021973 7.45338869094849 8.60007286071777 9.88967418670654 -1.95607089996338 8.4745979309082 -9.56831169128418 -1.20788955688477 9.71949005126953 4.94415998458862 -9.95780563354492 -7.35073280334473 4.57923889160156 -8.26617050170898 -1.33276844024658 -5.56738376617432 3.64054656028748 5.64637184143066 -5.69266319274902 -1.07461833953857 9.41354751586914 -7.20693778991699 5.67975997924805 -6.04256820678711 9.41455841064453 8.04998588562012 -7.5271053314209 -8.2350902557373 -0.929411888122559 1.8154468536377 0.858572959899902 -3.44680213928223 -9.66717529296875 6.2380256652832 5.0505542755127 -4.05084037780762 5.43082714080811 4.01066780090332 -5.85287570953369 1.71660327911377 -4.57072830200195 0.563474655151367 0.0613059997558594 1.31527328491211 8.68315124511719 5.56173801422119 4.62711334228516 9.75673866271973 -0.257731437683105 -6.6145281791687 -8.76396942138672 8.58050346374512 -4.36574840545654 -6.96952056884766 -5.36695003509521 8.22626113891602 2.84910655021667 4.53104734420776 8.22695541381836 -3.44449615478516 7.12868165969849 1.10213851928711 0.182639122009277 6.58094167709351 -1.46855735778809 -7.5343132019043 9.94089508056641 8.08390045166016 -1.63546657562256 5.42800426483154 6.32021141052246 -9.27791786193848 -8.91083908081055 -4.03715991973877 -3.84743595123291 -1.26012897491455 8.98650646209717 -1.56690502166748 2.15939903259277 -1.82793712615967 -5.66040992736816 5.09206962585449 -1.452561378479 -8.75595092773438 7.40356206893921 -1.25207328796387 -8.32338333129883 8.10552787780762 1.10454177856445 -8.37629508972168 -8.69490814208984 -4.59282493591309 0.415958404541016 -1.59082984924316 9.73538875579834 -5.89675140380859 -4.69972705841064 1.44270038604736 3.79559969902039 8.51875495910645 0.423501968383789 -8.23333549499512 1.99119663238525 -7.83070755004883 -6.75381469726563 -8.0634708404541 -4.77392292022705 -0.653215408325195 -4.78876495361328 -6.87597703933716 0.561519622802734 1.14634895324707 6.44904851913452 4.36068725585938 -6.81062507629395 1.04335689544678 -6.74177169799805 1.13565826416016 -5.67745685577393 -8.86558532714844 6.25505018234253 8.11884689331055 -4.06736469268799 9.39908790588379 2.21434497833252 -2.99355888366699 4.12151336669922 -8.17382431030273 -9.32583808898926 -4.16960144042969 6.71906232833862 6.44453763961792 -9.83719825744629 8.63460063934326 -3.00894165039063 -5.58002471923828 2.09454154968262 2.13717365264893 -5.633056640625 6.7133731842041 -1.40991306304932 4.56146430969238 -4.50955486297607 -3.18542575836182 0.842484474182129 -6.39260101318359 -3.63252544403076 9.21516799926758 5.60582876205444 -3.71704483032227 -7.02296257019043 -3.78581428527832 6.54321670532227 8.6166934967041 3.82035970687866 -0.51411247253418 6.10642194747925 5.44871091842651 3.1738395690918 9.77346801757813 6.2980842590332 3.16854667663574 6.23714828491211 8.30282211303711 -9.86355018615723 0.419482231140137 -4.31557750701904 -9.76332664489746 8.02241325378418 9.21322631835938 -9.07594680786133 -2.75922679901123 2.26619338989258 3.00454330444336 5.11884880065918 5.66714477539063 -6.33123207092285 -6.42093229293823 -9.60873413085938 -5.71940612792969 -2.89040470123291 9.02823448181152 1.97420024871826 3.90592551231384 -6.92033958435059 7.40480184555054 -6.22554588317871 -6.98740768432617 -0.706418991088867 -0.0891294479370117 -1.09372711181641 -1.03720760345459 -3.04522609710693 7.09687423706055 -3.65440464019775 -3.88814353942871 -6.05609893798828 -2.22401714324951 -1.25205612182617 -6.11177635192871 9.87243461608887 -4.66453170776367 1.03376293182373 6.05714321136475 6.2694525718689 0.654545783996582 4.87771511077881 -9.998779296875 9.99471473693848 -6.90363359451294 -2.16275787353516 -9.82007598876953 7.68367004394531 -6.59663724899292 2.62668371200562 7.34939575195313 0.667470932006836 8.24791145324707 -4.01899242401123 -8.67045211791992 -7.5653190612793 -0.168217658996582 1.00150012969971 1.06188678741455 -4.41451168060303 -1.46032238006592 4.69208478927612 -2.33316802978516 8.98240089416504 -9.12653923034668 -0.62628173828125 3.02971339225769 2.03539752960205 6.18303060531616 -8.26708221435547 6.27680540084839 2.18800926208496 -4.09042453765869 3.32118487358093 -6.56040000915527 1.08587646484375 -3.37035274505615 6.56327772140503 -6.38888168334961 -3.9083423614502 -2.53371143341064 -9.75347137451172 -4.40876865386963 3.6663863658905 -7.04978942871094 -5.51846504211426 -2.66564273834229 -8.98780822753906 4.76945638656616 -6.91736221313477 4.07112598419189 7.44352340698242 5.61023235321045 -8.6179256439209 -4.69572639465332 -5.84325313568115 -8.39459419250488 8.9660816192627 -0.148006439208984 -7.33363914489746 -9.12308120727539 5.18569469451904 9.99073791503906 -2.3522481918335 -9.54452514648438 -6.12525510787964 -4.95833301544189 5.56129217147827 -7.16247749328613 5.47768783569336 7.26085662841797 0.596686363220215 1.30599117279053 -9.46779251098633 -6.59687042236328 |
9.40508079528809 2.03359508514404 2.74450063705444 3.34193420410156 6.01427268981934 4.54380035400391 -4.22052955627441 2.06655883789063 -0.0675144195556641 -7.65228080749512 6.48736953735352 -3.44198799133301 -2.21964740753174 6.87338590621948 4.06291007995605 -8.48846054077148 -2.39556407928467 2.97519183158875 -5.21678161621094 0.516380310058594 -9.8043098449707 3.00157308578491 -9.88091468811035 1.01159191131592 -8.07768630981445 8.86562538146973 4.54057693481445 -2.84799957275391 -2.77270221710205 7.64777183532715 -8.28693008422852 -2.56868457794189 2.70633888244629 2.50533294677734 -9.39589309692383 -1.53342628479004 -0.995212554931641 -8.53949356079102 -1.99175930023193 5.27267456054688 8.86496734619141 -0.137897491455078 -8.82962799072266 -7.00968742370605 6.62685823440552 7.91056823730469 -9.45514297485352 -2.0315113067627 -9.57888793945313 8.36569023132324 -8.8886661529541 6.43762159347534 3.69012331962585 9.20702743530273 -7.20456886291504 -1.16134071350098 -5.45207500457764 9.63855934143066 5.41568279266357 7.2781138420105 -4.01258850097656 3.10892820358276 3.98940062522888 6.78416967391968 8.31006050109863 6.00545406341553 5.09885311126709 -4.35681438446045 -5.90970039367676 0.622278213500977 0.239471435546875 -1.69961833953857 -0.207613945007324 3.69081950187683 4.50332164764404 -9.71826934814453 3.01472425460815 7.69081544876099 5.58914184570313 -3.22952365875244 -4.75344562530518 -8.67018127441406 -6.2672381401062 -2.84338855743408 7.85797548294067 3.88728332519531 1.81290054321289 7.84303426742554 -1.43860721588135 6.64425325393677 7.75282096862793 -4.37597846984863 -1.30618953704834 5.99853038787842 -3.71585750579834 -6.68769645690918 -8.79446220397949 4.73394155502319 3.350252866745 2.23086261749268 1.16904640197754 -4.82259654998779 5.21892547607422 1.64795017242432 8.14136695861816 -8.46656036376953 -8.26201438903809 8.30482292175293 3.21036791801453 9.10891532897949 6.41927909851074 6.50358915328979 -3.0544319152832 -3.21219539642334 -8.20755958557129 -0.122719764709473 1.40762901306152 -8.69722747802734 0.949259757995605 1.60578346252441 5.40784072875977 0.525130271911621 8.69970321655273 -9.24453353881836 -0.47321891784668 -2.12381744384766 1.4783992767334 -6.54919624328613 5.07733535766602 0.745586395263672 2.56486392021179 -8.32805442810059 0.293458938598633 -9.00986099243164 5.32287359237671 -4.97951602935791 -2.1883544921875 0.462380409240723 -3.83632278442383 1.33137798309326 -6.4083366394043 -0.000978469848632813 6.12727880477905 2.8790397644043 -5.10885238647461 5.51181793212891 -2.76875400543213 8.1474494934082 -2.3808012008667 -9.74358749389648 -9.75420188903809 8.1031322479248 6.32424116134644 -6.68533515930176 2.42296123504639 -4.83930969238281 -6.8333477973938 -7.1631007194519 7.31865358352661 0.0710163116455078 9.12948608398438 2.13755226135254 3.23473906517029 -1.41118907928467 9.83826637268066 -0.988160133361816 -9.98317909240723 6.28778457641602 2.500004529953 -2.26476764678955 6.97428464889526 1.59927940368652 -9.29903793334961 -6.89187049865723 -2.59688949584961 3.65466570854187 -7.99041557312012 -7.36160469055176 -0.99589729309082 7.02988815307617 9.04131889343262 2.14940643310547 -9.79512786865234 0.39734935760498 0.633749008178711 -9.73660278320313 6.60984039306641 -1.17223167419434 6.15587615966797 4.11676597595215 3.19595098495483 0.950942993164063 2.41622352600098 -0.635367393493652 4.70694065093994 9.10924434661865 3.93649816513062 -7.720055103302 -9.07165908813477 0.0973329544067383 -8.12185287475586 -8.5090274810791 1.80883312225342 0.139232635498047 -3.74890232086182 -3.96426296234131 7.55519104003906 9.16534423828125 -0.475744247436523 4.04907703399658 -8.60562515258789 9.6998291015625 9.23852157592773 -9.49199867248535 5.63329696655273 1.36885261535645 8.69148445129395 -9.44622421264648 2.44803333282471 0.537942886352539 3.78525495529175 -1.23486614227295 -0.395578384399414 4.94149923324585 3.37746119499207 -7.63502311706543 -5.19396781921387 7.19453573226929 -1.69649028778076 -0.209301948547363 -0.0239887237548828 -3.15658664703369 -4.73189926147461 -9.17835426330566 -3.69086647033691 -2.01893901824951 -1.46475696563721 1.41422367095947 -1.97457218170166 9.70114517211914 -4.11199951171875 9.76618003845215 3.58661842346191 2.88860774040222 8.94269180297852 4.07639694213867 1.57836055755615 8.41379165649414 9.12388229370117 9.71285820007324 8.72033882141113 -2.32797241210938 0.575918197631836 -6.25137329101563 -0.232438087463379 -3.72748279571533 1.10875225067139 -3.34822082519531 8.64924430847168 4.73763227462769 2.88998365402222 -5.40890884399414 4.81939077377319 -5.50660610198975 4.0721583366394 -0.672760963439941 -1.35554885864258 -3.14976787567139 3.42484664916992 3.84311652183533 -1.02109527587891 -8.05027770996094 -7.93410301208496 2.38486671447754 2.79378390312195 -5.60304832458496 0.223235130310059 2.36085510253906 -4.13443470001221 6.80682182312012 8.46850395202637 0.0369081497192383 1.40402221679688 5.13482284545898 -5.3324556350708 -8.35300827026367 -2.7195987701416 -3.75072574615479 -0.667692184448242 -6.31177711486816 -4.47740173339844 6.89084053039551 -9.8990478515625 2.84415006637573 4.74040746688843 8.66138648986816 -1.74107933044434 -6.34643125534058 -5.21228981018066 -0.255762100219727 -9.1138744354248 -4.24319362640381 -7.30860900878906 5.63009262084961 -6.12197113037109 -8.50045394897461 9.36042785644531 8.65715217590332 -8.40537261962891 -2.78679275512695 0.398720741271973 -6.92109298706055 -4.3540153503418 -8.58389282226563 0.0201950073242188 -9.76692581176758 5.54592847824097 -9.25644111633301 -8.19206428527832 3.8873553276062 -2.25995445251465 -7.53925752639771 -9.64703369140625 5.4966402053833 -5.68891334533691 -2.47910404205322 -9.99299621582031 -6.77285957336426 6.46345853805542 -7.39151430130005 -2.08619499206543 4.13028240203857 -3.14138793945313 3.14726805686951 0.35955810546875 6.86072540283203 -5.7430534362793 -9.57357788085938 9.7017240524292 0.259059906005859 1.61857032775879 4.29740905761719 6.58512544631958 7.50433683395386 1.12502479553223 7.74518537521362 -4.86068630218506 -2.11689376831055 -3.06321716308594 2.29234600067139 1.61490821838379 -2.89970779418945 2.5445384979248 -2.4573860168457 -9.20116424560547 -9.90110397338867 -3.96286106109619 8.96991920471191 -4.99556446075439 -8.76789855957031 -7.79835176467896 -0.573958396911621 4.7514820098877 -0.472468376159668 -9.58087730407715 -2.21041297912598 2.92367911338806 -0.23957347869873 -2.86251926422119 -4.58348846435547 2.01050662994385 -0.324302673339844 7.25192070007324 -9.23024749755859 4.53348350524902 -5.32758522033691 -1.56309223175049 -5.44608879089355 -2.16499710083008 5.81289768218994 -7.08442258834839 -5.13222885131836 -4.06809425354004 -1.18002796173096 -7.95444917678833 -5.33608436584473 0.560883522033691 -3.44567680358887 -6.92329216003418 9.26540756225586 -7.63457298278809 -4.0373363494873 8.83964729309082 2.85190081596375 2.544269323349 7.93268632888794 7.36973524093628 -2.61139488220215 -3.1041898727417 -1.265793800354 |
4.90449666976929 9.55598640441895 -8.1442928314209 3.49987959861755 3.8885018825531 8.80785369873047 -6.70351791381836 -4.76372337341309 -9.22966194152832 9.52383041381836 3.68792295455933 5.04688739776611 4.32366371154785 0.0968255996704102 -5.19356727600098 8.0617094039917 -8.02065849304199 5.31454086303711 -6.21566343307495 4.13470268249512 7.52348375320435 3.73686981201172 7.75153160095215 -9.32497215270996 9.05538558959961 -4.53744506835938 -4.50892066955566 -8.16373825073242 -4.87921333312988 4.36062574386597 -1.6589937210083 -1.33705520629883 -5.46060752868652 -7.73931312561035 -4.59991073608398 -6.76129150390625 -5.17526149749756 0.455227851867676 -9.8860912322998 5.03405094146729 7.74538230895996 8.94279670715332 -3.94505596160889 2.57571935653687 -5.34726905822754 3.56904745101929 6.87170219421387 4.81773567199707 -0.0117626190185547 -4.22234630584717 -5.62844753265381 0.370511054992676 8.93185424804688 0.929879188537598 -0.621499061584473 3.62053108215332 -8.32163238525391 -6.46749496459961 -0.320233345031738 -8.85040473937988 3.46619582176209 -8.10272979736328 4.35141754150391 -7.40128517150879 -6.29071044921875 2.54763102531433 6.00311660766602 -7.46187400817871 -6.316810131073 -5.83026885986328 -5.63917636871338 -5.85643005371094 -0.585824012756348 -0.843695640563965 -1.39553451538086 -2.07618618011475 -4.1092529296875 -2.61196994781494 3.36460566520691 -9.81595611572266 8.75490379333496 9.82129287719727 -6.58718872070313 7.93277740478516 2.22074127197266 -1.41019916534424 5.37591171264648 8.59843730926514 -3.91459369659424 6.44688081741333 3.88006401062012 -5.80049991607666 -9.2042064666748 -5.68098068237305 6.30489778518677 6.73343229293823 -5.30280113220215 9.89260864257813 -5.5081844329834 8.03088665008545 -2.47905826568604 -0.0192584991455078 7.9757924079895 -0.109175682067871 -1.85457801818848 -2.58051300048828 6.73175573348999 -4.20484161376953 7.60484457015991 -3.71172523498535 -1.46557712554932 -7.0526270866394 1.94393730163574 -2.07237339019775 9.30762481689453 -7.03467893600464 0.127500534057617 4.18976306915283 -4.78683376312256 -0.636950492858887 -2.61553192138672 -0.254331588745117 6.69616889953613 -4.50777626037598 9.83254241943359 -5.84861755371094 -1.8926248550415 6.07785701751709 -1.00886917114258 5.23681831359863 3.30371832847595 7.28720426559448 1.69685935974121 0.163823127746582 0.351229667663574 6.2761378288269 9.27030372619629 8.30324935913086 -8.5783576965332 9.46180152893066 1.89982509613037 -2.72534275054932 9.61357116699219 -9.2734546661377 -6.80989265441895 8.63448143005371 -8.05766296386719 -1.32262134552002 5.68135261535645 -1.45948028564453 -7.229736328125 5.92645168304443 5.66381931304932 -1.76777935028076 -2.08086585998535 2.57668685913086 -3.51320362091064 -4.18904876708984 3.57706522941589 -4.7610912322998 8.05710601806641 -6.27996015548706 -8.340087890625 -7.59170961380005 -7.24809217453003 9.52143669128418 -9.47592163085938 8.84534645080566 -3.56550121307373 6.41855001449585 -8.72154235839844 0.250922203063965 5.334792137146 -7.36496925354004 6.49187088012695 6.56023740768433 3.00268626213074 9.29524898529053 7.46478796005249 5.21889448165894 |
