-8.32 6.8 4.47 -9.88 -6.23 -4.92 -2.03 -4.61 -1.5 3.04 -6.05 3.08 5.04 -8.21 2.05 4.43 -4.98 8.56 -1.73 -5.02 1.64 3.21 6.67 -9.3 5.84 4.94 -2.77 1.86 9.9 9.35 5.73 0.99 6.67 9.01 -9.81 2.52 0.67 4.81 -3.37 8.66 -4.39 -0.52 1.34 -9.38 -3.14 -8.7 -4.07 -3.11 -1.25 -6.64 -7.76 -2.38 6.61 1.52 -7.09 0.69 -9.88 5.45 9.93 1.25 4.41 3.15 8.76 -0.16 -2.57 4.47 -8.27 4.41 4.92 0.74 -1.51 8.12 -0.2 -5.09 -7.26 -5.99 6.59 -4.85 7.79 -4.85 4.81 1.77 1.93 -1.36 -5.06 -7.43 2.23 -3.17 1.58 -4.28 0.78 6.25 9.88 5.88 0.16 -2.52 9.67 -3.57 7.88 -7.16 -5.29 -9.22 -0.9 -6.4 -1.46 0.46 5.68 -2.03 -3.43 -9.67 8.45 3.28 -6.13 4.2 -9.54 8.15 3.27 -7.13 9.67 9.95 4.79 5.3 6.53 2.08 -3.97 -2.29 -0.98 -3.8 6.37 2.27 -1.67 -1.38 8.57 7.46 -3.31 -8.47 -2.1 7.72 -1.82 -3.21 -0.7 -0.65 -2.84 1.62 0.92 5.48 9.71 -2.2 -0.15 -7.55 8.45 3.47 0.05 -4.4 4.51 6.08 -7.8 1.63 6.91 -2.99 -7.44 7.96 9.79 9.78 1.02 -0.9 -3.88 2.24 -6.73 -5.02 8.43 -4.54 3.01 7.22 -8.51 -8.68 -4.76 0.93 7.56 -0.06 -4.5 7.38 -0.71 -0.64 -0.29 0.36 -1.17 8.79 -3.57 7.59 5.41 5.65 4.44 -6.81 -1.65 -6.17 6.33 -0.07 0.13 -0.4 0.23 -1.22 0.23 9.9 6.94 -8.94 -5.82 -9.31 5.88 -5.86 -2.75 -6.59 -4.81 9.32 1.59 -3.09 -6.49 6.59 1.43 -2.82 2.76 6.18 -7.89 3.67 4.74 -0.35 5.22 3.1 -9.72 -9.58 7.14 -5.45 5.04 3.41 -7.31 -7.91 2.18 -0.03 7.76 -7.2 -3.15 2.24 -2.65 9.25 -5.18 9.23 3.53 -9.23 -1.55 8.7 -1.39 -6.77 -0.35 -0.3 2.46 -4.32 3.73 6.82 7.21 4.84 -1.13 4.21 -7.07 3.08 7.28 5.01 6.05 -4.06 4.49 2.36 3.37 -7.27 -1.87 2.73 8.57 -0.47 -3.48 2.4 -8.79 -0.95 5.91 8.4 5.89 -4.57 1.54 -7.07 -8.39 -8.05 6.12 -2.32 -3.97 -3.76 5.48 -4.61 -0.58 -5.88 -5.9 4.62 -9.32 5.29 2.7 -8.87 9.56 9.4 -7.22 0.2 -2.67 -5.78 8.15 -0.48 -5.94 1.77 -9.31 -0.47 -1.19 -7.37 8.72 7.53 -6.35 3.16 0.9 -8.58 -4.74 9.19 9.65 2.23 -6.83 -1.27 -0.06 -1.64 -7.81 -7.71 4.24 1.68 -5.02 -5.87 7.71 -3.64 6.61 -1.09 -5.8 -5.92 8.29 -7.04 6.77 -5.39 -9.02 6.28 -4.27 7.19 -9.06 5.37 -5.32 2.31 3.1 0.41 -3.11 -2.12 4.41 8.65 2.49 -9.03 -2.4 -0.76 -4.68 9.98 3.47 7.73 2.75 -5.81 -8.36 -7.57 1.79 -3.54 2.21 5.53 6.74 2.94 -3.92 -0.76 -4.66 5.29 4.31 1.29 5.87 -8.79 4.68 -5 -3.65 -5 0.65 9.98 3.6 2.42 -2.73 -8.24 2.28 1.83 0.74 -8.76 -2.14 -1.97 0.2 6.49 1.84 -4.35 -8.95 3.39 6.43 1.88 5.73 -8.12 -8.48 -0.59 -2.01 2.51 -2.64 5.18 -8.04 -6.44 -2.3 -8.36 -3.02 1.51 6.33 3.6 2.23 5.3 4.62 -3.45 4.47 -6.66 6.51 4.19 3.51 -6.55 3.76 -5.1 -6.71 -6.64 3.84 9.49 -6.97 -7.21 7.3 -1 2.99 -7.91 6.08 3.66 -0.48 6.97 7.2 -5.82 -3.24 -5.48 1.52 6 -7.02 -1.62 1.89 6.15 0.09 3.06 8.04 6.23 8.85 8.73 2.11 8.98 9.51 -4.73 9.09 -1.7 4.03 0.72 -5.56 -7.2 -5.26 1.8 -7.93 6.22 2.32 -3.77 4.66 8.32 3.24 -6.56 6.15 7.27 -5.4 5.03 2.78 -5.7 -6.16 -1.43 -9.61 4.72 -1.25 -3.43 -5.44 0.18 7.34 -5.72 1.58 3.3 -5.35 0.97 -0.49 -1.57 1.27 -1.92 9.85 -4.3 -6.22 6.85 -6.64 -4.21 -0.78 -0.54 5.83 -5.88 -0.03 -4.47 4.42 -0.68 -2.08 4.81 6.71 -9.27 -3.93 3.47 3.28 6.31 -9.47 3.99 6.37 -3.38 -7.56 7.81 4.96 -2.55 4.21 -3.32 -8.57 -9.53 -4.95 -2.75 -0.12 4.51 -9.36 -4.43 8.01 -1.98 -9.5 1.09 6.9 -8.97 -6.26 7.59 6.93 8.03 -1.48 1.7 3.47 -6.19 3.86 3.16 -5.74 -6.69 1.8 6.11 5.9 4.7 -1.18 0.25 -3.89 -8.05 -4.97 -6.68 2.42 -3.11 1.06 9.12 -6.2 -1.96 -5.06 -8.42 -7.16 6.71 -9.88 -6.8 -7.65 9.13 -3.99 8.85 1.55 9.51 7.85 1.17 4.36 -6.9 -7.79 -3.44 -7.91 3.74 4.51 8.89 -5.78 2.46 -3.86 5.32 8.19 -2.97 7.47 3.73 5.67 -0.61 -4.31 4.61 2.26 4.35 5.3 3.08 -1.05 -1.3 3.89 -0.66 2.61 5.07 5.74 -2.79 7.73 2.56 7.17 7.1 -1.3 -5.97 -8.36 0.06 2.36 5.55 5.88 -1.78 -5.55 -4.24 -2.11 -0.74 0.18 7.31 -5.04 -7.8 -3.1 -7.23 5.43 -2.86 -4.64 -0.36 -0.62 -5.01 -4.96 0.47 7.24 4.15 -9.91 0.59 9.43 -0.04 -7.42 1.7 -4.16 -3.6 9.2 -1.62 -0.35 0.05 -2.56 2.53 7.65 -8.2 -6.67 -5.76 9.96 -2.39 0.03 -4.73 -0.03 -6.42 2.47 -3.42 7.66 8.73 -8.55 -0.07 -5.78 -4.04 6.34 -2.5 8.57 4.39 8.31 5.36 1.61 -1.63 3.97 -9.28 -7.76 9.28 2.74 0.15 7.17 -8.22 7.17 -7.2 -2.68 -3.7 -0.99 -2.69 -0.08 4.13 4.24 1.93 1.39 -1.82 3.39 0.48 4.79 0.83 4.4 -1.08 -2.19 -1.84 9.78 -2.51 -5.37 -8.46 -2.94 7.15 -9.71 -6.28 6.25 -7.35 3.65 8.34 2.33 -4.28 -2.67 3.26 6.54 3.74 1.17 -4.49 3.09 -0.36 -3.43 0.15 5.57 -5.89 -6.27 2.42 3.65 -4.92 8.99 -0.99 3.9 4.51 -1.87 8.83 0.46 -8.41 8.97 5.74 0.77 6.18 -7.04 -1.27 8.84 -8.25 -8.4 -6.76 4.9 0.67 -2.91 -8.02 5.27 -7.28 -0.83 0.77 3.59 0.12 3.41 -1.78 -3.32 8.69 -5.25 -9.5 1.88 7.47 5.37 -6.41 -3.12 -4.42 1.65 3.3 8.83 -9.51 8.41 1.11 4.37 -6.15 -9.02 -5.2 0.51 3.61 9 -4.58 8.39 -9.71 -5.75 3.39 -7.38 0.65 -6.55 -3.13 4.71 3.38 -5.91 7.46 7.34 -7.54 0.32 -2.28 -2.62 7.75 -7.74 0.1 -9.85 3.48 -7.03 -0.16 -5.68 -1.13 -3.49 -9.8 -2.51 -7.25 -5.23 9.81 -6.02 1.36 6.41 4.41 -9.87 2.91 3.26 9.15 8.19 3.9 1.04 -1.27 -9.66 -5.07 -1.86 -5.48 9.52 2.1 8.29 0.31 -3.89 6.25 -9.35 8.58 6.31 2.89 6.97 -1.8 0.52 0.54 3.6 5.55 5.19 0.18 -3.58 -1.4 -7.89 -4.61 9.58 -7.15 8.23 0.15 1.81 -0.17 -2.64 -3.28 -0.82 -4.26 2.55 3.61 -6.77 9.29 2.23 4.22 -3.8 -1.57 6.17 -3.77 -2.01 1.52 0.79 -2.13 9.56 5.34 5.67 -9.12 6.92 0.5 7.57 -8.59 5.33 3.77 9.55 -5.33 -2.92 -3.18 -5.99 -3.58 2.37 -2.12 6.71 0.74 -9.79 8.99 9.74 -4.28 5.98 9.84 4.51 -4.47 1.68 1.61 -2.18 8.16 -2.49 -5.55 0.59 -2.86 -7.25 -9.47 -7.3 -7.24 3.37 -5.33 6.9 2.48 9.07 3.23 4.48 -9.53 2.44 6.32 1.71 -7.55 9.84 9.18 -9.95 -8.61 -2.18 1.21 0.28 -0.23 -2.26 7.03 8.71 2.57 -9.6 4.88 -2.24 4.59 -2.25 0.77 1.94 1.89 5.43 -9.62 9.02 7.76 9.15 -9.44 -4.34 4.58 2.02 -6.71 5.24 -8.1 -6.14 0.78 9.45 4.94 -5.96 5.71 9.37 -1.84 2.78 1.92 0.81 -8.53 -0.77 6.51 3.46 -8.69 4.08 3.91 4.8 7.86 -5.7 -1.59 -2.8 7.94 5.31 -0.73 -8.06 2.88 -2.84 4.57 0.4 9.58 -5.75 -3.22 -8.25 8.93 -4.36 1.25 -8.87 -3.57 6.69 8.03 7.08 7.56 6.08 0.6 0.55 -8.79 -4.75 6.39 2.63 9.14 6.13 -9.33 1.5 -5.72 -3.48 2.66 3.18 -4.89 0.07 -1.89 -2.97 -3.66 5.23 2.78 -5.62 1.66 -9.58 -7.15 0.75 2.87 -1.34 8.41 -4.78 -4.84 2.28 -3.48 -3.57 1.03 -7.26 -0.73 9.7 -7.95 -5.51 -7.72 2.55 7.91 1.55 -1.03 4.54 3.97 0.82 8.27 5.68 -6.19 -0.64 8.67 2.33 0.92 8.32 -5.97 4.77 4.21 3.65 -6.64 9.44 4.07 6.18 -0.79 1.72 -1.39 -8.89 -5.79 0.57 6.1 7.29 -1.25 0.65 1.42 -6.59 -4.29 9.33 -0.5 -5.48 -3.28 8.1 4.44 -5.24 -8.14 -4.28 8.2 0.34 7.22 9.3 4.12 -1.85 5.49 1.47 -1.61 -5.01 -6.2 -2.75 -9.88 -4.45 -1.18 4.64 -8.68 3.75 -1.05 -4.3 4.92 3.91 0.47 -4.8 -9.89 3.68 7.55 4.91 9.52 5.2 -6.05 -7.4 -2.21 -5.78 -2.08 -8.65 -9.01 8.65 -8.26 -8.54 5.96 5 -8.3 -4.29 -1.52 1.8 -1.15 -5.7 -5.59 3.03 -9.45 9.52 -4.76 -3.35 -8.23 5.6 -7.45 2.99 1.37 2.77 -2.84 6.83 -0.27 -3.07 -0.98 -1.21 -4.45 4.41 7.06 7.02 -4.22 7.01 -0.66 5.91 -4.85 5.4 -1.34 -6.19 -6.58 -5.49 1.13 -5.45 -6.47 -3.25 -1.96 -2.89 2.86 -9.14 5.2 9.12 5.8 -3.43 -8.42 -5.28 5.67 8.95 -4.34 -4.22 -9.44 3.08 -6.87 -4.96 -9.13 9.89 -8.1 5.99 5.98 8.49 8.61 4.65 -7.27 -8.31 7.79 2.24 6.96 -9.42 5.24 -4.99 1.25 0.06 -6.87 9.77 3.85 -6.03 3.88 -9.26 6.13 -0.56 4.01 -0.85 9.41 0.17 -4.8 -1.23 -8.23 -0.56 -3.24 1.28 -0.22 -2.55 1.87 -2.15 -0.4 -4.87 5.98 6.03 2.72 7.61 0.83 4.93 -7.19 6.21 1.77 1.4 3.67 2.95 9.84 2.1 8.11 2.46 -0.77 -5.3 -1.3 1.16 -7.22 4.87 2.08 2.66 6.26 -9.07 -2.14 7.63 4.17 6.31 -2.75 -3.08 -2.01 -7.56 0.29 -9.07 -9.1 -5.97 1.32 -8.45 9.91 4.71 -8.53 4.04 -4.01 -3.1 7.35 4.09 5.02 -1.15 9.59 4.23 3.68 3.28 7.88 -0.94 -1.97 0.27 -2.69 -0.1 4.03 8.78 -5.11 0.22 1.48 8.96 1.48 -4.21 -3.89 1.21 5.1 5.13 -0.33 9.85 1.56 -1.46 -8.81 8.79 4.78 -2.81 2.89 7.58 0.32 -5.73 -7.72 -1.53 -7.98 7.77 0.96 1.33 -0.56 5.1 7.92 -9.9 -3.56 -5.22 -4.97 -8.38 -7.53 7.44 -4.3 8.56 9.31 -2.17 5.95 -7.99 -6.09 -0.6 1 -0.59 -2.96 0.25 9.31 5.98 -9.55 8.93 -9.15 -5.22 -6.23 -3.3 3.93 -0.14 -6.68 -1.34 -4.5 6.54 5.82 -8.17 -6.11 -0.45 -5.37 1.78 -2.21 -4.63 -9.86 -7.36 8.26 4.34 -6.19 -6.65 -2.39 7.23 4 -5.75 7.4 9.58 1.77 -0.75 4.59 -0.1 -1.05 -6.81 7.72 2.91 2.81 3.92 0.76 3.94 -2.31 3.31 -6.26 -0.43 -4.42 -2.36 -8.21 -0.2 6.25 5.05 8.57 -9.13 -2.85 1.6 0.19 3.87 7.74 0.73 2.14 0.4 5.85 1.58 -4.23 -8.13 4.14 0.58 -4.2 5.05 -3.81 -9.86 -6.43 0.33 -3.62 -6.8 5.76 -7.06 6.2 6.01 -2.96 -9.88 -3.49 -3.33 -2.57 -8.63 3.39 -6.99 -5.88 -2.92 -0.95 -2.86 -2.89 7.75 -2.28 |
0.62 0.37 7.35 -3.08 -9.46 3.81 -7.36 1.44 -4.22 -7.24 6.12 -1.46 1.9 3.43 -4.22 8.2 -2.83 -0.25 0.66 -8.33 -5.01 -6.71 8.09 -6.15 5.15 1.5 6.79 -6.35 -4.74 -8.77 -6.46 -1.31 7.78 -2.43 0.26 4.65 -6.15 -0.5 0.41 7.8 9.86 0.37 5.85 -5.01 -7.56 8.08 5.3 9.15 -1.04 5.57 2.26 -6.52 -8.16 6.51 -5.83 -8.08 2.58 -0.22 6.66 -4.12 -0.05 3.14 -8.98 -2.03 -7.11 -4.26 2.69 -3.09 0.99 -2.3 -7.1 -1.99 -9.22 5.08 -0.59 -8.49 -8.56 -8.43 9.67 3.23 8.92 -3 -3.01 9.37 1.28 0.4 -2.34 -0.2 -5.33 -5.49 -8.04 6.94 8.5 -7.29 4.9 1.84 -0.41 -9.24 5.58 -9.07 6.63 3.72 9.48 5.72 6.65 -4.75 6.49 -7.53 -4.77 3.77 4.25 -7.23 -4.9 2.14 -6.08 3 4.63 8.3 3.07 1.04 6.15 1.92 1.32 0.06 1.06 -0.82 -1.47 -4.95 8.42 -5.84 -4.99 8.97 6.33 -4.1 8.97 6.15 -8.1 4.85 5.45 8.27 5.77 -0.65 6.73 3.62 -1.64 0.03 -4.39 -1.56 1.65 -4.28 -6.69 -5.47 -7.67 1.42 5.91 7.66 7.38 3.57 6.74 -9.5 -6.65 -8.36 -2.99 -3.04 8 -5.11 -3.96 1.48 -6.22 3.88 -2.61 -3.82 -3.35 -2.65 -2.27 1.62 -0.42 9.9 4.14 3.39 1.79 4.96 -1.7 7.92 -9.2 -6.63 1.95 -0.63 -2.1 4.08 0.11 0.41 1.07 -8.44 0.88 -0.42 -7.3 -0.63 -4.11 6.74 |
-9.55 -4.29 4.29 8.26 3.92 -1.65 6.22 -5.59 0.61 2.54 -4.29 -2 -4.33 -7.34 0.39 2.93 0.57 -4.55 6.08 -1.59 -7.81 6.66 -4.41 -2.97 3.43 -8.32 1.89 -1.61 3.43 9.38 5.39 -4.83 -0.71 -8.4 -2.33 -6.22 -0.72 -4.37 -2.47 -2.13 2.8 -3.5 3.29 9.48 1.88 3.44 -5.18 -5.97 -1.87 -0.8 7.69 4.31 5.94 -3.5 -8.66 5.27 6.41 2.68 0.58 0.13 |
