-7.88616371154785 -0.265866279602051 3.64450069773011 -8.15472092875279 -5.81093025580049 3.15534901502542 -3.06148624420166 3.23751497268677 9.75622940063477 -0.833920478820801 1.677290558815 -8.40399530902505 4.86264342814684 3.01283597946167 -2.75860691070557 8.40650535514578 -3.75653380062431 -1.97055435180664 1.22728297486901 -8.56838417053223 -5.55434560915455 0.914792060852051 4.92638349533081 9.5432300567627 -6.8246955871582 -4.07951531908475 9.63165664672852 2.66582627221942 2.9416823387146 -4.61197948455811 -2.88464465178549 3.85008502006531 7.76705932617188 1.2404956817627 5.716712474823 6.40699577331543 -1.47217845916748 -8.23848658008501 5.23091169353575 5.46068733558059 6.74700248241425 8.79561424255371 -1.57808685302734 4.35229301452637 -3.88163471221924 7.20138311386108 8.25544613599777 -0.579632759094238 -2.70387554168701 -2.57560157775879 -7.21260261535645 7.30664443969727 -0.122309342026711 -7.17058563954197 8.14027811726555 -3.19207286834717 1.48540587071329 9.1684513092041 7.6930966200307 8.70191451860592 10.1615567207336 -5.00479221343994 -8.18821693235077 -0.176319070160389 6.18204819783568 -5.36194038391113 5.38053512573242 -3.94586944580078 9.4032188905403 3.76277685165405 -6.13204526901245 -5.07923736749217 -9.94039916992188 -3.75894846348092 -2.16611535008997 1.98466289043427 6.73268508911133 -1.23496329784393 9.42450761422515 7.67375767580234 1.93412208557129 -3.36248226091266 -8.80133819580078 5.5820369720459 8.96737575531006 -9.88183499360457 -9.72107315063477 -8.12483978271484 7.51357269287109 -3.71361213922501 -7.38636159896851 -2.97393703460693 -5.96208012627903 -2.63544464111328 5.11873245239258 -9.74610180361196 5.5741161108017 4.82132434844971 5.28259468078613 7.95283350581303 5.32003402709961 -9.70924758911133 1.81287313229404 2.82045131921768 -0.177002727985382 1.54883289337158 -4.8405549870804 -3.43481495429296 -5.71085453033447 -6.75561904907227 -8.0152416229248 -8.71445465087891 -2.27477453555912 8.50630388921127 -7.75289106369019 -9.46089935302734 -9.3238639831543 -9.55566596984863 9.21526900073513 -4.36026668548584 6.03217124938965 5.95222663879395 4.27038383483887 -8.48042427911423 1.44200074672699 -3.519211769104 8.98830795288086 1.12317888136022 -9.8882942199707 1.53598690032959 -5.69760687556118 7.06373643875122 2.59031748771667 0.597628593444824 4.26729393005371 -0.47428035736084 -1.11193340271711 1.88922643661499 8.35294468142092 9.92922019958496 -6.00257660262287 7.46789169311523 9.56469535827637 -9.6138973236084 1.77349269390106 -5.4546759352088 -7.01139259338379 -8.78251028060913 7.08452827483416 7.7688382267952 -2.57747745513916 4.03428167989478 -1.4723503254354 9.31669044494629 -9.9606574177742 -9.33092601597309 -3.89846706390381 6.23565375804901 -8.19596290588379 5.36734342575073 -3.80928611755371 -0.89961213991046 -8.39460736559704 -5.07749402523041 4.58679914474487 2.73795502074063 -6.49402809143066 -9.68593978881836 -6.97292327880859 -8.48838424682617 -1.77722072601318 6.39060467481613 3.12369322776794 -2.52886826265603 1.35212100483477 2.25872898101807 -9.07298278808594 6.4664192199707 3.99091219902039 -6.70111131668091 6.81308464473113 9.32108688354492 8.04734706878662 1.0592041015625 8.55585355684161 5.17282491922379 -9.89744400046766 -8.90359355276451 -7.0029468536377 3.40851151943207 8.99066591262817 -0.904864160344005 2.18962097167969 0.515544969588518 6.99032545089722 5.11408805847168 -3.42680978775024 2.36908886255696 5.34729480743408 -0.249240159988403 -2.90939235687256 -4.06505012512207 0.386432647705078 6.9175154180266 -4.2170295715332 9.93342399597168 -4.23094844818115 2.08653354644775 -7.03833055496216 5.52517652511597 -1.6567268371582 -0.758289337158203 -8.0019474029541 -5.29524803161621 -1.54572582244873 8.40095901489258 3.85383105278015 2.16814422607422 -1.20483493804932 -0.192255020141602 5.36382833006792 -0.87755298614502 7.32342689856887 -0.402087057940662 -4.07535457611084 -3.10562515258789 9.29789200797677 -4.15740477479994 -5.40139961242676 6.75990295410156 6.02110290527344 -5.4199478533119 0.298055648803711 -6.06761993467808 2.46977233886719 7.05501317977905 -3.98551559448242 -2.16084384033456 6.26173747330904 0.867367744445801 8.65581721067429 6.04983215942048 -9.44611148163676 -6.03915134328417 -7.46639382187277 1.52354335784912 -0.119701385498047 -1.21417617797852 1.35792827606201 -3.78511810302734 -9.80529761314392 -4.11105472035706 -5.61053276062012 -4.93137264251709 -6.49601995944977 -8.05729156732559 -4.63799858093262 0.722564697265625 -7.38254117965698 -7.56254083383828 -5.380539894104 6.93427276611328 -2.5700324177742 0.685896813869476 -7.35001564025879 9.38134384155273 -2.93452525138855 5.05085602402687 1.40498542785645 -5.31761932373047 -2.9339656829834 -4.19044399261475 9.46852684020996 7.69363832473755 -2.09388941340148 -4.38783073425293 5.87658882141113 1.77628079988062 -9.86253929138184 -0.291843277867883 -2.0380349420011 8.95837020874023 4.15924787521362 5.01841735839844 -8.1200065612793 -8.6422517397441 0.716523170471191 8.3444824910257 -7.45368766784668 -2.13734722137451 -9.80887413024902 6.67873573303223 2.81725770235062 2.04139760741964 9.27087783813477 -1.25213241577148 4.61156614497304 -5.80120277404785 -4.1407356262207 -3.47120380401611 -3.40134494099766 -2.35078239440918 -9.41345977783203 -0.267034530639648 -6.02591873332858 -8.61960601806641 9.89953570347279 4.87844467163086 4.18583631515503 -3.33928602864034 3.76637004315853 -5.9614514708519 -2.82976317405701 1.45756340026855 7.85920701595023 -7.58931922912598 -8.51577949523926 -7.30259132385254 -9.06424713134766 -5.05788803100586 6.38093185424805 2.83188101276755 -7.67062950134277 -9.74895858764648 9.88117122650146 7.47931241989136 -2.12062950991094 -5.73141860961914 6.69980239868164 -7.58641767501831 6.00882420456037 1.96244306489825 -3.30103382095695 6.80799913406372 -9.11592212226242 -1.76213445095345 6.76493310928345 -8.90553879737854 -6.39875411987305 4.36366081237793 -9.07173156738281 6.38288068771362 -4.46847057342529 0.216499328613281 1.26665496826172 3.87859687162563 -5.90145811252296 4.27904844284058 -5.36641120910645 -8.34684753417969 -3.16560649871826 4.73973035812378 -4.33796578645706 -7.76840908091981 6.80939954519272 -3.24376487731934 -3.88994007278234 4.14212226867676 8.82727893302217 6.29847288131714 -3.09226417541504 6.31492343079299 -9.90046691894531 -0.680309295654297 -0.14715576171875 7.46163892745972 5.01163500826806 -6.35898590087891 -5.82571556419134 -6.68162155151367 -4.17444324493408 -8.83782505989075 -6.98878288269043 -9.58724975585938 -6.36722564697266 5.74969538301229 -2.0898984670639 -5.97540879249573 -4.09939861297607 8.56986236572266 0.208209991455078 -9.2079963684082 6.05030937260017 7.60751485824585 -9.67547607421875 -3.59818012733012 9.6363525390625 9.81497955322266 -5.49321174621582 2.2099049956305 -6.7120246887207 0.555883180350065 -4.41255474090576 -9.26819710200652 -8.31825065612793 -4.04705619812012 -7.70792961120605 -9.15865567326546 4.17335987091064 0.82681341690477 0.103215266019106 -3.52733993530273 5.10364723205566 9.24736022949219 0.0313749313354492 9.43815994262695 2.73024535179138 -2.16064548492432 -6.31547947600484 -0.0654735565185547 -4.58309078216553 -0.218516738386825 9.39923076378182 6.77483548689634 7.5059529999271 -4.63323497772217 5.13158798217773 -6.47365307807922 -3.44165841862559 7.29820068716072 1.65784882009029 7.00126838684082 -1.63432553783059 4.07841509580612 6.74507570266724 1.7815084643662 -6.70541763305664 -1.47410011291504 1.797119140625 2.52544856071472 -6.4445858001709 4.97930401563644 1.52022091951221 -4.8242244720459 -9.81754267401993 3.6122905020602 -8.28397723380476 -9.8209285736084 -1.0091028213501 1.35326766967773 -8.8486442565918 9.76631916314363 6.62426424026489 1.38236080249771 -8.4500675201416 -5.60591912455857 -3.25681879930198 7.37045893166214 0.124634742736816 -5.86062622070313 -8.55830001831055 -2.43445855518803 0.169712066650391 3.14352011680603 0.752939224243164 -3.00511455535889 3.64521479606628 -1.62020146846771 8.54330253601074 6.10612533288077 4.1434497833252 3.22089171409607 0.378426551818848 -4.45118999481201 5.22990417480469 -1.16944184713066 0.446315765380859 -4.80807876586914 8.53483685699757 -4.94576803408563 6.31250575464219 -7.62468528747559 1.26238441467285 -6.72323989868164 5.65557956695557 10.2335085868835 9.98742008209229 -6.32870572805405 9.22909863432869 6.49452638626099 -5.53457450866699 5.70308064948767 3.84640884399414 2.33269119262695 -8.30581766366959 -0.319375038146973 -2.59344673156738 5.35080909729004 5.84331292659044 -6.51273727416992 3.11172724328935 -5.50869464874268 9.06659774761647 0.171781539916992 -6.86190915107727 -7.78201293945313 8.02157592773438 -6.35614250367507 1.26114749908447 1.20462322235107 7.93602705001831 4.2175817489624 9.64473915100098 -6.0407977104187 6.80972343683243 7.48223454132676 -2.29339283704758 4.43225353956222 -1.95909905433655 -7.90256071090698 -6.7909616031684 7.4001669883728 5.1738961385563 -6.9185848236084 -3.9225492477417 -0.494321823120117 0.6424560546875 -8.47133445739746 6.7019264975097 2.34285259246826 -7.18569755554199 3.68971278658137 -7.68986511230469 0.340486526489258 -3.35135555267334 7.51718950271606 0.697206497192383 -9.27004623413086 -9.57476168870926 1.74846267700195 -0.892134666442871 -8.11993273813277 9.71835136413574 -0.516401290893555 3.20769500732422 -9.96567726135254 -1.29933738708496 0.210799217224121 -3.39497661590576 -6.24155294895172 0.685037612915039 -4.64764500781894 -6.81661415100098 8.32475960254669 -9.23732948303223 4.43680953979492 1.49175085499883 -7.89052772521973 7.284264087677 1.67927360534668 -2.71866512298584 7.8743035197258 1.55741310119629 -3.67307281494141 1.78366088867188 -3.04122352600098 5.23895120620728 4.55978569015861 4.70248937606812 0.102966628968716 -9.89368057250977 7.45120483636856 4.83733177185059 -5.3254113830626 6.24137667939067 -8.68759036064148 -9.10883712768555 0.628879942931235 -4.71456623077393 1.99992459639907 0.377363204956055 -9.70750459935516 9.7010631703306 -7.70479011535645 2.88404655456543 -2.4926176071167 0.203699111938477 0.433909356594086 -5.31864633131772 4.76021289825439 8.02728755772114 -3.82173919677734 1.60830402374268 6.39533815160394 -1.80462741851807 3.46966242790222 7.92897415161133 6.17105865478516 6.15657068230212 -0.228739738464355 -9.6055965423584 0.176071166992188 7.07352258637547 -9.93788528442383 7.82393282651901 -0.404276070185006 6.14421081542969 -3.55545139312744 -7.05616750940681 -0.680831909179688 2.36733488878235 -8.99490547180176 -5.91243743896484 7.37542867660522 -1.07597732543945 4.59798812866211 -7.26474332809448 -0.39622688293457 2.31342225242406 7.38268102472648 -5.75263023376465 0.834551811218262 0.452136039733887 -1.22340774536133 6.46159566473216 -7.91602659225464 -3.60179449617863 -3.62902493355796 -0.405627250671387 6.64661407470703 8.59643173217773 -1.26595592498779 -2.35550439357758 0.562902450561523 -1.25504112243652 6.61803007125854 -8.51496505737305 -3.57804393768311 -7.25991439819336 -1.00894200801849 -4.84046077728271 6.11922738794237 5.9491331577301 1.98357200622559 -5.91786473989487 -3.94718551635742 4.2685718536377 -4.19040775299072 1.03968524932861 8.93889258266427 4.00543212890625 -1.26580387353897 -0.669060707092285 6.09993934631348 -3.02929496765137 1.99254608154297 -7.33072280883789 6.43904876708984 -2.40810489654541 -4.90385922370479 8.32757759094238 2.55079030990601 7.17009657435119 -4.14563751220703 -3.63838900020346 -7.54307490587235 -8.05198104213923 -8.45890045166016 -2.2421253323555 9.68603324890137 -7.11381586117204 4.74435806274414 7.09931564331055 -4.16266579227522 -6.59182357788086 3.80380862206221 -6.00507695274428 9.22870445251465 6.47401905059814 -4.75913667678833 0.0310935974121094 -1.47329081594944 7.26755857467651 2.07386112213135 0.814629871281795 2.49541775160469 3.10479617118835 -6.11214447021484 -2.58896732330322 -7.62260007858276 -0.553762950003147 2.01661014556885 9.40402984619141 -0.760953962802887 -5.91201591491699 -8.7021484375 9.76637077331543 4.01105642318726 0.962122317403555 9.48312555253506 -8.36647987365723 -7.74706077575684 -9.39604759216309 8.14809709787369 2.28639030456543 -3.37127673625946 -2.55235176533461 8.99689662456512 -4.92290592193604 -3.1916561126709 1.94697960838676 -5.94047182798386 -7.47065544128418 -8.93751084804535 0.561619758605957 8.5901648979634 8.20781517028809 0.488595008850098 -3.12757171085104 -5.37803609017283 -7.0050554923946 -1.27378559112549 -0.927029609680176 -6.92090379900765 6.89833402633667 2.76422262191772 -9.81179137807339 -5.07586308242753 -4.57228755950928 -0.797614825889468 1.04793930053711 4.5595717234537 3.4777045249939 5.40945279598236 -8.56912231445313 7.62353897094727 -2.5122032314539 -4.16279697418213 3.81068682670593 -7.39298820495605 -6.71226930618286 4.50632358377334 7.74858236312866 3.89336776733398 6.49354207515717 6.63643074035645 -3.35286235809326 -4.02246570587158 -0.974250853061676 7.9322452545166 6.70538674294949 0.414210319519043 -9.96664810180664 5.02367297839373 -3.66983231948689 -8.83024895191193 9.33873653411865 6.12993955612183 3.48114204825833 -1.43979454040527 4.76158857345581 0.728873252868652 1.36187648773193 4.39133363962173 2.67738901777193 -2.90308380126953 1.15161800384521 2.69602537155151 -3.4348669052124 8.53713989257813 -3.92606212198734 9.74695205688477 -7.49900258332491 2.79862598329782 6.53247833251953 -8.30048751831055 -2.72089099884033 6.86665296554565 7.23843050003052 7.96461296081543 -1.04802008159459 -5.42773686884902 -9.6089928788133 -4.46693325042725 -7.84917068481445 -0.767751693725586 -2.1960009932518 -1.30191788077354 -3.10364627838135 8.33600103855133 -9.43973118066788 -6.98933792393655 3.35231292247772 -0.616321691428311 5.00798416137695 -7.51393234962597 -9.2222785949707 9.8792028427124 7.75021743774414 -8.53931427001953 0.653849601745605 5.08345794677734 -3.97191429138184 -3.89064693450928 -3.49707055091858 -7.12685060501099 0.58485914580524 -2.28854274749756 7.99941778182983 6.12334012985229 -0.828305244445801 -7.48987627029419 6.12045288085938 -3.41408157348633 -9.35706901550293 -7.27241349220276 -9.09758633375168 7.11232709884644 -9.4669075012207 6.94265794754028 2.34252348169684 -6.31581115722656 -0.718416213989258 8.72901439666748 -7.4289608001709 -9.02568817138672 -3.55429744720459 -4.54312896728516 0.772910889238119 6.22667694091797 3.38352908100933 0.0843865014612675 5.71306228637695 -4.10864734649658 6.63132633361965 3.33469152450562 -1.79222965240479 3.13201403617859 -8.90086895227432 8.0214611236006 7.44500684738159 -6.51991193694994 -1.18843233585358 0.558730649761856 4.57432049512863 -9.19289016723633 -7.18117713928223 3.02838872000575 6.43556366860867 0.655255866702646 3.1369514465332 9.74500179290771 7.01118040084839 -9.95205528568476 -3.94874477386475 -1.07489262893796 -7.82262198498938 0.788179397583008 -7.13436317443848 -3.03339373786002 9.57949066162109 -6.46671295166016 2.57821536064148 9.07041931152344 7.26596832275391 -4.33982270956039 -7.34210568969138 6.93202972412109 2.32811608817429 0.592141901142895 -4.46148777008057 4.26476955413818 6.16092681884766 0.0864905526395887 7.60025978088379 2.23120784759521 2.46188068389893 9.72412300109863 7.40167617797852 -6.31853532791138 0.614792142063379 -8.32230645418167 -8.3128220923245 -1.67130851745605 -2.80171967670321 9.14850234985352 -4.20298480987549 -2.43630243837834 4.23920392990112 4.77548240777105 -1.83003330230713 8.16123199462891 2.22009408473969 5.67168235778809 -8.1179313659668 2.18456132849678 0.575028419494629 -5.44765472412109 1.14088350906968 -0.851778030395508 -2.56252819299698 -3.00827884674072 -6.47527503967285 -6.11560392379761 -3.23089027404785 -1.29557958804071 -5.40604400634766 -8.61626373976469 -5.05641746520996 1.98936557769775 9.50455117225647 -9.40117073059082 1.54873466491699 -5.50275993347168 -3.49185510445386 9.04123283177614 -5.68079948425293 2.18995952606201 -2.66963863372803 -4.12357234954834 8.53711128234863 2.93247177824378 -5.16836643218994 -7.07151265256107 9.72847171127796 -0.461549671832472 9.2493839263916 -4.05193294584751 -3.4454634077847 -2.28691482543945 7.6186710447073 -2.86703587882221 4.71676449663937 -0.96863842010498 7.82334852218628 2.7950459625572 9.37744522094727 5.43954610824585 9.50403853878379 -6.86451148986816 -5.27059745788574 -5.33678817749023 -8.49309158325195 3.80736327171326 -3.184250831604 0.575818061828613 -8.28726959228516 -5.96641301829368 -1.24649857357144 -8.64246368408203 -6.0300178527832 -8.68293952941895 -0.334323883056641 4.67358684074134 1.57369995117188 9.76390361785889 1.42293834686279 9.32390975952148 2.83775582769886 0.880633354187012 -8.97979927062988 4.05770293832757 4.64359045028687 1.47534465789795 9.08396530151367 9.45980453491211 -8.14903450012207 0.0510320663452148 -0.533401098102331 -7.66000556945801 -8.73563292250037 1.63594376668334 2.33231806755066 9.52508059609681 -7.72009658813477 4.04564619064331 -7.40723985992372 -7.26632642745972 -8.99300708342344 9.36452102661133 -6.09929275512695 -0.210047721862793 1.44940280914307 8.22153091430664 -5.23411176388618 -3.67650127410889 -9.17953711748123 -7.58925950340927 -5.67610549926758 6.39024527883157 -5.89836883544922 8.39712333679199 2.15862369537354 -9.61393356323242 7.78002500534058 -9.6684447984444 -4.97466659545898 -2.14194679260254 -1.64980983734131 6.7574593948666 -3.51625108718872 -4.75088691711426 5.04100322723389 -8.89963531494141 -4.97531986236572 -9.2260913848877 0.655766487121582 7.94783592224121 -8.60909271240234 6.50065301265568 9.36304473876953 7.65277862548828 -7.06755447387695 -1.3528528213501 3.19043020531535 0.273080111946911 -7.87676286697388 7.76061058044434 5.12357902526855 -8.45430564880371 -4.78507614135742 -8.94910496054217 -2.88212203979492 4.84806111827493 8.08144378662109 -4.6334000825882 -7.03648626804352 9.19171899184585 -5.88856093212962 -4.04145772987977 -6.59352802950889 9.32000923156738 -3.09895133972168 -1.64319755928591 8.88311767578125 -9.75917231664062 3.78245115280151 8.77582736033946 9.66384696960449 0.96068286895752 -5.35752487182617 -5.22755813598633 9.85502433776855 4.31110832141712 2.01183877920266 -5.42398262023926 -0.245870276354253 -8.85357456840575 -9.95863914489746 6.58422543760389 -6.36113357543945 3.44131812802516 4.44304943084717 -1.9269309588708 -5.17217826843262 4.16741666290909 1.85278064012527 0.596662521362305 3.24140524864197 -7.22287178039551 1.12231159210205 2.22017192840576 -1.77822277229279 9.86260414123535 -5.66271305084229 -4.65062999725342 -1.26682585850358 3.07131266593933 1.45170636475086 -7.84647203981876 -9.66276550292969 -2.61067503714003 9.71212196350098 4.4382381439209 -0.366151690483093 2.14222923386842 7.74907302856445 3.64328837394714 -3.72886562347412 -2.70455265045166 5.58190107345581 -2.28297836810816 -6.81623029708862 -7.96549987792969 -9.99069595336914 -9.36349678039551 -5.360821824288 2.36301040649414 -7.80341911315918 -0.660237312316895 -4.81362247467041 -6.26629304885864 4.34451627731323 7.24835157394409 1.79704093933105 1.73839664459229 6.98829406499863 6.1924664247781 8.67164134979248 4.31556349992752 -7.73147018346936 5.97980499267578 -4.2534294128418 -6.69614362716675 -4.846755027771 7.11498975753784 -3.15406376123428 -1.65993595123291 -7.43017068086192 -9.08354794979095 2.47981452941895 7.64945983886719 -3.77081775665283 -5.22550945542753 8.65398216247559 -9.79951430670917 -2.87173948809505 6.22986889630556 5.44526613689959 1.55499021941796 4.32280976697803 -0.309158325195313 -2.32233718410134 2.60456538200378 -7.55646514892578 -2.03911767667159 -7.22022819519043 6.54481649398804 -2.85985374450684 -0.208869934082031 -2.07867270254064 -0.232891082763672 -7.55607086420059 9.11332526616752 -6.18559646606445 -9.66656494140625 1.74137687683105 3.96352607011795 -2.78926277160645 9.22047454339918 -3.80234177224338 9.95358943939209 2.15631693601608 -9.24913597106934 -3.73109245300293 -1.97092437744141 -4.46469914913177 -6.34524850687012 8.5123233795166 2.04283618927002 -3.05436992645264 -5.43711185455322 -1.36200332641602 -4.94263103371486 -6.91168260574341 -4.00852352334186 -0.14346572663635 2.93682505562902 3.48671383084729 -3.88463026238605 7.23712158203125 1.14025020599365 2.89897418022156 -5.63764762878418 8.7089900970459 4.49050140380859 3.70155821740627 -7.20550537109375 5.41727066040039 5.25476013123989 -0.460798714309931 3.19185709953308 9.65278816223145 7.85974264144897 -4.03069114685059 1.51817893981934 -9.71497756242752 4.18031692504883 4.23228025436401 -9.17060089111328 5.89517593383789 2.30022529279813 3.23093900689855 -8.75076289032586 8.38946342468262 8.79476070404053 7.99434415623546 5.61599254608154 -0.638073921203613 -3.73247129563243 -3.38945198431611 8.7093563079834 1.64833218150306 -7.88314628601074 1.24102872610092 3.4163806438446 -8.69403135590255 -9.45963902398944 4.11218166351318 -5.9198169708252 4.6708688121289 1.18745708465576 -1.84214682597667 -6.38860702514648 -0.373682022094727 -0.0422182083129883 0.769599219784141 0.899706840515137 3.00335645675659 3.34938895702362 -9.74904823303223 -3.05286067724228 -9.90394592285156 -5.05521583557129 -9.10536003112793 -5.77465534210205 9.63699984550476 2.2090539932251 -6.33016586303711 1.57332038879395 8.31386756896973 -0.482034437358379 -8.1923136060359 8.45048087928444 7.18105316162109 7.87730519287288 7.17579078674316 -5.32530814409256 9.51294136047363 8.85045306920074 -4.15397542668507 0.522552967071533 7.17432975769043 0.443519592285156 -6.52509897947311 -5.03418445587158 1.84001954039559 -8.33051300048828 6.31050539016724 5.1561427116394 -8.66489017009735 -4.01456642150879 -9.57382011413574 -3.39284038543701 6.33125066757202 1.40146897733212 4.37202930450439 -8.4368724822998 -8.46984760579653 -7.68525886535645 2.99304461479187 -2.02057266235352 4.2983502484858 2.98916578292847 -8.26949781225994 5.91599655151367 -9.47705459594727 -1.21189212799072 -9.76578140258789 -1.7081413269043 2.78544402122498 -9.47928593400866 -0.352675963193178 3.3700225353241 2.31742000579834 9.15476036071777 6.27777099609375 2.28108924627304 3.0041024684906 -5.41171354427934 4.37590216146782 -8.4019947052002 -9.01800616085529 2.98180341720581 0.979461163282394 -9.20356130599976 4.64763998985291 -7.99238014221191 1.10944652557373 -1.69424344971776 8.50263977050781 -4.81905210018158 8.84832644462585 1.98850727081299 -6.68889473658055 -6.94695472717285 -5.52022933959961 -2.2964916229248 7.62587398709729 4.02713506191503 4.96115211432334 -9.50060844421387 -9.93122291564941 -7.12007290124893 -5.81921231746674 -3.06974983215332 -8.86714935302734 7.71841506182682 -0.883852005004883 3.96301984786987 -1.93745040893555 -8.22622680664063 -5.60262203216553 -1.01176297664642 6.29731893539429 -8.62172466516495 -4.74276334047318 6.59926605224609 5.89965343475342 -0.896368317771703 3.619838219136 7.02226829528809 0.41825193259865 2.0670804977417 3.46076202392578 1.30937671661377 -7.12277515605092 -2.90359115600586 -0.0322494506835938 -9.49714660644531 8.28204373363405 -2.90866279602051 -8.66063690185547 7.27812767028809 -4.52307796478271 -5.73274587769993 6.60062855482101 -3.81854629516602 6.84865188598633 5.50836923671886 7.11459159851074 9.01840894669294 -5.47538948059082 2.96131110191345 -9.44761085510254 -8.83522415161133 -3.94433116912842 -4.83860696107149 2.89396262168884 6.59465980529785 0.784054756164551 2.70305765792727 9.4254035949707 -0.118350028991699 -2.79905991815031 -9.48846578598022 8.05627822875977 -2.10318994522095 -9.72244262695313 0.516136407852173 7.1839969791472 1.76797020435334 -2.23580265045166 -8.25350952148438 -1.06143379211426 5.95734119415283 5.44404745101929 -3.26859569549561 -7.31617164611816 -8.99367523193359 -0.965157029801048 -2.26077461242676 -0.830360412597656 -9.00615310668945 -5.78585016727448 8.60475921630859 9.87735557556152 -7.8111457824707 5.67743310448714 3.89941668510437 1.78529834747314 -5.59327125549316 3.38401085138321 5.48039197921753 0.469313621520996 -2.20860385894775 -5.33831038698554 3.09769606590271 -4.53597450256348 -3.35941773746163 4.21780976653099 -2.48824501037598 2.2700812171679 4.68811511993408 -7.01933336257935 -0.552462592720985 -9.89112854003906 -1.64714908599854 1.54154682159424 -0.0402250289916992 -3.68526274524629 9.70265334099531 -9.10538673400879 -6.55842590332031 0.0397298224270344 1.66345977783203 -5.50853252410889 4.86022412311286 -6.41792297363281 -2.36102676391602 -1.99206363223493 3.24444917775691 2.47164981230162 9.39387639262713 1.07705233991146 7.13958501815796 9.39352798461914 5.28114318847656 -7.16938209533691 -0.983377456665039 0.0706138610839844 6.85246992111206 -1.5034628296271 -5.73834228515625 2.10862064361572 -9.04229354858398 7.28202056884766 -3.19023853261024 1.07269859313965 -0.510674476623535 -9.39065742492676 -1.60794563218951 5.1308586075902 4.74762315209955 1.6260495390743 2.54399275779724 1.18848450249061 -3.57798957824707 -0.536392112262547 -9.71723747253418 |
-1.94260215759277 -5.16950798034668 9.25045222893823 -8.6866455078125 1.201247215271 4.86615657806396 6.56134366989136 8.7989501953125 -6.98456573486328 3.11064594984055 9.45978355407715 -5.12446880340576 -9.68009784445167 3.22684615850449 5.64354658126831 0.0902929306030273 6.05420112609863 -7.46201475337148 3.47591161727905 6.12829608516768 -4.26805400848389 1.45254230499268 -6.93325162958354 -1.4845028067939 -1.7038688659668 -8.35498046875 -5.54131561517716 -7.315345287323 -6.28174257278442 -9.93482780456543 -6.8086051940918 -4.92391204833984 9.77755537140183 -3.81975112203509 6.60481977462769 5.17260727286339 0.988579750061035 0.0276670455932617 -1.01279354095459 8.96321768499911 -5.81734848022461 3.02751226362307 3.90580368041992 2.27638816833496 6.75395011901855 -6.15342069137841 1.05598625831772 8.66354418452829 -6.26997756958008 0.300192186143249 0.311078255996108 -7.82900619506836 -0.248485565185547 -5.47787666320801 -3.92024898529053 -6.4008411988616 -1.31916482653469 7.11571455001831 5.40230457764119 6.12403392791748 2.88310478255153 4.3713207244873 5.70099830627441 8.19979709386826 -7.7118805302307 -9.00760996644385 3.62933539692312 0.661825180053711 -4.28057765960693 -2.17773991823196 -1.38447188492864 -0.529693320393562 -5.71463775634766 5.46611051028594 -8.17824363708496 6.20948151964694 -5.44430923461914 5.44604694843292 -5.82359525142238 9.13472839666065 1.53348350524902 -5.92011135816574 8.6392993927002 8.54402542114258 7.81956672668457 8.56038534117397 -3.17819213867188 5.57479817140847 6.88988161087036 7.04089689254761 -9.9693096280098 -3.37742710113525 3.10054755210876 -8.33776473999023 4.64195013046265 -4.99779605865479 -6.97661691904068 4.48830127716064 6.72773122787476 -0.175384230911732 -2.76507949829102 -2.11424922943115 4.42059523658827 -1.97597122192383 7.44025981239975 7.33076867833734 -4.84588241577148 9.1152481730096 3.02316599618644 6.86441730568185 -7.30097007751465 -8.30742645263672 -8.56287686619908 2.25219821929932 -4.26756000518799 1.19362926483154 -4.05131253937725 -4.31333446502686 -9.78610038757324 -9.45281028747559 4.69688415527344 -7.71431398391724 -8.72890370665118 -1.6407762710005 -6.82454872131348 0.0966701507568359 4.94384527206421 -7.71436882019043 2.37202262878418 0.956154823303223 3.92048597335815 2.12311172485352 -4.95086782053113 -2.3268061792478 3.48376035690308 -7.0018196105957 -8.6430721282959 -8.480382632697 -6.84715050458908 -9.10263061523438 -3.37397533794865 -0.301295004785061 -3.57137823104858 4.06035614013672 9.38853989681229 7.8642026479356 -7.15242456132546 6.50222969055176 6.58846092224121 6.91624367237091 8.56731189414859 -8.27262115478516 -7.14712823694572 -3.55936145782471 -4.78017425537109 -4.1243371963501 -6.81353665143251 5.41990280151367 -0.547281265258789 -3.20653820037842 9.466916102916 -2.22803020477295 7.36502647399902 2.65461897850037 -2.13929318636656 3.21245646476746 9.15910243988037 -2.75776958465576 -2.35620880126953 6.73368883132935 -2.24063612986356 1.38448915025219 -2.36059093475342 -4.06217089528218 -0.618663787841797 7.80680891498923 0.252557754516602 2.37382507324219 9.58964347839355 9.24188613891602 -2.45462322235107 2.59137804014608 -0.700958067551255 -5.67565579712391 -2.07846736907959 8.10831115581095 9.34539985656738 -3.46124267578125 -4.40898323059082 0.0870933532714844 -7.06611442565918 -5.05412644147873 7.42336988449097 -5.63475596904755 -1.362085044384 1.03734689950943 -2.96048259735107 1.31285285949707 -7.70801115036011 -0.736316680908203 -3.46424007415771 8.02061137184501 4.39455509185791 9.39963561156765 5.38923740386963 -8.90430068969727 -4.46358108520508 7.5801944732666 -3.71511840820313 -2.6280460357666 -7.43353080749512 -0.385259628295898 -8.59560775756836 -4.42211055755615 -2.3282995223999 -9.03392028808594 4.07950926176272 7.98155784606934 5.77078819274902 -7.86268997192383 4.93333578109741 -6.7835693359375 1.60031700134277 -1.51874494925141 -0.803182882722467 -9.61300277709961 -5.53055104240775 -5.88221374060959 4.44082736968994 -2.62531088851392 9.62331581115723 -3.62568837404251 5.14834594726563 1.485520362854 -8.20522689819336 -4.91311645507813 6.31944227218628 -4.03030776977539 4.97573890560307 6.52591362444218 -5.47654628753662 8.51668585464358 -1.09650039672852 -0.457005143165588 5.23817777633667 -3.56782129500061 7.15090227127075 1.15990477800369 0.160683631896973 -9.54874080047011 -0.977583885192871 -7.59444405371323 6.09842681884766 1.89667129516602 2.7087664604187 8.93198090791702 5.86980056762695 3.02888369560242 6.40710067749023 -4.98824977874756 5.05059957504272 4.27189588546753 1.73126995563507 4.2518728611758 -2.35480666160584 6.80830430984497 4.46515083312988 6.14451169967651 0.386251449584961 5.29104709625244 -4.9821605682373 9.51862525939941 -3.02712059020996 -0.0438781995326281 6.97629499435425 -6.57435417175293 -2.0951259995345 -1.14104843139648 9.43502807617188 -5.10663795471191 -4.23626804351807 9.51566872373223 1.12247371673584 -8.09577941894531 -7.34052467346191 -6.67452621459961 -1.45722794416361 4.98986959457397 -2.11831425782293 -8.79518127441406 4.05965042114258 1.84687834978104 -9.28220558166504 7.15771150588989 -0.768040657043457 3.91122579574585 -3.11873531341553 -9.56438255310059 2.09831619262695 6.36780214309692 -2.07450685999356 -6.66483081132174 9.26945748506114 1.20687144994736 7.27840423583984 -1.03223663568497 -7.48887825012207 -3.08498287200928 9.4493522644043 -9.73822402954102 3.66383051872253 -0.0703868865966797 4.66411113739014 3.85250282287598 -5.69195204228163 1.90947840805165 -6.94218953419477 8.01447677612305 -7.44606408849359 6.05128765106201 8.82228088378906 0.509773848578334 -9.21081758080982 -2.35162162780762 -6.99996757507324 2.6821277141571 -6.02595520019531 -5.00858783721924 2.30686283111572 -3.30510711669922 7.22853689920157 -0.016905702650547 9.65410070051439 -1.14584064483643 -2.30796887306497 0.0672989101149142 -2.84546279907227 -3.83402604982257 -3.07843112945557 4.5673131942749 2.56370306015015 4.27443695068359 -6.99752807617188 9.24748420715332 -9.74198150634766 6.41685056686401 7.35107612609863 7.3037314414978 5.74961955100298 -6.43954728916287 -6.28322410583496 -8.19788932800293 -7.02850532531738 -3.87066503241658 -6.43468600511551 2.75073598325253 0.0740804672241211 2.59161557909101 3.84235143661499 6.19831275939941 8.77061367034912 -3.54376304708421 7.94464540481567 -1.1294469833374 2.52918219566345 -5.85298347473145 -4.7708215713501 -5.05565452575684 0.441240310668945 0.83502197265625 0.594476699829102 -0.492949962615967 -1.28946208953857 -5.79578804969788 -1.45789965055883 -5.9039478302002 7.24996196106076 -7.62965726852417 -6.89606811106205 1.36336421966553 -7.84107494400814 3.00456976890564 0.601014137268066 -5.99817085266113 -2.02973331511021 2.1431884765625 3.03587889671326 -0.725527763366699 -0.179763793945313 -8.91340440511703 -5.83972621150315 -7.89741241931915 -6.92029192694463 6.69658231735229 -6.85053300857544 -9.46454620361328 5.75269460678101 -7.91384887695313 3.11817960464396 7.69573640823364 |
-5.68150282744318 1.93134981533512 4.74550008773804 -5.95416259765625 0.0566949844360352 -0.643309473409317 -7.3087043762207 -2.58138229325414 -5.53446423891 -1.19296646118164 -1.11283085588366 5.61499118804932 -8.12142372131348 3.63369306270033 -7.70269584655762 -0.805244509130716 7.4298632144928 -2.86309337615967 -9.57567977905273 2.69073462486267 -7.71967834234238 5.67025661468506 -1.49161243438721 6.27047300338745 -8.82808685302734 -9.66564851999283 4.62053298950195 1.88449954986572 -7.80388307571411 1.3684663772583 6.66098594665527 2.28939992189407 7.66365242004395 -5.89385223388672 -1.27520843793172 -3.16024875640869 9.73354721069336 8.16432880982757 -9.17850195337087 -8.65222400426865 3.12174558639526 9.91658348962665 -3.52727031707764 3.06588363647461 -8.02206946816295 9.40689568314701 -0.886898994445801 -4.16531467437744 1.99901676177979 2.62948966026306 6.33947372436523 -3.48654174804688 -0.313505046069622 -9.57657557725906 6.2084174156189 9.21061706542969 6.1126971244812 3.14932322502136 -10.0115214367397 -4.73291301727295 8.66073417663574 -5.46323105553165 -7.82152938842773 -7.84532419219613 5.80031394958496 -5.67802567407489 5.38358879089355 -5.53062915802002 0.8223876953125 -8.39230513223447 6.12514065206051 -6.03510665893555 8.79353713989258 -2.2036018371582 -2.89548015594482 7.06048202514648 0.0826206207275391 -3.18102649459615 4.50935554504395 -7.14974510669708 -1.51564693450928 -8.55221748352051 8.72254872322083 -8.87535858154297 1.98100471496582 6.75314903259277 9.6074883826077 1.5908374786377 -8.69198989868164 7.50962972640991 -5.04627710068598 -5.03279685974121 -3.97436263784766 7.89403676986694 9.3681697845459 -8.00687789916992 9.49325561523438 5.25922012329102 -1.73147773742676 -0.0183162689208984 9.63126182556152 0.313701254781336 -6.54116106033325 1.89024092163891 5.6341028213501 -6.46082353591919 -4.66005420684814 9.49932115781121 6.65237426757813 8.14031210076064 -5.56553077697754 7.87233886215836 5.50622154411394 9.28076171875 -3.68822193145752 1.47575387358665 -4.45388698577881 -6.0451521165669 -3.54146575927734 -5.37347984313965 1.82380104064941 -7.4296940905042 -5.41817331314087 -6.46482919249684 9.76905116066337 9.69607543945313 -9.92750930786133 0.904438704252243 -8.28077083453536 1.72453308105469 -0.707863807678223 2.73716425895691 -9.29883581399918 2.82585120201111 -0.635856628417969 -8.65441513061523 2.18664375692606 -3.12605285644531 -3.83125251531601 2.64561449177563 1.44169902801514 8.22296905517578 -0.12095832824707 4.7628231048584 -3.57501626014709 -0.133715629577637 -0.31277387496084 -4.77880699839443 3.53742575645447 3.40438342094421 2.54388999938965 -6.17722908034921 4.38963890075684 0.896138191223145 9.02754783630371 -4.27584208548069 7.88494049943984 -3.69580189790577 -3.42245362419635 2.98111152648926 -9.91819495684467 -1.77647018432617 -4.66824832558632 2.64784789085388 3.67081373906694 9.69216823577881 -1.62346786260605 8.57223320007324 -6.82700717449188 7.01785612106323 -5.04559326171875 5.55563926696777 -7.29424667358398 2.25784683227539 5.31951904296875 5.7616662979126 2.71278325142339 -1.88119983673096 1.05314826965332 -2.38602733612061 |
