2.06 -1.04 -0.39 3.62 -3.95 -9.55 -6.92 -0.58 8.9 -6.62 6.5 -1.07 -5.04 -3.11 -8.42 -3.61 2.49 -7.26 -9.33 9.46 -2.54 8.23 2.79 -2.34 -2.87 8.17 2.81 9.03 -5.3 -1.03 5.54 -5.1 -5.31 9.53 4.72 -7.56 3.51 -4.88 -8.82 7.45 8.61 -7.19 -8.69 -4.37 1.09 8.26 -3.98 0.34 4.54 -9.07 0.49 4.26 -0.94 -6.16 4.45 -2.85 -5.73 0.08 8.9 -6.39 -3.06 7.95 -1.76 -8.56 -5.23 3.69 -2.38 9.32 5.79 -6.69 -9.64 -7.85 -1.8 9.73 -1.04 3.2 -0.84 -1.05 3.2 9.98 3.9 -7.28 -9.87 -8.92 -7.98 7.59 6.66 -6.76 4.76 -8.97 4.81 4.18 -0.67 7.87 7.09 6.46 4.6 -8.43 6.66 7.89 -0.9 7.07 7.14 4.55 -2.97 -2.24 4.13 -2.03 -8.19 6.86 0.49 -8.98 5.31 7.86 -1.2 2.76 -1.38 0.37 -5.66 -1.7 9.08 -3.95 -7.35 7.9 4.21 -6.71 -5 3.64 2.69 -8.81 9.06 -8.82 -2.87 6.33 -0.52 2.87 -2.6 -7.73 2.28 -0.74 -1.04 -3.72 8.89 -3.55 -8.05 -1.24 1.52 1.42 -6.35 3.8 1.45 -9.04 -1.13 5.47 8.82 -2.09 -0.07 -9.19 -4.93 4.16 -9.65 1.86 5.68 2.55 -2.1 -5.8 -7.88 -1.14 5.91 -9.96 -8.76 7.19 -3.29 0.54 6.85 8.11 7.17 -2.82 9.07 -3.7 3.35 -5.81 -1.43 8.53 -9.17 -2.8 -4.51 4.58 -1.58 -4.73 0.75 8.54 -3.65 2.24 -1.99 1.76 9.57 -1.66 -0.4 -6.17 1.58 -5.67 2.35 7.35 -9.56 -2.75 2.39 0.33 4.63 1.62 -7.59 5.35 2.38 9.79 -6.6 -8.19 -4.5 -6.56 -5.46 6.14 -5.38 3.77 9.26 2.07 -1.55 6.91 -5.17 -0.65 0.1 -0.41 -4.28 -3.16 2.55 -2.56 -6.12 8 1.81 -1.23 5.12 9.02 -8.31 -7.95 0.03 2.28 -9.36 6.97 9.28 4.28 -6.22 1.1 -3.08 0.21 8.24 -10 8.11 -5.26 1.77 -5.09 3.46 -7.57 5.43 -6.39 5.2 5.6 -0.08 -9.65 -4.69 -9.91 9.14 -3.57 -7.48 1.21 9.66 3.43 -0.79 4.41 5.53 9.25 3.95 -6.29 -4.87 9.92 5.88 -2.34 4.15 -7.9 1.63 6.94 7.51 -6.48 2.69 1.72 -0.37 -1.31 6.49 0.48 -7.61 6.6 -6.93 -3.77 -8.57 -9.97 -9.67 -9.94 -4.03 -3 4.33 0.57 -4.16 6 3.1 4.82 -2.61 -0.07 -0.26 -6.29 3.98 -3.49 9.1 9.44 7.96 -1.3 7.02 2.9 -5.01 -7.51 0.88 9.59 -2.54 -7.79 -9.93 -5.05 3.4 7.94 0.6 0.3 2.52 -4.05 7.91 0.44 -1.88 -4.88 7.84 8.07 -4.44 -6.02 4.7 6.72 -6.31 4 |
9.6 -7.21 -0.86 -9.15 -3.85 6.47 -3.38 -7.62 -0.54 5.66 4.47 -1.63 2.65 5.4 -2.12 -2.02 6.98 -0.68 -5.63 -4.24 -0.99 7.25 -7.19 -4.9 9.83 5.16 9.56 6.16 -3.26 -1.49 5.86 -1.51 0.12 1.79 -2.27 1.7 2.3 8 0.06 -7.39 3.32 -6.8 -8.43 2.15 -8.58 0.87 -7.7 2.74 8.23 0.39 -5.59 8.54 -0.02 5.18 8.13 1.11 2.66 7.34 3.11 4.45 -5.83 -1.38 2.32 -3.16 -7.66 1.27 -3.2 -9.5 3.97 7 -4.32 -5.76 1.08 3.98 -8.65 0.47 -2.74 -2.37 -3.04 -1.28 -7.51 -7.78 -6.96 2.28 -5.66 -2.76 6.16 -6.72 -0.55 6.46 -5.11 1.8 -5.98 3.05 6.93 -0.93 2.11 -2.41 0.79 0.95 -6.39 4.67 -4.23 -0.49 -2.11 -7.82 5.49 7.69 0.84 0.88 4.94 -0.62 -2.12 6.65 -0.45 2.37 -5.41 9.26 -0.09 3.26 9.15 9.2 -0.3 -6.98 3.39 1.01 8.47 -8.43 -3.92 9.17 4.97 -0.44 6.79 6.07 3.77 3.11 4.33 -3.62 -7.28 1.96 -7.35 6.89 3.37 6.19 7.3 -4.31 -7.91 -9 9.66 -4.08 0.6 0.53 -8.5 1.62 5.98 4.04 7.88 -0.31 5.73 4.78 -2.16 -0.9 4.96 8.87 -1.77 8.05 6.01 1.69 9.34 -6.14 0.28 -6.42 9.6 -6.01 -7.35 -1.38 7.7 8.08 -2.97 9.35 3.13 -1.23 -4.16 1.3 1.32 -4.14 4.6 7.91 -2.16 5.72 7.09 -7.36 -2.96 8.86 -8.32 9.06 7.29 -0.63 3.53 -1.32 -2.01 -6 3.96 -9.7 2.78 -8.17 -5.31 0.2 -9.71 0.11 9.43 9.96 -8.16 -9.99 7.68 -4.8 -7.94 6.1 7.18 -0.83 -9.25 -3.37 8.16 0.66 5.87 -3.73 -0.38 9.29 1.2 -9.18 -6.07 -2.5 7.78 6.92 9.91 3.16 -3.08 -4.17 3.62 -3.88 -6.2 8.49 -9.28 8.67 4.96 0.46 -5.53 6.38 -7.02 5.41 -0.56 7.99 8.17 2.7 -5.25 -9.51 -3.79 7.04 -9.61 9.61 4.9 8.86 6.57 4.17 -3.69 -9.06 9.23 -6.83 -4.96 -2.79 -9.28 -4.32 3.12 -8.23 9.72 -7.24 -1.54 -4.55 -4.09 5.38 -9.95 2.57 8.9 1.58 -4.08 -4.93 0.92 -6.39 0.61 8.97 3.93 -6.25 -9.22 -3.6 -4.61 8.12 -4.64 8.95 8.94 2.19 -8 9.01 0.47 -2.41 5.35 6.86 9.08 -3.42 -3.22 9.68 -0.44 -7.4 -3.57 -8.58 -4.32 1.14 8.07 0.16 -1.22 -1.81 5.57 -9.72 -5.77 2.84 -4.79 -8.29 5.2 -4.48 -3.59 -7.14 -6.33 -8.13 8.67 -3.77 -4.18 7.44 -3.86 7.48 -4.1 4.77 -3.01 -9.25 4.82 -7.58 -6.61 3.65 9.52 -2.07 -8.81 -6.32 -7.09 9.84 2.53 6.07 -1.48 -9.87 -9.67 -5.76 -8.23 7.9 0.71 -8.4 -9.32 2 2.68 -1.2 -2.23 -6 8.02 2.02 1.62 0.13 -1.03 -4.91 -4.73 5.73 -2.26 -1.85 -5.68 -4.92 -8.63 0.96 -6.25 -1.49 2.15 -7.93 -8.82 -3.33 3.54 7.01 -0.33 -7.86 9.45 3.87 -6.86 6.85 1.78 -0.27 7.14 -2.35 -4.1 1.36 -6.39 6.11 -7.69 1.94 6.08 -5.98 -6.08 -3.55 8.94 3.66 0.69 -5.25 -1.77 -1.43 -7.86 -3.2 -1.15 5.82 7.02 8.04 -3.14 0.37 -3.89 -9.74 -3.48 2.86 -7.22 3.33 9.64 -6.28 -5.77 7.86 -3.87 -2.3 -9.73 8.99 -9.73 -6.42 9.92 4.37 7.81 7.71 9.99 1.62 5.27 -0.92 -2.24 -7.12 0.33 8.92 -3.06 -6.19 -2 -7.82 -2.87 -4.26 -0.03 4.6 1.67 7.09 -6.26 -9.66 -3.47 -5.44 5.85 2.97 -5.24 6.61 3.29 3.06 9.04 -4.03 -4.51 8.09 1.1 -6.95 -7.64 -6.08 3.12 -9.23 -7.12 -1.82 -8.35 -7.45 9.97 -6.11 1.33 -8.44 1.85 -2.71 4.22 -6.35 0.28 -3.15 5.33 1.84 2.22 -8.11 |
-9.49 2.22 -3.29 -6.17 -0.24 -0.44 6.03 8.76 -7.85 -4.55 -7.8 -6.76 4.41 -1.6 -7.25 -5.63 -7.14 -9.92 0.05 9.67 -0.77 -6 -9.25 -7.14 6.09 -8.93 -3.66 5.21 6.2 5.92 -7.94 2.34 -9.11 6.9 -8.28 -0.13 -3.64 4.47 -4.57 7.28 9.68 9.88 3.83 1.66 2.33 -2.16 -3.47 1.35 -2.44 -0.79 -9.5 -9.88 5.63 6.29 9.82 -1.83 1.32 -0.2 -7.89 9.88 -6.81 -8.45 3.33 -5.13 -4.24 -7.68 -0.6 -7.26 6.07 4.9 7.84 1.5 2.52 -9.16 9.16 -0.89 -1.63 -5.54 -6.96 -2.09 -0.26 6.53 3.09 6.32 2.73 -9.49 9 6.02 1.14 9.39 -9.53 -6.39 8.4 0.52 9.43 -1.82 -2.64 2.99 2.49 -6.79 9.47 -7.93 -1.69 9.64 9.47 -6.03 -2.98 9.3 -6.44 9.31 -0.83 5.3 8.66 -7.29 9.41 9.58 -6.85 -7.2 -4.57 7.58 |
