-3.62 -2.71 -5.15 1.75 -9.42 1.27 0.67 -0.9 -0.8 2.82 5.35 -3.67 7.84 7.29 2.45 -3.67 6.63 7.32 5.86 2.29 -8.87 9.33 -7.09 -3.07 1.87 5.78 -8.69 -9.52 7.14 -1.05 -6.41 6.27 5.09 -5.38 1.98 9.95 -1.17 9.04 2.53 -0.53 -0.52 -8.44 2.41 3.2 -3.59 -3.9 -1.24 -1.04 1.8 -1.96 3.83 -2.47 8.72 -2.23 -9.08 0.1 2.2 -9.78 9.76 -9.38 -7.57 1.62 6.57 9.73 -6.66 3.78 3.91 -5.37 0.88 -3.66 7.57 -2.33 -4.49 -2.19 8.46 3.59 -9.4 5.14 -3.99 -8.23 -6.42 -8.92 -9.29 6.51 -3.49 1.97 9.7 5.35 -8.72 8.19 -3.97 -5.81 -1.84 -3.81 1.9 -8.19 6.04 -5.41 4.73 2.81 -4.51 3.62 -7.06 0.03 -5.55 2.74 -3.19 -7.8 -8.75 -1.06 0.39 6.84 8.94 -8.44 4.58 8.23 -6.54 0.38 -2.17 -8.48 7.73 -0.69 -0.1 8.06 -9.15 -6.06 -5.28 5.48 -6.64 -4.28 -3.22 8.4 3.88 7.06 1.37 -3.26 -7.86 9.14 -8.08 -1.72 -1.5 -0.68 -2.48 9.75 -9.55 6.72 4.29 0.09 -4.67 -2.05 7.08 -9.44 -8.77 -0.99 -3.97 -2.91 9.74 -4.12 8.65 7.71 0.6 -2.33 -9.72 2.97 -9.57 -8.93 -0.69 9.19 -8.9 7.86 -6.07 3.36 -4.96 9.87 -5.56 7.17 -1.93 -9.12 2.03 3.75 -5.8 8.84 6.82 -4.36 5.12 9.1 8.11 -9.1 6.62 0.3 7.42 -7.06 8.03 -5.95 -5.66 5.14 -5.72 -2.36 5.3 -6.72 -1.36 3.4 8.05 1.58 -6.26 8.24 -6.27 5.59 3.88 -3.08 -1.02 8.83 -0.75 -1.65 -9.71 -2.35 -0.37 6.23 -1.37 -4.71 6.78 -8.33 -6.12 7.82 -0.78 0.53 5.31 3.45 6.13 -3.8 3.44 2.48 -3.01 -4.89 -5.23 -4.64 -0.42 -1.54 -4.66 -2.53 -0.53 -8.13 2.27 1.32 3.51 5.75 9.06 -9.79 4.82 3.81 9.82 0.82 1.51 -0.9 -0.17 6.15 -3.59 2.94 -3.2 8.38 -1.35 5.26 0.24 -3.59 7.45 -2.9 -3.44 7.92 4.84 -5.46 -1.41 -0.58 -8.59 4.82 -4.53 -4.05 0.15 4.78 -2.02 3.07 -5.89 -7.63 -3.35 7.74 7.55 8.18 -7.77 -9.42 -2.34 7.67 8.79 1.65 3.62 -9.2 8.87 -9.96 -9.54 7.44 -4.15 -2.45 -4.41 -5.73 2.22 -8.25 -0.31 7.45 -5.83 3.76 1.55 1.65 3.92 -4.18 -4.73 -0.87 9.58 6.99 -8.37 -0.56 -2.47 7.4 -3.37 -0.88 2.07 -2.72 8.94 -5.69 7.2 9.65 -4.87 -1.99 -8.22 6.38 -6.77 6.33 9.14 8.29 7.09 7.51 8.16 -9.45 6.54 2.78 3.04 0.25 1.03 -0.33 9.58 -3.66 -8.15 4.56 |
-7.16 -9.19 2.31 7.83 -4.23 -0.79 -8.96 5.89 -7.4 1.4 -9.64 -3.35 5.6 0.99 5.11 -8.87 2.78 5.02 8.1 -0.1 7.41 5.29 -2.42 2.97 4.55 -4.18 6.8 4.23 -8.5 -0.27 -6.73 -8.69 7.04 3.72 -2.35 5.12 -9.23 2.23 -8.79 8.01 -4.5 -7.93 9.41 -1.75 -6.86 -8.75 -4.8 -9.94 5.7 -4.8 2.87 -4.66 -5.17 2.12 1.29 -8.47 -6.24 8.58 0.18 0.65 -1.57 -1.2 4.67 -5.41 -4.11 8.29 -2.76 -2.65 -2.15 3.86 5.93 2.72 9.32 2.89 7.03 2.06 0.45 5.46 -8.32 3.02 -7.94 8.21 -5.95 0.85 -8.7 4.46 -3.37 2.45 -2.17 -0.64 -2.12 3.42 -5.62 -2.65 -7.92 2.78 -7.25 -3.48 1.22 1.07 0.79 -0.27 8.37 -7.33 -6.86 4.65 -8.72 3.97 0.82 6.82 4.89 1.3 0.75 -9.19 -7.23 5 -5.58 -2.69 -7.5 3.11 5.53 -9.29 6.12 6.77 -6.93 -3.81 4.34 6.64 -0.26 -7.63 0.77 6.47 -5.36 -5.14 8.12 0.76 -2.54 -6.76 -1.92 -3.71 0.04 9.32 -0.05 4.72 3.82 -2.84 7.29 -2.39 -5.72 5.88 8.44 -3.9 6.77 -1.16 -9.71 4.31 -4.92 3.51 -5.45 2.38 -2.81 8.04 -4.11 -5.48 -3.22 5.57 -8.66 6.03 -3.02 5.6 7.71 6.81 -6.98 -3.38 4.66 -0.57 -6.06 -2.72 6.47 -1.25 -8.89 -9.18 2.09 7.36 5.17 2.73 0.58 -9.88 8.07 -7.45 -0.59 1.42 6.25 2.47 -1.42 3.22 6.29 -6.67 -9.95 -5.61 -6.79 0.01 1.13 5.53 4.77 7.62 4.01 9.41 3.67 -2.44 -6.28 -5.04 5.44 -8.01 -7.03 5.77 -8.21 3.41 5.94 3.55 9.27 8.01 5.97 -7.41 2.38 -2.31 -4.33 -2.51 1.84 7.04 5.41 -5.48 3.61 -1.1 -4.98 6.14 -4.63 0.09 4.38 9.4 0.93 7.16 -5.83 -5.49 -6.73 1.39 5.44 3.65 -9.91 -9.12 -2.46 -1.21 1.48 -7 -1.03 8.69 6.4 -7.78 0.5 8.62 2.24 -6.09 -4.98 4.26 6.62 -3.44 -9.22 0.92 8.71 1.57 -9.68 -1.87 3.32 5.05 -4 0.47 -3.47 2.96 3.62 3.69 1.29 -6.55 6.99 3.22 -5.2 1.5 9.5 9.34 2.28 8.46 5.36 4.45 1.37 -7.19 9.08 -7.21 -6.16 -0.89 8.5 2.8 -5.14 -7.53 -9.97 -3.61 -0.41 -5.91 1.8 8.25 8.2 7.47 9.19 7.05 -0.06 2.03 -6.75 7.79 2.53 -7.79 5.18 3.82 -7.29 1.66 2.42 -4.09 -3.29 7.84 -1.9 -3.07 -4.54 -8.09 8.67 -1.73 4.76 6.14 4.5 4.23 3.51 -5.05 -0.04 -3 8.96 7.28 -5.85 8.45 5.74 -6.31 -7.98 -4.54 6.1 -8.77 4.69 6.91 -6.35 6.59 4.12 6.59 -2.29 -6.12 1.88 5.35 0.58 -3.16 -1.71 1.19 8.51 -8.1 2.89 1.48 6.28 9.56 5.76 -2.93 -3.89 3.94 9.13 -4.2 -1.99 5.82 1.79 0.11 0.12 -5.78 5.04 0.1 1.32 1.83 9.98 -6.44 7.63 2.59 -8.67 -7.98 -1.33 0.4 1.24 1.88 1.16 0.21 9.32 -0.07 5.67 -3.81 3.66 -4.02 1.11 0.47 -8.14 3.54 -4.74 -7.71 6.61 -5.85 -3.76 9.29 4.01 -1.44 8.17 7.88 9.95 -3.38 0.74 -7.32 2.16 -3.66 -6.12 -0.44 3.4 -9.87 -7.17 -1.34 -6.06 4.47 0.56 -0.51 3.5 -4.03 7.97 5.75 6.09 -7.24 3.65 -7.91 -6.39 1 -8.15 8.65 -0.14 -7.68 -3.49 -8.33 8.47 1.03 -2.63 0.65 -4.01 -8.8 5.63 -5.83 2.47 -4.87 2.49 -3.89 7.45 -7.51 -1.37 4.51 -9.47 5.24 7.43 5.36 8.69 5.85 1.37 8.27 -1.85 9.7 5.3 -8.5 -9.66 -7.32 3.92 -0.77 -2.35 7.7 6.16 7.82 7.02 -1.94 -9.14 8.98 -4.57 -7.27 8.31 -9.28 -5.94 7.8 0.71 -4.67 -7.15 -7.86 |
-6.66 -1.65 -8.03 -6.18 -2.26 -0.77 -6.63 -0.33 4.48 -1.83 -5.82 -2.43 -6.7 3.49 9.69 -0.24 -2.2 6.73 8.43 0.83 -6.2 5.19 2.38 5.28 2.02 0.34 3.87 -2.45 0.52 8.91 6.32 -4.37 -2.99 2.17 8.5 -3.65 -4.08 4.16 8 -3.6 0.01 -9.72 -0.37 0.03 5.18 0.24 0.34 -6.98 -1.31 3.72 -6.08 -6.84 4.81 -6.06 -4.19 7.7 -8.67 -0.21 -4.68 -8.61 -6.7 -0.79 1.67 -1.92 8.15 -6.11 7.94 3.27 8.31 -0.55 9.41 -5.22 -1.96 -5.3 -3.1 -9.36 -9.62 -1.56 -0.54 4.32 -1 -5.92 -7.78 -0.87 5.6 -2.9 3.96 8.93 4.01 4.6 -1.59 2.65 5.84 -1.45 -3.01 -4.77 2.24 -5.08 -6.88 4.53 -0.15 -8.1 3.55 4.37 -5.28 9.84 -9.07 -4.32 -1.67 8.71 -6.26 -7.6 5.78 0.71 2.97 0.65 3.37 -6.89 -8.91 2.92 |
