2.35009288787842 -4.19263744354248 -5.85298347473145 3.01688756654039 -2.59084796905518 8.74788284301758 3.04490542411804 -2.30616664886475 -8.1204833984375 -0.650130271911621 5.50122022628784 -8.2404727935791 -3.14699077606201 -3.1909761428833 1.08784294128418 -8.31090927124023 -0.593000411987305 0.805362701416016 -2.40523480274715 7.54603576660156 -3.18648242950439 -6.90038681030273 1.56251811981201 -0.694316864013672 -8.30936241149902 6.55912828445435 0.39877986907959 -0.447455406188965 -5.25486278533936 3.82427191734314 7.05570936203003 -7.39265251159668 -2.29368591308594 -9.4101505279541 -0.267106825252995 9.07807159423828 -6.27338838577271 3.81690216064453 4.07113075256348 6.03814315795898 -6.83351516723633 -8.37159156799316 -5.74062538146973 -7.6532096862793 7.19064474105835 -8.30652857292444 -8.8422966003418 4.14945793151855 -8.29107411345467 9.62779521942139 3.04261660575867 -7.63851594924927 5.98638534545898 -2.46370410919189 6.47202253341675 4.13271903991699 0.61876392364502 -0.217963218688965 -6.28705549240112 -8.79104804992676 -8.20780563354492 9.77757263183594 -0.684538841247559 0.109082221984863 -6.30729246139526 3.88269186019897 4.62432861328125 -9.10554695129395 -3.6556282043457 1.07396596251056 0.323304176330566 4.08219528198242 -2.15664768218994 9.77101516723633 -6.51667070388794 9.76705551147461 -0.565448760986328 -5.00305938720703 -3.23733234405518 1.80064105987549 -9.24229431152344 -1.86873054504395 -8.82467253133655 2.55452609062195 -1.37694263458252 -8.75556564331055 -6.61918622255325 7.84959030151367 -3.66147613525391 -4.17942142486572 9.10103797912598 6.4431095123291 8.13138163089752 -0.500470161437988 7.96298061439302 -3.31088264752179 -0.578726768493652 2.335862159729 6.04027508478612 -2.06482315063477 8.10937118530273 34.1524105072021 9.23057556152344 5.67837238311768 5.75529289245605 -1.98444647528231 -9.17941284179688 -5.41795253753662 2.65767073631287 7.30898857116699 -5.46838283538818 6.72895431518555 -0.653866767883301 -7.10784912109375 -5.01976203918457 -3.80900287628174 4.11961555480957 -3.3898983001709 0.158633232116699 -9.85709381103516 -8.82732009887695 -9.15097045898438 2.20468139648438 -5.97917366027832 -6.15021181106567 -1.04713344573975 -9.24687957763672 6.47150039672852 1.20311832427979 -24.689474105835 6.35781288146973 -7.1389102935791 2.99414396286011 -0.755868911743164 2.41965866088867 -3.17469692230225 -3.38241004943848 0.427943229675293 1.73735046386719 -5.47740459442139 9.6513729095459 -6.25591468811035 -8.82509994506836 -8.28227806091309 4.78263378143311 5.66105079650879 7.60693311691284 1.35706996917725 -4.32942295074463 -0.181302070617676 -9.76575660705566 -9.28067016601563 1.30747890472412 -7.77759552001953 8.42813682556152 -1.12227311672177 1.2246618270874 -0.83833122253418 -3.35959815979004 -5.08976745605469 0.272187232971191 -6.89398765563965 3.94610595703125 -9.89778327941895 3.06783866882324 3.03173518180847 4.46686267852783 3.33666777610779 0.541945457458496 6.93778562545776 5.39831352233887 9.30533218383789 9.28095245361328 5.03777265548706 -1.49208641052246 -4.82075786590576 -8.00637245178223 5.22557735443115 2.1552095413208 8.93039894104004 1.40725708007813 -9.1928768157959 3.24207496643066 1.62039375305176 9.09363746643066 -6.17575454711914 2.25349044799805 -4.63770771026611 6.18988037109375 -1.94785976409912 2.6044557094574 -9.53313064575195 9.22048377990723 4.04626607894897 2.55675077438354 4.23614939395338 5.36071968078613 -8.75188827514648 6.69016313552856 -3.40048408508301 0.15245532989502 6.59890174865723 7.55274248123169 -2.56496047973633 -6.37164640426636 -8.40780448913574 1.55519104003906 -4.23624897003174 6.73667478561401 -0.773104667663574 -6.91598463058472 6.60505485534668 2.21529579162598 5.88451862335205 7.29979705810547 4.99846458435059 -7.86811828613281 8.6142520904541 3.4702033996582 7.29032516479492 -3.41119384765625 -0.340622901916504 3.00021624565125 -4.68687152862549 0.940280914306641 -2.3330774307251 3.84505248069763 -9.83259010314941 -4.05272388458252 -4.25317192077637 7.97508668899536 -7.91856002807617 -0.726982116699219 -5.42387962341309 7.4040699005127 -0.249613761901855 -2.56766891479492 -5.44022083282471 0.726670265197754 -3.90093898773193 -8.96200180053711 -5.14549446105957 7.86271810531616 8.39762878417969 -0.949989318847656 8.92486572265625 -0.374938011169434 0.599750518798828 3.29964828491211 8.81984901428223 -2.57325553894043 7.92928695678711 -1.22988605499268 7.76433706283569 4.29356336593628 -3.20389175415039 3.55817985534668 -9.50099563598633 2.01007270812988 -3.42967128753662 1.07718563079834 4.6671314239502 2.6242561340332 -1.01532363891602 -7.97625017166138 -0.531925201416016 6.85615968704224 5.80991268157959 -0.244532585144043 -7.36183929443359 0.611344337463379 -4.54358005523682 -9.14046478271484 0.163620948791504 -4.93681526184082 1.33903884887695 -9.52296257019043 -8.10416221618652 4.13946342468262 -9.34155464172363 5.38174390792847 -4.70035648345947 -2.8312816619873 2.82109022140503 2.12195491790771 -7.50232887268066 3.96694898605347 -0.734933853149414 -6.11688184738159 -5.75812149047852 7.82989692687988 6.99138832092285 -8.60444641113281 5.43996047973633 1.30295658111572 5.37735939025879 -4.34422397613525 7.91754722595215 3.43753790855408 4.73996162414551 4.70703601837158 9.64863586425781 5.93642711639404 -4.88016923423857 9.70864105224609 -2.56654644012451 -5.92147636413574 3.89753103256226 8.77997207641602 -3.69390392303467 -9.2010669708252 -5.3064136505127 7.10946798324585 7.88368225097656 8.72553825378418 3.64165067672729 3.36356232594699 9.10476684570313 -9.83935546875 5.50705146789551 -4.40038776397705 1.43857574462891 -4.82886219024658 -2.01009368896484 -5.34305381774902 -4.51078510284424 -9.9366569519043 7.7760299667716 -5.38677024841309 -8.24349594116211 3.69999647140503 5.78067016601563 -7.59809494018555 -4.63443660736084 1.85508632659912 -1.2075366973877 -0.676637649536133 8.89779090881348 -5.31928253173828 -2.78346920013428 -9.87143516540527 6.77539092767984 -2.56393527984619 -0.799249649047852 2.73781967163086 -3.47384071350098 1.11730480194092 9.60836601257324 -2.47958755493164 6.53772783279419 1.03521919250488 3.05664992332459 -3.59346771240234 -3.93123054504395 -5.86896133422852 -9.97698783874512 8.47180843353271 -6.33928108215332 7.40169525146484 -0.941227912902832 -6.04614067077637 -9.84147834777832 4.08418655395508 -4.83751678466797 3.62446546554565 8.18480968475342 -6.36762619018555 -6.41464042663574 -8.10786247253418 -7.82461595535278 -4.14850330352783 -5.77629280090332 0.836380958557129 7.34254598617554 -6.71600341796875 0.270944595336914 -5.94050407409668 2.84624290466309 -2.65327072143555 3.66108655929565 9.59438514709473 8.43160629272461 -1.18121242523193 9.62993621826172 5.09189796447754 3.75141859054565 -1.91092109680176 4.28997755050659 -4.18104076385498 9.83138084411621 49.3943932878319 1.18474388122559 -7.39952278137207 5.09808301925659 2.42937660217285 5.91433715820313 -2.23750019073486 6.16903305053711 3.37793693470303 6.26373720169067 5.36972522735596 -7.31541109085083 5.28331279754639 -5.05945014953613 -3.61360168457031 -4.2307767868042 6.82990598678589 9.9395580291748 2.86151647567749 5.89213562011719 -5.90224266052246 8.81886672973633 0.313879013061523 -2.81036208302248 -9.0195198059082 7.01952171325684 -7.24078702926636 2.83265089988709 -2.48730754852295 -3.01334762573242 -3.46865081787109 3.62518072128296 -4.39345264434814 -3.55922794342041 -8.03938102722168 8.75537109375 -3.45157241821289 9.89661407470703 6.88028335571289 -1.91075897216797 2.47843170166016 -6.13976287841797 1.67697525024414 -1.45048999786377 -8.42966079711914 -8.76236152648926 1.82097816467285 -5.05817413330078 4.70018261414953 8.65032386779785 2.01743030548096 5.59594631195068 -4.13585758209229 -5.72383880615234 -3.83098983764648 -2.20294857025146 9.30244827270508 -5.74373435974121 -1.42832183837891 -4.89020919799805 -9.60395431518555 7.02615737915039 -4.15199184417725 -5.86641120910645 4.70964431762695 5.57084083557129 -3.03427314758301 6.95412397384644 1.71753787994385 1.42353439331055 5.3360915184021 3.80687475204468 2.50062918663025 -8.10039710998535 3.73144602775574 5.37382125854492 2.20471000671387 5.31601905822754 -8.5273551940918 2.57615542411804 7.54991292953491 -2.24654769897461 -1.13031013670843 -1.15057563781738 9.80084228515625 -7.66201972961426 -1.91731357574463 -0.218690872192383 -3.90223753568716 -7.77683258056641 -8.9825439453125 2.56926727294922 -0.608364105224609 8.70678550004959 3.27278327941895 -2.62107753753662 1.45114994049072 2.4711742401123 6.08713531494141 -6.53252792358398 -2.04061603546143 3.17889189720154 -7.31025266647339 -7.28731918334961 -0.0404748916625977 23.8148527145386 -2.77629280090332 5.57884693145752 5.11551094055176 -9.41964912414551 -8.2116527557373 5.63136291503906 -8.63708993466571 -1.01868724822998 -5.60141086578369 0.215693473815918 1.07451061299071 1.75040749832988 -6.70180130004883 -3.6567554473877 7.32835531234741 -5.03868865966797 9.56001281738281 -4.78324317932129 4.13643360137939 0.758648872375488 9.0679931640625 -3.46430206298828 -3.41032886505127 4.01223373413086 1.55542278289795 -6.23505783081055 -9.79459953308105 -5.16042518615723 7.63334035873413 8.80170059204102 -1.92977046966553 9.42647737311199 -2.18090438842773 -6.61377143859863 9.84499324019998 -0.114813804626465 1.37117290496826 3.55866885185242 4.07754135131836 -5.16757965087891 -3.51688957214355 -4.31029224395752 3.8842294216156 -7.8357081413269 -5.62251091003418 -1.13357925415039 6.51620626449585 8.42525482177734 2.26361846923828 7.72478294372559 -6.60300445556641 -2.65618705749512 2.40334129333496 9.64688491821289 2.34261276363395 7.35767126083374 6.74448013305664 6.89862442016602 4.59301948547363 0.824755668640137 4.04944896697998 -7.63396453857422 -0.274935722351074 -9.34214782714844 -7.63024520874023 -5.74393749237061 -0.695094108581543 8.43988227844238 -6.76767778396606 0.0602636337280273 0.53460693359375 7.60604095458984 7.00175476074219 2.43261432647705 7.00316429138184 -8.43677520751953 8.37914943695068 -1.76748847961426 7.62208700180054 -5.96886157989502 -6.5276927947998 2.58846259117126 -6.36582374572754 -0.063868522644043 -2.05677604675293 7.65456199645996 -3.37657265667804 5.00498533248901 -6.61048460006714 9.77995300292969 3.73936414718628 -7.49214935302734 -1.99895000457764 5.11634063720703 5.84101676940918 6.93761908216402 -4.52841663360596 5.98432064056396 3.36398315429688 9.37131404876709 -1.9888744354248 -9.11251676362008 -5.20816612243652 0.908435821533203 -29.8715953826904 8.29017448425293 7.65126419067383 2.32571697235107 -2.28053188323975 1.87733268737793 -5.44983100891113 3.67587542533875 1.31919002532959 -5.05374145507813 6.19918584823608 7.7931113243103 -3.12979125976563 -8.05707931518555 4.25414276123047 -0.49998664855957 -7.96978950500488 -5.75432586669922 -9.7716236114502 9.83792781829834 9.69047546386719 -4.34162521362305 6.41180038452148 -9.98289489746094 -9.11468124389648 -1.0324535369873 -4.77997875213623 -6.7677264213562 5.04658370930701 -7.01865649223328 5.25191307067871 6.13490581512451 1.3096895813942 1.00986576080322 4.33109474182129 5.7727313041687 -2.4813404083252 0.406850814819336 -2.70888710021973 -6.72735214233398 -6.92584800720215 2.9047486782074 8.0246114730835 -1.6429386138916 6.20659255981445 8.49519538879395 6.97260332107544 5.23689985275269 -3.34688091278076 -1.42215156555176 3.85711169242859 3.19993948936462 -4.57064056396484 -1.0518970489502 -6.37231826782227 -2.12797069549561 -9.10793304443359 -3.1327018737793 2.06473445892334 -2.00615978240967 -8.40396603941917 -0.235490798950195 -0.809699058532715 4.27649021148682 9.68376159667969 6.56830024719238 5.93536567687988 5.36126327514648 -7.74272727966309 3.33579778671265 6.28852844238281 3.08617925643921 3.63161540031433 9.30018513032701 -7.61149597167969 -1.8476619720459 -2.20587635040283 -4.6841869354248 2.74867248535156 -9.97465324401855 -2.21277809143066 4.47468948364258 8.78148078918457 8.27792644500732 -2.33524417877197 -1.11558532714844 8.99319076538086 4.17340993881226 6.34247016906738 4.50109481811523 -6.82896614074707 -0.668920516967773 1.63199806213379 -8.72966384887695 -3.16027736663818 -5.64734649658203 -0.0769720077514648 -4.19326686859131 3.26507329940796 -1.72644710540771 5.98371696472168 -4.60652732849121 -6.33372831344604 2.84366583824158 8.14400100708008 6.13519430160522 -1.32203674316406 1.96028804779053 4.45599746704102 -1.31241416931152 -3.18060779571533 -1.35356521606445 4.76688575744629 9.85473823547363 -2.88404369354248 -5.56994247436523 -1.15489101409912 6.63479280471802 5.97681522369385 6.07808589935303 -9.75349807739258 8.00061988830566 -3.15655136108398 -8.39540672302246 4.16281890869141 8.97892761230469 -0.687769889831543 5.75348854064941 -3.98780727386475 -2.13915252685547 -8.52674865722656 -1.12813568115234 -4.48199367523193 7.95999956130981 -5.02095413208008 4.41427707672119 -7.71412324905396 -7.12480545043945 5.0856876373291 5.67831516265869 4.14493083953857 0.24875545501709 6.41016006469727 5.05175590515137 -5.88828563690186 -5.64924716949463 2.92544341087341 -5.86627769470215 0.584658622741699 -3.12364959716797 3.8973593711853 0.190047264099121 0.556379318237305 -5.7004337310791 5.67280530929565 4.28198337554932 -5.65256118774414 9.01144409179688 6.24373912811279 -1.69071102142334 8.70421409606934 6.6827392578125 4.46088314056396 3.97187423706055 -7.45771324634552 -3.57034111022949 -1.37822723388672 5.84104537963867 9.78818893432617 4.58935737609863 6.7113208770752 -3.38110065460205 8.2814769744873 7.56508827209473 8.6573486328125 5.36527824401855 -1.59599876403809 -0.858121871948242 7.07357406616211 -3.735915184021 4.58747386932373 -2.63986968994141 7.44952917098999 0.975972175598145 -18.5809273719788 1.39078521728516 -5.20659446716309 -8.92263603210449 -8.48224258422852 7.32975959777832 6.18766975402832 3.65940546989441 -9.38329696655273 7.06752347946167 -0.460514068603516 3.59217834472656 6.68327262159437 2.2260274887085 8.06099700927734 -5.83428859710693 -1.39978790283203 -2.81478977203369 2.13102436065674 -3.66228675842285 -8.61825180053711 9.20917040109634 -0.909486770629883 5.19731521606445 -6.17708206176758 -9.51761572249234 -3.94417858123779 8.86826705932617 8.79002571105957 -3.30716991424561 8.41890525817871 -4.69874286651611 2.54863238334656 7.23842191696167 -4.8317756652832 3.84602737426758 1.41556358337402 1.30743598937988 2.12030792236328 -0.0634040832519531 9.47922706604004 1.64848232269287 -7.49591636657715 -3.81621742248535 -3.11481380462646 -5.1907901763916 6.46542310714722 8.18243408203125 -8.9227294921875 7.55287599563599 -4.55350303649902 3.32868337631226 1.02328872680664 3.76590490341187 3.43327498435974 2.76624178886414 7.01521635055542 24.3760948181152 5.84822654724121 -3.90040241694078 -4.69523048400879 -5.03721046447754 -9.84759521484375 5.23295402526855 -5.52841663360596 -6.16582870483398 -1.13396072387695 5.54752540588379 7.58681297302246 9.06476020812988 -9.4445915222168 3.66813158988953 -7.63218688964844 -1.20505428314209 9.04845714569092 3.35813975334167 2.36157989501953 9.94623947143555 -4.27757358551025 -3.3527364730835 0.867790222167969 -8.08633041381836 5.15870571136475 7.10046005249023 -8.98238754272461 8.21703338623047 7.17733812332153 0.209823608398438 -8.69207382202148 -8.14534950256348 2.33074569702148 2.0191535949707 3.05440664291382 -7.35724449157715 2.03739738464355 1.82212448120117 1.66243171691895 -9.49945259094238 -4.82374572753906 -9.7775993347168 2.38783931732178 -2.57539844512939 5.7277774810791 1.42591094970703 5.08364868164063 -7.70382881164551 9.70877075195313 0.463618278503418 8.14761638641357 6.15813016891479 2.808997631073 5.59652328491211 4.34775543212891 -9.32048034667969 -5.29213905334473 -1.93589060753584 -7.13159561157227 -1.990891456604 -9.60181427001953 -4.42607498168945 -7.5930004119873 -3.43955421447754 5.95415115356445 -7.82598304748535 -7.2420482635498 0.313554763793945 -2.4838981628418 1.55538654327393 -5.78840065002441 -4.85426330566406 6.33176565170288 4.49566078186035 3.24560618400574 -6.35785102844238 -2.93095970153809 4.45731639862061 3.27916598320007 0.116681098937988 3.29976058006287 5.86852550506592 -0.475178718566895 -1.37093639373779 3.84536719322205 4.52486228942871 9.8732738494873 4.78579711914063 -8.36045455932617 -4.66506862640381 -2.95067405700684 4.60983991622925 1.84754276275635 -1.10349273681641 -9.16415977478027 -9.98984336853027 2.81325316429138 -9.12538719177246 -1.63829708099365 -3.59412574768066 9.16379928588867 7.55758476257324 7.10385084152222 9.09658622741699 7.79737514443696 -2.1141300201416 8.48255348205566 3.11411715485156 1.6695032119751 -9.20739364624023 -0.159822463989258 -9.24654197692871 2.62527441978455 5.7194995880127 7.91942596435547 -9.56719589233398 -6.20924425125122 -7.65765380859375 6.44191312789917 1.8040885925293 -0.800257682800293 -1.32912254333496 -2.34137630462646 -9.12651062011719 6.88836288452148 9.74282741546631 -8.60766220092773 6.53317642211914 7.216796875 0.926378712058067 6.47852373123169 1.17921924591064 -6.61488896608353 -9.02477264404297 1.30344486236572 -1.77682304382324 4.0544581413269 -2.4795446395874 -4.6748218536377 1.68746089935303 -0.634454727172852 8.57633781433105 8.2543773651123 0.287807841785252 3.05438232421875 -8.38117218017578 0.355276931542903 3.19780802726746 1.74100017547607 8.72767639160156 5.38072347640991 -5.75566482543945 -2.4507532119751 6.93037462234497 -5.9991979598999 8.93647384643555 5.11015892028809 5.87077140808105 2.50789833068848 7.42033195495605 -9.00503921508789 1.56086826324463 -6.43016624450684 1.85722732543945 -9.1601843573153 4.63061809539795 5.73414039611816 5.24986457824707 -1.36162662506104 3.34474196191877 -2.63804054260254 9.55928611755371 1.2448205947876 -7.22253608703613 38.2724895477295 -3.21684265136719 -8.04983139038086 -1.11455535888672 -8.32680702209473 0.0911846160888672 4.52158451080322 8.45716857910156 -1.74260711669922 0.165825843811035 -3.67645645141602 0.0607242584228516 3.91062712669373 -0.118159294128418 7.79098272323608 2.51575922966003 6.8239803314209 -6.38686180114746 5.17636299133301 6.4396162936464 7.70135641098022 4.62170791625977 -2.84552669525146 -3.98949241638184 -8.24626731872559 1.16845989227295 -9.72386932373047 -4.63329410552979 -4.42948246002197 -4.07830619812012 -9.32359886169434 0.949973106384277 -1.04188346862793 5.92443227767944 -9.36972296237946 -7.2322288765572 7.45737504959106 -7.05135536193848 -2.2843656539917 7.47259855270386 -5.69318008422852 -5.57913017272949 1.60286331176758 9.94199562072754 2.0312442779541 7.55029678344727 -7.60256576538086 -0.283571243286133 8.21464538574219 7.89900779724121 9.2629451751709 0.864225387573242 7.51821708679199 7.16754913330078 -4.93712043762207 -4.60177516937256 -0.112939834594727 1.1718692779541 -3.63481426239014 7.7949481010437 -8.10737800598145 7.36626625061035 7.58365201950073 -6.18388700485229 6.39895963668823 9.2800624370575 -1.35605716705322 9.65107917785645 -5.68963527679443 -1.07928371429443 5.48743724822998 -4.27751159667969 -8.21243921574205 6.63653564453125 -1.87183952331543 -9.99030685424805 -9.49195861816406 3.89794111251831 -9.29317855834961 8.65903091430664 8.65688902139664 -5.84757804870605 -3.39300060272217 -5.44249534606934 0.177389144897461 -5.07276058197021 -2.74418258666992 -5.74668121337891 2.23234081268311 -0.332613945007324 -6.63827466964722 6.30881500244141 5.72124671936035 -5.18099021911621 -7.25564527511597 -1.95941066741943 -5.47409248352051 7.85141944885254 3.19782447814941 -4.98465633392334 -1.60922908782959 -1.85614204406738 2.51011824607849 9.21763610839844 -8.2827205657959 -6.31015348434448 -1.35769748687744 4.50828552246094 -9.23465538024902 7.97804307937622 0.225419044494629 -8.39309501647949 -5.70126724243164 -5.11417198181152 -2.42332553863525 -9.2343921661377 1.75152382440865 -6.36521530151367 -2.18298816680908 -4.81612110137939 1.82627105712891 3.30183005332947 -5.14047431945801 -3.16294574737549 4.59150314331055 4.63239192962646 1.05011367797852 7.57342338562012 -4.54334354400635 -6.54905465897173 0.426712989807129 -9.50297355651855 -0.321940422058105 -6.8931770324707 5.82502126693726 -8.96436882019043 -4.04111766815186 3.06490501377266 -4.35619561374187 -9.03800773620605 -8.83553314208984 6.15564727783203 -4.76362800598145 -4.45835551340133 1.71791648864746 -6.94677352905273 39.6640071868896 5.35614967346191 5.95437240600586 0.563425064086914 -6.94792747497559 8.20800304412842 7.79849326610565 -5.39360237121582 5.54964065551758 -9.97707748413086 1.39382457733154 -4.94706320762634 -6.82384920120239 9.64554023742676 -0.625673787784763 -8.98989105224609 5.66954803466797 -4.62432765564881 9.89337158203125 -9.65777397155762 -6.85259056091309 -0.348509788513184 0.629533767700195 6.33291006088257 8.70607376098633 9.53120231628418 4.91886615753174 -5.8559513092041 6.51309967041016 6.57156419754028 -2.90057754516602 6.20226621627808 3.73358225822449 8.6286449432373 5.08778762817383 5.72182846069336 3.41338133811951 -5.14031410217285 -7.54374694824219 4.61254119873047 1.88066577911377 -3.9512243270874 0.823594093322754 2.08445930480957 -0.529664993286133 -2.63388538360596 8.68500709533691 -8.47517013549805 -3.80924129486084 0.70534610748291 -9.17270278930664 9.51126098632813 2.42189788818359 -9.23855018615723 4.41757678985596 7.72027540206909 7.41519498825073 -7.77694892883301 -3.81434059143066 -8.12964630126953 8.69718074798584 -9.88715934753418 -2.87338829040527 -4.57394504547119 -9.91139602661133 1.47700691223145 4.42377805709839 1.55777072906494 -3.72361087799072 3.74532890319824 -2.92049312591553 -1.6136302947998 -2.26303958892822 -8.95195770263672 9.64341640472412 2.97018980979919 7.10064768011216 8.5257453918457 8.4943962097168 9.26712036132813 -4.52988243103027 -3.39677238464355 -8.25852966308594 -7.02502250671387 6.37403249740601 -2.51528644561768 0.0383224487304688 -6.82615280151367 -4.36595821380615 9.50485610961914 -1.01023101806641 6.80549383163452 9.41912460327148 5.82820892333984 -9.91098022460938 3.73855090141296 4.74327802658081 5.15336513519287 5.96051692962646 -3.89711761474609 -3.85781192779541 2.69163584709167 6.31434631347656 -0.527423858642578 5.4524564743042 -9.92042922973633 6.13261413574219 0.398612976074219 -5.33498573303223 8.62919235229492 7.02265739440918 -7.9046778678894 7.45607137680054 0.262564659118652 8.18775939941406 -2.57020568847656 -4.74539375305176 1.5391149520874 -3.21718788146973 -7.81911420822144 -5.64933776855469 -0.865262985229492 1.0581579208374 -3.61698246002197 -1.34790992736816 2.88896751403809 -4.72971057891846 5.77032804489136 -1.74517726898193 3.02030539512634 9.6484375 -1.17144680023193 5.44074249267578 -0.893105506896973 -0.215977668762207 9.56569671630859 6.32109117507935 -5.51534843444824 8.86934661865234 -7.69932222366333 0.119279861450195 6.44790410995483 -2.86909484863281 -1.9362934185192 0.901041984558105 0.738796234130859 -0.387431144714355 8.60581398010254 6.72766447067261 0.807045936584473 7.48389005661011 -8.50836273562163 -9.55571746826172 1.47494411468506 -0.293127059936523 -7.66677093505859 8.33662223815918 9.85469341278076 8.16135406494141 1.7398157119751 -1.39190769195557 -7.72782850265503 9.83154487609863 0.956920623779297 -7.34760878712405 -6.8121452331543 -7.71598386764526 -7.0826678276062 9.53913290705532 6.88473463058472 7.88029861450195 -5.85627555847168 4.09252882003784 5.58022499084473 2.81113600730896 -1.17961978912354 -4.13876438140869 4.28715467453003 6.04749870300293 2.74606680870056 3.86792635917664 6.38716697692871 -3.62003898620605 1.7385950088501 2.42817306518555 -5.41504859924316 -3.20592498779297 6.41853523254395 -8.58266639709473 9.84467697143555 3.02655935287476 3.91933417320251 9.80999183654785 3.52683520317078 -6.35606421530247 -7.13276100158691 4.56749677658081 8.14146423339844 -0.811916351318359 -0.203171730041504 6.95646047592163 -0.00616168975830078 9.98734474182129 -1.71192264556885 4.36149120330811 -8.4854621887207 9.20539379119873 9.28854370117188 4.68520641326904 -0.775906264781952 -1.07190036773682 -5.16266059875488 6.7589259147644 -2.9393949508667 -3.46369361877441 2.40758323669434 -5.34971237182617 -6.62627220153809 -1.56850433349609 9.01945170434192 -6.06258821487427 -2.1676025390625 -6.47953224182129 2.28476428985596 -3.23957347869873 -4.44336986541748 -2.28761577606201 9.2563009262085 0.963367462158203 3.55339765548706 4.03147888183594 -9.63489532470703 -8.84676933288574 6.00994680961594 -6.73605394363403 8.37342739105225 -7.13762092590332 8.52502822875977 -7.13616561889648 6.75419998168945 -6.61735963821411 5.64139366149902 5.26235580444336 -7.09765958786011 6.63455963134766 8.22013092041016 2.11503887176514 -4.75591564178467 -9.01761627197266 -8.43385314941406 3.30694913864136 3.23799324035645 -9.62688827514648 43.3897037506104 -9.4680061340332 -1.74972438812256 -2.99981021881104 -3.62784957885742 -0.235990524291992 4.82824325561523 5.62510251998901 5.02536964416504 0.838347434997559 5.69006681442261 5.59897422790527 5.19934177398682 -0.575552940368652 -0.894423484802246 -5.93157577514648 -5.49501895904541 6.20458793640137 -4.86324691772461 3.37583994865417 -3.54624176025391 -2.28208810277283 -2.21079254150391 -5.84515571594238 3.39261031150818 5.88698577880859 -4.11939525604248 1.48178195953369 -7.08697509765625 -0.953808784484863 -7.08004760742188 -1.35996913909912 2.70595049858093 7.70916211605072 -7.06015396118164 -8.60721588134766 0.0925121307373047 1.48789310455322 -7.12043762207031 -0.655793190002441 8.78248596191406 -3.6940393447876 7.77893257141113 -4.81103801727295 3.61270880699158 -2.20993423461914 8.07321357727051 -9.16205978393555 1.09641456604004 6.13901138305664 7.18746614456177 5.59644222259521 -6.66660499572754 9.07146453857422 0.771183013916016 -5.08918285369873 -1.33200550079346 -7.95552253723145 4.35164642333984 -3.62632846832275 -8.75507354736328 -6.77364778518677 6.49142980575562 5.83639621734619 -9.44887924194336 2.88988828659058 -7.46768522262573 0.954314231872559 8.91103935241699 -3.03053760528564 -7.64629364013672 2.79961085319519 -4.70141506195068 -2.22874069213867 4.80094909667969 -8.54862213134766 -8.85821342468262 4.33765888214111 4.85240939550567 5.55600881576538 9.53886032104492 -1.4692964553833 4.90169286727905 5.30348539352417 2.16534233093262 |
3.4412784576416 6.88231992721558 1.53056240081787 1.09419727325439 -8.60217666625977 2.68805265426636 1.95339298248291 7.43186521530151 0.144938468933105 -4.37975311279297 -5.82663345336914 8.86517715454102 -7.29530763626099 -0.634370803833008 8.80256175994873 -7.69184875488281 -9.52260589599609 1.003342628479 -5.53616523742676 7.81316947937012 0.894979476928711 1.52786636352539 -8.55769729614258 -5.93262481689453 -5.60993671417236 -8.64500999450684 6.45659446716309 -8.11846923828125 -1.76657772064209 9.89489364624023 -5.98532867431641 -1.41870880126953 4.683799759252 -7.09775924682617 -9.49320030212402 5.08758068084717 -5.48006248474121 0.0323686599731445 7.3984694480896 -0.211776733398438 5.56569290161133 -7.24666166305542 -8.00100326538086 5.11764049530029 2.02887630462646 -6.47800636291504 -4.16818237304688 -0.62160587310791 -1.77684879302979 -1.6366491317749 -0.826107025146484 -4.87937068939209 9.0040397644043 4.71543073654175 -1.93489504011814 -9.32495498657227 5.97658697585575 3.54458570480347 -1.59210777282715 -1.80987453460693 -1.25444316864014 -5.39384432928637 0.246149063110352 -1.71141529083252 2.0850887298584 -3.24414348602295 4.39483833312988 -6.75238609313965 2.14280223846436 -0.151887893676758 1.94344902038574 7.31565475463867 9.16526794433594 -1.00075340270996 -9.74822998046875 7.74115037918091 -6.71982002258301 7.25801467895508 -0.139080047607422 -1.96877574920654 -9.21755981445313 7.68968772888184 -6.41432762145996 6.37952041625977 9.65924453735352 -9.54772567749023 -0.436354637145996 0.87746524810791 -2.02169036865234 4.80670928955078 2.09967994689941 -6.3635139465332 -5.96035480499268 -1.85051345825195 -8.12631225585938 9.64521408081055 3.40434050559998 0.389328956604004 1.34885883331299 6.95450782775879 4.69964027404785 -8.78009414672852 -7.82502174377441 -6.94014739990234 -8.08021926879883 -5.78577995300293 -1.77473163604736 5.95590782165527 6.86650466918945 -2.58887672424316 -3.43911266326904 2.60730719566345 5.24453353881836 1.51234531402588 4.11759376525879 -9.88729667663574 3.11146926879883 8.58928680419922 -1.92293262481689 -6.1046199798584 0.974751472473145 -5.54567337036133 -3.40670967102051 8.93438339233398 3.81415128707886 8.86608123779297 1.42946147918701 6.59879875183105 3.36266016960144 0.991720199584961 -4.73704433441162 -0.562430381774902 -0.613862037658691 1.09041786193848 1.57024478912354 4.36947822570801 -7.14925336837769 1.49757289886475 -6.92589569091797 -5.5990104675293 -2.16082191467285 -8.40662384033203 -9.28026008605957 -3.39574432373047 -5.90706634521484 1.04472541809082 3.30805015563965 -9.65976715087891 -6.81136322021484 -8.18585395812988 8.65309143066406 -7.7784423828125 8.76089286804199 6.64077949523926 9.74402236938477 9.78824806213379 -3.51440048217773 -7.58856964111328 -6.26647186279297 8.14382724277675 5.09949207305908 1.90627956390381 5.296630859375 7.7103157043457 -0.999585151672363 6.88706398010254 4.81894493103027 -3.43575572967529 8.56196594238281 -5.05612182617188 -8.38249969482422 -4.96613883972168 2.2928581237793 5.99487781524658 8.30384731292725 5.36320209503174 8.70042991638184 -7.74267625808716 7.2188777923584 -5.23191452026367 -9.07418823242188 -4.50727081298828 2.85951906442642 6.22741889953613 2.20141792297363 -7.4245719909668 -6.08113479614258 1.48076152801514 4.13771152496338 1.5518274307251 -2.80309104919434 -9.86887359619141 1.15897083282471 9.63234329223633 1.7452917098999 4.99226331710815 -6.67181205749512 2.45502090454102 -9.54632372688502 -5.18531608581543 -0.653976440429688 2.0163688659668 -3.13292407989502 -2.00389957427979 8.57999992370605 2.36047840118408 -2.35896682739258 6.63310050964355 -7.98633575439453 0.812772750854492 -4.49171924591064 5.24751663208008 -2.65823459625244 -0.0517950057983398 -7.66386222839355 8.22035789489746 -3.53609755542129 -5.85644912719727 0.515450477600098 8.99750709533691 2.64949989318848 7.50469985348172 2.33681774139404 9.33312606811523 7.59962272644043 9.23353385925293 -6.06452941894531 9.15865898132324 8.20692253112793 -6.87877464294434 -2.47639751434326 -0.402897834777832 8.1872444152832 0.52101993560791 8.62295532226563 3.29219794273376 -8.37876129150391 -1.9062671661377 9.95547103881836 -2.25962543487549 2.7475757598877 8.38267517089844 5.79729270935059 -3.69453811645508 -24.2679481506348 0.113653182983398 -3.0779447555542 2.73936986923218 -1.89380264282227 -1.40806293487549 4.08753395080566 -7.60175514221191 -7.09337425231934 3.5969181060791 -7.39151191711426 7.25155591964722 4.92404460906982 5.7788200378418 3.23511576652527 -5.39284229278564 0.518256187438965 0.712498664855957 -5.1549129486084 5.37263870239258 1.17863082885742 -3.37100410461426 -8.75195693969727 -0.731884002685547 -2.61393642425537 3.42563605308533 1.90909767150879 -3.77789878845215 4.76629257202148 7.75406074523926 -3.18677043914795 -0.283504486083984 9.74014282226563 9.46382522583008 -8.49310302734375 2.24252319335938 -7.23604011535645 -6.41570615768433 7.24477338790894 -5.35800170898438 -7.98602415248752 2.62018417846411 -7.85057258605957 -6.66464042663574 1.13551044464111 8.72183799743652 1.86242198944092 2.00076484680176 1.43139934539795 4.74275779724121 9.46261405944824 -5.6068229675293 -7.72470698226243 0.482610702514648 -4.86807250976563 6.46610450744629 5.36729049682617 -9.68462944030762 -8.73811654280871 6.8920750617981 -1.0405387878418 8.08878613333218 9.29060173034668 -4.52836418151855 -5.66413879394531 9.2034740447998 -0.215688705444336 -9.56675720214844 -4.83338451385498 -4.92327117919922 -6.27052736282349 -5.27380752563477 0.755163192749023 -2.06133270263672 -3.03148365020752 3.8936847493751 -8.00602912902832 9.13929748535156 -3.80303287506104 -1.97214031219482 -1.03574848175049 -1.14103221893311 -6.86348724365234 2.20321750640869 -4.97299575805664 -1.02285480499268 -3.74217891693115 -9.37028121948242 -1.31992721557617 -4.56030750274658 9.00084495544434 -5.94305229187012 7.8651065826416 0.468782424926758 -2.11358165740967 -6.08920288085938 -1.7111930847168 -9.4995002746582 3.81963920593262 -9.17573928833008 -4.52973747253418 -1.76448726654053 -1.91323375701904 4.44745254516602 8.60847663879395 9.01267242431641 -4.05084991455078 -7.85299491882324 -1.01406893506646 3.71512389183044 -6.35859680175781 -6.45415306091309 -0.460905075073242 -8.4486026763916 0.288382530212402 -5.89663028717041 -5.10966300964355 3.15211057662964 -6.86415863037109 1.07409888226539 -7.1163444519043 9.24741554260254 9.47724533081055 5.62629699707031 -8.29350280761719 1.69991397857666 6.11758947372437 7.22011756896973 6.89323604106903 -1.82402515411377 8.55559539794922 -5.75645446777344 -1.39877223968506 -3.63085174560547 6.73647356033325 1.95200824737549 0.819038391113281 5.23358345031738 3.70804977416992 -5.43620109558105 3.50657653808594 -6.87216758728027 1.97234725952148 -7.86498832702637 -5.01142024993896 -3.91106033325195 -8.65120887756348 -1.89664459228516 9.92816925048828 5.15461444854736 8.16221237182617 -7.98121643066406 3.31694205990061 -3.54116920428351 8.86909675598145 -9.37906265258789 6.71410322189331 6.83530044555664 0.0892963409423828 -2.27221584320068 9.01651573181152 -8.32368469238281 -4.37314128875732 8.7357120513916 1.14739322662354 -9.06350135803223 -3.20260143280029 4.83430862426758 -8.55200004577637 4.87034797668457 -2.05288791656494 0.901037216186523 2.51794576644897 9.80970734357834 -3.40095977764577 4.12866592407227 6.16573524475098 7.39596891403198 -3.63808059692383 9.84350621700287 -1.34105110168457 6.96446418762207 -4.55905818939209 0.393003463745117 7.43435621261597 -5.48599052429199 -8.74715995788574 5.68485260009766 -0.363344192504883 -0.887469291687012 -7.44834136962891 -2.31532192230225 6.13558959960938 6.01543188095093 -2.41238975524902 1.39513113722205 -8.18559646606445 -2.95284366607666 -8.66399765014648 -5.0695972442627 9.63220977783203 -9.11988258361816 -3.43162631988525 -1.6019401550293 -7.24959373474121 -2.99736881256104 0.0490579605102539 -6.5338306427002 -5.27144908905029 -3.07900524139404 -6.28442573547363 -4.17941188812256 9.14909744262695 2.79892420768738 -9.48789215087891 -5.66603183746338 -6.6906590461731 -6.35626983642578 4.60909843444824 -3.73867607116699 -3.36622333526611 4.25102233886719 -1.92447757720947 5.92630863189697 8.69497680664063 8.61325263977051 0.484169960021973 5.49732398986816 -5.22094917297363 1.65134334564209 2.42752933502197 9.94336128234863 -4.61301422119141 8.18198394775391 0.900668144226074 -1.94213771820068 3.10339689254761 9.82637214660645 -2.91362190246582 -3.84753608703613 -3.54162311553955 -3.59512233734131 -4.63998222351074 -8.51552200317383 2.32767009735107 -4.3965425491333 5.71941566467285 -1.81856060028076 7.80220985412598 3.10574942827225 -1.33616065979004 6.74251747131348 5.50905561354011 -4.74186992645264 -9.09338188171387 -1.60700225830078 0.909763336181641 -5.91628074645996 -5.67862987518311 -6.45586204528809 6.76826238632202 9.66236877441406 4.71557807922363 -3.07690238952637 -5.45215606689453 -3.33767718728632 -5.22885322570801 4.52404975891113 3.85331344604492 -2.52947902679443 -12.5461740493774 -7.51566886901855 2.25967311859131 8.2727575302124 2.59979963302612 -7.52793121337891 2.14201545715332 13.737615169026 8.26425743103027 5.59291539061815 -4.56904792785645 2.87935447692871 9.23574829101563 2.2031888961792 -5.09267330169678 2.02525043487549 -2.03109836578369 -7.71395874023438 -8.92828178405762 4.39340114593506 7.00584173202515 -1.09802627563477 -4.0903229387477 -0.34089469909668 2.85153150558472 7.00731706619263 8.23124885559082 4.31396961212158 -4.76074123382568 6.67902708053589 -4.90458106994629 -1.69276332855225 9.57983779907227 7.75708913803101 -0.346149444580078 2.6573178768158 -1.32547473907471 9.81347560882568 8.99943351745605 -2.15372657775879 5.55084228515625 7.73263931274414 -6.79541397094727 -7.56001996994019 -9.1932373046875 2.48388385772705 6.92579698562622 5.21710586547852 1.71578311920166 2.13108158111572 5.91780853271484 0.46505069732666 -1.46759128570557 4.83855724334717 5.27916669845581 -3.57387447357178 0.817447662353516 4.2607593536377 3.15301132202148 4.8040246963501 -8.75965118408203 -1.82420635223389 -5.001220703125 3.30615019798279 -0.501007080078125 -2.89196586608887 -1.88239669799805 5.70414543151855 5.79474925994873 8.01097679138184 -7.56012725830078 1.44431870896369 4.23039627075195 -4.78255367279053 3.03285789489746 3.13243103027344 2.10176086425781 6.10898971557617 3.00521349906921 9.74998664855957 -3.91092007071711 8.43126678466797 -9.04266738891602 0.71048641204834 -1.06527709960938 1.84940910339355 |
-9.28203201293945 7.54520177841187 0.46878719329834 9.01982498168945 2.26270294189453 -31.8891448974609 1.37363815307617 -6.26682090759277 -1.06710052490234 2.54205203056335 -4.20018291473389 8.64198207855225 -0.8804931640625 -2.84759616851807 3.88355445861816 -9.89605331420898 1.18424034118652 -6.92090034484863 4.5274829864502 4.28767204284668 0.631221771240234 5.14615774154663 3.75652289390564 1.1604700088501 -7.43062019348145 9.86725044250488 6.83888959884644 6.10031843185425 -4.74799060821533 -0.00934219360351563 -5.97028732299805 -9.31174278259277 -9.74709701538086 4.73100185394287 -3.43628978729248 7.10913419723511 -8.07259368896484 5.27580738067627 2.52191734313965 -7.41004943847656 8.75524044036865 -3.48608112335205 2.8252387046814 -1.01409816741943 6.81401777267456 -7.93853759765625 4.40879058837891 6.33047483465634 -9.27469062805176 -5.76572608947754 2.28923892974854 9.0014820098877 3.5644052028656 7.02516746520996 5.57507705688477 -1.23980140686035 -4.88420104980469 8.55611038208008 5.13334274291992 0.983852386474609 5.69626569747925 3.58943915367126 -8.88109397888184 3.04540604061913 -4.64109039306641 0.369962692260742 -7.33582496643066 2.00337505340576 1.02834606170654 1.99827414797619 -9.24032974243164 8.81463241577148 -4.97545337677002 9.88166809082031 -1.99518585205078 7.23654508590698 -5.04312705993652 -3.2066478729248 -1.55798530578613 -2.90481948852539 -7.47003126144409 -5.09674263000488 9.10976791381836 3.47541785240173 -8.61562538146973 3.32201457023621 1.9606409072876 0.932406425476074 -2.10642433166504 1.67970561981201 -5.94225692749023 8.8834228515625 2.56136131286621 4.9750018119812 -4.00958156585693 -0.631228446960449 -8.86800956726074 -7.37488555908203 -5.30436325073242 1.58830547332764 3.64851188659668 -9.92135047912598 -4.31901454925537 -8.08464431762695 -0.964637756347656 -7.79150772094727 2.17258358001709 6.06956005096436 8.66318893432617 2.56706795096397 -9.20898628234863 6.81233930587769 5.26999235153198 9.63250350952148 8.92770004272461 -6.22598648071289 1.47608852386475 6.36067390441895 -4.79961776733398 5.39482831954956 -2.22066974639893 -8.80590466153808 8.50778961181641 2.21345043182373 1.89494228363037 8.16965866088867 -0.310855865478516 -2.71907901763916 -9.44667625427246 -4.89729499816895 5.4079008102417 5.47098350524902 4.88453102111816 2.68160319328308 0.835718154907227 0.684989929199219 9.27743148803711 -7.6395320892334 4.6364951133728 -4.49138259887695 10.0613617459312 1.18202590942383 4.83340454101563 -7.57421493530273 -1.74089527130127 5.32264709472656 -0.599041938781738 -8.23446083068848 -8.06912612915039 -3.93197441101074 -8.17936897277832 -7.44302940368652 5.55754423141479 2.5143027305603 8.97577667236328 -0.556479454040527 3.56477928161621 -6.20774269104004 -6.71388626098633 1.13507843017578 -2.71590805053711 8.36077499389648 -4.30985355377197 9.35137557983398 3.59956240653992 7.92484474182129 -1.59214115142822 1.63894081115723 -8.54196739196777 -8.00370979309082 8.84878158569336 2.89953207969666 -1.58847427368164 4.91395950317383 5.47330379486084 3.68484473228455 -3.55057144165039 -8.70708465576172 -5.05738258361816 -6.21388959884644 6.80146932601929 2.64666318893433 -2.23962211608887 0.628419876098633 3.35351181030273 -5.77178192138672 -6.44573318958282 -7.55749702453613 4.07854270935059 5.29728126525879 -6.85601234436035 8.33749008178711 -9.44271278381348 -3.86741733551025 -2.08786106109619 -1.59483337402344 5.89596271514893 -0.352319717407227 0.121856689453125 3.0972785949707 2.38730335235596 5.6488208770752 0.725602149963379 -0.450262069702148 -1.80893325805664 6.36689376831055 -6.79988670349121 -1.49192714691162 -0.987540245056152 9.24455833435059 -6.00574064254761 5.20062923431396 4.8739342878107 0.616903360933065 3.42809867858887 6.66469764709473 0.539828300476074 -5.90771675109863 -1.03771114349365 9.25378799438477 4.00104522705078 -9.71126747131348 1.85749912261963 3.47765898704529 -2.5541820526123 -5.894455909729 1.87143898010254 2.99646139144897 -2.37142944335938 -1.16745021659881 -8.73390489816666 -5.6085729598999 9.73864312912337 -1.47699451446533 1.63801097869873 -9.86200141906738 6.05571269989014 -9.81371688842773 0.840965270996094 3.0987811088562 4.31225776672363 -0.305891990661621 6.49361801147461 -0.391994476318359 -4.70248317718506 -8.97132682800293 8.94248485565186 2.12013626098633 4.13334846496582 -7.68191528320313 1.0518159866333 25.318434715271 2.32525253295898 -3.65722274780273 4.37151908874512 8.3386116027832 -3.52162456512451 -3.42996501922607 -0.52237606048584 0.724612236022949 0.00308609008789063 5.62631130218506 4.97165203094482 5.94320058822632 3.06539297103882 -1.35710620880127 7.05646944046021 5.34081649780273 -7.31954765319824 1.24555206298828 4.99880313873291 -3.37471103668213 -3.70218849182129 3.67815470695496 9.06416893005371 -3.11404609680176 -9.41828839317895 7.57110595703125 -8.77371025085449 1.00613498687744 -8.75907516479492 3.46982717514038 -0.145689010620117 -2.16658020019531 -7.14228630065918 0.27169132232666 -1.0991849899292 8.33670806884766 8.73049736022949 -4.53635120391846 4.02651023864746 -9.72255325317383 3.75776052474976 -0.573402404785156 -6.84622764587402 0.601133346557617 9.4248218536377 -0.0310192108154297 -6.91626024246216 -8.16213989257813 -6.09679985046387 6.72610807418823 -5.48775482177734 3.52652740478516 -1.60529232025146 -3.86155223846436 -5.50328063964844 7.24999618530273 -9.27685737609863 8.17417526245117 -2.37035179138184 -2.21734619140625 -3.51149463653564 4.09553527832031 -16.9640922546387 3.1881091594696 21.6590270996094 -0.00744724273681641 3.18767738342285 1.75962352752686 -3.33679294586182 -1.00776100158691 -6.23557090759277 -7.94571685791016 1.15797138214111 8.31941986083984 7.52217292785645 -7.36970472335815 1.78145980834961 5.24398803710938 -7.34688949584961 2.46780776977539 4.63872909545898 2.77661299705505 -2.61892414093018 -5.08768272399902 -6.13644599914551 1.5010986328125 6.52922391891479 -1.6399393081665 3.84161186218262 2.37226867675781 -8.03462028503418 8.02582931518555 -6.73438262939453 -6.0556583404541 9.71980571746826 -6.42712593078613 8.20401382446289 -9.67715835571289 -1.86808490753174 -6.9739818572998 5.71992111206055 0.161088943481445 2.55801653862 -1.70872139930725 -4.40469837188721 9.57696723937988 -9.95730400085449 -2.72262668609619 -8.71495056152344 -8.53365135192871 -2.38857173919678 -7.34926986694336 -7.74777412414551 6.2889289855957 1.26440906524658 4.82444524765015 -6.13524436950684 3.85166358947754 4.7245817433577 8.48627853393555 2.76991820335388 -1.81022548675537 1.57269859313965 -0.776836991775781 -4.37803363800049 8.98177909851074 -1.08113384246826 2.65533638000488 -8.23094958916772 5.77693894971162 -0.0445785522460938 6.95257377624512 7.40460395812988 4.51011419296265 8.40332794189453 -3.44956302642822 -9.77301025390625 2.02469444274902 6.81283712387085 -6.19202613830566 -4.52831840515137 8.67453002929688 3.51668548583984 -8.85317993164063 0.585073471069336 0.272482872009277 4.77031230926514 -5.78976631164551 -0.113154411315918 3.85098218917847 3.0693359375 5.97457885742188 7.14760255813599 8.20307922363281 4.33883190155029 -7.34201002120972 -5.60243606567383 -4.03648471832275 2.32711219787598 0.109998066211119 -7.66626358032227 6.37581825256348 1.19810199737549 1.00142383575439 -8.01203918457031 -8.68289947509766 -0.918110847473145 -3.40805149078369 |
