4.85646724700928 -2.31715297698975 -8.85214996337891 -2.84598445892334 -3.81090068817139 -5.10003280639648 5.05511474609375 -3.52743721008301 5.6154727935791 -9.52345085144043 6.71899557113647 -6.07968139648438 -5.06358623504639 -9.32455825805664 -8.74896049499512 5.52246284484863 4.20921087265015 7.97244596481323 1.35288619995117 0.829218864440918 6.03414297103882 -3.49316024780273 1.58084297180176 3.32207441329956 -8.36496543884277 -0.755053520202637 2.17186069488525 -6.25015687942505 -9.76089096069336 7.97270965576172 6.48560523986816 -2.59286785125732 -4.09515476226807 4.20881032943726 -3.10999965667725 -3.56708908081055 -3.12980270385742 -0.306676864624023 4.45227146148682 -5.09819030761719 -4.95279884338379 -5.86638259887695 5.52840948104858 9.19550704956055 5.38605451583862 -6.38748168945313 -3.13714408874512 9.73135948181152 -2.6448974609375 3.96977877616882 -2.48500919342041 -5.03648281097412 -1.52618980407715 -6.0260181427002 -2.1187915802002 0.368570327758789 -0.470093727111816 -7.93990325927734 5.53224563598633 6.3850474357605 1.72537231445313 -5.50028991699219 -1.602858543396 8.7413387298584 0.882216453552246 -8.34887504577637 -4.854660987854 9.21887397766113 -8.40228652954102 4.70360279083252 9.10603713989258 -8.48615837097168 2.71170377731323 -1.67799854278564 1.64010620117188 6.31917953491211 -5.25109100341797 -9.10911750793457 1.37592697143555 7.10674715042114 2.79005765914917 -3.74045467376709 6.23655080795288 1.28803157806396 -0.521010398864746 -0.634564399719238 1.73048877716064 1.322585105896 1.04360675811768 8.48027229309082 7.9370379447937 9.02151489257813 -2.04176807403564 -6.01694107055664 -6.73512983322144 -0.774492263793945 8.44881248474121 -1.04842090606689 2.38737964630127 -3.71876621246338 -2.55881214141846 5.56547355651855 1.86616802215576 -6.00805711746216 7.569908618927 -5.59072971343994 -1.1441125869751 2.81057119369507 2.83659172058105 8.51302146911621 -5.63273620605469 1.80289649963379 -0.618447303771973 2.8983039855957 0.771564483642578 -2.18692207336426 -8.43161392211914 4.3867015838623 4.5622992515564 6.32995796203613 -0.243381500244141 -0.785030364990234 9.59862518310547 -3.11353302001953 -5.5179500579834 -8.38266563415527 3.47560381889343 -6.83406066894531 -8.56869506835938 5.31348705291748 4.05944347381592 -4.88851165771484 -9.11878967285156 9.01185512542725 -4.27119636535645 4.64891195297241 6.05747222900391 -4.09663105010986 -1.16916751861572 -2.86119079589844 4.03852653503418 0.042515754699707 -4.26890277862549 -7.35746812820435 -9.7667236328125 2.66855692863464 9.80895519256592 9.66437149047852 3.01671957969666 0.622214317321777 7.67163276672363 5.02245664596558 2.79831123352051 -0.783344268798828 -5.33877563476563 7.79570055007935 3.22031211853027 -6.91902160644531 -6.43353986740112 -2.46526145935059 6.29547119140625 -8.47171401977539 4.41855907440186 -2.2189245223999 -0.193863868713379 9.63042068481445 -5.63190460205078 -1.09690761566162 -2.66764068603516 -6.80176734924316 1.89521217346191 -3.32198524475098 6.98592185974121 0.86454963684082 -3.89388656616211 9.67563152313232 -6.8223876953125 7.66324234008789 -4.12284755706787 -4.99688529968262 9.44840621948242 6.07422828674316 7.37191724777222 -7.03811645507813 0.563568115234375 -2.72347068786621 -2.40418338775635 -5.02328681945801 8.99763107299805 0.823735237121582 9.7485466003418 -4.58781147003174 -1.50578117370605 5.80496549606323 -1.77375411987305 6.3319206237793 -0.795926094055176 1.84000110626221 7.72509336471558 -8.04452514648438 -0.428467750549316 4.49207782745361 0.154894828796387 7.8447003364563 4.16202306747437 7.91573715209961 4.96871948242188 -0.276645660400391 -6.306640625 -7.88773727416992 9.70407295227051 6.04639768600464 -0.546127319335938 -2.43584060668945 6.0139536857605 3.27923274040222 -4.44439792633057 4.21453666687012 -6.46557998657227 -1.82252025604248 -7.59347915649414 -0.422249794006348 4.83395338058472 0.622693061828613 2.48423004150391 -6.38794898986816 -2.99796009063721 9.11995697021484 -4.14051628112793 -0.14675235748291 -1.83308696746826 3.99652242660522 0.665205955505371 -8.59563827514648 6.70500230789185 3.60009908676147 -2.20692253112793 -6.1329460144043 -5.58840751647949 -3.58067417144775 -2.00486278533936 7.99907255172729 -6.33866500854492 -3.43126392364502 -9.28246307373047 -6.13491487503052 -5.32705497741699 3.31903219223022 7.33412218093872 -7.05436515808105 -9.48451232910156 -9.77016639709473 -8.25471687316895 1.90604305267334 7.20292615890503 1.15032291412354 1.9450511932373 7.81022596359253 6.07626152038574 2.73509955406189 -5.60601043701172 -6.9795036315918 8.83081245422363 -6.06897354125977 -0.1358642578125 -2.80091667175293 -6.10600996017456 -5.50415515899658 -9.39404296875 -0.537866592407227 -3.84310817718506 -2.43176555633545 0.532530784606934 -9.57516670227051 -6.43625450134277 1.90642929077148 -1.46156406402588 -8.25799560546875 -0.0544414520263672 9.95029640197754 4.12207365036011 1.75131416320801 -6.10464286804199 4.81246471405029 2.83514738082886 1.51640033721924 -5.30206871032715 6.10586881637573 5.31810522079468 2.67446970939636 -5.36881923675537 -1.87307453155518 -6.13162803649902 5.18286228179932 -6.2005729675293 2.70596480369568 0.471664428710938 7.94011116027832 3.02511668205261 -5.74093341827393 9.23601341247559 -9.03314208984375 -9.67155456542969 7.29147911071777 -6.34096908569336 -5.06486415863037 3.48931503295898 7.89177131652832 -9.28955459594727 1.46661376953125 -6.88085556030273 9.22759246826172 -2.00675582885742 7.28524398803711 -2.15686702728271 -6.81647491455078 -5.85725975036621 6.00454330444336 2.2553596496582 -1.98149585723877 -2.73740386962891 2.22002410888672 4.06442403793335 -0.961953163146973 5.94933986663818 0.165315628051758 0.616532325744629 0.986136436462402 7.43980169296265 8.66848182678223 4.41496849060059 -2.44564151763916 8.85695934295654 8.97834777832031 -3.17633247375488 5.22547245025635 3.7713451385498 -9.53642654418945 8.43777847290039 8.86943340301514 -4.7737512588501 1.97095489501953 2.08762264251709 2.20242595672607 1.20132350921631 5.58192253112793 -1.301344871521 -0.39051628112793 -8.11483001708984 7.86695241928101 -6.32773399353027 7.6361198425293 3.98859000205994 5.98641586303711 3.11930632591248 -5.38010406494141 4.96689033508301 7.23856163024902 3.14226126670837 -3.44883346557617 7.44397687911987 -7.28568077087402 -4.25338172912598 5.5485987663269 2.16442203521729 -0.100275039672852 -6.79222106933594 6.78910779953003 7.36775922775269 -5.7571964263916 2.42857551574707 -1.44719505310059 2.80956721305847 8.3101921081543 -2.27171993255615 9.58695602416992 5.02193212509155 3.9475269317627 -7.23914909362793 -9.46664047241211 -1.27116775512695 0.749482154846191 -1.3735237121582 5.04479885101318 1.52506446838379 -8.50142478942871 7.40187120437622 -6.24223899841309 -4.88244152069092 -2.68860912322998 2.30619335174561 -4.44547080993652 -1.68584251403809 -1.98386573791504 6.23473882675171 3.02784895896912 -0.373340606689453 4.22008275985718 -5.02053737640381 -8.52816390991211 -6.45487260818481 -7.49973487854004 -9.38301467895508 3.9729688167572 9.36902523040771 -3.81539726257324 -5.6133918762207 4.5609188079834 1.1227331161499 -0.793806076049805 -2.44490718841553 -5.56339073181152 3.37293386459351 3.11223483085632 -7.91494178771973 -5.29567241668701 6.37220144271851 -4.21655082702637 6.05747413635254 -6.07955503463745 -3.46956157684326 -4.72693538665771 0.567523002624512 -9.43725967407227 -7.900062084198 3.91775321960449 -3.39828109741211 -0.783490180969238 5.74702978134155 2.77473425865173 -3.80513286590576 8.85608863830566 -9.55261039733887 -2.46180629730225 -4.31700611114502 3.02855253219604 -3.315993309021 -5.97750663757324 -7.64115524291992 0.220352172851563 -5.05190658569336 3.41414427757263 0.0493946075439453 8.67705821990967 -0.646048545837402 3.18098521232605 -6.29573631286621 -3.76893615722656 -7.04842567443848 7.8838062286377 -0.09344482421875 6.78735733032227 3.97423505783081 4.80484485626221 -5.14427947998047 6.58689260482788 9.36340713500977 9.13574409484863 5.47504186630249 -6.12227439880371 -6.21397972106934 5.14143180847168 0.426081657409668 -1.90590476989746 -9.35618591308594 -3.28965282440186 1.71519374847412 -8.58392333984375 -3.60269165039063 0.702653884887695 9.12781715393066 3.07854151725769 -7.85294532775879 9.95460510253906 1.16678142547607 9.92245483398438 6.19357109069824 -7.0039324760437 -7.0920581817627 -4.61995983123779 -3.68298625946045 -2.55304431915283 4.33494329452515 1.14514446258545 6.74638319015503 -3.3126220703125 -9.81896591186523 1.43130397796631 7.4486231803894 -2.59573554992676 -1.0510721206665 -9.12812995910645 -5.84905815124512 -8.28724670410156 3.80524396896362 5.18023490905762 -1.715012550354 5.34095287322998 3.11095952987671 5.20254135131836 5.81672191619873 -3.76930809020996 3.20081901550293 7.60521364212036 9.41690444946289 -4.6180477142334 -6.26030731201172 -1.03539085388184 -9.37826538085938 1.0814151763916 6.96441650390625 -4.22279453277588 1.56097507476807 -3.24142551422119 -1.12996959686279 8.23663520812988 -4.84877967834473 -5.54983329772949 7.41619110107422 -9.41733169555664 5.29241561889648 -4.64204692840576 -8.65411376953125 6.13581657409668 -3.65207576751709 -6.67255401611328 -5.01021862030029 7.92435121536255 4.56865501403809 -2.07031345367432 2.44164371490479 3.79982924461365 1.34173011779785 8.91959381103516 -1.03042697906494 -9.93384170532227 -1.36085891723633 4.67492818832397 6.86827421188354 -5.27274894714355 -6.08466911315918 -6.67043685913086 2.69215559959412 8.3548526763916 7.59409141540527 -5.01085758209229 -2.37547969818115 -1.22612857818604 5.74802160263062 -7.50778961181641 -8.2045841217041 -4.73960494995117 -0.977693557739258 0.566834449768066 -1.12022972106934 -3.0376091003418 8.16417694091797 -5.27523803710938 6.41332817077637 -6.68330383300781 -5.09193229675293 6.46224546432495 -7.79025077819824 2.70020461082459 -2.12551498413086 -9.85538291931152 0.368438720703125 4.54691648483276 5.54732799530029 -1.47112941741943 5.30376434326172 2.05171489715576 0.576849937438965 -3.3270320892334 1.22854614257813 4.6248836517334 2.74744486808777 -4.78857612609863 -6.26057815551758 -5.05680274963379 4.46620941162109 6.88622665405273 7.24190711975098 4.07736968994141 -2.26191902160645 -6.7504768371582 -5.75782299041748 -1.67003059387207 0.365656852722168 -2.37855529785156 1.46082973480225 -6.44127082824707 -1.42939949035645 9.02455520629883 -2.67472839355469 -2.26769828796387 -2.44692897796631 -7.36662101745605 -8.62292861938477 -3.86821174621582 -1.8069543838501 -1.36503124237061 -9.68224716186523 7.33795356750488 -6.45219612121582 3.21779227256775 7.03571748733521 -6.5247802734375 7.72510099411011 1.53084659576416 -9.828369140625 -5.19864082336426 5.05343914031982 -3.64711380004883 4.06177997589111 -2.43752574920654 -2.25992107391357 -3.85560894012451 0.167914390563965 5.81945180892944 6.65602874755859 5.42018127441406 8.84195518493652 -2.96026134490967 0.524596214294434 -6.48457527160645 9.6723747253418 7.72444486618042 -6.20449256896973 -5.04949569702148 2.13425731658936 9.53388214111328 -1.57048606872559 -8.37128448486328 2.64486289024353 6.13657379150391 7.30665922164917 -8.86785316467285 -1.20003604888916 -0.228625297546387 9.83876037597656 8.58228206634521 1.00170516967773 3.01644515991211 1.16591548919678 -1.84969997406006 3.40763807296753 2.59168124198914 8.19763946533203 -2.63547515869141 1.14202117919922 7.20211744308472 -5.04730987548828 5.54587125778198 -5.98661422729492 -7.50947761535645 8.15870475769043 -1.32368659973145 -7.02582550048828 -3.17304706573486 9.2974739074707 -4.34884929656982 1.16006946563721 -4.88278961181641 -8.91597747802734 -9.76572799682617 9.29204750061035 8.79077911376953 -1.54142475128174 1.26320934295654 9.20499038696289 -3.80632019042969 -7.87878227233887 -7.44468688964844 1.19432544708252 0.45869255065918 -2.12942504882813 -8.86627960205078 2.39011383056641 2.14365577697754 3.90712237358093 2.92130923271179 -2.98872566223145 5.87907314300537 -8.74497985839844 -2.91598415374756 -9.45319366455078 -7.17340278625488 9.85297966003418 -8.39673233032227 -6.82050514221191 -4.81393241882324 8.41283988952637 9.34848976135254 -4.13314723968506 -1.43743133544922 -0.0662813186645508 0.32326602935791 3.32466316223145 9.15344429016113 -3.34822559356689 4.89440155029297 5.54250717163086 5.18801212310791 9.64822006225586 -9.09171676635742 -4.74189186096191 -4.43823719024658 -4.90425968170166 3.17618823051453 -7.4277400970459 7.52997922897339 -2.87840747833252 -3.29486751556396 -1.390456199646 8.072829246521 -1.86154270172119 7.34662246704102 9.20820236206055 -3.45830821990967 -2.7787389755249 -9.48127365112305 -3.49837207794189 -3.78428554534912 1.23887920379639 -1.99761486053467 8.02277374267578 4.31093215942383 -1.41343688964844 -3.8235559463501 -9.61165237426758 -9.34186553955078 3.91069602966309 -5.15682411193848 -6.19924116134644 -5.07327556610107 7.20777940750122 9.8047924041748 4.19695615768433 2.64725661277771 -9.55063247680664 -1.08487510681152 0.0267705917358398 -4.98914337158203 -0.607861518859863 8.36105537414551 6.21726751327515 9.79600429534912 6.69648694992065 -8.55881500244141 -4.66446018218994 -2.45311641693115 -7.57459831237793 3.99016833305359 -8.94252014160156 7.71181297302246 -9.01925277709961 5.66326332092285 -5.57307243347168 7.95483589172363 6.83700561523438 -2.34536266326904 3.61697173118591 -7.89271354675293 6.60149765014648 -4.63119411468506 -0.813163757324219 -5.08812427520752 9.60785293579102 -5.6301383972168 5.29883575439453 9.69049263000488 8.2708625793457 4.06965732574463 -1.92165279388428 -2.84522151947021 -4.07507514953613 3.69303894042969 -9.34749221801758 -2.10131549835205 2.29798221588135 6.50433540344238 -9.848388671875 -4.51681041717529 4.81126308441162 8.13225555419922 -0.226350784301758 2.23181343078613 4.63082313537598 9.61011695861816 9.43374443054199 1.31558513641357 -1.46827125549316 7.93378067016602 5.9599781036377 -9.5418758392334 4.53947257995605 -2.15334320068359 -6.8226432800293 3.34445190429688 -7.32893943786621 -0.0732412338256836 7.99415159225464 2.94410681724548 -6.14899110794067 -3.53984260559082 1.81971645355225 -0.00243568420410156 4.46390628814697 -3.95279026031494 -5.38714218139648 -4.73720645904541 3.85886383056641 -8.23054313659668 2.78452634811401 6.92420721054077 -2.77070426940918 0.347556114196777 0.53331470489502 7.22399187088013 -0.292516708374023 8.57525825500488 7.69793510437012 5.62971305847168 -3.76940155029297 -4.45736026763916 -1.22902965545654 -4.04227161407471 -4.88116836547852 -2.46498966217041 8.11976623535156 -9.63203430175781 9.71522521972656 -2.25604629516602 -0.659380912780762 9.97536087036133 2.65749168395996 7.22855567932129 -8.23303985595703 -5.72546768188477 0.914677619934082 -3.75683689117432 -9.03498649597168 1.4100399017334 -0.539278030395508 4.78300809860229 -9.85908699035645 -0.205451011657715 7.41942930221558 -2.63862228393555 -3.86859321594238 6.28980207443237 2.88895106315613 7.2265477180481 -2.52427005767822 -1.75704383850098 -2.95744037628174 -8.12600326538086 3.46952891349792 8.94636154174805 -0.257333755493164 -1.00418186187744 7.34575986862183 2.81375646591187 -2.40227794647217 3.11653113365173 9.8200511932373 0.859030723571777 -6.45629119873047 5.52884101867676 3.10021162033081 2.26396465301514 8.551513671875 0.105429649353027 6.95749044418335 0.465465545654297 7.51798629760742 -2.1904411315918 -4.1341438293457 -8.19513130187988 -2.86141014099121 -6.89950513839722 3.49448180198669 1.56065559387207 6.69925451278687 -7.14067268371582 5.62115430831909 -9.76677131652832 2.43680572509766 -7.98636245727539 3.54128074645996 -8.23365211486816 8.90397262573242 -0.365823745727539 2.08267307281494 -5.5347843170166 2.7912232875824 -9.35564994812012 -1.37476062774658 2.94316053390503 -2.39518737792969 -7.43735504150391 -3.86319541931152 -7.20612335205078 5.21885633468628 -8.95033836364746 7.92026519775391 7.2252345085144 -4.29669284820557 9.86457061767578 -2.96073055267334 6.81987524032593 0.223523139953613 -5.56684303283691 4.9246883392334 7.11787414550781 7.98336219787598 5.14154434204102 8.72061729431152 9.56219673156738 5.53385925292969 -9.31411933898926 5.06062698364258 -0.838111877441406 -5.21751403808594 -6.710205078125 -2.47905158996582 -3.81670093536377 6.99455261230469 2.45150470733643 4.55132961273193 3.94467544555664 2.48492336273193 -0.336376190185547 9.14179992675781 4.87903356552124 8.09706115722656 8.89286422729492 4.27869033813477 -0.910416603088379 -6.50601387023926 3.75479459762573 -0.232657432556152 -2.40830516815186 -1.0484447479248 -2.4274263381958 7.39995193481445 -0.147868156433105 -1.95557689666748 8.55111122131348 -1.67365455627441 8.87156963348389 -8.12363433837891 4.85289335250854 -9.66149139404297 -6.28469467163086 5.03496885299683 2.24336051940918 2.55608749389648 2.10904693603516 -9.73199081420898 -9.87214660644531 -4.27729988098145 5.60133171081543 -3.19215869903564 1.50088882446289 -8.11366653442383 -7.94913101196289 -2.24056816101074 0.19781494140625 8.40200233459473 8.64239501953125 9.43906784057617 -8.59090423583984 2.21275234222412 0.466872215270996 3.12974166870117 6.70568466186523 4.01913642883301 -3.19301700592041 -8.0037727355957 -5.83489227294922 -9.8427734375 7.1490740776062 5.27357292175293 -6.83384370803833 7.19955635070801 3.97785639762878 -0.138460159301758 -1.69313335418701 5.8996844291687 4.96131420135498 8.30475234985352 -3.78964996337891 4.66248273849487 -7.38599014282227 6.92005586624146 -2.03482246398926 -8.38634300231934 7.01629400253296 -1.87441730499268 4.0202784538269 4.37485885620117 -7.62244987487793 -9.65052795410156 2.50373077392578 -3.06100273132324 5.77905416488647 -3.72182273864746 -2.77472877502441 -6.10934782028198 9.24784851074219 -8.355712890625 -1.58132171630859 -8.41301918029785 5.46347141265869 -6.98203086853027 5.19966602325439 -7.5206036567688 4.32014226913452 -8.84886169433594 1.77673244476318 7.75143098831177 7.7705020904541 0.0992622375488281 2.21727275848389 0.080174446105957 -4.60315799713135 8.10918807983398 9.0071907043457 -1.83621978759766 -8.41353225708008 -8.17708587646484 -8.23390960693359 6.63133811950684 2.2412691116333 1.62679290771484 -4.55244636535645 5.24295568466187 8.29274654388428 -6.75643157958984 8.66868782043457 8.75335693359375 -0.644778251647949 7.89337587356567 -3.37801837921143 5.91714096069336 -9.98720169067383 7.71023511886597 1.43233871459961 -4.71333885192871 7.92527723312378 -6.04330492019653 -8.96536254882813 -1.46633529663086 2.68908262252808 -8.62464141845703 4.92263031005859 -7.30498504638672 -6.76851081848145 -6.32028150558472 -2.00957679748535 2.10904979705811 7.48677968978882 -4.56342124938965 5.9844799041748 4.17672157287598 -0.569449424743652 1.6629467010498 -8.40551376342773 -4.20814895629883 -9.73252105712891 -6.41312599182129 -9.41489028930664 0.928071975708008 8.90827560424805 -9.10594749450684 -3.38064765930176 6.50070905685425 5.53505659103394 5.56444358825684 0.889557838439941 -9.51937675476074 0.381959915161133 0.649581909179688 4.65817451477051 4.83286094665527 0.890236854553223 -4.10197830200195 8.94880104064941 -3.31746959686279 -8.33490371704102 0.35234546661377 -6.1793041229248 8.97154998779297 -2.53462696075439 -3.27007389068604 -0.262083053588867 5.92856597900391 -3.11835193634033 -4.47550868988037 -8.91168594360352 2.27348899841309 -9.7971305847168 -9.85277938842773 5.76220989227295 8.02137565612793 5.84735870361328 7.0550365447998 8.25578689575195 2.27012729644775 8.14370632171631 2.52903699874878 4.37852621078491 1.48227119445801 0.290947914123535 -0.648797988891602 -1.79523086547852 -2.63135528564453 7.69842147827148 9.74954128265381 -4.32867431640625 4.66357421875 -5.32914638519287 2.88202047348022 -5.08219242095947 7.31736898422241 -4.32864570617676 6.84247732162476 7.93553352355957 -7.27319717407227 6.21152114868164 -0.923567771911621 5.53192615509033 -0.100246429443359 -1.52155494689941 4.81699466705322 1.55104541778564 2.54838919639587 -3.82487201690674 -4.77404975891113 -8.5175724029541 -5.27646827697754 1.49302577972412 7.07699537277222 4.72027778625488 0.488142013549805 1.21915912628174 7.99724578857422 1.47615528106689 -7.5955867767334 0.433634757995605 -8.11599540710449 -9.61903381347656 -7.77573394775391 6.75480604171753 -0.655823707580566 -2.05460929870605 -2.82416725158691 2.95221781730652 5.47401189804077 -0.081085205078125 4.89034843444824 -1.86454391479492 5.5918288230896 -1.64234066009521 -6.9805793762207 7.80008506774902 2.2922477722168 -8.96542358398438 -1.88925647735596 6.7966628074646 6.05039978027344 2.8493709564209 9.31044006347656 -9.57025527954102 -0.466522216796875 9.42337799072266 3.24511981010437 -7.29162216186523 -6.42717361450195 2.12589359283447 0.743102073669434 7.25917387008667 -5.29624462127686 -8.82035064697266 8.42982482910156 1.27267265319824 8.04059028625488 -4.68978023529053 2.67127966880798 -1.10452079772949 0.746432304382324 -9.68811988830566 -8.19033622741699 -6.0278172492981 7.72339057922363 -2.02019786834717 6.10880613327026 -3.48595714569092 0.666789054870605 -3.02022552490234 -5.41124153137207 5.2483344078064 3.13140630722046 9.22197723388672 3.42365026473999 8.63654136657715 9.25527381896973 -8.87269592285156 -9.88969421386719 -0.0813474655151367 -8.39087295532227 6.1822509765625 -0.742124557495117 -2.8038969039917 -9.8419303894043 -6.86318588256836 0.888224601745605 -4.34242820739746 -1.97002506256104 5.2715277671814 5.78769445419312 5.59136867523193 0.286478042602539 -0.0632848739624023 6.5295524597168 -6.85834121704102 -9.16790390014648 -8.4819393157959 -6.79944801330566 1.55110454559326 -1.58643817901611 7.61858177185059 -9.12072372436523 5.97798824310303 3.63626933097839 -3.33374404907227 -4.95147800445557 -9.94155120849609 5.73055458068848 7.43598175048828 -8.99330520629883 -5.26119995117188 0.388082504272461 9.64859390258789 5.67102193832397 6.37515258789063 8.75000190734863 -5.28075981140137 5.30313682556152 8.63629150390625 -6.99715805053711 -6.05712127685547 8.73504638671875 -9.3126277923584 -0.127557754516602 -1.72121620178223 8.54436111450195 8.81989288330078 1.34492778778076 8.78719329833984 -2.31854343414307 3.63036608695984 -1.09263324737549 -9.63367652893066 2.96687579154968 1.81911087036133 6.0470724105835 0.206455230712891 -0.235959053039551 1.13700294494629 4.71858215332031 -1.68778514862061 6.83397483825684 1.48228073120117 9.3666877746582 0.0207719802856445 -3.53854274749756 -4.21461963653564 -9.43985939025879 3.86711573600769 -9.05388832092285 7.83579301834106 0.232414245605469 -3.52657222747803 0.232888221740723 4.11649894714355 -4.56533050537109 -3.13990497589111 -8.63908004760742 -5.21004486083984 6.45874214172363 7.98227739334106 2.48029327392578 1.43698310852051 -5.4420804977417 -7.87059593200684 -7.05059480667114 8.33069801330566 -4.35214138031006 6.26699876785278 6.25899839401245 -9.34731292724609 -9.99384880065918 -5.62749671936035 -0.77032470703125 -6.14468050003052 -2.53332996368408 9.71533966064453 5.81620216369629 5.94603300094604 -4.7586145401001 -8.30364608764648 6.77580595016479 1.64602184295654 -8.81996536254883 -9.45992469787598 -6.65902137756348 -3.46249008178711 -3.15731143951416 -7.1218376159668 -1.97044944763184 2.0704402923584 -2.80737018585205 -4.83412837982178 9.6441822052002 4.38565254211426 3.57252311706543 3.60844111442566 -3.41631984710693 3.42986083030701 8.09292793273926 -2.83814525604248 9.18014717102051 -8.41268539428711 -1.83014297485352 -6.04574012756348 -5.85972595214844 -6.89782905578613 2.35762500762939 1.16369819641113 -4.37076663970947 6.69015884399414 4.51547813415527 5.71162414550781 -9.07720947265625 6.79012298583984 8.47113609313965 -4.17517757415771 -0.210491180419922 -3.2918872833252 -4.00565052032471 -1.00216960906982 0.256780624389648 -5.84864139556885 8.70524406433105 -4.46268177032471 -4.3735179901123 -7.86912727355957 -0.77241325378418 -6.65503311157227 8.31731796264648 0.66458797454834 6.37105941772461 -4.01559734344482 1.09252834320068 6.09961700439453 4.72156286239624 -7.27690172195435 9.8966064453125 9.85100936889648 -5.27949142456055 -6.388831615448 -5.25552749633789 3.41431593894959 -6.09652328491211 -1.58617115020752 -6.37290191650391 8.12376022338867 4.29533195495605 9.28582000732422 0.687960624694824 -9.57307434082031 1.1963472366333 9.19042778015137 1.85964679718018 -2.13354206085205 1.36697387695313 -9.70756340026855 -8.97207260131836 5.08455467224121 6.36591672897339 3.91172170639038 8.65770149230957 7.12184476852417 -1.1075963973999 -2.44964981079102 7.06318330764771 -1.48133659362793 -3.65275764465332 -1.87283420562744 0.611878395080566 -4.6662483215332 -5.47092628479004 -9.41775321960449 -4.24066162109375 4.73442554473877 8.37911415100098 -4.93628883361816 8.53915405273438 1.14715671539307 -1.92540740966797 5.73956251144409 -1.53033351898193 4.15109157562256 -2.31989479064941 -1.29372215270996 -5.06015014648438 -9.15364456176758 |
-3.20780181884766 7.85997819900513 2.61335134506226 1.37016868591309 -0.241884231567383 3.82774114608765 9.83493328094482 -4.79998683929443 -6.24213981628418 6.59756851196289 1.14267921447754 1.50083923339844 8.27816772460938 3.5556960105896 -3.81572341918945 6.61978197097778 -2.01470470428467 -9.96987152099609 2.61049246788025 -0.603050231933594 -7.56740999221802 -3.07392978668213 -3.01596546173096 9.23417091369629 1.48327922821045 9.8434591293335 -0.181094169616699 -0.0123367309570313 -6.63581085205078 -0.110959053039551 6.77517127990723 5.55267524719238 5.17961502075195 4.01196241378784 8.66020965576172 2.71198987960815 -1.55851745605469 -4.91357707977295 1.00819969177246 -9.49259948730469 0.252810478210449 4.84508275985718 -6.78299903869629 -5.89009094238281 -8.62754058837891 0.387977600097656 -3.64029788970947 -6.56763505935669 -4.22546291351318 -6.4294605255127 -6.99534606933594 -3.30576038360596 0.42965030670166 0.543383598327637 0.251144409179688 2.17677688598633 2.48111629486084 -1.38163471221924 -6.73458290100098 6.30289793014526 0.312629699707031 8.35469722747803 -1.82667350769043 -3.19961452484131 -6.56294822692871 -3.97559070587158 -9.38332366943359 2.88650488853455 6.14752197265625 8.61887168884277 5.09774923324585 -4.1942892074585 -2.56421661376953 9.1976432800293 1.59993267059326 -8.05459785461426 2.22383594512939 0.803112030029297 -3.5877046585083 5.34814834594727 5.67771911621094 6.43646001815796 8.20015716552734 -0.804027557373047 -1.84608554840088 -2.02460861206055 6.68341112136841 9.31100845336914 5.63798904418945 -7.83054542541504 5.02322912216187 5.21304607391357 0.264006614685059 8.08061408996582 3.54963278770447 5.31464338302612 8.05264949798584 2.93124651908875 -8.09686660766602 4.89082336425781 -7.05110740661621 0.502218246459961 6.58404541015625 -0.275773048400879 -2.86892795562744 -0.806795120239258 -1.57742881774902 3.58015990257263 -0.468040466308594 -1.65686988830566 -0.970005035400391 -9.46200370788574 -6.94735717773438 6.55487489700317 -9.74090766906738 9.05044078826904 7.91425704956055 5.49885940551758 -9.50778961181641 -8.24520492553711 3.41911768913269 2.11504364013672 -2.8016242980957 9.78372383117676 1.27622222900391 -7.19379425048828 -4.95182609558105 -4.07175636291504 8.35406112670898 -6.52979326248169 -9.56747055053711 4.00860548019409 -4.09648036956787 6.47866249084473 4.43032741546631 -8.59108924865723 -7.62204933166504 -4.74753761291504 5.30233144760132 -6.15179824829102 3.28481864929199 -5.5670690536499 1.25997447967529 -9.90939140319824 0.568767547607422 4.975905418396 -7.55239915847778 -4.11231899261475 2.5212836265564 8.71980476379395 -8.10881805419922 -3.99026012420654 -6.10732078552246 5.08798789978027 -1.12224006652832 -9.46268272399902 8.49692821502686 -7.99141883850098 6.19192504882813 2.1847095489502 -7.25954246520996 -4.07576465606689 -3.59529876708984 -3.13748741149902 -4.52762985229492 2.453049659729 -6.99877214431763 8.58574676513672 8.91769599914551 3.03169441223145 7.39196538925171 -1.74116992950439 -5.36653709411621 -5.05671501159668 -8.66127014160156 -7.56768989562988 2.13899517059326 3.45760107040405 9.87664031982422 -9.46714019775391 0.726171493530273 4.24344062805176 -3.77416515350342 4.01006889343262 -1.50172328948975 -6.04671287536621 -9.81364059448242 -2.06233882904053 3.91848063468933 -3.88640975952148 -5.51517963409424 2.99016928672791 -4.99794101715088 8.60146999359131 6.92764711380005 3.45647788047791 -7.76771974563599 -2.11640930175781 -9.93524742126465 5.22480201721191 1.64530849456787 9.25630569458008 8.63081741333008 -7.55404663085938 2.99571752548218 0.332530975341797 6.60169792175293 -0.652698516845703 -4.50577640533447 0.511375427246094 8.38554763793945 7.29031753540039 3.99825072288513 1.56983470916748 9.46352386474609 -3.56705284118652 4.54687833786011 -7.96116304397583 -4.49392223358154 3.75825381278992 9.9731330871582 4.58072853088379 7.57761430740356 8.34659767150879 -3.1180944442749 -6.23347473144531 9.71537017822266 -4.15154838562012 3.68672132492065 2.93998694419861 4.16366338729858 -1.12375640869141 -8.47310066223145 -6.53565216064453 7.82395362854004 -8.2447395324707 -1.76415061950684 2.92206525802612 -3.16130065917969 -5.36099243164063 -9.78311347961426 3.14025855064392 -6.50001525878906 -7.07309722900391 8.44022750854492 -3.36459732055664 -5.2749137878418 9.58254623413086 3.77157664299011 -6.66176986694336 -8.64174270629883 -8.12582397460938 1.93005180358887 -9.80624771118164 -2.28169822692871 -1.04964351654053 6.65831565856934 -6.27827119827271 -2.97835254669189 1.21571922302246 -8.42718887329102 -2.86290073394775 0.128694534301758 -1.90597629547119 -5.86856079101563 8.89146614074707 -4.57331085205078 5.98484039306641 -8.02559089660645 -7.93489456176758 7.23278999328613 0.700043678283691 4.79555606842041 -4.46534538269043 3.28375053405762 9.83285140991211 0.985060691833496 7.7510142326355 -1.69797992706299 6.95147705078125 -1.18288135528564 -5.65006732940674 -4.53909015655518 -4.2375431060791 -2.66947650909424 1.63268661499023 6.88105773925781 6.94689512252808 -2.45224380493164 -4.75058650970459 5.04048824310303 7.30076265335083 -4.64615917205811 -8.49389266967773 3.78342390060425 5.41805028915405 -2.64509773254395 3.82352805137634 9.32136535644531 9.9023962020874 4.44729566574097 -9.97129249572754 -2.5205192565918 5.60615301132202 -0.943447113037109 2.80357336997986 8.57518672943115 -1.7782506942749 8.03409099578857 -1.85489082336426 -7.25029182434082 -1.81709384918213 -8.51825714111328 -8.37447166442871 -7.2225284576416 4.17179298400879 8.75768661499023 -6.5004825592041 7.96135902404785 -4.52199554443359 2.45638275146484 -3.74630355834961 9.54720687866211 -9.51511001586914 -0.941933631896973 7.59354782104492 -5.38394165039063 3.79737830162048 3.70485281944275 -9.27446556091309 -7.75382804870605 0.218194961547852 2.6708505153656 8.54476451873779 6.45377683639526 -7.4627513885498 -6.08766984939575 2.24409198760986 9.20715141296387 6.48781967163086 9.20151138305664 7.85487699508667 4.19030904769897 4.2499828338623 -4.2724666595459 -9.86618423461914 4.68539953231812 4.02550458908081 5.56254577636719 0.928922653198242 6.06529235839844 4.02711391448975 8.99905395507813 7.69231796264648 4.53046989440918 7.79399871826172 -9.89245986938477 5.93983173370361 -2.65332126617432 -5.01131057739258 -7.36725282669067 -5.50845909118652 1.52900123596191 -3.42676544189453 -7.27481079101563 -7.86983299255371 -8.11284255981445 -4.44024467468262 -8.76227951049805 -0.960430145263672 -9.37492752075195 3.25765371322632 1.08776664733887 -1.85315704345703 6.28972768783569 7.99500465393066 4.0868353843689 -4.85340023040771 -3.21436786651611 -1.64762878417969 7.93952703475952 8.43915939331055 -4.43380451202393 5.90787649154663 4.68911170959473 8.71914672851563 4.56786155700684 2.85884618759155 -5.07237911224365 -9.71942710876465 -4.66240310668945 5.70818138122559 -6.94637298583984 -5.60640525817871 -5.66573143005371 -2.76454830169678 7.11039018630981 -4.17586708068848 -4.42361736297607 -2.1678409576416 |
-7.64399528503418 -4.32379150390625 8.90849590301514 7.75812339782715 2.76657557487488 -9.46035194396973 -6.09457015991211 4.88526105880737 -4.04910182952881 8.35977077484131 1.68387031555176 4.35707807540894 8.89900398254395 2.37035179138184 4.43243026733398 -5.8783073425293 9.0421199798584 -3.53853797912598 -2.10199737548828 -4.73441028594971 -9.10947418212891 -7.32114362716675 0.757078170776367 6.94366025924683 6.26903295516968 -9.64730453491211 9.72578430175781 -0.0202836990356445 -0.906473159790039 -4.49747180938721 -4.09638500213623 0.0662670135498047 9.27525329589844 -3.69208717346191 -0.211535453796387 6.79624128341675 1.7482795715332 9.01116371154785 1.0674991607666 -2.57079696655273 -2.5975170135498 -1.10349559783936 -0.9774169921875 -3.52887058258057 -6.26925468444824 -2.12010955810547 -8.7105770111084 4.6449089050293 -9.39438056945801 -1.09373188018799 6.39433097839355 -1.1121187210083 4.75822639465332 -2.51559352874756 -0.18766975402832 2.3805513381958 -6.15667772293091 3.59260535240173 2.16725254058838 6.33877515792847 -6.81536149978638 -2.38141441345215 -7.31659364700317 1.68878650665283 -2.6456413269043 3.55093932151794 6.57494735717773 9.79360771179199 -4.82461833953857 3.18748927116394 4.23224639892578 -9.68851852416992 -6.42184066772461 9.36180114746094 -3.83553123474121 9.8073148727417 -9.10599136352539 -7.40237236022949 0.96082592010498 -7.06987190246582 4.89210844039917 -3.65646934509277 -5.40689945220947 6.2349796295166 2.0794620513916 -8.93612098693848 8.47254753112793 3.13899755477905 1.41203022003174 6.05956792831421 1.65462398529053 3.61105418205261 5.67811489105225 -4.42442035675049 -1.99644660949707 8.94544982910156 7.80520439147949 4.8664927482605 -1.2034740447998 7.60527610778809 -9.94677352905273 3.59715914726257 -8.22834396362305 6.59643173217773 -8.75417900085449 -2.39385509490967 -4.11250686645508 -4.76987266540527 -8.76785469055176 1.0705509185791 -7.70491409301758 -7.66033172607422 -3.44367122650146 -9.62918090820313 7.94778823852539 -4.7009859085083 -0.37507438659668 -3.94042873382568 -4.27360153198242 3.99338912963867 0.803441047668457 8.51714324951172 -1.13541984558105 -1.530837059021 9.95439338684082 9.48883247375488 3.38884806632996 5.80507278442383 1.86126613616943 6.0025691986084 -2.37041091918945 7.66058158874512 5.08102416992188 -3.3469066619873 8.24555206298828 5.51583480834961 5.92364501953125 -8.82261657714844 -8.34169769287109 -1.26363372802734 4.04029369354248 -2.62577438354492 1.00331878662109 5.6516695022583 -8.49764823913574 2.40340614318848 9.95303916931152 -4.33737659454346 -4.70089340209961 3.38205790519714 -3.43556976318359 0.902257919311523 4.32177066802979 4.39571857452393 7.78202056884766 0.15369987487793 -8.82174491882324 1.54780292510986 -4.32358646392822 -5.98116397857666 -7.53190040588379 3.28567266464233 9.63316917419434 1.0750904083252 -9.37426376342773 -9.59885787963867 1.67185211181641 -0.243521690368652 -7.83905220031738 6.01576805114746 -6.45335721969604 -5.56401062011719 -2.90498161315918 7.47878074645996 6.39728975296021 -8.9112548828125 -7.16623306274414 4.7249698638916 1.27172374725342 -5.99637222290039 |
