7.2037525177002 6.77790641784668 7.12698936462402 -7.20098686218262 -2.21826457977295 1.96287727355957 -7.0575065612793 -2.91631603240967 -8.19854927062988 -1.17752933502197 -3.30918407440186 -7.13118553161621 3.29925990104675 -2.41789245605469 2.68220663070679 -9.11082458496094 3.29021644592285 9.3965482711792 -9.49785041809082 9.06766414642334 1.98986911773682 3.84375548362732 -5.25928497314453 5.66772937774658 -3.45726585388184 -7.80836868286133 10.6660423278809 7.24782943725586 2.73984885215759 -7.80528831481934 -1.65710544586182 -0.810614585876465 2.34299755096436 6.11704063415527 3.47458076477051 -0.821510314941406 6.3072681427002 5.54018020629883 -4.15359401702881 3.18106842041016 -6.78568077087402 -5.37702560424805 6.64426565170288 3.46564269065857 -4.04408550262451 8.43091773986816 7.59337615966797 0.838070869445801 8.56142807006836 -2.91408443450928 8.52361488342285 -8.40142822265625 -7.87949371337891 -5.20270824432373 -17.5461502075195 5.95776557922363 -5.88485908508301 -7.43577527999878 2.96081042289734 0.966249465942383 -6.69035911560059 7.31751203536987 -3.89752987865359 1.3736572265625 -6.15113067626953 -7.07951021194458 -6.4377384185791 -3.15889453887939 -2.64133071899414 -1.66897392272949 5.41828632354736 5.18325328826904 3.09865927696228 6.54033422470093 9.99599647521973 -6.53205680847168 0.58170223236084 -9.26558303833008 6.94666862487793 -7.76059913635254 7.81250429153442 2.51275777816772 -2.27043724060059 4.3465633392334 7.52967405319214 7.87324666976929 4.22634840011597 1.69492626190186 8.98070526123047 -1.28814315795898 -0.485309600830078 2.0499267578125 3.60765790939331 -6.67517137527466 -6.43838691711426 0.814064979553223 -6.17140007019043 1.77544212341309 9.93726539611816 -6.04839324951172 -3.37399578094482 1.33697491604835 7.19632863998413 -7.73088884353638 9.26802635192871 -0.470949172973633 0.59306526184082 -2.9166374206543 -2.54718685150146 8.70572090148926 8.29400253295898 3.55640864372253 -4.56791305541992 6.2016716003418 -1.66543388366699 2.32241955120116 -4.01068782806396 -2.4990234375 4.86032009124756 7.9608302116394 5.88875770568848 -8.38308334350586 1.1585054397583 -7.77063179016113 5.87109756469727 -9.16759872436523 -6.97213363647461 2.93478941917419 -6.8721752166748 -7.38714027404785 -3.35765933990479 7.97864675521851 -8.87324905395508 -2.65492343902588 -7.14303207397461 5.63886833190918 -2.01448535919189 3.02206230163574 -2.17243576049805 5.08957386016846 3.09844732284546 -0.431679725646973 7.92334318161011 -3.15904521942139 -1.70383358001709 7.9722638130188 8.62558364868164 -4.40956497192383 18.8370356559753 -3.91746425628662 -9.5088005065918 7.50545961549506 -2.32769584655762 -6.29573631286621 -9.54099655151367 -7.95341920852661 7.18927383422852 -8.58764457702637 1.44134426116943 7.82964468002319 7.07615613937378 -2.17278575897217 8.39963150024414 -9.14205741882324 4.15732383728027 -3.412522315979 -3.5728178024292 4.85457420349121 0.126646995544434 -1.64736652374268 8.69687271118164 7.98923492431641 9.86640739440918 7.48842000961304 -2.06325435638428 2.88000082969666 2.09743881225586 -8.94556999206543 -4.98353862762451 3.26361417770386 -6.14600706100464 -7.06036376953125 6.40433073043823 4.4652795791626 7.42015409469604 -4.24449348449707 -2.81477069854736 -2.11916065216064 -7.51167726516724 -1.22787570953369 -9.33629035949707 -5.9106559753418 8.71760845184326 6.49129867553711 -9.57039260864258 7.58785676956177 -8.02889060974121 -6.55867385864258 -7.70770835876465 0.567401885986328 4.21466064453125 9.67617696616799 -8.03481864929199 1.70265102386475 6.0131950378418 -2.80595207214355 -7.10643339157104 5.31106472015381 -3.33517456054688 3.84713363647461 -2.6225700378418 7.33332824707031 -4.45810413360596 0.0751104354858398 6.59208726882935 -8.02089500427246 3.90315985679626 3.1120297908783 1.24146366119385 -3.49720096588135 9.23034858703613 6.80436658859253 8.6282901763916 -4.84007263183594 -9.07743835449219 4.03503608703613 -7.27794218063354 0.742358207702637 3.93198466300964 -8.71565246582031 6.49340105056763 6.36176300048828 6.91581296920776 -2.09073638916016 -5.89166831970215 -1.90050029754639 -5.69145679473877 7.04850721359253 7.29777336120605 -6.15127754211426 9.90136909484863 -7.36283937934786 6.1415433883667 -8.421630859375 -4.06265640258789 -0.89638614654541 -7.42910575866699 6.12779808044434 2.33776664733887 4.52980995178223 -2.25649738311768 -4.50806999206543 -3.6423168182373 2.41602325439453 6.3319354057312 4.28438377380371 6.11050033569336 5.75721263885498 -5.56547927856445 -5.89396953582764 3.10723495483398 6.15639877319336 -8.79332733154297 6.21517562866211 4.25826263427734 0.202108383178711 -2.39994144439697 -5.36323356628418 -4.55262756347656 0.55519962310791 -4.22574901580811 -9.49287796020508 -9.69695091247559 -5.64638900756836 4.43912029266357 -7.8349666595459 9.61167335510254 -7.33865308761597 7.36104011535645 8.84245872497559 -2.50302410125732 -0.565043449401855 6.78794097900391 -7.81459379196167 2.53749084472656 -8.24527740478516 9.80769157409668 -7.05239105224609 6.35719509236515 4.26092624664307 3.5310435295105 -5.1027889251709 6.32409620285034 1.33181476593018 -0.463680267333984 -8.62146759033203 -3.80564594268799 -8.89167404174805 5.78991889953613 4.45166778564453 -7.59666442871094 -1.12433528900146 -2.67755889892578 7.9602198600769 41.7291705608368 -6.62645769119263 8.39208793640137 -0.615047454833984 -1.42943000793457 -1.12509346008301 5.69929313659668 -1.06518363952637 0.741601943969727 2.5879020690918 2.5094051361084 -0.0605812072753906 3.25262999534607 -0.680498123168945 -9.63717269897461 -6.42234802246094 -8.49092674255371 -5.38153171539307 3.58714556694031 4.39477443695068 -5.17136096954346 4.10115003585815 -8.39596176147461 -5.38119125366211 6.91057395935059 -7.15179634094238 1.67007541656494 -3.68451023101807 1.51717281341553 9.01805877685547 8.48684310913086 2.69438242912292 -2.25411033630371 -9.28650856018066 -0.998753547668457 -1.12919902801514 -0.464524269104004 0.302468299865723 9.94476509094238 -5.75092792510986 7.32238960266113 -1.7869815826416 -3.60034561157227 -4.03801822662354 6.32450819015503 -4.84873390197754 7.51280546188354 -3.55505084991455 -6.79734039306641 -1.44732856750488 -8.17742156982422 0.854329109191895 4.22260046005249 2.73253631591797 2.72197484970093 -6.14637565612793 0.110920906066895 2.1256742477417 -4.8345193862915 6.38083219528198 6.76481008529663 2.40830039978027 -2.76335620880127 -5.45140743255615 -1.51705837249756 -2.30699157714844 -3.06092166900635 -6.51243209838867 8.50947570800781 -5.19418716430664 -7.38931655883789 5.96319198608398 1.78937339782715 2.95510053634644 8.70873260498047 -5.85819721221924 -8.49673271179199 -6.49263191223145 -1.35714912414551 -4.18454074859619 -9.78255081176758 -4.78740310668945 -8.08864593505859 5.71686506271362 -2.12375545501709 -4.85312366485596 3.06578826904297 6.29514265060425 -2.44382953643799 9.00399017333984 -8.52636337280273 2.45493507385254 -6.32803153991699 0.671273231506348 1.17769622802734 -6.32298994064331 5.96317481994629 -2.73742580413818 -7.38580274581909 4.87998485565186 -6.14716720581055 -7.54599571228027 5.87540626525879 -4.17658233642578 8.50551414489746 -7.85082054138184 -6.16925592068583 8.13982009887695 -8.58879280090332 7.79870986938477 7.41760444641113 -3.60184288024902 -8.61774444580078 5.10608863830566 -7.04455961717758 -1.34849452972412 -8.38472175598145 5.84393262863159 6.35100555419922 -0.98493480682373 -8.27385139465332 1.28085517883301 2.52814054489136 -0.630804061889648 -7.66581010818481 -9.0011043548584 6.42345408722758 -2.39872550964355 -5.64290523529053 -7.80070114135742 7.8750376701355 7.84995269775391 -5.30533599853516 7.59946823120117 -3.40532875061035 -1.73117065429688 7.86234331130981 -5.04471588134766 3.30940437316895 -8.57467651367188 8.03483772277832 -1.07563877105713 6.97182416915894 -0.787487983703613 3.86432147026062 1.89415073394775 1.33644676208496 3.63462209701538 -0.0754795074462891 -8.87307739257813 -6.87137174606323 -6.37042236328125 5.87825775146484 8.32372856140137 0.776077270507813 3.52213096618652 7.33985137939453 -0.20020580291748 1.25727272033691 -9.02338409423828 -9.93121147155762 -2.80180072784424 -2.83724689483643 -9.96501922607422 -0.721732139587402 9.36545848846436 -9.2044677734375 5.61502647399902 -5.58599281311035 1.7731294631958 0.743502616882324 7.64129638671875 -7.51775741577148 -9.15348243713379 -6.83195877075195 -7.48428344726563 -4.42298984527588 -8.84395408630371 -5.60452270507813 -6.81137084960938 4.54869270324707 4.1196460723877 -5.69662094116211 -8.64230155944824 4.93234157562256 -8.05033683776855 15.6412410736084 -6.5807056427002 8.05367946624756 5.94673871994019 4.76900815963745 -9.7547721862793 7.96987962722778 3.05877184867859 -9.66785996127874 -7.81356620788574 -0.500927925109863 -9.47215843200684 2.92461585998535 -8.41592407226563 -7.77387619018555 5.51244735717773 -2.01661205291748 9.98734474182129 -6.65711402893066 3.71323084831238 9.23101615905762 0.899849891662598 -3.91130542755127 -1.48674392700195 7.94999122619629 3.65549278259277 8.55403423309326 1.16944885253906 5.54272651672363 -5.04076766967773 -3.67837333679199 2.59251356124878 4.03209209442139 6.36417818069458 -4.12962818145752 -5.24501323699951 -8.68286895751953 1.71202087402344 -3.13041305541992 -5.40167631674558 -3.66534328460693 7.70768356323242 -8.18350982666016 9.33696746826172 9.24060101062059 -2.6424446105957 -5.36138725280762 2.65382266044617 -0.027073860168457 0.574637413024902 6.84037208557129 0.101071357727051 0.293961524963379 2.27878189086914 -2.334641456604 -2.02686214447021 -1.22585201263428 0.257519721984863 2.27239227294922 7.974853515625 4.70913410186768 2.22468280792236 -6.48283004760742 -0.0360021591186523 -2.63433074951172 -2.82412433624268 -7.62978553771973 6.15380477905273 9.17357921600342 -4.89538962533697 3.00768351554871 -0.533098220825195 -2.25455665588379 4.79529571533203 2.80166387557983 -5.32171440124512 1.5298547744751 -8.94164848327637 6.87303304672241 -6.14031982421875 -1.01770782470703 4.77766513824463 -4.00425052642822 -4.14885425567627 1.93404301954433 3.34820246696472 5.16205978393555 -3.99835205078125 5.57857513427734 0.61672306060791 -0.472978591918945 2.1308765411377 -8.35788726806641 9.24889755249023 -9.34988212585449 2.20346832275391 1.81081199645996 -8.14224624633789 -9.1127815246582 -6.48768949508667 3.61487579345703 2.30094268731773 -6.08276176452637 8.61342906951904 -2.70589256286621 5.62332153320313 -2.42576694488525 0.280522346496582 1.85718631744385 -4.38734912872314 9.23628234863281 1.34573364257813 -0.668779373168945 1.56294441223145 -0.728927612304688 1.36574840545654 4.26597595214844 9.96481323242188 6.14530086517334 -7.7511043548584 -8.92502975463867 -0.358820915222168 0.783811569213867 3.58232259750366 -5.41791725158691 6.34928464889526 -5.3323221206665 -6.53219032287598 -0.133861541748047 -3.1790771484375 -6.05915832519531 -1.05363464355469 9.77776527404785 9.68935775756836 8.37581634521484 -2.78799438476563 0.595885276794434 -0.406164169311523 -8.01386070251465 0.441817283630371 0.188590049743652 6.17542266845703 6.51168394088745 3.40233778953552 -7.67248582839966 5.0536036491394 -8.73214721679688 -8.48931503295898 -2.61124038696289 -4.94947052001953 -1.60776233673096 8.91670036315918 -2.06115341186523 -9.30422973632813 1.24335861206055 -6.48510408401489 -8.13710021972656 7.82830238342285 -0.628429412841797 2.67204737663269 -8.37202835083008 -3.22417831420898 -3.01623058319092 -9.87895774841309 -7.06588745117188 -9.62901878356934 -8.24094772338867 7.44621706008911 0.522504460066557 6.31097364425659 -3.92351722717285 2.82171440124512 -8.01272240933031 -2.1721019744873 5.23400783538818 -4.92120361328125 -4.14954566955566 -0.733407974243164 -1.31713771820068 7.09034395217896 1.1145601272583 -5.05280685424805 3.84017443656921 8.43984794616699 -2.14978313446045 -4.7550573348999 9.16928768157959 -0.454505920410156 9.41019248962402 -7.40779685974121 -5.45609310176224 -8.64497756958008 -0.0131092071533203 -1.91216564178467 5.22176265716553 9.72439002990723 4.69287872314453 9.33369636535645 -6.98143768310547 8.70061111450195 4.37696218490601 7.83702421188354 2.19638919830322 -9.14164352416992 3.05673575401306 -1.65418720245361 -6.11455917358398 0.536307334899902 -6.09165382385254 -8.63301086425781 7.4700140953064 -1.1087474822998 -9.98330879211426 -3.72359180450439 1.10684967041016 6.6593074798584 5.56021690368652 4.74864959716797 7.83977699279785 7.33224105834961 -0.797900199890137 9.47127342224121 -23.4902782440186 -8.59420967102051 2.70825839042664 -8.11975860595703 -6.9591236114502 6.41998720169067 -7.26275634765625 9.9044246673584 -2.14574241638184 3.75561904907227 -5.05266380310059 3.97993278503418 6.95299863815308 -0.506673812866211 5.24222373962402 6.04950141906738 5.48236608505249 -9.68540000915527 -1.90164184570313 9.64546203613281 -9.67964363098145 7.27234601974487 -2.10091209411621 -0.404242515563965 -4.84437084197998 9.82124710083008 6.1668815612793 -8.75765991210938 3.29916453361511 7.25034475326538 -4.3969669342041 -0.0456008911132813 -7.1432640068233 -5.26206970214844 7.78063535690308 -3.25174427032471 -8.8586597442627 -8.1978702545166 7.99849510192871 -6.63578796386719 5.60906600952148 3.01680541038513 1.29128837585449 8.28630828857422 -9.44492149353027 5.80451011657715 0.798069000244141 -22.683801651001 -6.79633140563965 -2.07568073272705 -3.08135890960693 -2.88363568112254 -0.677457809448242 8.70742607116699 2.64221382141113 -5.75886917114258 -7.95513153076172 7.72377729415894 -0.234064102172852 0.0435771942138672 8.03931427001953 0.325874328613281 5.81414413452148 -1.61604499816895 5.7572078704834 -8.44531059265137 6.11802101135254 -5.73269653320313 -9.14924240112305 0.417295455932617 -5.18642234802246 -6.86687660217285 -0.55169677734375 6.37085151672363 -2.59205436706543 1.23311424255371 1.91189670562744 -7.94385147094727 5.3654146194458 4.44809913635254 -9.68805313110352 -3.53884601593018 7.38386583328247 -1.4360818862915 6.64873552322388 -7.56222913973033 2.41762256622314 3.2158637046814 1.0639181137085 5.66096496582031 9.86326026916504 -5.69220542907715 -1.94173717498779 -1.1891565322876 0.832115173339844 -5.24044990539551 -4.75860023498535 9.16989803314209 2.43551349639893 -5.35993052879348 9.1063346862793 0.440510749816895 0.298830032348633 9.93057250976563 -7.88347053527832 -7.91664886474609 -3.68142986297607 7.28314399719238 2.51156783103943 2.51495122909546 4.38845634460449 -7.80643463134766 -8.37894630432129 9.63348388671875 -2.01499366760254 -5.96127986907959 5.94571828842163 7.73662137985229 -7.20528602600098 9.25249862670898 -1.08522033691406 8.59939575195313 3.67872428894043 4.48133659362793 -5.27868270874023 6.006019115448 -7.93637800216675 3.51244688034058 -9.10975618101656 -6.93226623535156 9.36559677124023 -5.80986213684082 0.379165649414063 -8.2497386932373 -2.41491222381592 -7.77839851379395 0.817464828491211 -2.17239284515381 -4.73979377746582 -2.45578384399414 -1.51506805419922 -9.49505043029785 3.2716007232666 -2.92660617828369 3.42072939872742 0.926028251647949 0.50963306427002 2.87242388725281 2.70327067375183 0.957254409790039 2.41539859771729 1.91206550598145 4.70236015319824 -2.33810043334961 6.42135381698608 -4.01214027404785 5.9507417678833 -7.03626203536987 2.14495086669922 -7.36498069763184 6.56333684921265 4.92575168609619 2.56145238876343 -0.318790435791016 -2.74670028686523 -9.16413497924805 3.9267897605896 -6.20108079910278 3.46532797813416 -1.02310085296631 -50.6294994354248 -2.68592895194888 6.31074666976929 6.28322601318359 1.11402893066406 -0.705026626586914 1.06466197967529 -2.28562927246094 -5.4057502746582 -15.5459518432617 5.22680997848511 -5.36915016174316 -7.69946098327637 -0.506199836730957 7.82329130172729 -6.27620697021484 -5.22687911987305 8.87312698364258 -7.92471361160278 8.62568861898035 1.57854175567627 0.488561630249023 -6.71557426452637 2.1674165725708 7.75319290161133 5.12783241271973 -3.94193077087402 -4.37641525268555 2.92997336387634 -6.80623245239258 9.05327224731445 1.42607307434082 -6.01250839233398 15.3433265686035 9.55669593811035 4.62769269943237 -9.62759017944336 -4.49697430292144 2.99494242668152 2.66237449645996 9.48093414306641 -5.94027519226074 4.93956565856934 -4.55141639709473 -16.8843822479248 3.76428580284119 -6.42085075378418 -4.41008949279785 5.05645942687988 -5.37635040283203 3.13311553001404 -6.67262601852417 7.27419853210449 1.11651802062988 -4.17168521881104 7.00658559799194 2.97337031364441 4.55779266357422 -0.491138458251953 -7.98240661621094 4.37544059753418 50.8683567047119 -5.01119613647461 -2.28548622131348 -0.0381937026977539 8.74959182739258 7.30089378356934 3.35979652404785 -2.01190853118896 -7.92161512374878 -0.0762996673583984 3.41243243217468 1.17442989349365 -0.162373542785645 -7.54112243652344 -5.48334884643555 0.930219650268555 -0.433598518371582 -2.89822673797607 5.14441680908203 5.61314105987549 4.30739593505859 4.23767280578613 -6.9402027130127 -3.9954080581665 1.91639518737793 5.37453651428223 4.6397066116333 -8.0479907989502 -2.51504039764404 7.15078353881836 1.83450126647949 3.55936503410339 2.26131534576416 -2.98533821105957 4.72736549377441 6.59746885299683 8.17358207702637 6.98492050170898 6.82067108154297 5.77317714691162 -3.82981872558594 8.31825637817383 4.485023021698 -7.73395347595215 -1.25741100311279 4.49298858642578 5.08962154388428 -6.17166709899902 9.69597816467285 0.852502822875977 9.7090482711792 -5.92553615570068 -7.80633926391602 4.68505859375 14.2320365905762 5.08127403259277 5.01076221466064 -7.41465044021606 -4.28794479370117 -3.19458103179932 4.12976741790771 9.77490615844727 -1.43448925018311 3.35613441467285 1.64626693725586 -1.77136516571045 -2.95122051239014 -1.56894588470459 5.8689284324646 0.643595695495605 -1.23314762115479 2.09444427490234 7.32112646102905 -1.58804512023926 6.46103858947754 5.0787353515625 -8.88965606689453 6.46647644042969 8.76595687866211 -5.15186649444513 -4.48237323760986 -4.34922790527344 1.74973583221436 0.244303703308105 -5.4886646270752 3.63994789123535 -8.34927749633789 5.37573337554932 -0.757192611694336 7.01199007034302 2.77094078063965 2.53991103172302 9.08581733703613 4.48494672775269 0.369295120239258 3.94594383239746 -3.17220306396484 -7.11289215087891 -5.71502685546875 7.68641996383667 4.21857833862305 -8.96105766296387 -7.84811936412007 6.57741117477417 -5.62682698201388 -8.86508750915527 9.66915130615234 7.99887418746948 5.78255414962769 1.449631690979 4.01915550231934 -6.9185733795166 -5.65423774719238 0.781177520751953 -7.2622184753418 7.28013229370117 5.39817810058594 -5.96057415008545 -9.33044815063477 -4.26148796081543 -4.47898292541504 8.48593139648438 5.65381765365601 -3.55667495727539 -0.959774401038885 -5.23478317260742 6.63973045349121 -9.69684600830078 -13.2802739143372 4.96334552764893 -4.92486095428467 -0.227259635925293 8.31780433654785 1.51443576812744 2.72729635238647 -0.0985517501831055 8.1667537689209 2.29099369049072 5.47827911376953 -8.16295433044434 1.03335285186768 7.60398435592651 6.52360916137695 -7.64258193969727 -2.10871217143722 -9.04311370849609 -1.54660320281982 -9.37175559997559 -5.71081161499023 -4.99105358123779 4.78546857833862 8.5316162109375 9.55124092102051 -0.749515533447266 -5.03697395324707 -9.77836608886719 -6.60978507995605 9.66434478759766 7.0190258026123 7.15589952468872 9.41928672790527 2.31116199493408 9.8120288848877 -4.7887716293335 3.57354879379272 -8.6158332824707 2.69294500350952 1.2609920501709 7.94785690307617 -8.16466764337383 -5.36594390869141 0.537577629089355 -6.87285947799683 -2.97736791393254 1.56729316711426 1.10092258453369 8.59428215026855 7.61488151550293 3.76151275634766 -0.46479320526123 -8.74102401733398 -1.89298725128174 2.32088184356689 -3.90109157562256 2.71351790428162 -8.63322448730469 -1.53360462188721 4.90186214447021 3.23245978355408 -4.39039611816406 -0.899606704711914 -7.59374809265137 -4.39363861083984 7.76776838302612 6.15604400634766 -0.232206344604492 7.41312742233276 -8.87742233276367 -6.42113494873047 3.78391027450562 -4.94081115722656 -3.37216465175152 -0.496734619140625 9.84333038330078 -3.84130859375 -4.38503837585449 4.63785886764526 -0.443119049072266 -5.13686656951904 6.36568192299455 1.48712730407715 2.84276129864156 -5.41238021850586 5.81506490707397 -1.98762035369873 -4.34528255462646 -9.80168342590332 9.78110122680664 4.94035482406616 5.56307554244995 -3.57534027099609 -2.73874187469482 -7.27134275436401 1.41935913730413 1.03055572509766 7.69583177566528 5.01046371459961 -7.21667289733887 -3.99665927886963 -9.67499542236328 -8.77502632141113 6.98344421386719 5.11873960494995 0.797043800354004 -2.03041458129883 -1.8459644317627 -2.20952129364014 5.04166603088379 8.14199447631836 2.33300113677979 -8.10560989379883 -1.62560367584229 6.72354173660278 -43.8932647705078 -5.15406799316406 -2.01800441741943 -0.774029731750488 7.69563436508179 -1.74192523956299 2.7071590423584 2.89561033248901 8.99666213989258 -3.59314823150635 -9.94314956665039 -8.741455078125 2.14907550811768 2.20159912109375 -4.52699756622314 -8.90760040283203 -2.93468570709229 -8.98110580444336 -4.42385292053223 -8.67412376403809 6.28812789916992 -1.34781932830811 -9.99330520629883 -5.61063289642334 -9.99542427062988 0.903140068054199 2.0059814453125 -4.35147666931152 -2.42383575439453 1.07924365997314 -3.97196865081787 -4.70013523101807 7.0413301307708 1.60027408599854 -6.79411315917969 -6.05343818664551 -8.18239212036133 4.64216423034668 2.99564337730408 -5.30556678771973 -4.45670700073242 -3.44959354400635 -4.99514007568359 8.06858825683594 0.660954475402832 6.2478351413738 6.06652975082397 -5.38029670715332 5.61815977096558 -4.57364463806152 2.61176300048828 -8.23246765136719 -7.23372268676758 -3.41243648529053 -7.40308570861816 -3.61338043212891 4.90928173065186 6.28126335144043 4.45945262908936 3.53563499450684 8.55391502380371 2.06083679199219 9.73211479187012 -5.15878677368164 -8.74332237243652 0.885139465332031 3.43965721130371 -25.8043975830078 6.83045148849487 -4.41409015655518 -7.85435676574707 -3.26105499267578 3.10215449333191 -1.16994953155518 2.11071109771729 -7.7780704498291 -36.549280166626 0.922030448913574 7.99921751022339 -3.5004940032959 -3.92975425720215 7.96679209568538 8.59254360198975 -4.39670944213867 2.42313766479492 8.58194732666016 -3.00849056243896 -4.47562313079834 2.51879668235779 -4.96293163299561 -6.50818634033203 -2.28197002410889 9.38153457641602 -2.46485805511475 -1.51634311676025 -5.32244873046875 -8.75764656066895 -4.89746952056885 8.42530250549316 0.702510833740234 6.60561561584473 -3.97014045715332 8.4311466217041 4.57218170166016 4.10796880722046 -3.24052906036377 0.439620971679688 6.50775480270386 7.27566719055176 -0.74217700958252 7.01775312423706 -6.57723617553711 7.11751508712769 -8.9285774230957 4.92563247680664 5.64136505126953 -4.10971546173096 -1.79771518707275 -3.96162128448486 -4.22780609130859 7.3839111328125 -6.54636573791504 1.49486637115479 -6.71547365188599 -4.4071044921875 0.37614917755127 -8.56825256347656 -3.68973827362061 -2.51761341094971 9.03730201721191 -1.07463455200195 -6.30889892578125 7.81235456466675 -8.31380081176758 9.8578929901123 0.847617149353027 8.84353446960449 9.2724609375 9.02768135070801 -5.08164596557617 -1.68313884735107 -3.70462036132813 7.47712850570679 4.24272060394287 -7.54582595825195 8.25456428527832 9.22696113586426 8.03581619262695 -4.114914894104 3.60629796981812 -3.57798194885254 7.79614448547363 -8.70145988464355 0.979069709777832 -9.68162536621094 9.16220092773438 7.36999940872192 -4.16619205474854 1.18329620361328 7.4305248260498 4.53408241271973 -2.16246223449707 -4.72118282318115 8.4529857635498 3.50446891784668 8.60222244262695 -6.61968231201172 4.29165601730347 1.48417377471924 -3.68552780151367 1.05961227416992 1.83989429473877 -3.24117279052734 6.76497459411621 3.21747016906738 -7.42391586303711 4.19547557830811 -4.15303802490234 0.475343704223633 -4.47451019287109 -5.72015571594238 9.33046340942383 1.84272861480713 -0.324658393859863 4.05445575714111 4.33400630950928 -2.74444007873535 -6.26428604125977 0.51263427734375 -1.48954296112061 5.82692337036133 -5.05799687700346 8.23233413696289 -8.7370777130127 3.4116096496582 3.28670477867126 -9.9346752166748 7.1307225227356 3.78548383712769 -7.44811820983887 5.98186683654785 -7.37607955932617 8.43427181243896 -1.24950313568115 7.64295768737793 6.8196177482605 4.64920043945313 7.49703407287598 7.25947380065918 -9.06198883056641 4.75168228149414 9.0195369720459 -9.17841720581055 2.8824348449707 4.63802337646484 4.90419864654541 -3.81650352478027 5.40348052978516 -2.82524681091309 -2.79678916931152 9.91418647766113 7.54840087890625 4.72304344177246 -0.37079906463623 -0.615619659423828 7.38196897506714 -7.29687166213989 0.329266548156738 -9.72731018066406 4.99949216842651 7.37101725535467 1.08313941955566 -6.00759077072144 -4.99306774139404 -6.3289737701416 -9.0931282043457 -8.92341232299805 4.49698925018311 9.0841007232666 5.15927505493164 5.37227392196655 6.82638168334961 -6.96585464477539 5.87612342834473 -0.954846382141113 0.62559986114502 0.794098424259573 -1.37358093261719 -8.0059814453125 -3.31320381164551 -9.95011329650879 5.04198265075684 2.27020359039307 3.51564598083496 0.958386421203613 6.00432395935059 -0.21898365020752 -12.073127746582 -3.88027286529541 3.05989027023315 -2.44420623779297 -8.28104972839355 -0.980149269104004 4.5739574432373 -4.8159065246582 6.878990650177 -6.69453096389771 2.08535766601563 4.81802940368652 8.32393836975098 8.69293403625488 -0.488530158996582 2.06539535522461 -0.978216171264648 1.56019306182861 -9.56423187255859 8.3642578125 -3.55796432495117 -5.12895774841309 -5.29667854309082 -3.79629039764404 0.456868171691895 -7.57346153259277 -3.09766864776611 6.05692291259766 -0.0990524291992188 -2.77132606506348 -3.67064380645752 -9.23579216003418 -2.06571483612061 1.25566387176514 0.787581443786621 5.07141304016113 -0.876988410949707 8.41183471679688 7.85040808015037 -9.91262054443359 -5.32834529876709 1.55714416503906 8.88930797576904 -7.61131286621094 9.02872848510742 9.38870620727539 8.95278453826904 3.24412536621094 6.39531135559082 9.38406944274902 1.42588233947754 -3.30475902557373 9.63198852539063 0.685409545898438 -0.649918556213379 4.48983907699585 9.32087898254395 |
-3.85988140106201 5.15281867980957 -4.1751823425293 3.55144262313843 8.1812686920166 5.79777717590332 -8.07569885253906 3.29934310913086 3.71766543388367 3.34486198425293 4.6245288848877 8.60795783996582 6.85785722732544 0.989541053771973 -4.71458530426025 3.46400713920593 6.94454908370972 -5.81243991851807 9.65154457092285 -2.63721370697021 -7.57640647888184 -5.30007171630859 0.819231033325195 3.26922178268433 2.09757900238037 -7.30521392822266 -7.0344500541687 4.20525074005127 0.124124526977539 -6.1694188117981 0.818124771118164 8.6407995223999 -3.44367408752441 -3.84745979309082 0.491656303405762 -3.31483745574951 6.82784605026245 1.86929130554199 0.237506866455078 7.6449179649353 -5.18573760986328 8.65966796875 -0.297483444213867 2.98616862297058 -3.7905158251524 0.318537712097168 -5.12891578674316 -7.28725433349609 4.90820646286011 -0.971308708190918 5.91645956039429 9.98581314086914 8.94717025756836 2.44982147216797 1.36939144134521 0.166825294494629 -2.43246650695801 9.5540828704834 7.53952026367188 -5.61814308166504 5.79432487487793 -8.55690765380859 8.20082855224609 9.43272399902344 -8.23704719543457 -9.62580871582031 -6.26830101013184 -7.00505065917969 3.56784057617188 4.1583251953125 3.7227771282196 -1.89527606964111 -2.79622745513916 -2.4461498260498 4.12606716156006 -0.971468925476074 6.18484878540039 6.39108848571777 9.09685134887695 -1.98352909088135 4.46141004562378 -3.36173629760742 -3.38400745391846 -3.55987644195557 -9.28344345092773 0.335732460021973 5.27846527099609 -5.45049858093262 -1.37033557891846 5.53226661682129 2.25448287744075 -1.07028102874756 -7.05652666091919 9.92901303386316 -7.53569078445435 -7.19296264648438 -1.46287822723389 2.61416888237 9.92016792297363 -0.110794067382813 0.40699577331543 -7.83713531494141 -2.78674221038818 -5.10976314544678 6.68073415756226 -8.96385192871094 -7.59226274490356 2.66649007797241 4.30190277099609 -9.58881187438965 -4.81843852996826 2.38898658752441 3.30804800987244 0.17506217956543 1.02389430999756 9.71518707275391 -9.97245788574219 8.91810417175293 2.00852012634277 -4.20990562438965 -1.58169148210436 -3.51779365539551 9.40313529968262 3.44058012962341 -3.8066349029541 8.37026786804199 -9.30399131774902 -3.31068420410156 1.6358814239502 5.99345684051514 1.49122524261475 -2.24685764312744 5.18218231201172 -1.37769317626953 -6.3142032623291 -4.10163021087646 -0.105918884277344 -8.13115882873535 -8.57155227661133 -6.36479377746582 -9.90288543701172 2.35553359985352 -0.866292953491211 4.26564693450928 2.46899509429932 5.22949409484863 7.54876661300659 -0.926858901977539 -4.46748638153076 -3.32659816741943 -48.9468154907227 -2.91787242889404 -2.01894378662109 -3.09641265869141 7.8951358795166 -7.07101392745972 4.28660154342651 -0.674098968505859 -7.89378690719604 0.153885841369629 4.83908414840698 -6.01629447937012 -8.23167037963867 -4.05570602416992 9.17541694641113 6.25494662299752 2.19089889526367 8.11336040496826 -3.99761772155762 -0.129660606384277 1.13566493988037 5.67854642868042 6.89727544784546 -1.26567935943604 7.26260757446289 -4.47091484069824 -5.32130432128906 -7.5810496872291 -0.43976879119873 -6.776611328125 -5.50568580627441 7.09816694259644 1.84990978240967 6.00837898254395 -8.24175834655762 8.45759868621826 -4.66261291503906 -7.4141674041748 6.32534217834473 9.03663635253906 8.31182861328125 -8.61971664428711 -9.59310531616211 -9.39301300048828 -0.327507019042969 -4.57461929321289 -4.58299451321363 -0.905102729797363 -5.14579296112061 -5.03088188171387 -6.97910308837891 9.9619026184082 -5.42350959777832 9.74226379394531 -8.8837718963623 -2.61793518066406 3.95689463615417 4.75841045379639 0.275272369384766 -0.3800048828125 4.72901821136475 -33.1483936309814 -0.682435989379883 -3.47968482971191 0.098175048828125 -7.21428680419922 4.75239944458008 7.45258522033691 -1.08803844451904 4.92419004440308 -9.64349746704102 7.34382200241089 -3.5693416595459 -0.201286315917969 -6.64690446853638 6.54687643051147 6.36295080184937 -5.83708763122559 6.36895179748535 -7.52891734149307 -7.6268196105957 9.39013117738068 -6.37287330627441 6.45017623901367 2.7550265789032 -7.19338226318359 -5.54147529602051 -8.88289260864258 5.70232152938843 -5.64802646636963 3.94713377952576 5.77670288085938 4.29143905639648 -5.42886924743652 2.50069379806519 -6.45669174194336 0.249725341796875 4.52737808227539 6.0442943572998 -3.33691215515137 -5.06780300103128 2.93122053146362 -2.79039001464844 -5.01908779144287 -3.13579940795898 7.88821411132813 6.3343448638916 3.22746467590332 -4.55088405078277 1.95056533813477 1.83657264709473 3.99624800682068 -9.57620429992676 9.48367118835449 2.63708305358887 -6.54045867919922 -5.08342933654785 3.50340604782104 -3.3583459854126 -8.92544746398926 1.67827789578587 1.1558256149292 -3.2428035736084 -5.75160217285156 8.81459999084473 0.212286949157715 6.14680290222168 -2.42577648162842 7.28017377853394 -9.49744415283203 6.86253023147583 4.79713916778564 3.87723898887634 -3.47547626495361 -3.50893115997314 -0.236893653869629 3.17104530334473 -9.44285583496094 -1.19659042358398 8.53999614715576 -1.2562952041626 -2.04630470275879 -2.85905265808105 -3.95882987976074 -0.82337474822998 -5.56083488464355 -20.3574829101563 4.78676986694336 -9.97108268737793 9.77483558654785 3.82410502433777 -1.84428310394287 -2.51406574249268 -6.35059547424316 -6.33525419235229 6.16695165634155 6.22240447998047 -0.913471221923828 -7.74656295776367 -9.81859397888184 1.68106937408447 -8.11362266540527 -8.77977752685547 -8.9028377532959 7.89862108230591 -1.44949340820313 -2.70725631713867 -2.86955261230469 -5.16595840454102 -1.77840328216553 -8.42918395996094 7.60407209396362 -5.22406768798828 -2.75729560852051 -1.13995170593262 9.24851894378662 -9.27252197265625 7.36013841629028 -4.09907722473145 7.99044799804688 8.98972702026367 -0.867444038391113 0.506443023681641 1.9633903503418 8.60013008117676 -0.790005683898926 0.14168643951416 0.0203838348388672 8.45049858093262 4.68552277004346 1.10928440093994 4.26479530334473 8.09675674978644 0.762272668536752 -1.90381622314453 9.62338447570801 8.65646743774414 -0.512419700622559 32.8572292327881 9.53671646118164 -5.94114303588867 7.29709625244141 2.82945609092712 -0.253013762645423 2.26663684844971 -1.36870765686035 3.52930045127869 1.72100162506104 -6.32059288024902 -6.65737915039063 1.44165420532227 6.86362457275391 -7.31398391723633 5.15644550323486 5.42864322662354 -5.74923706054688 -2.93771171569824 -2.52666091918945 4.01587677001953 -1.99524021148682 1.86780548095703 8.07294368743896 3.53836989402771 3.12714478559792 4.63980865478516 7.35410690307617 2.4646463394165 -8.96347045898438 3.22859525680542 -0.565966606140137 -5.97128677368164 -1.87728023529053 -9.21310234069824 3.2815146446228 -6.30789232254028 -1.32185840606689 -7.30170059204102 1.1616096496582 2.96712636947632 1.91285514831543 4.82868909835815 8.39916229248047 9.95231151580811 9.46801948547363 -6.62163925170898 -3.70149517059326 9.05895042419434 0.070897102355957 7.24085807800293 2.67270803451538 -1.2276086807251 2.88414931297302 -0.198568344116211 -6.40356492996216 -2.84976863861084 -3.38536167144775 5.12237310409546 -6.28889274597168 -5.12149810791016 7.20393705368042 1.26579666137695 -4.37705898284912 7.59512901306152 -0.738454818725586 9.26326274871826 4.36663150787354 -9.45069122314453 2.83491587638855 8.06753540039063 0.747193336486816 -6.99555921554565 8.86572647094727 -8.72680282592773 0.926455497741699 -1.05409526824951 2.75947546958923 -5.51229953765869 5.83416175842285 2.71702742576599 8.93661689758301 -8.05860900878906 7.02333211898804 -0.813702583312988 -4.20839881896973 -4.80976963043213 -7.56078290939331 -7.01324033737183 3.61243009567261 5.43025207519531 -8.68106651306152 5.78252983093262 -7.11092185974121 -4.34536361694336 -3.23897266387939 -3.85076266061515 1.36786842346191 -5.11784362792969 -7.13190078735352 -4.45399856567383 -5.53381443023682 0.570625305175781 3.98236727714539 0.524936676025391 -0.962709426879883 2.32262992858887 8.62593460083008 2.06695938110352 0.226010322570801 4.95175552368164 9.37742042541504 4.55276012420654 3.2459659576416 -5.68731117248535 -9.39668655395508 -7.92409706115723 -1.26363372802734 2.72735786437988 -0.855308532714844 1.76556015014648 -7.80386161804199 0.391630172729492 -4.87698173522949 3.85195708274841 5.68372488021851 -1.63058853149414 -1.11767673492432 -3.06730175018311 -6.09597206115723 7.31392335891724 4.23603057861328 -6.19707870483398 -7.92972373962402 -9.29817008972168 1.04609870910645 -7.1893482208252 4.55610990524292 4.47319746017456 -7.16107892990112 -4.38296699523926 -4.36453914642334 -8.99776077270508 0.755854606628418 -1.93421459197998 9.5682544708252 -4.59335231781006 0.547412872314453 6.34503364562988 -8.56741714477539 8.25853729248047 -4.52298386162147 -2.08833122253418 -2.12082481384277 -4.56354236602783 9.96935272216797 6.34588670730591 3.09977507591248 9.81858062744141 2.47159576416016 5.48085403442383 -6.96314155589789 7.9633617401123 -1.35275459289551 -9.74829864501953 -9.84979820251465 -2.49663257598877 7.17296600341797 -4.12337684631348 6.70278739929199 8.33271980285645 5.45938014984131 8.69400215148926 5.89894485473633 -5.81729888916016 3.1159827709198 2.50957679748535 -4.91597747802734 4.76062536239624 -4.90516090393066 5.0307822227478 8.60877513885498 4.04696941375732 -0.152338981628418 -1.06142902374268 -0.4818115234375 4.68889951705933 8.72209739685059 -8.62872886657715 -6.08475685119629 -1.85722255706787 4.37212944030762 8.28634452819824 9.62433815002441 2.15253448486328 3.26652717590332 -5.14107513427734 9.10090255737305 -2.2335376739502 -1.22420215606689 -4.90357971191406 -5.94185352325439 3.71661376953125 1.28074550628662 8.54312419891357 -3.8470401763916 -5.26373863220215 6.69065046310425 4.93249893188477 4.33664512634277 9.4982866558712 3.4154794216156 1.90198993682861 4.13829803466797 -0.692900657653809 -7.64291763305664 -5.25407314300537 7.49795484542847 -2.92686557769775 6.51004981994629 3.94538855552673 1.09505271911621 -2.39632034301758 -1.69191932678223 -9.25002288818359 4.38687515258789 7.45037078857422 3.8697144985199 -9.92525100708008 -1.63957500457764 -7.83412933349609 -2.42402648925781 3.76475095748901 -8.90918922424316 6.52882766723633 -6.68138052592985 4.2941780090332 0.419169425964355 3.27657675743103 9.93471336364746 -3.08506107330322 0.777300834655762 -9.19510078430176 -2.62228584289551 -0.123592376708984 -6.02155876159668 4.77013349533081 -6.46761894226074 6.27879667282104 -2.05231094360352 7.21129179000854 -9.87365913391113 |
-3.42608833312988 7.25323677062988 8.24845790863037 -6.78889083862305 2.67837715148926 -3.99460411071777 2.84677958488464 6.48007583618164 -8.33097076416016 -0.631584167480469 -1.54739475250244 -5.63262462615967 6.32725477218628 -6.99876022338867 8.86204147338867 -8.15362930297852 7.84123182296753 -5.16106414794922 1.26569652557373 -1.550368309021 6.73930358886719 2.95088744163513 -6.66545867919922 55.4049243927002 19.7179102897644 9.32638359069824 8.02595138549805 9.65544891357422 -6.64358901977539 4.21510887145996 -7.16822099685669 1.80100536346436 -3.11379337310791 1.11597195081413 3.98436307907104 6.19637680053711 -7.90023612976074 0.795077323913574 -7.87339019775391 7.53698348999023 -4.01441669464111 -4.91325950622559 -7.48609733581543 7.2056622505188 -0.206769943237305 -2.80452346801758 -7.49288129806519 -7.10740280151367 0.344490051269531 1.0119686126709 -4.76971530914307 -6.4588565826416 -28.3048639297485 -9.7073917388916 -4.0391263961792 -2.38424682617188 6.9100284576416 -9.40508079528809 7.67921753879637 -2.42647266387939 6.24627304077148 -8.21232223510742 7.8124852180481 9.89969253540039 5.9685206413269 -4.11111927032471 4.2273211479187 -9.71294021606445 8.04852962493896 -9.1044921875 9.10309028625488 -2.01050662994385 -0.0168933868408203 6.41552686691284 -4.0388240814209 -8.39175224304199 -8.17336082458496 -0.820313453674316 3.09445357322693 -9.23740386962891 -7.43720245361328 5.84819555282593 4.31389808654785 27.6762747764587 2.21330738067627 2.84661746025085 -1.3707914352417 -4.45194816589355 2.24917507171631 -4.0459623336792 -7.96220588684082 6.84229850769043 4.0075511932373 -1.62706470489502 6.80179166793823 -3.48236465454102 5.41878223419189 -3.73519039154053 -0.660370826721191 7.8177375793457 3.62662076950073 -7.37212181091309 -7.42703628540039 -2.35144996643066 0.0728139877319336 1.09559631347656 9.70393657684326 2.9459114074707 -4.58022499084473 3.72723770141602 -8.49783325195313 -6.02344942092896 4.15067672729492 1.00583011144772 -0.435214996337891 -1.30452060699463 5.6676173210144 -8.35441780090332 -2.16719055175781 4.52052593231201 7.48517751693726 3.94787764549255 6.63763236999512 3.16767191886902 8.47974300384521 -1.34101009368896 -2.65666580200195 -5.30225944519043 6.59308433532715 -7.23270416259766 -1.00539302825928 -7.31827735900879 2.75420183315873 -7.07656860351563 7.04467535018921 -9.35550498962402 6.34252738952637 -0.933629035949707 -3.18104648590088 9.73100852966309 6.77635192871094 3.90277099609375 -1.38597393035889 -6.26261186599731 -9.49155426025391 -4.56673717498779 -3.10824966430664 -2.02511215209961 0.320559501647949 -6.94420623779297 9.90462112426758 -2.90987396240234 0.924333572387695 -2.35383605957031 -0.512195587158203 4.58853372372687 -9.4071102142334 -0.824476746842265 -0.251702308654785 -1.60557174682617 7.34810066223145 -8.20235443115234 1.59834480285645 -1.38941860198975 -1.66243171691895 9.96642875671387 0.893951416015625 5.20571231842041 -0.0131521224975586 -7.19496536254883 7.71507024765015 -7.40728569030762 -8.74064636230469 -6.59943771362305 -7.47386932373047 2.29384803771973 9.64933395385742 -43.5451517105103 6.91393852233887 -2.13918113708496 9.9740743637085 -5.92629432678223 5.84408950805664 2.68461942672729 -3.35735416412354 -0.791197776794434 6.08322525024414 -6.38252687454224 -9.77318000793457 9.27336883544922 -1.22878170013428 -6.35609817504883 -7.44988965988159 3.56364011764526 1.05586624145508 -8.23139190673828 5.44326543807983 6.71089601516724 -1.48058795928955 -9.62973594665527 1.04620838165283 1.3486442565918 0.627714157104492 -3.04189777374268 3.38998031616211 -2.00899505615234 -6.13265800476074 5.40257215499878 3.64841437339783 -4.951247215271 2.27724647521973 -9.77633285522461 8.25320434570313 -5.80461025238037 9.96175765991211 7.64567565917969 -3.40027904510498 -9.54011535644531 -6.89356994628906 8.50274276733398 -1.90452003479004 -8.21615219116211 1.48873424530029 8.97237014770508 -9.45327568054199 -5.45947074890137 6.1357593536377 5.09666633605957 5.87554454803467 1.60178565979004 -6.1196231842041 -0.820806230884045 7.11565446853638 7.72096395492554 -6.49321031570435 1.35709667205811 4.82235670089722 5.89630842208862 -7.6664776802063 1.37514209747314 -5.29275894165039 -2.26046943664551 0.537420272827148 -4.55232524871826 -3.88087368011475 -5.03385066986084 -9.84536170959473 4.62898015975952 -6.73736572265625 5.10583877563477 -9.33579254150391 -3.47250843048096 -3.48993396759033 -1.30727863311768 -7.71743011474609 -2.04927539825439 7.58702278137207 -8.64095878601074 8.04359817504883 -0.927911758422852 9.70581245422363 -0.623727798461914 -2.44749450683594 9.71898555755615 -6.06982421875 -6.92865371704102 9.57225322723389 -8.16731643676758 7.28950929641724 -8.42351150512695 0.0522890090942383 -6.97239685058594 -4.37452697753906 6.86966133117676 -8.74173164367676 -9.66900062561035 5.17015592451207 9.4056396484375 0.812100410461426 -4.65435600280762 -2.57727527618408 -3.55028533935547 -8.91119477711618 1.13102340698242 -7.23046493530273 -2.77263736724854 1.15144824981689 -5.72550964355469 8.03145885467529 -2.12134742736816 -9.95428848266602 3.0879282951355 7.97000122070313 -3.47977733612061 5.79829931259155 -1.08961963653564 -2.65854149125516 8.75473403930664 -6.3619327545166 -1.18828868865967 6.18012428283691 3.63805532455444 4.62997436523438 2.04415702819824 4.38601970672607 -4.1484842300415 -7.19861555099487 -6.75817680358887 -3.19426155090332 0.655449867248535 -3.52528667449951 -5.06276893615723 -6.88793611526489 -4.28184127807617 -8.73561668395996 -1.86531162261963 -3.16258811950684 3.62970805168152 -5.2271032333374 -4.50974877038971 1.25171089172363 5.2938289642334 4.59457206726074 -9.56842613220215 3.35020041465759 2.53739333152771 -4.75894069671631 3.73431396484375 4.59731817245483 9.12602615356445 -2.73190116882324 -1.48714637756348 9.35109901428223 -6.60693693161011 1.68119049072266 2.01251602172852 -8.96232986450195 9.08271026611328 4.00268745422363 -0.105849266052246 -5.50805854797363 4.9240894317627 -4.89383125305176 1.84549427032471 7.69731712341309 0.245481491088867 3.11459302902222 -4.49071788787842 -9.88811492919922 6.93426132202148 -0.834728240966797 -0.766764640808105 6.10434722900391 -0.119758605957031 -0.24244213104248 9.39723205566406 3.07589030265808 -7.9478497505188 6.27938032150269 -3.0894079208374 -3.91594791412354 3.14965224266052 -1.50007270136848 8.77252578735352 -52.8741760253906 -2.30601215362549 8.1663990020752 1.73294448852539 -3.37773704528809 -4.18365097045898 -6.47908735275269 -4.22004318237305 0.611785888671875 0.347763061523438 -0.446406364440918 -8.42212867736816 -5.43551921844482 7.77300310134888 4.4304084777832 7.34307813644409 -7.7353401184082 -14.4926118850708 3.26364707946777 -1.22625732421875 9.12714958190918 2.67825102806091 -3.07194328308105 -9.94785499572754 -0.644716262817383 5.1349401473999 -8.29937744140625 -6.96248817443848 -1.64325332641602 -2.57312679290771 -9.20515823364258 4.95247840881348 -3.17745780944824 -5.57813835144043 -6.81737899780273 9.40842819213867 -5.46389770507813 -5.69155693054199 9.91193580627441 3.00242614746094 -9.373291015625 -1.69300937652588 -2.67165088653564 3.95087695121765 -5.91757297515869 -5.76785087585449 -4.71896553039551 -2.03182792663574 5.84181547164917 8.34530067443848 6.1674690246582 5.96761465072632 -4.0700044631958 -8.01559638977051 8.4835033416748 -9.96822357177734 |
