5.99709272384644 -9.46411895751953 -6.51179838180542 8.36764144897461 -3.19747829437256 3.18884611129761 6.74775838851929 7.2504711151123 3.52575492858887 8.00596237182617 -5.82609367370605 -9.17741966247559 -9.71357345581055 4.35294342041016 -8.44915199279785 4.14494514465332 1.3623104095459 6.64069175720215 2.31955623626709 -1.45622634887695 -8.12090682983398 5.3385181427002 -9.60930061340332 7.75087547302246 -5.8533239364624 -8.42055320739746 1.08090782165527 -8.11845588684082 -2.4069299697876 -2.67314338684082 4.41247940063477 2.83256721496582 9.24311065673828 -6.8306941986084 -1.64928340911865 2.66476130485535 -1.45890617370605 4.54253387451172 0.354351043701172 1.70393562316895 -5.94000053405762 -5.96867370605469 7.49325942993164 9.24080848693848 7.22484588623047 -7.97776222229004 9.04806900024414 4.30430889129639 4.97267723083496 3.0237078666687 8.17708492279053 -1.09121894836426 -3.53987312316895 -7.28834342956543 2.64986753463745 1.61044692993164 8.71762752532959 -5.40353584289551 4.71909284591675 -8.71780776977539 9.13875579833984 -5.76836585998535 3.27341532707214 -2.71576309204102 -4.35953235626221 -4.72439384460449 -3.3301248550415 -1.70967483520508 4.19638156890869 9.81881141662598 -2.60473155975342 3.66251707077026 -6.96446228027344 -3.52320575714111 2.63815641403198 -7.95418548583984 -5.16829681396484 7.04197120666504 2.56024122238159 9.47402477264404 6.8297266960144 -1.12798309326172 4.28030490875244 6.53507947921753 -4.88723850250244 -9.58367919921875 5.30580711364746 0.758634567260742 -2.11413764953613 0.989426612854004 -2.93445205688477 5.22723197937012 6.77836179733276 9.33807182312012 -7.41136741638184 6.55297803878784 -5.50868034362793 -6.734130859375 -1.12257385253906 -6.42407608032227 -9.4357967376709 8.5495777130127 1.78039455413818 9.66037940979004 9.61216163635254 -3.68202304840088 -1.3994255065918 -4.03099918365479 7.17436790466309 -5.51175880432129 3.94445610046387 -2.22600078582764 -7.30361175537109 8.50467491149902 6.81957674026489 8.75307273864746 3.87297391891479 7.40018606185913 0.337105751037598 0.81776237487793 -1.1342658996582 3.65048599243164 -2.34767532348633 -4.39908599853516 9.64918518066406 4.22613620758057 6.79814863204956 2.80236959457397 -9.59740829467773 -0.248180389404297 -8.3998908996582 5.27588367462158 -9.67416381835938 6.57867002487183 9.40011215209961 3.06816554069519 7.93953895568848 -5.70204544067383 -0.0502862930297852 8.87788772583008 -7.67069816589355 -9.25373458862305 8.80434226989746 -5.65369129180908 8.1656436920166 -3.69657611846924 -0.243405342102051 -7.60339307785034 -5.3453254699707 8.45780563354492 -3.47116374969482 4.8288893699646 -1.22407817840576 2.31055641174316 -0.516539573669434 -1.3906421661377 -3.66618728637695 5.49144744873047 -6.68255281448364 -5.49358367919922 -9.26493644714355 -4.96329879760742 8.55157852172852 8.25807952880859 2.42012119293213 4.00324821472168 -9.57904434204102 6.80930852890015 0.120758056640625 -9.50772476196289 0.321539878845215 0.183664321899414 -2.05478286743164 6.57556104660034 8.56435585021973 -3.18830108642578 -3.25070476531982 -0.818477630615234 -3.01519298553467 1.64975070953369 -9.56360816955566 -8.10050773620605 -0.249833106994629 -0.573745727539063 6.20452880859375 9.89312648773193 -2.06087207794189 8.98308944702148 -8.05954360961914 4.90933895111084 -6.28854560852051 -1.69985389709473 0.832065582275391 3.67387962341309 -6.85549736022949 -3.9132251739502 -2.67476177215576 -1.80365943908691 0.967732429504395 -0.807224273681641 7.54071235656738 -8.48278999328613 -4.6755895614624 1.77626705169678 6.78698539733887 -3.02980327606201 2.28779411315918 -5.90733051300049 -4.19924163818359 -4.4248046875 8.66307258605957 -6.77660751342773 7.39912462234497 4.70625877380371 4.07844066619873 3.21719622612 -9.50898361206055 -2.68561935424805 9.62966156005859 -2.61728668212891 5.30858039855957 -1.26423263549805 -9.00745010375977 -1.24314212799072 5.3548789024353 2.60926222801209 -7.62045335769653 9.3293571472168 -9.63957786560059 -2.86324596405029 5.68448543548584 -6.76688194274902 -0.13489818572998 -2.33534717559814 1.04692840576172 6.1259937286377 7.87748765945435 -4.294677734375 3.23122215270996 -8.45895385742188 -4.48049640655518 -2.77487182617188 -7.03330564498901 -7.18292045593262 -6.19882583618164 -1.62206745147705 2.8295726776123 -9.26346969604492 -6.23037528991699 0.742460250854492 9.92530632019043 -1.59220790863037 -3.55221366882324 -6.50757598876953 2.80930495262146 -4.38134574890137 8.47673606872559 8.06853771209717 -9.80063247680664 3.50730395317078 -8.19131851196289 -1.0741605758667 -1.65896511077881 -3.72858619689941 -4.00017642974854 2.45790386199951 9.90658760070801 8.56614589691162 -1.81959533691406 6.53092384338379 6.1627311706543 -1.57672786712646 -4.14684867858887 9.17105102539063 7.8213996887207 0.554021835327148 9.85884475708008 -6.54895353317261 -2.61807060241699 0.559371948242188 3.89596176147461 -8.16189765930176 2.85999751091003 -3.75844573974609 6.49273347854614 9.39763259887695 -8.07565689086914 2.31997871398926 -4.55843067169189 -2.26309394836426 -1.94313907623291 4.64405536651611 -9.31094932556152 -3.54839420318604 -0.457225799560547 -5.90564727783203 1.73680686950684 8.4936695098877 -5.4023265838623 5.45613479614258 -5.78491401672363 9.85897445678711 7.45785188674927 -9.24708366394043 -5.46421813964844 -1.60856151580811 8.08096694946289 -7.92456102371216 4.85958814620972 7.49665021896362 2.15947532653809 7.09703016281128 8.35000228881836 5.02122402191162 7.12120485305786 5.84910869598389 6.06716871261597 6.20935201644897 4.34305191040039 7.78500032424927 7.00652837753296 0.679434776306152 2.36771678924561 0.323108673095703 2.25026988983154 8.80266189575195 5.02925109863281 1.08020687103271 6.52616930007935 9.74676895141602 -7.07320976257324 -2.39831352233887 9.83470726013184 6.98722410202026 3.39959597587585 -5.82949638366699 2.55668616294861 1.53102970123291 5.46581983566284 -0.23640251159668 -4.45524597167969 -4.20072174072266 -5.87924194335938 5.01159429550171 0.790556907653809 7.75008392333984 -6.99531364440918 -6.84907913208008 -7.12271499633789 2.1406307220459 9.42705345153809 -8.99978256225586 7.65503644943237 -8.08707046508789 -8.67710494995117 -9.0419864654541 -1.03944873809814 -1.6969575881958 -8.8124942779541 0.0565872192382813 -1.28570938110352 -9.30135726928711 0.0584659576416016 -6.00406837463379 1.97280979156494 0.368076324462891 -5.40900230407715 0.0115718841552734 -0.399526596069336 -2.99110507965088 -2.96720409393311 2.8075168132782 -6.72976684570313 -6.30151319503784 0.994848251342773 -7.82363891601563 -8.53065490722656 2.85905814170837 -8.04105377197266 5.15659809112549 -9.02130889892578 -3.42099761962891 8.60201072692871 7.18561363220215 5.05471420288086 9.43933010101318 9.48480796813965 0.797472953796387 -4.00938415527344 2.53029322624207 7.37859725952148 4.38542366027832 -1.72909164428711 7.0326042175293 6.60006523132324 -4.07395458221436 0.498603820800781 4.84217643737793 -4.98433685302734 7.72980880737305 -1.74832248687744 -7.53604125976563 5.52882671356201 0.169626235961914 -2.12252044677734 8.60414695739746 -7.67023515701294 7.149658203125 -4.69194030761719 -1.59075832366943 4.80762004852295 -9.14030265808105 -6.74028205871582 -6.91694688796997 -4.76638221740723 -8.54534530639648 -2.70052528381348 -1.57048606872559 7.00582504272461 8.92024230957031 5.48621892929077 1.02370643615723 3.78668761253357 -5.29442596435547 2.25523853302002 -5.35748291015625 6.93837881088257 7.33697128295898 8.03826332092285 -5.92851448059082 1.41459560394287 5.79510450363159 -1.78118801116943 9.32616710662842 6.09196853637695 -8.33543014526367 7.31693267822266 -2.72487735748291 -1.27173328399658 2.11086654663086 8.19075775146484 -6.28216552734375 -2.58766078948975 -9.03672981262207 5.09329319000244 2.33340358734131 -3.71688270568848 -8.73074722290039 -4.45563220977783 -8.70047569274902 8.03567695617676 -7.37143707275391 -2.89357757568359 -3.50738906860352 -8.30557060241699 -1.24616527557373 3.72479200363159 -2.98020267486572 9.02670288085938 1.95873165130615 8.16060543060303 -8.21366119384766 3.39565253257751 1.29244899749756 6.5578989982605 2.51557540893555 5.4425573348999 2.04225444793701 -3.91114139556885 8.08937835693359 4.20655250549316 2.74998426437378 -9.98106956481934 8.52849197387695 2.31421089172363 4.50145721435547 7.36196708679199 6.01216316223145 0.508760452270508 7.30936765670776 -2.09105110168457 1.14667320251465 8.69521903991699 -0.0806560516357422 3.90978312492371 5.01445531845093 -6.63048553466797 -5.80331611633301 -6.72990608215332 -1.91122627258301 1.2022819519043 7.88460922241211 7.92278718948364 4.81434345245361 6.82210493087769 -8.2581787109375 -9.88050842285156 -4.11970233917236 3.52825355529785 -8.92525482177734 7.27523803710938 -9.80531692504883 5.28246879577637 -9.33356094360352 1.21000862121582 0.647706031799316 -2.15240097045898 -9.72118759155273 2.8259608745575 -2.21760177612305 -7.49450874328613 -0.0844659805297852 2.02575588226318 -8.58291435241699 -7.7857780456543 4.80154037475586 6.75799131393433 -7.99306869506836 3.34544634819031 -6.88940811157227 3.29313993453979 6.76843643188477 0.120548248291016 4.58624839782715 0.987087249755859 7.93216705322266 -4.70460319519043 -2.11109066009521 7.26638555526733 4.99967575073242 -4.30774116516113 -1.11523532867432 6.91788673400879 -6.92395973205566 -9.28356170654297 -0.792141914367676 -6.95577192306519 -2.89371109008789 -2.52676391601563 4.97914791107178 -7.2294807434082 1.27952194213867 3.80711317062378 1.97139358520508 2.84104323387146 -4.8151388168335 -2.22035312652588 -1.62277603149414 -6.71739149093628 6.08860397338867 -9.88965034484863 4.93929100036621 3.80072784423828 -0.712932586669922 -7.40976762771606 4.45009231567383 3.53139114379883 8.87331199645996 2.24767112731934 5.33672332763672 2.43235015869141 1.58353233337402 -2.47660541534424 -9.19504928588867 7.76615858078003 -5.79310417175293 4.20250654220581 6.54130506515503 -2.69712066650391 -2.71948909759521 5.54963827133179 0.848306655883789 -8.16074752807617 -7.31274795532227 8.41147613525391 7.40954923629761 -9.38904762268066 6.26600980758667 4.99189853668213 5.4489803314209 -9.60143089294434 -2.9857931137085 -4.0450611114502 -5.37777709960938 8.16776466369629 -5.13510227203369 -2.90734195709229 -7.23976564407349 -7.22683715820313 5.57173919677734 7.60082244873047 1.04485130310059 -5.84425163269043 5.93595504760742 6.15844488143921 0.061436653137207 2.81250190734863 -2.44495487213135 -0.629974365234375 4.33515071868896 2.71788096427917 -6.53032112121582 1.8028507232666 -0.899716377258301 -5.33156871795654 5.49973487854004 -5.15977096557617 5.25462627410889 -0.114354133605957 -1.78875541687012 -6.87895584106445 0.593691825866699 3.07719206809998 -3.81313705444336 -9.83331489562988 6.21289968490601 7.64926910400391 2.7967472076416 3.62758135795593 2.61373019218445 -7.89242935180664 -2.66282176971436 -1.13274669647217 -9.08627510070801 -1.24540901184082 -1.22546291351318 1.97105503082275 -5.78789901733398 -1.91343879699707 5.24572372436523 -9.27303123474121 4.49157905578613 6.55735206604004 -3.18140125274658 1.82490253448486 -6.064124584198 -5.3061466217041 4.7098970413208 2.73014998435974 -9.12283897399902 6.5740795135498 0.821112632751465 4.01825666427612 4.76110458374023 -6.51107597351074 0.424428939819336 4.83610343933105 6.27942085266113 -9.33306694030762 -5.99733829498291 -4.38436126708984 -2.6234016418457 2.65183424949646 7.92024183273315 -3.02269554138184 3.52414107322693 -5.71121978759766 7.50897598266602 8.32080841064453 8.04634284973145 8.59370994567871 -0.262800216674805 -0.152143478393555 1.55370140075684 -5.71652889251709 9.67821884155273 4.47288274765015 9.01679801940918 -5.42868137359619 -2.72786998748779 -5.99745750427246 6.42447471618652 2.56620168685913 3.25705027580261 -7.87564086914063 -9.80105209350586 4.32882499694824 9.70778942108154 5.00799369812012 8.25297355651855 -8.55198287963867 5.85143280029297 2.60506391525269 -8.63240051269531 6.84963655471802 -3.33517646789551 -0.743423461914063 8.21971130371094 -0.0741329193115234 -9.52682495117188 2.61401152610779 0.928005218505859 -0.445398330688477 -1.24201393127441 -6.17451667785645 6.68209505081177 5.68992614746094 -4.98103046417236 3.17615699768066 -2.19163990020752 5.59309959411621 6.27371788024902 5.42935132980347 6.11251831054688 2.68801879882813 -8.20181846618652 -9.57828712463379 2.54036402702332 3.90378189086914 6.6802191734314 -7.80681419372559 6.41276550292969 8.24846649169922 -0.697177886962891 -8.14995193481445 4.61192846298218 5.88400363922119 3.16216921806335 3.46390223503113 0.501838684082031 2.95505714416504 -5.4979419708252 2.02066993713379 -4.52124500274658 -6.18267488479614 -3.06719207763672 5.20622444152832 3.64715552330017 3.30517530441284 6.88074111938477 9.79727935791016 1.32481670379639 -9.1205997467041 -3.33771133422852 -3.19090938568115 -0.882187843322754 9.31207847595215 8.81587505340576 -3.45029258728027 -5.1983528137207 -1.27433395385742 -3.60748672485352 -1.29791831970215 9.45040512084961 4.02569770812988 -3.71251964569092 -7.05158662796021 6.13474607467651 -8.62287330627441 9.59452438354492 9.56150817871094 -5.41049194335938 4.8227858543396 1.89638042449951 -8.30060577392578 1.06714344024658 -8.43079566955566 5.74880361557007 3.74650931358337 0.315338134765625 8.45870971679688 5.21864652633667 5.58175277709961 4.52319622039795 -2.60203266143799 7.52878904342651 0.710521697998047 -2.13926696777344 6.69615745544434 -3.95609760284424 9.51932430267334 0.35920238494873 9.75121307373047 -7.93392181396484 -6.02667045593262 -1.60538768768311 5.45120429992676 7.5862193107605 8.77363586425781 -7.08440017700195 -3.71670341491699 -1.75975704193115 0.636459350585938 6.66817426681519 -5.7065315246582 1.03314304351807 -4.39111614227295 -5.96426963806152 -8.16987800598145 -7.17615127563477 -0.754279136657715 2.16804599761963 7.91941118240356 -9.3148193359375 0.246509552001953 6.59862279891968 9.26703262329102 -1.26553916931152 -9.10899925231934 5.12089729309082 -4.2395076751709 3.96931409835815 0.444308280944824 7.47678518295288 -0.199727058410645 3.14499354362488 9.64347839355469 -5.47281265258789 -1.78333187103271 6.7834300994873 -0.399240493774414 -1.71347713470459 9.61327743530273 5.95668315887451 2.32381248474121 -0.977114677429199 9.02823257446289 -8.48875045776367 -7.98626899719238 0.0436344146728516 -8.88897132873535 -9.91066932678223 5.55768203735352 -9.08325958251953 1.22551345825195 -4.97558498382568 3.50034475326538 -8.25484466552734 7.97423362731934 4.02605772018433 3.9054274559021 -1.78887748718262 9.52102851867676 6.09952688217163 0.537084579467773 1.40288734436035 -4.0540018081665 4.61612892150879 -5.55058002471924 7.72882032394409 2.78979754447937 -1.4347562789917 8.28277111053467 -0.38021183013916 3.77830696105957 4.47143316268921 -8.11510848999023 0.905317306518555 4.57402420043945 0.0139894485473633 2.75927042961121 5.12470960617065 3.17038512229919 -0.16287899017334 -4.12629508972168 -7.76518058776855 4.41930961608887 3.69696378707886 -9.53553771972656 4.45232391357422 -0.473319053649902 -6.23550415039063 -8.75715637207031 -0.488947868347168 -3.30941295623779 9.84042930603027 -8.03725242614746 4.2703742980957 -0.32899284362793 -8.93486404418945 -4.83661079406738 -3.49753952026367 -1.92326164245605 8.28873634338379 -3.37771511077881 9.72543239593506 -8.15492630004883 -4.95515441894531 5.2479190826416 -1.23971843719482 9.51614189147949 2.36320114135742 -2.91933441162109 -0.672768592834473 1.47084617614746 -8.72357940673828 7.87352323532104 -8.18558120727539 5.35887908935547 -4.29788970947266 4.95001983642578 -3.79878425598145 -3.01248931884766 6.51858520507813 -5.41750907897949 -1.3641300201416 -0.828100204467773 1.85484313964844 7.13432502746582 -8.13404846191406 4.61299419403076 1.20917892456055 4.48828220367432 -4.2756233215332 6.66161298751831 -7.76852798461914 -0.590387344360352 -6.45180177688599 -0.639315605163574 2.06668949127197 -0.336504936218262 0.661049842834473 0.150233268737793 -3.69330978393555 -3.2476224899292 0.954593658447266 -5.75596809387207 1.28283882141113 -3.77579593658447 5.93546628952026 -6.80541038513184 3.64876246452332 9.35708522796631 -3.62458324432373 2.90195441246033 -6.51336479187012 8.97143363952637 7.67745542526245 2.58404231071472 0.210546493530273 -6.59243774414063 -9.46040916442871 -8.91451263427734 -6.71042442321777 -0.369633674621582 -6.95333290100098 -0.129946708679199 8.18977737426758 6.05716466903687 2.35892200469971 -1.85938262939453 5.66460800170898 9.78684902191162 -4.62839508056641 1.81662178039551 2.2072229385376 1.84402847290039 -2.22917175292969 8.99151611328125 9.84274673461914 3.5318922996521 -0.300174713134766 4.80123710632324 6.02623176574707 -5.74728202819824 -0.915454864501953 1.5368185043335 -2.71411037445068 -7.2546558380127 -4.2447509765625 -7.8847599029541 3.20423316955566 3.26171374320984 0.106934547424316 -5.06902503967285 7.16788482666016 7.86921691894531 1.14963912963867 0.769847869873047 -8.93296051025391 -8.29938507080078 -3.01357650756836 1.54695606231689 5.84951400756836 -7.68187522888184 6.5753436088562 -8.38077926635742 5.54784965515137 -9.71294212341309 0.823806762695313 -2.33397388458252 9.32223510742188 -4.47789287567139 -9.66015815734863 0.191878318786621 8.25067043304443 0.431614875793457 1.71373271942139 4.87775039672852 7.46614646911621 -9.8410587310791 7.05903768539429 -0.0333414077758789 -8.67328834533691 8.28612518310547 2.89367437362671 -4.00642967224121 5.49809646606445 -0.457524299621582 0.946079254150391 -6.3614673614502 3.45935583114624 -0.0471363067626953 -6.1822395324707 8.59649658203125 -4.28818798065186 -5.43958854675293 0.395626068115234 5.10253429412842 0.740422248840332 -8.2236385345459 5.9859561920166 -2.4510326385498 0.71748161315918 -1.31576442718506 -3.7727222442627 -4.5321741104126 -7.47385787963867 4.47373580932617 9.31831359863281 5.29740810394287 -2.47968292236328 1.39815711975098 7.39198684692383 6.45929336547852 -6.31649780273438 5.4364013671875 -4.27626514434814 0.937648773193359 1.23178386688232 9.82594966888428 -0.801257133483887 -0.866989135742188 -3.37102031707764 0.042205810546875 2.18875503540039 6.15567684173584 5.55656909942627 -7.40609931945801 6.75567817687988 1.03558158874512 3.30718016624451 -8.96137619018555 9.38962459564209 1.15917110443115 -3.41798400878906 9.3631763458252 5.31407117843628 -9.1268424987793 -3.50422763824463 -0.62877082824707 3.21617841720581 -1.00508594512939 0.0482425689697266 7.38956212997437 -3.7292013168335 -6.29637718200684 -3.73633289337158 -0.839949607849121 -4.35773277282715 0.894874572753906 7.82731246948242 -3.24147796630859 -4.63730430603027 -4.57762336730957 -6.30002546310425 6.09859466552734 -9.83950805664063 0.865701675415039 1.41194915771484 -2.85562419891357 0.401095390319824 7.2553825378418 3.96088361740112 -6.98398780822754 3.3109016418457 -6.95394325256348 4.17394638061523 -9.4698314666748 2.13799095153809 3.74440169334412 3.59464621543884 7.53984451293945 -4.55088996887207 -9.08707618713379 8.54337215423584 -6.13971281051636 -3.0180082321167 -9.65472793579102 -0.354982376098633 0.957077980041504 -5.30605316162109 4.5375919342041 -9.77422714233398 7.35253524780273 0.445757865905762 4.90168333053589 -6.87771034240723 -6.43848419189453 -6.54248428344727 2.65986204147339 3.56924986839294 5.19813060760498 -5.2807502746582 3.99078130722046 9.83354377746582 -2.48203372955322 -7.2430248260498 -9.86536407470703 6.8054027557373 -4.43059825897217 -5.70003318786621 7.27096557617188 2.24022006988525 -0.523942947387695 -1.07990646362305 -5.42568016052246 2.09454441070557 -7.29634809494019 1.58285045623779 -6.04807329177856 -0.113452911376953 -1.13347625732422 -7.50909996032715 3.48445391654968 -3.43789958953857 2.86271548271179 -3.10636901855469 -0.0641307830810547 0.52946662902832 0.823541641235352 2.60203814506531 -3.23470211029053 1.35042285919189 6.85224962234497 -2.97748184204102 6.24299240112305 -2.89759731292725 5.43249845504761 -4.19992065429688 4.14541959762573 -5.3153018951416 -5.98025512695313 2.53217887878418 7.20468711853027 -8.76359939575195 -5.30525970458984 7.90456342697144 2.38943195343018 3.70145773887634 0.781336784362793 -2.74173641204834 0.69118595123291 8.5465259552002 -6.98681640625 8.67220878601074 -4.00638961791992 0.471724510192871 -5.24422454833984 -6.50670576095581 6.95872068405151 -4.06195735931396 -8.28935241699219 -2.30938529968262 -1.28479099273682 2.33956718444824 -4.56446743011475 -8.36312103271484 0.839372634887695 -5.61034965515137 -0.206433296203613 -3.59673595428467 7.61805725097656 4.37997055053711 -4.1758861541748 -5.53012657165527 -8.15008163452148 7.02706098556519 5.3015251159668 -1.13476371765137 1.95542240142822 5.44152975082397 -8.58293724060059 9.00018882751465 6.91843223571777 -3.16232776641846 -1.56769847869873 -2.01920604705811 -0.0216922760009766 3.91420555114746 6.12423133850098 9.7358226776123 -3.37256813049316 9.69388484954834 -2.13631534576416 7.07493257522583 5.90573310852051 9.88613128662109 -4.55221080780029 -4.56392860412598 9.48270606994629 -2.52556705474854 9.14793968200684 0.0808439254760742 5.61461925506592 -0.492142677307129 6.43151473999023 5.30662298202515 3.97567510604858 -0.443631172180176 3.29130887985229 5.21385192871094 -0.91981029510498 8.59359264373779 -6.95770692825317 8.56110382080078 -8.69479179382324 9.88981437683105 1.87604522705078 3.5788745880127 5.4488468170166 7.18031883239746 9.70090675354004 -3.67051696777344 0.439871788024902 -2.6349458694458 -7.14792680740356 2.29995822906494 2.07033538818359 9.92018508911133 6.0202522277832 5.88640213012695 9.52613353729248 -4.08671760559082 7.91523694992065 7.29955863952637 -3.13999080657959 2.47541522979736 1.6116247177124 3.59164690971375 -3.88959980010986 -6.42453384399414 -9.19967269897461 1.03915309906006 -4.30112934112549 7.77810621261597 -6.13307762145996 -7.49912452697754 -7.62097358703613 2.19791507720947 9.10680961608887 -7.78646898269653 -3.40826606750488 -7.8948826789856 -4.8716344833374 -4.36718082427979 6.76452398300171 7.46169090270996 5.34089088439941 6.02566719055176 9.38883972167969 4.06114339828491 4.50279235839844 1.50541400909424 -9.66923713684082 4.29191780090332 3.91924619674683 -8.09929847717285 -2.23862743377686 -4.90048027038574 5.17033100128174 -3.59036350250244 2.68009638786316 -0.581602096557617 -7.65078544616699 -1.72104930877686 -8.4024715423584 6.20361328125 -1.51880168914795 -5.68262577056885 -9.39335060119629 -3.7881555557251 6.22360420227051 -2.83955478668213 6.15022850036621 7.54108190536499 0.0412836074829102 -8.00086212158203 5.28358936309814 5.93767166137695 -3.81682300567627 8.21382522583008 -7.15162467956543 -3.76839256286621 3.34821891784668 7.60375022888184 4.74725723266602 5.43136596679688 -5.89446830749512 -6.48361396789551 6.33225631713867 0.118359565734863 -1.69896221160889 -4.32854557037354 -3.16433525085449 -3.67661094665527 -3.9462366104126 4.97653961181641 -5.66331672668457 -2.01049709320068 6.51093482971191 -9.44647026062012 4.23687171936035 -1.86905288696289 -6.47266578674316 9.59671020507813 9.10746383666992 -8.93160629272461 -7.54053544998169 2.12271785736084 -6.85039329528809 -2.6674280166626 -7.63906908035278 3.92443156242371 -6.0187816619873 -6.67977857589722 9.0472936630249 1.42521286010742 -6.79664421081543 0.0954856872558594 4.08074569702148 -2.39269638061523 -9.64846038818359 -5.69094657897949 -5.76719093322754 7.20496368408203 -6.02348518371582 5.13213348388672 -7.6225643157959 4.1868782043457 -1.60144901275635 1.37198066711426 -6.97682905197144 -8.41500473022461 -1.6984691619873 9.81988716125488 -3.7375316619873 4.74271965026855 1.73023128509521 -1.04271030426025 0.496669769287109 3.70926833152771 -7.41280746459961 8.44214248657227 -1.018141746521 3.89661550521851 0.209979057312012 -9.4811897277832 8.64855194091797 6.91694021224976 -5.35550308227539 6.05632972717285 -9.14725494384766 -8.06856536865234 5.38092374801636 -5.42357635498047 9.06320953369141 3.59480834007263 -1.04958438873291 -7.92122650146484 8.49749565124512 -7.74059295654297 -3.56048011779785 2.41933917999268 9.9500846862793 6.5490984916687 -4.33203601837158 2.95029830932617 6.47024345397949 5.30087232589722 9.15789604187012 8.83874702453613 5.09643316268921 -4.30024242401123 -3.57194995880127 -9.78114700317383 -4.59436798095703 -5.49542427062988 -5.23726463317871 -9.33669090270996 9.83607769012451 6.24579906463623 -3.84614562988281 -3.11874294281006 9.13048934936523 -8.54690551757813 5.28573513031006 5.19395065307617 -5.25294303894043 1.68929195404053 -3.45112895965576 9.51523017883301 -2.4783763885498 1.11682796478271 3.96906614303589 -9.48691558837891 -6.15180540084839 -1.08759784698486 -6.36369705200195 1.3062629699707 -4.69779396057129 9.32502746582031 0.00353431701660156 -8.5815258026123 -8.33306312561035 -0.631171226501465 -1.89782047271729 3.16869497299194 -7.68601417541504 -4.57594776153564 4.13853168487549 4.90718078613281 -5.99227142333984 6.1203145980835 6.70119285583496 9.3752555847168 -4.05277347564697 7.91208982467651 -1.9711217880249 -0.0278654098510742 -1.72042751312256 1.16109943389893 0.661273956298828 4.31181907653809 -0.526250839233398 -1.85116672515869 -3.67574596405029 9.47964096069336 -9.53422164916992 -0.667385101318359 -8.3725757598877 -6.95752334594727 1.29461193084717 3.82647967338562 -4.11534214019775 -4.40993213653564 -3.49181747436523 7.3542308807373 -0.199307441711426 8.16545295715332 5.54630756378174 0.363369941711426 0.335031509399414 4.00734424591064 -9.87088394165039 3.14134573936462 1.80195903778076 5.68177938461304 -3.38062858581543 2.64689207077026 -3.85518169403076 7.60708808898926 1.61110496520996 1.82817077636719 6.01656150817871 -5.19758415222168 8.24909019470215 -4.43496131896973 -2.32297801971436 -8.77847290039063 7.0839900970459 3.75758624076843 7.00827598571777 -8.55352020263672 -2.56629371643066 -0.257850646972656 -5.95371246337891 0.381545066833496 5.82935810089111 -4.89802742004395 -9.76767539978027 3.93670535087585 7.8860068321228 1.61915397644043 -6.95578575134277 -3.7131175994873 -6.55240821838379 3.18661451339722 -9.93610382080078 6.08245611190796 -3.87152576446533 9.09836196899414 -3.27670669555664 -3.27796840667725 -5.6358003616333 -4.76964569091797 -0.86089038848877 -0.486751556396484 -9.28718376159668 9.65102958679199 |
6.77555084228516 -2.33059310913086 -3.28290557861328 2.43034744262695 -9.82157516479492 7.779869556427 5.57917785644531 -9.44319915771484 3.85154223442078 7.43624448776245 8.83985710144043 6.80914878845215 -2.15045356750488 8.93688011169434 6.81247282028198 3.99009895324707 -8.51871109008789 -3.93987560272217 -4.98167133331299 9.14145946502686 6.90978574752808 9.89572525024414 1.59789657592773 0.57038402557373 6.92678213119507 3.66605520248413 7.69416046142578 -7.44192314147949 -1.335524559021 -8.30196189880371 0.472234725952148 9.85750961303711 3.57101893424988 -6.0342903137207 0.64649486541748 -8.56825828552246 0.0660362243652344 3.01371765136719 3.43867754936218 -3.85082817077637 -1.94565868377686 -9.88392066955566 -8.9754581451416 -6.82211875915527 -1.44073867797852 -9.46703338623047 4.29013252258301 -4.19472312927246 -7.0296688079834 -8.26565551757813 2.43844127655029 0.838643074035645 4.60219144821167 -6.35366010665894 -7.35416412353516 8.72223854064941 -8.81396293640137 7.69271850585938 6.58479881286621 -5.3094596862793 -1.00209140777588 6.5537281036377 9.89026832580566 -3.72716522216797 6.84204530715942 -0.737585067749023 9.41105079650879 8.08623504638672 -7.39424180984497 9.86465263366699 2.69500231742859 3.90414428710938 -6.23543930053711 3.85796523094177 -3.93351173400879 9.05751991271973 -9.83022308349609 -3.13333892822266 0.89415168762207 1.5916166305542 -3.23786163330078 5.25932502746582 -2.37733459472656 5.06844520568848 2.28075408935547 7.67406463623047 1.16351985931396 -9.07487106323242 5.73697566986084 7.62925338745117 4.29987144470215 1.62646389007568 -0.123194694519043 3.15483069419861 -8.50368881225586 5.39557647705078 -8.2202320098877 5.61933708190918 -9.98482131958008 6.83864164352417 -5.17287063598633 3.59840369224548 6.11909103393555 2.22884750366211 4.876389503479 2.13311576843262 6.25776052474976 -5.0063304901123 7.10060548782349 9.38018989562988 -1.06833839416504 3.82800817489624 9.05600357055664 5.12617826461792 3.14238309860229 6.82794332504272 6.92437171936035 0.90190315246582 -3.72595691680908 6.68652296066284 3.20153212547302 -6.06983613967896 -5.83452033996582 -7.44555473327637 -1.4661226272583 0.0631322860717773 0.829795837402344 -3.61134624481201 6.5659236907959 6.87038850784302 4.34583187103271 -0.802398681640625 -4.87548923492432 -4.83059501647949 4.09455299377441 8.11928749084473 8.93689918518066 -3.93295669555664 7.81868696212769 -3.48905944824219 9.88979530334473 6.79074048995972 3.63472175598145 9.6296329498291 -7.52352905273438 -2.50651741027832 9.36127662658691 -5.44042110443115 -7.78569221496582 -1.04393577575684 -9.05521583557129 0.717154502868652 8.51853561401367 -3.50823974609375 6.3667106628418 -0.673771858215332 -1.11646747589111 -2.45889091491699 7.7793025970459 -4.53339195251465 7.01888084411621 5.60400199890137 -3.84133911132813 7.29203224182129 -8.7911205291748 -8.10527038574219 -4.76971054077148 -8.12786865234375 6.1202597618103 -0.0717582702636719 -2.36016845703125 2.376953125 -1.66676139831543 -8.07676315307617 4.76332426071167 -1.23472595214844 -3.24945831298828 2.07211399078369 -0.654994010925293 -3.27059650421143 3.44998550415039 4.21875190734863 -0.582653045654297 2.62650680541992 8.60166931152344 0.204964637756348 -3.27124691009521 3.17377805709839 9.61626815795898 -4.2205867767334 0.825170516967773 -8.6124439239502 -0.300692558288574 0.278324127197266 0.599490165710449 -2.14275932312012 0.569209098815918 3.35306620597839 3.82074117660522 -4.88802337646484 -5.42904376983643 -5.23300647735596 -1.63127994537354 -9.29229927062988 -7.71341514587402 9.27608013153076 9.20470714569092 -3.55681037902832 -6.29685926437378 8.13436508178711 9.63006019592285 8.59236526489258 6.33665800094604 -5.58895111083984 7.16804265975952 6.52752876281738 -7.08992433547974 8.35701179504395 -1.47886371612549 9.14435386657715 -4.90584754943848 -5.23731994628906 9.2535400390625 4.08425092697144 -4.09605407714844 -2.16862773895264 7.48723554611206 -3.34324264526367 -1.31156063079834 6.88674926757813 1.78650760650635 -8.1402759552002 0.63846492767334 2.82326889038086 -3.46630668640137 5.04766654968262 -0.103296279907227 -6.21122550964355 3.92587423324585 -5.28584480285645 -6.96541786193848 -2.49562835693359 1.52865982055664 0.676173210144043 -3.58402347564697 4.50682640075684 0.460895538330078 -3.46587562561035 -9.31291580200195 2.27759265899658 4.72457885742188 3.80760383605957 0.674175262451172 4.57832098007202 5.57573795318604 4.57518768310547 4.64876651763916 -3.23301696777344 -9.42445373535156 -2.03928375244141 9.39500617980957 2.42998027801514 -2.96253776550293 0.998257637023926 -7.09991025924683 5.64237117767334 1.50101089477539 3.51177191734314 8.21491241455078 3.78110861778259 4.63209629058838 6.67624473571777 7.99783277511597 -9.07932090759277 7.95208692550659 4.63345289230347 9.9547119140625 9.12187957763672 -1.58666706085205 -4.06203365325928 -0.222412109375 -8.31754493713379 4.65143394470215 -1.26041507720947 2.89839935302734 4.56895065307617 -5.10439872741699 9.37673950195313 -9.2497615814209 -4.22958469390869 -4.33739566802979 2.34690761566162 -3.33628082275391 5.93719005584717 -8.44667625427246 -6.88604354858398 2.34248733520508 6.48340940475464 -5.90511512756348 -1.26572036743164 8.55593872070313 -8.45577049255371 -1.00237464904785 -9.67942047119141 -2.45695972442627 5.1760458946228 -0.543561935424805 9.93043422698975 -6.6428394317627 4.10344314575195 0.645352363586426 7.8228874206543 -9.07469177246094 -6.99026536941528 8.04251480102539 -2.63521575927734 2.97790288925171 -4.77426910400391 0.618762016296387 7.00728607177734 -4.45108795166016 -7.98717069625854 -4.64027786254883 -4.56533050537109 -4.48997592926025 5.33626556396484 4.90091323852539 5.66288709640503 -1.38599967956543 0.974191665649414 2.25204563140869 5.59944868087769 -7.40036773681641 3.63903498649597 2.28783988952637 2.67845129966736 0.534220695495605 -9.96969223022461 9.73077583312988 -2.50137901306152 -5.43022155761719 5.75568675994873 -1.02358245849609 0.0272712707519531 -4.5354118347168 1.80503463745117 -4.77015399932861 -2.25580787658691 9.9153995513916 -7.8648567199707 -3.73141670227051 6.73240232467651 -5.13665962219238 -4.04476261138916 8.33923530578613 2.26461982727051 -2.09772682189941 -1.92463302612305 5.60775947570801 -1.0316858291626 7.72266817092896 -6.96249008178711 -6.64181184768677 1.39177703857422 -1.85691261291504 9.63900566101074 -8.00059509277344 -1.26709842681885 3.06866407394409 -9.1982364654541 6.11735343933105 -6.38794136047363 -5.24670791625977 1.74854850769043 5.79393863677979 -1.16296672821045 2.81158638000488 0.550040245056152 2.82685732841492 -9.2174186706543 4.03154373168945 -8.93449592590332 -9.43511009216309 4.91893768310547 -0.671115875244141 -3.4144172668457 -5.16129970550537 6.93951368331909 7.78825330734253 6.0767765045166 -3.21791076660156 -9.35230445861816 2.73311114311218 4.1168327331543 -9.84025764465332 -6.4244556427002 4.82017993927002 -2.62916469573975 8.2513599395752 -9.72270774841309 2.66622304916382 -1.72235584259033 -1.00170230865479 2.72751045227051 -5.92568588256836 5.09917020797729 -5.73738098144531 -9.23923492431641 -2.64478778839111 -0.545888900756836 3.11304807662964 9.26905059814453 6.29718017578125 -7.71655607223511 3.76141309738159 2.03082466125488 -9.88269424438477 1.5062198638916 8.89702987670898 6.4566969871521 5.00289678573608 4.09602355957031 -0.23314380645752 8.04958534240723 0.817688941955566 6.09430074691772 -1.23696422576904 0.0427999496459961 -1.48486995697021 6.04497909545898 2.10352516174316 7.2107081413269 -2.87940883636475 7.72052335739136 2.9122371673584 -6.10672426223755 -4.48423290252686 0.0760831832885742 -7.14427185058594 -9.67597579956055 1.93164920806885 -2.94571495056152 1.14239311218262 0.508760452270508 -7.61936616897583 -3.91225719451904 -3.66129302978516 5.46108436584473 -7.6907901763916 9.7478141784668 9.52728080749512 8.12478542327881 2.69980192184448 1.92721462249756 -0.875421524047852 9.33267593383789 4.57634687423706 7.11572647094727 4.11874294281006 -6.64536476135254 -5.51299571990967 7.44885444641113 -8.76119613647461 -6.14888381958008 -3.95547294616699 5.55377721786499 3.01460456848145 -7.94964981079102 3.23068809509277 -8.36036682128906 -0.672574996948242 7.20238161087036 -1.0408821105957 -0.65250301361084 4.8042106628418 -2.10473442077637 -2.79215908050537 9.42391395568848 0.058659553527832 8.38545227050781 -5.21283626556396 0.173238754272461 4.05931949615479 -1.84894943237305 6.61500692367554 7.65269041061401 5.82502555847168 -0.322285652160645 8.63714218139648 -6.51726198196411 -1.0768404006958 7.50882339477539 7.76338148117065 -2.21925640106201 4.77353811264038 -6.60625457763672 -6.92251396179199 8.09006118774414 -1.67739295959473 -8.09354019165039 4.32235908508301 0.963486671447754 9.73716259002686 3.86449313163757 -7.099609375 6.82381820678711 -4.23787498474121 -5.80005836486816 -0.486498832702637 -4.92945766448975 3.57882261276245 3.88843989372253 6.71866607666016 -0.356525421142578 4.90780830383301 8.25154495239258 -8.00094985961914 -2.10113143920898 -8.45702362060547 -5.54638385772705 9.83177185058594 3.77148604393005 2.70119857788086 9.24375534057617 7.99668502807617 6.37246656417847 5.8946681022644 -3.1914176940918 -7.41507339477539 -5.17916488647461 7.00255155563354 -9.28559112548828 6.55333709716797 2.7853057384491 -9.03646850585938 -1.59052276611328 -2.47204875946045 -4.11094570159912 -3.36990451812744 6.2829442024231 -6.70983123779297 5.78748893737793 1.30720710754395 -8.59909057617188 -4.23817253112793 -7.95445442199707 -2.85809135437012 -6.17536544799805 -6.34904670715332 3.90851950645447 -3.92994976043701 -0.357488632202148 0.827842712402344 -8.48254013061523 6.3067479133606 5.5767822265625 -9.14158248901367 -6.90108823776245 -1.90007591247559 -4.3801965713501 3.4452817440033 8.65476131439209 0.684395790100098 -5.17088890075684 0.498799324035645 3.52640867233276 1.67119598388672 2.6089973449707 4.78487968444824 -7.25361824035645 6.93324613571167 -5.68740653991699 -0.012908935546875 3.91790151596069 7.13409614562988 -6.49205732345581 8.23422622680664 5.60262870788574 -5.81319046020508 -1.32925415039063 6.41605806350708 -9.97426986694336 -7.51196098327637 2.02112579345703 7.19070196151733 7.13670492172241 5.78895568847656 -3.26650047302246 1.42678165435791 -3.63706684112549 5.4387640953064 1.63537883758545 8.8338565826416 -8.67813873291016 -6.74798202514648 6.69946432113647 -1.27121353149414 6.86004638671875 6.85922384262085 6.28927946090698 |
4.31748390197754 9.83497619628906 0.847758293151855 -1.00860023498535 -8.59830856323242 0.234929084777832 5.91935348510742 8.6767749786377 -4.45888614654541 -7.82652854919434 -1.28409290313721 -3.46036052703857 -3.69436168670654 6.21892929077148 -8.78395080566406 -1.60271072387695 -7.21394538879395 -0.446215629577637 1.8982400894165 5.11092662811279 1.81666946411133 -8.38819694519043 -7.4907398223877 -1.47561645507813 2.89674520492554 -3.98936176300049 -9.38967704772949 3.26785278320313 1.53270149230957 -7.25688934326172 -7.82011461257935 -9.54134368896484 2.49750995635986 3.05300688743591 9.73332405090332 1.40251731872559 -9.64381217956543 1.1036548614502 8.35649013519287 -5.53133201599121 0.596848487854004 -8.69456100463867 -2.94272041320801 2.78431391716003 -2.83894157409668 -7.0368766784668 -3.34103965759277 8.91781044006348 -2.93145751953125 2.05998802185059 2.59960150718689 6.46438789367676 -8.91275787353516 4.6535587310791 2.7105233669281 -5.13784217834473 -0.943416595458984 -5.83447265625 -7.39646482467651 2.11294269561768 1.26617050170898 -0.387083053588867 -9.14591217041016 3.96239471435547 4.94610977172852 3.1689281463623 2.76494216918945 -2.01813125610352 -5.09373664855957 9.53454971313477 -4.86806488037109 3.3938262462616 -1.08248138427734 -1.64955997467041 9.37733840942383 -9.27506256103516 5.80116033554077 -3.66407299041748 4.25868511199951 8.84607315063477 5.73582172393799 1.35837173461914 8.3316535949707 -2.50747776031494 -2.10403060913086 -4.82791996002197 -6.70651960372925 7.2128963470459 7.14889717102051 -0.109471321105957 0.582033157348633 -1.10855197906494 5.35816192626953 -4.69952487945557 -6.07800483703613 -3.66762065887451 1.95497417449951 4.33947086334229 -3.6078634262085 -3.16998386383057 -6.98398160934448 5.66170692443848 -1.84425258636475 -6.81435775756836 9.7457160949707 2.64018774032593 5.54584980010986 0.365968704223633 -3.19556331634521 5.69342374801636 2.34723663330078 -2.90407752990723 4.32850074768066 2.02542877197266 -0.518733024597168 0.546950340270996 -6.88941192626953 -2.4527587890625 -2.35307121276855 4.26146697998047 -1.65141201019287 -7.21391487121582 -7.13736009597778 -4.20491600036621 7.22331237792969 -8.02848052978516 8.11127090454102 5.97050857543945 -7.83315467834473 5.58001279830933 1.40232467651367 -4.73984336853027 7.15103578567505 6.9441032409668 8.52298259735107 7.14201927185059 -5.83950996398926 -5.92955112457275 -4.86195659637451 8.87786674499512 8.84077835083008 8.24453735351563 0.0486793518066406 6.50066804885864 7.90963697433472 0.465274810791016 -8.82066917419434 3.15556502342224 -2.72217655181885 -6.54637861251831 -8.7022876739502 1.04115390777588 4.05472755432129 4.74716186523438 7.36523103713989 2.90422892570496 7.5322265625 -0.482817649841309 -6.29850196838379 7.90060997009277 3.36683988571167 -3.97982501983643 -0.792373657226563 6.52707624435425 -1.30261993408203 2.59432768821716 -7.18392181396484 8.85425758361816 -1.774977684021 1.08522510528564 -7.70853233337402 -2.94350719451904 4.79937314987183 -1.73905277252197 5.31873893737793 -5.29840278625488 -4.20150661468506 3.26218104362488 6.72622442245483 -0.790170669555664 -7.94903230667114 -7.41329002380371 -3.91275787353516 3.00771474838257 3.58537173271179 -5.22976112365723 -1.66486644744873 3.3448429107666 8.90450286865234 3.86164426803589 3.18315267562866 8.70728492736816 3.17975497245789 -8.46095085144043 -8.50106430053711 -3.74462985992432 -5.8722448348999 -3.305006980896 0.732549667358398 9.01126670837402 4.89942312240601 -3.99049663543701 2.83578634262085 0.299781799316406 -7.3343391418457 -5.51730346679688 6.30281448364258 8.0445671081543 1.83613395690918 7.41945266723633 -1.19963550567627 9.31241989135742 8.21738719940186 -4.4800386428833 5.86544752120972 7.50064849853516 -4.18143177032471 5.76464653015137 7.46516227722168 -0.0277910232543945 6.41826391220093 0.458039283752441 -8.25773048400879 -5.16833782196045 9.90263938903809 7.05953359603882 -2.75212383270264 -0.876828193664551 -1.76264667510986 6.35264921188354 8.23392677307129 -0.738860130310059 -4.18361759185791 0.916599273681641 -2.6976146697998 -4.38196563720703 2.23326587677002 -2.62527084350586 9.61850643157959 -7.45975685119629 -8.31355285644531 7.71060705184937 -2.27759265899658 5.13321876525879 -3.16274547576904 -6.59664916992188 -8.22460174560547 -1.52395343780518 0.403471946716309 -2.65873336791992 0.365334510803223 6.32991790771484 -8.02861213684082 -3.5310754776001 7.46905326843262 -6.91042900085449 4.65217781066895 -6.28113555908203 0.204216003417969 2.05064868927002 1.97994327545166 3.65987753868103 7.29073286056519 -9.39804267883301 -2.74008846282959 -7.49713468551636 9.77099609375 2.56048655509949 5.62654972076416 -8.95380973815918 3.18937277793884 9.54885673522949 5.10506629943848 3.93535375595093 -6.6483211517334 8.70873928070068 -7.64718246459961 -2.27707767486572 -6.76068830490112 0.735813140869141 0.876570701599121 -8.08585739135742 3.58281588554382 7.31095314025879 6.7196888923645 -6.11583518981934 -9.8221435546875 -6.98066711425781 3.34405398368835 2.96728849411011 8.9661865234375 7.7565975189209 -7.65035200119019 2.5152108669281 -1.77923583984375 -4.97727489471436 2.14438343048096 6.95102453231812 -4.76105117797852 3.43066191673279 6.95933532714844 5.40143203735352 -7.585777759552 3.39673972129822 -1.729172706604 7.69525718688965 3.6636848449707 -4.00925731658936 9.7750358581543 7.40762281417847 -1.87722778320313 8.66862487792969 8.1623477935791 1.38320064544678 8.14483642578125 0.719147682189941 3.69751691818237 -2.32904052734375 -1.92787265777588 1.20469188690186 -1.62818050384521 9.33051109313965 4.6156644821167 -3.52008724212646 1.08359718322754 -2.06968688964844 5.65946769714355 6.75036430358887 -2.33700847625732 9.27718639373779 0.391515731811523 -2.09145927429199 6.51684761047363 9.92207527160645 8.57816696166992 6.86342668533325 -9.214599609375 8.74058151245117 -1.41032791137695 -5.48977851867676 4.85808372497559 0.706707000732422 4.4608736038208 -2.45526218414307 -3.98824310302734 -8.37703514099121 2.69737958908081 -1.95218467712402 -9.39845275878906 6.91016912460327 5.03354549407959 -6.27554702758789 1.54263114929199 9.09396171569824 -6.17361068725586 9.40710067749023 7.15855360031128 -4.32607555389404 4.62196111679077 7.08567094802856 0.0709571838378906 0.447593688964844 4.1066837310791 7.72077560424805 -2.19569301605225 -8.56023597717285 -4.15245914459229 9.06496429443359 -5.81880569458008 -1.40389537811279 -2.14017295837402 -1.83590316772461 -4.5537052154541 6.44197225570679 -0.718432426452637 7.41010236740112 4.91610050201416 -6.82000923156738 7.57635545730591 2.83916926383972 4.12341117858887 2.92296600341797 2.34465980529785 9.94503402709961 -4.17638397216797 0.776639938354492 9.50918579101563 6.67464780807495 6.75641059875488 9.11755561828613 8.03814315795898 9.2129020690918 -4.80376148223877 1.58643341064453 -6.45069122314453 7.3901219367981 7.81373739242554 -3.28754806518555 6.32555961608887 1.60368824005127 5.00656604766846 0.473903656005859 -3.65625762939453 -3.85935688018799 3.42557144165039 -2.90990734100342 -2.38394355773926 -3.74031925201416 -6.5026707649231 -7.97200393676758 7.3031210899353 -8.90608024597168 0.834895133972168 -1.13799476623535 -3.69094467163086 1.690016746521 -9.79690361022949 9.9172306060791 -1.1389102935791 7.24532842636108 |
