9.90948104858398 -0.20509147644043 -5.53303241729736 -9.74546051025391 4.12246704101563 -7.22540330886841 -8.59208297729492 4.83426809310913 6.98257446289063 4.50310468673706 -5.99815559387207 9.38575267791748 0.42225456237793 7.38078832626343 -5.1221866607666 8.55319976806641 -6.60005760192871 -2.10727596282959 -1.96307754516602 4.40836668014526 -8.24078750610352 5.69030523300171 0.51369571685791 1.9929895401001 4.02950286865234 3.98130393028259 -1.77182769775391 -8.16499519348145 0.0918235778808594 -4.09257030487061 -0.110587120056152 -4.95998477935791 -2.46749019622803 0.374869346618652 -0.729536056518555 -6.1995792388916 7.18232870101929 0.24730110168457 3.91322326660156 0.723834991455078 0.967522621154785 0.26859188079834 7.31451034545898 8.26081085205078 -2.86221885681152 6.46673202514648 -6.72759580612183 -8.95913314819336 -7.40545272827148 2.06848526000977 -8.93750190734863 -5.9550838470459 8.10956954956055 -0.871862411499023 -0.913442611694336 7.6175708770752 -9.71828460693359 7.58973836898804 -9.3134651184082 -6.03590774536133 -4.46507358551025 -9.81488800048828 -0.707560539245605 2.10195636749268 -7.14945268630981 -2.70967864990234 4.60731506347656 -3.43278789520264 -8.14048385620117 -9.37242126464844 1.90587615966797 -1.56770801544189 -3.16932106018066 -1.90742874145508 5.94435691833496 0.908413887023926 -3.36398506164551 2.28974437713623 3.10261487960815 -9.20381736755371 9.93147659301758 -0.938373565673828 2.06922626495361 2.77706599235535 2.27434539794922 -5.99590301513672 5.69588422775269 6.06996059417725 0.255474090576172 5.32932043075562 -2.47092342376709 5.14150381088257 6.80677175521851 -2.75979614257813 -5.28305244445801 0.89537239074707 -2.59581661224365 6.08533620834351 2.92761564254761 -2.13369464874268 -4.7618522644043 6.81990098953247 6.4734034538269 4.29353904724121 -2.41963291168213 5.2691125869751 2.1812858581543 -3.94245719909668 1.80828475952148 -1.98915863037109 4.03429985046387 7.32694387435913 -2.69716358184814 -0.496197700500488 -2.49853706359863 -3.27204132080078 -3.69356250762939 2.98117136955261 -7.09889602661133 -2.82350635528564 4.19893026351929 -7.11399269104004 4.78990745544434 4.47744131088257 -0.00914669036865234 3.62757873535156 -0.136417388916016 -9.08901405334473 -1.63066291809082 -4.74504375457764 -2.83640480041504 -1.98843860626221 -0.250683784484863 7.69283056259155 -3.39885139465332 3.08716535568237 7.35192823410034 7.57551908493042 8.98502159118652 3.69062185287476 7.5367259979248 -1.83741664886475 -0.825201034545898 9.1785192489624 -6.36573362350464 9.17599105834961 0.295018196105957 -6.2545223236084 4.47441816329956 9.39670372009277 3.47959280014038 -6.12423896789551 4.24669456481934 -4.60599517822266 6.26474571228027 2.86213111877441 -4.59203624725342 -0.418625831604004 6.58966064453125 1.98559856414795 -2.4758186340332 2.45638465881348 2.72937750816345 6.42083168029785 5.27775001525879 0.116790771484375 5.66522359848022 6.11271286010742 -3.57609367370605 -4.17083358764648 -6.7495231628418 -5.19052982330322 -4.61106395721436 3.34281897544861 4.60190534591675 1.34799861907959 -4.71904850006104 7.21992492675781 -4.76309680938721 9.14089393615723 1.24352359771729 -0.554470062255859 7.63526678085327 -8.33498191833496 7.52262115478516 -3.89210796356201 5.81656455993652 4.77033805847168 1.64529418945313 3.48273468017578 -2.48250102996826 2.05895805358887 1.32540321350098 3.87669324874878 5.75439929962158 4.43369626998901 -7.68854331970215 9.87097930908203 6.11494445800781 -0.34009838104248 -0.00355625152587891 -3.3334436416626 1.58503913879395 -4.52561950683594 1.62192440032959 -7.45223045349121 1.32301425933838 -5.58428287506104 -2.71827793121338 1.95375347137451 2.03414535522461 -2.58421802520752 4.45109367370605 -8.8156681060791 -8.66293907165527 -8.61476898193359 -0.9609375 3.38484954833984 9.9091625213623 2.77930974960327 7.30422019958496 -6.33444786071777 2.79783701896667 -6.89936828613281 6.58751249313354 -7.22022819519043 6.64971113204956 5.39694786071777 -1.67735481262207 -6.99180603027344 -4.0938720703125 -4.11822414398193 9.18980026245117 1.95604705810547 -2.06548118591309 -0.169590950012207 0.593408584594727 -1.10685443878174 6.46631956100464 -1.35830307006836 2.30935668945313 -2.19868278503418 -8.65004539489746 1.28918266296387 -2.60109519958496 -7.94931602478027 6.96893453598022 3.53370428085327 8.24317169189453 -1.86647987365723 4.93762016296387 -7.75801658630371 2.58480048179626 -6.10694456100464 -7.77901649475098 -3.73556232452393 -5.40853500366211 -1.83264636993408 4.87392425537109 1.57935047149658 4.32708740234375 8.5694580078125 -6.13278198242188 -5.38631248474121 1.58081912994385 -4.46184253692627 -2.52315139770508 -3.75389671325684 -8.23628616333008 -4.04284572601318 -3.27887630462646 4.75200176239014 8.31851005554199 3.63047099113464 9.54947662353516 0.861035346984863 0.694831848144531 9.32314872741699 -2.67630958557129 3.6517596244812 -0.904759407043457 3.26533508300781 -4.47018527984619 1.46059608459473 1.61015892028809 -5.21037578582764 -2.71328353881836 -8.72177314758301 -5.94571590423584 -5.25098037719727 -1.86659908294678 2.29582691192627 5.87737560272217 5.64358234405518 0.752821922302246 -2.90835952758789 7.51219749450684 -9.84228897094727 3.19339728355408 -6.6113452911377 -1.07705020904541 -8.95755004882813 2.25262546539307 2.18380832672119 5.29459714889526 -3.8266716003418 9.04465675354004 1.79689788818359 -4.95033359527588 -3.76279926300049 2.1758975982666 -4.92354774475098 7.17287063598633 9.2667236328125 7.17226219177246 2.77396655082703 -9.81249046325684 -2.5514612197876 2.93740034103394 -0.90577507019043 6.11760854721069 -9.13482475280762 5.22405815124512 7.45028257369995 -1.50092697143555 9.49146461486816 -7.18128395080566 -4.38236618041992 2.50457954406738 7.13303565979004 -5.77834129333496 -1.36818504333496 -1.52211284637451 4.09002304077148 2.61248564720154 2.98922991752625 3.13362574577332 -7.1488995552063 -6.35402679443359 -9.0859203338623 8.1993522644043 -7.7704029083252 -6.15155744552612 -4.35150527954102 -1.88625907897949 8.72900390625 -7.15398025512695 5.37198781967163 1.51467704772949 6.58899307250977 -2.58561992645264 0.510477066040039 -3.74599838256836 -7.07098007202148 5.25666952133179 -4.15390872955322 6.48874282836914 -9.59851455688477 -7.44327974319458 -2.39952659606934 -9.39982414245605 -0.926280975341797 -0.967284202575684 -8.41804122924805 6.92209243774414 5.23027181625366 7.41072130203247 7.12711095809937 7.87717580795288 -7.79537200927734 5.81427335739136 6.45432233810425 -1.14503955841064 -7.7697868347168 -1.88380813598633 -2.77672672271729 -3.69832420349121 -8.8390007019043 -1.99225997924805 -2.72833251953125 -6.54607343673706 -4.61006259918213 -9.13983917236328 -9.17956924438477 3.26085543632507 7.75135469436646 4.26541328430176 -5.37777709960938 5.58974027633667 1.54599094390869 -8.81410217285156 -2.45209312438965 1.89109897613525 3.76774287223816 -6.33724021911621 -6.40526008605957 -8.90026092529297 5.41047096252441 -3.07617092132568 -4.02453327178955 7.72464513778687 7.76587677001953 -5.33285903930664 1.34673023223877 -5.08404922485352 -1.75449275970459 -1.04609870910645 2.36984157562256 -1.52716541290283 6.08970832824707 6.55149459838867 1.83471775054932 -6.44381713867188 3.45642066001892 -9.39884185791016 0.2750244140625 7.82066345214844 -7.75604438781738 6.60965394973755 8.45415306091309 -7.58401107788086 -0.525459289550781 5.37190198898315 -0.774663925170898 3.99116492271423 5.41372060775757 -0.445331573486328 3.91422033309937 -5.86754322052002 2.85093760490417 -7.03957557678223 0.65611457824707 8.16332244873047 -3.51917362213135 -6.19109344482422 -3.22303867340088 8.70674896240234 0.513931274414063 -3.39938545227051 8.64664268493652 9.43274307250977 -2.31510543823242 -8.70364379882813 2.03223133087158 -2.65037155151367 -1.56100368499756 -6.7097430229187 -7.88054275512695 2.0203104019165 4.65371322631836 6.04169082641602 -3.42818641662598 9.35136318206787 -1.9965705871582 2.97527074813843 7.54173040390015 2.7411744594574 -4.40208530426025 7.6088924407959 -5.27157974243164 -1.83059787750244 -0.492986679077148 -3.93836879730225 -7.06305694580078 -4.53054046630859 7.33652305603027 -8.47219276428223 1.93355464935303 -4.96371841430664 8.3397274017334 9.44092178344727 2.87323451042175 -7.32193422317505 -6.94779920578003 8.59255599975586 -3.07981109619141 -6.48065996170044 6.58035707473755 -6.85238075256348 2.78618311882019 -2.76604557037354 -0.970014572143555 -5.66717147827148 5.78251361846924 -8.99205780029297 6.88705015182495 -3.25987434387207 -3.62587833404541 8.42535018920898 -7.19278335571289 -9.09365844726563 -1.00417232513428 1.85363864898682 -2.13679885864258 -9.2983455657959 3.02393412590027 9.63446044921875 0.754918098449707 4.12591695785522 7.18086671829224 -6.61677551269531 5.35530567169189 -7.19128799438477 1.3766918182373 8.71189308166504 -5.58435916900635 7.53271293640137 -4.48162937164307 3.3449912071228 -1.79670429229736 2.68938994407654 -0.43549633026123 2.84728503227234 9.32239532470703 -7.00633573532104 -1.90120124816895 -8.51032638549805 0.137802124023438 -3.97566890716553 -3.78625965118408 -7.97420072555542 -7.1171875 -6.45461273193359 3.3227870464325 -5.15360641479492 2.26099395751953 7.86605072021484 8.14252090454102 -6.48371696472168 -6.61382675170898 -5.9731912612915 -8.37491607666016 4.58494663238525 1.54389953613281 -9.65981674194336 4.55475044250488 -2.69242668151855 -9.78664588928223 -4.40424346923828 -6.07981872558594 2.35990905761719 6.46144437789917 4.93698596954346 5.10429573059082 -9.78199005126953 -0.085658073425293 -9.69442176818848 8.89847946166992 7.0690770149231 -9.03768539428711 -1.21255302429199 0.939020156860352 1.79221725463867 -6.51409149169922 -2.34378242492676 9.41525650024414 -8.69962310791016 7.25342750549316 6.61183547973633 -2.68071269989014 3.87371516227722 -8.79006958007813 2.60179972648621 6.44249153137207 -6.42438697814941 -0.643328666687012 -8.99761390686035 -8.21540069580078 -0.501655578613281 -8.23810768127441 6.81267929077148 4.40547704696655 4.56329107284546 -2.22983455657959 8.30318450927734 -6.22480201721191 -0.451565742492676 -1.73918151855469 8.73425483703613 4.10713911056519 -8.18180847167969 5.87826728820801 -0.438791275024414 -4.60995101928711 -2.46285820007324 8.08353233337402 1.96204090118408 6.68263626098633 4.52036094665527 5.34982442855835 -9.32949066162109 3.81872153282166 -1.73603630065918 -4.06427478790283 -9.5333137512207 3.82684469223022 2.86757659912109 -2.77102565765381 -1.44602870941162 -2.83441162109375 7.57354307174683 2.19996547698975 -1.10025501251221 -1.83755302429199 8.36396980285645 -6.55645561218262 -8.15412521362305 9.60245513916016 5.47413063049316 9.99553203582764 2.88173174858093 -1.95227241516113 -8.2424259185791 -7.73092460632324 -4.88150215148926 3.95197629928589 -1.34546852111816 -5.07839679718018 -4.88821601867676 -2.93856048583984 7.15086698532104 -2.78274154663086 6.13146209716797 9.78246212005615 4.91955947875977 -5.72208213806152 6.02411651611328 0.324336051940918 -3.90719509124756 -3.11593627929688 -3.62024402618408 4.80046033859253 3.99912810325623 -7.49250411987305 -4.31234741210938 -6.44249391555786 0.16964054107666 -4.42650890350342 -0.948428153991699 -2.19993019104004 -6.78430986404419 -4.2155179977417 9.35947227478027 9.21379089355469 1.23586082458496 -8.88623237609863 6.24646186828613 6.51849937438965 1.24586009979248 -4.89130878448486 3.97474050521851 8.80780696868896 4.45357322692871 -5.83587455749512 -1.6866979598999 -2.2193489074707 7.08928108215332 -9.79818725585938 3.97144079208374 2.70672035217285 0.395797729492188 -2.08100700378418 -7.23144721984863 4.87814140319824 2.01289558410645 -0.886136054992676 -6.29293632507324 8.71113586425781 0.787238121032715 -2.9081449508667 6.35486602783203 9.38390731811523 7.72964906692505 7.57360649108887 0.170854568481445 -8.32808685302734 -6.34608268737793 -1.95708847045898 2.80102491378784 0.586184501647949 -9.59480667114258 -7.64188575744629 2.14973545074463 5.69645404815674 9.01131629943848 8.33396434783936 9.19549751281738 0.294881820678711 5.21147489547729 1.03592491149902 -0.486139297485352 -9.16053009033203 6.87287521362305 -4.3737850189209 -5.88718605041504 3.51100897789001 0.350557327270508 -7.65975761413574 -8.08353042602539 0.291165351867676 -7.41020202636719 -3.09500122070313 0.225652694702148 -4.56892871856689 -8.38942527770996 -8.20742416381836 8.73725891113281 -4.88696956634521 4.7118616104126 -0.434645652770996 6.41734313964844 -4.01088809967041 -6.35224866867065 7.95278739929199 -1.3311014175415 3.1681010723114 -1.00253486633301 -6.50100898742676 -5.76265811920166 5.21137714385986 -0.270734786987305 1.94072341918945 6.98591423034668 4.96456623077393 8.74358367919922 -9.37950134277344 6.44999265670776 -3.52253818511963 -2.23299121856689 8.52237510681152 4.58540678024292 -5.10746479034424 1.53236484527588 -7.0282096862793 4.70092010498047 -1.60056686401367 9.08763694763184 -5.10406303405762 -9.63913917541504 -9.42538452148438 -9.09968566894531 9.0230770111084 1.46523380279541 4.49210166931152 -0.79830265045166 7.3507137298584 -0.991416931152344 2.95487856864929 1.40486621856689 -9.37441253662109 3.65648245811462 -8.16845321655273 -0.913528442382813 -2.17189693450928 -6.83900833129883 -0.520068168640137 0.178247451782227 -8.62057685852051 -8.37099075317383 -8.53201293945313 -6.02196168899536 -1.11159706115723 -8.71504211425781 -7.91182708740234 6.93885564804077 -6.99465751647949 4.28088903427124 -1.12063312530518 1.54739952087402 8.62286567687988 -1.12388229370117 -0.539154052734375 -0.530425071716309 0.192507743835449 -0.213318824768066 3.16606020927429 9.87848663330078 -0.129533767700195 -9.00520324707031 -1.09662628173828 6.74701881408691 -0.724839210510254 -0.469966888427734 -1.61809062957764 -2.10608386993408 1.08678245544434 8.32908153533936 -1.06471157073975 3.9888072013855 2.14029216766357 4.76967573165894 -2.04839134216309 -9.36188125610352 4.81427383422852 -0.901993751525879 2.92794680595398 4.20304298400879 -8.33037376403809 -0.84624195098877 4.24512100219727 -8.09153366088867 -1.83381938934326 -1.49099254608154 8.66910743713379 -8.54453086853027 7.48735857009888 -0.576480865478516 -6.29916381835938 -3.46377754211426 2.8534197807312 -8.41612243652344 -4.70492267608643 -3.48022079467773 8.73049545288086 -2.90003204345703 0.947999000549316 -3.31527805328369 -2.80302143096924 6.40175819396973 0.340279579162598 -0.0917348861694336 -2.73322200775146 -6.20532560348511 -5.18283843994141 -1.19821929931641 -9.78161811828613 5.85403633117676 7.73605346679688 -3.92493152618408 -7.20978212356567 0.605841636657715 -4.23086547851563 8.82965278625488 5.45894145965576 6.44430875778198 4.33111906051636 2.94392776489258 -3.55422115325928 1.04752922058105 1.60677051544189 -5.72577285766602 -1.30425834655762 4.26132917404175 -2.92457962036133 -3.61157512664795 -8.35474967956543 -0.43974494934082 3.9017961025238 -8.59535598754883 7.32462882995605 -9.97042846679688 -6.5051097869873 -7.24391746520996 9.99933242797852 -4.86578845977783 -4.62965393066406 -7.28409004211426 2.60840392112732 0.568031311035156 -8.26984786987305 -3.02811050415039 -8.09261703491211 2.89584136009216 -5.32922267913818 -7.13276338577271 -5.98094940185547 4.67491149902344 -5.48252868652344 -7.40265321731567 7.0229434967041 -1.17636299133301 1.91084289550781 -1.84683227539063 -6.22478914260864 0.173453330993652 9.60658073425293 2.21247577667236 4.01707410812378 2.73381686210632 -6.03420257568359 -7.17891883850098 -5.50232696533203 -4.89316082000732 -7.76311683654785 -7.7585072517395 -0.837942123413086 9.30767440795898 -3.89757061004639 4.63830471038818 -9.94869422912598 -6.06052398681641 -7.23712491989136 -8.19048690795898 -8.81534576416016 -4.20791244506836 3.01986455917358 -9.563232421875 -7.20079231262207 -6.59438133239746 3.23249053955078 8.5758228302002 5.09278059005737 8.00432014465332 9.24283027648926 -3.41500854492188 4.54647541046143 7.22530794143677 -4.86440753936768 -6.22817802429199 3.78110122680664 -8.65799903869629 7.69248008728027 -3.04101848602295 5.43990325927734 -8.42827606201172 -7.28915405273438 8.66727828979492 5.89352369308472 7.76654243469238 -3.87365245819092 -3.69492435455322 -3.41099834442139 5.12967824935913 1.59736728668213 3.34608268737793 -8.53241729736328 -2.67911529541016 -1.09992408752441 -1.59385585784912 4.29485511779785 -0.540295600891113 -7.1258544921875 -5.63257026672363 2.12894821166992 7.10245847702026 3.08492159843445 0.79588508605957 0.540724754333496 -8.12058258056641 3.85667991638184 8.05902862548828 -1.41591644287109 3.54853391647339 9.6682014465332 -5.58453750610352 -4.25201797485352 -9.10148239135742 9.50743865966797 8.4094762802124 3.45339751243591 2.24194622039795 -4.00467300415039 4.90227460861206 -6.3146800994873 -9.84577369689941 2.50478935241699 -3.76069927215576 4.98726606369019 2.28337669372559 2.5375862121582 -5.5075855255127 -5.36555767059326 0.584884643554688 -9.68498229980469 -5.20111083984375 0.838736534118652 7.87397575378418 -3.86347389221191 -5.57533264160156 6.29523801803589 0.102795600891113 8.64204406738281 -8.59148216247559 -1.15311050415039 -8.37176132202148 -3.23018169403076 -8.36317825317383 8.6388111114502 -1.51829624176025 -2.19555473327637 8.82230949401855 -6.63154172897339 -3.30466365814209 1.86017608642578 -8.90505218505859 4.05700206756592 -2.05298519134521 -8.76895141601563 -3.00009822845459 -3.32202339172363 0.960024833679199 -7.22190093994141 8.40568923950195 0.0985136032104492 -7.69114685058594 5.88503360748291 -9.09889221191406 3.92122721672058 -3.36732769012451 1.34796524047852 7.63506889343262 -9.59214401245117 -9.98888397216797 -2.05037975311279 -8.14081382751465 -1.50608444213867 2.95485472679138 9.0566234588623 -1.63513278961182 -4.31351566314697 -3.23050117492676 -2.42099857330322 -8.98013877868652 -8.65337753295898 3.87414693832397 -7.56237983703613 -3.94800758361816 -0.750984191894531 -0.100527763366699 -2.59651565551758 3.35985898971558 6.52240943908691 -4.49099922180176 9.59819602966309 -8.91766548156738 4.89186763763428 1.44369697570801 7.14422225952148 0.287924766540527 -3.896559715271 0.449114799499512 -2.26708030700684 -1.14591693878174 7.02104759216309 -1.75824737548828 1.01101016998291 -0.216878890991211 -7.15996551513672 0.0950393676757813 5.14320850372314 2.1032247543335 -5.26559352874756 -4.45704555511475 -7.38703918457031 7.232666015625 -0.90262508392334 -2.47661209106445 -6.67796659469604 -4.64810943603516 1.32951831817627 6.04330444335938 -5.01330852508545 7.15673446655273 -3.07207202911377 5.96640110015869 4.6893572807312 6.93432998657227 2.74827933311462 9.51741409301758 -0.548044204711914 9.9659366607666 8.36384201049805 8.19577693939209 -7.82928657531738 -0.384555816650391 0.519789695739746 -4.76578140258789 9.97127342224121 7.52942800521851 -6.67447280883789 6.80690765380859 -1.75309276580811 5.10588836669922 -9.1484546661377 -7.82532691955566 -1.01982498168945 -8.5657901763916 -1.84114837646484 6.79085206985474 -9.05293464660645 0.654071807861328 -3.87607669830322 7.20612525939941 7.74630308151245 -6.23514938354492 -7.44005393981934 8.27478408813477 9.90182876586914 4.87128019332886 0.537976264953613 4.28218603134155 -4.83737373352051 -6.98008012771606 -4.7452507019043 -1.19252300262451 -6.13906097412109 2.55047559738159 2.851886510849 -9.75870323181152 8.84254264831543 7.51874685287476 3.0710620880127 9.0372314453125 1.86647510528564 -2.21634292602539 1.33787250518799 -2.4457893371582 -1.06233024597168 7.77325820922852 6.21145963668823 0.540276527404785 -3.33189392089844 3.39752173423767 3.39906883239746 -3.4592809677124 8.83028411865234 1.08495807647705 5.27114629745483 -4.02997589111328 3.6852855682373 5.53900909423828 4.55930233001709 4.88868236541748 -2.20658206939697 -9.20016860961914 -1.84164619445801 -1.00870037078857 7.60979843139648 -6.8990306854248 -7.91618537902832 -9.62098693847656 -1.63087272644043 -1.63213157653809 -1.71815299987793 8.78951549530029 9.57580757141113 -0.178338050842285 -3.08645820617676 -1.95746803283691 -9.44688415527344 5.60020923614502 -9.75862503051758 4.14990901947021 -4.20259094238281 2.81575393676758 -9.68198394775391 4.38552856445313 -8.95139694213867 0.848346710205078 -0.24424934387207 3.71354293823242 -4.36250782012939 7.21433639526367 -3.81797695159912 -3.42513179779053 -7.70154523849487 -2.88480663299561 4.01846647262573 -6.92067909240723 8.73955726623535 3.95560240745544 -9.00395965576172 -6.55229377746582 4.13782596588135 7.99344778060913 -0.495580673217773 -2.26365184783936 -9.80533599853516 -0.605636596679688 5.71237564086914 9.44140625 -7.78192090988159 -2.55713844299316 2.81425666809082 4.93300914764404 0.0746002197265625 -7.27529954910278 -1.76841354370117 5.24389266967773 -6.61493492126465 -9.1596508026123 -8.42928886413574 6.75091505050659 -6.49456787109375 -3.16910648345947 0.229090690612793 7.74421453475952 -2.20100975036621 4.32565689086914 -9.841796875 -3.65296745300293 -4.92701435089111 4.35266494750977 7.32098579406738 -8.61519622802734 -5.38610458374023 -7.42849349975586 -4.51371097564697 1.92823028564453 1.35244274139404 -2.31516742706299 -4.36918830871582 8.9137077331543 -4.53641986846924 0.737949371337891 8.73250484466553 8.25641632080078 -9.52270889282227 8.41735649108887 -4.47179412841797 3.21192502975464 3.45132064819336 8.55375671386719 7.91958045959473 9.89448070526123 1.95684337615967 -0.234626770019531 2.00052642822266 -6.71260643005371 -6.04191589355469 1.77455997467041 -6.80690336227417 4.87736892700195 9.64544677734375 7.81126737594604 -9.54815292358398 -3.43171501159668 1.37405967712402 7.48305320739746 8.40540885925293 -3.91658401489258 3.63039946556091 9.11674880981445 4.45286273956299 -4.79649639129639 3.83905386924744 -4.46626091003418 9.40673828125 -9.46435737609863 5.15896034240723 -0.341959953308105 8.66401672363281 9.79040908813477 9.44524574279785 -1.46373176574707 -2.60656452178955 1.81241893768311 -3.79906558990479 1.83005428314209 -9.53984260559082 -6.28433990478516 -2.37866497039795 -9.69490051269531 5.61320066452026 -5.79592895507813 -8.21590042114258 0.547045707702637 6.89868688583374 9.36884117126465 -9.80291175842285 8.78036880493164 2.21714401245117 9.10252380371094 7.62766313552856 6.40688133239746 -7.36264419555664 -6.43429565429688 3.61871910095215 -2.6526346206665 2.91640472412109 7.50264883041382 8.04359436035156 -1.23336887359619 8.87640380859375 3.77732253074646 -9.21714401245117 -7.73172187805176 -4.82776260375977 0.866865158081055 -5.53151607513428 2.41690540313721 -7.01879930496216 5.94910383224487 5.00075101852417 -4.55328559875488 7.24454116821289 -6.52511787414551 -5.85433769226074 -3.89193630218506 9.13504028320313 -6.11443710327148 4.54547643661499 7.50404119491577 -0.165480613708496 4.45968151092529 -9.67802047729492 -4.02357196807861 -8.36371421813965 -7.56855773925781 -2.40025424957275 6.40235471725464 2.96450591087341 8.19796752929688 -2.02245140075684 -0.99168872833252 -3.35594749450684 -8.23111534118652 8.41375160217285 -2.37978076934814 5.57950735092163 1.77607440948486 -7.72519636154175 -8.0584545135498 -5.04191875457764 -6.62416458129883 -5.75761795043945 -9.20078659057617 9.99439430236816 9.67547225952148 -5.27451515197754 -1.45585155487061 2.75046539306641 -2.46633625030518 7.8268928527832 -5.28892517089844 -4.0829029083252 6.22969055175781 4.72221851348877 1.97569751739502 0.496543884277344 3.14714884757996 7.50020551681519 -8.27290725708008 -6.5044002532959 7.38964509963989 -7.7941746711731 -1.92360305786133 4.94043827056885 -2.89232349395752 -7.71290588378906 3.25665926933289 7.76731491088867 7.38150787353516 5.30498695373535 -3.45412826538086 8.22431945800781 3.89362788200378 6.08691930770874 1.58197498321533 5.17110347747803 6.08176422119141 -7.23782348632813 3.6452100276947 -6.59502220153809 1.60389518737793 5.21592330932617 -9.02817726135254 -4.7606315612793 -1.63998508453369 -6.69328689575195 -1.61527252197266 6.28082036972046 -8.67551612854004 1.14532089233398 1.68081665039063 -6.79982376098633 -1.47036170959473 1.0733757019043 -7.72861289978027 -5.08979988098145 -2.60551357269287 -0.892633438110352 -6.55334043502808 3.35787963867188 6.40648603439331 -5.83590698242188 9.19806289672852 7.01302528381348 0.0909700393676758 -1.39173126220703 7.27389526367188 4.77443695068359 4.79871273040771 4.67784881591797 1.6592845916748 -0.0253543853759766 5.18504858016968 -5.48472881317139 -2.8422679901123 4.47670936584473 9.91573143005371 -0.995479583740234 -5.09284019470215 7.84389066696167 -9.38133430480957 2.72094917297363 3.51989507675171 8.55187892913818 -0.0687065124511719 -2.58894824981689 1.16317367553711 -3.16034412384033 -9.77728843688965 -4.23627471923828 4.87050533294678 2.71187019348145 -6.03106307983398 4.66897010803223 1.55172729492188 -2.08851718902588 -9.56961059570313 -7.42520523071289 4.45145130157471 -4.83828639984131 6.78567886352539 -1.0762300491333 -7.75703430175781 4.48842525482178 9.44945335388184 -9.5221061706543 0.330940246582031 6.72702360153198 0.483926773071289 8.15345764160156 -6.76811647415161 -1.8972692489624 2.13672542572021 2.02612018585205 8.49237442016602 3.19480657577515 -0.935648918151855 -9.32478141784668 7.51336812973022 -3.86248683929443 -4.6568021774292 -2.53042793273926 -9.3409252166748 0.22403621673584 -4.5877799987793 4.31122303009033 7.05203771591187 -2.95571231842041 -4.91091632843018 -5.32647895812988 -9.39578819274902 -5.04360389709473 8.07796287536621 3.17020392417908 3.80933523178101 -5.71966934204102 0.751565933227539 -1.49192905426025 -7.43696022033691 4.31470394134521 3.12523818016052 -3.01545524597168 -6.99322175979614 -5.51533889770508 -0.63383960723877 6.83036375045776 -9.36132621765137 1.71035861968994 8.8400936126709 0.863762855529785 5.16923666000366 -7.16388893127441 1.80010414123535 -9.62531280517578 1.72284984588623 4.52284049987793 9.65685844421387 6.58092069625854 6.13898992538452 3.5542676448822 7.61527252197266 4.19128179550171 0.914321899414063 -2.0887336730957 9.20925331115723 -8.19380760192871 7.87585973739624 0.376509666442871 -3.13804531097412 9.55885314941406 -1.65315532684326 -1.02404022216797 -6.95649147033691 0.330327987670898 -2.52511596679688 6.98394775390625 0.54421329498291 1.5502462387085 -5.47434616088867 4.96125411987305 6.91019248962402 -4.65483283996582 -1.74110984802246 8.5143871307373 9.48959541320801 7.76596260070801 |
-6.33463096618652 -8.38140678405762 2.78864622116089 -3.12388324737549 -0.32814884185791 -3.47516918182373 4.33996391296387 5.28549671173096 3.3298511505127 -1.64781665802002 8.29378318786621 7.13641166687012 -0.412830352783203 -8.26399612426758 3.12679266929626 8.66454601287842 0.814785003662109 7.42118835449219 -6.03855133056641 8.07770538330078 0.374194145202637 -8.45096206665039 -6.65974092483521 7.75797843933105 3.3753297328949 3.00729250907898 -2.31626892089844 -4.68047523498535 -5.30574798583984 8.93010902404785 -7.51250076293945 -7.48811292648315 7.40212631225586 5.56598663330078 5.63523054122925 -4.17163753509521 -0.197161674499512 -9.08237457275391 -2.9463062286377 6.75116300582886 7.26678085327148 -1.61487197875977 -6.46261024475098 1.10230350494385 0.824798583984375 -0.222040176391602 -5.79897117614746 -5.41956424713135 -4.50854206085205 -0.539859771728516 -0.428725242614746 -4.10879707336426 -5.59114646911621 -1.68829345703125 1.38362312316895 1.05993843078613 -6.79936218261719 4.65164184570313 -7.0488452911377 -0.795336723327637 -0.681100845336914 -0.634556770324707 7.09669303894043 -3.79998779296875 1.8209924697876 8.02178192138672 -2.60183238983154 7.7179102897644 -6.22970581054688 -9.33818817138672 -2.14369201660156 0.594023704528809 -2.90652847290039 -7.62008857727051 -4.24062633514404 -7.84461784362793 -9.19167709350586 -7.63622283935547 7.25311994552612 3.74529600143433 -7.04072952270508 -1.67553520202637 -8.89330673217773 -2.24441432952881 -8.57549476623535 -2.46380710601807 -1.45212745666504 -2.62163543701172 -5.68979263305664 2.59787535667419 9.56802368164063 3.87274241447449 3.3931941986084 1.17475128173828 1.61964988708496 -3.14490222930908 6.13954925537109 8.44001960754395 4.59539175033569 9.4926872253418 8.26458930969238 7.05634832382202 5.22616386413574 9.73905944824219 -0.555767059326172 -8.42344093322754 -6.27899599075317 -0.309833526611328 9.94717025756836 -5.66303443908691 4.91864681243896 -3.51115322113037 -8.03096580505371 9.72607040405273 5.84102392196655 -0.785385131835938 -6.91762495040894 -7.48472023010254 -1.57115077972412 -0.990575790405273 -0.69032096862793 -0.927385330200195 -1.19859600067139 7.08857536315918 -9.36462593078613 -5.8264684677124 -8.63811111450195 -7.93038892745972 -1.50673961639404 7.26735639572144 -3.42557334899902 -8.02956581115723 4.8357081413269 -1.92954635620117 0.356048583984375 -9.64250946044922 1.54911422729492 -1.90708065032959 9.86955642700195 -3.42994594573975 8.66466903686523 8.48431587219238 5.22792816162109 -4.82309246063232 2.74167776107788 -9.32087898254395 -8.27928352355957 6.69515371322632 -8.53450584411621 2.03652286529541 5.82145690917969 -0.0590620040893555 -1.79728603363037 -7.4327449798584 -2.6269474029541 -7.30973243713379 7.90515470504761 -2.09200954437256 -7.1710205078125 -1.01936721801758 0.363570213317871 -9.2032527923584 2.86440086364746 5.64793348312378 -6.81646776199341 3.94271612167358 -8.7842960357666 -6.06620979309082 -8.63975143432617 -5.1601390838623 6.08392238616943 8.72262191772461 1.93247699737549 -3.45053291320801 -8.87419509887695 -1.37713050842285 -5.29683876037598 7.13408231735229 -9.99410438537598 4.10346221923828 0.666790962219238 -1.70027351379395 -9.36188697814941 8.81623458862305 -5.61470031738281 -7.90136528015137 -9.96957778930664 5.60575485229492 -3.75668430328369 4.26292181015015 -5.12551498413086 3.13846778869629 -7.64311790466309 -4.11623859405518 7.94294118881226 -0.209022521972656 -0.993327140808105 5.17962455749512 -5.46145629882813 -8.89915657043457 7.26376724243164 2.3836030960083 -0.381532669067383 7.21579027175903 2.56026244163513 3.92689895629883 8.9618968963623 -5.82367897033691 5.909104347229 -7.73168754577637 9.25020599365234 -8.79957389831543 -5.42884826660156 -4.55627536773682 -2.60860824584961 5.87893962860107 6.87078475952148 -8.70118141174316 -3.7907543182373 4.78335571289063 -8.14382934570313 5.2696704864502 -0.374985694885254 1.9160041809082 3.21863150596619 -2.72615337371826 8.92445755004883 0.614818572998047 7.47614097595215 -5.57630729675293 -3.76191520690918 -8.40938758850098 5.71333408355713 6.56433820724487 -1.96236038208008 -2.76079559326172 -5.6289176940918 -4.20486354827881 -8.32741546630859 -6.59208106994629 -2.59805583953857 6.68040466308594 7.99093246459961 0.681801795959473 8.45419120788574 -8.69526863098145 -0.844951629638672 -7.34749794006348 2.34446144104004 -6.4083080291748 8.82204818725586 -5.89941215515137 6.97340202331543 9.40935134887695 1.69201755523682 8.00223541259766 0.344916343688965 2.34757518768311 4.79142665863037 9.71524238586426 -2.88443946838379 -1.97333717346191 -3.23981189727783 1.77879428863525 6.03223562240601 5.94986438751221 0.370248794555664 9.75330543518066 -5.7055549621582 0.818358421325684 4.24268913269043 3.57597327232361 7.93393135070801 6.04120969772339 6.83250188827515 -8.83117485046387 -7.42268753051758 9.94807720184326 -8.77601432800293 3.04543685913086 3.63030624389648 -4.00869750976563 2.76079630851746 -5.88799285888672 -4.24440765380859 -3.78205394744873 -3.09661293029785 -6.7819881439209 8.67119598388672 -5.06560516357422 -7.98478317260742 9.85626602172852 -2.98803901672363 -6.28450393676758 6.07172966003418 3.45118975639343 4.75020885467529 -7.98931550979614 -6.95774078369141 -0.40289306640625 9.00338649749756 0.515016555786133 -8.05677032470703 1.69495010375977 6.08729839324951 0.911808967590332 7.35451459884644 -4.24756908416748 7.12626457214355 -4.29695987701416 6.73037719726563 8.07346153259277 -1.27594089508057 8.29299449920654 1.25204944610596 3.51486396789551 -3.00754642486572 -3.69839763641357 -1.75584411621094 -6.15576219558716 -8.74277877807617 8.61008834838867 -9.50985145568848 9.89628982543945 -4.18866539001465 -9.4964427947998 6.24638748168945 -9.40472412109375 3.84319758415222 2.5426766872406 9.55541801452637 -6.81329298019409 -1.33373641967773 8.06494140625 8.78250122070313 3.15130424499512 5.57212352752686 3.57470273971558 -0.784822463989258 9.22632026672363 -6.56470823287964 -9.59172058105469 7.99628782272339 -1.94206619262695 -2.96340560913086 4.38753843307495 0.677219390869141 -1.07708549499512 -7.35047340393066 -1.43308734893799 0.252870559692383 -8.49949836730957 -6.14688444137573 1.22542762756348 -6.23132514953613 0.897892951965332 -2.0549430847168 2.90549731254578 -1.52969455718994 6.48033857345581 5.56709289550781 -5.89483070373535 0.787619590759277 -0.742121696472168 -3.13919639587402 0.521153450012207 -1.45513153076172 0.00864887237548828 -5.3934268951416 4.23262596130371 8.38884735107422 4.26951885223389 4.1611385345459 6.72787427902222 2.73786997795105 -1.49295234680176 -7.83695030212402 -2.68445110321045 8.19552898406982 7.69346237182617 2.38380527496338 0.767546653747559 8.1433629989624 -3.03501224517822 4.93552398681641 -7.49529647827148 -8.08776092529297 -3.44081497192383 9.90782165527344 2.88378691673279 2.37049198150635 8.70433330535889 -9.1962890625 3.03515887260437 8.01882743835449 -5.33969402313232 2.61259055137634 -5.78067016601563 -1.4163818359375 -0.914863586425781 -3.94992446899414 -6.4526538848877 3.46387362480164 -4.19468975067139 1.71251678466797 5.87029933929443 0.868664741516113 -7.81634521484375 1.82464981079102 4.83872413635254 -2.18606853485107 -1.29914379119873 0.894199371337891 -4.10591697692871 -2.05771350860596 -4.78044128417969 -1.45474052429199 2.34596633911133 2.3358907699585 -8.93484306335449 0.723127365112305 -2.19924831390381 3.92613863945007 9.6586799621582 8.59951782226563 5.88418960571289 -9.06253623962402 2.41773986816406 4.43301391601563 -9.3792552947998 -1.01728820800781 -5.81352710723877 -2.84833526611328 8.71619701385498 -4.7243127822876 4.79437351226807 2.44625473022461 -3.25889015197754 8.30670547485352 8.66124153137207 -0.437268257141113 9.07017517089844 -6.0735912322998 8.63508033752441 3.11269950866699 -1.17974376678467 -5.15658187866211 4.60244369506836 3.95873045921326 4.02883529663086 -5.0143985748291 7.69683408737183 -0.978273391723633 -0.585046768188477 6.36542510986328 5.30540943145752 -4.52780342102051 -1.91060447692871 -0.779661178588867 2.61198019981384 7.81903028488159 5.17232131958008 -7.90197563171387 2.74115061759949 8.84940338134766 2.52814054489136 -7.96175765991211 7.38283586502075 -2.89990043640137 9.72167015075684 -8.4731559753418 -0.282548904418945 7.51607894897461 -0.37080192565918 -8.28296279907227 1.48282909393311 -8.28808784484863 -1.84589290618896 9.86610221862793 -5.58390617370605 -7.98624038696289 -7.56191062927246 7.26768064498901 -8.59912872314453 1.14234352111816 -6.79630088806152 4.07727003097534 -9.62961006164551 8.26138687133789 -0.585545539855957 -2.13116073608398 8.85978889465332 -2.45497798919678 2.74587392807007 -0.561843872070313 -7.61880445480347 -4.1270866394043 5.07669925689697 -1.35050678253174 1.92860221862793 1.20293712615967 8.75883102416992 2.27207279205322 -4.82014751434326 -3.04787063598633 -1.59988975524902 2.93050527572632 4.33067083358765 -2.50430488586426 9.13595199584961 -7.06670761108398 -6.5811824798584 -6.87516403198242 -5.62211799621582 5.49419593811035 5.14354467391968 2.13636779785156 9.90212249755859 5.20455360412598 6.87263059616089 4.64094877243042 4.04967308044434 -8.80740356445313 -3.01617240905762 5.63062429428101 1.05244731903076 3.43849635124207 -8.67551040649414 -8.59519577026367 -1.1306848526001 6.56605911254883 -3.59689807891846 9.75886154174805 9.28023815155029 -8.98371696472168 1.9814453125 -4.00949859619141 0.795870780944824 -4.97288131713867 -7.33134078979492 6.86180305480957 4.47412967681885 -7.39156913757324 -3.17177867889404 -3.99546718597412 -3.23065853118896 -5.65174293518066 3.60922789573669 -1.06655025482178 -8.61936378479004 -6.43734931945801 -1.79164028167725 -9.70253372192383 3.09703588485718 -7.02201414108276 7.65065383911133 -5.65337181091309 7.91999053955078 -8.24140548706055 2.8563232421875 3.07881546020508 3.59448885917664 9.38995742797852 7.0799708366394 8.85351371765137 -7.22561836242676 7.01200675964355 2.0689001083374 -9.93663787841797 -6.13080549240112 4.69972372055054 6.86325263977051 3.08257555961609 -6.3055591583252 -2.43572616577148 4.7685718536377 9.0272159576416 -8.74111938476563 3.26285552978516 -5.22594928741455 9.00222015380859 5.86711883544922 -5.27337837219238 -2.67670059204102 6.51885557174683 -0.265168190002441 -8.70095062255859 -0.978213310241699 -6.98934984207153 -3.56887245178223 2.97173953056335 -7.01013994216919 5.22636890411377 7.68501472473145 4.3665714263916 -7.42605209350586 9.44471168518066 -6.91291618347168 -1.42485046386719 -7.49739122390747 |
8.84862899780273 9.28598403930664 -6.24261856079102 -0.776218414306641 -5.17227172851563 0.725034713745117 -2.72983932495117 2.43631935119629 -5.80814170837402 -3.9756498336792 -6.33914756774902 2.9475257396698 -2.57759475708008 -9.05395317077637 -3.67133522033691 4.87792205810547 -3.67248916625977 -2.26224040985107 3.08378410339355 -7.57542085647583 -8.70260238647461 7.11813163757324 9.03257179260254 -3.02840137481689 3.58517622947693 -9.89011764526367 0.279139518737793 -9.50343704223633 -8.35285377502441 -9.79250717163086 5.8892936706543 7.24979591369629 1.36899852752686 4.09269332885742 8.10237693786621 3.11371302604675 -0.180469512939453 1.02950954437256 0.0169477462768555 -4.64424228668213 3.8220546245575 1.00086307525635 -4.48024654388428 -9.45849990844727 -8.66609954833984 -7.72314262390137 -5.31871318817139 -0.279265403747559 3.78997039794922 -2.66644096374512 0.271893501281738 -6.32707166671753 -8.45275497436523 2.22232437133789 2.72565340995789 -6.85347747802734 0.766190528869629 -7.70093154907227 2.67879939079285 -3.57993030548096 1.03418922424316 7.69748878479004 8.68405532836914 -3.08754062652588 -1.89809417724609 0.93626880645752 7.60544776916504 7.68432807922363 -9.79064559936523 -6.98044967651367 1.62947082519531 2.475341796875 5.505530834198 3.23900675773621 1.27462482452393 -3.54297542572021 1.31590938568115 -3.26997375488281 -5.01626205444336 -8.65910530090332 2.75283312797546 4.60202217102051 0.929244995117188 4.32933568954468 1.94891357421875 6.60923004150391 -2.23581695556641 -7.9549503326416 2.21390342712402 2.90128684043884 -4.1964807510376 8.74131679534912 3.56999850273132 2.14376068115234 8.26397132873535 2.47865104675293 -2.55577182769775 1.19805240631104 -0.523682594299316 -7.12852668762207 7.05194902420044 -2.7273120880127 -4.32166481018066 3.17876577377319 4.7352123260498 -8.33553695678711 9.52842235565186 6.11262321472168 9.87269878387451 9.26081848144531 -2.3576488494873 -5.35482883453369 2.87782859802246 2.58315539360046 1.13770389556885 -1.55776882171631 -2.38517189025879 5.66787481307983 8.4488468170166 3.75738334655762 -6.49167585372925 -0.301571846008301 -4.0185079574585 -2.15193653106689 0.72966480255127 -8.24662780761719 -3.18679904937744 -9.54287719726563 -4.91833591461182 2.76435351371765 3.08150744438171 1.27187633514404 -6.42711639404297 -3.47491836547852 -1.71406173706055 1.84098148345947 -0.560072898864746 -7.25899887084961 5.77234268188477 2.20901393890381 -2.46487712860107 -6.22954559326172 2.19194793701172 3.29888319969177 -9.2774486541748 -7.08432960510254 6.95872068405151 0.101107597351074 -9.15408325195313 3.10324859619141 -9.80502700805664 5.68267822265625 -1.26631164550781 -3.90920734405518 -5.59942054748535 6.34225082397461 -7.14058685302734 -4.53144931793213 -3.69428730010986 5.95735311508179 -0.557660102844238 -8.87384605407715 -5.4371166229248 9.27469062805176 2.07112407684326 -4.31236171722412 3.98152542114258 -1.46185493469238 7.50549745559692 7.48393774032593 8.15890312194824 1.59384632110596 6.41973066329956 0.282031059265137 -4.06517124176025 -8.94051551818848 -2.78690242767334 0.371838569641113 6.72347068786621 6.42473936080933 -9.33149147033691 9.41228866577148 -9.58813858032227 -5.63207626342773 0.277582168579102 0.21009349822998 -5.3637866973877 -4.11880111694336 6.1367392539978 0.422941207885742 -8.35722160339355 9.29949760437012 1.23595142364502 0.0260982513427734 9.92691421508789 2.03570938110352 -2.93915843963623 -8.82362174987793 2.92406058311462 -2.1536169052124 6.62262392044067 1.53085136413574 7.9936671257019 -2.49265766143799 -1.40369987487793 5.68057537078857 -4.475754737854 3.31790161132813 -4.32601833343506 -5.18215942382813 -3.98349857330322 1.62818050384521 3.90930891036987 -8.04439926147461 1.29050827026367 -8.46636009216309 -9.81340789794922 -5.0174446105957 -1.16705989837646 -7.04041481018066 -8.90938186645508 4.73700046539307 0.599960327148438 -0.957120895385742 -0.231822967529297 -4.02317428588867 6.67517423629761 -3.36588478088379 4.93861675262451 -6.24595832824707 -8.23938179016113 -1.39993762969971 1.63637256622314 0.176142692565918 7.27328824996948 3.33275556564331 -5.71556568145752 7.44859266281128 -3.54566955566406 -6.88594388961792 -4.11532783508301 7.83109664916992 -2.39847564697266 3.69208312034607 9.84187602996826 5.51358413696289 8.33797454833984 -9.54482078552246 -0.164236068725586 0.420855522155762 -4.98095607757568 -8.57647705078125 -9.90370941162109 3.8012957572937 7.89471387863159 1.10104179382324 -5.71713638305664 -9.75894737243652 -9.79922866821289 -3.08541202545166 -5.66466331481934 -5.48182678222656 1.6406192779541 -2.82417392730713 3.82856130599976 7.13408470153809 -9.82934188842773 5.44858932495117 -3.3393611907959 0.937355995178223 -9.13774490356445 4.36630010604858 6.58353996276855 8.65361976623535 -7.56934356689453 -0.970243453979492 -1.98348903656006 6.86181592941284 -1.39245414733887 -2.74056529998779 -0.865155220031738 -2.87429714202881 1.0623893737793 -6.33794975280762 -0.354548454284668 7.94613313674927 3.55620145797729 5.6904411315918 -3.53457355499268 6.81634473800659 7.3906135559082 4.41301822662354 -0.567737579345703 -6.49726104736328 0.950292587280273 -4.25520515441895 8.71235656738281 3.88731718063354 -7.87029457092285 5.89939308166504 8.6530590057373 1.33283710479736 -2.21897029876709 -8.21399688720703 0.728617668151855 -5.13800621032715 3.67240142822266 -2.33131504058838 6.2529468536377 -1.13243007659912 -6.33015632629395 2.81340360641479 2.78051567077637 -8.79401016235352 -5.41675090789795 2.79109454154968 -5.89251708984375 -0.553060531616211 -3.50770378112793 2.42329025268555 2.90210223197937 -4.20764827728271 -9.91972732543945 3.48307108879089 -0.637465476989746 9.89689254760742 3.18605399131775 4.59434986114502 8.18366527557373 -3.60192680358887 -3.46442317962646 8.80702972412109 -0.360979080200195 2.37879371643066 1.76440334320068 2.79558372497559 9.91460800170898 -1.48308658599854 8.70566368103027 -9.3105354309082 -1.17957496643066 9.86472320556641 -8.9691162109375 5.67867469787598 7.28354215621948 7.68390417098999 -1.72176742553711 3.90112113952637 -6.85008239746094 1.39741325378418 0.938564300537109 -6.36112642288208 4.78929710388184 -4.97701549530029 0.629015922546387 -8.04944038391113 -4.93445301055908 -3.82466697692871 3.02050566673279 3.53195643424988 4.78989601135254 -7.04353332519531 -9.43744277954102 -5.22646427154541 2.78758764266968 -6.26928329467773 -0.35650634765625 3.43661499023438 9.02315330505371 -6.93525314331055 3.99531555175781 5.57503461837769 4.35058355331421 -2.35876178741455 6.9275951385498 -0.16743278503418 5.64542007446289 -5.8709545135498 4.56559896469116 0.299840927124023 -8.58797073364258 4.24197387695313 0.740619659423828 8.48749351501465 9.65046119689941 7.33284711837769 0.783528327941895 -8.91300964355469 2.24127197265625 -5.12398910522461 2.91225409507751 0.551995277404785 -6.3924674987793 -2.21159076690674 -5.19355297088623 0.27711296081543 0.598644256591797 -0.257316589355469 -4.82694244384766 5.16384601593018 -9.34827995300293 -7.92325210571289 8.81284713745117 0.539384841918945 -8.48701286315918 7.49263525009155 -0.17353630065918 -5.07075309753418 3.87269949913025 -5.52732944488525 -5.46584129333496 -1.74848461151123 7.68360137939453 -2.54360103607178 8.94039916992188 0.387643814086914 4.09857273101807 -8.59688568115234 -2.72529983520508 9.23710632324219 |
