-4.71116638183594 9.48635482788086 0.63139820098877 -7.16187477111816 -4.87613296508789 -2.23950004577637 -7.51601028442383 2.88964986801147 6.37960624694824 -6.34312438964844 8.29975318908691 9.37263870239258 -8.94846725463867 8.75480842590332 9.62537574768066 -0.399943351745605 6.59026336669922 -7.82077598571777 -2.51000499725342 0.765214920043945 -3.25602436065674 0.820802688598633 8.85253715515137 8.19654846191406 5.00918865203857 3.42324233055115 5.92439651489258 1.96680164337158 8.58149719238281 -5.45103549957275 -4.84888172149658 7.00587034225464 -8.76333427429199 -6.8430061340332 -7.8240818977356 -9.11194801330566 -5.12028217315674 -5.56114959716797 -9.00409317016602 -5.2520580291748 -4.3085298538208 -4.96583557128906 -3.58697986602783 8.4769287109375 2.23317050933838 3.22775816917419 -5.62942028045654 8.2172966003418 1.61834621429443 -3.6427059173584 0.873380661010742 4.75522518157959 1.53130912780762 9.21256828308105 -1.78862953186035 -3.68556880950928 -8.63402557373047 -2.74197006225586 1.81919956207275 0.114909172058105 4.91866827011108 2.32395076751709 -7.24796724319458 -1.84268093109131 -4.90057373046875 -4.57871055603027 -2.70760440826416 7.11433839797974 -2.39502048492432 1.46086120605469 6.46499824523926 4.49481010437012 -3.45490550994873 -1.72343826293945 -7.20195770263672 -6.63547086715698 7.28303909301758 -4.04408359527588 -2.85745716094971 9.12136077880859 5.04285049438477 4.68085765838623 -2.82018566131592 -9.36959075927734 0.654202461242676 -3.77611255645752 6.37744903564453 2.02997303009033 -9.97371482849121 7.77667236328125 5.16709089279175 9.22038269042969 -8.29893493652344 -8.73853492736816 1.00104427337646 5.13976573944092 -5.58837127685547 -4.61157703399658 3.58521437644959 -5.0540943145752 5.91803741455078 7.63828277587891 -1.75087070465088 3.69395971298218 -4.87510776519775 -3.32189178466797 -8.53380393981934 7.47763633728027 -7.07860517501831 3.59883284568787 -6.19841766357422 4.91584777832031 9.69672203063965 5.32486152648926 9.20605850219727 9.15137767791748 -1.12882232666016 3.36703753471375 -1.1821756362915 6.94510459899902 -6.81230974197388 -6.44822645187378 0.68494701385498 -2.7840576171875 -3.15964794158936 5.85519981384277 -1.65237808227539 -3.62670803070068 8.5675220489502 5.44662237167358 -7.64940452575684 5.10920524597168 -6.64004516601563 -6.08828735351563 -2.58326625823975 2.95681190490723 1.31906127929688 1.51976490020752 3.56981730461121 -7.96319961547852 9.07774353027344 -5.62974166870117 -5.63246250152588 9.13491249084473 7.12322950363159 8.3427906036377 -4.58801364898682 -6.32243919372559 -4.87136745452881 -6.03196144104004 -3.41854667663574 -4.644700050354 -6.76884126663208 -9.43866348266602 6.74427032470703 3.20870590209961 -1.68523216247559 -7.56473970413208 2.80965566635132 6.21736288070679 4.02233600616455 -6.72083330154419 9.17396354675293 -1.41030693054199 -2.74529361724854 6.4633674621582 -8.84951019287109 1.01818656921387 2.79216742515564 -6.99834060668945 5.73373031616211 -3.77431488037109 3.25657820701599 7.43242454528809 -1.42500782012939 0.47232723236084 8.61473083496094 -6.94515419006348 1.47182369232178 9.7487850189209 -0.503183364868164 0.665244102478027 5.75709533691406 6.4353084564209 -8.22945785522461 5.89781761169434 2.69372177124023 6.29956769943237 -6.0963249206543 -9.20940208435059 -8.88069343566895 -1.05963611602783 8.80342483520508 5.03096103668213 6.12044525146484 -9.97893333435059 -3.50731945037842 -6.6238169670105 -7.43497848510742 5.4660701751709 5.22464513778687 1.23154735565186 9.38539886474609 2.36154937744141 9.05035400390625 -0.547589302062988 5.66941452026367 9.2513370513916 -0.780242919921875 -8.74547004699707 -0.195220947265625 -1.15110301971436 -9.89242744445801 4.51188087463379 -2.77947998046875 -2.65822982788086 1.50426006317139 9.3846549987793 2.96615362167358 -9.25470733642578 -8.27528762817383 -7.8774528503418 0.249458312988281 -9.72646331787109 -6.76229286193848 3.39013290405273 -7.09684562683105 -0.142687797546387 -1.23000717163086 0.152186393737793 -2.04478359222412 -0.994194984436035 7.143226146698 8.35184478759766 2.40448570251465 8.59650611877441 7.93674659729004 -5.46624374389648 4.94636297225952 1.16782569885254 4.92868900299072 -2.82500648498535 8.92843055725098 -2.16224098205566 -9.38131141662598 -5.95697593688965 0.730861663818359 -4.06294441223145 -3.29276466369629 -3.49048709869385 7.60099840164185 1.74141502380371 -1.63107967376709 6.28768157958984 -2.48050117492676 6.54103469848633 2.82267332077026 8.25555610656738 4.0703272819519 0.308853149414063 -2.59154415130615 3.79196882247925 4.90341377258301 -0.278204917907715 9.40029525756836 -3.42254734039307 2.76751708984375 9.75222015380859 -1.79870223999023 -0.950356483459473 1.53169059753418 4.1022891998291 -6.49450302124023 5.00374031066895 2.38310718536377 -1.28542804718018 -9.98679733276367 -4.87559413909912 7.11441993713379 -5.72107315063477 -0.585490226745605 -0.00554180145263672 -9.00552749633789 1.0783519744873 -9.39901161193848 -6.25111770629883 -0.529376029968262 0.191079139709473 4.91529226303101 4.40713882446289 9.48514175415039 6.87886762619019 -3.48385715484619 -5.50391006469727 7.82429170608521 -9.69008636474609 -0.676392555236816 0.147685050964355 -0.701288223266602 0.808378219604492 5.00311613082886 5.17383575439453 0.651182174682617 -2.39848041534424 0.502763748168945 -1.03554153442383 8.88323211669922 4.80511665344238 -4.41176795959473 2.05410099029541 -6.87357711791992 -3.74989604949951 -5.94522476196289 -3.47871398925781 0.560694694519043 -9.69945907592773 6.69606399536133 -5.55724334716797 6.82817029953003 7.64765739440918 -9.27487373352051 -4.80640506744385 -2.77007484436035 -8.10641860961914 -5.09236335754395 -7.90698575973511 2.61311507225037 -0.101961135864258 3.99904012680054 -8.14694213867188 3.58183360099792 -9.01382827758789 -0.394917488098145 -7.46708345413208 2.13796234130859 8.04548645019531 -1.36209583282471 -5.83317565917969 -1.3150749206543 -8.10124397277832 0.507463455200195 1.52049446105957 7.13459014892578 -6.43524360656738 -3.09337520599365 -2.82410526275635 -9.45034027099609 -9.26387786865234 7.69219589233398 5.62098979949951 5.98912000656128 4.26551818847656 -5.08087921142578 -5.73862838745117 9.11214828491211 -8.8593578338623 0.394166946411133 9.33787155151367 -2.99450778961182 0.119186401367188 -7.6804141998291 -8.63798522949219 7.66737413406372 -0.367341995239258 -1.81351566314697 -6.99196815490723 3.50535154342651 -7.98050880432129 0.216299057006836 -4.01130294799805 8.10380935668945 5.41572332382202 8.76458644866943 1.00751781463623 -7.80694532394409 -8.99934005737305 9.76976203918457 6.01632118225098 8.92157554626465 9.46718215942383 8.26335906982422 2.5828857421875 -7.57954788208008 -2.25496864318848 -3.45553970336914 3.59148216247559 -1.76823711395264 -9.42835235595703 -7.73675489425659 5.69734764099121 6.77383184432983 3.37252378463745 -5.64933586120605 5.80416679382324 0.729876518249512 -3.58752155303955 -1.6211519241333 5.57426643371582 7.76925277709961 8.81752967834473 5.23978233337402 -6.15124702453613 0.79987907409668 -7.03670692443848 7.98431825637817 -6.35786819458008 4.42837715148926 6.46621704101563 -9.87334060668945 6.84345436096191 -3.59510803222656 0.323947906494141 -1.39260196685791 6.46336030960083 0.831681251525879 -0.30943775177002 -1.57577896118164 -5.75734329223633 6.59057188034058 -3.66037750244141 1.48098087310791 -2.01108360290527 1.2378396987915 1.46726703643799 6.41997528076172 5.3700590133667 -4.6036491394043 3.66487956047058 -6.35445070266724 8.7385196685791 -7.57551002502441 5.28826475143433 3.49436736106873 -0.674601554870605 -1.28811264038086 4.12158489227295 -7.21088600158691 -1.33989429473877 -3.92194366455078 8.08048248291016 -7.60824203491211 -4.8776683807373 7.4203724861145 4.44165229797363 -6.0919361114502 0.750504493713379 4.98066902160645 -7.15280342102051 7.57553100585938 5.87225914001465 0.89690113067627 9.06962871551514 0.347923278808594 -8.49155426025391 4.66890525817871 -6.53813886642456 -0.492733955383301 7.0055103302002 -8.88576507568359 -3.98671531677246 -1.18174171447754 9.98934745788574 -6.81956815719604 -2.31223678588867 -9.57244491577148 0.781956672668457 8.52554321289063 5.40072631835938 3.32674479484558 -1.0461483001709 -9.39653015136719 -2.36484146118164 -8.2397575378418 -3.88002967834473 -4.63546657562256 3.71217703819275 -8.16297149658203 -3.40451335906982 -0.641755104064941 6.1461296081543 2.70401453971863 -4.04080963134766 0.583845138549805 -7.71255302429199 -3.30257320404053 0.161019325256348 5.17418384552002 -5.91312408447266 -6.29625129699707 -3.69565105438232 5.83686351776123 -1.5839729309082 3.29934573173523 4.51985120773315 -3.82861995697021 0.544830322265625 -5.55433082580566 6.74248456954956 7.26629257202148 -9.22441673278809 3.32737684249878 -4.72657299041748 -5.95007419586182 6.49714469909668 9.97980308532715 -2.19918155670166 9.98829078674316 9.99443054199219 -6.72771263122559 0.18982982635498 -4.01399707794189 4.86005306243896 1.71482467651367 -6.87321662902832 -3.25566864013672 -1.07651615142822 -9.39141273498535 6.96153211593628 9.85143661499023 3.93703436851501 6.17773771286011 6.19732284545898 -6.62988471984863 8.923095703125 -6.80194425582886 9.29327011108398 4.95380401611328 -9.09475135803223 9.69954490661621 -0.79656982421875 -1.91038703918457 -1.40236282348633 -9.96406745910645 -7.19751358032227 -1.93384552001953 6.546630859375 -7.9078483581543 0.0226058959960938 -5.33821296691895 0.876487731933594 4.72480297088623 8.159499168396 8.7785701751709 -0.195094108581543 -0.282774925231934 -3.43397521972656 4.88537979125977 1.94239521026611 6.46888494491577 8.49565505981445 0.360637664794922 -9.8012638092041 -6.48253631591797 -2.11126708984375 0.688075065612793 2.40658187866211 -6.88585472106934 -5.63440322875977 1.68801403045654 5.59747219085693 6.07784271240234 -9.41052436828613 8.84724426269531 1.50029563903809 -8.22412300109863 9.74088478088379 -4.63641262054443 -3.67506122589111 0.161727905273438 9.17699813842773 -9.16879844665527 8.97183895111084 -1.21386432647705 9.06257820129395 -3.37889099121094 -2.48488807678223 -4.30901432037354 4.92671966552734 -2.90194129943848 6.25514554977417 1.46318340301514 -6.90225410461426 -4.86893558502197 5.95051527023315 1.22446918487549 -4.5694580078125 -1.49753665924072 -4.88580322265625 -9.88262367248535 -0.780068397521973 6.32687330245972 1.62788963317871 1.14699268341064 -2.48187446594238 4.05814361572266 7.27674913406372 2.88431143760681 -1.77008247375488 -2.24292659759521 1.7248592376709 -6.8444676399231 2.86408877372742 3.41968035697937 -9.70003128051758 -6.95546340942383 7.09310531616211 -9.2586669921875 -5.72750568389893 -2.72371864318848 3.44508624076843 9.62090682983398 1.2370548248291 6.70027208328247 -3.09167289733887 -2.1248664855957 5.82714080810547 -4.36789417266846 4.98969078063965 -0.550728797912598 -5.78330230712891 3.39323234558105 8.78466033935547 9.11540985107422 3.88504219055176 -3.77970790863037 7.20262956619263 -1.40715980529785 4.06509160995483 -2.48972320556641 -6.41582918167114 -8.30694389343262 -6.51845169067383 -4.95077037811279 -7.9134635925293 -2.80557250976563 9.50527381896973 7.02720832824707 2.781405210495 4.6734881401062 5.22927284240723 -6.06883811950684 7.85060453414917 -3.04533100128174 -1.84056854248047 -2.13456726074219 5.01652717590332 -1.6248950958252 -2.81033134460449 -2.56196880340576 2.60859251022339 -2.89828395843506 -3.48470783233643 6.42240524291992 -1.84748077392578 6.40243530273438 -2.76616954803467 3.63777136802673 -4.52462768554688 -4.66296100616455 -1.21088886260986 2.49518299102783 2.63469457626343 8.160400390625 -1.8902530670166 -5.2625846862793 -5.88535785675049 7.53220748901367 6.77343559265137 -4.24077129364014 4.35051918029785 0.168875694274902 5.1871919631958 -0.272134780883789 1.39003372192383 -4.2361364364624 4.70866203308105 -4.96023273468018 -1.61922550201416 -6.9662709236145 -5.19381999969482 2.98048210144043 0.610584259033203 -6.41059446334839 -4.18012714385986 4.254150390625 3.39886426925659 -1.25876045227051 9.3307991027832 -1.09454536437988 1.01112461090088 7.59335517883301 1.69603729248047 -1.25725841522217 4.69040632247925 -1.22711753845215 4.08651113510132 6.65031003952026 -7.35091972351074 5.26238632202148 -7.84092378616333 -1.29390144348145 9.12700462341309 5.62145233154297 -5.3320426940918 7.35215711593628 1.91335773468018 -2.2648344039917 -6.6488881111145 0.200509071350098 -4.43841361999512 5.3840160369873 9.94225692749023 -6.64596748352051 3.72198295593262 1.35636234283447 -5.42268753051758 -3.43979740142822 0.428935050964355 9.3263988494873 -2.34392738342285 1.36239147186279 -0.854643821716309 2.29716873168945 4.00730848312378 8.77175140380859 -9.50047302246094 -9.41438865661621 1.24563121795654 -1.28938293457031 -6.5681095123291 -8.74238586425781 9.89535331726074 2.96397662162781 -2.37369155883789 -7.43471574783325 1.9773588180542 3.15317130088806 1.28222846984863 -5.8338565826416 -5.03057479858398 -9.77364349365234 7.4775218963623 -0.807267189025879 -6.84358167648315 -7.00273513793945 0.00581169128417969 -5.5109977722168 8.55584621429443 4.65006589889526 5.07672071456909 -2.06475353240967 5.90734243392944 -6.48012924194336 9.43580627441406 6.88560056686401 -9.69104957580566 9.60873603820801 7.58136749267578 -7.18268918991089 3.33548307418823 7.76104688644409 -8.89238166809082 -6.4627571105957 -6.84536933898926 -4.88433742523193 -6.8991756439209 -2.70061111450195 -8.21762275695801 2.19731426239014 -7.94878435134888 2.65720129013062 1.3040075302124 8.71087837219238 -9.26706123352051 -8.26885032653809 1.81988620758057 -9.03712272644043 -4.64797401428223 -9.6178150177002 -4.49240303039551 -8.83649063110352 1.25365829467773 -1.1556282043457 1.36782741546631 -0.0820455551147461 -3.36904430389404 3.10745000839233 -3.35579299926758 -0.151485443115234 -3.661865234375 -8.7875919342041 -6.76497268676758 1.293701171875 -0.271907806396484 6.37272596359253 -7.35420036315918 -7.41149473190308 -4.46549320220947 6.89187240600586 6.72731828689575 5.7123966217041 -8.13458442687988 -0.0960025787353516 9.00828170776367 2.91411852836609 -8.79265785217285 2.62955856323242 -8.99287223815918 -5.02048492431641 0.683256149291992 9.41653728485107 -9.45052337646484 -2.00204277038574 -9.95283508300781 4.09107398986816 6.56277656555176 7.44330596923828 4.09942150115967 9.41265106201172 -7.52034187316895 -8.83097457885742 -2.17240428924561 -6.59942626953125 4.47175979614258 -8.66246032714844 2.68940162658691 9.76051139831543 -8.53090476989746 -7.97433090209961 9.17559623718262 7.79577970504761 5.15951871871948 -2.65284442901611 1.92294216156006 3.93553924560547 9.25395965576172 -6.7025990486145 -8.51287651062012 5.14733505249023 5.01198291778564 -7.98063707351685 1.85256385803223 2.34033203125 6.95976972579956 -6.46277952194214 0.799507141113281 4.82298612594604 -2.51221084594727 -3.23544120788574 3.16140151023865 6.25177812576294 3.51381063461304 1.20171928405762 -9.59233856201172 4.63275671005249 9.74184417724609 2.36258602142334 -9.05673217773438 -4.2749490737915 4.54977035522461 2.5550696849823 8.37102699279785 9.75826454162598 5.53026676177979 -7.7441577911377 1.50686836242676 7.13289260864258 -1.36255168914795 4.5475959777832 -0.37535285949707 -7.69070625305176 -3.85786628723145 1.23425388336182 2.85124015808105 7.52670049667358 3.04837679862976 -1.71503639221191 0.37026309967041 -2.23805999755859 2.00761699676514 2.64366865158081 -5.93739986419678 9.72222137451172 -7.06189155578613 -8.26015472412109 -3.6886682510376 -1.71927356719971 5.02957534790039 -8.43357849121094 3.45463728904724 -7.88969802856445 8.58388900756836 8.08009624481201 2.27402591705322 -7.7065258026123 -9.30521202087402 2.64451003074646 -9.0068244934082 2.96954131126404 -3.85289287567139 0.549124717712402 -7.91278076171875 4.0266227722168 -8.62701606750488 7.49675321578979 5.22974014282227 6.00545644760132 -6.39064025878906 -5.0467472076416 -4.0882625579834 7.19833564758301 4.27164268493652 0.972648620605469 -5.13411045074463 -4.31868648529053 3.38275671005249 -2.15573215484619 8.82915496826172 1.49513339996338 1.51170349121094 7.18414497375488 -8.05657386779785 -4.42292308807373 -9.75890731811523 -4.72599124908447 -3.08116817474365 -7.40398406982422 0.28739070892334 8.2523078918457 -6.15239667892456 7.33220100402832 -6.29347991943359 2.8404688835144 -5.54280757904053 -8.06417465209961 -7.57416534423828 8.83420181274414 1.00650882720947 2.78744888305664 -3.97378349304199 -3.59175586700439 -0.122395515441895 -0.913568496704102 -9.2440071105957 5.20023107528687 4.11609172821045 -2.92435741424561 -8.07418632507324 1.06750869750977 -2.79480838775635 -8.92130661010742 1.51479816436768 0.245805740356445 -4.26035499572754 -1.99147129058838 9.45012283325195 -8.76925468444824 3.5948703289032 3.05173373222351 -1.18970966339111 -9.96710968017578 1.3678560256958 -2.6437463760376 -5.79638671875 2.56914591789246 -4.41876029968262 -3.54574584960938 -1.16434001922607 5.29775810241699 -2.67647171020508 -7.90934562683105 -6.73468065261841 0.00475978851318359 0.699776649475098 9.64609527587891 8.72429656982422 -6.81789398193359 5.9649772644043 6.38424634933472 0.0553884506225586 1.56100654602051 1.24197578430176 -6.71738624572754 2.76719284057617 -6.07482719421387 3.3469340801239 -0.218738555908203 4.1278076171875 -8.65805435180664 1.96322822570801 0.565730094909668 -7.64913988113403 3.67842650413513 -6.38400268554688 -2.78221988677979 3.17753767967224 4.94016647338867 7.44084548950195 -8.05239868164063 2.87031364440918 -7.52031517028809 7.72398710250854 9.63790702819824 -4.05017757415771 -4.75291633605957 1.05412864685059 9.82809829711914 6.32589101791382 -0.00729942321777344 -8.53723526000977 -0.123056411743164 6.63034629821777 1.06490230560303 -4.1968355178833 7.1937198638916 2.44956398010254 6.37939453125 -3.84538269042969 8.10123634338379 -9.57309532165527 9.84329986572266 1.24502277374268 -2.24823379516602 9.13482189178467 -9.1993522644043 1.9997034072876 2.57399749755859 -5.83224773406982 5.39680957794189 -2.27869415283203 9.76025390625 -9.35202598571777 8.51787757873535 -2.46859169006348 9.14570236206055 -7.62773513793945 6.91886472702026 4.0575647354126 -3.7715425491333 6.69136476516724 -5.52522468566895 7.17013359069824 -7.60373878479004 -9.46188735961914 6.88293647766113 6.37366056442261 -6.2545223236084 1.19411087036133 -7.70649909973145 -3.11379814147949 3.84471869468689 1.12657928466797 4.07869338989258 -7.27973175048828 6.02198362350464 9.84391689300537 -6.53535842895508 -8.5897102355957 -0.558794975280762 9.64620113372803 -5.83551216125488 -9.07412338256836 2.97601461410522 8.60674667358398 0.670598983764648 7.41984367370605 -6.82435035705566 -4.09330749511719 2.99080610275269 -2.71686458587646 8.15741729736328 -9.36359786987305 -5.03887367248535 -3.88780689239502 -9.36501312255859 2.88808584213257 -0.108307838439941 -3.10505485534668 -8.69622802734375 2.83035731315613 3.5744833946228 7.18805074691772 -1.51169204711914 -5.78175735473633 -2.00618362426758 7.56623983383179 -3.83235359191895 2.05783271789551 -7.81859588623047 -7.08091926574707 -1.53728103637695 -1.25744247436523 -3.79245185852051 -5.45572280883789 2.86917877197266 3.57703399658203 -4.96247863769531 -5.49310874938965 6.68389320373535 2.85072779655457 6.0984058380127 -3.57201480865479 -6.84893798828125 4.79321002960205 -0.168928146362305 2.89155459403992 0.462211608886719 -5.3157377243042 -3.33601093292236 -5.26639747619629 2.19351196289063 -2.77603244781494 8.22804641723633 -0.944424629211426 -8.01162910461426 5.47086238861084 4.32652235031128 -3.59831428527832 -5.9485034942627 7.61090278625488 7.78547477722168 -1.41753101348877 -6.99628639221191 0.979429244995117 8.69592475891113 5.41497945785522 -8.58282852172852 9.25714015960693 8.28082275390625 -7.85700798034668 0.00884628295898438 -8.88961410522461 9.86093330383301 2.83587908744812 4.98089027404785 2.44771385192871 -3.42937088012695 0.103264808654785 0.0933065414428711 1.3427152633667 1.7584171295166 4.83053922653198 -5.14291572570801 9.11885738372803 8.93285942077637 -8.18878173828125 -7.97961759567261 -5.93634414672852 5.83813428878784 5.6084418296814 -4.61408233642578 -2.14060211181641 -5.6898307800293 9.89763069152832 -7.80256462097168 2.45249652862549 -9.2512321472168 0.0932731628417969 -2.79010391235352 -8.34704971313477 -8.78450775146484 -9.17888641357422 -5.31846523284912 9.11806297302246 -0.149227142333984 3.95611000061035 1.68102359771729 -4.00066947937012 3.75148010253906 1.65226364135742 8.20720195770264 -1.47978687286377 4.56496238708496 9.67990398406982 4.26709890365601 6.32631731033325 1.4055814743042 -6.09111976623535 3.95455121994019 -5.71231365203857 -3.96764850616455 -4.86406421661377 4.64148044586182 2.39652538299561 2.6608989238739 6.27380800247192 1.7554817199707 8.15134429931641 1.82900047302246 6.99959516525269 8.06826400756836 2.57002329826355 -5.27923107147217 9.99834251403809 -1.42449951171875 0.16539478302002 -8.26663970947266 -5.59161376953125 2.84386825561523 -9.72186088562012 5.07600021362305 -3.83212471008301 -6.22301530838013 -3.60961532592773 8.77848625183105 -6.4637565612793 5.2140998840332 9.55281257629395 -3.9334716796875 -5.28595924377441 -6.2011890411377 -8.5034065246582 1.75984954833984 -6.4283390045166 1.83503246307373 -4.97477626800537 4.15147304534912 2.09348106384277 9.42402267456055 -9.05347061157227 -0.485342979431152 2.62777519226074 -3.83988285064697 -5.57593822479248 8.23113250732422 -1.95567512512207 3.86425948143005 9.52144145965576 6.52659177780151 -3.53620147705078 7.87394523620605 -2.11702251434326 -6.5252537727356 -9.93710517883301 -6.00438117980957 -0.381117820739746 -8.60715866088867 -9.31952285766602 -0.676850318908691 5.38229179382324 0.407794952392578 -1.13374328613281 -1.17168807983398 9.58504867553711 -6.80436897277832 7.0775318145752 -8.81693077087402 7.55809020996094 -2.26720905303955 -2.34117889404297 -7.24340009689331 3.76708221435547 -9.51823806762695 -4.57983112335205 -7.28425550460815 -5.93088150024414 6.0352611541748 -2.72132968902588 0.341316223144531 -2.55471324920654 4.01541471481323 5.67536544799805 8.35477638244629 -7.57794904708862 -9.03685569763184 5.96181392669678 5.58857154846191 7.12067079544067 -1.90085029602051 8.0522518157959 -1.48135280609131 -0.782257080078125 -3.27514266967773 -8.15317916870117 -4.4870080947876 0.73574161529541 -7.36634254455566 -3.5612735748291 -8.60774230957031 -1.52370357513428 -3.00497150421143 -9.64577484130859 -4.46432018280029 -2.56094837188721 6.70234251022339 4.51909780502319 6.95846557617188 9.66971874237061 -8.87766647338867 -4.16349315643311 7.4344367980957 -1.96355438232422 -5.77824783325195 -0.238576889038086 -6.78078460693359 5.21989822387695 8.44607353210449 3.19949865341187 7.54344177246094 -2.55774879455566 0.935014724731445 6.6227126121521 1.81554698944092 -9.29414367675781 1.81599521636963 -1.53668975830078 6.90142107009888 -0.334211349487305 3.65290141105652 -8.76499366760254 -2.39905738830566 -6.51814985275269 -2.46551895141602 1.65855312347412 -3.00928497314453 2.10420227050781 1.53064346313477 -7.88579511642456 5.83982467651367 -9.93546295166016 2.70988440513611 5.58120727539063 -6.27932548522949 -8.50289154052734 9.10754203796387 3.00131988525391 9.64682388305664 -1.64450740814209 5.66885185241699 -1.10577964782715 -1.15856742858887 8.45539093017578 8.481201171875 -1.52487182617188 -2.76792621612549 9.80377197265625 -4.92393112182617 8.47616577148438 2.60545492172241 3.51261854171753 9.11581802368164 -4.96319675445557 -1.78927040100098 -4.15543174743652 7.92824745178223 -4.66031455993652 5.12861442565918 9.57661056518555 2.34325313568115 -2.06106281280518 9.95433044433594 -9.7155590057373 3.49741172790527 -3.94384956359863 -6.20453071594238 0.502601623535156 -6.90562438964844 -7.63726997375488 7.81166791915894 -2.87137413024902 5.73077917098999 6.26055717468262 3.42326617240906 9.21048641204834 8.61980247497559 -8.66545486450195 3.05801153182983 8.61388397216797 8.33027267456055 6.42711639404297 8.84165191650391 -1.91879844665527 1.88409233093262 -5.04589557647705 -4.41521263122559 1.03512668609619 -5.14446449279785 7.88292360305786 5.14740943908691 -3.93494510650635 7.84102439880371 8.39288902282715 -4.57757091522217 8.46020889282227 7.94563484191895 5.21486282348633 -2.25926494598389 7.15731620788574 6.43149375915527 5.55347204208374 -0.0403680801391602 8.92738723754883 -9.07500457763672 2.68848609924316 -0.202607154846191 -8.76398277282715 -2.14706325531006 7.27387952804565 -6.0457820892334 -4.95840644836426 -1.37938404083252 2.42669486999512 -7.56890821456909 -5.32934951782227 3.38572001457214 -9.07970809936523 9.89760589599609 1.97787666320801 -7.44817543029785 8.95813369750977 7.16090726852417 4.54989194869995 5.8110523223877 -9.73097801208496 8.24761199951172 3.7858579158783 7.56159019470215 7.14355039596558 -6.75057220458984 -2.25893592834473 1.23193836212158 -9.85308456420898 4.69031524658203 -2.67637348175049 9.78778839111328 2.96187162399292 5.3729248046875 7.22806167602539 7.38818693161011 -7.79615211486816 -4.38050651550293 -0.409394264221191 -4.53311347961426 2.64925718307495 4.03437614440918 6.16714859008789 5.43244552612305 6.89083528518677 -6.82336616516113 5.01372814178467 -5.91192722320557 -8.58279800415039 5.88963031768799 -6.08648109436035 -7.68249082565308 5.5909538269043 3.84747695922852 -9.04819107055664 0.69019889831543 -9.81786346435547 1.83526611328125 8.36421489715576 -6.88702583312988 8.87285614013672 0.996726989746094 9.50101089477539 -0.825318336486816 4.84772872924805 -2.19125652313232 -0.768614768981934 -0.266474723815918 -2.7281322479248 9.66753387451172 -5.33482074737549 -2.94141387939453 9.15701866149902 5.48610210418701 0.852097511291504 -0.506587982177734 -1.37483501434326 0.359116554260254 -9.71672058105469 8.14917755126953 8.9760570526123 -3.81772422790527 5.3518533706665 -5.97287940979004 -8.41762351989746 3.32892608642578 -2.54295253753662 7.82414960861206 7.45519208908081 2.83992266654968 5.77463626861572 0.505858421325684 -3.13924694061279 3.91514754295349 -2.28428936004639 0.392557144165039 -7.52676773071289 2.73092031478882 9.83522796630859 8.96688652038574 0.412391662597656 2.96553373336792 1.05282878875732 -0.0868597030639648 -2.21003913879395 8.57560157775879 2.47280693054199 |
-2.2558650970459 -2.47320747375488 0.809396743774414 2.75410628318787 5.24941635131836 -6.57537269592285 -9.59661674499512 -6.25607681274414 -8.28414535522461 1.49257564544678 8.21440505981445 -4.04386901855469 2.850830078125 2.25962543487549 6.13997936248779 -5.83588123321533 -6.75264358520508 -5.45366287231445 3.52459669113159 2.25625896453857 7.69091081619263 9.00554847717285 -3.89708423614502 6.10552024841309 1.4515552520752 -3.66617584228516 7.95238494873047 -9.7901611328125 9.41912460327148 8.83952617645264 -6.89863395690918 -7.61543273925781 -5.08082389831543 -5.47476005554199 0.210966110229492 -5.93461990356445 -1.70706844329834 -9.00231552124023 9.55007743835449 -3.05004978179932 9.11092567443848 -6.34117317199707 2.37158870697021 -9.48904991149902 9.79746627807617 3.49864935874939 -7.56468963623047 -8.3042049407959 6.40105438232422 -7.64822769165039 -6.67980623245239 6.96019697189331 -1.97497272491455 8.44567775726318 1.66980171203613 0.0980892181396484 4.07589673995972 -9.0337028503418 0.287217140197754 -5.37112998962402 6.93875074386597 -1.27961730957031 -3.29630470275879 4.31416034698486 6.99666976928711 0.16823673248291 -2.29547882080078 7.65496015548706 9.4948673248291 8.28621864318848 -8.24248504638672 3.49253416061401 7.63090324401855 -3.9242115020752 8.30972194671631 9.95822143554688 9.52597427368164 4.56425428390503 8.15639019012451 -3.77085781097412 1.75071144104004 -7.19587516784668 -3.70287799835205 3.79890632629395 0.841745376586914 2.99968695640564 -5.5438346862793 7.90454864501953 -9.08329010009766 2.23259544372559 -8.25738143920898 8.45442962646484 -1.69084453582764 2.02240562438965 2.83624839782715 -9.31121444702148 -7.21908569335938 -3.28791046142578 7.48160123825073 0.0552234649658203 -0.559478759765625 -6.92182111740112 3.66780471801758 8.03648376464844 1.98469734191895 2.39905738830566 4.30469274520874 0.271867752075195 -3.58426189422607 -5.20403385162354 -4.86202144622803 0.956639289855957 -4.44890880584717 -7.2600269317627 7.70636558532715 5.97339391708374 0.858677864074707 -5.64464378356934 -3.33723926544189 4.19235944747925 -9.25555419921875 9.92096710205078 -2.0420970916748 1.3787784576416 1.57473468780518 -6.03112983703613 -3.26661682128906 2.88115692138672 -6.99179124832153 3.56469345092773 1.33163356781006 9.73384380340576 -2.85250759124756 8.91602993011475 5.87104797363281 6.96604490280151 0.0760402679443359 7.37428665161133 3.93618083000183 -1.36845970153809 -2.92672538757324 0.0289287567138672 8.84516525268555 -7.07052993774414 1.04945755004883 4.23306465148926 8.49853324890137 7.51107740402222 -5.66633987426758 -3.94180870056152 7.99954414367676 8.26371669769287 -4.90692710876465 -2.38422775268555 3.89116048812866 5.98870468139648 4.3431544303894 0.358461380004883 -2.66192531585693 9.5151309967041 5.03408432006836 6.41804456710815 -8.68449020385742 -6.02783203125 8.94038391113281 6.99849653244019 -3.47016906738281 -7.75617790222168 -3.31696891784668 -0.138169288635254 2.79557418823242 1.79644203186035 9.20336723327637 -5.50088691711426 -1.03420829772949 9.5266170501709 8.7616491317749 7.94332504272461 7.64849424362183 -4.85602474212646 0.0310478210449219 -5.91890335083008 1.99605369567871 5.12457847595215 5.51039886474609 -6.80354881286621 9.83425140380859 3.96707725524902 8.36306762695313 -9.86753273010254 8.22946929931641 -4.64211559295654 9.51969909667969 1.97468376159668 -1.89131164550781 -1.87191390991211 -0.947226524353027 -8.10905265808105 4.80805587768555 0.18959903717041 -7.89673805236816 6.44430589675903 9.86969757080078 -6.96336936950684 -0.18281078338623 -2.32176685333252 4.17663097381592 -8.42754173278809 2.35420322418213 7.04055547714233 2.47919940948486 3.72420501708984 7.74902534484863 -3.91275310516357 9.42307949066162 -3.03652667999268 5.81886053085327 6.41542625427246 2.01679611206055 5.76998710632324 4.24298286437988 -5.33124923706055 0.63304328918457 3.86275482177734 5.46603393554688 1.37504196166992 0.0797090530395508 -8.46327972412109 7.10507154464722 8.3553581237793 7.64288377761841 -6.16238069534302 -9.63142395019531 9.19728469848633 5.19914627075195 -2.14665031433105 -0.265255928039551 7.76298522949219 -6.54625129699707 -3.66531944274902 3.62685656547546 3.59281992912292 -5.65000343322754 -9.01355361938477 3.66952657699585 2.17618083953857 -1.27682590484619 5.78933715820313 -1.18942642211914 -5.3021068572998 -9.80733108520508 1.07083892822266 -3.05075550079346 0.360432624816895 -6.33403968811035 9.85318946838379 9.64722633361816 -4.7537670135498 2.21717739105225 -0.227831840515137 -2.23724937438965 -9.61865997314453 8.51351547241211 2.85438990592957 -4.32577228546143 -9.46110153198242 -3.06724643707275 -8.61324310302734 9.72097778320313 -3.88313865661621 8.49100112915039 -9.82254409790039 3.59748601913452 0.910233497619629 -6.33440971374512 4.78690624237061 1.822265625 6.75380706787109 -4.64049243927002 -8.39176177978516 -1.37360000610352 3.5708281993866 5.93446254730225 5.30583572387695 8.39764785766602 -1.4095344543457 -2.88114166259766 -0.695280075073242 2.19146823883057 -9.07941436767578 -9.85507202148438 6.01139783859253 9.76997375488281 2.11557769775391 2.27077865600586 -8.7702465057373 -9.38842010498047 2.75455451011658 5.34195899963379 -9.97802352905273 -4.44556140899658 3.52241969108582 -1.20035266876221 -6.5877513885498 -1.60641574859619 4.79175567626953 7.64869260787964 -2.87320232391357 1.04464912414551 6.94858551025391 1.95698642730713 4.86069440841675 8.82634353637695 -1.03659725189209 5.88435888290405 -9.89045143127441 2.88296461105347 -4.23394775390625 5.24226379394531 2.7111644744873 6.16894912719727 -7.13887977600098 -2.31495761871338 -3.8046350479126 4.9686450958252 -1.45266914367676 0.959244728088379 3.57526278495789 7.12369155883789 -8.66382789611816 -4.37699699401855 -8.29508590698242 8.12576484680176 3.92201399803162 8.81258392333984 5.92690944671631 -6.01349067687988 -3.66700744628906 -2.75189304351807 0.816911697387695 4.65047597885132 9.69275665283203 -9.49574661254883 9.5915699005127 -7.52491426467896 -3.34828281402588 1.1272611618042 -8.56159019470215 -0.828250885009766 -2.19955348968506 -4.45077800750732 -1.16278076171875 -0.706418991088867 -3.07909393310547 -4.27539920806885 -2.30330371856689 -1.71137428283691 3.51854777336121 -7.51533508300781 -0.361632347106934 -2.37041091918945 -7.04520034790039 3.63038778305054 6.37128067016602 -1.31598567962646 5.32956838607788 -8.71839714050293 -8.51527404785156 1.58259773254395 -0.209430694580078 7.05219984054565 8.23742866516113 4.3170166015625 -3.03629493713379 -9.16235160827637 -0.183440208435059 8.57182693481445 7.94563722610474 -2.76051616668701 5.57693958282471 1.54076194763184 3.2405469417572 -1.93335437774658 -0.315214157104492 -5.14964294433594 9.43828105926514 1.46122360229492 -1.14875411987305 9.82502174377441 8.45820236206055 -8.3709716796875 6.14062070846558 3.2600040435791 5.91405630111694 1.37924289703369 -6.5998649597168 -2.545241355896 0.294641494750977 8.65780258178711 -4.84683418273926 -4.87887287139893 0.166626930236816 -7.36420106887817 7.30511665344238 8.38366508483887 -7.58017730712891 -2.46767616271973 9.69337463378906 0.502633094787598 -0.821696281433105 -6.15218687057495 1.78896045684814 1.60135841369629 -0.616048812866211 -4.57780742645264 -8.38565826416016 -2.18493556976318 5.63123464584351 -1.67177581787109 1.58326053619385 0.957151412963867 0.577243804931641 0.873805046081543 5.37441968917847 -3.88688182830811 8.18775367736816 8.62738418579102 -8.81213188171387 2.03239345550537 -5.90734672546387 -4.82437515258789 -0.0908956527709961 7.62727308273315 0.20069694519043 -7.42207527160645 0.223907470703125 7.95039176940918 -5.27997970581055 -5.57544898986816 9.19640731811523 -7.9502911567688 -0.254350662231445 2.57077193260193 7.36732912063599 -1.05931377410889 1.57350921630859 -1.21475315093994 -0.660933494567871 -9.56292343139648 -1.67537784576416 -9.70363616943359 -6.76959562301636 9.19225883483887 -3.28548336029053 -0.201474189758301 4.37212467193604 7.29517412185669 -0.747159957885742 -9.04205322265625 -6.70113372802734 -3.20024108886719 5.99675893783569 5.04161071777344 -6.74068880081177 -0.936817169189453 3.0012366771698 -3.70407962799072 0.79093074798584 -1.13076114654541 0.587216377258301 2.82112312316895 9.18014335632324 6.68524217605591 2.90441966056824 8.23748397827148 4.28012371063232 -5.64527320861816 -1.42388725280762 9.95226287841797 2.70618629455566 -8.33789443969727 -2.4698314666748 5.11031341552734 -1.2283935546875 0.875452995300293 2.57605743408203 -5.24637031555176 8.4157772064209 -3.44706439971924 3.72583150863647 -5.93142032623291 -3.74250793457031 -7.90252685546875 -3.1090726852417 -6.87807846069336 -8.81993865966797 -6.7171459197998 -3.09500122070313 -1.14600276947021 8.92342758178711 -0.778332710266113 2.60433387756348 -9.70643043518066 -9.48218536376953 3.58787512779236 -8.38541030883789 6.13651990890503 -9.43915939331055 6.08941268920898 8.95100402832031 -7.14168977737427 3.90468573570251 -2.94948673248291 -8.67903137207031 -2.49579048156738 4.1783881187439 -3.57552909851074 -5.555739402771 -1.59552192687988 -4.50868701934814 8.93441200256348 1.17893314361572 8.60766410827637 -3.03609466552734 -1.45794296264648 5.49649429321289 -4.58154106140137 -9.95450782775879 -2.97726726531982 -9.00333404541016 5.98648262023926 -8.67168426513672 -3.19875812530518 0.617727279663086 5.2826189994812 5.20660877227783 9.83006286621094 -0.897246360778809 3.0106520652771 3.8907642364502 5.73198318481445 4.58051443099976 -5.0389289855957 5.83967924118042 -9.96078300476074 5.13748359680176 6.08471870422363 -4.06532859802246 -2.63216114044189 7.61468124389648 -9.57262229919434 -4.48097610473633 -1.35725593566895 2.72330260276794 8.52185726165771 2.81345558166504 2.93350410461426 -4.88253688812256 -2.30436420440674 6.33588790893555 -0.51148509979248 8.56903266906738 -7.41083574295044 -8.79302978515625 9.3324613571167 -9.27264785766602 2.58030390739441 6.94161939620972 4.53418922424316 -2.24904632568359 4.66271162033081 6.33350133895874 -2.3545446395874 1.61623859405518 9.44717597961426 -6.13914918899536 7.5811882019043 -6.39227342605591 3.38536715507507 -9.79582977294922 2.92657351493835 -3.72766399383545 6.59480619430542 -5.76377391815186 -7.72411155700684 -5.55558395385742 -5.55977344512939 -4.60261249542236 3.52584600448608 -2.15068435668945 0.150309562683105 -1.61486530303955 -1.63735485076904 6.00067138671875 -1.04166412353516 3.39384269714355 -7.35816192626953 -8.17148590087891 -8.38568878173828 5.18136501312256 |
-0.152097702026367 -0.69471263885498 -5.86698722839355 -6.12985801696777 1.11831760406494 7.75496244430542 -6.26831245422363 8.46847915649414 -9.13711547851563 3.84566497802734 -2.02284240722656 7.7891845703125 -6.88648223876953 -2.69564247131348 4.43122100830078 8.88429164886475 0.291901588439941 -0.380064010620117 -7.41593170166016 -3.98488616943359 -2.48228931427002 6.52870607376099 -4.38310718536377 7.89953947067261 -2.04205894470215 -4.04977226257324 7.25205612182617 -6.99269819259644 -1.99181652069092 1.89072704315186 -2.7423677444458 -6.26140594482422 -7.44944047927856 -3.75992202758789 9.14802742004395 9.45352077484131 -8.06192207336426 -3.64258193969727 0.426331520080566 -9.77084732055664 9.52466011047363 -1.17226982116699 -5.50552368164063 -2.49469375610352 3.22559118270874 -7.36624193191528 -9.51602935791016 -6.25173997879028 -7.36821937561035 -8.53069114685059 -7.16594886779785 8.36128616333008 -7.63428163528442 8.19661903381348 -2.3209867477417 -1.7429723739624 2.12706661224365 6.3462872505188 7.41099882125854 0.589903831481934 -7.48172760009766 -0.539203643798828 -3.2691707611084 7.07754564285278 0.572048187255859 -9.29747581481934 -5.78073024749756 -8.94740104675293 -9.22472953796387 2.79157829284668 -1.78871250152588 7.09054708480835 8.9207820892334 5.7371997833252 1.41197776794434 -3.40336894989014 6.26728248596191 9.27861976623535 -2.65871620178223 7.90589332580566 -4.20988464355469 0.184139251708984 0.637265205383301 -4.96454811096191 2.31200790405273 8.02445602416992 4.28711414337158 -6.17150831222534 7.9285717010498 4.60391521453857 -7.91036605834961 -1.47841358184814 -1.19001293182373 -3.74532127380371 -3.75408267974854 3.93951869010925 -7.55827140808105 -7.4392032623291 8.60345840454102 5.1353120803833 3.95509219169617 -6.97760057449341 6.93852424621582 2.92861437797546 1.0302677154541 -2.28674983978271 1.33537673950195 9.36421585083008 9.84012413024902 -0.405043601989746 -3.68014717102051 -3.63568687438965 4.29736328125 9.53275871276855 -1.83334255218506 -0.725096702575684 4.91179656982422 5.75850248336792 -5.07113265991211 -3.04546928405762 8.85428619384766 -2.33641529083252 -0.873290061950684 -0.670117378234863 9.34506225585938 7.76516675949097 2.06694030761719 -1.22782325744629 -3.84152984619141 4.79784727096558 7.62065458297729 -7.99279022216797 8.14121437072754 3.44751334190369 -7.0422511100769 0.798269271850586 -1.92586994171143 9.18363952636719 -4.20736694335938 -0.378998756408691 -8.30978584289551 8.28761863708496 -2.56713008880615 -3.94329452514648 2.87810301780701 1.75518608093262 8.36244106292725 -2.80154800415039 -7.16016006469727 0.713252067565918 -2.89466762542725 -9.40503692626953 -2.99788856506348 0.418509483337402 7.67710161209106 -3.24019336700439 -8.49486351013184 8.72450065612793 -7.60253477096558 4.07059669494629 -0.538803100585938 -3.77374744415283 6.45629644393921 -6.41898679733276 1.24831104278564 -3.20945167541504 -0.758973121643066 -2.41640472412109 3.4492347240448 9.99581336975098 -0.516566276550293 -8.52957153320313 8.89817047119141 -7.3939323425293 -0.16692066192627 -7.82773208618164 -4.54731559753418 -9.69712448120117 9.37101173400879 -6.65479230880737 8.81507873535156 4.97967910766602 -3.72110462188721 -6.9014949798584 4.68246459960938 -7.55731391906738 4.67391967773438 4.56800651550293 -5.96980094909668 1.34911441802979 -9.35176086425781 3.42319679260254 9.19010925292969 -8.32099151611328 -2.94004344940186 2.01157188415527 3.98174262046814 6.75485372543335 4.77751731872559 8.02752304077148 -4.54452610015869 -6.13014030456543 -6.11563491821289 4.37716484069824 0.621820449829102 2.12438678741455 0.638484001159668 6.10384178161621 -9.58079528808594 -0.322178840637207 0.578302383422852 2.74908781051636 -8.53732681274414 3.30291938781738 -6.68965530395508 9.52819061279297 -9.23867797851563 4.48531866073608 -0.366176605224609 -3.49874401092529 -0.713273048400879 9.498610496521 -0.243731498718262 6.76256370544434 7.59596586227417 -9.72643852233887 1.54293155670166 6.11267471313477 -9.72279357910156 -2.85839462280273 -9.24178314208984 -8.46278762817383 5.44832229614258 9.61694526672363 6.81125640869141 7.02831697463989 0.56364631652832 -8.40896797180176 9.06931304931641 6.5358829498291 -6.62443161010742 -6.77569389343262 7.47824668884277 0.839496612548828 5.43801307678223 7.94639348983765 7.16154289245605 8.40886116027832 -9.0560245513916 0.473400115966797 -9.5561695098877 -5.17558860778809 2.47506046295166 8.55477523803711 -9.56354522705078 2.7547664642334 5.39988040924072 4.69236135482788 -4.9701509475708 -8.34374237060547 -0.345712661743164 4.93569564819336 -2.71463489532471 -5.7785587310791 -7.56276893615723 -7.30210113525391 -6.41607475280762 4.21945571899414 -3.5922155380249 -2.63870143890381 6.04912519454956 -7.75514793395996 -2.82400035858154 9.49003028869629 3.87495756149292 -2.21587085723877 9.7071475982666 8.86353302001953 -8.34847450256348 -1.20227909088135 -0.534783363342285 0.329874992370605 2.33277702331543 -6.54796171188354 8.88306617736816 -1.35579967498779 -8.63599395751953 8.60659027099609 -2.03754043579102 7.38455533981323 -2.35427761077881 0.764516830444336 -2.10253143310547 -2.36312961578369 7.69966316223145 -5.40763854980469 -4.97411346435547 -2.56359672546387 2.9760570526123 -1.51950454711914 -4.94534587860107 -6.29521894454956 7.10223388671875 7.05549669265747 2.70678019523621 -4.91383647918701 -9.00531768798828 -1.18892288208008 -4.57831764221191 7.68466949462891 4.9286937713623 -5.39754390716553 9.04533195495605 -3.17745304107666 1.71815299987793 3.89619326591492 5.0891227722168 -9.7403678894043 0.750292778015137 -2.93877983093262 -7.98515748977661 -9.29057312011719 -1.74486541748047 -7.95483589172363 6.66214418411255 9.7534065246582 -0.386310577392578 -8.38513565063477 -8.74952507019043 -0.150069236755371 7.03269720077515 -3.0157413482666 -3.82701969146729 5.45011281967163 7.80098390579224 0.228828430175781 -2.46452236175537 -9.76198577880859 -1.6572437286377 7.3763370513916 7.56989479064941 8.43412780761719 0.969070434570313 4.42915153503418 5.37101268768311 -5.96112060546875 -4.69697093963623 3.57683372497559 -7.75882911682129 -6.14908981323242 4.64348554611206 -6.17980527877808 -5.94728946685791 6.53597593307495 -8.97600936889648 -6.73644256591797 4.50515747070313 9.38868999481201 -7.8326301574707 -5.82257461547852 -5.63256072998047 1.8528995513916 -1.67749786376953 5.9795970916748 -1.74387550354004 6.69713544845581 8.61056137084961 -2.2136697769165 8.31216335296631 -9.01634979248047 -8.33546829223633 -9.12376594543457 -7.03401756286621 3.99840545654297 -0.724667549133301 4.45001792907715 6.15947914123535 -2.27172470092773 -7.44722366333008 5.62164306640625 -8.17749214172363 2.62578725814819 4.90731716156006 -4.00629901885986 -0.650154113769531 0.486377716064453 3.17248320579529 -5.6290864944458 -3.29750633239746 -3.07774925231934 -8.83898162841797 -1.99686431884766 5.34612655639648 5.53061485290527 -5.64615249633789 -4.50824165344238 6.55775499343872 9.38893795013428 -5.87213516235352 -7.92756271362305 9.19629287719727 -5.52435111999512 3.48838996887207 6.37797880172729 -9.90976333618164 7.44626235961914 -3.56438255310059 -5.64168167114258 4.32336044311523 8.82147789001465 -5.45702457427979 -2.71528816223145 9.8604793548584 -6.97069597244263 1.92796325683594 2.83945798873901 5.28519821166992 -4.52634239196777 -2.02203369140625 3.09982061386108 |
