8.08747482299805 -6.64169502258301 -2.2719087600708 7.13843870162964 6.74255800247192 4.80736494064331 4.3792724609375 -7.53415870666504 1.75064468383789 4.853196144104 3.36289596557617 -3.86123561859131 0.552097320556641 -4.53201389312744 -3.5656795501709 -5.69437503814697 6.94913101196289 -9.1121883392334 3.00550651550293 5.76713085174561 2.83091521263123 0.451525688171387 -1.60439395904541 -2.18299770355225 -7.04571723937988 -3.13143348693848 4.74113655090332 3.33762145042419 -9.45251083374023 -3.6270580291748 3.4277172088623 -4.32645225524902 4.03227567672729 -0.453428268432617 5.78708171844482 -9.33287811279297 -7.89226531982422 9.11729335784912 5.56221485137939 1.94729900360107 0.37275218963623 -4.27468204498291 -4.59537601470947 -7.85896730422974 -6.92862319946289 -1.10990428924561 -5.46598243713379 -6.3525390625 5.78464698791504 -3.94556427001953 3.64959907531738 -9.48481369018555 9.31192398071289 4.1819167137146 7.04254579544067 -7.26377058029175 1.09899616241455 -6.07158231735229 9.27516460418701 -7.16889381408691 -2.91875457763672 0.447610855102539 -8.99853897094727 -7.27230501174927 -9.4907112121582 -1.91069507598877 -7.08195161819458 -9.28390502929688 -5.84017276763916 -6.26673889160156 -5.8798885345459 2.88663363456726 -3.16947555541992 9.05997467041016 5.69576025009155 -2.77656173706055 -0.99812126159668 6.2860369682312 9.6522855758667 6.81028127670288 5.11243343353271 9.45079803466797 4.77978897094727 -3.29976177215576 -1.59066104888916 4.50097799301147 -1.70503234863281 -7.64543104171753 7.19795656204224 -3.8662633895874 -8.81544303894043 7.23544120788574 -2.46766662597656 -7.76042509078979 -5.80444526672363 -7.3718113899231 4.55838918685913 0.822633743286133 -0.362099647521973 2.54900169372559 -1.41414737701416 1.64629077911377 2.34494304656982 2.942054271698 4.83389854431152 -1.21332550048828 9.9779224395752 -3.52955436706543 6.9411563873291 -9.73212432861328 -2.83400440216064 3.07921171188354 -7.61402130126953 -2.21814250946045 -5.54973125457764 5.54121208190918 9.06820106506348 6.06987190246582 6.3127589225769 -9.13313293457031 9.0676097869873 -2.28184127807617 -1.19866466522217 4.38251972198486 3.26121306419373 2.39600563049316 1.37993907928467 1.40151882171631 -2.83974266052246 4.30034637451172 -9.59666442871094 -9.67690658569336 4.53165769577026 5.71011734008789 7.76046943664551 0.852078437805176 -2.2826042175293 -4.77714443206787 -2.27971649169922 8.94504547119141 1.34787940979004 -7.72774171829224 0.274662017822266 -7.18145799636841 -4.51654815673828 -0.0450859069824219 6.43183469772339 9.27356719970703 -4.27766418457031 -1.29549598693848 -0.0855836868286133 8.90371704101563 -6.2686939239502 -0.0851001739501953 0.329738616943359 8.52564811706543 -2.24619770050049 -9.85350799560547 -0.286773681640625 5.07924556732178 5.99732875823975 -7.73379135131836 5.38261413574219 2.75533866882324 -9.37326049804688 -9.73899841308594 -5.42186260223389 8.3555908203125 0.425180435180664 -5.88228034973145 6.70414924621582 -2.37374210357666 1.88484287261963 -0.578218460083008 -4.76164245605469 5.06399154663086 -1.45279788970947 2.43853664398193 -4.49626350402832 8.17460823059082 -9.50588226318359 -4.47479152679443 5.55753898620605 9.76956558227539 -1.65770149230957 0.153256416320801 -1.66946792602539 7.22339200973511 -1.50364303588867 9.65396118164063 -2.67995262145996 -1.21095752716064 -3.12314605712891 -1.56124496459961 -9.14734840393066 -7.62307357788086 8.48781585693359 5.40331602096558 -0.445419311523438 5.45817565917969 5.58014631271362 3.63126730918884 -3.15777397155762 2.5540874004364 -9.11147117614746 7.42191743850708 3.72502517700195 -2.12405109405518 -6.63490724563599 -4.68802833557129 -6.49577665328979 -5.04488945007324 -3.81723499298096 5.03626346588135 6.1256742477417 9.16001510620117 0.708547592163086 1.61485576629639 9.03276634216309 3.66789793968201 -6.01922035217285 8.02861022949219 -6.72932624816895 -1.9729528427124 9.38935470581055 1.10179042816162 -4.00249099731445 7.48708486557007 3.28975653648376 -9.71591186523438 0.634383201599121 1.0073766708374 6.66269731521606 -3.29339599609375 -9.80963897705078 6.46544218063354 7.4709849357605 -4.97027778625488 2.52883410453796 -7.5055079460144 -3.29875564575195 -0.469470977783203 6.26883506774902 5.39145946502686 -9.79645729064941 -5.71488380432129 -7.55629348754883 -8.25880241394043 0.142022132873535 -5.29964637756348 -9.51853561401367 6.59124803543091 3.17400908470154 -7.8034496307373 -4.44344615936279 -1.80460357666016 -2.63380908966064 -4.22680759429932 7.25972175598145 7.11379241943359 4.6994948387146 9.33465194702148 7.98077058792114 0.267647743225098 0.437454223632813 -2.99347019195557 -3.48653888702393 0.686093330383301 -4.8704662322998 9.83858489990234 -4.4199333190918 -1.10031509399414 -4.92427730560303 0.55543327331543 -7.23887252807617 6.19914054870605 -5.38090705871582 -3.42610454559326 -2.14473819732666 -2.3908576965332 -1.05631923675537 3.32478284835815 -7.26627779006958 6.08352851867676 0.565675735473633 6.59173965454102 -2.8476390838623 9.63901710510254 4.05240058898926 3.57635474205017 2.00077438354492 9.77210998535156 -4.32875728607178 7.97295761108398 -9.92879486083984 -0.509261131286621 9.77970314025879 -4.61793327331543 1.86967754364014 -3.97097492218018 8.32870674133301 -2.06416511535645 -3.4556303024292 -5.33868789672852 -2.40253067016602 -2.1502103805542 4.09792137145996 -4.91788482666016 9.74200439453125 0.376972198486328 -0.389374732971191 0.994404792785645 8.87253189086914 9.09166717529297 2.56370520591736 1.45167446136475 -0.0426015853881836 6.46411466598511 9.50258445739746 -5.24618625640869 8.62446784973145 -8.3534984588623 -1.26800918579102 6.36899518966675 5.72198629379272 0.833772659301758 -4.07074356079102 0.623403549194336 0.44526481628418 2.12484741210938 0.0253572463989258 9.13077354431152 9.54172134399414 8.10029983520508 -4.97317218780518 -0.70130443572998 5.35550594329834 9.90857887268066 -7.0946102142334 7.33071851730347 -8.07917594909668 -3.40351486206055 -8.0482177734375 7.73638916015625 0.890871047973633 -8.52517127990723 8.68149566650391 -3.57626819610596 -9.26071357727051 1.04676342010498 7.06025838851929 0.430651664733887 5.90642929077148 -6.23215866088867 3.14111471176147 4.33105230331421 3.32382392883301 6.63762092590332 -5.18210220336914 -1.56518840789795 8.39934539794922 1.73066520690918 -4.63912105560303 -8.82559967041016 -7.53225135803223 3.2379195690155 -7.39683151245117 1.33736228942871 3.24815511703491 3.35841155052185 -3.08218097686768 -9.38165664672852 -2.57301235198975 -2.6558313369751 9.44314193725586 9.21146774291992 7.19776582717896 -5.17746925354004 -7.48557281494141 4.48504447937012 9.5723705291748 -5.15188407897949 4.79087829589844 -0.120419502258301 -9.7772388458252 9.06034278869629 2.9267520904541 -6.74884033203125 8.36722373962402 7.85780143737793 -9.70132446289063 -8.8654899597168 9.77890205383301 -6.84464979171753 8.10008239746094 -5.49465370178223 -6.47552919387817 1.46717166900635 3.4493396282196 -1.7030086517334 -8.19386672973633 -0.284656524658203 -0.0286474227905273 0.537575721740723 -5.97255706787109 -2.98860645294189 -0.056523323059082 -0.62496280670166 -3.37049102783203 -8.54691696166992 6.08687162399292 1.58586120605469 -6.51171684265137 -7.54116487503052 -7.61587572097778 0.427971839904785 -9.47874069213867 -5.46910095214844 -2.09740257263184 8.04882431030273 6.74669027328491 -2.77117156982422 5.24201154708862 -8.59660339355469 5.14957189559937 -1.29981899261475 1.42627620697021 -3.66630172729492 9.82057762145996 9.16854667663574 9.10114669799805 6.69157457351685 -6.03194999694824 -2.38848114013672 0.878643035888672 -1.34426975250244 1.20830917358398 7.67608404159546 -3.90571212768555 1.18994617462158 5.58141469955444 -3.66122341156006 7.37665367126465 4.49931335449219 9.43828392028809 -1.19221591949463 0.842708587646484 9.7305908203125 -8.80899429321289 -1.80374717712402 9.83353042602539 9.63481712341309 -0.0778923034667969 7.57896614074707 3.27465033531189 -6.39670181274414 8.53933715820313 8.48266983032227 8.07856369018555 -7.9051570892334 -8.47515106201172 -6.29256057739258 -6.84686470031738 3.28395342826843 -4.56393623352051 0.00440216064453125 7.5852370262146 3.52863073348999 -4.19884777069092 7.49067735671997 -4.77630996704102 4.83606100082397 5.50707340240479 7.57508277893066 1.91382026672363 -6.22283744812012 7.30997800827026 1.02058506011963 9.11909866333008 -0.694294929504395 8.93590450286865 3.3885715007782 -8.16803359985352 -2.2982177734375 0.339597702026367 -3.66056346893311 -6.24893951416016 -3.68979835510254 1.52920150756836 -4.74516487121582 -6.82502317428589 4.93532180786133 6.05700492858887 6.23431396484375 4.94683456420898 -0.707317352294922 -0.998912811279297 -1.97819805145264 -6.58987474441528 8.25318336486816 6.35004234313965 -5.74777793884277 6.69442892074585 6.3235239982605 5.69222640991211 4.02364492416382 -7.49224662780762 -3.29810047149658 -1.60260105133057 -6.01227951049805 -1.28748035430908 -4.52474975585938 -8.51251792907715 0.0596036911010742 -2.23833656311035 -2.65714550018311 4.91279792785645 8.58174133300781 -5.82398891448975 6.84557151794434 1.64055728912354 -9.75691986083984 2.67618155479431 5.19057750701904 -8.1367073059082 -3.82533645629883 -3.07720756530762 8.46875 6.35758924484253 -4.26551246643066 -1.81744956970215 -0.528348922729492 -1.48622608184814 1.00362682342529 -8.96389961242676 7.44438171386719 -2.71463775634766 3.40055441856384 -9.99971580505371 8.98819923400879 9.63847637176514 -5.07200050354004 0.256887435913086 -3.21311855316162 -9.43212509155273 3.93559646606445 -8.99456405639648 -5.25591373443604 -2.77475261688232 -6.50165987014771 1.3447437286377 -5.23197650909424 2.52254462242126 8.46176147460938 -5.0075740814209 9.22904777526855 -7.15422439575195 4.09961891174316 6.93985176086426 6.01533126831055 5.03972244262695 -0.105353355407715 5.86500644683838 -0.56756591796875 -9.00544166564941 6.74962043762207 -0.494380950927734 -9.05632400512695 -5.10587692260742 -1.55188179016113 -3.62324810028076 2.01972389221191 1.8631591796875 6.07501029968262 1.19689083099365 -9.35734939575195 8.75893020629883 -0.023890495300293 6.64466857910156 -3.94688987731934 -1.29913711547852 1.21861553192139 7.40690946578979 -5.81899833679199 9.11366271972656 9.85073852539063 -0.24705982208252 -1.7115535736084 9.02216720581055 8.9100170135498 -4.26611042022705 -2.79966926574707 -6.81285858154297 2.73307991027832 -0.498122215270996 3.27177238464355 9.8768253326416 8.42710018157959 -1.641188621521 2.19114875793457 5.6184458732605 5.10115385055542 -3.1962833404541 -0.676478385925293 -7.56981086730957 -4.34542083740234 7.49543190002441 0.143495559692383 -1.419602394104 -0.0337400436401367 4.53330039978027 -0.443214416503906 -8.92853927612305 1.03812313079834 5.65552711486816 -8.14531517028809 1.33161926269531 -7.62233924865723 -2.902907371521 6.00319862365723 -2.1402063369751 -3.32413291931152 -1.36881732940674 -7.75080490112305 0.869756698608398 4.39781665802002 9.51718521118164 7.35459518432617 4.11689281463623 6.03030681610107 7.18359708786011 -6.45670700073242 1.89063167572021 -7.61650276184082 -4.95396995544434 -7.16726112365723 0.284751892089844 6.63852882385254 1.81261920928955 3.73410677909851 1.42851734161377 9.58124542236328 -6.32485580444336 5.6626296043396 -1.22613334655762 5.83380460739136 2.22234630584717 1.12331962585449 -7.28866577148438 3.44652628898621 -7.63915586471558 4.52539205551147 7.16987800598145 -6.40154647827148 -1.64188766479492 -5.02643775939941 3.24899864196777 2.00294399261475 9.07200622558594 -0.606742858886719 -3.34920310974121 -9.47170639038086 -1.48608112335205 -5.78595924377441 5.79778671264648 -5.54461669921875 -2.71870040893555 -9.93891525268555 5.76242208480835 -8.98730087280273 9.28567409515381 0.721713066101074 1.83497524261475 -9.81314659118652 8.18589210510254 0.14949893951416 5.0856351852417 -3.59165096282959 3.04987668991089 -9.51949310302734 -2.81784629821777 -4.01272678375244 -2.5184211730957 8.89426231384277 8.9656867980957 -4.53219318389893 0.427474021911621 7.35385894775391 -2.02160453796387 5.15710592269897 -9.77262878417969 7.65535116195679 6.53230237960815 0.628643989562988 5.93560695648193 8.08530616760254 5.21456909179688 -3.06012535095215 -9.43155097961426 -8.33788299560547 -9.59311676025391 -3.94083881378174 -1.53830146789551 6.42845582962036 -3.98732566833496 4.06824827194214 -0.150918006896973 -2.59383773803711 6.27053022384644 0.457409858703613 0.935479164123535 9.4553394317627 -0.0979337692260742 4.66744899749756 8.05108547210693 8.11531066894531 6.51152372360229 1.87283134460449 8.3723258972168 -5.2426700592041 -8.82130813598633 -3.69990730285645 9.16918563842773 -0.309101104736328 8.37728881835938 -4.69722652435303 3.75501608848572 2.9709050655365 -5.57737827301025 -4.68570137023926 -5.2117395401001 -1.59454727172852 -6.35782432556152 -9.70237350463867 3.18315267562866 6.02390050888062 -7.88382339477539 -4.78720092773438 2.73642730712891 2.40303611755371 2.65696287155151 -3.56003379821777 -9.05864715576172 1.12595653533936 -4.73110103607178 7.87449312210083 -6.12438631057739 -3.55878257751465 -6.40644073486328 2.40038299560547 -1.70454883575439 -9.20164489746094 -6.01330232620239 -7.86379051208496 5.1671290397644 -1.74388027191162 -7.4641056060791 9.68231010437012 -3.20154762268066 -7.77185010910034 6.77635622024536 4.84558820724487 -6.15909385681152 8.04793834686279 -7.20889282226563 9.46584701538086 -2.94051551818848 -6.75955772399902 2.12144470214844 8.89439582824707 -3.26555347442627 2.81058502197266 5.5624885559082 4.13603019714355 -8.33816146850586 4.22024917602539 5.08019924163818 -8.8039436340332 3.37103343009949 -1.09683418273926 -2.69673252105713 -0.100499153137207 -8.86568832397461 3.01157712936401 8.25128364562988 2.61870360374451 -2.46156311035156 -0.337971687316895 -8.56797218322754 -5.47555160522461 9.80987739562988 3.22802305221558 -1.06967544555664 2.22318267822266 -7.92335510253906 -7.38455772399902 0.720519065856934 9.07096099853516 5.8666205406189 -0.318917274475098 1.97770977020264 3.95845603942871 4.76677417755127 -6.5516185760498 -5.93286991119385 0.624922752380371 -0.520686149597168 -7.48345184326172 5.01230716705322 6.27573728561401 5.3474497795105 -5.85149955749512 -0.384658813476563 -6.43671464920044 -5.42375564575195 -1.55132389068604 2.15839767456055 6.83675765991211 -9.35971260070801 -6.91299867630005 -1.05082893371582 2.08144283294678 3.35554099082947 -7.14705276489258 7.74445724487305 7.57584571838379 -4.89449405670166 -8.619384765625 -4.44899940490723 -0.401138305664063 -0.94000244140625 -3.74828243255615 -7.41011095046997 -7.95792770385742 4.2487735748291 8.0607967376709 -8.96102523803711 0.61139965057373 3.37164378166199 -8.7978458404541 7.83641815185547 2.88372230529785 9.81706809997559 -3.43014335632324 3.05728888511658 -0.9195556640625 0.679536819458008 3.43722534179688 -3.14531421661377 -7.93602418899536 -4.27010631561279 9.38517570495605 -8.79203414916992 0.513072967529297 -1.35102844238281 8.18423271179199 6.25567436218262 7.44382858276367 -4.17936706542969 3.13837027549744 4.20353126525879 -0.776061058044434 7.94873952865601 5.93911647796631 -2.42097473144531 5.93185615539551 5.40520429611206 3.24865102767944 -3.41496562957764 -0.377694129943848 -6.99025678634644 -6.37950134277344 -2.99270248413086 8.69465255737305 -1.37588119506836 -6.89498901367188 9.60698318481445 -2.49652767181396 3.68078684806824 -3.33489513397217 2.87796473503113 2.73272013664246 -7.72126388549805 5.79923391342163 2.492751121521 2.57598376274109 2.90452718734741 -3.95301723480225 1.06033420562744 -4.546875 -4.8204288482666 -4.8985538482666 -5.55973243713379 1.74933338165283 5.65135717391968 9.16290092468262 6.40383720397949 -6.43112182617188 1.52290439605713 -8.48612785339355 2.98678851127625 9.05099868774414 3.50174140930176 4.28347110748291 5.80577373504639 -4.15701770782471 -8.42594528198242 4.48201179504395 3.48881483078003 -4.0480842590332 -7.57972526550293 8.35934638977051 -4.02020359039307 6.20416402816772 -3.80719757080078 -9.09397506713867 -5.40824890136719 -5.35894870758057 2.01229476928711 8.30695629119873 9.88683700561523 -1.58330345153809 3.81676435470581 1.65859603881836 6.83179616928101 1.15370655059814 1.44446277618408 8.36910629272461 -3.57271289825439 -7.29033470153809 -7.95388221740723 4.77854919433594 -3.94623374938965 5.68812847137451 -8.85818099975586 -5.9719181060791 -4.0221700668335 6.56834363937378 -0.42998218536377 -4.50168704986572 -1.11902809143066 0.374790191650391 0.0369510650634766 6.3042140007019 -5.27873229980469 -5.03818702697754 -6.0120849609375 4.84116554260254 4.20231819152832 -7.14238929748535 6.42176818847656 8.65808296203613 -5.71845817565918 0.19114875793457 7.95042037963867 -2.10620498657227 -5.5018253326416 0.487383842468262 6.04429006576538 4.08630847930908 4.90189552307129 -6.50440645217896 -8.07692718505859 -3.96695232391357 -1.332444190979 4.16506958007813 8.98694515228271 9.45919799804688 7.5698447227478 9.16764259338379 7.94354200363159 9.83928871154785 -1.08717823028564 0.577210426330566 8.30782127380371 5.23298740386963 -0.90310001373291 8.71663856506348 -6.23208045959473 4.86966323852539 -9.59122657775879 8.57079696655273 8.40762329101563 9.11929130554199 4.7334361076355 4.22432136535645 -5.13519477844238 -0.680147171020508 5.37886810302734 -3.75351333618164 -6.7701530456543 -2.63651466369629 -6.45605278015137 -4.10124206542969 -7.51234483718872 -1.97723960876465 -1.68953514099121 -3.45300102233887 8.18543910980225 9.48105239868164 -5.05809020996094 7.75359153747559 -7.70367622375488 -2.33566665649414 -1.69836902618408 -4.93020629882813 1.50460338592529 -1.79216003417969 -6.91452789306641 -7.86923599243164 4.21137046813965 -8.63849258422852 -6.01372194290161 -3.20657157897949 5.64412117004395 -5.84546089172363 -3.3698902130127 2.91105246543884 -0.524410247802734 3.73810958862305 9.20687484741211 -6.60626411437988 -0.94473934173584 -4.82430553436279 -7.85389375686646 -4.35292148590088 -6.44001007080078 -7.52095985412598 7.87631559371948 3.24099731445313 -5.9824161529541 6.84631776809692 -2.19374084472656 6.87547254562378 1.52631855010986 -3.90655899047852 -8.72681045532227 0.840887069702148 -2.57124328613281 -9.79754257202148 -7.07673835754395 -4.50290584564209 9.8277645111084 -7.60082244873047 -2.49320411682129 -6.88423919677734 8.4660816192627 -0.830000877380371 -0.802436828613281 -3.31849002838135 -1.72463512420654 5.06640195846558 -1.61747550964355 -8.64841079711914 5.15766620635986 0.571967124938965 3.51258254051209 -8.29923248291016 -0.534993171691895 0.518613815307617 -6.150634765625 2.50626063346863 3.60866737365723 -1.94492721557617 -5.33796310424805 -2.99972629547119 -6.9063835144043 7.25655555725098 -1.44262409210205 -0.0549020767211914 3.7097499370575 6.19646787643433 -6.36525678634644 9.07510280609131 5.07287740707397 -2.62729740142822 -3.56772327423096 8.47709655761719 0.510882377624512 6.52469825744629 3.08549118041992 -5.17330646514893 -7.66178131103516 -4.00980854034424 1.77817440032959 6.06603813171387 -1.32437324523926 4.91376638412476 2.38023662567139 -7.13328552246094 3.97838091850281 5.8407735824585 2.71624326705933 5.77386093139648 8.99188232421875 8.08328819274902 3.48730540275574 -8.9171142578125 -3.73324298858643 -9.78853988647461 -6.6224627494812 -9.60822677612305 3.01291227340698 7.33268928527832 -7.10730361938477 0.0922861099243164 -4.60129165649414 2.88849067687988 2.31312656402588 7.05738496780396 -5.07387161254883 6.06525611877441 8.92608165740967 -1.13626861572266 0.991803169250488 9.05465888977051 -7.37477493286133 -5.0563383102417 4.09711599349976 2.5889585018158 -6.01887702941895 -1.67325592041016 6.92983388900757 1.38777351379395 -9.65545272827148 -3.38600540161133 2.434739112854 -7.19538164138794 9.52165126800537 -1.67711353302002 9.16906547546387 -1.89367866516113 -2.68899536132813 3.39069557189941 5.5954647064209 6.42886352539063 -2.92591667175293 7.20717620849609 8.53720474243164 3.3081316947937 -2.40645313262939 -2.30542755126953 7.61002016067505 -6.41773653030396 6.7508864402771 1.3473596572876 4.91661262512207 -9.36798286437988 -8.85987854003906 -8.75276374816895 -2.89216613769531 0.603732109069824 9.53409576416016 8.50455284118652 9.6208553314209 4.80981063842773 -5.11177825927734 -7.11740684509277 9.75475120544434 8.61243057250977 -2.50954055786133 3.47275233268738 0.576659202575684 -9.15590476989746 -3.15887832641602 -9.38340187072754 0.138262748718262 -8.82091331481934 6.91421699523926 -7.99086570739746 -1.74774265289307 2.35522365570068 4.70761060714722 -9.20284080505371 -6.32343101501465 -6.29251050949097 5.28224468231201 1.71964073181152 -2.54660224914551 9.4642448425293 5.73884201049805 -8.84864044189453 9.60818099975586 3.6189649105072 6.80419158935547 -2.55805110931396 -8.19525527954102 -3.30387687683105 1.73395252227783 -3.80882835388184 -8.77414894104004 -9.98956871032715 -2.84377956390381 8.73869132995605 9.46586418151855 9.95233726501465 7.59951782226563 8.8471622467041 -4.64938545227051 0.0198564529418945 -8.98015975952148 9.4632740020752 -9.3796443939209 6.84466361999512 7.06924438476563 -8.62875747680664 -9.70936012268066 -0.492578506469727 -9.27884101867676 -2.68199825286865 3.84317851066589 8.91117286682129 -2.87286376953125 3.2516074180603 -6.85861158370972 -4.03795337677002 7.53568840026855 9.95777320861816 0.970860481262207 0.123291969299316 -4.84085655212402 -6.46960258483887 1.88560390472412 -4.48117351531982 -6.76988410949707 2.93159675598145 8.81754875183105 -4.55562019348145 -2.14123630523682 -0.265430450439453 2.17789554595947 7.08192825317383 -4.60587882995605 7.57521390914917 3.87281608581543 -7.83323287963867 9.92779159545898 -1.16586589813232 5.79031467437744 4.52874374389648 0.824223518371582 2.33563995361328 -9.96870231628418 3.43032813072205 -6.94222450256348 3.75716662406921 9.00115489959717 2.24958038330078 -7.01689529418945 -5.7963228225708 -9.43278312683105 -3.82369899749756 5.712571144104 6.83455467224121 -0.602368354797363 -5.99307250976563 1.62165069580078 3.44152903556824 -0.848451614379883 6.33475065231323 -5.63754844665527 -0.260881423950195 2.61939764022827 1.50830173492432 -8.27087593078613 9.02969360351563 7.91754484176636 -3.52386569976807 -6.01411390304565 8.06393623352051 -0.0108041763305664 -2.75468444824219 -1.87258815765381 -5.91102123260498 6.4059944152832 -3.3383903503418 4.07347679138184 -1.89255142211914 -3.95178699493408 -6.60454750061035 -6.84823226928711 -7.87810516357422 -6.2326717376709 4.8591423034668 1.12442874908447 0.399941444396973 -4.71339130401611 -5.40248680114746 7.73940277099609 7.69230318069458 0.991233825683594 1.68568515777588 2.65844798088074 7.28410482406616 9.86203670501709 9.65774536132813 0.595067977905273 1.08761405944824 3.25831866264343 0.373478889465332 6.12893295288086 -2.62704753875732 -5.92478561401367 2.95080900192261 3.4833025932312 1.31515598297119 -4.93364429473877 5.01258087158203 5.56508779525757 2.24885845184326 -2.97944450378418 1.61220645904541 8.19985866546631 7.78390884399414 7.91064023971558 8.86433410644531 2.63366198539734 5.59104681015015 -5.65036964416504 -2.69256019592285 8.19835662841797 4.27952003479004 -2.20318412780762 0.959077835083008 -9.05118560791016 0.349536895751953 3.2392954826355 4.77323293685913 7.32353925704956 1.42763710021973 6.01619243621826 9.54322052001953 5.36276054382324 -8.37518310546875 -7.74530220031738 7.56942939758301 5.55500984191895 0.324564933776855 5.35779190063477 -2.91073226928711 6.53319120407104 7.36635208129883 4.20079231262207 0.0819358825683594 7.58340072631836 9.49285507202148 2.80225515365601 4.91135597229004 -1.88807582855225 -1.26610660552979 5.79011154174805 -0.350278854370117 -6.4288444519043 -7.30413627624512 7.71990013122559 -5.8896427154541 -8.49825859069824 7.17368650436401 4.52627182006836 -3.66392993927002 -6.89617586135864 -1.72411060333252 4.49622869491577 -3.72658824920654 7.25176572799683 5.81495475769043 0.0618257522583008 -9.37221336364746 7.98295545578003 -4.88753414154053 -4.61302185058594 -6.27065658569336 -4.96896839141846 -2.67248249053955 2.30833435058594 -9.57534599304199 4.85617637634277 -3.22369194030762 -3.72181987762451 -0.128422737121582 7.35943031311035 1.3127555847168 -6.50981473922729 2.67545199394226 1.82243728637695 1.35948276519775 6.22374296188354 6.29715919494629 -4.31100463867188 4.07339572906494 1.14828968048096 0.249944686889648 -7.67779350280762 -3.54293251037598 5.0506854057312 -5.73056697845459 2.71363973617554 -8.10487365722656 -6.43992233276367 3.95002818107605 0.799707412719727 8.58671379089355 -3.15276050567627 7.84076881408691 -4.30861854553223 -1.79592704772949 -3.30544853210449 9.04676246643066 -1.13136196136475 0.171862602233887 -0.715690612792969 -3.21904754638672 2.81721568107605 -9.65684700012207 9.76281356811523 -0.188502311706543 -8.06007766723633 -5.22874069213867 0.691872596740723 -5.38800239562988 -1.67832279205322 -9.55553245544434 5.40843486785889 5.76167821884155 1.44968891143799 4.98722791671753 1.79689025878906 0.646041870117188 0.836149215698242 2.99748611450195 -1.672287940979 -3.99624443054199 -7.15201187133789 -4.20109844207764 7.95689582824707 7.37034797668457 7.4126410484314 1.78980731964111 -9.04765701293945 4.86192226409912 -5.32446098327637 -6.14890098571777 -9.76972198486328 2.41591835021973 7.93514442443848 0.60838794708252 -5.15002250671387 9.05571937561035 9.07479286193848 -4.31703662872314 -4.82011222839355 -5.69273471832275 -7.83261108398438 4.13733243942261 -3.43209648132324 6.9085693359375 -1.97116947174072 -2.7605094909668 -1.42563247680664 9.67441368103027 -5.42151641845703 -4.93470096588135 -5.56697654724121 8.50567245483398 -8.93104934692383 -4.34497928619385 9.93365097045898 4.04866409301758 1.78818130493164 -8.34741401672363 5.27265310287476 5.46798896789551 -7.83564758300781 2.82892203330994 3.840491771698 3.89263343811035 0.451501846313477 -1.28305530548096 8.6942310333252 2.40020847320557 -3.42199230194092 -2.40734958648682 -1.09639739990234 -4.43525886535645 5.34318923950195 9.26286697387695 -7.41240310668945 -0.55454158782959 -9.37157440185547 -3.46123313903809 -9.83090209960938 5.04774570465088 -9.21134567260742 3.01931834220886 2.36237621307373 -3.82345771789551 4.59852409362793 -9.50006675720215 8.14921188354492 -5.06212043762207 |
-8.26287460327148 0.165523529052734 -2.85498714447021 6.66579008102417 -9.35852813720703 -3.6365213394165 -9.62211799621582 0.72630786895752 -7.1014518737793 -9.80805587768555 -2.82848262786865 5.61261367797852 -8.86337280273438 -2.89505386352539 0.956710815429688 0.922225952148438 8.99299812316895 -2.28210830688477 -5.0679759979248 4.41464185714722 -7.53120422363281 -4.09218692779541 6.22754812240601 1.84409999847412 -6.878173828125 -7.49081802368164 -0.807829856872559 -6.20321083068848 -2.56396675109863 8.54182434082031 -5.471510887146 -9.13569641113281 -0.762096405029297 1.70350933074951 9.38604545593262 6.1428165435791 -4.13345718383789 -8.40178298950195 9.62099456787109 -9.02642822265625 8.30995750427246 -9.85037231445313 6.30383491516113 9.06229209899902 -3.74616718292236 3.8150954246521 5.00513553619385 -1.37056922912598 -2.9605541229248 9.19548988342285 2.76543378829956 3.72877311706543 -4.61224174499512 0.0173864364624023 -9.54966735839844 6.53046083450317 4.16200160980225 8.58778381347656 5.94290494918823 0.531205177307129 0.178876876831055 -3.1452693939209 -0.448202133178711 0.263461112976074 8.73237609863281 -7.54172849655151 -5.64136695861816 6.69299125671387 -4.18722724914551 -2.36518955230713 0.614005088806152 -9.5886116027832 5.08284759521484 -9.22360420227051 0.353342056274414 -1.5843334197998 1.09130954742432 -0.439654350280762 -8.61296844482422 5.8083438873291 2.18102550506592 5.36168813705444 2.37989044189453 -0.0667963027954102 6.19392156600952 -2.94886684417725 4.56687164306641 5.53746700286865 2.33079051971436 8.42754745483398 -7.69764375686646 9.06976222991943 8.63469123840332 -4.88980197906494 -0.231405258178711 4.38448905944824 -8.17489814758301 3.669438123703 -6.32698822021484 -0.553921699523926 1.29580879211426 2.42841339111328 -1.01632022857666 -5.35378456115723 -6.00515794754028 -6.05625581741333 -6.80440902709961 -1.83136558532715 2.26248645782471 1.52619934082031 -5.33095550537109 -7.30135726928711 -2.19052886962891 -2.97765159606934 -2.02739143371582 5.59405326843262 4.53505277633667 -1.71154594421387 -8.6530876159668 2.67044258117676 1.90609359741211 3.93261408805847 -8.50247573852539 2.64815092086792 -4.74682712554932 4.56374645233154 -2.61076068878174 0.654367446899414 -5.62385559082031 9.78585433959961 3.70310282707214 -1.75883865356445 2.30099105834961 3.10011625289917 7.09458875656128 5.71081352233887 -6.99309539794922 -7.67594528198242 -2.61610126495361 4.6104097366333 -9.48060989379883 2.68773055076599 -2.59109401702881 0.650278091430664 -4.27585697174072 -2.5343599319458 -0.410660743713379 -1.22100925445557 8.41177749633789 -9.97543334960938 4.49704360961914 -3.9423360824585 2.67253112792969 8.66564178466797 -7.50437927246094 9.47697067260742 -6.19297218322754 8.54564666748047 3.6076877117157 -6.95391130447388 -3.87960052490234 4.85778045654297 4.49393272399902 9.28569793701172 -4.06536674499512 -2.50067615509033 9.33218002319336 -7.54984664916992 0.446161270141602 -5.89666366577148 -6.96771192550659 -7.40540504455566 -4.65128326416016 1.90807247161865 -8.55261993408203 -0.955306053161621 -9.37267684936523 -2.54220867156982 3.5078501701355 5.02637624740601 1.54075717926025 -8.69671821594238 3.9696786403656 3.57020139694214 -1.45188426971436 9.09416580200195 8.4999418258667 1.62324810028076 -0.377884864807129 -3.31904029846191 -6.78832054138184 9.00077342987061 -7.67389726638794 -7.47032356262207 3.89480781555176 -8.64134979248047 -1.48788356781006 3.86602163314819 9.12530899047852 -7.60675859451294 3.88174772262573 2.49961471557617 -0.71923828125 0.242420196533203 3.42597198486328 -6.74263000488281 6.63322877883911 -9.73012924194336 -2.72560501098633 -7.18550682067871 -6.86154556274414 -3.41221714019775 7.97073125839233 8.38901710510254 -5.49569129943848 -2.59075736999512 4.37039136886597 -7.63611268997192 -2.80485248565674 -1.25783061981201 8.92048072814941 -4.33481597900391 -7.307457447052 5.49138069152832 4.60067749023438 -1.69600391387939 6.47653770446777 8.82865142822266 9.57512664794922 -1.28354167938232 6.01810836791992 6.95348501205444 -4.75492095947266 2.56485176086426 -1.92092800140381 4.21648025512695 -7.33884048461914 8.26962661743164 -0.333419799804688 -7.161536693573 7.13044357299805 -6.18059587478638 -0.759052276611328 6.01962804794312 3.49659895896912 0.342277526855469 -1.88900852203369 9.96346950531006 9.90632820129395 1.38351345062256 -3.96071338653564 -7.17266511917114 5.9403133392334 -8.39970397949219 -7.85920906066895 -9.21785163879395 -9.90354347229004 -2.07552337646484 3.79476046562195 -1.40485382080078 2.06304454803467 -8.64519119262695 9.58029556274414 -4.33845138549805 7.30551195144653 9.43374824523926 -8.03180313110352 2.39663696289063 5.50424766540527 -8.87889099121094 4.51598882675171 -7.04841184616089 -0.0555667877197266 9.36348724365234 8.92140197753906 4.05516624450684 -6.02074098587036 3.1371066570282 1.66313743591309 -8.77110481262207 8.35591125488281 4.37802791595459 -9.00505256652832 -0.462318420410156 -7.60219383239746 1.41776657104492 6.14794158935547 4.28873538970947 0.460787773132324 0.135859489440918 -6.4907054901123 -5.77806663513184 -7.01239395141602 -1.42837142944336 4.69298553466797 -6.39104413986206 -6.67309761047363 -4.30787181854248 7.67329406738281 4.7056770324707 -6.50067138671875 -8.96784210205078 -6.82257127761841 -5.03120231628418 2.56234622001648 -4.76141548156738 -5.11206436157227 -9.07900810241699 -8.70637893676758 2.95796847343445 -2.29813194274902 -5.75985908508301 -4.7595796585083 -7.19679069519043 1.1303653717041 -2.82173728942871 8.55089569091797 1.24404811859131 9.63455009460449 1.73497104644775 -9.71651840209961 -3.56093502044678 -1.98305511474609 -3.32003021240234 -8.40257453918457 -1.54983139038086 -1.84648418426514 -7.27596473693848 9.34868621826172 -6.13027763366699 9.68324184417725 -6.48321914672852 -1.85579681396484 -6.20862007141113 -1.61324405670166 7.12177705764771 -8.44455337524414 3.08840727806091 -3.16069030761719 2.43025207519531 1.06300735473633 -5.67849922180176 4.02683019638062 -1.29551315307617 -1.04153728485107 -9.92766952514648 0.498424530029297 3.51187467575073 -6.18133354187012 4.79050159454346 1.20816135406494 -4.67453098297119 6.39726209640503 5.35369634628296 9.12362575531006 -4.20257663726807 -7.08747863769531 8.97558403015137 8.35695648193359 9.28260326385498 5.99233388900757 2.43222332000732 -2.31973743438721 7.11161613464355 4.96402502059937 -5.0530481338501 -9.66306304931641 5.31524181365967 -7.9176025390625 1.50132274627686 5.42349052429199 4.22917127609253 2.92951774597168 6.64480924606323 -0.986562728881836 0.0769767761230469 -7.16276597976685 4.56783294677734 -7.86943244934082 1.8781270980835 -9.32827186584473 8.06271743774414 -7.59682130813599 8.12399673461914 3.63226127624512 5.64924430847168 7.13866424560547 -5.53859233856201 -4.71774673461914 9.60048198699951 -3.33177947998047 6.07054710388184 7.61907577514648 -4.65199851989746 -0.23997688293457 -6.36285781860352 -8.22429466247559 -0.105191230773926 2.13059329986572 2.66255140304565 -6.29349899291992 8.43014526367188 -9.52632522583008 9.31579113006592 0.0271186828613281 -7.31903076171875 8.11100006103516 5.17440319061279 6.39611434936523 -4.29052734375 -2.23912334442139 -5.80298900604248 1.7348804473877 -9.3326587677002 2.78877449035645 6.86432838439941 9.39389991760254 -5.06436347961426 4.03645038604736 -8.40463638305664 9.61972999572754 9.34716415405273 1.54674625396729 9.8665714263916 3.5935161113739 7.89018392562866 -6.42408180236816 9.14784240722656 8.31119728088379 -2.43778133392334 0.91175651550293 2.49936199188232 0.72478199005127 1.61529922485352 6.39024925231934 5.95186424255371 -4.51068019866943 -4.84371280670166 1.23871231079102 9.51824569702148 -9.92465209960938 -5.27430725097656 -5.31520080566406 -4.11242389678955 3.91294455528259 3.96392583847046 0.689321517944336 -5.04080009460449 4.46222066879272 3.06402921676636 1.93881130218506 9.2258472442627 0.863190650939941 -0.24224853515625 -7.27505493164063 6.6960620880127 -4.80999088287354 -3.0266227722168 2.13018798828125 -9.08407592773438 -8.59008598327637 9.52070426940918 -7.83229064941406 8.55476379394531 -4.06755065917969 -1.03649997711182 8.88933372497559 9.63083267211914 5.78341007232666 0.389603614807129 3.37497901916504 -4.14634323120117 -7.91603088378906 -3.89102077484131 3.51747965812683 -0.403033256530762 6.33460569381714 -3.21375751495361 -4.62202930450439 -4.81430149078369 -0.794516563415527 9.83122253417969 -7.05353212356567 4.94269561767578 -4.49916458129883 -3.56664562225342 -0.885315895080566 -3.46179580688477 -9.5455207824707 -5.66372680664063 -6.17665481567383 -4.56634902954102 0.471524238586426 5.19237995147705 -8.39046287536621 -2.67379856109619 3.33449125289917 4.57086086273193 6.08241558074951 -6.20109128952026 9.48477745056152 4.70218420028687 -2.57405662536621 8.48025131225586 9.2763614654541 6.19395732879639 -7.58531141281128 -1.60766506195068 1.00922679901123 -5.15763759613037 -5.78723907470703 -5.03798961639404 -7.34724235534668 4.48987483978271 0.389708518981934 2.36805820465088 -7.93123245239258 7.12799072265625 0.346709251403809 4.35802459716797 0.91851806640625 9.23381996154785 -0.816201210021973 -4.19178104400635 -8.33097076416016 -7.80913352966309 8.46098136901855 4.95272397994995 4.56772565841675 -5.5988712310791 -8.04472732543945 -2.00524425506592 -3.0392370223999 -7.33799934387207 -4.04188251495361 7.37536954879761 6.31675910949707 5.98949432373047 -9.30348968505859 3.95949339866638 -9.50917816162109 -2.46090030670166 -0.819316864013672 -1.21866798400879 7.87360191345215 2.09969902038574 -8.97238922119141 -2.94427299499512 1.99581050872803 0.666953086853027 -1.12721538543701 6.07271575927734 -8.42472076416016 5.66844701766968 -5.98591041564941 4.48793411254883 3.69091010093689 2.72379851341248 8.38508987426758 -0.199970245361328 -2.43315124511719 3.82269620895386 -2.75389289855957 -8.85753440856934 3.79851794242859 -1.32210636138916 8.28090858459473 9.50939178466797 3.4152934551239 3.71648287773132 3.30343222618103 8.29174423217773 -9.51124572753906 -8.6950569152832 7.75873374938965 -0.103965759277344 1.06559658050537 -2.89701557159424 -7.21383619308472 -1.82774639129639 9.32402801513672 -6.88431215286255 4.11031246185303 5.01394271850586 5.83785247802734 0.825141906738281 6.2515025138855 -7.98735094070435 -8.47640991210938 0.112763404846191 6.16333198547363 -2.70275974273682 0.0598106384277344 4.35213565826416 3.10140585899353 -5.7501106262207 -0.0127067565917969 -5.6365852355957 -6.55550193786621 -0.224770545959473 |
-0.168663024902344 -4.94626617431641 9.25666618347168 0.171407699584961 -0.18680477142334 4.16704654693604 -6.17632675170898 9.73683547973633 -3.06682205200195 -8.63298225402832 -2.71176719665527 9.55420684814453 -6.99595975875854 4.56167697906494 -3.23270225524902 -0.346408843994141 7.45566129684448 8.84266090393066 -3.61481285095215 -4.6279182434082 -5.01960754394531 1.97228336334229 -5.00319290161133 -9.95834732055664 3.19139242172241 3.80702948570251 -4.72639942169189 9.42748546600342 -3.87397861480713 -3.88670349121094 1.78181076049805 1.18411922454834 -3.23248958587646 2.96125388145447 2.65473556518555 9.43884658813477 6.32611989974976 8.27621650695801 8.75209999084473 4.84415769577026 -2.91882419586182 -2.59580230712891 2.98158836364746 -2.25891208648682 1.18775272369385 9.39369010925293 8.69746208190918 2.14496517181396 5.49034309387207 -9.63952255249023 9.77609443664551 -3.4652624130249 3.21221113204956 0.855375289916992 8.62582015991211 9.57037734985352 -8.99879837036133 -1.17068672180176 -8.0089282989502 7.94399452209473 -1.77791690826416 0.974802017211914 -1.16050624847412 -9.59917259216309 -7.93390274047852 -2.45546722412109 8.8961935043335 -1.05170631408691 -9.3138427734375 8.11037826538086 3.70628809928894 -4.62529563903809 9.56449317932129 -8.64693641662598 3.75109648704529 3.23015403747559 -5.72157669067383 -0.242868423461914 0.46247386932373 -0.828598976135254 -5.15975952148438 0.319890022277832 -7.3228497505188 -8.69944381713867 6.24586486816406 8.06079387664795 5.12441825866699 -6.54145240783691 -7.77469444274902 6.32844161987305 9.48699474334717 -8.06168746948242 7.21323442459106 -6.25993919372559 2.33188724517822 -7.04450178146362 2.68700790405273 -5.6119327545166 1.22894668579102 9.25250816345215 -3.75457668304443 0.0969114303588867 -6.81218147277832 -2.27939510345459 2.32851409912109 -7.58669328689575 -9.40644836425781 -5.89694023132324 7.35975027084351 -6.36075210571289 0.884076118469238 2.71187281608582 4.27051734924316 -6.46929550170898 -0.628317832946777 -4.66266059875488 -3.3430347442627 7.02912092208862 3.58277082443237 -0.666032791137695 9.68636322021484 6.4853401184082 3.48706007003784 7.90229558944702 -7.58450698852539 -4.27041912078857 2.84547996520996 2.22288227081299 -9.10213470458984 -9.42416191101074 -9.35467529296875 8.48616600036621 1.87808418273926 -0.721377372741699 5.57898712158203 4.79731559753418 -5.9918041229248 -4.18496704101563 5.81024885177612 9.54008483886719 -5.21470832824707 -2.45598888397217 -5.00971031188965 -0.0483026504516602 2.78945422172546 -6.45924758911133 8.43445205688477 -5.53194999694824 2.30140590667725 2.44078540802002 4.10242080688477 -3.96467304229736 4.51818943023682 2.98475456237793 -4.50509166717529 5.39724349975586 -0.439396858215332 -4.85201454162598 6.71642303466797 -8.52279663085938 1.44876861572266 8.47128105163574 -5.28153896331787 -5.39327144622803 -2.8801097869873 0.41211986541748 1.52813053131104 -0.672646522521973 9.7357292175293 -5.22914886474609 -8.41082763671875 9.96724128723145 8.46176338195801 -5.16582298278809 -0.308176040649414 -8.29730033874512 -5.69044876098633 -3.37564373016357 7.78133583068848 -1.68599987030029 -0.994261741638184 -3.35503196716309 -2.53043270111084 5.09890747070313 0.505152702331543 3.96337962150574 -1.51420497894287 4.36618804931641 1.01317501068115 -3.22979068756104 8.32066345214844 0.473665237426758 3.21336245536804 5.42899131774902 2.1209774017334 0.609859466552734 -2.79559230804443 -8.20794105529785 1.35359668731689 4.09731864929199 -7.22547721862793 8.84626197814941 3.74192428588867 -6.94380950927734 -0.323885917663574 7.7879810333252 -1.1145486831665 -3.08896923065186 0.756186485290527 -8.08220863342285 -5.51953506469727 8.3958740234375 5.62337112426758 8.974928855896 5.85755109786987 9.62062644958496 -7.45151710510254 9.28659439086914 5.94242286682129 6.8760871887207 6.53585004806519 1.56570339202881 -1.53592681884766 -0.872138977050781 4.89902496337891 -2.83744430541992 7.16772508621216 -3.44581985473633 -9.48539543151855 -1.95058727264404 -3.11353778839111 -5.27700233459473 -0.983963966369629 8.18970680236816 5.53598403930664 -6.05341148376465 1.58773326873779 -3.20894145965576 6.42817497253418 3.17134094238281 -7.61270713806152 -9.46315956115723 -4.46863079071045 -4.72161197662354 -5.21616172790527 -5.1590461730957 -4.94414901733398 8.13863563537598 0.274614334106445 -0.440763473510742 -4.27747631072998 -7.34475326538086 1.18540382385254 2.99076795578003 5.96063804626465 -0.863880157470703 2.63104200363159 4.53878879547119 -2.93802165985107 -1.5124979019165 9.99700927734375 9.39212036132813 1.14913558959961 0.758009910583496 -1.21026611328125 4.40847873687744 6.26369905471802 5.57151556015015 6.96145582199097 5.32350730895996 4.18029022216797 0.890251159667969 -0.608993530273438 -4.03697109222412 -1.51688480377197 7.43055772781372 -0.12220287322998 3.0462908744812 9.08638381958008 6.40084981918335 4.5461368560791 -4.3632640838623 -1.57587146759033 -3.06425189971924 5.22191762924194 -6.71298027038574 5.72941970825195 0.668572425842285 2.83482050895691 2.16034317016602 -3.43971157073975 -6.03531312942505 -1.15263080596924 -9.99680328369141 4.09082174301147 5.69014549255371 -4.51351070404053 -4.24002742767334 5.45622062683105 -6.81352186203003 -4.96699714660645 -9.66478538513184 -8.40743255615234 9.00656700134277 8.52216720581055 -0.444516181945801 -3.11924362182617 -1.14510631561279 -2.0860710144043 -3.95974063873291 2.06884479522705 2.14015579223633 2.71547508239746 -5.19019889831543 0.627480506896973 -9.44838714599609 -0.86689567565918 2.72360992431641 -2.79764747619629 -2.86137676239014 -5.69248390197754 1.20890045166016 -1.71893215179443 4.18376684188843 3.46963119506836 8.58090591430664 -1.20336151123047 -5.38219261169434 4.9191427230835 1.7235746383667 3.63888931274414 -8.87287902832031 -9.76834297180176 6.05290412902832 1.2910213470459 6.89832878112793 -7.3562126159668 -7.05095720291138 -7.66850280761719 -3.15973854064941 3.78960108757019 -6.58205986022949 1.57596492767334 -8.99403762817383 -4.15640449523926 9.59815502166748 0.850573539733887 -0.489062309265137 -2.17089748382568 1.80883979797363 6.34422731399536 8.78982067108154 -3.94632911682129 5.10494232177734 -1.24918079376221 8.32455635070801 4.92922306060791 -0.0834426879882813 8.19345474243164 -6.01584625244141 -4.8326244354248 9.3255615234375 7.51882743835449 -2.95923805236816 5.15190124511719 -5.66864776611328 1.55555629730225 -5.38283538818359 -3.09274578094482 2.28563213348389 4.88901853561401 9.79584121704102 -1.83592414855957 -7.1728630065918 -9.74995040893555 -0.647388458251953 2.58296203613281 9.83331203460693 -2.37244987487793 1.54901885986328 -0.638436317443848 4.94964599609375 8.52327728271484 -0.0402631759643555 -8.46688079833984 -2.39589309692383 8.81412029266357 6.77151679992676 -2.34156703948975 -0.182186126708984 9.0486478805542 -6.95505142211914 8.10525417327881 -0.998419761657715 -5.5998706817627 -5.95376014709473 -2.57382774353027 0.917483329772949 -6.03939485549927 9.60217475891113 -1.52986907958984 -1.48667240142822 -1.47851371765137 2.05987071990967 7.67904710769653 -1.01959133148193 -8.38942718505859 -9.45823860168457 -3.39173221588135 7.62914657592773 8.04289817810059 1.53744316101074 -8.35050201416016 -4.45220851898193 -0.610328674316406 -1.60881614685059 -6.15354537963867 6.50401639938354 -7.49535036087036 -0.807126998901367 |
