-9.47380065917969 9.45733070373535 -1.46793746948242 3.92176604270935 0.661491394042969 8.2797908782959 3.89333486557007 -1.76021480560303 3.49581694602966 1.85976123809814 7.13263273239136 -7.91096687316895 9.43673896789551 -0.597606658935547 1.34559059143066 -3.39591598510742 -1.35185146331787 -6.61955833435059 1.93430042266846 -0.202799797058105 -6.08520078659058 -2.56046199798584 6.01561546325684 -3.95404720306396 1.30638027191162 -9.29524230957031 4.08593893051147 3.00692534446716 -3.16994285583496 -8.30968856811523 5.26641607284546 -2.74431133270264 1.44503021240234 -7.93484163284302 3.06759595870972 -8.3116340637207 7.75284004211426 6.78940010070801 8.20326232910156 -7.82022905349731 -6.10802125930786 -8.7530689239502 -4.317551612854 -3.08780747652054 2.79143786430359 -2.08302593231201 -5.18836212158203 4.66896057128906 -7.82742691040039 -4.23136329650879 -1.18063354492188 -8.01860809326172 -2.15110206604004 1.42369651794434 0.685378074645996 0.185007095336914 -2.66022777557373 4.90400505065918 -9.50551605224609 5.74975967407227 -4.8270263671875 -5.71033668518066 3.24534392356873 -2.55106544494629 -3.76439476013184 2.00525856018066 -9.97756576538086 4.36200332641602 -6.06225538253784 2.61738276481628 -7.69147443771362 -2.49434852600098 -1.65841484069824 -9.00077438354492 3.01645731925964 -9.03225135803223 -4.73026180267334 8.03353500366211 7.00691938400269 4.9380087852478 -2.45419597625732 8.78289413452148 9.89980506896973 9.08434677124023 5.66862821578979 6.87801551818848 -9.41141319274902 -8.16366004943848 -0.386613845825195 -9.55438995361328 6.17815732955933 -9.75978851318359 -0.772162437438965 3.15921759605408 -2.13946723937988 8.2088737487793 3.1748366355896 6.33439254760742 6.09955549240112 -2.89269828796387 6.85138702392578 -9.94672012329102 2.25652599334717 0.710638999938965 -8.02936935424805 2.84476470947266 5.65105438232422 -3.9210901260376 -9.61800003051758 -3.39156723022461 -8.80268478393555 7.91937303543091 8.93379211425781 -6.94235610961914 -2.48159503936768 -6.57068252563477 7.60889053344727 3.3006739616394 4.20230627059937 -6.59994125366211 6.04889106750488 1.72669982910156 -7.67237854003906 -7.73540687561035 3.68385291099548 -6.79372596740723 2.23530387878418 2.29466819763184 -0.461770057678223 0.073613166809082 -7.10874557495117 -1.61968326568604 5.49999952316284 9.46621704101563 -9.24826812744141 7.06016969680786 -13.0690217018127 -3.9466438293457 3.06390523910522 1.27166175842285 1.22546100616455 -1.22413539886475 -3.96755790710449 -1.39169597625732 -2.12086296081543 7.06990957260132 0.656438827514648 2.63813734054565 0.185564994812012 2.85027003288269 -6.67725372314453 8.10888481140137 2.92865514755249 -6.92854118347168 0.171061515808105 3.73578786849976 3.13803648948669 2.86350703239441 1.86832523345947 -0.360564231872559 -5.77089786529541 6.34557914733887 5.23706436157227 6.65122556686401 -8.90795516967773 4.36029195785522 1.73416519165039 -5.38430404663086 9.74262237548828 -8.99153137207031 2.26238632202148 1.69931030273438 -0.321832656860352 -5.14330101013184 -8.12919616699219 -4.84958553314209 -5.77259540557861 -0.0699224472045898 1.19882965087891 3.56746864318848 5.44753551483154 4.76687431335449 6.85278654098511 -9.85896110534668 7.39466667175293 2.39334201812744 -2.51529788970947 -9.51630020141602 9.13351440429688 4.4449634552002 8.4340238571167 8.71731567382813 -3.16501998901367 -1.63708114624023 -1.13616847991943 5.83708000183105 -4.40604305267334 -9.89243698120117 -6.33654069900513 0.759621620178223 1.45849609375 -50.20836353302 -8.21002578735352 9.08132743835449 5.93404006958008 6.69054460525513 6.64971876144409 -7.06281471252441 3.15392255783081 -7.84046363830566 -9.77609252929688 3.53485298156738 -6.24107360839844 -6.29554557800293 -8.76758575439453 2.8649730682373 3.31690764427185 8.69189786911011 -7.13473510742188 48.3889026641846 -1.11542129516602 -4.75906753540039 -0.484198570251465 -9.01664733886719 5.73686122894287 0.188928604125977 2.23416233062744 -0.811180114746094 5.24211120605469 8.1392879486084 4.52329397201538 -5.64582347869873 1.58719635009766 -9.35106468200684 -8.09950828552246 -8.66219329833984 -3.18415260314941 2.06653499603271 3.73843383789063 -2.98298931121826 0.0837221145629883 -7.1325831413269 7.88276433944702 -7.24026679992676 2.32643985748291 -9.58015823364258 -3.78149890899658 -4.70950508117676 -9.15338325500488 9.58911895751953 3.97495245933533 -3.06641960144043 -3.71405982971191 -0.073486328125 -0.116504669189453 -7.01794815063477 6.48713010549545 2.19511604309082 -8.96866989135742 4.05623197555542 32.7815351486206 -1.06074905395508 5.42963981628418 -5.08823585510254 -4.71510797739029 7.78413009643555 9.37036037445068 -4.21690559387207 6.97219085693359 4.43746328353882 -0.695954322814941 -6.86332511901855 -8.36576652526855 7.07062196731567 5.44553756713867 6.24010986089706 -2.24306488037109 -6.38935518264771 5.1271390914917 7.99335241317749 4.47736263275146 3.37664794921875 -7.44818687438965 -7.39546012878418 -9.16658401489258 1.96338558197021 -8.00628471374512 -8.89376831054688 -1.99674224853516 3.06579566001892 -6.82760047912598 7.65606880187988 9.51821327209473 -8.01410293579102 0.135556221008301 -5.43612670898438 9.9936466217041 0.539421081542969 -1.19342708587646 9.19887351989746 -9.95169448852539 -7.94284820556641 -7.15657758712769 -2.2475471496582 -6.32420349121094 -2.82412910461426 8.22015953063965 1.3586483001709 5.37948608398438 -7.20712232589722 -6.53550148010254 5.43020725250244 -6.0490608215332 -4.04008483886719 -7.09466505050659 -0.168498992919922 -7.71209907531738 1.06513118743896 -1.04976272583008 4.7879524230957 -6.35522079467773 -1.69554805755615 7.66171455383301 -7.58367109298706 -3.13050174713135 9.80965614318848 -9.30559158325195 -8.75426483154297 -3.21106338500977 4.53742980957031 -9.26015472412109 -0.610962867736816 -4.42244625091553 8.72256755828857 3.48591566085815 -3.25725936889648 -2.15857124328613 -7.51159238815308 -1.08274078369141 -2.60021114349365 -9.74941253662109 -0.456751823425293 5.45428276062012 2.61973357200623 3.60697937011719 -5.86789608001709 4.84071254730225 -6.08162355422974 -1.08416652679443 7.37273216247559 8.34585189819336 6.18958473205566 6.92168426513672 4.08465147018433 -7.85057067871094 6.92951393127441 -5.55348873138428 -8.37322235107422 -1.37346363067627 2.23636531829834 4.1808295249939 5.8579158782959 3.74068021774292 -4.12502193450928 1.311598777771 9.18421936035156 -2.6189079284668 7.22993421554565 9.94340896606445 7.31896591186523 2.54210925102234 1.47272205352783 -8.97538757324219 -4.66431045532227 -3.67592716217041 9.53103971481323 -4.86597919464111 0.55747127532959 5.14020681381226 -2.24196338653564 -5.6036901473999 7.58984565734863 0.404380798339844 -6.55917167663574 8.10804748535156 -1.78525829315186 -9.49489974975586 -8.72335433959961 -2.92264080047607 5.57896375656128 -4.58199405670166 -8.89813423156738 4.13975715637207 -4.54280436038971 2.34533882141113 2.51264071464539 1.83871650695801 4.35595512390137 -8.67672157287598 9.86419868469238 9.04444122314453 -1.39956855773926 8.88514709472656 -1.78671455383301 -0.268002510070801 4.08573150634766 -1.86717414855957 -4.20017623901367 1.57736396789551 -7.31356430053711 9.82692527770996 -0.419601440429688 2.27437114715576 1.11119842529297 1.69323825836182 -3.27725505828857 -3.43344783782959 6.81422233581543 1.97310543060303 3.97664999961853 9.04390144348145 -4.88666152954102 4.56969976425171 -7.77447175979614 2.50015234947205 -7.91751432418823 2.37217998504639 3.05227994918823 -1.21505641937256 1.7134895324707 6.61218214035034 5.24207592010498 6.68235778808594 -6.82233047485352 5.67578077316284 -2.39410305023193 -8.30291366577148 -4.14069747924805 0.0555887222290039 7.92183351516724 3.05036306381226 -2.16484642028809 -4.85073947906494 -1.22126197814941 8.11639595031738 6.595458984375 7.68939542770386 -5.71192264556885 -4.00774574279785 7.40029525756836 6.21890544891357 0.565532684326172 -1.93879508972168 6.0750675201416 -1.04434871673584 2.49044322967529 -5.43551445007324 4.70743894577026 5.51336050033569 3.95256757736206 1.93976497650146 -5.80099105834961 3.13633894920349 -7.37531852722168 4.41525650024414 3.07186102867126 6.39575004577637 -9.15332412719727 9.65427589416504 3.36450552940369 3.45842337608337 5.6374454498291 3.34991908073425 -0.423327445983887 -8.90146636962891 0.195652008056641 -5.87560653686523 0.158895492553711 5.15734672546387 -7.66804170608521 1.08731651306152 -2.08487606048584 2.98763465881348 5.53245544433594 6.99374389648438 1.26447105407715 -1.14161109924316 -6.62683057785034 9.74357986450195 6.4091968536377 7.29505109786987 -5.96137237548828 -4.41435432434082 -2.59130096435547 -7.87870836257935 7.98508644104004 0.674839973449707 8.29199981689453 7.99099159240723 -6.71476364135742 2.08214855194092 5.36405563354492 0.335103034973145 5.279221534729 6.0788106918335 4.10436461865902 -0.257214546203613 -9.15139198303223 -3.99013137817383 3.67253494262695 7.83029556274414 -9.54018592834473 8.45238876342773 -1.25009441375732 2.71212553977966 -4.33152294158936 -2.84171009063721 1.51062393188477 -4.72780323028564 -8.09844970703125 5.06195783615112 -0.0988874435424805 -5.92466163635254 9.66844367980957 -4.32515716552734 3.45635604858398 -8.75984954833984 -6.27511024475098 -7.81675148010254 -2.57822608947754 -1.0104808807373 -5.45221519470215 -0.080805778503418 -5.25064277648926 1.94889163970947 -9.90449523925781 -5.18637466430664 -2.60126686096191 -6.45866823196411 -4.04327964782715 -7.26433563232422 -0.690690040588379 4.06805992126465 8.47075939178467 5.9807300567627 6.83230400085449 1.00752735137939 -2.97510242462158 0.226384162902832 -0.514034271240234 8.87378692626953 -6.79444122314453 9.92085266113281 8.86204147338867 8.62763595581055 3.09531188011169 -6.93280744552612 -2.29560470581055 0.250672340393066 4.33307838439941 -0.110989570617676 8.32821083068848 2.63532829284668 -9.62517166137695 5.91914367675781 -4.5866117477417 3.60705828666687 6.82157707214355 -0.803261756896973 5.96792697906494 -2.79273414611816 4.51370429992676 3.07457160949707 5.41591167449951 6.11947250366211 0.862189292907715 -8.57983016967773 -9.1556453704834 -7.06604766845703 -4.48573970794678 4.45353507995605 5.6848258972168 4.36679077148438 6.69424772262573 1.76175022125244 -8.9062614440918 -6.45869779586792 2.95584440231323 2.24451637268066 -8.8975715637207 -2.98246479034424 8.64339351654053 -7.98527908325195 4.82058525085449 -3.6072883605957 0.232695579528809 9.59516525268555 2.72706747055054 -2.12411022186279 1.22963047027588 3.39460563659668 1.88890361785889 -1.61949729919434 -9.6341667175293 -4.02369403839111 0.853191375732422 0.793205261230469 6.16461944580078 -1.05725193023682 3.41787314414978 -3.47694492340088 0.538839340209961 9.96459484100342 7.42768812179565 0.162447929382324 -7.09158134460449 9.20418548583984 3.8903021812439 0.122164726257324 -3.57892417907715 9.27197265625 8.3138313293457 0.904654502868652 0.538030624389648 -6.25886917114258 3.21648097038269 6.75236177444458 3.6871166229248 -8.41134071350098 -1.50637054443359 8.15000915527344 5.61390113830566 -6.73420715332031 7.96670484542847 1.89835929870605 8.32925605773926 8.03672027587891 9.48613357543945 5.21448135375977 9.63189315795898 9.7882080078125 4.82999324798584 -4.27831268310547 5.8337664604187 -1.67556190490723 1.18570232391357 0.72248363494873 2.54792404174805 -5.69268035888672 2.62573432922363 -5.50495910644531 -3.35646724700928 -0.328126907348633 9.14118766784668 -2.34298133850098 7.42919158935547 -8.07865905761719 0.13902759552002 5.75360488891602 7.0324535369873 8.270751953125 -1.86211013793945 5.79325199127197 2.52074217796326 -9.96695518493652 3.72930717468262 1.93681621551514 -7.75902938842773 7.65129089355469 6.91425514221191 -7.51792907714844 -1.83173561096191 1.49372959136963 1.59171485900879 -4.16740036010742 -8.89856719970703 1.34885215759277 7.61978578567505 8.4540319442749 -4.24600982666016 3.06456065177917 9.69065093994141 -6.0152193903923 1.46291351318359 -5.75182723999023 -0.989480972290039 -1.70503044128418 7.85744142532349 8.32696437835693 6.03846549987793 7.48542022705078 -7.88401079177856 3.65102744102478 -9.69368934631348 7.63256072998047 -0.668386459350586 -0.562151908874512 -9.40810966491699 9.66230583190918 -7.84320402145386 -8.29194641113281 -3.90782260894775 -1.22989273071289 -9.59656143188477 -6.83525848388672 -1.31913757324219 0.954212188720703 -4.5595064163208 -3.92123317718506 -7.97607612609863 -0.72205638885498 3.93924474716187 -2.37942123413086 7.46241569519043 -8.46637344360352 5.84120941162109 1.13673305511475 -2.30822944641113 4.67602252960205 -3.58618831634521 7.86734580993652 -9.28628540039063 -4.87256622314453 4.53883647918701 -4.43051433563232 2.41600894927979 -0.961846351623535 -7.80752944946289 -0.719133377075195 9.67470359802246 4.32721328735352 9.42309856414795 -6.86817932128906 0.316990852355957 -8.38119316101074 1.48425197601318 7.93448638916016 -0.00438308715820313 -0.256985664367676 -2.43089771270752 7.20641660690308 3.90699148178101 -5.84136009216309 0.219455718994141 29.9066271781921 9.75185775756836 1.82262516021729 1.28950023651123 1.97970771789551 -8.45397186279297 -7.77275276184082 -0.0854721069335938 4.08724021911621 3.27330350875854 4.57897663116455 -8.78931045532227 -0.495186805725098 -9.5043773651123 -7.29486656188965 8.95864009857178 -7.82982301712036 -9.91547775268555 2.9496476650238 -6.59067583084106 4.42020177841187 2.94520354270935 -8.60390472412109 -1.31001377105713 -8.16938209533691 -8.25842666625977 -0.579963684082031 9.52139091491699 -8.95296478271484 7.51306962966919 -3.37461376190186 -5.03029632568359 -3.00633335113525 -0.896123886108398 -5.23878860473633 4.87017393112183 30.836353302002 -0.45770263671875 -7.33838081359863 1.01205921173096 -9.43228721618652 -6.74839019775391 7.10754823684692 -0.41497802734375 -4.00859928131104 0.298890113830566 -2.6506986618042 9.98604774475098 6.12626266479492 -4.55132102966309 -7.35386085510254 3.93354606628418 2.72405123710632 -3.66126441955566 -4.30009746551514 2.21752071380615 -1.50454616546631 -3.68701553344727 5.65468311309814 -5.83622932434082 7.60673093795776 -8.93956756591797 4.84704208374023 -5.01479911804199 -6.29181337356567 -9.86177444458008 3.86085271835327 -3.84243869781494 8.96933364868164 -6.19344711303711 7.57417678833008 -2.64317893981934 -2.04012489318848 6.64791297912598 -2.73819828033447 -6.68456840515137 -4.62930583953857 9.91638374328613 -3.19908714294434 -2.96940231323242 -6.92494583129883 -2.10591888427734 4.35755729675293 -5.04884910583496 9.94212913513184 -7.81676816940308 -5.37768363952637 -7.35401153564453 -8.5396728515625 4.4395637512207 -3.13023948669434 -8.84344291687012 -2.86345863342285 5.30061483383179 2.54089546203613 5.10853958129883 -6.12762260437012 -7.49290657043457 8.92286682128906 -2.20023059844971 -1.02755451202393 6.69103813171387 -0.593852043151855 0.476283073425293 -5.22174835205078 -40.1494988203049 -9.11137008666992 -7.707190990448 8.20368003845215 -0.881324768066406 -5.95632553100586 3.81129026412964 -7.37240266799927 -6.15343523025513 -5.20215225219727 3.27278590202332 -9.41157531738281 -1.63731479644775 8.32815933227539 -3.14355754852295 5.86862087249756 9.37067031860352 -6.41851234436035 -4.77610206604004 -1.90138721466064 7.92519330978394 2.5567672252655 0.0479879379272461 -8.56094360351563 -6.8486499786377 9.18139934539795 4.89169311523438 9.81458187103271 8.63943862915039 9.78066635131836 -7.88711977005005 -4.98945808410645 4.24070119857788 -7.23490190505981 -9.93463516235352 -4.14866542816162 7.06967878341675 1.20448017120361 -8.47097587585449 -8.19509506225586 7.28168058395386 -9.98100090026855 -3.87069606781006 -9.75714111328125 -2.6833381652832 -2.07089805603027 9.45217514038086 3.85029554367065 1.43910312652588 -4.05980968475342 0.300932884216309 -0.11808967590332 8.11129570007324 -9.73587417602539 -8.7483024597168 -7.29634094238281 -2.29785346984863 2.35629463195801 1.07180023193359 -1.62872695922852 2.06513977050781 -0.211502075195313 3.91720962524414 -4.48069190979004 3.07676291465759 0.515399932861328 6.98186111450195 -3.91898727416992 -8.24997711181641 2.60054087638855 -1.0674295425415 -6.447265625 0.529895782470703 3.5864372253418 6.06641292572021 6.86090469360352 -5.45000267028809 -1.9247350692749 0.646506309509277 8.25677108764648 -4.45156955718994 8.59324264526367 -7.90093421936035 9.34149169921875 8.21403503417969 9.16745185852051 8.2494945526123 -1.73093414306641 9.90493583679199 -5.62540531158447 9.02962112426758 -6.52941703796387 -5.17129135131836 1.92887878417969 -7.62341690063477 -8.89740180969238 -5.61833381652832 -8.14161682128906 0.578170776367188 -2.38780879974365 -5.69292259216309 7.56058168411255 0.73954963684082 -1.23179054260254 7.14510679244995 3.38080167770386 3.35669016838074 -7.96317100524902 4.50825452804565 6.78293228149414 -46.3601970672607 6.73995542526245 -3.20476627349854 -9.90472030639648 -9.22172164916992 -0.577730178833008 8.67422294616699 1.82387924194336 5.09447574615479 0.321420669555664 -8.32742500305176 -0.572286605834961 -0.982879638671875 4.67063426971436 0.505152702331543 2.50383567810059 0.797019958496094 1.85793018341064 5.68422794342041 -1.90209293365479 -4.23720741271973 3.38733172416687 7.26074409484863 -5.15703964233398 2.20974540710449 -5.0361156463623 2.90121269226074 -9.74417114257813 -3.68013477325439 -2.55778115987778 0.0994815826416016 2.75903677940369 6.45132064819336 0.469054222106934 3.76050925254822 -8.82405281066895 -3.45924949645996 3.58957481384277 -3.03975200653076 -9.25746154785156 -2.70275688171387 -6.54949617385864 -1.21840572357178 -0.0170698165893555 -0.927127838134766 2.69563174247742 -7.68627166748047 2.73070096969604 -1.45478820800781 -1.86384773254395 -5.28199672698975 7.42789793014526 2.78707265853882 -0.267437934875488 5.88081359863281 7.02161979675293 4.82640027999878 1.7029275894165 0.976814270019531 -1.23814010620117 -3.64322757720947 0.662003517150879 -9.4597282409668 0.567370414733887 -3.72046852111816 2.45345211029053 -5.68719673156738 2.47911548614502 -51.2022838592529 2.00751876831055 2.70823454856873 -5.08372497558594 -1.64409732818604 -0.567489624023438 8.06884765625 8.12182426452637 -1.71585178375244 -5.42964744567871 4.43603992462158 9.98376083374023 9.86328125 3.32942724227905 -0.890697479248047 6.14093780517578 8.93264007568359 -4.96745014190674 7.3895411491394 -6.95517349243164 -2.65215015411377 -8.43077659606934 9.02886581420898 4.28046703338623 6.61413383483887 -6.83758544921875 4.53015518188477 -6.23346328735352 0.593453407287598 8.73575210571289 -4.91366291046143 -8.34025382995605 -8.28674697875977 7.89310455322266 -2.04368686676025 8.08366298675537 4.53686904907227 -6.61423873901367 6.46057844161987 2.69602274894714 -8.37617683410645 3.56080985069275 -7.07923698425293 1.09360790252686 8.43021202087402 -5.6166410446167 -3.08723831176758 -6.89493370056152 0.563794136047363 -6.26813888549805 3.81603002548218 0.76672238111496 -3.63685989379883 4.00304555892944 5.89178276062012 -4.51438045501709 0.89612865447998 -7.24395751953125 0.16161060333252 -9.39089012145996 -3.39671230316162 8.11177062988281 -1.21464824676514 8.10417556762695 6.28090333938599 8.74279975891113 -3.06106472015381 -4.33714294433594 -1.65710830688477 2.39151096343994 9.03901863098145 -3.88826751708984 3.9872739315033 8.43112468719482 -1.06812572479248 7.55310249328613 -7.22146558761597 -3.89621829986572 -4.76156616210938 3.68538618087769 -3.1607494354248 8.90905570983887 4.8667163848877 -9.16967391967773 8.20270538330078 -1.09689140319824 3.8597104549408 -4.50593090057373 -3.64066982269287 -1.49146461486816 -6.96829032897949 -0.869692802429199 -6.88229751586914 -6.16235733032227 5.68581771850586 8.99267387390137 0.162524223327637 6.75327301025391 7.03285932540894 -1.28582572937012 -4.31462860107422 -6.78961563110352 -0.39768123626709 6.30584907531738 -7.76105690002441 -8.64213752746582 0.829609870910645 0.575942039489746 -1.15789985656738 -6.18105888366699 -1.67160892486572 -5.29192733764648 -8.19932556152344 -4.25012493133545 -2.47159385681152 -4.34679126739502 -2.76842021942139 -6.85982179641724 0.811232566833496 -4.53906631469727 -5.54484844207764 -1.38397121429443 -5.13517570495605 2.10737609863281 -9.92514038085938 14.2711019515991 -0.419081687927246 -4.2456111907959 5.52040815353394 -0.241347312927246 3.453528881073 2.19282531738281 -9.20165824890137 5.53564548492432 -8.99678802490234 -7.62415885925293 -0.340825080871582 -3.28774547576904 -4.91685771942139 -7.16740798950195 9.12895393371582 -9.62994003295898 -5.95220375061035 9.07592582702637 -8.29759216308594 -2.71012210845947 9.25329399108887 -1.87462902069092 6.11196041107178 7.85913038253784 -6.78799629211426 -5.24877071380615 0.838581085205078 -3.40133571624756 4.32205390930176 9.1909008026123 -3.86454200744629 -4.13078880310059 4.25390243530273 -3.12532520294189 -2.88491153717041 7.39005088806152 -9.09250450134277 -1.4420690536499 -9.55340385437012 -7.20502090454102 6.47953033447266 -9.10247802734375 4.00137138366699 6.58864212036133 -1.86206436157227 -4.25655746459961 -4.90555191040039 -0.912657737731934 -8.88149452209473 8.16079330444336 6.11879730224609 -7.8963451385498 -6.88024520874023 -2.36971950531006 5.54869413375854 5.12836217880249 4.19714689254761 1.25604724884033 3.00609350204468 7.61096845567226 4.66217994689941 1.49409866333008 3.5041139125824 -4.67076396942139 4.25538539886475 2.01612567901611 -8.63563537597656 -4.9852409362793 -6.92109107971191 7.80526876449585 6.96065139770508 3.6110897064209 -3.59711265563965 -2.03777885437012 3.02102279663086 -7.78137969970703 -3.07017230987549 8.72400093078613 -3.69156265258789 -7.17183303833008 -6.08164978027344 -2.00796985626221 2.16710186004639 1.38160800933838 -4.32161712646484 27.6024513244629 0.48658275604248 3.15746283531189 -4.00660610198975 -8.70770263671875 -3.53791809082031 -18.4912204742432 2.62225866317749 9.65340614318848 -9.42924308776855 6.36824798583984 0.694581031799316 -4.7653284072876 -0.468555450439453 -6.82271003723145 3.73732542991638 -6.76560926437378 -8.73850250244141 -6.77976417541504 -1.68463611602783 6.93038177490234 5.07771253585815 1.14522075653076 -0.493105888366699 6.76063299179077 6.66310739517212 9.71875190734863 3.88194060325623 -5.12245941162109 0.350674629211426 7.02273559570313 2.7164409160614 6.17535352706909 -9.86662864685059 -7.16675567626953 7.79716491699219 -1.07081985473633 -9.37053871154785 -8.54313850402832 5.94279289245605 -5.05490303039551 2.10702991485596 0.912114143371582 -4.65710544586182 6.29197645187378 4.27046775817871 5.25869846343994 8.81409668922424 -1.64177322387695 2.10996723175049 -7.62924194335938 -9.53914451599121 1.59761047363281 1.90647220611572 5.9349513053894 -4.9720031619072 -2.10029697418213 -8.29762268066406 3.066565990448 -0.965081214904785 7.4094557762146 8.32801055908203 -1.61878681182861 1.66634464263916 -7.61398315429688 -9.70701599121094 -4.48498344421387 -6.01993751525879 0.873104095458984 3.71461844444275 -4.20214557647705 -9.33107376098633 -6.89809989929199 -6.74668502807617 -7.26058769226074 -4.02897930145264 -1.7154369354248 -1.09177207946777 -2.45564365386963 1.66269397735596 8.71663856506348 -5.37561225891113 -2.06647491455078 -0.0283708572387695 -3.12409496307373 0.474625587463379 3.35981559753418 9.74106025695801 7.68522977828979 -5.97913265228271 -7.86810350418091 2.44398021697998 -6.75370216369629 -4.93669414520264 -5.33536720275879 8.5406665802002 3.85716891288757 -5.61193943023682 8.48978424072266 -1.57371616363525 -6.89572334289551 4.1968035697937 -7.79960203170776 -1.20613479614258 -8.89042854309082 3.70570635795593 -1.95310688018799 -3.25420475006104 4.29884147644043 5.10343313217163 5.9581446647644 0.181509017944336 2.60770559310913 -4.06245136260986 -7.0698070526123 -7.04976606369019 -6.85441780090332 -7.53976821899414 4.50445890426636 -7.58023071289063 -1.08166790008545 -7.79381561279297 5.14020442962646 1.46108382940292 -2.34449005126953 5.53727149963379 5.37559700012207 -0.570794105529785 -3.39877986907959 -2.78592681884766 3.44054412841797 -2.36610794067383 -5.29094696044922 3.54224920272827 9.55138206481934 6.24311208724976 -5.72723865509033 -6.31004524230957 7.12614488601685 -8.17377877235413 6.71478700637817 1.63093948364258 8.67745876312256 -1.11840152740479 -2.02385807037354 -8.32636833190918 -4.58094024658203 1.17736434936523 -8.95576286315918 -7.32829093933105 -0.566535949707031 -7.63290596008301 3.5097861289978 -1.62685775756836 4.80854511260986 5.25794219970703 6.146240234375 -4.658860206604 8.92093849182129 5.17197370529175 -2.35886669158936 -6.89203262329102 -2.05820655822754 -8.6814136505127 -9.64741516113281 4.41472768783569 -8.02947044372559 -0.920434951782227 4.24759387969971 9.38803482055664 -5.4193639755249 8.98805809020996 -0.302146911621094 0.634292602539063 7.74172973632813 -2.40239238739014 4.22583770751953 1.32205581665039 8.20881080627441 -6.47066879272461 -2.12358570098877 4.3752646446228 -0.281229972839355 9.09660530090332 6.26171112060547 -1.38474559783936 4.67829465866089 -6.87225151062012 -5.37483215332031 -2.14594745635986 7.91404724121094 -5.70214462280273 -4.31974792480469 -4.26653480529785 6.81650161743164 5.61557769775391 -5.09279251098633 -2.6005163192749 -3.16963768005371 9.88962364196777 -9.25232124328613 -2.12306118011475 -4.19093704223633 -5.46481895446777 1.16255378723145 3.58026480674744 0.0183448791503906 7.3039984703064 5.99422216415405 3.4556291103363 -3.7697639465332 -8.27305603027344 -1.92243194580078 -5.85342884063721 -5.55997085571289 8.02957534790039 -4.81087303161621 4.70255374908447 3.19625091552734 -7.59785461425781 3.2165048122406 1.61914730072021 -2.629638671875 -4.07291030883789 -3.07177448272705 -9.78607940673828 1.92352390289307 -7.74575996398926 -1.86779880523682 -9.94219207763672 -4.97555160522461 3.34137415885925 2.96538329124451 -2.75032424926758 3.24724912643433 -1.81324863433838 0.833025932312012 3.8850040435791 -5.57804584503174 8.63373756408691 -5.72434902191162 3.23925948143005 -3.76385593414307 9.11080837249756 0.18614387512207 -9.28240585327148 -1.89260578155518 -4.75802326202393 5.64658641815186 -0.744256019592285 -6.50825500488281 2.75622820854187 -9.36308288574219 7.19753694534302 5.9471607208252 1.56676864624023 -1.36961555480957 4.19192790985107 4.26187038421631 -0.583835601806641 9.62764930725098 9.81695556640625 |
9.41691207885742 -6.68581008911133 2.6942081451416 -0.867403984069824 -2.78856658935547 4.43960666656494 0.390423774719238 -0.0104179382324219 -6.4871997833252 5.04570722579956 8.41565608978271 -3.34877872467041 7.49277496337891 -9.33621215820313 -4.01578044891357 4.54602718353271 -7.19120979309082 -7.13481140136719 -7.72470283508301 2.14327430725098 -20.9029417037964 3.29586219787598 -1.3064489364624 -7.1555347442627 -1.01971530914307 -4.35647106170654 9.86015510559082 1.16999530792236 6.89278078079224 9.70533180236816 -0.903424263000488 -0.435420036315918 -5.51277351379395 9.2337818145752 0.312565803527832 6.54976320266724 0.314043745398521 -1.21991062164307 1.35391139984131 -1.2609395980835 -9.76383399963379 -0.00994300842285156 -5.52057266235352 3.13658213615417 9.51630020141602 9.98827934265137 4.18281745910645 -2.05642795562744 -4.85961818695068 -2.05140018463135 -9.53313827514648 -2.84546279907227 3.47079038619995 5.35748958587646 -1.86879539489746 -1.74965763092041 -9.87716484069824 -3.27323341369629 1.8315896987915 8.17478179931641 -3.54727172851563 -3.96981334686279 6.13212776184082 2.02853584289551 -3.63191223144531 -2.64778232574463 5.11460304260254 -4.58258056640625 4.69293117523193 5.27237892150879 -9.50292587280273 5.0481104850769 4.59113311767578 6.4492564201355 8.49432373046875 -8.35110664367676 5.05356979370117 -5.64303398132324 -1.955002784729 7.41473388671875 9.19518947601318 0.790204048156738 3.25028610229492 -8.96991539001465 2.23110771179199 2.29423904418945 -8.22012329101563 0.990329742431641 9.20708847045898 -0.398951530456543 -0.62371826171875 9.19792556762695 9.92248916625977 21.1599960327148 4.43934917449951 -2.32203102111816 -8.07080268859863 6.83908653259277 -8.47149276733398 0.622535705566406 2.35373878479004 1.84962844848633 -4.50392150878906 -3.36530590057373 3.09356665611267 9.85091018676758 -8.30934524536133 9.67411231994629 4.35925483703613 4.61299657821655 5.3998851776123 -4.4035472869873 -9.48145866394043 -2.99123668670654 -4.17500615119934 9.33536529541016 0.602804183959961 -4.96506118774414 -3.49599266052246 5.30269813537598 0.103078842163086 -24.7243185043335 5.4333610534668 -4.96192836761475 2.18954467773438 -5.75057983398438 2.50802755355835 2.8081271648407 2.40580177307129 -9.40096282958984 -0.0277843475341797 7.50389099121094 8.16984558105469 -5.93749237060547 -6.6096134185791 2.89473509788513 -3.10531997680664 0.577677726745605 6.79050016403198 -5.65921306610107 -6.61901473999023 7.48295021057129 7.45535612106323 -5.26011276245117 -6.60989332199097 -3.90404796600342 1.05053997039795 -6.72480773925781 -3.18512344360352 0.139456748962402 -3.36845779418945 -5.75897026062012 -7.87790727615356 -1.89195537567139 9.65547370910645 -2.21095180511475 -8.31443786621094 -3.92426872253418 -4.27611255645752 6.40664625167847 7.21479940414429 0.707100868225098 6.04712247848511 0.22849178314209 7.14596748352051 5.90100479125977 5.05071401596069 -6.06939506530762 -8.72660827636719 3.21412539482117 6.10290050506592 1.75380325317383 2.59932971000671 1.3715353012085 2.98922300338745 -1.9669713973999 6.86239004135132 -5.9801197052002 -7.49343109130859 4.54025268554688 -9.69303512573242 -1.79931735992432 -6.84601020812988 -8.99554443359375 -9.94744300842285 -8.32781028747559 5.0066614151001 -3.98077869415283 -0.932775497436523 -1.3999137878418 1.63939380645752 -7.44460105895996 -8.02519989013672 -9.80009460449219 6.99741363525391 5.13823509216309 0.980435371398926 1.8099365234375 8.59533309936523 -0.660019874572754 7.99736452102661 7.72830009460449 -9.89361000061035 0.720695495605469 7.60029268264771 7.6997332572937 4.98534679412842 1.72740077972412 -0.248185157775879 -5.30079650878906 -0.0902280807495117 3.31095194816589 9.66288375854492 2.14028453826904 7.31877851486206 0.234256744384766 5.89301300048828 7.17667055130005 -7.92098808288574 -9.00320434570313 -2.83059501647949 3.45466589927673 9.72558498382568 1.86617469787598 5.77773284912109 8.94290161132813 1.42991924285889 -3.77509498596191 3.04380393028259 2.21964454650879 -8.69202423095703 9.92462158203125 8.87821960449219 9.73508071899414 5.9431266784668 -9.2624683380127 6.73135948181152 -4.21937084197998 7.57690191268921 6.07973289489746 -9.61235237121582 4.14273738861084 -7.24744367599487 -7.64881563186646 6.84930038452148 3.8526554107666 3.98680663108826 -7.95431900024414 6.75289869308472 -1.08158016204834 -17.2214727401733 2.73820376396179 -1.80012321472168 8.94920349121094 -3.03587532043457 9.81200408935547 -2.39598369598389 3.48162627220154 7.32214403152466 6.37002182006836 7.55075454711914 -9.17109298706055 -2.68200016021729 3.43623614311218 -1.65524387359619 -9.92340469360352 -0.307132661342621 3.34519362449646 9.84782028198242 -4.4575080871582 -8.48041725158691 6.6845965385437 -40.6386184692383 -7.28622245788574 1.37556648254395 -6.81024980545044 -1.67833423614502 -3.68434524536133 -4.56034564971924 4.10647392272949 7.67081022262573 -5.38066673278809 4.96311664581299 4.89637136459351 4.9626350402832 8.00816345214844 8.09273147583008 0.132428169250488 -5.01256465911865 -3.54592227935791 -9.11259651184082 44.8259859085083 -3.54143714904785 -3.4135684967041 9.00171089172363 -4.5393238067627 -6.39950227737427 8.43811416625977 -0.830606460571289 4.65030193328857 4.91158676147461 -6.54674530029297 2.72600364685059 8.75699043273926 6.70410346984863 9.16367530822754 2.30541610717773 -0.315743446350098 5.65988540649414 -8.46725082397461 -4.48662662506104 7.37713575363159 4.22580480575562 6.20433807373047 9.13837814331055 -7.26239013671875 -4.87691189348698 7.87810325622559 2.65729880332947 -0.0256099700927734 4.92475032806396 -6.5621166229248 -8.36457824707031 6.0767765045166 3.45947980880737 -4.42366027832031 3.70466423034668 2.8988311290741 -3.30285453796387 2.48981094360352 -6.72238159179688 6.13818359375 -2.63816452026367 7.754065990448 -3.84001636505127 0.623444557189941 -9.88622665405273 7.01728391647339 -6.81289863586426 6.04293060302734 8.20947170257568 6.97754096984863 -6.4668083190918 -5.81318664550781 5.43399572372437 6.9148211479187 -2.98098659515381 -1.54342746734619 -2.7478609085083 4.86713886260986 -7.93488311767578 6.41243934631348 -4.65179538726807 33.6557636260986 1.33222961425781 9.95061683654785 7.82151222229004 7.26405668258667 -8.15204620361328 -4.56688022613525 -5.96879768371582 0.986799240112305 -0.0668487548828125 -1.21373271942139 -3.38358306884766 -4.61507415771484 6.10342407226563 4.00252103805542 -7.2529411315918 -2.54849815368652 4.60355520248413 -3.18722343444824 -0.250998497009277 7.37684679031372 -9.05745697021484 -7.57348251342773 6.3154673576355 -1.03756046295166 -0.606583595275879 7.57608604431152 9.55331993103027 -5.42031478881836 -9.53282165527344 4.04285192489624 -5.24082660675049 3.83065938949585 -0.0796833038330078 -9.78430938720703 -8.1504077911377 4.23548698425293 -6.30403518676758 6.91587448120117 2.32253170013428 9.35501849651337 -5.02709197998047 -9.40005302429199 2.00466728210449 5.4299259185791 9.44465446472168 2.92599868774414 -1.39099216461182 3.46322512626648 2.87099075317383 1.76591014862061 -6.20383071899414 -1.66258239746094 8.83361053466797 8.18313121795654 -3.84299659729004 -4.0122709274292 0.31485652923584 4.94394779205322 4.18369483947754 -3.06377983093262 1.77711582183838 32.1958293914795 7.41055679321289 5.77766418457031 3.29493498802185 3.36935973167419 0.515250205993652 -0.479894638061523 -6.04768753051758 -8.00602149963379 1.38317680358887 1.49201488494873 -1.67146301269531 9.83642101287842 7.67901945114136 -7.39048957824707 4.20289516448975 -4.68689060211182 29.157133102417 -2.06026649475098 -2.50759220123291 -4.49746513366699 7.03406524658203 -1.99193096160889 7.80791997909546 3.44298124313354 3.77716040611267 -2.09651851654053 -0.201931953430176 -7.36235427856445 -4.59694957733154 -0.302701950073242 7.5105094909668 8.79196929931641 8.45393657684326 -4.31674575805664 -6.1611270904541 3.2897162437439 -5.64759254455566 3.33686590194702 8.00147819519043 -9.15129661560059 -5.38283157348633 -4.73364734649658 2.22052669525146 -9.70380401611328 3.65192604064941 3.95873522758484 6.23106956481934 3.50437140464783 5.55972576141357 7.77791738510132 0.0158987045288086 3.93198466300964 -8.9800910949707 -2.63522243499756 -9.6307201385498 4.63252067565918 4.64602947235107 7.53256034851074 4.64325904846191 0.037750244140625 -2.9903039932251 4.13177680969238 -0.590437889099121 -6.50116920471191 7.04956769943237 -7.38721656799316 8.74821853637695 -8.31335830688477 -1.44107913970947 -8.76318168640137 4.24707889556885 6.3396167755127 1.66990375518799 2.99759840965271 -6.87564659118652 9.15561199188232 6.681067943573 6.13822174072266 1.53942203521729 5.1644229888916 -3.6351957321167 7.52483129501343 -2.51450157165527 -2.03290557861328 -7.30359077453613 7.91606903076172 8.09134483337402 -0.669178009033203 0.328263282775879 2.9564356803894 -3.07158374786377 -1.9386682510376 -8.11947822570801 -5.6376953125 -2.72814655303955 5.54273366928101 -3.14550304412842 0.217615127563477 -6.21144485473633 -1.11900234222412 -4.44612884521484 8.80465507507324 1.76471614837646 -6.08461570739746 -3.8619270324707 -1.5814790725708 1.37430763244629 -8.89200973510742 7.70318222045898 5.80380201339722 2.99574089050293 -7.07256507873535 4.96811628341675 0.583439826965332 -0.473280906677246 30.6585273742676 9.54206657409668 2.7274796962738 -2.67071342468262 1.9272985458374 -9.22224044799805 -5.63747406005859 6.17411041259766 2.55481910705566 -2.9338846206665 2.89838552474976 5.56860446929932 4.75810050964355 3.86972880363464 1.53358364105225 2.86103224754334 -1.23016738891602 -0.268794059753418 -4.58035373687744 5.82144737243652 2.13916397094727 -7.47740745544434 -3.79432106018066 8.09273719787598 -3.28926849365234 -1.89435863494873 -4.56780338287354 33.4257411956787 9.73352241516113 6.92003011703491 1.54835796356201 -4.49734115600586 -2.739333152771 -6.38230133056641 -8.52007865905762 -0.589419364929199 0.900679588317871 2.91023707389832 0.645180702209473 7.53122091293335 47.3806400299072 8.9331169128418 -4.33304405212402 -3.95894145965576 -4.0913257598877 -5.33676624298096 1.23839282989502 -8.21037673950195 -3.48059272766113 -6.58504295349121 4.88627433776855 4.60757732391357 -9.82607650756836 7.67051887512207 -9.85676002502441 -7.76817321777344 -7.7248592376709 -5.03214359283447 -5.38166236877441 2.35680484771729 0.749429702758789 -3.45588779449463 -3.05746936798096 -3.74307537078857 8.31189346313477 3.12777495384216 1.65762996673584 -0.516315460205078 7.85425186157227 |
-3.76149749755859 -4.13838005065918 -3.34570503234863 -9.18152809143066 -0.332547187805176 8.45390701293945 1.12656497955322 -7.72088050842285 2.61557340621948 1.02868175506592 -0.968843460083008 8.61034393310547 3.56319880485535 -3.97968864440918 -8.25264167785645 2.95690035820007 -8.50472450256348 7.49525260925293 8.0085277557373 -5.35289001464844 9.26653671264648 9.11209869384766 -3.24304485321045 4.43476867675781 -8.13686180114746 -9.56180572509766 -8.61244010925293 -2.39938163757324 -3.18633937835693 9.88109588623047 0.199355125427246 0.577846527099609 -6.19466352462769 -0.297650337219238 -1.58876991271973 -5.26838302612305 4.54592895507813 -3.36205542087555 -6.92140769958496 0.452581405639648 1.02751159667969 -3.31867122650146 6.68399572372437 2.39727878570557 5.59768676757813 3.84908437728882 0.368584632873535 -5.09552001953125 4.86473274230957 7.57662010192871 -6.3719539642334 -3.61536121368408 5.09832382202148 6.18402862548828 6.71223640441895 -0.259450912475586 -8.56463432312012 -8.03760528564453 -9.80588912963867 8.78190040588379 -6.20800018310547 -3.56946086883545 -0.512009620666504 -0.897025108337402 2.46029949188232 4.49802160263062 5.68579864501953 6.73818159103394 -7.39558029174805 4.38993453979492 7.71645736694336 7.07748413085938 -2.10272884368896 -9.4253044128418 8.6071891784668 -0.0717887878417969 1.79527378082275 -7.10586977005005 3.49615550041199 -9.2126293182373 -2.99553489685059 5.48638534545898 5.2334189414978 0.63472843170166 9.87758445739746 0.323482513427734 -2.72159194946289 -2.38877201080322 -0.12267017364502 6.40650749206543 5.16452026367188 -1.67797660827637 2.53929114341736 7.88860750198364 8.45430755615234 -3.26868152618408 2.09431266784668 -1.31124114990234 4.20922040939331 -9.25192642211914 -4.08582782745361 -4.45637130737305 -0.817452430725098 -6.96076583862305 1.08080005645752 3.59509444236755 -4.66209983825684 7.12875127792358 -3.64694976806641 3.11755633354187 0.603400230407715 -6.37904691696167 0.281394958496094 3.06335639953613 3.20987200737 5.75904607772827 -9.69678688049316 -8.1262092590332 -5.22488403320313 9.77629852294922 0.659383773803711 2.97148203849792 7.43987798690796 -5.53781318664551 8.1441707611084 -0.052861213684082 -0.88029956817627 2.48830890655518 8.38066482543945 2.85623049736023 8.90085983276367 -5.16619205474854 3.15641856193542 9.95250511169434 2.94779753684998 -4.53746891021729 -9.95621109008789 -5.7226448059082 3.49597907066345 -0.817183494567871 -5.03381538391113 -2.41248989105225 -1.39482116699219 -7.61502075195313 2.43816947937012 2.78294539451599 -1.68175315856934 -8.78445357084274 -4.76473712921143 -5.94989013671875 -0.470966339111328 -1.95181941986084 3.37041831016541 -8.16941833496094 -6.89156007766724 -1.5203800201416 -8.65009689331055 -3.30076789855957 -8.16090393066406 -3.26657199859619 -8.07627868652344 -6.44842147827148 -5.98355102539063 6.11552715301514 -8.74984359741211 -1.99339294433594 -4.71353912353516 -6.57511901855469 -1.65575885772705 9.9470853805542 0.823493957519531 3.26994395256042 -3.64675617218018 -2.13128662109375 -6.28812026977539 -2.05649757385254 4.32137966156006 8.9755744934082 8.65402030944824 3.70137190818787 -3.47802257537842 4.69863128662109 4.37113952636719 1.25220203399658 4.95905876159668 9.53424835205078 2.19948863983154 6.01572751998901 2.15785598754883 9.41953182220459 9.00648880004883 7.51299095153809 5.17078590393066 -5.89630603790283 9.2825813293457 -0.640254974365234 2.68346548080444 9.92872047424316 4.91020917892456 4.54307746887207 -8.33422088623047 -6.76071929931641 -7.98357439041138 8.86643409729004 3.59296035766602 -0.17137622833252 1.33943176269531 -7.31365966796875 9.19796752929688 2.5182032585144 3.34845519065857 -7.9328875541687 2.01952838897705 4.65555906295776 -4.17370891571045 -4.6567907333374 -7.77478218078613 -2.70032024383545 9.41906929016113 -7.13327217102051 1.63855934143066 0.955447196960449 1.56119251251221 -9.8226261138916 1.6503963470459 9.62676811218262 -7.96270370483398 -6.67778015136719 6.64403915405273 5.53531646728516 5.92698574066162 5.33286571502686 5.68083953857422 8.64070415496826 -8.12288475036621 -0.992761611938477 -3.6342945098877 -6.56205940246582 -5.43926239013672 5.48861694335938 7.16493797302246 7.35047340393066 -4.33736419677734 -8.19719696044922 1.75652408599854 -7.79446411132813 -1.22350788116455 -1.82542705535889 -3.38108158111572 -3.54471778869629 5.8836841583252 4.69326496124268 4.35971975326538 0.819109916687012 5.5120964050293 2.62798285484314 8.97312927246094 1.68990039825439 3.96615743637085 8.51676177978516 -6.02536725997925 -1.38592338562012 1.82737445831299 -8.40573501586914 -2.65241718292236 -0.431558430194855 -8.94399642944336 5.94888877868652 -4.25874137878418 -7.56561708450317 3.92204999923706 -3.80370044708252 -1.31796932220459 6.0558910369873 8.8726634979248 7.44174194335938 6.79893064498901 24.1543979644775 0.832790374755859 4.45255994796753 1.39364337921143 1.25613307952881 0.819472312927246 -2.20322227478027 -2.144700050354 4.32562065124512 -6.03695678710938 -5.49310207366943 -6.32858467102051 -9.49585723876953 -4.6963062286377 -8.88449859619141 1.2228307723999 -2.44934177398682 5.56022167205811 1.81663131713867 -8.06804847717285 -1.28830814361572 -8.92380523681641 0.0629148483276367 -7.8560619354248 3.86603116989136 4.01302528381348 -9.28329658508301 -2.98001861572266 -3.80596256256104 -0.596155166625977 7.65225410461426 6.64922475814819 2.01084041595459 0.113898277282715 -2.74131393432617 6.30740165710449 -5.4167366027832 7.11386442184448 -4.78470420837402 -6.95899200439453 6.30515098571777 -7.0616626739502 -0.63240909576416 -3.00922012329102 -1.40386009216309 -8.00000953674316 -1.65790462493896 6.1095557063818 -4.84457111358643 -4.75263214111328 -1.97827911376953 -7.12800979614258 -2.89547824859619 -3.0116024017334 -7.63420295715332 -6.710205078125 6.47072267532349 -4.85061037540436 -5.23197364807129 -8.99462509155273 -2.85979652404785 -9.82930755615234 -8.36885261535645 0.832590103149414 -5.4164457321167 -8.79338455200195 8.9229154586792 -4.62988758087158 -7.86117553710938 -4.43791007995605 6.9223804473877 -1.64413356781006 2.86880946159363 0.281147003173828 -4.20271968841553 5.94835996627808 -4.45803546905518 -5.99910259246826 -1.89386463165283 -0.890813827514648 -6.07445192337036 -2.67905330657959 7.14424133300781 5.04531097412109 8.17636299133301 -1.41167068481445 1.50276565551758 -6.08182716369629 9.40971374511719 7.30334997177124 6.73638343811035 -1.51730632781982 2.0527400970459 -9.22536849975586 2.81244468688965 4.46467590332031 9.02908134460449 -4.55323314666748 -8.22372627258301 1.15434551239014 -3.13545322418213 -4.27786445617676 6.2127685546875 5.83162498474121 4.85644102096558 6.94283676147461 2.68149352073669 -3.93563175201416 7.01630067825317 -0.118254661560059 0.829797744750977 0.888153076171875 -2.64890766143799 -9.8508186340332 6.44876909255981 4.04099851846695 8.29881191253662 -3.19111919403076 -7.52621459960938 9.60783767700195 -9.40932464599609 2.76021194458008 2.61511301994324 -8.80862426757813 5.62345695495605 2.26535224914551 9.09248161315918 9.11164093017578 7.63961791992188 -9.56048011779785 -7.04413414001465 8.39920997619629 7.20621538162231 8.06827545166016 1.59196949005127 6.49729919433594 -0.272994995117188 6.86618375778198 -2.83229923248291 -4.5424165725708 -4.32581329345703 7.13329744338989 -2.83362483978271 |
