-2.05541515350342 -0.966519355773926 -8.6306095123291 -6.49964332580566 3.43874430656433 2.15038394927979 8.19065475463867 2.30854606628418 -4.80236148834229 -4.39918613433838 -0.377735137939453 -1.05470085144043 -3.25870895385742 -4.15053462982178 -5.69817733764648 -3.17147636413574 6.93814039230347 5.21407318115234 -2.37652683258057 8.8391227722168 -3.80628204345703 -9.35937881469727 3.63756632804871 -2.33523750305176 8.65147018432617 6.68055009841919 9.63117122650146 5.23136854171753 7.1471381187439 -0.815838813781738 -3.49103355407715 1.2307014465332 9.10087108612061 1.45391082763672 8.95277786254883 0.621556282043457 5.18890380859375 4.75733947753906 -5.63055515289307 9.43240165710449 8.87508773803711 -8.88727378845215 6.40621376037598 6.93803787231445 -7.22700119018555 0.141672134399414 0.875696182250977 -2.9615535736084 8.13529968261719 5.32790184020996 4.67823028564453 9.34971618652344 -4.00826072692871 -9.27508354187012 -8.91581535339355 8.27276229858398 6.60054206848145 -6.99764680862427 -0.558472633361816 4.81941938400269 1.39441394805908 0.866271018981934 6.45231437683105 -7.1794319152832 5.86464643478394 7.02781438827515 3.95948386192322 -5.70938587188721 5.82935523986816 3.80989050865173 -7.19407272338867 -4.0162525177002 -5.7646369934082 -6.36625099182129 -7.69277143478394 6.8426775932312 7.5523853302002 -6.75092267990112 -3.53332138061523 -0.413736343383789 0.281020164489746 8.53066253662109 0.212978363037109 -2.90743255615234 1.47725200653076 9.96662330627441 5.73115825653076 -1.50000476837158 6.13481044769287 3.85908102989197 -0.0975332260131836 -5.5943660736084 8.14570426940918 4.05342102050781 3.31823539733887 3.52908849716187 8.52066421508789 7.86620855331421 0.404976844787598 -1.55623340606689 1.82736492156982 -0.567656517028809 9.87178802490234 -7.36013221740723 9.33050537109375 -9.6563549041748 -5.25277614593506 4.74837064743042 -7.222900390625 5.21444797515869 8.43458557128906 1.81558990478516 6.08600997924805 -5.00720024108887 7.65433073043823 -9.51462745666504 3.36559748649597 6.77931976318359 0.983048439025879 8.3590145111084 -9.0036735534668 8.20681381225586 -1.59654235839844 -5.95398139953613 2.67099833488464 2.35017871856689 -0.95363712310791 1.06207942962646 -5.38133144378662 6.1455078125 -4.00705909729004 7.00956106185913 8.35329437255859 9.78353691101074 -6.2349910736084 -1.02616882324219 5.39397954940796 9.57962226867676 -8.64181709289551 1.37471771240234 1.94741153717041 7.98947095870972 1.94449806213379 3.70630717277527 8.69512939453125 -7.35732269287109 -7.94711637496948 -3.4582576751709 -8.84241104125977 -7.29092407226563 9.76282501220703 3.44709849357605 6.23921585083008 1.4755163192749 6.15404319763184 6.5687518119812 -4.24713706970215 0.40627384185791 6.99582815170288 0.864495277404785 3.37412071228027 7.98334121704102 -1.84219932556152 7.29927062988281 -5.94473648071289 -3.19070434570313 7.70285606384277 7.00260877609253 0.962261199951172 -2.36165142059326 1.55618095397949 5.1253719329834 6.71593427658081 -7.74331855773926 -8.47337913513184 5.90005111694336 6.6538405418396 -1.69793033599854 -7.35445213317871 5.38922500610352 5.55567932128906 -4.00346374511719 -7.77310562133789 4.4620246887207 3.81335020065308 -4.93555164337158 9.3684196472168 1.47920036315918 -9.03246307373047 3.76836752891541 -1.63741683959961 7.68328428268433 -5.60114860534668 -6.69917869567871 8.78866386413574 -7.91765642166138 0.858887672424316 3.39845156669617 1.28879451751709 -8.31233024597168 1.49251556396484 5.50096035003662 3.87487173080444 7.55467414855957 9.5048942565918 -0.539702415466309 3.33822965621948 -2.16013526916504 8.86591339111328 -7.85092878341675 -0.241328239440918 -9.04172515869141 -1.03801345825195 -3.63187217712402 -1.26255130767822 -8.34749603271484 -7.22964811325073 3.37523651123047 -4.14303398132324 6.37194633483887 3.07196116447449 8.33443069458008 -6.39892387390137 3.72776222229004 9.40305233001709 -8.25892639160156 7.85820198059082 6.10749006271362 -9.20923042297363 3.75851130485535 1.63896465301514 -5.82932281494141 -9.83949851989746 2.21760845184326 -2.13956737518311 8.76327037811279 -3.74539279937744 -8.1512565612793 -6.70521926879883 -6.9242901802063 -2.13382625579834 2.87751913070679 -6.87195253372192 9.08804702758789 1.4716854095459 -0.512143135070801 -2.89146995544434 2.28919124603271 -2.8938570022583 8.83816146850586 -4.40730476379395 -7.1264762878418 1.92184543609619 -7.39858818054199 -6.85849380493164 -4.96101760864258 5.67196369171143 6.87207221984863 3.11146235466003 5.31005382537842 0.577630043029785 -9.45694923400879 3.83902525901794 4.39466953277588 -9.16886329650879 -1.47648239135742 -9.36116027832031 -4.57387065887451 -7.01838302612305 -6.21520566940308 -9.45524978637695 -6.73684310913086 9.98498725891113 9.46763515472412 -1.14746952056885 0.788606643676758 7.89509773254395 -8.13682556152344 -1.68095207214355 -0.0815830230712891 -6.37807655334473 6.43753242492676 6.89560651779175 -4.44786167144775 0.875405311584473 3.5697934627533 -4.52773666381836 -8.02834320068359 5.55601835250854 7.83633947372437 0.74095630645752 -1.68422794342041 -2.74499320983887 5.77061176300049 0.105792045593262 -0.390500068664551 -0.170210838317871 -4.51547718048096 -3.56861686706543 2.60169005393982 -4.97844791412354 -3.6787166595459 4.41582870483398 -4.09313774108887 -9.81767272949219 -1.48078060150146 7.76299667358398 6.14476680755615 3.66546392440796 -2.67262077331543 9.68102931976318 -0.942679405212402 -5.06158828735352 7.20679473876953 -9.51855087280273 -4.6135196685791 -3.59961128234863 -7.88962364196777 1.99968433380127 6.93753004074097 -4.18307399749756 6.80211591720581 5.87916374206543 3.20786666870117 3.25250816345215 -1.51218318939209 2.00707054138184 4.62043762207031 -9.71127700805664 7.91457891464233 5.53943157196045 0.285767555236816 -8.42665100097656 -7.72428321838379 -3.0550537109375 6.44639205932617 -6.72868537902832 -8.01190185546875 7.29341697692871 4.87707138061523 8.20279598236084 -4.93663692474365 9.06606483459473 -6.89043235778809 -9.02824401855469 -2.38014125823975 1.20445823669434 -7.60157585144043 -7.14887189865112 0.76811695098877 8.31639289855957 0.323771476745605 7.35003995895386 2.22213363647461 -7.15701627731323 6.84080839157104 2.97855353355408 5.44621658325195 0.0637350082397461 1.97467422485352 -9.36773490905762 -7.21054267883301 -6.27682161331177 9.10428810119629 0.741067886352539 5.11842918395996 -8.94342231750488 3.96853637695313 8.85102462768555 4.34434652328491 8.6379451751709 3.61426329612732 2.64608359336853 9.7868766784668 -8.9011173248291 4.32948303222656 -5.73734283447266 7.58289337158203 -1.31755924224854 -4.03917407989502 -7.67829132080078 -7.27190780639648 0.959640502929688 3.70479774475098 1.83535957336426 -6.51425552368164 0.567694664001465 -9.85067749023438 -4.12324047088623 3.11261367797852 -8.99954032897949 -9.35832595825195 3.76013517379761 6.14244842529297 0.568338394165039 -2.11357975006104 -0.703526496887207 -0.487571716308594 0.680848121643066 -0.352071762084961 5.34113645553589 6.74251985549927 -3.60950374603271 9.27095413208008 -5.67101669311523 1.05648136138916 -5.75578498840332 -9.59970664978027 -9.72078514099121 -9.01851272583008 -2.82757377624512 -2.6299295425415 -0.37568187713623 1.40976333618164 1.88979530334473 0.26096248626709 -8.65380477905273 2.26169967651367 3.84686231613159 1.45104026794434 4.98085737228394 -1.0121955871582 4.41216230392456 -6.73579025268555 0.598608016967773 -8.00840759277344 -8.71536636352539 -7.60291862487793 7.10422945022583 -0.0604190826416016 2.43020153045654 2.33700847625732 -0.567463874816895 8.98711204528809 8.14062881469727 -8.09375 5.78506469726563 -4.37392330169678 0.684937477111816 4.0362663269043 6.86003160476685 -1.74752807617188 2.41562271118164 8.42666435241699 -6.07967185974121 -5.75430870056152 -0.991562843322754 5.177490234375 1.17697143554688 -5.70641040802002 6.35685396194458 8.450026512146 -3.69951820373535 9.54098701477051 -6.14022064208984 -4.48680782318115 4.77973175048828 -3.03530597686768 -9.55940246582031 8.97918701171875 -2.51076602935791 0.777493476867676 0.577178955078125 1.40219116210938 3.85144686698914 -6.39631271362305 -3.07477378845215 1.31996250152588 -8.65553665161133 -8.07267379760742 -7.98727798461914 -3.63162612915039 -4.72826862335205 5.01667499542236 -0.816978454589844 -5.28870105743408 1.48350620269775 -9.79862403869629 7.45913505554199 -5.41185188293457 4.77674674987793 4.68161344528198 -5.15218734741211 5.46734046936035 0.768627166748047 -6.76478910446167 3.0232093334198 3.70550608634949 -5.73751926422119 0.754862785339355 5.59891700744629 -5.41462421417236 -5.06421279907227 1.65763759613037 -2.25425815582275 -0.169962882995605 7.91011381149292 -5.56299209594727 -3.55901336669922 6.24224424362183 2.58685088157654 3.61037230491638 -1.7852029800415 -7.75697898864746 6.66114044189453 -3.52821731567383 4.01529502868652 2.03899765014648 -8.7940559387207 -8.22868347167969 5.38005065917969 -8.86661148071289 -8.38512420654297 -5.60249328613281 1.75145721435547 7.41545438766479 -2.0311222076416 7.4344654083252 -6.25909614562988 1.65318393707275 9.15615272521973 -2.21653842926025 8.1160306930542 -2.09015941619873 -2.77445888519287 6.58229398727417 -3.5433874130249 9.81070995330811 8.22605323791504 -5.45357704162598 -9.69520378112793 -2.11251640319824 6.88434362411499 9.48520851135254 6.84845685958862 -5.3742790222168 6.94434690475464 -5.37863922119141 2.04300308227539 -1.07784843444824 -7.65828895568848 9.99197006225586 0.423521041870117 4.71234798431396 -3.60403919219971 -4.17508220672607 -3.0955114364624 0.420092582702637 2.13574314117432 -9.4214038848877 3.38485479354858 6.940185546875 -3.77363586425781 0.48932933807373 6.85558319091797 3.56842970848084 -0.260845184326172 -3.4340295791626 7.01811552047729 2.00122261047363 3.13087224960327 -3.67946243286133 8.7459659576416 7.25994539260864 -7.49016761779785 4.1921329498291 -9.35719299316406 2.84238314628601 4.18526840209961 -6.89043235778809 4.21072721481323 -6.38238143920898 0.521477699279785 4.33461666107178 0.824970245361328 2.20308876037598 9.71556091308594 7.90001344680786 -6.45632219314575 8.57471656799316 0.711950302124023 -2.09084415435791 -8.44019317626953 4.27871894836426 9.75479125976563 5.59537410736084 7.85489082336426 1.46608448028564 -7.66987037658691 7.20561027526855 -8.88851356506348 0.842405319213867 6.44009590148926 9.20717239379883 9.67404842376709 9.04952049255371 0.952719688415527 -1.34944343566895 -1.54237842559814 6.42967224121094 -8.4658203125 4.73214149475098 4.98726081848145 -0.0855312347412109 6.23861074447632 -5.98961067199707 1.84311008453369 -9.78052139282227 9.80282974243164 4.09550189971924 5.22462606430054 2.02633476257324 1.48301219940186 7.92310285568237 -1.55145072937012 -5.62233448028564 2.8754518032074 7.45469808578491 -2.61168384552002 9.77996063232422 5.08424949645996 4.42981910705566 -3.77959823608398 -5.09389686584473 3.59924292564392 -3.93006420135498 4.72888708114624 6.83644819259644 4.2484302520752 8.6457633972168 -5.35456848144531 7.05454587936401 -8.46466064453125 0.544577598571777 7.43466377258301 0.496496200561523 -0.708671569824219 -1.58677673339844 4.93722915649414 0.0326433181762695 3.12554335594177 5.30309677124023 1.07145881652832 3.5593888759613 1.09952354431152 -7.69907760620117 -1.29439735412598 -9.5118350982666 -5.60208320617676 -2.67475986480713 -0.34119701385498 -4.25650691986084 -5.82818794250488 3.04935646057129 -9.2684211730957 7.62981605529785 2.20713520050049 -4.56222152709961 -6.02901029586792 5.84660291671753 1.38277626037598 -5.80226898193359 4.91496276855469 -3.80303955078125 6.4306492805481 4.85751867294312 0.699831008911133 1.47124671936035 0.518583297729492 -9.08870315551758 -9.62660598754883 -9.06906890869141 4.35506582260132 9.87834453582764 0.0693788528442383 7.23294448852539 -3.03773975372314 4.27904319763184 -9.67214965820313 3.7910840511322 -7.30495023727417 -0.574193954467773 1.27831077575684 -9.86345291137695 -0.231698989868164 0.474520683288574 -0.622159004211426 1.40018558502197 9.67699241638184 6.4521746635437 2.65204620361328 -3.99122333526611 -4.40200233459473 -4.25537204742432 6.05936431884766 -9.05931282043457 8.81420135498047 -7.51734924316406 2.91275954246521 -5.34818172454834 9.44004249572754 2.42630100250244 8.09238815307617 -6.65636253356934 -1.3829984664917 8.72550773620605 1.7429838180542 -6.51637268066406 7.60961723327637 6.68501091003418 -1.99821090698242 0.647660255432129 0.492640495300293 -8.90622329711914 -7.71365356445313 7.18101692199707 1.57537841796875 4.10931777954102 -8.2907829284668 -8.54625511169434 2.02427768707275 0.267156600952148 -2.6903715133667 8.65413475036621 -3.20730113983154 -3.19262886047363 -1.73644924163818 3.45454668998718 5.36781787872314 9.67348480224609 6.04599714279175 2.16462993621826 -3.01087760925293 -7.63607025146484 -5.47491836547852 -8.81075859069824 -4.52189540863037 7.68597078323364 7.93785285949707 9.9321403503418 -1.75362205505371 -6.47444534301758 8.55758190155029 8.30695629119873 0.873278617858887 -3.86942481994629 8.95227432250977 -1.77387142181396 -6.1054801940918 5.26549816131592 -9.69020462036133 4.5844669342041 4.22716331481934 -4.50751399993896 -2.48635864257813 -0.833588600158691 -3.15369987487793 3.27935671806335 6.67716979980469 -8.96570205688477 -9.65903091430664 -8.16386413574219 1.74398803710938 -3.18996047973633 0.619126319885254 -4.97633838653564 -1.12636661529541 -2.20713710784912 -6.89982414245605 -4.48012447357178 -1.3980541229248 0.943890571594238 -6.97504997253418 7.53740739822388 -3.74494457244873 -7.52229690551758 -6.20222520828247 -4.42917251586914 -2.88616752624512 -7.21264839172363 1.84635543823242 -5.15039920806885 3.12320899963379 -4.07522296905518 3.65969848632813 4.62737798690796 -9.48520851135254 9.37033843994141 7.08928298950195 8.13258647918701 -7.42513656616211 3.24339365959167 -3.6433801651001 -1.98901081085205 5.81281661987305 8.43394470214844 6.54498291015625 5.23847579956055 -3.13602352142334 7.54723739624023 4.64627027511597 -9.00579643249512 -3.04771995544434 9.30585670471191 -1.1600866317749 8.13889503479004 -0.265232086181641 2.80886149406433 8.71126174926758 8.83240699768066 -4.91863346099854 -2.39885425567627 6.13264465332031 -1.80305862426758 5.08178234100342 -2.02572727203369 9.9913501739502 -0.868033409118652 3.09078407287598 4.42743492126465 6.30107641220093 6.65086317062378 4.24555015563965 9.58387756347656 -1.17115879058838 0.665744781494141 -9.96529388427734 6.70409727096558 5.58501005172729 9.87837600708008 -6.84009742736816 -5.56524276733398 -4.44917583465576 -5.58084297180176 -2.28945827484131 2.09532642364502 5.41136741638184 8.81342315673828 2.85252332687378 -8.37889671325684 8.18664741516113 -2.16907596588135 5.01143932342529 8.32680511474609 3.34136724472046 3.79462003707886 9.96197128295898 -1.21650314331055 5.7735013961792 1.4701976776123 6.29307746887207 7.01692342758179 5.86180448532104 1.99959850311279 6.92075729370117 -6.45404052734375 -9.6817798614502 -2.92720699310303 6.88589096069336 -8.65186882019043 8.12808990478516 -1.59781837463379 6.80553007125854 -9.52360153198242 6.36096525192261 -5.94119262695313 -1.15887546539307 0.962849617004395 7.99234390258789 -3.5867395401001 -8.84332847595215 4.62440967559814 -7.36918449401855 -1.75234222412109 -7.0765323638916 -6.77537155151367 1.55890560150146 -1.9607629776001 -3.11416721343994 -3.06618309020996 -2.82876586914063 0.124331474304199 9.4618558883667 0.189553260803223 0.166386604309082 8.65897178649902 -2.873779296875 7.86853361129761 -5.66362571716309 -7.76341962814331 1.31318664550781 -8.75265502929688 -5.93575000762939 -8.03684234619141 5.80999374389648 -0.360485076904297 4.88288402557373 -7.29617881774902 -5.4114818572998 9.50838279724121 -7.93986129760742 6.95547103881836 7.74029922485352 6.98379516601563 -7.53065299987793 9.30274486541748 1.09460926055908 6.04210615158081 3.23832488059998 -6.72620344161987 1.79475402832031 -1.80038070678711 -3.03079032897949 2.92683100700378 6.07324361801147 -4.70711135864258 -1.18500328063965 2.8590772151947 -5.44503688812256 -9.79709815979004 -9.50704765319824 6.52148246765137 -1.03165245056152 -9.89698791503906 -5.15062141418457 -0.0156345367431641 8.97389221191406 8.86433792114258 -1.60185718536377 -8.38546562194824 2.52093291282654 7.28002977371216 1.30773639678955 1.81727027893066 -3.11533546447754 -2.17765426635742 -5.75586795806885 7.90106248855591 -7.20195341110229 -2.53330612182617 -3.49803066253662 6.04374313354492 -3.34834957122803 -2.83506965637207 5.31761360168457 -1.22986698150635 -2.40608596801758 -2.80740356445313 -5.90140533447266 -2.83406352996826 -3.00613784790039 -4.84835243225098 -1.32677459716797 -5.4987907409668 -2.28885555267334 1.24325847625732 -5.70530128479004 -2.18021965026855 8.61779689788818 -8.11581611633301 7.8007550239563 -7.19892930984497 0.410484313964844 6.82050275802612 1.75989723205566 -8.28739356994629 8.09377861022949 -8.89844512939453 2.16446971893311 0.842610359191895 -8.21391296386719 -0.334654808044434 -0.978666305541992 -3.1293830871582 -8.28558349609375 2.54852485656738 -7.52619743347168 -9.7099609375 9.89374923706055 -7.61978912353516 -8.28378295898438 5.61949920654297 5.86394500732422 -5.22905158996582 7.49808502197266 6.12368774414063 -4.98249912261963 -6.95261430740356 4.47236061096191 7.45335340499878 3.44942283630371 1.82625675201416 4.6194314956665 4.58089065551758 3.41271376609802 -1.22904396057129 0.961428642272949 0.638919830322266 9.02015209197998 1.2584171295166 9.43456649780273 -9.77987480163574 -5.37410926818848 -5.47188758850098 -4.40599822998047 2.47955894470215 8.2679386138916 6.90883636474609 0.327144622802734 3.42406725883484 9.2434196472168 -1.99221992492676 0.650468826293945 1.12265014648438 -5.63387870788574 6.87533903121948 6.9366569519043 3.93264961242676 0.624717712402344 -4.06508541107178 5.85930347442627 0.0503196716308594 -9.17274475097656 -0.880642890930176 5.64838886260986 9.39545059204102 -0.749734878540039 2.12024784088135 -8.45111656188965 5.09937286376953 9.79901790618896 -6.5804386138916 1.30171203613281 8.18871307373047 -0.368460655212402 1.91287612915039 -4.17425727844238 -0.390213966369629 0.259648323059082 5.36493301391602 2.62346720695496 2.74728965759277 5.06264877319336 -6.44449996948242 6.7587947845459 4.90451049804688 7.95288801193237 -6.15579795837402 -5.87650108337402 2.69068479537964 -7.57411193847656 9.43809700012207 -2.18276405334473 -0.950885772705078 7.94646453857422 5.53803205490112 -9.70063209533691 0.154362678527832 6.39057350158691 4.59009647369385 -2.6296911239624 -8.64790725708008 -7.01357650756836 9.21207809448242 -8.08782386779785 -8.82273483276367 3.56831526756287 3.97663831710815 4.44157600402832 -6.39592695236206 3.53985548019409 -7.48108339309692 6.2147855758667 5.7957763671875 -1.74308204650879 3.95817732810974 9.33322143554688 2.9862973690033 5.17862510681152 -2.25250816345215 3.74030089378357 -6.53118896484375 7.97631454467773 6.93404722213745 1.95611095428467 2.2402868270874 3.90532255172729 1.41346836090088 -3.30135917663574 1.19035148620605 2.43381118774414 -8.04008483886719 -5.47307014465332 -7.27223587036133 -6.03736114501953 4.22888946533203 3.55668258666992 6.92150115966797 -7.73917722702026 1.92289447784424 -4.07516098022461 4.3435525894165 7.33119964599609 -3.7759313583374 0.991788864135742 5.46299171447754 -6.13165092468262 5.47839641571045 -9.8824405670166 -7.90383148193359 4.9249792098999 -3.44344234466553 -0.816350936889648 0.72132682800293 0.0523128509521484 7.5367546081543 4.45449352264404 -9.88766098022461 2.3018684387207 3.16012573242188 2.82773733139038 2.1969165802002 3.2406280040741 -5.56058692932129 -4.40680599212646 -9.90995025634766 7.97937822341919 9.05389976501465 -8.69831085205078 -6.70887184143066 -0.510915756225586 -6.41822052001953 6.1030650138855 0.685306549072266 -9.22553825378418 3.19771265983582 -0.0954780578613281 -1.3699779510498 5.30704975128174 3.8138313293457 -9.73163223266602 -7.65591812133789 8.62465858459473 2.87507772445679 5.61176061630249 7.92932271957397 6.71041250228882 5.82549285888672 -0.553923606872559 2.18279457092285 8.40301704406738 -8.77648162841797 7.06075239181519 5.5556058883667 -3.43154525756836 2.04083061218262 0.767292022705078 1.09563255310059 9.67352676391602 7.46227264404297 6.51284742355347 -2.44437789916992 -8.31610870361328 1.26121616363525 2.50964617729187 8.22430419921875 4.97018575668335 -1.24380016326904 7.24148511886597 -5.14703750610352 5.67391872406006 2.96759796142578 6.64862632751465 -9.66684722900391 7.37883758544922 -2.64552021026611 -5.96776962280273 6.84393882751465 2.76444625854492 -7.63592720031738 -5.88364601135254 -8.62532043457031 -7.56422805786133 4.88834142684937 -9.10402679443359 6.83356285095215 -2.39583396911621 -6.54721260070801 -3.24019336700439 -1.92662811279297 9.95184135437012 -8.04297256469727 -5.42853355407715 -9.71936798095703 1.75934886932373 9.65561294555664 1.3488302230835 -4.92617702484131 -4.79574584960938 5.26296615600586 1.43856430053711 -2.40109348297119 -2.96209907531738 -6.39635515213013 9.9003963470459 -8.26147079467773 -9.69949531555176 -5.89834213256836 1.7179069519043 9.37799644470215 -8.85361480712891 3.25909376144409 7.33680725097656 -1.10105133056641 0.303979873657227 3.08078002929688 3.73356580734253 -0.490468978881836 -6.05685758590698 -8.27572631835938 5.79219055175781 -9.72492027282715 -5.70089340209961 3.23856544494629 3.08338356018066 -1.26783752441406 8.07513427734375 0.0792303085327148 -2.62665843963623 -0.190168380737305 7.35042572021484 4.86985206604004 -7.12491035461426 -2.2365083694458 -8.51922988891602 9.97974395751953 -2.90123558044434 3.38101577758789 9.81936454772949 2.40351295471191 2.38246822357178 -3.29550170898438 -6.42944526672363 5.1902437210083 -1.04621315002441 -0.0790872573852539 6.89415693283081 -2.03802490234375 1.46944141387939 7.5247688293457 -9.42192077636719 -8.82975387573242 -7.16637420654297 8.92571640014648 0.740317344665527 -1.00948238372803 5.8363151550293 -0.084935188293457 -8.35003852844238 -8.06507110595703 6.8209171295166 -3.0593433380127 -0.631094932556152 -6.07967185974121 -5.64336585998535 4.05877304077148 -0.687776565551758 4.33573722839355 1.72044658660889 9.27567672729492 3.28779411315918 7.38531541824341 -2.5490608215332 -8.85962295532227 -7.40299224853516 -8.94081115722656 -6.43888902664185 2.47303581237793 -0.592798233032227 9.8059606552124 -9.85725212097168 -6.09407615661621 0.124944686889648 -9.24948501586914 -3.0544605255127 -4.70985317230225 6.50124311447144 6.17876243591309 -7.06519651412964 -2.75319004058838 8.01645278930664 -2.47696495056152 7.53831624984741 5.78617811203003 3.4246654510498 -5.12057113647461 4.86860752105713 -3.89164066314697 2.14255905151367 6.3945198059082 4.61899948120117 8.49909019470215 -8.85301399230957 0.638574600219727 -2.72889709472656 4.21304702758789 0.991357803344727 0.991519927978516 1.24326610565186 0.984691619873047 6.3963794708252 -1.52513408660889 7.42810010910034 -6.0161304473877 -8.50995063781738 9.08969879150391 -5.60898017883301 1.56042194366455 -0.258170127868652 -4.13423442840576 -9.34774780273438 4.86913204193115 3.52820372581482 -9.25963401794434 -4.95999908447266 3.88313055038452 8.02743434906006 8.05570125579834 2.75981140136719 8.7647008895874 -2.62344264984131 5.24448871612549 -3.07666873931885 -3.46227550506592 -8.5322208404541 8.4437198638916 -8.99902153015137 -4.85749816894531 -5.11186408996582 1.55580425262451 3.87529563903809 5.6273193359375 -9.24324417114258 -5.64307403564453 -8.46984481811523 5.42975425720215 8.41638946533203 3.61990427970886 -5.43915557861328 -2.91413688659668 8.18104934692383 -7.62129259109497 -4.94078254699707 -3.9805850982666 5.58825016021729 6.26384305953979 0.844182014465332 -9.86431312561035 6.58331632614136 -2.49438381195068 -4.25566101074219 0.00140285491943359 6.88315391540527 -6.64504241943359 5.41905403137207 2.35013580322266 -9.94944000244141 2.79503583908081 -1.74706840515137 1.47180461883545 -7.87148284912109 -5.82238674163818 -4.13759803771973 -0.495141983032227 -1.58899211883545 2.77946448326111 -1.26221752166748 -8.71731758117676 -8.40525054931641 -0.529445648193359 -3.70802307128906 -3.24642753601074 -4.44717979431152 0.577193260192871 -2.61691665649414 -7.04769325256348 0.540863037109375 -8.22127342224121 -4.27907085418701 -2.71420860290527 4.93704032897949 -9.47383499145508 8.71310234069824 -8.51186561584473 0.360716819763184 0.136862754821777 1.179856300354 -0.940371513366699 1.07449150085449 -3.5642204284668 9.94054317474365 2.55227541923523 6.78889036178589 7.42018175125122 -9.00829315185547 -3.15670108795166 -4.9824390411377 4.87288236618042 2.06573104858398 6.36862754821777 6.50932502746582 -8.05351448059082 -8.79150581359863 -0.974517822265625 -5.02597618103027 4.13911819458008 -1.09655475616455 -6.43969345092773 -6.37959480285645 3.80213713645935 |
6.93844795227051 -6.12213897705078 0.603786468505859 -4.42575550079346 -6.62282943725586 7.06434679031372 5.89660835266113 -7.11629867553711 -8.62585067749023 -5.47159004211426 -0.0390233993530273 -3.31196689605713 6.3374285697937 3.57551074028015 -3.97827053070068 -4.21958351135254 8.06574821472168 8.87460231781006 -7.62220573425293 -8.5059814453125 -3.86701965332031 -9.43026542663574 -2.34074687957764 -3.81107234954834 -0.0990161895751953 -2.36082935333252 -6.36783170700073 -8.15709114074707 0.930925369262695 -7.47504043579102 -0.786675453186035 -4.52870464324951 6.29693984985352 7.97739219665527 -4.82934379577637 8.4078197479248 2.75922012329102 7.26428985595703 -7.6994514465332 -8.11992835998535 -5.38801956176758 4.2197322845459 -4.81012725830078 1.65426826477051 4.00298595428467 2.50878310203552 9.30019378662109 1.43107318878174 -5.40150165557861 2.94803595542908 -9.85641479492188 2.75332641601563 -0.557857513427734 -7.66988754272461 3.71648287773132 -3.26256847381592 4.41356420516968 -4.94532680511475 1.66787242889404 2.99806571006775 -2.1439847946167 1.01545429229736 3.02383399009705 -2.41158103942871 1.17212390899658 -0.84201717376709 7.1461443901062 -4.93598365783691 3.82402873039246 -7.00273323059082 5.21852016448975 7.09382247924805 6.30342245101929 2.70955061912537 -1.90218544006348 2.8623366355896 -9.84845733642578 9.19315719604492 5.72141647338867 -1.06625652313232 6.61718797683716 7.77438354492188 7.49582290649414 0.679673194885254 -7.03791618347168 -7.08210945129395 -2.84088230133057 -5.69259834289551 4.20943021774292 -3.47017669677734 6.53565168380737 -7.32258272171021 3.26023554801941 -3.45802211761475 -9.79449272155762 1.42177486419678 -8.6901741027832 0.780786514282227 8.04696846008301 1.94214248657227 -5.74779510498047 -5.76199054718018 4.49820709228516 -6.40512657165527 -1.15832233428955 5.1672887802124 0.968579292297363 0.565935134887695 -3.72190570831299 1.4695987701416 -9.31872177124023 -6.99545097351074 3.97637343406677 -3.96113777160645 -0.203360557556152 -6.87697219848633 8.495849609375 -0.40221118927002 8.35870552062988 5.28991460800171 -8.07686996459961 -0.896443367004395 9.31052398681641 1.57913303375244 -0.55289363861084 0.579653739929199 -6.23916435241699 -7.25368928909302 -0.794090270996094 3.05643057823181 -7.87208127975464 -5.40582466125488 -7.37056541442871 -7.05710411071777 8.77467632293701 3.07461714744568 5.04841804504395 5.01650333404541 -3.83186435699463 -2.28337669372559 -5.97847175598145 -2.69382095336914 -7.61826324462891 9.95602607727051 -4.60224056243896 -8.52598190307617 -3.93145179748535 5.88019132614136 2.93806791305542 -4.68658351898193 -5.54784774780273 4.52058029174805 -4.1619119644165 1.6378345489502 -0.832582473754883 -0.488511085510254 3.1548068523407 3.77069234848022 -1.0501184463501 5.02972793579102 1.47072410583496 -6.1502571105957 -6.94682121276855 -2.90850257873535 0.552855491638184 -4.61260890960693 2.6699423789978 8.74385070800781 8.90865516662598 5.0127649307251 0.790658950805664 8.08924865722656 -7.62041521072388 8.23785305023193 -6.05001258850098 1.67874431610107 6.09079122543335 0.510197639465332 2.16865921020508 1.60794639587402 4.95450735092163 -7.0482234954834 -6.11973762512207 1.9016637802124 7.62097120285034 7.50768423080444 7.42788076400757 -1.12476253509521 -7.44841575622559 3.81796813011169 8.42764091491699 3.19964599609375 -0.431362152099609 4.95418071746826 8.21550178527832 -2.72931671142578 -2.12772464752197 3.41274237632751 5.81348609924316 5.47226667404175 -6.15116310119629 -7.11411666870117 3.21036100387573 1.14692783355713 -6.7144947052002 -2.27407550811768 9.71319198608398 -9.13911819458008 8.34955406188965 2.97755432128906 0.660258293151855 -1.97150802612305 -7.9174633026123 -3.11728572845459 -3.90015506744385 0.211657524108887 8.05069923400879 -2.69169425964355 -8.14916229248047 -1.06874084472656 3.19741439819336 -8.85808753967285 8.83811187744141 -9.52702331542969 -4.7307767868042 3.9645881652832 5.43259811401367 2.26992702484131 6.42407417297363 2.15138053894043 -6.64593696594238 -9.14638137817383 -7.26573181152344 1.54182529449463 -7.96969223022461 -2.31668567657471 6.04531049728394 -7.36967277526855 5.46303272247314 4.71365451812744 3.58373618125916 9.47616767883301 -4.83064746856689 -3.29593753814697 -2.81071281433105 -6.410804271698 -7.2173957824707 3.33286476135254 -1.85738945007324 -6.89077186584473 -0.708812713623047 9.73982620239258 1.69644451141357 0.671342849731445 5.51440000534058 -9.28688430786133 5.60571432113647 3.56221175193787 4.51335668563843 7.43304443359375 8.70269966125488 -0.499309539794922 5.70698499679565 -4.05561542510986 0.526863098144531 -2.08684349060059 -6.57867622375488 -1.92020797729492 9.98323249816895 -2.25589656829834 -5.05034637451172 9.28202819824219 2.02451324462891 0.959795951843262 -7.34638643264771 -2.85667324066162 7.03781318664551 -1.42337417602539 2.76689028739929 9.06715393066406 3.14757800102234 -7.66210126876831 -6.4655590057373 3.31402277946472 1.17690467834473 -0.226139068603516 -0.885266304016113 -0.228213310241699 -2.34785652160645 5.27666091918945 -2.23469352722168 0.563198089599609 4.79428768157959 9.86050605773926 8.19060516357422 0.0171699523925781 0.896066665649414 -3.42669868469238 -0.826130867004395 -4.2141284942627 -0.0941267013549805 -7.22222518920898 -3.15080738067627 0.434571266174316 2.48123741149902 -9.01769638061523 -9.5113639831543 -0.795835494995117 -2.28910064697266 -5.14585304260254 3.05572700500488 -6.28582191467285 1.11813163757324 6.9349627494812 3.8813636302948 6.60745620727539 -1.39074230194092 -8.45337295532227 -5.45372486114502 3.17607116699219 -8.45294952392578 -0.819517135620117 -4.22448253631592 -7.80134391784668 -5.34502220153809 -7.76090812683105 -8.13872337341309 -1.50455570220947 7.33462333679199 6.81692838668823 -0.754171371459961 -4.70969104766846 1.42537498474121 -2.6511344909668 7.19610929489136 -8.98334693908691 6.42531156539917 5.3825044631958 -8.16437149047852 -3.77022171020508 -2.40835094451904 9.47052764892578 -7.70310592651367 -6.03756713867188 5.48089981079102 4.22882795333862 9.99007987976074 1.97730922698975 3.03473925590515 -7.55637693405151 -5.90925979614258 -2.95703506469727 0.66343879699707 6.50326919555664 -9.14654541015625 1.84543704986572 -7.33659315109253 -1.84603309631348 4.23177719116211 -0.631131172180176 -5.08784103393555 -3.41345882415771 -9.84658432006836 -5.13592529296875 1.15986919403076 0.20521068572998 -9.81842041015625 9.36890602111816 -1.78595638275146 -1.13640403747559 -4.88032245635986 -8.84648895263672 0.213679313659668 9.04691696166992 -0.140267372131348 -4.90046405792236 1.70343017578125 2.34108352661133 -5.09318828582764 7.85828065872192 3.12368583679199 7.82957077026367 3.56043791770935 0.263758659362793 -7.38800477981567 6.90620422363281 -8.78906440734863 -1.33694553375244 -8.7320613861084 4.62945699691772 -2.80688667297363 6.28219175338745 -6.02394533157349 4.640380859375 -2.05727672576904 -0.725031852722168 6.91736221313477 0.590371131896973 1.92732429504395 -8.7308235168457 |
-1.77499866485596 -2.80480766296387 1.17006206512451 -9.70850944519043 -9.93267250061035 3.7496542930603 -3.97346115112305 -6.63205337524414 -5.00089836120605 6.69350385665894 2.48420810699463 5.11994361877441 6.7004246711731 -4.29895496368408 7.25731611251831 -2.89392566680908 9.87672328948975 7.13191747665405 -4.03864765167236 8.44139862060547 -1.66477108001709 -1.66451549530029 -8.15030860900879 1.02919483184814 -2.78664493560791 -8.53998947143555 -1.50233173370361 -4.41383266448975 6.07491970062256 8.96010398864746 8.23384761810303 -1.74973392486572 -3.12987899780273 1.29724597930908 -1.606689453125 -7.44973945617676 -8.31818389892578 -5.23804187774658 3.13300323486328 0.400167465209961 5.41811943054199 -7.35616874694824 -5.05801391601563 -1.94577598571777 -5.78291702270508 0.845922470092773 -9.0126781463623 9.42230415344238 2.10867023468018 6.27629041671753 -7.75215148925781 -8.41214370727539 7.13431358337402 -9.3476676940918 -5.73006439208984 7.16824531555176 -6.53716611862183 -2.23666286468506 -8.12384605407715 4.92193698883057 -1.49174118041992 -1.46935558319092 -3.40503787994385 1.74742794036865 -4.98088932037354 4.55968856811523 -3.14324951171875 3.21070170402527 3.46038055419922 0.247345924377441 -8.82046699523926 8.43290138244629 -9.86376190185547 5.0384635925293 0.820311546325684 5.52161931991577 -3.16067600250244 -7.69415664672852 6.11823081970215 0.0436601638793945 0.374179840087891 3.064608335495 8.80427360534668 0.498610496520996 9.10433006286621 -7.96178817749023 -3.01996803283691 6.67235374450684 -2.74262046813965 -6.72421455383301 -3.88009929656982 -5.0400276184082 2.98467826843262 -1.53549575805664 7.44361448287964 -4.66271781921387 -6.7254753112793 -6.40862464904785 3.26015448570251 2.23423099517822 -9.56830787658691 2.22091293334961 6.81933164596558 8.01356506347656 0.365656852722168 2.1697244644165 0.438080787658691 2.08181953430176 -4.79519748687744 5.69209575653076 6.88811302185059 3.7898108959198 -5.60339450836182 -1.13381767272949 -1.38501071929932 5.5403470993042 4.37417030334473 -4.16813945770264 -9.26782989501953 6.70235109329224 -6.21616792678833 -1.38791179656982 4.59694862365723 4.03626441955566 8.61917304992676 4.00498151779175 7.77717351913452 1.71617889404297 0.117283821105957 -0.90330982208252 -0.348633766174316 9.43391609191895 -8.56890106201172 -0.348099708557129 -7.18989372253418 -9.01067924499512 -0.695117950439453 -1.92628955841064 -8.11138534545898 -2.30292415618896 5.21862506866455 3.67377996444702 -9.94462203979492 -0.989557266235352 8.14158248901367 1.74541091918945 -0.938430786132813 -4.60518264770508 -8.67657661437988 -7.47207832336426 5.83505153656006 5.4129958152771 6.78385210037231 -6.04070472717285 -3.97008800506592 3.56626963615417 2.94811224937439 3.90244936943054 -9.26699066162109 -2.20664405822754 9.44338607788086 7.69525289535522 1.596435546875 -6.10392379760742 -9.89060592651367 -5.74335861206055 -6.1370677947998 9.93942642211914 0.848945617675781 0.707677841186523 -6.35762214660645 -2.20959568023682 1.29994010925293 -6.00210618972778 0.0401725769042969 -6.31730842590332 7.26909637451172 3.9256808757782 8.30063247680664 -8.15954208374023 |
