3.74999237060547 7.0819206237793 4.31528091430664 -0.229100227355957 -8.49355888366699 5.66091299057007 9.1685791015625 7.24844169616699 -7.52469825744629 -9.93769836425781 6.436439037323 -2.81996631622314 7.31964302062988 7.1967887878418 -8.20583152770996 -2.87830257415771 9.2940788269043 -3.93958473205566 -6.34349060058594 4.98654127120972 7.57640838623047 -1.67484855651855 3.67413020133972 -9.31078147888184 -2.90131950378418 -6.43136548995972 -1.15469551086426 2.03553104400635 3.10976481437683 4.88836479187012 -0.599466323852539 6.13878631591797 -6.62920951843262 2.90088844299316 2.72791361808777 9.49549865722656 8.74005126953125 0.020970344543457 -1.25961208343506 -9.29296493530273 -1.10610389709473 -9.78652191162109 6.88214492797852 9.51339912414551 6.3108868598938 3.09276080131531 -9.2420597076416 -3.6195125579834 2.31720542907715 4.68014478683472 2.59113502502441 -1.32617378234863 -5.59302139282227 -5.06542205810547 -8.68011283874512 -7.05378007888794 -9.14407348632813 1.29927062988281 7.85151672363281 9.8559398651123 9.12811470031738 8.77039337158203 2.49386405944824 -0.659390449523926 7.58403015136719 -1.94460487365723 6.18176460266113 5.0632495880127 6.75601720809937 -3.45888996124268 0.81614875793457 -3.10957527160645 8.72754287719727 6.31749677658081 3.85674452781677 9.98232841491699 -6.53019905090332 5.29597043991089 -5.00334739685059 2.84858894348145 0.0431957244873047 7.52480697631836 6.98914527893066 8.21476745605469 -4.84268093109131 0.421408653259277 -6.93294525146484 1.37108898162842 4.9842357635498 9.59233093261719 8.80480766296387 7.77367067337036 6.95956754684448 -4.19467544555664 -2.40835094451904 4.95018196105957 5.60868263244629 -4.86978912353516 7.90575981140137 6.41242218017578 7.76872825622559 7.23366498947144 -7.71376800537109 -8.67751312255859 -7.39352035522461 5.43028354644775 7.65127372741699 3.31752014160156 0.118070602416992 -9.80637550354004 6.29021835327148 8.20623779296875 8.14251899719238 9.47489738464355 -6.29652452468872 -1.92018604278564 -6.6841869354248 6.05252456665039 -3.47966575622559 -3.2427921295166 6.06949234008789 7.63020277023315 -4.48769664764404 3.6284396648407 -3.92877197265625 -8.38257598876953 3.24958777427673 -9.01945304870605 5.19053220748901 -2.59953117370605 -4.40600299835205 9.77977561950684 -6.9895076751709 7.21315574645996 2.0466890335083 5.95748138427734 -5.9472484588623 -1.52759170532227 2.55881071090698 6.14283561706543 -5.69797706604004 7.3166561126709 5.81377983093262 -1.59781551361084 4.20363903045654 -0.0770530700683594 5.18461227416992 1.24702835083008 1.34581661224365 -3.4846248626709 -7.63044166564941 -2.2964916229248 -3.59368228912354 8.79220771789551 1.8650951385498 -3.1100378036499 2.07938575744629 -2.42420101165771 4.14860725402832 7.42022705078125 1.78916358947754 0.0476446151733398 -4.85182189941406 -9.15339469909668 1.81901359558105 6.19385480880737 -5.80689239501953 -9.86345672607422 1.20973682403564 2.946781873703 -6.58249855041504 -7.83676147460938 1.57753086090088 7.80848503112793 4.71455097198486 8.69481563568115 2.60781478881836 -6.83779907226563 6.75557136535645 3.97152400016785 8.38064575195313 -4.15548419952393 -1.75047969818115 4.01691913604736 1.03873825073242 -8.84488868713379 -5.00375556945801 -3.64036178588867 -9.91048812866211 -1.78124809265137 9.21814918518066 -2.66326522827148 4.25436496734619 8.14344215393066 2.17074298858643 -0.38404369354248 -9.92793273925781 -5.03148078918457 -6.15482521057129 5.73580265045166 -6.10904884338379 2.45249652862549 8.68612670898438 -1.53525257110596 -0.232914924621582 3.46555209159851 -6.92230653762817 1.93436527252197 -7.58568954467773 -3.15476036071777 -7.10055541992188 -5.12383460998535 -2.26560497283936 6.00556373596191 7.74589109420776 -6.41297149658203 -0.0709524154663086 -8.83070945739746 -8.1348705291748 -0.816069602966309 -8.64717483520508 6.20376968383789 -3.19907760620117 -6.43902254104614 -2.82219982147217 3.45620346069336 -2.72577667236328 3.51360511779785 7.32562780380249 -0.952953338623047 -2.33309173583984 -2.60556316375732 -2.63350105285645 -7.00653266906738 -8.64094543457031 0.241421699523926 0.864974021911621 0.627013206481934 8.32326126098633 8.06634426116943 0.857070922851563 9.42404174804688 7.33082246780396 -7.77097511291504 1.76544761657715 9.17876720428467 4.05828237533569 -9.09809303283691 -7.32023668289185 5.53598594665527 -8.71182441711426 1.44300556182861 -6.08080339431763 -6.30061149597168 3.60863661766052 -4.55285453796387 -0.652708053588867 -9.25894927978516 6.51182174682617 -4.06254863739014 5.20183753967285 0.720592498779297 -8.18740463256836 8.89837455749512 -3.2618465423584 -7.13048505783081 8.68916702270508 -9.17601013183594 -0.893734931945801 9.09527778625488 3.76805281639099 4.82013702392578 8.78463935852051 -1.83157348632813 -0.399967193603516 -7.22385597229004 -9.72373580932617 4.1778678894043 0.0710716247558594 -7.89559173583984 8.75316143035889 -6.45379066467285 4.56952285766602 2.66894102096558 0.816248893737793 -2.51680755615234 -5.11307239532471 -2.75217914581299 -9.47071075439453 -6.38647842407227 -1.1498441696167 1.69360733032227 2.61631941795349 9.7188663482666 -4.17371845245361 0.486517906188965 -2.80134582519531 1.91947078704834 -1.12894916534424 -4.28259468078613 -7.71960783004761 -8.80268096923828 -1.66624641418457 1.23187637329102 -4.4163236618042 -8.63067436218262 0.571623802185059 -4.85900974273682 4.73397254943848 2.36081504821777 3.88465857505798 8.01712799072266 -0.834015846252441 3.05277585983276 -1.16372013092041 -9.00516319274902 9.82602119445801 4.70949363708496 -0.382448196411133 -4.27665328979492 8.55273246765137 -8.25214767456055 7.93276023864746 1.45330810546875 5.64909172058105 0.0143108367919922 -3.69430446624756 7.79922246932983 -9.87775802612305 -4.03592491149902 8.99781036376953 0.271640777587891 -0.474887847900391 -6.96182250976563 4.87377643585205 -3.3140983581543 -2.4799337387085 -7.92411804199219 -5.52254199981689 3.04675817489624 -7.67146301269531 6.78237152099609 -4.99275302886963 -2.79156303405762 -0.407668113708496 -0.0212678909301758 4.34481620788574 -2.62374782562256 0.898698806762695 4.05857276916504 -9.01126670837402 -5.46939086914063 5.86834669113159 5.7685489654541 5.65605640411377 4.47734832763672 6.82357788085938 7.25322484970093 -0.906258583068848 6.73397064208984 7.88004350662231 8.87715816497803 6.19707489013672 2.24803352355957 -3.70789432525635 4.90033149719238 -1.15491962432861 7.23961305618286 -2.34583950042725 7.19384717941284 -6.20419692993164 9.18286323547363 -2.89601230621338 -9.9347095489502 7.83776998519897 -4.9793586730957 -8.25921821594238 -5.66390037536621 0.855635643005371 -5.40300369262695 -3.803955078125 7.39734411239624 -3.78030204772949 -7.07097578048706 -0.723243713378906 2.29168033599854 -1.1094799041748 -4.9324836730957 5.49229621887207 7.97550916671753 5.03507614135742 -6.32973670959473 8.92464828491211 5.25620937347412 9.14198112487793 -2.73440933227539 0.909294128417969 -2.62582683563232 -1.23153591156006 -5.76097965240479 -5.48568248748779 -1.92699527740479 -2.03983211517334 -9.93879699707031 6.98057174682617 -2.65399837493896 8.33230018615723 -9.35190200805664 6.34776306152344 -8.97951889038086 -8.87120819091797 -5.56270599365234 1.22652149200439 5.21449565887451 3.58010745048523 6.67964696884155 -5.29097366333008 2.58746123313904 4.04228925704956 -3.10711002349854 -6.93873596191406 -4.46721458435059 2.34948539733887 -9.1872386932373 5.25103330612183 3.08995223045349 -4.84860801696777 -7.06137847900391 7.14738845825195 -8.41835021972656 -9.23880577087402 -1.49691009521484 0.545173645019531 5.87011098861694 3.67887258529663 -1.68211364746094 2.9466552734375 -6.47768449783325 6.27052068710327 3.34651708602905 0.509577751159668 -6.37384605407715 5.17508983612061 8.06332397460938 -5.60383605957031 -2.8066930770874 -6.26908826828003 -5.9743709564209 9.38042831420898 7.3330283164978 7.07519292831421 -4.57994365692139 -7.32206535339355 5.49866437911987 2.94483375549316 -3.81136512756348 6.25479459762573 -0.254202842712402 9.31078910827637 -3.31640815734863 7.46901273727417 -2.30418109893799 -5.11207580566406 0.337065696716309 -0.744458198547363 -5.70567321777344 0.623587608337402 6.82411193847656 -2.75 5.43236923217773 -9.14412307739258 -3.33146667480469 -4.15120220184326 -5.80976486206055 1.21214771270752 3.26650810241699 -0.527857780456543 -6.32350730895996 -9.00850677490234 8.75041770935059 2.83073878288269 8.30269622802734 6.73181104660034 -3.19820022583008 -6.76271629333496 2.41188907623291 -7.10734176635742 4.60590839385986 -3.47159004211426 -2.8805456161499 5.18085479736328 7.70925521850586 9.42309379577637 -4.22628307342529 3.60531997680664 4.48456001281738 -6.28997611999512 4.33441162109375 -4.72143745422363 1.59871482849121 -5.70611000061035 -8.10729598999023 -4.91683578491211 -8.43409538269043 1.77018547058105 -2.24345111846924 6.22822952270508 -5.65235614776611 -4.872389793396 -3.61633205413818 -2.31683158874512 -6.70889329910278 -7.19236183166504 -6.50438499450684 5.52781295776367 3.17526316642761 -2.93877220153809 -4.88391971588135 -3.4374418258667 -5.96036720275879 -3.33085632324219 5.49034833908081 6.76788759231567 7.42363166809082 8.16369533538818 -5.47303009033203 -9.56912994384766 5.72965145111084 6.90440368652344 6.01080894470215 -0.900074005126953 8.90806198120117 -3.25942134857178 -2.2370662689209 7.24063873291016 6.65926170349121 -5.7709264755249 7.60851621627808 9.1048526763916 8.20506572723389 -2.37575912475586 6.22784805297852 -6.8178539276123 -0.338701248168945 7.4345588684082 9.1041259765625 -7.12151002883911 -5.19852638244629 5.35767555236816 -7.91588258743286 -5.75318813323975 1.74158191680908 -2.37352466583252 -7.9960675239563 -3.30459690093994 -9.41074371337891 -6.64320182800293 -0.816117286682129 -9.20165824890137 8.2656192779541 -8.0648078918457 8.18022155761719 0.507787704467773 -9.98491477966309 6.80480194091797 -8.40260314941406 -6.00911903381348 7.33565092086792 9.84951210021973 6.65280532836914 0.331853866577148 3.17906141281128 -5.08394718170166 7.44893598556519 8.30573558807373 -5.00446796417236 7.42533445358276 -0.390163421630859 -4.00216007232666 9.78697204589844 5.2684760093689 1.26795864105225 -5.6807804107666 3.30126738548279 -8.71372413635254 8.57790184020996 6.64370012283325 1.43676853179932 -9.97039413452148 8.64371299743652 0.670028686523438 -9.72954940795898 1.80041885375977 8.5096435546875 2.67499160766602 -6.52690696716309 7.92434692382813 -5.13946056365967 -8.81241798400879 3.8091869354248 -2.81718158721924 -6.30134773254395 4.39220428466797 6.01038932800293 9.81009674072266 6.77007865905762 3.43782877922058 -0.401000022888184 -9.77240562438965 -0.214234352111816 7.91946172714233 0.627156257629395 8.35546493530273 2.65772318840027 -0.957094192504883 0.743251800537109 0.649889945983887 -9.8199577331543 5.86982488632202 0.612283706665039 -7.42759275436401 3.7767481803894 1.90250778198242 7.98404455184937 -0.256415367126465 6.94990873336792 0.926295280456543 -2.63134860992432 -5.45448780059814 -2.18564414978027 2.17037773132324 8.17201805114746 0.161648750305176 -6.25565004348755 -7.28539991378784 0.681596755981445 -2.18222236633301 -3.33420658111572 -5.50210189819336 -8.75154304504395 -8.48344039916992 6.88455772399902 3.24785423278809 -1.71117401123047 -5.02842140197754 -4.44180393218994 -1.24145889282227 6.3329029083252 -3.32832431793213 -9.31296539306641 -6.9051570892334 -8.80951309204102 -0.248040199279785 9.64630889892578 -7.86015701293945 -7.71145629882813 0.203929901123047 -7.27775764465332 2.1149263381958 4.75801229476929 -5.47860622406006 3.45200991630554 2.77430033683777 -0.0231895446777344 -6.5571117401123 3.95110106468201 -6.15709495544434 -2.46814632415771 -4.63532066345215 -2.52447986602783 9.4802131652832 5.79722881317139 -1.61363983154297 -7.60573387145996 -3.14104175567627 5.26865720748901 -6.25725936889648 2.74408531188965 -6.42593574523926 4.23151206970215 -7.25466918945313 -2.66521072387695 -2.53998851776123 -0.922723770141602 5.72029113769531 6.69615936279297 9.52055931091309 -8.56310272216797 -1.27663707733154 6.37870025634766 9.83798027038574 4.90362167358398 -0.17434024810791 -2.69946479797363 -4.56583595275879 -5.19528579711914 -0.955425262451172 -1.0637035369873 5.60024452209473 -3.00245189666748 5.48679828643799 2.77534937858582 -5.26169967651367 1.58981227874756 5.96475124359131 -6.07348442077637 0.344887733459473 -3.07776355743408 -2.8503999710083 7.6240177154541 2.98239898681641 7.36795616149902 -1.09848880767822 0.244387626647949 -3.90143775939941 6.27135992050171 1.21135807037354 1.34994602203369 -2.77577495574951 1.8058910369873 -0.937090873718262 6.47413444519043 6.5418963432312 -2.99384021759033 3.16262698173523 -5.37693214416504 -6.46053314208984 2.24065685272217 -1.79761505126953 2.13095092773438 9.71527290344238 -7.32410430908203 3.80106687545776 -5.39458274841309 -5.58445739746094 9.82714080810547 -8.48016738891602 2.69341444969177 2.12324523925781 5.31227827072144 0.683125495910645 0.518502235412598 9.44167137145996 -2.41405868530273 -8.08665466308594 1.74842739105225 6.26564025878906 -0.0507173538208008 -4.85354804992676 -0.7938232421875 5.73698234558105 9.1291446685791 9.41609859466553 0.300408363342285 1.68605899810791 -0.439215660095215 3.6264750957489 1.62112331390381 5.50615501403809 -1.45299816131592 9.14076232910156 2.54504656791687 0.56764030456543 -1.97253799438477 0.598339080810547 5.0670313835144 -8.18018341064453 4.20504093170166 3.48524284362793 -6.60520124435425 -6.01181983947754 2.14523410797119 -4.92132091522217 9.56408500671387 -8.76809883117676 -2.9194917678833 -6.15101289749146 -3.1179895401001 4.17914867401123 8.33997249603271 0.974274635314941 1.4356050491333 0.904913902282715 6.01348638534546 -1.57899475097656 -8.15242767333984 -4.30160427093506 3.43174433708191 3.87815928459167 2.81976461410522 7.27337837219238 -2.87996673583984 -2.68927478790283 -1.10116100311279 -6.41362190246582 -2.5002326965332 -5.07854270935059 0.371297836303711 5.85427761077881 2.44350337982178 -9.03886985778809 9.01172161102295 -8.63392066955566 4.17098522186279 -7.63891220092773 -1.66303730010986 1.31603145599365 -7.89381790161133 -1.12260913848877 8.95379066467285 -6.96994781494141 -2.19657325744629 -9.73202705383301 -1.0992488861084 -1.68588256835938 4.67535972595215 -0.68795108795166 -7.7289981842041 9.5265531539917 -0.24720573425293 2.56541967391968 -5.96371650695801 4.45184230804443 -4.18462371826172 4.96006011962891 2.68500089645386 -8.14733695983887 -4.57941150665283 -5.33821868896484 6.73354339599609 4.0889048576355 6.49688911437988 -3.11181449890137 -5.96287727355957 7.25574922561646 2.60433173179626 8.97334575653076 1.79096126556396 -8.51251792907715 4.04177856445313 9.88844108581543 -0.197330474853516 5.42319297790527 5.49351453781128 8.99923515319824 -1.01736640930176 8.63373756408691 7.86613655090332 -7.16192054748535 -9.18274879455566 2.20135116577148 -1.01282024383545 -8.96011352539063 1.4333381652832 1.07021427154541 -3.58519649505615 8.82905769348145 4.06378746032715 3.25866460800171 -9.60371398925781 -5.49730777740479 -4.95001888275146 -4.85907459259033 3.45316123962402 5.84259748458862 9.70673561096191 4.27095890045166 9.23466873168945 -0.601858139038086 3.69792699813843 2.70986533164978 -2.12912464141846 3.46312284469604 -6.41623687744141 9.59590721130371 6.06437206268311 9.86554622650146 2.52172923088074 9.70490455627441 7.99072694778442 1.77304840087891 5.3033709526062 7.65493154525757 3.21396589279175 -1.41109085083008 -9.66752243041992 0.376299858093262 -7.15592575073242 -6.92077827453613 -6.19844245910645 2.28327369689941 -5.93935966491699 -7.80574035644531 0.815278053283691 9.11611938476563 7.716392993927 2.2255334854126 8.34398651123047 -5.51638126373291 8.81321334838867 3.50378012657166 -5.384033203125 5.79261541366577 7.1375560760498 7.78694868087769 0.530138969421387 5.68563461303711 -3.81354904174805 8.28401374816895 6.89456939697266 -9.60111427307129 1.64119815826416 2.09311580657959 0.0560131072998047 -3.29683685302734 7.99676132202148 6.54042434692383 -9.5720100402832 -0.00492191314697266 4.68225240707397 -0.201745986938477 -2.54451656341553 -5.67199230194092 -3.89688587188721 -3.97366428375244 3.70458793640137 -4.05405902862549 -1.50297260284424 1.51732349395752 -8.72152328491211 -9.17410087585449 -1.84528732299805 7.83205461502075 -5.98818302154541 7.04854202270508 5.68805885314941 -0.175298690795898 -4.68089962005615 2.85010313987732 -9.98084831237793 1.25842189788818 1.54745197296143 9.48629570007324 -7.22582292556763 -7.25387144088745 -0.257472038269043 -7.90735673904419 -6.62782859802246 -0.924635887145996 3.04539179801941 -6.15375947952271 -7.64510917663574 5.09298801422119 7.39747762680054 -6.27170753479004 -5.2596263885498 -3.56709384918213 4.67861366271973 -0.747395515441895 4.19313621520996 1.63342380523682 -9.10004615783691 -1.12311458587646 -3.41385459899902 3.77666664123535 -2.0178165435791 4.46313858032227 -9.25638198852539 2.41692638397217 -4.00356674194336 1.10867118835449 6.5654182434082 -2.08191299438477 -5.92471885681152 -4.84138584136963 -9.76618003845215 3.42228651046753 -4.00885963439941 -2.48320198059082 -7.62194633483887 -9.73150444030762 -3.69104957580566 7.44198274612427 -1.6425142288208 -8.62930679321289 4.01956081390381 3.97369575500488 -4.77363681793213 0.0670804977416992 6.08393859863281 -6.3687686920166 -6.46802711486816 0.534893035888672 -3.92009162902832 8.27922344207764 -4.70241641998291 0.0499305725097656 -0.581411361694336 -9.41172790527344 -7.92632102966309 -5.35378265380859 -1.77622699737549 3.42738604545593 7.38045167922974 2.81491041183472 1.97554206848145 -2.48695755004883 -4.81622123718262 3.82005882263184 3.19838285446167 -5.52971839904785 -7.23072242736816 5.90606880187988 2.41156005859375 -6.03117179870605 1.07653999328613 3.93726110458374 -5.89966773986816 3.95454859733582 -6.79642868041992 -2.80074501037598 0.348934173583984 -7.6762580871582 -8.74466705322266 -8.40608215332031 4.22191381454468 6.55187177658081 0.0444850921630859 -7.08144187927246 5.65752744674683 -2.58677864074707 3.69871854782104 -9.87251663208008 3.34287405014038 5.58149528503418 0.901914596557617 9.59473609924316 -8.86552619934082 -8.67069625854492 3.2353208065033 -3.99909591674805 -4.62401962280273 5.63178539276123 -9.72914505004883 3.33186340332031 1.91806888580322 8.98441505432129 -6.44283723831177 -7.69865798950195 -5.06724166870117 -3.60293960571289 -5.79850959777832 4.64525938034058 -2.26502799987793 -6.42940092086792 -7.81561660766602 -0.466185569763184 -3.06024169921875 9.98665809631348 8.34765625 -9.07670593261719 -1.05509185791016 4.7575569152832 -9.85017013549805 5.79849004745483 -4.16653537750244 -5.42846202850342 9.97024726867676 -1.14884757995605 7.97074317932129 -7.99924421310425 -4.04738521575928 5.68462371826172 0.869551658630371 9.59497451782227 -4.9057092666626 -2.42208099365234 2.3081693649292 2.05447578430176 2.76681399345398 -7.91479539871216 -1.82902908325195 -2.27133846282959 -0.847982406616211 7.68273544311523 -8.73439979553223 1.63010692596436 -7.64228391647339 -6.28934097290039 -0.153731346130371 -0.87556266784668 9.18910789489746 -5.18983364105225 -4.0180721282959 -9.47092437744141 1.7604455947876 8.21585845947266 -7.44039726257324 -5.5886697769165 5.70802450180054 -0.125375747680664 -8.6844367980957 -6.06891632080078 -1.22655296325684 0.315984725952148 2.64469861984253 -6.55649375915527 -8.28655624389648 7.9127140045166 -8.22092437744141 -0.0683059692382813 -6.92260932922363 -8.46474075317383 2.81298828125 5.08523941040039 -7.99077558517456 8.42800521850586 3.01907730102539 -9.16714477539063 -2.64073467254639 -9.44469451904297 4.80385303497314 -1.07338809967041 -2.49090576171875 -7.67026472091675 -9.54510879516602 6.95461702346802 2.8770158290863 1.41307258605957 -5.64191627502441 2.50299215316772 8.43378448486328 3.91525030136108 2.67141318321228 9.42300987243652 -8.46982955932617 -2.32521438598633 0.496045112609863 -5.04752922058105 8.90329170227051 4.8949408531189 6.41618490219116 0.966204643249512 1.61748313903809 9.86459541320801 0.389157295227051 7.94588088989258 -3.63420104980469 3.9491651058197 3.16484212875366 4.1439414024353 -4.34513473510742 5.69808197021484 4.12098121643066 -6.59174156188965 0.976058006286621 1.08614063262939 -3.42698955535889 -1.64248085021973 7.43009567260742 -7.59211015701294 -1.00469207763672 -7.63704299926758 4.64484405517578 7.76016235351563 -7.75968980789185 5.53194046020508 -1.77163505554199 0.904518127441406 -6.23174476623535 2.59351229667664 4.62458610534668 9.75824546813965 -3.45887088775635 0.623346328735352 -2.24563980102539 -7.74859428405762 -9.52426528930664 1.80107688903809 5.6977915763855 -6.72724533081055 4.95161533355713 -6.67365837097168 -5.95390129089355 7.53222227096558 -7.72212553024292 -7.25028038024902 3.01440691947937 3.19827795028687 9.11641597747803 -5.12481689453125 0.484379768371582 6.0176157951355 -5.18857002258301 1.8672456741333 -3.39893436431885 -4.09233951568604 -7.08791732788086 2.0840015411377 7.63457298278809 2.38151931762695 7.00852584838867 1.80694007873535 -9.52710151672363 5.86532592773438 -2.68803977966309 8.18828105926514 1.91043472290039 -5.71506977081299 -0.220767021179199 5.74842929840088 -4.37208557128906 0.920123100280762 -3.25127220153809 -0.384282112121582 0.969635009765625 7.52069044113159 -3.70984935760498 -3.28093433380127 -9.77595329284668 6.26522064208984 5.02742004394531 -6.46159362792969 -3.03787803649902 -5.42701721191406 6.80253219604492 1.72882175445557 -5.52462387084961 -0.504938125610352 0.677166938781738 1.6558256149292 -8.80756378173828 7.77351140975952 6.98454618453979 -4.2810640335083 7.5274806022644 -9.45769882202148 7.41728973388672 -5.67039489746094 6.19923782348633 4.39198970794678 8.7062406539917 9.8808708190918 0.655063629150391 4.61374473571777 -3.44312286376953 -8.15922164916992 -5.59837341308594 8.59885215759277 -9.18406295776367 8.46179008483887 -6.4294605255127 3.23057150840759 -5.47737312316895 -9.95514106750488 -3.19091701507568 -7.7000789642334 0.573085784912109 6.06613349914551 -2.61566257476807 -5.44308662414551 0.559147834777832 -0.522750854492188 -9.74539947509766 -4.42981147766113 -7.49704790115356 -1.47193336486816 7.75793504714966 2.98344802856445 -6.1578483581543 5.39320468902588 -0.214181900024414 -7.25137519836426 -4.4649658203125 0.465201377868652 -2.68998050689697 -5.83349227905273 1.29665756225586 5.05512952804565 -8.19752502441406 9.72311401367188 6.8375129699707 -5.51107883453369 0.870052337646484 5.51069974899292 -8.86507225036621 -3.19756412506104 2.83440089225769 -5.09597301483154 -1.9389476776123 5.56224584579468 6.239013671875 0.955439567565918 -1.90538787841797 3.29841804504395 9.23437118530273 3.67509603500366 0.814026832580566 4.2255802154541 -7.48113203048706 8.18019104003906 0.0880327224731445 0.799139976501465 -9.81398582458496 -0.206399917602539 -5.44435977935791 9.36693382263184 -1.34573841094971 1.35354423522949 -0.699209213256836 8.80466651916504 3.7022397518158 -9.66738128662109 -7.05006408691406 -7.72460746765137 -9.67132377624512 -2.8831090927124 -9.67283630371094 8.0657787322998 6.37078046798706 -0.62468433380127 -2.81251335144043 -8.55804824829102 8.92787933349609 1.82007694244385 2.39706134796143 0.821348190307617 0.061553955078125 0.411252021789551 -0.099726676940918 9.88981437683105 4.93077754974365 -0.831957817077637 -2.51860523223877 2.16176414489746 5.12396049499512 -0.643509864807129 9.07259368896484 -3.11460113525391 2.38012409210205 9.61810111999512 6.59847974777222 -4.56487560272217 -5.13528823852539 -2.51174545288086 9.05970573425293 4.46019172668457 2.55963778495789 -4.78928184509277 5.13326406478882 6.30313444137573 4.35347557067871 6.9575023651123 7.30891752243042 0.345548629760742 7.83017683029175 1.87967395782471 4.44104671478271 9.62212371826172 -1.61492443084717 -9.67230606079102 -1.88609218597412 -1.22137928009033 -7.38346862792969 5.51143169403076 -8.13152313232422 9.80105590820313 -3.43578433990479 9.51941967010498 -1.29611873626709 5.5183219909668 -1.94741821289063 6.65440034866333 -7.54047584533691 1.43262767791748 8.51799392700195 6.22770309448242 -7.03249406814575 -7.89228630065918 2.51822447776794 -5.3377103805542 -2.51198387145996 8.25068950653076 -3.57247734069824 9.57305145263672 -7.10266876220703 2.21138095855713 -0.8780517578125 7.50594854354858 9.64765739440918 5.14108657836914 2.90274596214294 -3.15238571166992 0.425924301147461 9.09130859375 1.12585639953613 -8.31085395812988 3.09527850151062 -4.86046409606934 -3.37238216400146 -4.58463096618652 7.44942665100098 5.96830558776855 -3.57343292236328 0.107025146484375 0.799141883850098 7.82907056808472 4.26314544677734 -3.66363906860352 5.03807544708252 3.47373199462891 -6.71641159057617 4.47808265686035 6.09972190856934 7.32369613647461 -4.21962642669678 -0.969161033630371 5.57957172393799 2.00806045532227 -1.81357955932617 -3.21953678131104 -9.43725204467773 -0.660690307617188 5.49654960632324 -6.5381031036377 -6.88700675964355 -1.86110877990723 -9.158447265625 1.99095821380615 -4.13705253601074 -2.40769004821777 -9.74961471557617 -2.66350364685059 8.85467720031738 -6.97785902023315 -8.15187835693359 -0.801959991455078 2.32004737854004 -8.20993232727051 9.7833137512207 5.40235042572021 0.549844741821289 -8.73521995544434 -0.968762397766113 4.38997745513916 -8.58969688415527 1.63007164001465 -0.96357250213623 -0.375514984130859 -9.12810516357422 -2.59054279327393 -6.10746383666992 8.98601055145264 -9.0255126953125 6.3412709236145 -1.10122108459473 0.301794052124023 -6.57631874084473 -7.66625213623047 7.53836393356323 1.21433353424072 -8.27386474609375 7.10218191146851 2.74610710144043 -0.904807090759277 -4.36876678466797 -0.847149848937988 9.61180877685547 -0.987773895263672 -5.87582397460938 7.635657787323 3.33752822875977 -1.61732292175293 9.30953216552734 -4.86684703826904 -4.04555416107178 -4.47371578216553 7.73184013366699 -7.63751220703125 9.52775478363037 -7.83014297485352 -5.08957672119141 -4.288987159729 4.90583610534668 -1.35929203033447 -6.61158037185669 -5.61843109130859 -2.6765193939209 -9.58918762207031 3.17569231987 -3.97906875610352 -7.36662340164185 6.77736711502075 4.76605892181396 6.63801383972168 -4.16530990600586 6.42062377929688 0.607823371887207 8.3534049987793 -5.03828239440918 |
9.44582176208496 -2.33180904388428 2.59405326843262 1.08488941192627 -2.10023784637451 1.89592933654785 -1.50339508056641 -2.33210182189941 -1.63669013977051 -8.09769821166992 8.01192283630371 5.74706268310547 -1.04270076751709 -4.72554111480713 -4.68202018737793 -0.157541275024414 6.56443357467651 -9.52080535888672 8.86457633972168 -6.32572364807129 -7.93944549560547 5.36880970001221 5.01020908355713 -8.67830657958984 4.03964042663574 -5.84971904754639 -8.5573787689209 9.97727203369141 8.55992317199707 2.45031261444092 -2.97916984558105 2.66435599327087 9.29060363769531 2.23697757720947 -1.32532691955566 -6.70511674880981 -7.27369499206543 -4.62843990325928 -3.63031005859375 -5.73384475708008 8.99102020263672 3.40828394889832 -5.96479225158691 -4.424391746521 -2.10142040252686 -2.02125453948975 0.168160438537598 8.19990348815918 8.49953842163086 1.14627265930176 9.0645866394043 9.77024269104004 1.25131988525391 4.18816757202148 3.18695521354675 8.85233879089355 -6.53400421142578 6.16831970214844 0.309971809387207 2.94815254211426 -4.28324794769287 1.52211761474609 6.10225868225098 -1.01957893371582 8.49909019470215 -0.888532638549805 -5.33800315856934 1.70190715789795 -6.16980361938477 -3.40184307098389 -5.47142028808594 8.18286895751953 6.0003490447998 -7.11961317062378 7.94316482543945 -6.57855033874512 -4.8284158706665 -9.64185523986816 -2.977952003479 -4.35615634918213 -0.0757160186767578 1.85469055175781 4.05905723571777 0.834232330322266 -9.14779663085938 3.94624900817871 -6.09749603271484 -8.41533470153809 -2.82031154632568 9.3188304901123 6.47463989257813 7.87619590759277 1.8345890045166 -7.01095771789551 -6.74513292312622 -4.7918119430542 0.330000877380371 6.06812953948975 -0.772294044494629 8.21365737915039 1.45578479766846 -5.39967346191406 2.54477477073669 -6.29494142532349 -5.79558849334717 5.14885663986206 9.83620643615723 3.9133927822113 -4.65418434143066 0.960330009460449 1.59282779693604 -5.60062885284424 -4.2646369934082 4.42033958435059 -9.73627853393555 4.11845207214355 1.70244789123535 -9.30464172363281 -2.35344791412354 -4.15506935119629 0.09954833984375 7.48047828674316 9.89758968353271 -8.99194717407227 6.84512662887573 9.19047546386719 -5.14045524597168 -8.5564079284668 2.20085716247559 -5.72933006286621 -5.53324508666992 -6.53110074996948 7.62848091125488 1.90045738220215 -9.26895141601563 2.51699209213257 4.64746952056885 4.63898181915283 -6.8011474609375 0.834332466125488 -2.40293407440186 -1.89197444915771 3.79888725280762 1.74063301086426 -6.37721252441406 2.6274561882019 -1.3208589553833 -3.80272006988525 9.68343925476074 7.63981580734253 1.04488277435303 -1.31874465942383 8.98933219909668 6.81850862503052 8.25322151184082 -7.97135543823242 -8.4912223815918 -5.2502269744873 0.135522842407227 4.87155437469482 -2.2773609161377 -5.21523284912109 5.03066539764404 -3.07690048217773 -2.75841331481934 5.27635097503662 -9.92845344543457 3.53137731552124 8.33644676208496 -3.05542373657227 -9.00018692016602 -4.05992412567139 7.35137939453125 8.14936447143555 -3.49014854431152 9.76181983947754 -9.13524627685547 3.84958982467651 -2.88854026794434 5.44272184371948 8.52964782714844 -5.05449104309082 -0.97380542755127 5.72043418884277 0.862292289733887 7.31151580810547 2.69124484062195 -8.3764476776123 4.41378355026245 -9.19355010986328 -2.94183349609375 -1.91181087493896 -4.91995716094971 9.08940505981445 2.66495203971863 4.20215606689453 7.42036056518555 -0.951332092285156 6.45008516311646 -5.5259895324707 -1.48897743225098 -6.83362197875977 5.66421699523926 6.34788942337036 5.47519445419312 3.67906069755554 -3.72400188446045 -0.47049617767334 3.62997031211853 -6.2395191192627 0.947023391723633 6.28159523010254 -5.50843048095703 1.76903820037842 5.81253051757813 -7.81720161437988 -4.17926406860352 1.15693187713623 6.06082916259766 -3.11767482757568 -7.51641464233398 4.41943883895874 -7.13348579406738 8.28332710266113 5.87351322174072 9.64677047729492 -4.01103115081787 2.96910738945007 -3.8222541809082 4.31435775756836 5.20917892456055 -1.0566291809082 2.69201040267944 6.12076759338379 3.04916834831238 -4.85261535644531 1.71033477783203 -6.19934272766113 1.10348129272461 1.41891098022461 -8.73995780944824 4.87051010131836 3.68247485160828 4.69416379928589 -4.58106422424316 -1.61284065246582 -8.26488494873047 1.29300689697266 0.273371696472168 7.34293937683105 3.00440764427185 -6.1471791267395 -9.75549507141113 -2.23574733734131 -6.7413444519043 -9.05937194824219 -4.23983001708984 -5.11547565460205 4.84612464904785 -3.01183128356934 -7.80253601074219 -0.665794372558594 1.08871841430664 4.68745708465576 3.41925382614136 -7.13105392456055 -3.70101833343506 6.94730949401855 -8.19406127929688 7.63726234436035 0.312753677368164 0.380963325500488 9.58114814758301 -6.04190063476563 0.682100296020508 1.19949722290039 2.351149559021 -1.0237922668457 -2.81580352783203 5.52753639221191 -7.31086730957031 -5.85019874572754 4.56905841827393 -6.68289947509766 2.05245399475098 -2.10419273376465 -5.31030654907227 -3.49696254730225 -4.98201751708984 5.00475120544434 -3.4697904586792 8.21559906005859 -4.53713035583496 2.65171504020691 -8.6716480255127 -5.51988124847412 5.19404888153076 -4.32912921905518 -6.69860076904297 -2.22709560394287 6.15286254882813 -1.19028472900391 -1.35804080963135 -7.48038816452026 7.57684469223022 -5.45015335083008 7.18738317489624 -6.20657396316528 5.01036167144775 3.93174362182617 -3.32585906982422 -4.61923027038574 1.53970813751221 2.01151752471924 -0.0554218292236328 5.43096542358398 -2.68535995483398 8.43265724182129 9.49722099304199 9.3460750579834 -7.14714813232422 2.75005531311035 1.96577930450439 4.76514577865601 -1.11923789978027 -3.7019624710083 -9.14554405212402 -5.54001045227051 9.09166526794434 0.0113162994384766 -2.36973857879639 2.25129699707031 -3.18363285064697 -3.73423194885254 -3.74686813354492 8.65149974822998 -1.10451602935791 -7.77734756469727 0.653692245483398 -4.51544189453125 6.76935195922852 2.17200374603271 -7.67196846008301 0.116935729980469 4.78585433959961 -6.82933378219604 9.90842628479004 1.1443510055542 -8.96706390380859 -1.5536060333252 9.04494476318359 -6.90255928039551 3.3293673992157 0.553408622741699 8.74718856811523 2.10742568969727 1.19530582427979 -5.84941387176514 -8.29824256896973 8.56914043426514 -3.43515014648438 -1.16197204589844 -4.04457950592041 7.24917936325073 -6.40246200561523 9.6696891784668 -4.39664745330811 -1.32187938690186 0.794261932373047 9.77147579193115 -8.39483070373535 -2.51921081542969 0.485325813293457 9.68846321105957 0.18649959564209 -5.18469333648682 -6.8620662689209 -7.27959108352661 1.31110572814941 0.329485893249512 -4.03089618682861 9.1997241973877 1.73307991027832 0.424870491027832 -6.31750106811523 5.78298330307007 2.06279850006104 2.39018821716309 -6.31076383590698 -0.805464744567871 -2.94567012786865 3.51090407371521 8.22067451477051 7.21861600875854 8.69073390960693 8.73287200927734 -2.34982872009277 -3.13719844818115 -5.19103527069092 3.23216199874878 -5.77723693847656 -4.18022060394287 6.68336629867554 4.18236255645752 4.9045581817627 -2.95703029632568 2.45701217651367 -6.55433225631714 8.00408554077148 4.61419582366943 6.50858354568481 2.30700588226318 -3.91021823883057 9.86448097229004 -9.04783248901367 -5.78342437744141 -2.80358695983887 7.88719177246094 9.44593238830566 6.00098371505737 -4.70150566101074 3.01587080955505 5.74736785888672 -5.68852233886719 -8.37542343139648 -7.6467399597168 0.167788505554199 -2.53484153747559 -1.68285274505615 7.48967170715332 -8.50157737731934 -5.46158313751221 -6.13185882568359 -6.52439117431641 -0.436767578125 2.42237949371338 -4.71882724761963 2.58884882926941 -6.16234254837036 -4.87247085571289 -5.35617351531982 -4.00246047973633 -1.965989112854 3.52063369750977 3.82527327537537 -9.17807769775391 2.772376537323 -5.77799987792969 5.61239242553711 -8.48555374145508 1.19327449798584 -6.93489503860474 7.95501708984375 -9.70334625244141 -1.87902069091797 6.17178916931152 -4.3233528137207 -8.85783958435059 -7.48493623733521 6.74139022827148 6.65933609008789 -5.58861923217773 -6.31311225891113 -2.29307556152344 1.16437530517578 2.54166102409363 3.63885378837585 8.92058849334717 9.38110542297363 -0.119653701782227 9.18678665161133 -7.36062240600586 5.52075576782227 8.23900604248047 3.5625147819519 -6.13256454467773 6.93538236618042 -1.14724063873291 6.28937482833862 -5.02738952636719 -6.91950988769531 2.20593070983887 5.34984350204468 8.2708911895752 4.37436103820801 -3.3141622543335 2.26620292663574 -8.24076461791992 -7.18718004226685 -5.91422557830811 7.02115249633789 -2.96172714233398 -5.60461807250977 -4.4209156036377 -3.44311332702637 -7.16927337646484 5.23644638061523 6.26371145248413 -1.78043460845947 -5.29882907867432 1.6801586151123 9.94608879089355 3.3800482749939 -2.00877285003662 -0.620232582092285 8.78287315368652 -0.595215797424316 1.41957187652588 -7.28024291992188 -0.805591583251953 0.423589706420898 -2.68519496917725 7.12660980224609 -4.168776512146 5.64268112182617 -6.57106590270996 1.56559562683105 1.16240882873535 4.19743061065674 -8.42330169677734 -7.74386930465698 5.09819507598877 -8.22353744506836 -2.75160694122314 8.05600357055664 -6.19444847106934 7.12009620666504 6.86061429977417 5.99494457244873 9.59528350830078 5.47764015197754 -2.23665618896484 -1.00975894927979 -5.15208053588867 -6.1561222076416 -2.83648872375488 8.88654232025146 3.95944356918335 -3.13544178009033 -2.05784702301025 2.21862697601318 3.07544898986816 0.571383476257324 -4.05231380462646 -6.71854448318481 1.80003547668457 9.69144058227539 -1.93215274810791 -1.24058818817139 1.49046802520752 -8.06085777282715 -3.97449588775635 -2.63717555999756 9.50861167907715 1.60615539550781 0.555838584899902 -0.268631935119629 8.50623607635498 -4.14358711242676 3.53855109214783 3.37685346603394 -8.9156494140625 6.07295036315918 4.29394483566284 -1.43649959564209 3.03591704368591 -4.92414379119873 7.82528638839722 3.60639071464539 4.69174861907959 3.26823687553406 -8.40761566162109 -0.631881713867188 7.99912214279175 1.97568035125732 -9.57497596740723 -7.17564058303833 -9.01861190795898 1.05304622650146 -5.2017879486084 -9.31862640380859 5.92038631439209 -0.390538215637207 -4.35297584533691 -3.36441135406494 7.16446876525879 4.26585674285889 -1.7485990524292 2.93028330802917 -5.5245475769043 5.26632785797119 8.35534572601318 -1.06339073181152 -5.93554496765137 5.89440822601318 -6.05184125900269 -6.77522230148315 -3.03804302215576 8.78627586364746 -5.68941116333008 |
-5.40762710571289 -2.26900196075439 -0.232382774353027 8.89277935028076 -6.79638862609863 -1.68747806549072 -9.76084518432617 9.24354362487793 -6.27309370040894 -8.24554443359375 -2.31247806549072 -6.98388290405273 2.6729941368103 4.68019962310791 8.05620956420898 -9.22535705566406 -7.40886878967285 1.22459316253662 -7.33935165405273 2.52655220031738 -0.704537391662598 -7.62852144241333 -7.54306364059448 2.28046321868896 4.80765342712402 -5.00361442565918 2.90289855003357 -6.96603584289551 5.39416313171387 -8.65574264526367 -0.442811012268066 9.58718490600586 -2.05281639099121 -5.01262855529785 7.07963705062866 3.61306166648865 5.83795738220215 4.15950775146484 -0.235990524291992 -2.53593826293945 5.2889461517334 -9.28136444091797 2.01326942443848 5.27420043945313 4.68141078948975 6.00016355514526 -6.71628761291504 -6.66448163986206 6.16929244995117 -9.43526458740234 -2.19607925415039 -7.69652891159058 3.25453734397888 2.21443271636963 -6.33722734451294 -6.06933784484863 -3.08194065093994 6.2144923210144 -2.25109481811523 4.44038391113281 5.74781894683838 -1.5837345123291 3.93466448783875 -5.83069610595703 -6.63223075866699 9.33583450317383 5.05437850952148 5.06433486938477 -2.96796703338623 4.62593555450439 6.54101371765137 -2.08284473419189 -1.12365818023682 5.04851818084717 -7.91410255432129 -2.94793224334717 3.41003608703613 5.30389785766602 -9.10479545593262 3.74153852462769 -9.14158821105957 9.11630153656006 -0.614119529724121 -7.24330139160156 -8.86713981628418 -1.85808563232422 -3.40752220153809 -1.60354518890381 2.47685813903809 1.42003631591797 4.06142425537109 7.27812957763672 -0.634342193603516 3.3956573009491 4.3163275718689 7.37341642379761 1.48390197753906 -0.18065071105957 -1.70416736602783 -3.11763858795166 0.706376075744629 -4.05366516113281 0.0329437255859375 4.1542387008667 9.74857330322266 6.4745922088623 -6.01686906814575 7.09515047073364 0.33861255645752 4.93026924133301 -0.433445930480957 -0.314849853515625 -8.42150688171387 9.80148315429688 1.54083633422852 9.89293575286865 2.8422257900238 7.47448921203613 -3.25020694732666 6.11397743225098 -5.81523132324219 -6.28232526779175 -1.36886215209961 -6.96244764328003 0.690375328063965 -0.0403919219970703 1.9149169921875 -5.55270671844482 7.72957277297974 -0.70116138458252 3.5361499786377 -6.73223304748535 2.53283953666687 1.60044765472412 6.6026782989502 -1.68880081176758 -5.38543701171875 -6.10521745681763 -0.894068717956543 -0.265959739685059 2.11282825469971 -9.49925231933594 6.9104151725769 0.809182167053223 5.71400165557861 2.41988086700439 7.00352430343628 5.83968877792358 5.19286632537842 7.76346635818481 -2.25074672698975 9.94468879699707 4.18489217758179 8.06668472290039 -5.42143630981445 7.92527389526367 6.22883796691895 7.91976165771484 -7.85803604125977 8.06079864501953 -6.74289703369141 -0.154136657714844 1.82124710083008 6.17794418334961 -8.5065803527832 7.19124269485474 -2.79155158996582 -0.921401023864746 -2.34497928619385 5.88146924972534 5.96888065338135 -2.91120433807373 7.89473533630371 -6.49615287780762 6.32122993469238 2.05787563323975 -7.79097557067871 9.70557022094727 0.574373245239258 7.95932531356812 4.21634864807129 8.54434013366699 9.74261093139648 -9.73408699035645 2.26262950897217 6.48591566085815 -8.71971321105957 -2.50849151611328 -8.47885131835938 2.95343852043152 -2.47870826721191 6.9984245300293 6.01818466186523 -5.18879699707031 3.25750803947449 -9.99175834655762 -5.34157943725586 3.00106239318848 8.62607479095459 6.9185848236084 -2.37990951538086 8.3740348815918 -8.0768871307373 4.77614879608154 6.60403442382813 6.06619596481323 0.358113288879395 3.82045936584473 4.22085952758789 -0.0936117172241211 1.07794189453125 8.72972011566162 -6.37997817993164 -8.3167839050293 1.42397308349609 -8.9084529876709 -4.87328624725342 -6.57442855834961 -7.72908210754395 5.1018214225769 7.48776960372925 7.93281316757202 -1.96780300140381 -6.71389055252075 9.51825618743896 9.61934852600098 -2.89187812805176 -6.17824363708496 -1.23496437072754 -5.18546104431152 4.83638763427734 4.95487213134766 -5.34570503234863 2.84883952140808 0.0623331069946289 0.602031707763672 2.90708994865417 -1.9633903503418 7.02005815505981 -4.56617450714111 -2.18101596832275 -7.92545509338379 -3.21955299377441 -1.5550651550293 1.65676689147949 5.79089641571045 5.9001898765564 3.04334616661072 3.43186140060425 -1.15839576721191 -1.19790649414063 -5.45319557189941 7.89332580566406 6.75533056259155 -5.35175323486328 -4.67338180541992 6.67513608932495 -5.64566421508789 7.26569890975952 8.12941360473633 -8.86569786071777 9.81824398040771 -0.58432674407959 -8.62839126586914 -4.60337734222412 -8.00839614868164 9.41849899291992 1.53432273864746 2.06793212890625 0.25572681427002 -4.83289813995361 6.35359001159668 -9.2240161895752 -7.6141529083252 4.74030017852783 0.947943687438965 6.05267524719238 2.58296465873718 2.84168219566345 -8.2020206451416 -9.34242630004883 1.27428913116455 -0.88215446472168 -0.666666984558105 5.04730415344238 -4.86862277984619 -1.86560726165771 -4.59954643249512 8.25528335571289 -9.15249633789063 9.86701774597168 -3.00774478912354 6.63112640380859 8.60148620605469 -4.52900505065918 9.15657806396484 1.62127876281738 -6.55352783203125 4.65976905822754 -0.788334846496582 5.02621173858643 -0.505753517150879 5.27587413787842 -6.07931566238403 -8.19877433776855 2.59472823143005 -2.52920055389404 -2.8434476852417 -8.60670280456543 -1.96765518188477 3.16896629333496 6.96131706237793 7.98409652709961 -2.72728824615479 5.78250646591187 -9.31714248657227 5.91763019561768 -7.60781097412109 5.27521133422852 5.65399646759033 4.12226867675781 0.566583633422852 -1.54138469696045 8.29322814941406 -3.46516704559326 0.532158851623535 5.89238882064819 1.58533477783203 4.93810415267944 8.20672798156738 0.664671897888184 9.19327926635742 -3.36509609222412 -4.13894271850586 2.80831789970398 -9.17859649658203 3.77795195579529 -9.59404945373535 6.13300323486328 -3.62938022613525 7.96975135803223 6.3629150390625 -7.51617002487183 -2.209228515625 0.964845657348633 7.00522947311401 7.8159351348877 3.54130721092224 -1.44441699981689 5.35032033920288 5.7732982635498 6.37226819992065 -5.54468631744385 7.11245012283325 -7.92131233215332 4.86611843109131 1.88662624359131 7.2055983543396 9.43485450744629 -5.15601921081543 3.85798215866089 -0.139165878295898 3.45462775230408 2.12023639678955 -0.75710391998291 -3.24653244018555 -4.85780620574951 -9.06789588928223 8.85188865661621 -5.15844535827637 -7.47760009765625 -8.16585540771484 8.07308006286621 -9.74886894226074 -4.28975009918213 -3.06743049621582 -6.8415355682373 1.91573715209961 -7.6137752532959 1.06883430480957 -2.98606777191162 9.38564109802246 8.25679016113281 9.31329727172852 -4.47556400299072 -1.90215969085693 7.84029722213745 4.78566884994507 -8.21144866943359 6.34332847595215 -0.0949344635009766 1.59844303131104 9.87963485717773 -2.61016273498535 -0.926071166992188 -3.48276042938232 -8.28179931640625 -7.51959609985352 8.39626502990723 -1.83440113067627 -7.41508483886719 6.40771865844727 7.52399873733521 -6.41895723342896 6.52332496643066 5.06776809692383 -5.15376567840576 -6.66445922851563 -8.14397621154785 -3.78997898101807 5.40201902389526 4.53648328781128 0.113181114196777 3.08397746086121 -2.41772556304932 -3.03091144561768 4.74474906921387 2.04992866516113 5.15140295028687 3.07876777648926 |
