-5.62663555145264 8.84033203125 -4.34612655639648 -1.69408416748047 5.4271125793457 -0.197695732116699 3.93625712394714 -0.832375526428223 -8.49924087524414 -9.51112365722656 -9.67072296142578 -9.83094787597656 -7.42031288146973 -14.8633193969727 9.19765901565552 5.72691440582275 8.32235336303711 1.57742118835449 -6.44018173217773 9.26187896728516 -1.59161186218262 6.06923818588257 7.98782539367676 -1.66252517700195 4.89325284957886 -6.18658256530762 3.49994080793113 9.76616859436035 4.03045845031738 -3.72996234893799 1.19930648803711 5.913405418396 -1.32135820388794 -6.30208969116211 5.41700553894043 4.39685761928558 0.147442691260949 3.32772016525269 0.644255638122559 5.35110664367676 1.02363967895508 -8.83258819580078 6.66753005981445 0.480045318603516 8.70600509643555 3.12563872337341 -9.3703498840332 8.39951324462891 -4.07118225097656 -5.32682609558105 -5.747389793396 8.53160381317139 2.8745744228363 -4.9263916015625 -4.49335193634033 4.52067375183105 3.11682200431824 9.39868450164795 4.59614944458008 28.7152233123779 -0.770021438598633 23.2360148429871 18.4498386383057 -5.75814003776759 -5.98388862609863 4.84851360321045 -38.0369718074799 -6.21647071838379 4.83509063720703 -7.27664756774902 -3.54156398773193 3.00377821922302 -4.85853099822998 -2.51018619537354 1.58338642120361 -1.78049945831299 7.76293516159058 8.50226402282715 -2.20731639862061 4.46821212768555 -3.98452854156494 -7.19084548950195 6.91110610961914 -4.99566459655762 -9.2552547454834 -6.99450604058802 -3.90124678611755 -8.33620328921825 2.2453031539917 2.2722635269165 2.84569239616394 8.07186317443848 9.21574592590332 3.82355189323425 -3.56429481506348 8.30633354187012 1.16268539428711 5.63877105712891 6.64098501205444 9.19784069061279 -6.56628608703613 2.31367206573486 9.07768440246582 -6.22626240551472 5.14069080352783 -3.38234806060791 -5.87347507476807 -4.12999248504639 9.55129623413086 -2.89521789550781 3.26329684257507 1.26857527298853 1.39658832550049 8.63040161132813 -7.78436231613159 4.65872001647949 -9.27538108825684 -3.05171871185303 -5.54724216461182 9.1668586730957 -9.49844217300415 7.92290163040161 0.709270477294922 -1.98151016235352 8.71049910783768 2.41635465621948 4.18490600585938 -9.17541694641113 6.24055862426758 7.51928977947682 0.860675811767578 1.10038661956787 0.880850791931152 3.22641825675964 1.56249904632568 -1.63906955718994 7.503990650177 1.7304407581687 -9.96338945883326 2.52360665798187 2.64691114425659 -1.34728050231934 6.4055323600769 -0.839957237243652 -1.22302436828613 -4.9829683303833 -7.89857864379883 6.89873170852661 2.93462252616882 -4.98822116851807 7.45919752120972 -43.9428472518921 -1.46126842498779 -15.7257165908813 -4.85752356052399 5.50986051559448 9.08880245429464 -0.93570613861084 -6.2149715423584 1.76340484619141 -6.41902923583984 8.16877365112305 7.90520668029785 -6.78451108932495 -2.00367832183838 1.49427638761699 3.25162863731384 6.00646209716797 56.8194441795349 0.198010444641113 5.32067489624023 -5.16814422607422 -0.461627006530762 -5.39533286471851 0.0548210144042969 -6.74444007873535 3.89741134643555 -9.56950950622559 4.45432424545288 -0.447887420654297 9.80074882507324 4.6805477142334 -8.80908966064453 8.34536552429199 -17.4872512817383 -7.51622724533081 2.35466861724854 -9.19939231872559 0.112079620361328 8.46306228637695 -5.32359600067139 6.43216848373413 -2.82145881652832 -8.21545950556174 -7.04786109924316 6.3144012093544 -7.49387550354004 3.02321410179138 -1.66224575042725 -0.817970275878906 -4.8740062713623 -7.6846981048584 -8.4631233215332 0.640426635742188 8.19905090332031 3.51836919784546 -3.93625164031982 6.08266067504883 8.47153854370117 -5.35238456726074 -6.10609817504883 -8.32071304321289 7.56034421920776 6.33359479904175 -4.83888244628906 3.44920611381531 3.11796164512634 -3.59569644927979 -4.73630046844482 0.954204559326172 2.92814970016479 -8.58464378118515 5.03164052963257 48.6333599090576 -9.35776614956558 0.454925537109375 -6.87079620361328 7.04973220825195 -34.0385932922363 1.64420509338379 -1.4629020690918 2.75069952011108 5.59898138046265 1.84247398376465 -6.45756241329946 -4.79527054401115 -9.3375415802002 9.18697357177734 3.99094683211297 -0.713506698608398 6.13435745239258 6.13613319396973 -9.26591438055038 5.14679145812988 5.77161550521851 9.21762657165527 -4.27905464172363 2.12482833862305 7.85009813308716 -9.75405120849609 -3.62839126586914 -7.69040107727051 -6.53433275222778 5.47327041625977 -0.0484714508056641 -2.92087173461914 3.70398497581482 3.79134893417358 -5.47195625305176 8.57875061035156 9.36245727539063 6.26054763793945 -2.84419918060303 -8.73929786682129 3.55523824691772 -9.52257919311523 4.30431127548218 -8.07616806030273 -8.99749374389648 -1.45571136474609 -5.0191764831543 7.53763222694397 1.80412673950195 -0.879193305969238 1.0870720744133 -7.43997383117676 0.764919281005859 9.49997329711914 -0.0997867584228516 9.82605361938477 -1.86271095275879 -1.51258850097656 6.93068897537887 0.915435791015625 7.39002418518066 5.31539440155029 -5.46285438537598 5.25243759155273 4.43822860717773 1.29721260070801 3.71539306640625 -28.25830078125 4.02904272079468 -3.92054176330566 -4.51524190977216 16.0046291351318 -5.93306064605713 -4.80997180938721 -52.0648427009583 7.02898216247559 1.70872724638321 3.73975253105164 -8.68730735778809 2.70169711112976 3.01812887191772 7.84265947341919 -0.41314697265625 3.08398962020874 -5.8480339050293 9.14791488647461 -7.51517486572266 -2.33984088897705 5.03660678863525 -9.44351196289063 1.29645252227783 1.8688497543335 -4.41621685028076 2.85237503051758 3.6257636398077 -9.67204666137695 5.73738574981689 -6.01062965393066 5.31909704208374 -7.21622896194458 -5.2746764421463 -4.92633438110352 -5.68174839019775 -3.90519046783447 -5.80384254455566 -6.75550270080566 -2.84036254882813 7.82182455062866 1.63114929199219 -2.20691406726837 -7.91399955749512 -7.04663467407227 10.9017028808594 -9.25198364257813 -2.66389942169189 -8.28617095947266 8.99966430664063 1.71022510528564 -2.06784248352051 6.60567808151245 0.951581954956055 5.21806716918945 0.550021171569824 0.773724555969238 36.0696676457301 -1.39106845855713 -0.42296314239502 6.11405563354492 -4.91222286224365 -7.9641964584589 -8.96738815307617 3.10792899131775 6.12386226654053 4.61050510406494 7.17709541320801 5.82573652267456 -0.12053108215332 5.95719814300537 -5.42123031616211 5.02580165863037 -2.44809722900391 -2.85585975646973 -5.42959022521973 3.90047788619995 -7.51246976852417 -0.546527862548828 -0.38181209564209 -6.42746925354004 8.43036842346191 -0.0370779037475586 -6.46793794631958 -6.97400617599487 -6.25695419311523 0.401681900024414 4.78948354721069 -3.3188304901123 5.98559441417456 -7.34724998474121 6.78594470024109 5.78830242156982 5.02222061157227 -5.81833657901734 -8.99123764038086 -23.9932899475098 9.43780899047852 -3.08174514770508 6.96909666061401 7.97504425048828 -8.7375659942627 9.61538743972778 1.08880007266998 7.1103572845459 -3.30634498596191 -3.71479892730713 9.20533657073975 -0.96340274810791 2.74271941184998 -8.40638390462846 -7.84282255172729 -7.66008806228638 -7.41239600162953 -0.489663124084473 -6.87637329101563 -7.51199293136597 5.6231689453125 -5.2020770907402 6.02900695800781 -2.45906448364258 9.73822593688965 42.3283081054688 7.94734191894531 -5.04936408996582 -9.01646594842896 -3.45109558105469 6.84924125671387 8.42424774169922 6.59101915359497 -3.68958568572998 -7.94452857971191 0.42194938659668 -9.61376923322678 3.56728744506836 1.11437225341797 -3.39593982696533 7.68082094192505 -4.89614391326904 5.87641716003418 -0.391894340515137 7.33652830123901 2.73030042648315 -9.9810619354248 -2.97539986949414 -8.00976228713989 1.69688141811639 5.33633422851563 2.69944167137146 7.62199592590332 6.95253562927246 6.79144334793091 -9.48212051391602 6.84039831161499 8.57884407043457 1.41141660418361 6.82032775878906 9.26002502441406 -7.43329238891602 9.99886894226074 -1.05307960510254 -5.46419620513916 48.1959686279297 -0.177654266357422 3.89148104190826 3.30776929855347 3.21139097213745 -4.92819404602051 4.36544895172119 0.995003455784172 7.76532363891602 8.97336483001709 4.77755737304688 3.30159640312195 -9.80026626586914 5.62670230865479 -6.63938671350479 -4.40203696489334 5.15609502792358 -1.27218627929688 6.45311784744263 -2.54343891143799 -7.23669242858887 0.732001304626465 -7.45962619781494 7.31347274780273 0.349460601806641 -31.8773651123047 -7.02641487121582 0.0769510269165039 -8.58921432495117 8.61876487731934 2.64013743400574 -0.481615841388702 8.51423454284668 -8.64335632324219 -7.5941276550293 0.911377906799316 -1.57415008544922 -5.6362247467041 -3.06540107727051 2.54568552970886 8.7821044921875 3.56137358490378 -9.26891136169434 -9.96361541748047 6.17778778076172 7.31051969528198 7.66716957092285 9.77021408081055 -9.71607109857723 -3.46356964111328 3.472904920578 -0.805855751037598 1.00109672546387 -7.74257663358003 -0.344437599182129 1.00649929046631 3.98680186271667 -6.17405128479004 0.582991600036621 -6.25057649612427 -3.05001831054688 -1.48292446136475 -3.70577239990234 9.24046993255615 -5.48399448394775 -7.12913513183594 -4.86935710906982 -0.979598999023438 0.042780876159668 -2.98608875274658 7.88574409484863 6.25870895385742 7.66790390014648 2.32970265368931 35.8698301315308 2.2747049331665 -5.65055370330811 -3.15310859680176 -0.064793586730957 4.91044330596924 -0.896820068359375 -4.41816902160645 6.57981109619141 -1.80116271972656 9.32498168945313 -9.88162994384766 -7.55850028991699 1.07847309112549 6.42697858810425 -8.12919998168945 -6.72590446472168 -9.27102088928223 4.03371810913086 4.06756591796875 0.844944953918457 4.05022382736206 -5.5794506072998 0.116695404052734 3.02819812297821 7.41638612747192 -3.5427992939949 -0.476616859436035 8.39616012573242 4.77433204650879 -7.46672821044922 8.68929290771484 4.68881797790527 6.51997041702271 5.65503835678101 -4.86175441741943 1.70042419433594 7.87240219116211 3.91863584518433 4.11141586303711 4.64361381530762 -0.77769660949707 3.86161041259766 -1.56096363067627 5.62398433685303 -7.73519325256348 -5.3457145690918 -9.63308525085449 1.42186069488525 9.41948699951172 -9.3767204284668 -3.78440952301025 2.15732192993164 9.55920028686523 2.46818923950195 0.743887066841125 46.8604068756104 5.71863889694214 -5.27125549316406 6.11711025238037 4.50020980834961 3.94179320335388 2.17262172698975 2.52619504928589 2.25406265258789 6.25830125808716 -8.76189422607422 -1.15397357940674 9.95916366577148 -8.75296783447266 8.97747993469238 8.29132843017578 5.71417331695557 -9.57061386108398 -7.64123487472534 -7.03827333450317 -9.86642837524414 -7.26085233688354 -8.51237106323242 6.2863392829895 -5.94302940368652 8.18077278137207 -9.01851463317871 -0.30709171295166 -1.67056179046631 -7.38717842102051 -5.36666170228273 5.03379344940186 3.78537154197693 2.66267538070679 4.17401313781738 -6.60890560457483 -2.96395683288574 -7.311499228701 6.01493072509766 -7.15373992919922 -5.2446174621582 -0.608085632324219 1.49567699432373 3.05098986625671 -36.766840307042 -9.8255500793457 -7.66238403320313 3.80883932113647 -9.46840667724609 -5.5418062210083 5.05257797241211 5.35421848297119 6.67240858078003 -8.81386184692383 4.70456271991134 4.99863386154175 -2.57242107391357 7.94835090637207 -6.65565121825784 2.21641635894775 8.83041331265122 -3.77334022521973 0.597986221313477 -8.78384399414063 -1.94837951660156 7.29155731201172 5.90137672424316 -4.654296875 -5.29479026794434 2.42009735107422 7.33352301316336 -4.12181526422501 3.93023681640625 -7.37214279174805 9.87267303466797 2.07320594787598 0.0602540969848633 -6.80720138549805 -4.88129234313965 31.6603927612305 -5.8751392364502 -4.31813621520996 2.62630224227905 9.27933472814038 0.898476600646973 -0.216311454772949 1.96271991729736 0.785308837890625 -9.51276588439941 -0.304957389831543 -4.08043766021729 2.53017401695251 -6.40400695800781 38.7072868347168 -7.62782859802246 -0.751338958740234 2.39162170886993 3.02207446098328 9.37098302599043 3.21950888633728 -3.16437989473343 0.83892569784075 -5.28395652770996 6.97080183029175 8.92156600952148 1.362548828125 -8.78291702270508 2.33738994598389 -9.9333667755127 -3.13894844055176 -9.85866737365723 -6.67222785949707 -53.2160415649414 5.4030966758728 9.17626857757568 7.61921119689941 -7.83949327468872 7.57155179977417 -9.94498252868652 -5.16792297363281 -1.24175643920898 -9.14616012573242 6.2932014465332 16.7150650024414 39.6912107467651 0.809098243713379 9.77029609680176 3.68398857116699 -4.6392068862915 -1.36551576852798 7.68127870559692 -8.72153472900391 2.77846789360046 48.5224761962891 52.1730282980716 0.849112510681152 0.210031509399414 -2.48974895477295 -2.49473088979721 4.79233503341675 -1.2350378036499 -2.51464748382568 4.41446781158447 9.8350830078125 7.69132197427098 8.04975318908691 3.80409002304077 7.14485168457031 3.34032511711121 -2.02913665771484 -1.92355728149414 8.87427806854248 1.43193340301514 -9.97562599182129 1.28273391723633 -1.06990432739258 -6.21383857727051 -1.51173686981201 9.14136695861816 -7.55847930908203 -8.33745574951172 -9.52240943908691 -5.97588539123535 -37.8102216720581 7.28485822677612 -2.96090507507324 -2.39786720275879 -9.87609100341797 1.36782073974609 8.57071304321289 6.3898431812413 2.23043537139893 6.65067434310913 -18.3268766403198 -2.94867897033691 -5.18211841583252 9.15682983398438 -0.709494233131409 1.0207044670824 7.16167616844177 8.40282440185547 -0.494671165361069 -9.12513542175293 -2.5944551024586 -8.19854025635868 2.73375272750854 2.53843283653259 5.72538375854492 5.03679752349854 7.92649984359741 -4.37256240844727 30.3026123046875 8.47333145141602 0.781520843505859 -2.8429708480835 2.58306956291199 -3.96233940124512 -0.719374656677246 -3.67502784729004 3.30547094345093 4.10483837127686 8.54611587524414 5.39786100387573 6.13586973026395 -8.60079956054688 -1.71283626556396 -9.00173187255859 3.22139930725098 2.7046275138855 -3.01878356933594 -3.78439044952393 3.35184550285339 -1.32051086425781 1.38427829742432 36.6849899291992 1.05950450897217 9.03005409240723 5.50686597824097 5.45078468322754 -9.15884017944336 -3.80190944671631 4.84919738769531 -8.18496322631836 -5.1279878616333 8.18915367126465 4.15979146957397 -7.5054817199707 8.64392280578613 -5.11241545493249 -3.22521781921387 -7.15842056274414 -3.34092712402344 -3.81545925140381 -2.84309959411621 8.86077404022217 -9.31123530864716 -9.88679695129395 7.15612173080444 -9.71409797668457 -1.27746963500977 -4.69720935821533 29.021541595459 3.36927390098572 1.88130950927734 -1.10559558868408 9.85042572021484 -9.62186813354492 0.0434198379516602 -2.13123416900635 1.49456882476807 -8.91825276031159 -4.20955289900303 -7.15603637695313 -2.18833065032959 8.94452571868896 -4.92534255981445 -1.99873828887939 -5.69435119628906 -1.16167163848877 4.9224967956543 3.14390635490417 -8.83180236816406 -1.49722480773926 0.00485175848007202 -7.97041368484497 35.9609375 -4.74674797058105 5.96787452697754 2.66579604148865 7.1235466003418 -9.10353088378906 -1.97201824188232 -3.5437151575461 -7.7103328704834 5.27799797058105 -0.266414642333984 9.78985595703125 -9.2923526763916 6.06552505493164 -4.23047924041748 0.478893280029297 9.94232082366943 -0.269545555114746 4.5514030456543 -4.90518951416016 -2.67572784423828 4.00643110275269 2.02177906036377 -4.80878734588623 0.353587850928307 -1.31686115264893 -5.3957986831665 6.62819862365723 -5.70392417907715 3.59311079978943 -3.04500675201416 5.67843914031982 -4.80441665649414 -2.79466724395752 -0.567775726318359 9.24904823303223 0.822263717651367 2.00089800357819 5.66358089447021 1.70746898651123 -4.69460582733154 -0.119462966918945 -3.32597827911377 -3.31520255561918 5.07223606109619 -9.03798501868732 -8.95882415771484 8.01909255981445 -8.88552665710449 -2.01485729217529 2.42986297607422 -7.66166687011719 -4.53936672210693 7.08603024017066 -2.44455242156982 3.5988974571228 8.18228530883789 -1.82529544830322 -9.49238777160645 -3.06938743591309 -9.41190719604492 1.60932922363281 -3.60659503936768 -9.88683700561523 -8.3332347869873 -31.0854740142822 2.98933005332947 -4.91265392303467 -9.71414005104452 -43.9684276580811 3.91034317016602 -5.62499046325684 5.14542770385742 -1.41941499710083 0.462957382202148 34.2497520446777 0.161403656005859 0.237594604492188 2.90881609916687 9.66449582576752 -8.14634801447392 36.3740792274475 -4.94494533538818 42.0133438110352 3.93634557723999 46.5962133407593 0.977283477783203 -5.49495887756348 3.6505241394043 5.82850456237793 7.14763641357422 -2.55727863311768 -4.53385257720947 -3.68320083618164 -1.84682273864746 6.33249044418335 -2.83051586151123 -9.24664306640625 2.10139846801758 -6.39766502380371 -2.03043556213379 -5.5280247638002 -0.242663383483887 8.99630737304688 4.06679344177246 -1.31932640075684 -3.35580253601074 5.01546859741211 -3.17198848724365 8.22484493255615 -47.4754629135132 -4.70610523223877 4.84317779541016 -6.09177398681641 -4.67572784423828 7.81192779541016 -5.35072803497314 1.19879817962646 -2.6057014465332 -6.27225112915039 -5.87158012390137 -2.72101020812988 -6.9688892364502 -3.56540298461914 3.38769674301147 6.03302955627441 -5.43929576873779 -0.420375823974609 -9.45604133605957 -2.11751556396484 -5.88609218597412 -6.98537826538086 7.29764938354492 3.38611364364624 -9.3714599609375 -4.56540679931641 1.73344039916992 -4.95244407653809 -7.95675086975098 -2.03600311279297 -7.6751561164856 1.97732830047607 -0.528726756572723 -7.84472274780273 -5.21651268005371 5.9279842376709 9.47397613525391 -39.2693386077881 3.0132884979248 1.25033760070801 9.07037475332618 5.85219860076904 4.83033895492554 -5.8048267364502 -6.70792388916016 -3.70648956298828 -3.1232271194458 4.99247550964355 4.54506874084473 1.02350616455078 4.38174247741699 -9.46283531188965 9.30121898651123 -5.012561368756 -3.25331592559814 9.76259613037109 -38.2144613265991 1.3079911088571 9.47673320770264 3.62712836265564 8.63516235351563 -16.4291315078735 -8.43165969848633 -1.69424629211426 -5.72474002838135 -5.62694310210645 -3.79117870330811 -7.8501935005188 -6.13280820846558 -9.88582801818848 6.57126617431641 2.85113096237183 -3.05906867980957 5.0687313079834 -7.48782682418823 -1.67231941223145 5.12520551681519 6.42290830612183 5.00046253204346 -6.86633110046387 -8.53893661499023 -7.94900703430176 -7.06427049636841 -7.64028358459473 2.44657956063747 2.97098135948181 -5.90670394897461 0.972467422485352 -5.65460681915283 -4.42161120660603 -9.73153686523438 0.683399200439453 -7.87807464599609 2.936279296875 1.64107418060303 -2.09960079193115 -0.368904113769531 8.9204044342041 -6.91321222949773 -9.20484161376953 4.87714958190918 -9.69935607910156 -2.85462760925293 5.29107284545898 4.82227802276611 -8.92823791503906 2.15461158752441 -43.0871829986572 4.82003688812256 9.50868248939514 7.99522399902344 1.48872947692871 9.90411949157715 -2.16846084594727 -0.470398902893066 3.84214854240417 -2.06464130803943 7.19774436950684 9.88675406761467 5.13430663477629 6.16520643234253 4.80667591094971 -9.23930931091309 6.20722007751465 -4.12703418731689 7.28574538230896 3.88261115550995 -4.30202865600586 8.87813568115234 -6.93157386779785 5.16859769821167 -4.05893230438232 -4.87423515319824 7.66062498092651 -8.43537139892578 4.7422194480896 -6.68742942810059 -7.47168367519043 -14.4035701751709 6.98644638061523 -4.58819198608398 -7.75204658508301 9.64778900146484 1.70018873363733 6.08159255981445 6.94656562805176 0.0236215591430664 -2.24198436737061 -4.6132984161377 -1.04647541046143 3.36550211906433 -1.41204196214676 -2.14066195487976 -7.52272796630859 -5.52849292755127 -2.47818851470947 1.4665355682373 -1.41832081601024 7.56800651550293 8.29066753387451 4.7666072845459 -24.0633960412815 1.88082902599126 7.80653715133667 -1.09519577026367 -6.12298446614295 -7.93636494269595 -9.94697952270508 1.78813362121582 1.94714450836182 7.27537155151367 -4.43560218811035 3.96443128585815 0.600136756896973 9.90641784667969 -8.89242935180664 7.57781982421875 7.24013090133667 -8.27420191699639 6.80902481079102 4.6212911605835 -3.54429817199707 0.283595085144043 2.04370403289795 9.0495491027832 -4.89710903167725 8.52166366577148 -6.74021196365356 5.80514669418335 7.09884405136108 -5.71393775939941 -1.09762287139893 5.65549612045288 2.84465289115906 6.71718597412109 -9.41065979003906 -7.17107506014872 39.1507434844971 7.97083616256714 9.13276195526123 37.1913795471191 2.14617347717285 6.25865507125854 -3.36471176147461 23.1921882629395 4.60767507553101 0.466212528757751 6.24859046936035 6.85651016235352 -29.9382863044739 -39.718510684208 -0.430215835571289 9.5460319519043 -2.39113426208496 -4.90188026428223 1.61837673187256 9.972243309021 9.55942916870117 -5.49424783047289 -1.77916622161865 0.715326309204102 5.77962636947632 3.83294558525085 -5.50049018859863 0.770219802856445 5.96193790435791 -3.52342510223389 8.83149909973145 -9.42396545410156 2.41670703887939 1.23504066467285 -1.56119918823242 41.7688903808594 -1.77654838562012 -6.74591493606567 0.920716285705566 7.92606115341187 -4.49027156829834 -5.55893707275391 -2.11178398132324 -2.49486827850342 1.63185501098633 -0.307182312011719 4.19872283935547 -3.06441402435303 9.65483093261719 -0.929947853088379 -1.70263385772705 -5.11688709259033 -1.86987245082855 6.75799369812012 4.45367050170898 4.87481832504272 9.64602470397949 -3.46053981781006 -4.97946166992188 -1.18060684204102 -2.40681076049805 0.114416122436523 9.23152446746826 1.68583811679855 6.536536693573 -2.75960540771484 5.85333585739136 -16.4500505924225 6.48185300827026 0.29628849029541 6.42315864562988 -1.58113098144531 -14.0281491279602 -5.0388765335083 -1.65379905700684 9.36766624450684 -5.87733459472656 2.70472025871277 -3.43142414093018 3.65190267562866 2.06783258914948 -19.1307239532471 0.353869438171387 1.17260360717773 2.96153521537781 8.53689002990723 9.70036506652832 5.4448413848877 -0.510021678404883 -3.38863945007324 -5.70293235778809 6.93597555160522 5.47095060348511 -9.12276268005371 -1.00007438659668 -9.42867469787598 0.486225128173828 6.75859451293945 -5.62645435333252 0.386899948120117 0.683440208435059 -9.95636367797852 3.38480710983276 -3.053542137146 7.64456016290933 -37.3576889038086 4.76808738708496 -7.89297977613751 -8.90214920043945 -5.41575241088867 1.86702156066895 3.30678915977478 -9.56400871276855 8.12863641558215 6.29071950912476 -4.16985893249512 9.04787063598633 1.87184238433838 8.04369354248047 -2.91463279724121 -41.2219104766846 9.7342529296875 -0.0994243621826172 -1.06000804901123 3.61863851547241 1.90736389160156 8.58184814453125 0.872825622558594 -2.01684856414795 6.98236906528473 9.04311180114746 -4.55553913116455 2.5039119720459 -0.494771957397461 3.2998251914978 2.51724219322205 -0.19722843170166 3.6839599609375 2.78339838981628 -7.7184886932373 0.0859489440917969 -3.57028579711914 1.36347389221191 -2.45631790161133 -1.2350971698761 5.28902053833008 8.62072718143463 -7.72041046619415 0.0720987319946289 9.79322814941406 2.1830997467041 3.19437742233276 4.59221363067627 3.60084986686707 9.40445079281926 7.23899412155151 3.745760679245 6.31535291671753 3.01801657676697 -8.17090225219727 27.198579788208 7.09345293045044 0.910979270935059 0.862589836120605 7.87166357040405 5.40410041809082 6.67988014221191 0.47179126739502 -2.97387504577637 -2.23734474182129 -0.374516487121582 -1.59716469049454 -3.03196048736572 0.586658477783203 -9.35427968972363 -5.16536362376064 -8.50846099853516 2.72736740112305 -1.97150611877441 5.08126020431519 -5.3695125579834 -6.79316711425781 0.208485008217394 2.43777656555176 0.170055389404297 3.62517547607422 6.41173887252808 -1.9666001200676 7.65560579299927 -8.68639183044434 -6.53698921203613 -5.04878234863281 -6.8182373046875 -4.71076393127441 1.21762371063232 -9.70184326171875 8.63749313354492 0.57840770483017 -8.82734107971191 9.79164158366621 -1.3439474105835 -2.12888050079346 8.00574493408203 5.89916706085205 2.67637228965759 -8.2071475982666 9.17427062988281 -1.00139566278085 3.17985725402832 -4.03086280822754 -0.280937194824219 -1.3749828338623 -6.56589078903198 -1.67607879638672 -6.73210906982422 -5.60043144226074 2.97797656059265 4.53278732299805 -9.63110160827637 -3.87297343555838 -8.84668350219727 -4.75606536865234 2.27713012695313 9.26836013793945 -3.84214782714844 8.20006370544434 3.35026240348816 -2.90072822570801 9.65721130371094 8.56422233581543 7.9583740234375 -1.75183391571045 -7.26805877685547 0.195521354675293 6.06506729125977 -5.11920928955078 6.98034203052521 8.7212325334549 3.94090628623962 -2.73740863800049 -5.02406883239746 5.24139881134033 3.92085528373718 -0.133081436157227 3.86441421508789 -1.87028312683105 5.00418186187744 5.54999113082886 7.97958135604858 4.57117795944214 -0.271526336669922 2.57002579607069 -5.49472999572754 -2.17040920257568 0.0594987869262695 5.71803092956543 -9.20539474487305 -7.61323738098145 4.17125225067139 -4.18572832643986 -7.89932680130005 -0.0992975234985352 1.75993061065674 0.692168235778809 -5.08648872375488 -7.72208738327026 -9.16423988342285 -0.943159103393555 -39.4348421096802 2.62886762619019 4.17038440704346 9.70669174194336 -0.231322288513184 4.62783661903813 -0.323018074035645 -8.44958877563477 -0.316463470458984 -6.04807662963867 9.57987785339355 -3.15521812438965 5.98411560058594 -4.92880916595459 -3.9111795425415 7.82075119018555 -3.33444976806641 1.85496234893799 -9.33353805541992 -17.7389659881592 7.36032056808472 3.54847884178162 6.95752143859863 -8.14948844909668 4.97081102617085 -9.44625091552734 -9.55106735229492 -6.06893932446837 -7.88797378540039 9.89421653747559 8.22933578491211 40.0198407173157 -8.05254173278809 -6.45941082015634 7.36445426940918 4.27674359083176 -2.19926929473877 3.07908034324646 3.69353485107422 8.34317016601563 7.18370628356934 -1.7642650604248 -7.47435760498047 1.1015739440918 5.78788757324219 -5.33926963806152 8.46107864379883 1.87880897521973 -18.6145420074463 5.32136917114258 9.74705696105957 -6.4872932434082 -0.130647659301758 7.12441444396973 6.18813514709473 -20.8313865661621 0.577906608581543 -8.02739334106445 7.68935394287109 -34.0625058412552 5.55705261230469 9.2508602142334 7.67306512594223 -6.82148170471191 -2.69483947753906 -9.45738983154297 9.44630429102108 -1.1544361114502 8.08793258666992 0.694998741149902 9.1945915222168 -5.45594215393066 8.51879119873047 42.0249876976013 -3.14023399353027 5.34454536437988 -7.40865516662598 |
-4.1262378692627 0.807486534118652 2.08005809783936 -8.96366882324219 -0.351639747619629 9.35732269287109 -7.47531700134277 -19.7207088470459 -4.93070364184678 -2.62667751312256 -6.28650665283203 43.322060585022 6.08816146850586 2.40247631072998 2.51025652885437 3.57919585704803 7.44228363037109 -7.77886915206909 32.0802383422852 -7.71403503417969 3.06069921143353 9.97947569121607 -9.63930511474609 -8.28570566931739 4.36328411102295 2.66487312316895 2.90967440605164 4.847900390625 -8.55668830871582 -2.2480354309082 6.26801567990333 -4.92118263244629 -1.31939792633057 0.98009204864502 4.18966484069824 -7.73962211608887 8.40630531311035 -8.16969108581543 -1.02367520332336 -0.218578338623047 8.61008262634277 8.19742202758789 3.77179336547852 7.00704765319824 -18.6296920776367 -4.63533020019531 -0.927854537963867 -3.24058999191038 -8.57545471191406 -1.55763530731201 4.2458438873291 -5.83403587341309 -9.432701256359 -0.652199745178223 7.86627006530762 0.946074485778809 8.36958158016205 0.999720573425293 4.45013934094459 -2.39556694030762 -6.49484464339912 1.85206413269043 6.91156148910522 3.77219653129578 -9.54403877258301 -3.07470226287842 3.82093405723572 -6.05168867111206 5.93616616725922 -8.09755325317383 0.628789901733398 9.01719284057617 7.68934679031372 0.332995414733887 -5.01853942871094 -7.77506637573242 -9.60577964782715 0.0519332885742188 -6.1375617980957 9.735595703125 8.87811183929443 -4.71794509887695 0.778459548950195 0.907097816467285 -4.25620174407959 -5.89981079101563 9.94906234741211 -2.22409152984619 5.64625930786133 6.93970441818237 4.69322083890438 7.44971036911011 8.33150672912598 -5.07406425476074 -3.16505813598633 6.45876884460449 7.55685377120972 -4.32104682922363 3.32147359848022 7.83050298690796 -4.46935749053955 2.89009547233582 -0.188456535339355 3.3831615447998 7.08499298989773 6.36334419250488 8.01346206665039 0.755935668945313 -4.3742504119873 -4.67709636688232 -5.63852310180664 -9.54136848449707 6.57127571105957 -6.48900985717773 4.1444092001766 -5.72184753417969 -1.18314361572266 5.32968997955322 -7.27976608276367 0.939508438110352 8.57977294921875 2.14423561096191 1.35648345947266 -3.55324554443359 1.52079010009766 5.4591003311798 -7.83243179321289 -7.89732468128204 -4.92763423919678 0.6998291015625 3.36529231071472 1.29933452606201 -7.55620002746582 -3.81167984008789 7.28478193283081 -3.71624851226807 4.44542407989502 -2.25944900512695 -4.91649055480957 -8.22908020019531 -1.95867919921875 4.91086006164551 -1.17006874084473 9.7991828918457 13.4104290008545 -3.87064075469971 -9.41460800170898 -6.56162261962891 -6.07723665237427 -7.20066261291504 -1.10407257080078 30.1053104400635 9.19797420501709 -0.138205528259277 5.31416416168213 -2.61101341247559 -3.72032260894775 0.0724802017211914 8.94812774658203 -21.157843625755 -9.46276092529297 2.48247051239014 -2.55923843383789 0.747298240661621 -9.43930053710938 2.03891181945801 -2.45749378204346 -2.44096183776855 9.98232841491699 0.10893440246582 -9.33291435241699 -1.4604868888855 2.97272658348084 -1.30716705322266 4.59375381469727 3.9425253868103 1.2995138168335 -8.52899028593674 -5.5695104598999 -8.65410995483398 -4.46732616424561 8.74572563171387 6.35297775268555 7.05961459875107 4.11583662033081 -45.9173927307129 6.53105735778809 -3.35919284820557 -1.75953960418701 -4.13940334320068 5.3294677734375 -9.23981857299805 -5.95557689666748 9.57654190063477 5.16139030456543 3.50826025009155 -2.97079711314291 -11.6709423065186 5.1891040802002 -7.98605728149414 -4.48995208740234 28.5509471893311 -5.53083419799805 6.61434888839722 0.0741062164306641 38.0323009490967 -9.94648361206055 -5.19317817687988 -9.38066482543945 7.58156776428223 5.01344642974436 7.36624908447266 -3.00989055633545 3.19020462036133 -4.99328231811523 -6.48110914230347 1.36542224884033 -0.00279521942138672 -5.38045692443848 -2.35679870098829 5.97594738006592 -0.713924407958984 3.07521796226501 45.2052993774414 -4.50481033325195 8.12153625488281 9.45893096923828 5.09371757507324 10.3213686943054 -3.76996940374374 -1.38630962371826 -4.32289028167725 7.51239347457886 5.31004522182047 7.08874464035034 9.30148601531982 3.23796463012695 19.3981027603149 7.12425827980042 -1.65140056610107 -1.80693531036377 -4.90025424957275 5.62999486923218 7.26204872131348 9.83376312255859 9.69624996185303 5.75026512145996 9.06841659545898 -9.30656189192086 1.44573307037354 6.91581916809082 -4.30928611755371 -7.28033828735352 -9.22685271501541 -3.93004035949707 -1.24685382843018 -3.60909080505371 1.58880805969238 -3.80340480804443 -4.3599853515625 -7.25213813781738 7.71781492233276 -7.5423526763916 9.54838752746582 1.55316840577871 9.71352577209473 -2.70424461364746 -0.0466718673706055 8.37807577848434 15.8573865890503 -34.9030075073242 -0.235173565801233 -5.22957038879395 7.0733790397644 -9.32686823606491 6.27385854721069 6.62814331054688 -1.60053327621426 4.35538053512573 -6.93979454040527 -7.86696243286133 3.06181406974792 -9.35497093200684 -7.31686592102051 4.29711103439331 -9.24360466003418 -8.99654709920287 8.63311576843262 1.20922470092773 -4.69397687911987 -1.17795372009277 0.271393893635832 -1.53953456878662 4.99580383300781 -7.05829811096191 -9.16712760925293 6.85971975326538 6.24188184738159 4.89718914031982 7.97192049026489 -4.59356212615967 -3.97526836395264 0.280366897583008 7.58471783157438 8.62652206420898 -5.83300399780273 -9.42062377929688 -0.743666648864746 3.40366339683533 7.81995010375977 8.36273671220988 -3.21825122833252 7.62388944625854 8.03763389587402 -49.3584880232811 -2.99414253234863 5.22556613385677 8.00510406494141 -1.07469463348389 0.996778607368469 3.7147159576416 7.37877031438984 -9.57524299621582 -7.76082563400269 -0.397314071655273 -3.15777683258057 2.92706942558289 0.873619079589844 -4.96847534179688 -5.95057678222656 3.97758936882019 6.89925384521484 0.954255104064941 -7.07760620117188 -0.289789199829102 4.63546514511108 -1.83844947814941 2.10252743912861 -3.85344409942627 9.84589576721191 9.50112152099609 5.29574584960938 -1.39650917053223 -9.47186470031738 -3.25502490997314 3.42959856987 3.1370997428894 5.00801801681519 0.38230037689209 -5.5871467590332 -9.38484191894531 0.386868476867676 -6.37693214416504 -5.11612129211426 -3.00444507598877 -3.20425128936768 -6.1635761349462 -8.47731018066406 3.95561671257019 5.83853912353516 3.672518491745 10.1372619718313 -4.69964599609375 -3.07210063934326 -0.168233871459961 -3.19140529632568 0.532599449157715 -6.17887926101685 4.80422019958496 -9.28299140930176 -9.13811683654785 -4.14937591552734 -2.15879821777344 -8.36412811279297 -3.64225292205811 -5.51255702972412 0.151080131530762 3.42026263475418 -1.45285701751709 -5.77354431152344 5.49544525146484 -0.572973251342773 -2.37497901916504 8.14665031433105 -1.58430480957031 2.17859172821045 -1.58456707000732 6.46153211593628 9.59626007080078 3.18780136108398 -0.141538619995117 3.41885328292847 1.50773906707764 -1.23929119110107 -7.7011661529541 -1.00204658508301 9.4369438723661 1.42313861846924 -8.46931076049805 -5.20750938123092 7.89898109436035 7.62145012710243 1.84914016723633 5.44888439495116 9.25971221923828 -8.53188323974609 3.79938101768494 5.20187139511108 6.96699857711792 -2.15270900726318 -2.80250930786133 -1.71331310272217 11.8605098724365 -5.19423675537109 -1.38722991943359 -1.37239360809326 -0.0838460922241211 -8.30539280176163 -3.40682411193848 -0.887948036193848 -8.87296485900879 1.99179267883301 -4.64930438995361 3.78288722038269 9.83420181274414 -2.46854877471924 -0.479439735412598 -8.71467840252444 -6.72810554504395 3.57293581962585 1.72579383850098 -4.31366348266602 -9.30385211389512 8.07580757141113 -6.49120818672236 -2.51094436645508 3.03116989135742 -4.22027492523193 -2.6951732635498 -4.93225193023682 9.34844779968262 1.71622180938721 7.23701477050781 -6.48406944517046 -8.91982269287109 -6.3756810426712 4.1509326423984 -6.7491626739502 6.31182670593262 -5.9671516418457 -8.15444183349609 -5.0469856262207 8.86972427368164 4.32446479797363 -4.03089427947998 4.79226589202881 5.94078779220581 7.35675811767578 -9.79568862915039 7.38529205322266 6.73542737960815 -6.75502105709165 9.84264373779297 -2.09502124786377 6.82112884521484 -0.682216644287109 3.62909507751465 4.0714430809021 -2.80192947387695 -8.34413528442383 -6.11168098449707 3.7363908290863 -7.22486925125122 -6.27101135253906 -41.8806753158569 -5.97984504699707 -8.77975654602051 -5.1646089553833 3.61357188224792 -7.00631904602051 -7.74931907653809 -28.1278018951416 4.43161487579346 5.3824348449707 -2.17694187164307 6.46084022521973 -3.33191013336182 -0.148592948913574 -9.17120361328125 8.38762474060059 -8.10201263427734 -2.86212062835693 7.14033842086792 -6.66639757156372 -2.02134037017822 -5.78161239624023 -0.940999031066895 5.17602920532227 -9.06600952148438 -8.09162139892578 1.8799409866333 -4.92246148455888 -8.53633880615234 6.37605300638825 -6.55343580245972 6.38601064682007 -1.02790260314941 -8.8308162689209 -5.10870933532715 -7.4644660949707 0.333796501159668 -4.73053073883057 2.60751223564148 9.15961074829102 5.12784194946289 5.30895709991455 2.84646440390497 -8.61171913146973 -3.91430759429932 -2.2445764541626 1.95582485198975 -9.19977378845215 3.39515447616577 -8.30963897705078 -3.3798131942749 -9.7597484588623 -1.90112495422363 -8.75223350524902 -3.76768684387207 -5.43554782867432 2.65599703788757 8.56623649597168 8.15566253662109 1.17791557312012 9.76510715484619 8.84634017944336 5.18822193145752 -6.69717115769163 -14.1139252185822 -1.82587051391602 -2.22819709777832 3.93082118034363 7.88321256637573 -0.470510482788086 8.52371978759766 -4.65688133239746 3.41839027404785 -6.37747573852539 4.94308471679688 2.88405394554138 -5.97353458404541 6.98223304748535 -2.85255527496338 -7.90486526489258 -2.78736209869385 -7.16853666305542 5.56342840194702 3.89365911483765 1.84298610687256 -6.07044410705566 9.12069320678711 -8.67413711547852 -0.199194192886353 -6.22195243835449 -8.22706413269043 -1.94981002807617 7.03414916992188 5.85868072509766 -3.00018215179443 -4.25874328613281 0.707611083984375 0.480013847351074 3.52313596010208 -7.6192741394043 3.44544863700867 -8.52802658081055 1.15897083282471 -7.3342399597168 9.39045143127441 -7.52842712402344 -1.34681129455566 9.64664840698242 3.67214393615723 8.5428466796875 -9.38231658935547 -2.75844478607178 -7.56389188766479 0.764602661132813 4.563889503479 3.83685564994812 9.01887130737305 -7.67389106750488 -5.86159896850586 -7.47530937194824 -7.48902130126953 -6.3818507194519 -1.18038082122803 2.22296810150146 1.38383483886719 3.2309798002243 |
5.83325609285384 7.58638381958008 1.1648645401001 1.42120742797852 -8.01383405178785 2.70913499593735 6.40669822692871 -7.17945098876953 2.9952597618103 -2.48155975341797 3.1451530456543 -8.53640556335449 -7.33381462097168 1.71099281311035 -4.12013626098633 -0.359393119812012 -9.60074424743652 -0.704244613647461 -2.05062294006348 -8.64909362792969 -2.43049716949463 -6.40279340744019 -4.01802635192871 1.46133518218994 -1.25406169891357 -5.68666934967041 6.06697082519531 3.28628301620483 -1.66720771789551 -7.31861305236816 1.30224609375 8.38634872436523 3.4368109703064 7.63844505138695 -0.380209922790527 1.3850040435791 -0.311788558959961 1.47189712524414 -2.4482307434082 5.14499855041504 -2.0270528793335 8.68771743774414 -1.67465114593506 -6.5377140045166 0.975760459899902 4.87376689910889 35.1823959350586 2.2021951675415 9.8248405456543 0.460759162902832 -9.48814010620117 4.18760061264038 9.98355865478516 8.05057048797607 -0.937594327144325 5.50348997116089 -3.52633571624756 2.08748435974121 2.85725212097168 -2.87245178222656 -9.7288875579834 4.6679515838623 -4.16430854797363 -4.74061393737793 -7.26826667785645 7.55561590194702 -8.20569038391113 -5.79919815063477 8.69879722595215 -1.77572345733643 0.769046783447266 -6.82345390319824 -6.52824831008911 2.66511678695679 -1.74858474731445 -6.0120792388916 3.05732226371765 -1.71678447723389 3.4289379119873 -0.27361011505127 8.29232215881348 -0.165935516357422 -3.65541362762451 -4.16604423522949 0.972367286682129 1.09330749511719 9.04097557067871 -7.76172828674316 9.59434700012207 -9.29130363464355 5.6377649307251 2.99932241439819 2.51830291748047 2.8558394908905 -4.00937652587891 1.73816299438477 -8.93478202819824 0.531521797180176 5.85014820098877 -3.02094554901123 0.0587882995605469 3.69175148010254 4.94504165649414 8.77582931518555 5.63068580627441 -1.5670154648833 7.12851524353027 -8.20281600952148 3.47285723686218 3.96975493431091 4.32074546813965 -0.367609024047852 3.04537272453308 -1.04808902740479 -3.30647563934326 -6.90120506286621 -9.24524307250977 10.3813545107841 -6.15658760070801 -4.23037433624268 -6.98537063598633 9.84759330749512 -1.44964599609375 -8.71872138977051 -6.65904808044434 4.20158863067627 9.62639808654785 -1.9856653213501 1.66555023193359 -7.0246844291687 -20.2611131668091 9.8346471786499 -8.82846069335938 6.03800964355469 2.39813899993896 -19.9814414386638 9.52241706848145 2.32930755615234 -0.103498458862305 -3.22117710113525 -8.45990943908691 -1.54452896118164 7.83902168273926 -6.76466548442841 4.81131553649902 2.67064070701599 0.480190277099609 2.77731394767761 0.444520950317383 -6.14380311965942 2.82769918441772 4.05730438232422 -2.06520652770996 1.69944667816162 -6.03584480285645 -8.41789245605469 -1.02177715301514 9.39971160888672 0.935930252075195 7.85202741622925 -9.76918029785156 9.45319938659668 -8.64365005493164 -3.81581687927246 2.54148244857788 -3.93247537966818 -2.66008758544922 9.31959915161133 9.69552993774414 3.77230834960938 9.93999481201172 -7.47945785522461 4.61875915527344 -0.292826652526855 1.61327743530273 7.69010305404663 1.16887950897217 6.82780265808105 7.29880332946777 -7.50160217285156 -6.21943998336792 -5.68060111999512 0.632225036621094 -9.66849327087402 -5.19736480712891 3.60804748535156 1.03701686859131 -4.36129361391068 -1.37989902496338 -8.17764526838437 -9.41894721984863 5.3989193290472 -4.10979390144348 5.51010322570801 3.53995299339294 9.21164703369141 -1.93552398681641 -3.49329853057861 -9.96516799926758 -0.640035629272461 -9.36475944519043 3.29734992980957 1.93570709228516 40.0100269317627 4.10783529281616 7.78690528869629 -7.22214698791504 9.71152496337891 5.82060050964355 1.05485343933105 -0.739513397216797 5.99024534225464 2.68686747550964 19.1102867126465 -1.73872852325439 -8.98221778869629 1.74472236633301 -0.793332099914551 -13.3415241241455 -5.69353294372559 -8.30971717834473 -3.31569345493335 -8.11590385437012 7.39002656936646 7.3331618309021 -6.219153881073 6.07681274414063 2.11789703369141 0.126954078674316 -6.53036308288574 8.90533828735352 -2.03769111633301 6.09166145324707 -3.0807409286499 -8.9609375 -9.71056365966797 -3.48673248291016 1.10429668426514 -9.10848617553711 -8.81465148925781 7.46642637252808 6.66582536697388 5.13786315917969 -0.272613525390625 -8.92752647399902 3.29722380638123 -2.36015224456787 -6.98165702819824 -0.102010726928711 -6.62257194519043 -8.92111778259277 -5.13665390014648 0.85865592956543 6.11916732788086 -6.43708229064941 -7.94221448898315 1.85985660552979 4.58695411682129 3.91807317733765 -2.94329738616943 -0.205177307128906 2.72554863989353 -4.791015625 7.66786575317383 9.43601314071566 2.56251788139343 -3.19164180755615 -5.95856189727783 6.97562217712402 1.45557975769043 -9.22932052612305 2.45989418029785 6.8068790435791 -4.52500438690186 -14.983437538147 -8.10187911987305 2.85942053794861 3.41994261741638 -3.1065237885341 5.09703636169434 9.70043317601085 2.56642317771912 -5.33905220031738 -6.24681901931763 -8.74567794799805 5.60286346136127 8.259765625 2.62567281723022 -1.04167556762695 7.60993003845215 -3.49788093566895 6.28973960876465 -7.48150634765625 -0.274277687072754 -9.47151184082031 7.34651136398315 -3.66347217559814 1.33319759368896 8.90217018127441 5.00359058380127 6.95305824279785 -9.05428314208984 6.7592830657959 7.36285924911499 -5.15785217285156 -4.58538150787354 -0.18682861328125 -4.03593158721924 -1.99285125732422 8.89196586608887 9.58926200866699 -5.98173332214355 -8.27645301818848 6.88196897506714 1.72492122650146 8.30515670776367 -6.10269546508789 -6.86390686035156 -2.73682022094727 -3.54697799682617 1.08072853088379 5.33150434494019 0.0754842758178711 -2.89560699462891 -5.42556321620941 -4.47223473724443 3.96002268791199 5.6351203918457 -6.55527877807617 -5.78938674926758 7.10603475570679 -3.87277507781982 1.83871650695801 0.859080791473389 -2.56770515441895 -7.66487550735474 -7.07822608947754 7.1776270866394 1.46384143829346 7.71025419235229 2.92564845085144 2.86137080192566 4.51805591583252 -4.41310977935791 5.47978115081787 9.4415168762207 4.38190937042236 6.25163078308105 3.45860135555267 -0.866299629211426 5.45728206634521 9.18785095214844 52.0583910942078 -8.90980911254883 5.96224975585938 -1.08620262145996 -5.25460243225098 3.84876704216003 -9.02116584777832 -6.26272392272949 -5.98438262939453 -7.53026008605957 4.8956127166748 -5.42312622070313 -9.0651912689209 -7.16304349899292 2.2413911819458 -0.350686073303223 -9.80221939086914 -37.4888138771057 -6.13958787918091 9.62941360473633 -7.79523086547852 7.6688551902771 -6.83945465087891 2.23593807220459 2.02014350891113 9.93774795532227 -2.79886627197266 9.38756942749023 0.579928398132324 -7.9504508972168 6.35589170455933 -0.100029945373535 -4.66551399230957 -0.696734428405762 -6.35412226174958 3.70728945732117 2.29748153686523 -8.27801513671875 -3.18542098999023 -34.8755149841309 -7.37055778503418 -8.38067817687988 -7.05364036560059 -1.29070603847504 1.94794273376465 -49.7028656005859 8.54513549804688 0.335007667541504 3.85515928268433 -8.13018417358398 7.33632612228394 -18.143759727478 -7.58678865432739 5.73985576629639 7.66706657409668 -2.6506175994873 8.98733139038086 -3.54311370849609 29.5475330352783 9.96322822570801 -7.16506195068359 2.10594749450684 6.1142635345459 -5.07590484619141 7.34880638122559 -2.6612606048584 -0.318731307983398 2.51557636260986 |
