8.49147319793701 -9.23479461669922 -7.05073165893555 -3.62863159179688 2.55731344223022 5.81472587585449 -3.67622756958008 0.532025337219238 -9.96814918518066 -6.16236162185669 -8.59484672546387 -4.10669708251953 -2.22124481201172 7.19238042831421 2.67768621444702 -1.30443000793457 -3.32108116149902 3.60421895980835 -7.95416307449341 3.15331649780273 2.84359693527222 -6.75554275512695 9.57717132568359 -7.36053895950317 8.53289604187012 8.05536651611328 1.88047313690186 0.492218971252441 9.36066627502441 7.37932205200195 -8.19585418701172 2.78454279899597 -2.80330753326416 9.63503074645996 -7.86945152282715 -7.30725288391113 -4.21744918823242 -5.96614837646484 -1.80328464508057 8.49714660644531 -7.99897384643555 -4.28341770172119 4.06981945037842 4.66476917266846 0.809975624084473 2.08840751647949 0.268835067749023 -9.78299903869629 3.73695826530457 0.494109153747559 -5.66675662994385 -7.330322265625 4.28682088851929 -7.70900917053223 -7.81336784362793 -3.39198017120361 -7.47947883605957 -0.681942939758301 8.37413597106934 -8.8232593536377 4.02864646911621 -9.92782211303711 -9.19551086425781 -7.36632871627808 -7.3724193572998 -9.13481140136719 -8.10883522033691 9.07620429992676 0.234121322631836 -4.05039405822754 -3.87699031829834 -0.247539520263672 -3.18829441070557 -2.73055934906006 -5.5592041015625 -9.82712554931641 -5.14458179473877 5.17501068115234 -0.583320617675781 5.15096664428711 5.71041584014893 5.22066307067871 -5.63364505767822 0.772920608520508 4.11901473999023 7.00846433639526 2.91002249717712 2.95849561691284 6.59854125976563 9.14468574523926 -3.98044967651367 -3.61843013763428 9.88271236419678 9.04021739959717 -1.61347007751465 -2.51950359344482 9.1260814666748 7.88917112350464 -1.71993827819824 3.66825079917908 3.89353251457214 -6.09585571289063 -4.03720283508301 -8.24933052062988 6.3449878692627 -3.6117467880249 8.37946701049805 -2.7653226852417 -6.41753721237183 -6.22761201858521 -9.65843200683594 -9.38787269592285 8.26240921020508 -9.9964485168457 -7.68468427658081 5.10568618774414 -7.16513633728027 4.53325033187866 -0.308147430419922 -6.16709899902344 -5.67514610290527 7.63097524642944 -4.08935165405273 1.7170295715332 4.23107862472534 -8.09353256225586 5.06680965423584 -5.8143310546875 2.91404700279236 4.12288665771484 0.33699893951416 -8.46965789794922 -8.83745384216309 9.17932033538818 -6.23882722854614 6.57734346389771 2.86381912231445 -1.28689861297607 -2.93558502197266 -4.29602241516113 -7.56086778640747 -1.60362148284912 9.39918899536133 6.51940870285034 -0.0929126739501953 -6.7846851348877 -1.73205757141113 5.28486251831055 -5.84368228912354 2.39486789703369 -6.43701982498169 -9.94762802124023 -6.68848466873169 8.46775245666504 2.20867729187012 8.23598861694336 -7.46835517883301 -0.404478073120117 -1.94634056091309 9.51001930236816 -0.27626895904541 -1.12808132171631 -9.95399856567383 -3.4780445098877 -3.42100238800049 -7.84183073043823 5.27328968048096 5.28344631195068 -3.03773307800293 9.71375942230225 -6.78757858276367 0.785721778869629 8.83207511901855 -7.85448503494263 -7.01935768127441 -4.84377479553223 -2.8277006149292 0.813693046569824 8.6353874206543 0.19614315032959 -6.96072578430176 0.319031715393066 -9.89267539978027 -9.01852416992188 -7.1484260559082 -3.63113021850586 9.17561531066895 6.61664724349976 -6.68960380554199 -0.100403785705566 -4.25282096862793 7.66121101379395 8.57227325439453 -1.00675010681152 -9.86578178405762 -1.10799694061279 7.85565376281738 -1.74511337280273 8.5892391204834 4.95018720626831 0.497101783752441 -1.63450622558594 7.43544769287109 -1.63609886169434 1.97078323364258 -2.29054355621338 2.48540782928467 1.12477397918701 6.85942125320435 -7.06411361694336 -1.07903861999512 -8.08430671691895 2.6767680644989 -2.57937812805176 -7.20805692672729 -9.69766426086426 -0.712484359741211 3.09258913993835 -3.36569690704346 0.503445625305176 4.39761638641357 -6.82348680496216 -8.66672134399414 2.26121044158936 -4.94847679138184 -9.60824203491211 -4.79082489013672 -1.62160491943359 0.236106872558594 -0.964823722839355 -2.54174327850342 4.2546272277832 5.51918029785156 -5.87286949157715 -9.69579696655273 8.90368270874023 3.70000815391541 1.59257793426514 -4.35824489593506 0.314601898193359 -8.79940223693848 -9.7708740234375 -1.71725845336914 3.64264249801636 4.53075408935547 5.31944990158081 -3.71188545227051 -0.860837936401367 8.01022338867188 3.3501124382019 -3.03240871429443 -7.5033802986145 -1.90612411499023 -5.24634838104248 -5.54727077484131 -0.406183242797852 -3.37397003173828 -8.69088745117188 -2.16119384765625 -7.05243110656738 -4.07041645050049 -0.970272064208984 2.39674663543701 -9.21521377563477 7.2580738067627 -4.88754653930664 3.23841071128845 -7.07018852233887 -9.79358291625977 3.03070998191834 3.6268253326416 -9.24924659729004 -3.6623420715332 1.4218578338623 -7.91123914718628 -9.25795745849609 7.97421979904175 1.11101055145264 -8.29075813293457 8.00155448913574 4.17553663253784 8.07815074920654 -3.73037242889404 6.52096223831177 -1.86359310150146 3.23812460899353 9.05014801025391 3.88994407653809 2.16783142089844 6.38656377792358 -5.93025970458984 -4.55153369903564 1.02134323120117 -6.29730224609375 3.21070647239685 -8.24250221252441 8.94656658172607 1.54584789276123 2.97300100326538 8.86541557312012 -3.75913715362549 1.77249813079834 3.36159205436707 -0.942092895507813 -3.97977924346924 8.78146171569824 6.47776079177856 3.30187559127808 0.39218807220459 -8.27472686767578 -1.56875038146973 -1.82447338104248 -8.67653846740723 4.64340400695801 0.666035652160645 -1.87897109985352 -3.80150890350342 -0.0853738784790039 3.15807318687439 7.9425196647644 -3.23950672149658 -3.1480655670166 -0.312828063964844 9.65385246276855 -9.74134826660156 -6.8444676399231 9.87997817993164 7.91833114624023 6.88857269287109 -8.35506057739258 -1.19944190979004 7.00179290771484 -3.60089206695557 3.32171416282654 -1.7110595703125 -9.43288040161133 -6.45987510681152 6.93439674377441 2.02608013153076 -4.12480449676514 -4.00908374786377 9.97766304016113 0.854812622070313 2.07413578033447 9.87430381774902 -9.93092727661133 0.888143539428711 4.54185676574707 7.29461860656738 -5.92302322387695 -2.34153366088867 2.94044947624207 -1.72892665863037 -0.0668392181396484 7.52752304077148 6.20103597640991 -4.28022003173828 7.85235929489136 -7.67607164382935 -8.86346626281738 9.59370803833008 2.05713367462158 8.62506866455078 3.12958216667175 4.07336950302124 2.40367984771729 -2.29325675964355 1.19252586364746 -0.535074234008789 7.05888748168945 -4.36991310119629 -3.54123497009277 -0.343345642089844 -8.3011531829834 8.7596321105957 4.22123908996582 -4.81654071807861 8.22512817382813 3.13931918144226 -3.14043140411377 -6.37120056152344 -2.0896520614624 -7.50531387329102 -1.14611530303955 2.92951774597168 -8.56341171264648 7.45626449584961 0.977791786193848 2.35575580596924 4.07911777496338 -9.74494552612305 -2.702073097229 6.5108847618103 1.09332656860352 2.47150993347168 0.0963315963745117 3.97773504257202 -6.19944763183594 7.23477554321289 -7.61518669128418 3.31297636032104 -9.23420333862305 4.61212348937988 3.11252784729004 9.18996047973633 9.05873489379883 -4.20125865936279 6.23321723937988 9.51988220214844 -8.82184600830078 1.48847961425781 4.79496955871582 -4.49701881408691 -8.32903289794922 8.20981979370117 0.852788925170898 2.26730251312256 -7.24787187576294 -6.08469438552856 -0.278142929077148 -6.01097297668457 -0.584639549255371 5.00570487976074 4.53190326690674 8.80839824676514 -3.80582904815674 -2.76545143127441 7.67574310302734 3.22406005859375 9.0859489440918 9.61613464355469 0.461507797241211 -1.11315822601318 -6.74301338195801 -3.6831579208374 -6.10178184509277 -5.29211044311523 7.53994941711426 8.10725402832031 7.14655113220215 5.27369499206543 1.79289436340332 -4.35632133483887 1.1672534942627 -1.55315017700195 -4.81860256195068 -6.53674125671387 -8.79887580871582 1.07863807678223 -7.85400390625 -1.48958110809326 -3.14877891540527 -1.53512382507324 0.0615110397338867 8.2548713684082 -3.96256065368652 1.56511402130127 -1.07262229919434 5.40178060531616 7.88908958435059 6.3060736656189 -0.746832847595215 5.21589279174805 9.73816680908203 7.07080841064453 3.28283071517944 -9.74249649047852 -4.91843318939209 -2.28777027130127 -8.72428512573242 0.559683799743652 5.78479290008545 3.53447675704956 5.52881240844727 3.10601425170898 3.01683878898621 9.19943046569824 0.289644241333008 -7.75930833816528 9.83280181884766 -6.46106910705566 -9.76359176635742 3.01819777488709 6.2934684753418 -3.64819431304932 7.34516334533691 -5.68393707275391 -8.7138843536377 -1.73709774017334 -8.42242431640625 -4.6135082244873 5.68645238876343 -8.01077842712402 -4.22153091430664 -4.41745376586914 -3.53406810760498 -4.65326881408691 -4.0278902053833 9.36104965209961 7.01764631271362 -0.842718124389648 -1.49011993408203 -3.73631858825684 -2.82708072662354 7.23243713378906 1.18390464782715 -3.70752716064453 -0.914877891540527 3.93333196640015 -3.76980686187744 -7.86606788635254 4.53895568847656 9.59003829956055 7.28289365768433 -6.39098167419434 4.50434446334839 1.45362758636475 8.84370803833008 5.54478406906128 1.28372287750244 0.489359855651855 6.59644651412964 6.85312700271606 -2.96309375762939 -4.568434715271 5.59845685958862 8.6364860534668 -8.04225921630859 -6.48762178421021 7.32516813278198 -3.07650184631348 4.36996650695801 -3.71477031707764 -9.80259323120117 -7.81537246704102 1.48115730285645 -4.38410377502441 -1.5147123336792 2.5373911857605 8.75644683837891 -0.469027519226074 -1.6165771484375 0.109311103820801 3.57855558395386 5.63326835632324 -5.14190483093262 3.31157445907593 -4.6926155090332 3.47046828269959 -3.82251644134521 7.28099060058594 4.70245361328125 3.25084447860718 -8.55775451660156 0.684608459472656 -5.84661293029785 0.956949234008789 -0.44658088684082 2.79289960861206 9.63946151733398 1.46719074249268 -4.02095699310303 -0.825733184814453 -7.93589401245117 -2.37436199188232 3.29966998100281 5.27723789215088 -8.67921447753906 -6.0626392364502 -0.0124969482421875 9.6379508972168 9.85576820373535 -4.77772808074951 -3.93190956115723 1.46793746948242 2.42537593841553 1.39445686340332 4.94009971618652 -1.07964611053467 -7.64277982711792 -8.40611267089844 -1.50473213195801 -8.51043701171875 6.90315961837769 -4.00360488891602 2.55534887313843 6.25372886657715 8.62430095672607 3.98482084274292 3.08171033859253 -1.99704551696777 -6.40286445617676 8.4386157989502 -7.78510856628418 -4.66497993469238 -4.23671817779541 3.14267873764038 -6.34819459915161 -8.84914016723633 -3.51669216156006 -8.21592330932617 0.802992820739746 -5.93147468566895 -5.90426254272461 -6.98260831832886 0.522011756896973 3.04318189620972 5.6817741394043 -9.14268112182617 9.10860443115234 -4.11168479919434 2.08469486236572 2.47940158843994 8.1851692199707 -8.15797805786133 8.81925964355469 -2.24823093414307 5.89735221862793 1.55594444274902 2.06301784515381 2.97331309318542 -5.17467021942139 -2.66559219360352 0.197934150695801 -6.40742826461792 -7.57464408874512 9.74444389343262 -1.21924304962158 9.01292991638184 -0.287242889404297 -5.75882148742676 -6.39195251464844 -6.81145143508911 -1.77514171600342 0.9793701171875 5.01671981811523 -3.47024536132813 2.43636035919189 -1.17286586761475 -2.74700260162354 -3.27955627441406 4.3262882232666 -1.15577125549316 8.97914695739746 -4.30392646789551 -6.00677299499512 -4.31427574157715 -8.33936882019043 6.45025253295898 6.27249479293823 -9.67134857177734 0.253215789794922 4.42273855209351 0.22187328338623 1.18509197235107 8.16591453552246 -8.89688301086426 9.82284927368164 -7.49873352050781 5.45249462127686 0.90105152130127 -4.21778774261475 -3.82459259033203 5.7605242729187 6.7396502494812 4.38529491424561 4.58367824554443 2.62652850151062 -4.29887866973877 3.71841883659363 -7.76114463806152 9.18657493591309 2.24087619781494 -0.907534599304199 -1.89115428924561 2.38607978820801 -1.33825206756592 6.60015296936035 7.82918930053711 -3.44260787963867 -6.39704704284668 6.12345886230469 9.79496955871582 -0.894647598266602 -9.98901748657227 0.272687911987305 5.29377460479736 0.560878753662109 5.4685640335083 3.41577982902527 5.35941314697266 7.53854942321777 -2.99673175811768 5.14494132995605 9.80950355529785 -6.22067451477051 7.25312757492065 -1.67424583435059 2.38889598846436 -1.78103065490723 -5.54927349090576 9.54194259643555 -9.14697265625 -0.680328369140625 4.95546340942383 -2.66231918334961 -0.481215476989746 -4.13972949981689 7.88951110839844 3.51043200492859 -3.75850582122803 4.27855968475342 -9.1490478515625 -2.64307403564453 0.447593688964844 9.15454387664795 -2.50767612457275 9.02717113494873 -2.49340438842773 -1.91578769683838 -4.60513496398926 -3.28532600402832 -4.61588764190674 0.693222045898438 0.297121047973633 -1.89023590087891 -9.42369270324707 -7.8368968963623 7.92629957199097 8.05964946746826 0.218366622924805 9.3489408493042 4.81299877166748 -7.81829833984375 0.434566497802734 -7.22842979431152 -7.86316871643066 -9.30546760559082 -7.39303159713745 -6.41307401657104 0.43287181854248 -8.54533004760742 6.87633275985718 -7.28519010543823 -3.6172924041748 -6.66542816162109 -9.48531150817871 -4.70440292358398 -7.4016170501709 2.44882202148438 -0.450459480285645 1.97066688537598 9.87578392028809 7.97567796707153 -0.32847785949707 8.54636192321777 9.84666347503662 0.0604047775268555 -2.79647922515869 -7.57458686828613 -8.13883972167969 6.94742393493652 -2.8908166885376 9.24348068237305 -1.94984817504883 7.49390077590942 -8.08730316162109 0.869354248046875 6.08928203582764 5.90506076812744 8.52853012084961 9.31403350830078 -1.93341827392578 -2.8005895614624 -1.71947383880615 1.25412368774414 -1.82804489135742 -8.60391807556152 3.56937384605408 -1.76716423034668 3.16688299179077 9.83159065246582 4.65588760375977 3.53847002983093 -3.67787742614746 -1.71207523345947 -4.006103515625 -6.57229232788086 -0.892266273498535 -8.94122886657715 -3.59841251373291 9.19890594482422 5.548255443573 -5.93973636627197 -4.91892242431641 4.24447774887085 6.5271258354187 1.78137397766113 -8.00245666503906 5.04668426513672 -8.18619918823242 -8.31268119812012 0.380538940429688 0.205780029296875 9.27078628540039 -7.83013343811035 6.77907180786133 5.83948612213135 2.23590469360352 -7.99179267883301 2.17574977874756 3.89392828941345 0.92762565612793 7.89707374572754 -9.11059951782227 9.8782958984375 9.05230712890625 -1.89995193481445 -1.58001804351807 -3.09561634063721 -8.95464706420898 -6.09013748168945 -5.99441528320313 8.67302131652832 1.57967662811279 -3.20912265777588 3.95514678955078 7.30316591262817 3.86200881004334 -9.42072677612305 8.63902854919434 -3.59484767913818 -0.509267807006836 9.77357387542725 -0.686851501464844 -4.82289218902588 5.03438949584961 -5.14256477355957 3.0827043056488 3.6500186920166 3.89441251754761 1.42661190032959 -1.63714504241943 6.6311240196228 7.49191999435425 -3.92244911193848 -3.21977519989014 0.250903129577637 -2.73034191131592 8.7126579284668 3.19710922241211 -1.74848937988281 -1.08405494689941 2.68736338615417 -7.88683366775513 -9.03863716125488 9.4377613067627 2.31779193878174 4.12008047103882 3.13208770751953 0.115729331970215 -5.89592456817627 -9.74814987182617 8.81329345703125 4.76576805114746 -9.05663299560547 7.10625839233398 -5.96554946899414 1.69554805755615 -3.2814826965332 7.20177412033081 -7.87874031066895 8.5384635925293 8.34591674804688 -3.09311294555664 0.0629768371582031 0.126262664794922 6.8890643119812 -2.22234153747559 -9.88601303100586 -4.02762031555176 -7.16584396362305 1.59550285339355 -9.79208946228027 3.61810660362244 -3.85793113708496 -0.855146408081055 -0.0294933319091797 9.48606014251709 8.03472709655762 -4.04422187805176 -1.25908946990967 -8.79123306274414 3.76720881462097 -2.75504493713379 7.94529676437378 -6.78942489624023 -5.19766616821289 9.87704753875732 8.80695152282715 -9.29231834411621 -7.34939384460449 -9.54805564880371 1.76224613189697 0.0489177703857422 -5.92181015014648 -7.65950727462769 4.4996280670166 2.87689661979675 5.71935844421387 2.01336765289307 -2.40932083129883 3.35209083557129 1.34696865081787 -8.10014724731445 -3.80480861663818 -0.982541084289551 -2.74284934997559 8.56136322021484 -7.04499435424805 8.11679077148438 -1.90497779846191 -1.12636947631836 -6.22031211853027 6.14803075790405 0.671714782714844 -0.385736465454102 1.80036163330078 5.55667638778687 -1.84026622772217 5.91790199279785 8.13200950622559 -3.7490930557251 -2.79972457885742 5.4451961517334 5.34163475036621 -2.20535850524902 -7.95980882644653 -4.73056411743164 -6.90998506546021 8.18980407714844 -5.44495391845703 -9.00037574768066 7.40449666976929 9.26943588256836 -0.752750396728516 2.91966891288757 6.17415904998779 2.87570929527283 -4.44250679016113 -0.135563850402832 -6.14291715621948 2.86744832992554 7.32160568237305 -5.31694412231445 4.48143482208252 -7.61180686950684 -5.38272094726563 -0.15825366973877 0.455819129943848 -6.41228151321411 1.02454280853271 3.60492897033691 -0.786992073059082 3.79138922691345 -8.81656455993652 6.45833206176758 4.15075302124023 7.65617370605469 -5.09152221679688 9.8122615814209 -4.72759342193604 -7.24413871765137 5.61359167098999 7.01683473587036 3.73745679855347 -8.5181999206543 9.0614652633667 0.888491630554199 6.68255567550659 -0.527201652526855 1.75151920318604 9.70078945159912 5.71795463562012 -0.262595176696777 9.84556007385254 -2.98109436035156 -8.65604591369629 -8.14177703857422 9.56802749633789 -7.87837028503418 6.51557159423828 2.10268402099609 7.78954267501831 8.7909984588623 -2.50637912750244 0.271936416625977 -2.6828441619873 6.66423797607422 3.62120819091797 -0.396064758300781 0.276888847351074 6.4608998298645 9.48609352111816 1.55508613586426 -9.7048225402832 -1.90276718139648 5.4243803024292 -2.06577396392822 2.01035404205322 -7.70948839187622 -4.19207954406738 4.30172443389893 -5.40734481811523 1.19884872436523 -9.5473690032959 3.98650884628296 -8.03915786743164 -9.59364318847656 -6.9675178527832 -8.31244659423828 9.47209548950195 8.73501777648926 2.57980799674988 4.47321891784668 -6.86711311340332 -8.71992874145508 2.88675498962402 -6.59326982498169 8.09975624084473 3.32757711410522 -4.84380149841309 -7.11619901657104 -0.784849166870117 2.1880521774292 -3.61081027984619 9.17459678649902 4.44874000549316 -9.99034118652344 -7.0268726348877 -0.761474609375 -1.74274826049805 -3.49019145965576 5.52780866622925 -6.66954231262207 0.00514125823974609 -8.66681861877441 8.68964672088623 -9.50713348388672 6.83807563781738 -4.64144802093506 4.48431205749512 0.418454170227051 -1.15977191925049 -9.5099925994873 -7.02737808227539 -1.20309734344482 1.21154689788818 -6.82295274734497 -4.0277156829834 -1.73646354675293 -5.38331031799316 -7.44374465942383 0.453804969787598 -8.60674858093262 -9.80292129516602 6.05437755584717 -3.63988304138184 9.48236274719238 5.82893848419189 4.7708911895752 -1.95357704162598 9.98507308959961 5.72793483734131 -8.71630096435547 -0.154195785522461 -3.4503927230835 -8.62489891052246 -3.29257869720459 4.25202560424805 -7.00358915328979 0.576029777526855 -0.0602951049804688 -1.25128650665283 4.94913816452026 1.2655200958252 6.38715934753418 5.46481132507324 3.94140005111694 2.00067138671875 1.02832889556885 -7.88836288452148 -4.59271335601807 -9.64423179626465 3.23362326622009 2.43126964569092 9.70256328582764 -8.78515434265137 -7.34352540969849 -0.933302879333496 4.34798717498779 -1.39833354949951 -8.83695793151855 7.25637197494507 -6.23323011398315 0.94206428527832 5.52020072937012 -8.52022552490234 1.86809921264648 1.53946495056152 7.98624992370605 -7.25899696350098 0.406352043151855 -8.30191802978516 5.31298398971558 6.21015548706055 -8.03691673278809 -9.7297248840332 -3.19828128814697 -6.16013526916504 -8.5930233001709 4.84100341796875 3.28602766990662 7.96009492874146 1.24569034576416 1.39202976226807 6.42307710647583 0.947312355041504 -8.6835765838623 -1.07631301879883 8.30109596252441 5.22163867950439 5.130774974823 5.7994384765625 3.25068664550781 4.37935829162598 4.37758445739746 8.04647254943848 -4.55059432983398 4.22756671905518 6.27447843551636 7.63723802566528 -3.84979629516602 -3.13470268249512 7.60187864303589 -4.62867164611816 -8.65946960449219 -8.0283374786377 2.14570426940918 3.89563059806824 9.96722030639648 -9.49139785766602 -5.10728359222412 -4.94613265991211 -3.36963081359863 5.37789106369019 2.56466841697693 8.39973449707031 -6.33801651000977 -5.60018730163574 -7.61256980895996 -8.04198837280273 -3.86072063446045 3.52973175048828 4.21535491943359 2.69052958488464 8.9642505645752 6.69137525558472 0.362630844116211 6.58974838256836 1.84266948699951 9.04180526733398 -7.68882942199707 4.80976581573486 -0.438095092773438 -6.59555435180664 7.92103004455566 -8.05978775024414 -2.86663627624512 -5.31280994415283 -8.02426528930664 -2.52971744537354 0.314215660095215 -1.34650802612305 6.11341238021851 -4.24532508850098 7.88006782531738 7.53601789474487 4.12036418914795 -6.2114143371582 7.08750200271606 -5.03720760345459 8.57343196868896 -9.31668472290039 0.435909271240234 0.211466789245605 1.74555683135986 -0.350929260253906 4.70022916793823 -4.21942806243896 -9.5905876159668 -0.603180885314941 -4.82471084594727 -3.63889789581299 -8.88949584960938 -9.4549560546875 7.91626405715942 3.2232711315155 -7.42875099182129 5.92499923706055 9.74715423583984 -6.63468360900879 -3.4839973449707 -3.1470193862915 -9.04006195068359 6.25233125686646 -9.83451652526855 -9.4069652557373 5.74362277984619 -7.08806991577148 9.4239330291748 3.25340723991394 -3.16413974761963 -6.83099937438965 -2.08331680297852 -5.51030349731445 2.84711813926697 3.83723711967468 -7.85029935836792 5.92604827880859 -1.50375270843506 3.54223966598511 -5.47857475280762 -2.81306648254395 9.41242408752441 4.19336795806885 -7.42365646362305 4.03144359588623 -1.18218326568604 -0.45899486541748 3.38419890403748 -4.10885238647461 4.84081029891968 5.1525092124939 3.98547887802124 -1.81795024871826 -0.809487342834473 -7.28074264526367 -4.79438400268555 -5.1373119354248 -1.85989761352539 3.84619688987732 4.43916082382202 -8.40377426147461 -7.77938413619995 7.38367795944214 -3.24174976348877 1.28997898101807 7.85635709762573 2.30363941192627 1.40619659423828 7.40773916244507 -6.45686912536621 -4.84893226623535 -8.83869361877441 5.23732900619507 -3.15583801269531 -0.750659942626953 6.53512954711914 8.45787048339844 -8.68245697021484 -6.54655456542969 5.71901798248291 -0.436886787414551 -3.44196224212646 0.180455207824707 2.00606441497803 -9.78583908081055 8.08654308319092 8.8685131072998 -4.90579223632813 1.66089630126953 -3.68301963806152 8.76746940612793 2.60325884819031 -9.30299949645996 3.47276878356934 6.22518539428711 1.9561014175415 5.77138137817383 9.07413291931152 -9.5040168762207 -4.24145317077637 -2.09963417053223 -2.95915222167969 4.09815311431885 1.79113960266113 4.2264723777771 3.5941047668457 -3.12789344787598 1.35501003265381 -1.77522563934326 -6.05103302001953 -9.25468444824219 0.960711479187012 -4.69687557220459 2.32925510406494 -0.922709465026855 6.39862775802612 -5.27774047851563 5.19607543945313 -6.34163093566895 4.67535972595215 4.77551651000977 5.76144933700562 2.97099089622498 6.64259386062622 7.63982772827148 -2.8493127822876 8.48601818084717 3.81627798080444 1.86153507232666 -5.54952144622803 -0.114239692687988 -9.74304580688477 2.62283515930176 -5.13104438781738 -0.0297727584838867 3.38009595870972 4.60420370101929 6.78482055664063 7.53830671310425 6.38029289245605 -5.00270080566406 2.56827545166016 -6.83258819580078 -7.40656661987305 -0.755003929138184 0.71633243560791 1.41764736175537 0.454154968261719 1.11923789978027 5.7573413848877 -2.98189544677734 -1.5339412689209 7.43393135070801 1.40058898925781 6.14554405212402 -0.952633857727051 1.8041410446167 -8.22842025756836 4.15199279785156 -4.71759700775146 4.76430892944336 -2.18924617767334 -2.21037006378174 -8.38197708129883 0.581427574157715 2.19548606872559 -2.3384895324707 0.916971206665039 4.54412221908569 4.46398496627808 6.8842716217041 -7.26230430603027 8.72541427612305 -5.42681503295898 7.77900457382202 -6.80279922485352 -4.87287902832031 -8.35442543029785 -0.533147811889648 6.17292594909668 5.5975866317749 2.49369239807129 -6.08602714538574 -7.62422132492065 -8.02203750610352 -7.19964218139648 9.48779582977295 -7.96986770629883 9.61565017700195 -4.70851802825928 2.06103897094727 -1.18725395202637 -3.06169414520264 -6.5645809173584 -5.72113990783691 7.88054466247559 -5.03395843505859 -3.36720848083496 3.74021291732788 -9.25188255310059 -7.07577514648438 -9.5034008026123 -7.44812202453613 -4.77188968658447 -8.27698516845703 1.84326076507568 7.93205976486206 -9.78988265991211 -7.25149583816528 -9.73140907287598 -2.80374145507813 1.87832260131836 7.35290288925171 -4.9937162399292 2.11206340789795 -3.37153053283691 -4.82877826690674 -1.4499340057373 5.06284713745117 -2.89826011657715 -8.87849807739258 5.78770399093628 -3.27937984466553 6.74645614624023 6.89558982849121 -2.4056396484375 -8.80395126342773 |
8.23724269866943 -1.69140243530273 8.92419052124023 3.72797203063965 5.39997100830078 5.55654287338257 6.58555221557617 -5.82974243164063 -2.76000595092773 0.844903945922852 -4.73879718780518 5.5443263053894 -3.33589935302734 3.28981161117554 3.43014907836914 4.39579200744629 6.27696228027344 5.81294775009155 9.71417236328125 -6.04562759399414 -1.48125553131104 -3.33568477630615 6.05006217956543 8.48783302307129 2.37161254882813 8.05118370056152 9.02762603759766 1.84627628326416 2.88331484794617 6.14548110961914 -3.17455196380615 -4.50076484680176 5.48139762878418 1.18434524536133 -5.63083839416504 -1.48744487762451 0.386594772338867 3.42666816711426 7.00282287597656 7.66713333129883 -6.43705177307129 -7.49171781539917 -7.69116926193237 -5.84348487854004 4.37183856964111 -8.27914810180664 -7.40228652954102 -2.46973419189453 6.22693252563477 -8.9315071105957 -6.05987358093262 0.640874862670898 8.57113838195801 -1.04342842102051 -7.28802680969238 -9.95639610290527 -1.52937030792236 -8.37980651855469 -5.90070915222168 8.72142314910889 -9.72138214111328 8.87070465087891 4.94398593902588 1.15593338012695 -4.74783992767334 -5.54674339294434 7.11976766586304 -3.42407131195068 4.74415969848633 9.4489860534668 -4.80798625946045 -7.47647094726563 -5.40538787841797 -2.02094459533691 -7.6372127532959 0.310336112976074 3.63074493408203 -0.306387901306152 -0.564905166625977 8.60049724578857 -2.66714954376221 -0.299626350402832 -8.67654800415039 -8.09577941894531 4.62935638427734 -0.612539291381836 -3.14023399353027 -8.09454154968262 -9.66206359863281 -2.19180011749268 6.92606163024902 1.7672643661499 -8.94333267211914 0.0777950286865234 -4.68188858032227 -5.39035606384277 5.57317924499512 -0.578037261962891 -2.01079940795898 -0.900474548339844 -9.00060272216797 0.294857978820801 9.59930419921875 9.74493789672852 6.61590147018433 -3.40126895904541 2.85127401351929 6.20479583740234 -6.83187913894653 4.52447128295898 8.24928665161133 -2.84146690368652 -4.90514659881592 -8.3215446472168 -1.677170753479 3.11295700073242 -4.72394371032715 2.08818340301514 -1.18390464782715 -7.02792692184448 -7.18427467346191 4.1899847984314 -4.03509998321533 8.99383735656738 -3.06092166900635 -1.77989864349365 7.61805009841919 6.68735504150391 4.48971271514893 6.37059926986694 6.58389282226563 2.89210772514343 -8.56494522094727 6.33321762084961 2.68257856369019 -3.73296642303467 5.91318130493164 4.10746574401855 0.227008819580078 3.24490308761597 0.239163398742676 -7.80262756347656 0.444084167480469 6.39450073242188 2.77804136276245 -0.520204544067383 3.14782118797302 0.493902206420898 -0.660649299621582 1.03217697143555 8.64189147949219 -7.29785490036011 -1.22917747497559 7.2384090423584 6.15786552429199 9.36949157714844 7.82392263412476 4.68167495727539 6.47564649581909 -7.80643653869629 -3.00594902038574 -4.53339195251465 -6.03367614746094 -6.27790641784668 -0.0264253616333008 7.97549772262573 8.67188453674316 0.999201774597168 -1.86036968231201 -5.57695579528809 0.342045783996582 -0.219808578491211 4.51035261154175 -5.42381477355957 -2.7499303817749 -3.27551937103271 6.24427556991577 6.89059257507324 1.15790462493896 -1.16569137573242 7.16680955886841 2.21598052978516 -3.63696479797363 1.29803562164307 7.55413770675659 7.83009719848633 8.71721076965332 -4.9687328338623 -5.88801574707031 -3.36437320709229 5.18692493438721 5.6148624420166 -6.53068113327026 0.021723747253418 0.848893165588379 -9.04561996459961 -4.52565765380859 -5.10870456695557 -7.4078197479248 -1.39667129516602 -5.75983047485352 -2.62598133087158 -9.81339263916016 -7.82483100891113 7.43450593948364 1.52161979675293 -1.40903568267822 -1.52444458007813 4.68743801116943 6.52849626541138 -6.22608375549316 -6.63599967956543 -9.76958465576172 -3.61347770690918 -6.21311378479004 -9.33759689331055 7.12440061569214 3.03176379203796 3.32568144798279 -6.98943328857422 9.23281669616699 1.94393539428711 2.33079051971436 7.58473920822144 -1.08613872528076 -5.28030204772949 7.48103141784668 4.21815633773804 3.42822790145874 7.09472417831421 5.33475875854492 -5.4940299987793 -0.233498573303223 4.04210805892944 -2.48088455200195 -5.73205184936523 2.19072723388672 -8.00537300109863 2.42591762542725 -9.90722274780273 9.78668594360352 -7.72789764404297 -9.13831329345703 -5.33575248718262 0.703412055969238 2.36772632598877 -2.82547092437744 -5.57404708862305 0.197123527526855 -4.64529132843018 -4.50643157958984 -1.91632652282715 -9.90560913085938 5.14323234558105 -5.08344459533691 0.67564868927002 6.20405387878418 1.9068775177002 -7.16182279586792 6.46989583969116 6.60198402404785 -9.2484188079834 2.20808887481689 -5.02576065063477 2.88242316246033 8.82715606689453 -2.21499538421631 9.90796279907227 -8.48764228820801 -1.3190450668335 5.53377342224121 -2.87842178344727 -1.78176784515381 2.31502437591553 -6.43778991699219 0.625714302062988 5.06568145751953 -6.32759094238281 7.92786359786987 3.85172343254089 8.51719665527344 8.2932186126709 0.73680305480957 -1.69794654846191 -3.69662189483643 -2.18801879882813 -5.89247512817383 9.05795860290527 -1.16571998596191 -5.15522956848145 -2.55513095855713 -2.95072460174561 -4.4058666229248 -9.27207183837891 2.88054919242859 7.09565687179565 1.80765056610107 6.71423673629761 0.206476211547852 5.64877033233643 9.9005241394043 6.21398687362671 4.62661266326904 1.39026260375977 -5.15394020080566 7.09196090698242 3.85319900512695 4.19514656066895 0.00750923156738281 -8.01933670043945 -9.81467056274414 9.2813892364502 9.78866958618164 5.39866209030151 -6.34268951416016 6.30825233459473 -9.88546752929688 -3.37648773193359 9.34518814086914 -3.890456199646 1.61883926391602 -1.13287544250488 8.64701747894287 9.31790828704834 7.05951690673828 0.762728691101074 3.3311915397644 5.42629432678223 -3.68087196350098 -6.73237276077271 6.78075981140137 -5.15840530395508 9.32952880859375 8.18821144104004 -0.382298469543457 -4.02030849456787 9.58801651000977 -6.42204713821411 -4.36824226379395 7.79126358032227 7.04737138748169 -0.588198661804199 0.441328048706055 -3.08668994903564 -8.15140533447266 -2.04352283477783 9.21578598022461 -2.00914764404297 -3.71149444580078 4.6912670135498 -1.81474590301514 -2.04995250701904 -5.74645233154297 -3.9059009552002 2.43231678009033 -5.22718620300293 -6.96323204040527 4.41480398178101 9.12092399597168 -0.908078193664551 5.57820081710815 -7.10121583938599 5.01662445068359 -2.87085628509521 4.90486335754395 -9.76665687561035 9.94571685791016 -7.86942481994629 -2.08980941772461 3.48970174789429 -1.27965068817139 0.783358573913574 -4.22236061096191 -0.319734573364258 -1.21923065185547 3.01467657089233 2.25541210174561 -7.40195465087891 -5.24966049194336 4.88557052612305 -4.89928340911865 1.56981372833252 2.41263961791992 4.1251392364502 -8.62834548950195 7.11817932128906 3.01161003112793 -7.91991424560547 0.271454811096191 9.2738676071167 -0.588122367858887 3.42716407775879 -7.50072288513184 -3.61287975311279 6.23010158538818 7.5071759223938 -5.22098731994629 -7.17070770263672 1.07865428924561 -4.24508666992188 |
-0.850161552429199 -5.19491195678711 6.23310089111328 -0.406909942626953 9.20705604553223 -3.05445098876953 6.28393173217773 7.8617901802063 4.06986951828003 -3.76610851287842 -5.36258697509766 4.00378704071045 -4.11010837554932 1.57663917541504 5.05133152008057 -7.73202896118164 1.70820331573486 2.24230670928955 8.0521411895752 -4.79895973205566 -7.21502494812012 1.91946125030518 -1.80256271362305 0.75928783416748 3.00466299057007 8.92603874206543 3.62009978294373 0.612064361572266 3.8931987285614 2.02408409118652 7.98344802856445 0.244392395019531 -3.03884124755859 7.11452054977417 -0.072108268737793 -2.64325523376465 -2.24989795684814 5.58614921569824 -5.01447486877441 0.176664352416992 1.7122278213501 -2.32862854003906 -5.86262226104736 -8.27134895324707 -5.84031581878662 3.94825172424316 -7.64406204223633 1.9144811630249 -5.64188957214355 9.11214065551758 4.93146896362305 7.64975738525391 -4.04303169250488 -3.4350118637085 7.43423891067505 2.39388084411621 -1.8489875793457 -9.97180938720703 -1.17551231384277 7.49827146530151 9.90056228637695 5.08232831954956 2.71330332756042 -0.632086753845215 -1.62988090515137 6.85352325439453 -7.57921028137207 7.58568000793457 0.702215194702148 -0.021728515625 1.87605285644531 1.57881641387939 0.899681091308594 -7.90818214416504 1.86060523986816 8.46118450164795 0.0773801803588867 6.07576370239258 7.47070074081421 5.44733047485352 1.36252784729004 -4.98554611206055 5.42758178710938 -7.44921684265137 -4.60362339019775 3.81162405014038 9.79803848266602 -1.35714149475098 -2.45647048950195 -7.27172422409058 -7.52634048461914 9.46347236633301 6.21407985687256 -9.99990081787109 2.91458582878113 -7.60652732849121 -2.98600769042969 -1.13376235961914 -3.20827579498291 -5.45203399658203 7.26979780197144 2.6397533416748 3.73883700370789 -9.97373580932617 -6.35004997253418 -3.58898735046387 7.95475006103516 5.74670314788818 -3.47147369384766 -0.124839782714844 -0.842684745788574 -4.1018238067627 4.4732666015625 4.39031362533569 -8.32486915588379 4.41551923751831 2.94706797599792 -2.12472057342529 -8.16336822509766 -8.22546768188477 3.18397283554077 2.46682739257813 6.33969068527222 3.53877782821655 9.99766826629639 0.938478469848633 -5.32351303100586 4.89550352096558 1.46243953704834 9.88535690307617 -8.3597526550293 4.08121824264526 5.39714336395264 5.20239067077637 5.59886693954468 -6.68334770202637 -2.65950298309326 4.49755430221558 -0.198446273803711 -0.426334381103516 2.89804434776306 -9.60161209106445 -5.67523956298828 -4.12361240386963 3.14266180992126 -0.742210388183594 9.59811210632324 7.48706817626953 9.25758171081543 6.47632598876953 -2.99161052703857 -0.483616828918457 -6.92587661743164 -9.86380386352539 7.06969261169434 2.71599531173706 1.33609390258789 -3.58340644836426 2.81054949760437 -2.06103420257568 -7.64095115661621 -3.71149635314941 -2.01839828491211 7.59135246276855 1.93295097351074 3.6107611656189 7.96781730651855 -9.15888023376465 -8.58490943908691 -4.00146579742432 -7.37805891036987 -4.28374671936035 -3.18808650970459 -0.821634292602539 -0.308512687683105 -5.06050300598145 3.34016990661621 -9.27267837524414 -9.30832862854004 2.87571144104004 |
