-3.6720142364502 -9.60983085632324 -7.86901044845581 3.60923957824707 -9.2923755645752 -1.54816055297852 2.48330688476563 3.5122344493866 8.23264312744141 -0.65285587310791 -1.95495986938477 -5.45414924621582 1.58692455291748 9.24721908569336 -7.34859895706177 3.31340980529785 -4.96860122680664 0.269757270812988 -5.0154857635498 -3.63971328735352 -9.42712593078613 9.815673828125 4.30124473571777 -4.34213256835938 1.41418838500977 -5.88887977600098 9.90502166748047 9.54932975769043 -8.80477523803711 -9.40289688110352 -7.12731885910034 3.36890411376953 -1.2452564239502 -2.32626819610596 7.3701434135437 8.66543960571289 8.16530227661133 8.31338691711426 -0.103908538818359 6.99669075012207 -5.73003959655762 -9.04308128356934 8.4096794128418 3.10525131225586 -8.48425674438477 -8.62994003295898 6.82124137878418 -9.70601654052734 4.1356372833252 1.97305297851563 -0.384224891662598 -9.65692710876465 0.0355443954467773 -4.53806495666504 1.78855991363525 -7.35800933837891 9.72175788879395 -1.10099411010742 6.53500556945801 -4.93508720397949 -8.29887199401855 7.90663480758667 7.14751005172729 -2.59139919281006 2.12419605255127 -0.318702697753906 6.34480237960815 8.84491729736328 9.49606704711914 -1.78962326049805 -0.359550476074219 2.43824100494385 9.81411743164063 8.07924461364746 2.10682487487793 -8.76688385009766 -4.34060001373291 3.127601146698 -7.73683977127075 5.783851146698 8.30913066864014 4.896399974823 1.38565921783447 4.45799827575684 5.05531311035156 -4.00051021575928 2.046142578125 -7.7736759185791 3.78355002403259 -3.39199447631836 3.49655866622925 7.4705810546875 -5.99266242980957 -6.56665992736816 -4.23841381072998 2.87832450866699 -3.42432117462158 -3.15976238250732 0.629154205322266 -2.5466480255127 0.0137195587158203 6.41174745559692 6.56804084777832 -7.17580795288086 -0.279918670654297 -2.1793327331543 3.23445081710815 -7.34496116638184 8.18027019500732 -7.40962982177734 -7.12149620056152 3.10439085960388 -8.9426212310791 3.82216215133667 -5.27172565460205 -4.07484149932861 0.749591827392578 7.81563520431519 -4.73470783233643 0.798760414123535 -2.12361717224121 2.91575622558594 -5.68371772766113 9.40705490112305 -4.0792121887207 -2.94179821014404 7.37192583084106 6.7080020904541 3.50377058982849 7.94684171676636 -1.99612522125244 -9.01357650756836 0.247746467590332 6.81084108352661 9.48867607116699 -6.84933137893677 4.77285146713257 2.3191967010498 9.72129821777344 -8.09733581542969 1.72132587432861 -2.1865930557251 5.87020397186279 -1.50672817230225 -6.34152221679688 -4.34301948547363 6.43681287765503 -8.42333984375 -9.71620178222656 4.18019485473633 -2.17058086395264 -8.88308334350586 -6.6887092590332 3.99240946769714 7.69284963607788 -2.33102893829346 0.233382225036621 6.25086975097656 4.63744163513184 -1.15475559234619 -6.5350227355957 -0.903059005737305 7.72549629211426 -8.15171813964844 -0.0520029067993164 -4.43400955200195 -5.1386833190918 -9.34924697875977 -1.63588619232178 -2.44360828399658 -1.26494979858398 8.20905876159668 -0.616079330444336 4.713454246521 -3.85507678985596 5.26383876800537 2.66767001152039 -9.43741035461426 4.3475456237793 -7.22876358032227 -9.72412300109863 3.65670919418335 -2.51965427398682 -5.6015796661377 -6.86226081848145 0.258931159973145 3.40127921104431 5.03813743591309 -5.16028594970703 0.718718528747559 -8.65346908569336 -6.88975524902344 8.26058578491211 1.12573719024658 3.92567133903503 0.135387420654297 9.09192276000977 -9.11994934082031 -2.57629013061523 8.59102249145508 -7.09119367599487 5.03455877304077 8.04996490478516 0.308691024780273 -6.03616285324097 8.22271537780762 4.85215187072754 -3.12571430206299 4.06330823898315 -7.17031908035278 -2.07613563537598 -4.58412551879883 -3.3608283996582 9.6463565826416 1.91003227233887 3.90929412841797 9.4218921661377 -5.57250785827637 4.73633289337158 -2.30295753479004 8.05062294006348 9.8373556137085 3.18730545043945 7.21708059310913 9.91463088989258 -1.81037521362305 6.45172834396362 7.84297704696655 -9.52394104003906 -6.466796875 -6.64340972900391 9.3361930847168 -7.05897521972656 -6.58821296691895 -7.90172386169434 0.782732009887695 -7.7539176940918 -1.27811527252197 0.829721450805664 7.73064374923706 8.28695297241211 8.5256404876709 8.54375076293945 -1.64961242675781 -4.77004623413086 3.80823850631714 7.15144348144531 -9.65881156921387 -0.288525581359863 -9.52170944213867 1.40059852600098 -5.58783340454102 -7.93634223937988 -7.22373533248901 2.61433792114258 -5.10774612426758 -7.0149040222168 -8.21114730834961 -5.86032390594482 -2.79597854614258 7.57812929153442 -5.98600196838379 -6.36813926696777 8.33890724182129 9.71799659729004 -4.17175388336182 -6.86608505249023 0.0757369995117188 0.554347991943359 7.24882841110229 -0.272298812866211 4.94684219360352 2.79997324943542 -2.49333763122559 -5.38189125061035 3.53045654296875 2.68862700462341 -6.1541600227356 -3.66894817352295 6.32075834274292 8.35361862182617 -9.58575439453125 3.27744460105896 -3.66010570526123 7.29199934005737 6.19465589523315 -3.5459623336792 -3.79554176330566 -5.85176658630371 -3.21753406524658 -2.54464244842529 -1.32381820678711 -1.05416202545166 3.35235786437988 -2.32923412322998 -6.49147033691406 -9.92837715148926 -0.393194198608398 -4.96969795227051 -6.72847318649292 -3.91146755218506 9.02103805541992 -7.48247909545898 6.23310804367065 -7.33965682983398 -4.19554328918457 8.28073501586914 1.45670032501221 1.45205879211426 8.16843223571777 9.23820877075195 -2.44921779632568 -7.1279239654541 -3.09732818603516 -4.42981147766113 2.00998687744141 -1.51181602478027 -6.70566558837891 -6.69894981384277 -5.07596969604492 -2.70010566711426 7.59190320968628 -6.68880033493042 -5.00580787658691 7.36320066452026 -4.16464900970459 6.31844520568848 1.77025699615479 2.06884288787842 5.93767881393433 9.62240982055664 7.76092100143433 -7.49391984939575 -3.95295715332031 -7.94577407836914 4.81925487518311 -1.61747360229492 4.28775310516357 -8.69863319396973 9.53929424285889 -5.3379487991333 -7.32948732376099 -7.86949586868286 -6.98883056640625 1.60857582092285 -2.72580528259277 -3.70734119415283 8.39657783508301 -1.24899768829346 3.05992317199707 1.32159328460693 1.84735679626465 4.73949193954468 7.3826789855957 -8.78497123718262 4.98843383789063 -4.57963085174561 9.24349021911621 2.01881980895996 -0.962835311889648 -0.533031463623047 -4.16374588012695 -3.55479145050049 3.37380862236023 -4.62280178070068 0.268877983093262 9.75533485412598 7.05738496780396 -4.10205459594727 -7.08926010131836 -2.21911334991455 2.40068054199219 -3.64807510375977 -8.09768486022949 2.82318091392517 1.30461120605469 6.88911437988281 -3.6954870223999 -4.9238862991333 -5.08720588684082 7.2278881072998 -4.07850170135498 4.04656410217285 -1.89145660400391 -5.3796558380127 -2.00900936126709 -1.06433963775635 8.05071830749512 -7.13435697555542 -4.70255947113037 -6.55771446228027 4.38070297241211 -9.86023330688477 3.0556628704071 -9.43439483642578 -1.46369552612305 -4.5222225189209 5.31405210494995 -7.90245246887207 -3.75411605834961 9.82740211486816 7.07494497299194 -9.51154899597168 -2.77908229827881 9.64264297485352 2.58932304382324 3.91001462936401 5.26668739318848 -7.45368003845215 9.97363090515137 9.82433319091797 -1.87178707122803 0.0243701934814453 8.11761379241943 -9.04763412475586 1.41010856628418 9.55173301696777 -2.79741191864014 7.59144258499146 -1.10188388824463 -7.36407470703125 -9.31017303466797 1.74922370910645 -8.89347839355469 -5.68290901184082 7.1434211730957 5.26808261871338 -8.51569366455078 2.29061985015869 4.21105861663818 7.08683013916016 9.10663986206055 8.9058952331543 3.74652099609375 4.84263896942139 -9.45106506347656 9.24240875244141 -7.00253486633301 -4.1229190826416 -3.42868232727051 2.33391857147217 -4.80168914794922 0.710271835327148 4.74035024642944 -4.57393264770508 -7.46343803405762 -0.763615608215332 8.44437789916992 -8.55202102661133 6.73232269287109 7.7330756187439 3.26742362976074 -9.78244972229004 -5.8070707321167 2.77513003349304 -0.24774169921875 -0.0256862640380859 -1.38493156433105 0.555275917053223 -7.1356029510498 -6.90186309814453 4.16561126708984 -8.66446304321289 9.49716949462891 -4.38150501251221 2.44669818878174 -1.02797412872314 8.64955425262451 -3.81100082397461 6.16094350814819 5.51972150802612 -2.76266193389893 3.65911459922791 -2.00911903381348 9.54125213623047 5.98900985717773 -4.06163311004639 -3.5716667175293 -8.46084976196289 7.55891990661621 -3.040114402771 -2.13444805145264 -0.991064071655273 8.11902523040771 -2.57061862945557 5.32214164733887 0.336221694946289 -1.85494995117188 -8.97611618041992 0.286301612854004 -1.33335208892822 -9.49859809875488 -9.134033203125 5.19280624389648 3.6989209651947 5.20168495178223 8.35637283325195 -4.24418830871582 7.53084897994995 -8.31826972961426 -8.57063293457031 3.105628490448 -0.403691291809082 -1.09579658508301 -0.868720054626465 3.336341381073 9.52002334594727 3.80887007713318 -2.79018497467041 -3.84092903137207 -1.75422286987305 -2.20376110076904 -5.1981143951416 -9.90510177612305 5.7502384185791 8.73340129852295 5.83789587020874 9.03357982635498 7.2048397064209 -1.81708431243896 9.83379554748535 6.44385862350464 -3.28707790374756 9.82472610473633 8.52414131164551 -3.07788276672363 -0.839048385620117 9.06450653076172 -7.02017021179199 -2.57240867614746 4.84156608581543 0.432104110717773 -9.23769187927246 -1.18695163726807 -6.42203521728516 0.914555549621582 -0.37427806854248 9.00143623352051 9.97957038879395 4.96760559082031 -0.719179153442383 8.26165008544922 -9.18456268310547 0.238996505737305 -2.28478813171387 1.28671264648438 -8.38879776000977 -6.06237411499023 -4.49358367919922 -0.38906192779541 6.71734809875488 -0.222085952758789 8.94857788085938 -5.69991111755371 2.41059875488281 8.50971031188965 -1.76013088226318 1.51261234283447 2.94896841049194 0.00351810455322266 0.697049140930176 -8.28918266296387 -2.08694839477539 -8.38626670837402 4.07685041427612 7.10248184204102 -8.16824913024902 9.76030540466309 4.781813621521 2.18901062011719 -6.98834943771362 -8.94939422607422 -5.62061309814453 -7.87790489196777 -6.61232757568359 -5.18447685241699 -0.956148147583008 2.64944529533386 -7.9102725982666 -0.764461517333984 -6.75715970993042 8.28232574462891 0.994805335998535 8.31645774841309 4.84292221069336 -8.18799209594727 3.59198546409607 3.2879683971405 -2.96938323974609 -1.48849582672119 0.0696954727172852 -4.78207206726074 -8.14207458496094 -9.0526237487793 4.6332836151123 -0.904141426086426 4.11202907562256 -8.16934776306152 7.21154737472534 -2.15021514892578 9.07649040222168 -8.48969650268555 -1.96619129180908 -1.69281578063965 9.79811096191406 9.61000633239746 9.16219234466553 -7.17959928512573 -7.30685424804688 7.50545501708984 4.6785945892334 -2.81041526794434 -6.27071571350098 8.45414638519287 3.18635439872742 -8.04435539245605 -9.47342300415039 -5.10254096984863 -1.10652351379395 6.36745452880859 8.2990026473999 7.20355224609375 4.93064880371094 -6.03957176208496 -3.06606197357178 4.25004196166992 5.06161212921143 -2.14044952392578 -6.46818351745605 -3.30645179748535 4.51929807662964 -3.2346019744873 7.22540616989136 6.54139518737793 2.24553966522217 -7.70389556884766 -1.83429145812988 -1.66840171813965 -4.37207126617432 -7.94453096389771 8.72221183776855 -9.71468353271484 9.78639984130859 2.86958885192871 -3.964768409729 1.99278259277344 3.25432968139648 6.24591064453125 9.22825050354004 -3.47432708740234 2.10406398773193 4.34236526489258 -0.880764961242676 6.16300344467163 7.9874587059021 -7.19716596603394 1.85510540008545 -4.85565567016602 5.27997493743896 2.01935863494873 -6.30246686935425 5.29853343963623 -2.78014755249023 -3.46375560760498 7.64242601394653 0.12869930267334 4.20490264892578 3.90168380737305 -1.0343542098999 -3.02948379516602 -2.0922794342041 -0.502778053283691 1.56783676147461 -3.02665138244629 -3.45699691772461 5.49332618713379 -3.62507247924805 3.33194708824158 4.04948425292969 -0.478926658630371 -2.73299789428711 -8.61112785339355 -2.58840656280518 -2.77225112915039 -5.9471321105957 4.71256446838379 1.97535610198975 6.13817930221558 0.540184020996094 -9.25235939025879 6.7060489654541 -5.03252029418945 -0.381869316101074 4.36944961547852 -0.43826961517334 4.98333692550659 5.60873222351074 6.68574094772339 4.74155902862549 -5.49515914916992 9.724853515625 4.38589572906494 5.51511001586914 3.03381156921387 7.77708768844604 -9.87445068359375 0.0863924026489258 -1.91893005371094 -0.943697929382324 -3.16311264038086 -8.94805526733398 -6.0526008605957 5.69298505783081 1.16880035400391 7.98397254943848 -8.1155948638916 7.09851026535034 -5.13026237487793 -9.3626594543457 3.93745875358582 -5.88653373718262 9.78213310241699 -9.61513710021973 3.8444972038269 -9.87116813659668 7.75942802429199 -2.79986476898193 -9.3601016998291 -4.306884765625 8.94344520568848 -9.66016960144043 0.187362670898438 -4.02082347869873 -8.52998924255371 8.12557983398438 -3.88208293914795 -4.57269763946533 -4.73795986175537 6.45317792892456 3.39181876182556 -5.3989200592041 -7.87347030639648 -4.33238124847412 -0.0513210296630859 -5.85157203674316 -9.90016555786133 -6.7307014465332 2.95677161216736 -8.38150215148926 -6.71907424926758 4.56516981124878 0.790533065795898 4.27903890609741 -8.40679931640625 -4.14825820922852 -0.162240028381348 7.3361873626709 4.86818075180054 9.39046859741211 -6.70414400100708 -5.48978042602539 4.96471881866455 -2.30046367645264 7.04545021057129 4.74653244018555 -1.35111713409424 -5.89309692382813 7.82201957702637 2.19001388549805 -9.67789077758789 -1.79076766967773 -2.92532062530518 3.09776282310486 8.41767311096191 -6.44613075256348 4.42544174194336 -2.62921237945557 8.35562515258789 4.06077575683594 3.57343435287476 9.4330883026123 -4.80396175384521 4.45076704025269 -7.93398332595825 1.52197933197021 -2.756911277771 8.83594512939453 -4.72329711914063 7.91266441345215 -9.67372512817383 1.2372932434082 2.33495140075684 8.00986480712891 -3.53389358520508 -2.5028076171875 -0.078486442565918 -9.0429515838623 2.96656584739685 6.21214866638184 -1.76717853546143 -0.123115539550781 1.35427093505859 -7.67903852462769 -5.39565277099609 5.47172737121582 8.21187973022461 -0.663951873779297 -1.94259071350098 4.41957473754883 0.774332046508789 -7.75376510620117 -2.75822067260742 8.46598434448242 -9.93096160888672 -0.567108154296875 9.69802856445313 4.04763221740723 2.6427743434906 1.51022338867188 3.2232711315155 0.177308082580566 5.94373226165771 4.43536281585693 -4.52972030639648 -8.67889404296875 0.155872344970703 -8.91643333435059 5.75377941131592 -1.1617603302002 1.29429912567139 0.36032772064209 -9.52837944030762 -5.11886405944824 9.73162078857422 -9.09518432617188 2.54750442504883 -6.39256286621094 9.86797714233398 6.67272758483887 1.31396198272705 8.77816963195801 -0.646208763122559 -5.71660041809082 7.77623176574707 -8.39068984985352 -1.36628723144531 5.63498973846436 -8.82467079162598 7.6148624420166 2.5099036693573 -1.31538009643555 -1.41978168487549 -2.84429168701172 7.40015745162964 2.7905604839325 -3.83522605895996 -8.65408897399902 4.77475357055664 7.42409181594849 2.65780210494995 -3.4755744934082 8.10235786437988 9.09242153167725 -8.24496078491211 0.803786277770996 -3.52737522125244 -3.81290054321289 -1.35023975372314 -7.67231750488281 -1.91520595550537 -3.4745397567749 9.41600322723389 8.42301845550537 -9.05959701538086 -2.90838623046875 0.0352916717529297 -6.19482040405273 9.0474967956543 0.164924621582031 -2.55313301086426 -3.60095405578613 6.56608152389526 -5.14682960510254 -3.78711318969727 -8.64687919616699 9.62128448486328 0.784269332885742 -2.19823932647705 6.51320219039917 -8.78330039978027 7.8482837677002 1.66582202911377 8.40703010559082 6.62035703659058 -4.02047538757324 7.99291801452637 8.6551399230957 0.931495666503906 5.07314872741699 8.26091003417969 4.9728536605835 6.41387701034546 9.44838523864746 1.3692512512207 -5.16975212097168 8.3003044128418 1.41530418395996 -8.2652645111084 7.36589431762695 6.33246946334839 -0.454243659973145 -8.0007381439209 -0.222600936889648 -3.79255199432373 -3.20192241668701 -7.22858858108521 -2.13332557678223 0.0417366027832031 -7.86977958679199 -3.1906042098999 -6.61339950561523 -3.26266384124756 6.97184753417969 4.21919345855713 -3.58437919616699 4.10880565643311 -7.55641174316406 -6.06234550476074 -7.31421279907227 9.85595512390137 5.89046239852905 -7.15114164352417 7.28995084762573 9.25731182098389 -4.90583038330078 -7.74470520019531 -1.83301830291748 -9.13054656982422 -2.39788150787354 -6.44956159591675 7.3696231842041 -1.14520454406738 -8.36169815063477 -8.06711387634277 2.46982669830322 -0.145321846008301 7.35685777664185 1.18008232116699 2.10377597808838 4.99466896057129 -9.61735916137695 -4.71881008148193 -1.98769187927246 -8.536376953125 -1.49789905548096 1.70193099975586 -8.93013763427734 -1.56405353546143 3.17372298240662 8.86860847473145 4.01525259017944 -1.69089412689209 -1.03823089599609 3.18634009361267 8.14790534973145 -6.27210426330566 -8.78208160400391 5.03655624389648 1.23965358734131 3.39098429679871 -3.09017276763916 -6.09088468551636 7.05823469161987 -4.2789134979248 -3.25618648529053 4.93985366821289 7.66638231277466 3.08290672302246 1.78534603118896 6.4792537689209 4.42127418518066 7.37438201904297 1.4860258102417 -5.01575946807861 8.62419509887695 0.0916233062744141 5.92904281616211 -9.55133628845215 -5.06689071655273 9.69490051269531 1.44089126586914 -9.88285255432129 -2.43323707580566 -7.56093978881836 4.32392120361328 -9.98986434936523 0.804986000061035 6.81131553649902 6.38769578933716 -2.54810237884521 -3.52939701080322 -0.252641677856445 -0.831560134887695 -9.18658447265625 -0.579313278198242 -2.49978446960449 -9.61318016052246 -4.38755893707275 3.76323676109314 -0.715576171875 2.7298469543457 -9.6037712097168 -7.10522842407227 4.18542098999023 -6.55623435974121 -2.38413238525391 -5.49857616424561 6.28806114196777 8.48964691162109 -3.35407829284668 -3.94771003723145 -6.36483192443848 1.27295398712158 0.271359443664551 6.54066514968872 -3.37826633453369 9.68168449401855 0.258723258972168 9.55110359191895 -0.528365135192871 -5.17109680175781 8.6053352355957 1.55621910095215 -2.70759963989258 4.30965185165405 -1.69000053405762 7.35287666320801 -2.07352542877197 -5.51222038269043 8.75615882873535 -3.97370433807373 1.20200729370117 -1.03147888183594 -0.939191818237305 -7.80912399291992 3.45108485221863 -6.13007545471191 -4.49401950836182 2.46323013305664 -2.47516536712646 -4.74259948730469 9.24957656860352 -5.35384368896484 -0.632630348205566 0.407055854797363 -7.14248847961426 2.65830492973328 -3.01840686798096 4.21188354492188 4.85103130340576 6.34847640991211 9.68015670776367 -5.06085395812988 8.74051856994629 -0.541072845458984 -7.30973052978516 -2.85619640350342 -1.94695377349854 4.28718090057373 2.04796695709229 -0.613561630249023 4.23304557800293 4.35105085372925 -5.10071277618408 7.98141050338745 6.66877937316895 3.0283374786377 1.41474151611328 6.67234182357788 -2.4923267364502 0.889631271362305 1.45843887329102 9.78613662719727 9.44533538818359 5.78851699829102 -5.35568237304688 -7.55645942687988 1.68950653076172 1.76272487640381 9.94162559509277 8.89993667602539 -3.38410949707031 -7.73441505432129 -6.110511302948 -7.50014305114746 2.73091506958008 5.25280475616455 0.476504325866699 3.55213356018066 -8.29608154296875 -9.37526321411133 -1.42048454284668 5.66656112670898 -1.85985469818115 9.61962890625 -9.37631416320801 -9.17319107055664 2.52394437789917 8.55422019958496 -1.10390090942383 -0.585075378417969 -7.9139232635498 -1.92566299438477 -7.27844667434692 -1.27694225311279 -1.65250873565674 6.00186538696289 2.75923705101013 -2.87481689453125 9.53435897827148 2.33929252624512 -8.19906425476074 -7.99984407424927 -0.990022659301758 3.10209465026855 8.48029327392578 3.4476637840271 -2.5336446762085 -7.05757141113281 4.71042633056641 0.277456283569336 -4.30686378479004 1.4979305267334 -7.77688789367676 9.64154434204102 -9.59491539001465 6.84611845016479 -2.74586582183838 8.31149864196777 -6.56171607971191 9.90030670166016 -8.26324462890625 -6.14736366271973 -3.21468925476074 3.11913251876831 1.10684013366699 -5.83292961120605 6.94956016540527 -5.08947849273682 -1.8705997467041 4.1938304901123 1.62030601501465 -6.17389678955078 -2.52815628051758 -2.71127605438232 4.13599491119385 4.36808109283447 -9.77151489257813 -6.93447113037109 8.31599426269531 -9.30046081542969 -6.2603874206543 3.28262519836426 -8.67585945129395 -1.28279304504395 -9.82564735412598 -4.64657688140869 -9.81035423278809 -6.91744041442871 6.25369787216187 -0.688258171081543 -5.35632610321045 -3.05522060394287 2.47682952880859 8.89792633056641 1.49345016479492 5.91757297515869 2.30818176269531 6.19879150390625 9.6021728515625 -1.33707904815674 7.04613161087036 4.29425954818726 0.823927879333496 -0.132011413574219 -0.527401924133301 -6.60089063644409 5.4837965965271 6.48955535888672 -7.04542589187622 2.88526725769043 -9.46171951293945 -9.58658218383789 -5.20843315124512 5.69140195846558 -8.93439483642578 5.8654260635376 1.94183731079102 6.60356950759888 -0.532318115234375 -6.1891918182373 -5.83450126647949 4.58578109741211 -9.83826446533203 8.03817939758301 6.88764762878418 -2.42957019805908 -9.79650497436523 7.39700078964233 -7.9206657409668 -4.18511962890625 -2.14725589752197 9.16887283325195 -4.24413299560547 4.40299224853516 0.427833557128906 -2.47819805145264 -8.1807746887207 -1.27877807617188 1.85772514343262 2.76140189170837 -1.04442501068115 -4.62485885620117 5.98237037658691 -4.61491680145264 6.65018272399902 9.06180858612061 5.64279556274414 -7.38755989074707 3.58565306663513 -6.34537506103516 -8.06962585449219 -7.51452255249023 9.53621673583984 -9.29280281066895 5.27609825134277 4.50955867767334 -1.65015316009521 7.28864860534668 2.72775149345398 -8.4775333404541 0.144549369812012 1.29476165771484 9.05643653869629 6.78316116333008 -7.4139289855957 0.294875144958496 -5.11492252349854 3.08121871948242 0.462440490722656 -3.32351112365723 9.25828456878662 -1.67468643188477 5.93804550170898 3.33726859092712 -0.725842475891113 8.12070655822754 -8.6374397277832 1.91576385498047 -7.84759092330933 6.97531461715698 -2.09282970428467 -6.58345985412598 7.69239616394043 -0.622864723205566 -2.31924152374268 6.46235227584839 -5.76979827880859 -7.98831176757813 0.337186813354492 -3.5022439956665 -2.2498140335083 4.01619672775269 -8.34475517272949 4.82710838317871 -3.88557052612305 -9.53642845153809 -4.70455074310303 -0.449170112609863 -0.742959022521973 3.88511633872986 -8.32445335388184 5.80064296722412 6.18079376220703 4.30747509002686 3.49248862266541 -3.05280590057373 -8.97024154663086 -9.88969039916992 7.78387498855591 -3.59936141967773 -0.296965599060059 3.16579055786133 -5.20913887023926 -0.353456497192383 6.76897048950195 -6.25222396850586 -6.05436754226685 -0.539389610290527 -2.8111686706543 6.84781074523926 6.44088745117188 9.05739593505859 8.69561958312988 -3.65724658966064 -4.39187431335449 -8.7035083770752 5.71081876754761 -8.49180030822754 -7.80372428894043 3.01248526573181 -2.95826816558838 7.77971458435059 4.17543172836304 -0.511392593383789 -5.54897499084473 -2.36924743652344 -4.95168781280518 8.68800354003906 -1.26739883422852 5.78050804138184 6.53824806213379 -5.46596717834473 4.17218923568726 6.42268371582031 4.82450008392334 -7.94492292404175 8.58179473876953 1.34809112548828 -1.4466724395752 3.19555735588074 8.2547607421875 9.78109169006348 -2.0528450012207 -2.55508995056152 -5.86328029632568 4.75151538848877 -7.7243824005127 -1.73982238769531 -7.24145126342773 -3.15078830718994 -9.10260772705078 -7.04120445251465 -2.54897975921631 1.41891574859619 -7.5769190788269 -4.52905082702637 1.78659057617188 1.25067806243896 -4.71143341064453 2.59877181053162 3.56454825401306 3.42519736289978 3.45635390281677 -3.52057361602783 3.80064463615417 -2.6535758972168 -8.49481964111328 0.450905799865723 9.88124847412109 1.20699501037598 3.84796595573425 -7.9611873626709 -9.24825668334961 5.42761993408203 -2.83913040161133 9.45832443237305 6.54776573181152 4.55685138702393 -8.74010276794434 4.85957622528076 -4.92853736877441 -7.76895952224731 1.39671230316162 0.0871219635009766 -9.48789215087891 -2.34272861480713 -8.86342620849609 -6.62130784988403 4.49043035507202 -8.99402809143066 -6.12536430358887 6.48565721511841 9.99103736877441 6.62124633789063 4.43938732147217 9.03309631347656 0.198697090148926 3.92697310447693 0.34096622467041 -1.09496688842773 -4.83823871612549 -1.88518905639648 -6.71918439865112 6.13416862487793 -7.79364395141602 -6.8183856010437 -9.83172988891602 -3.29654788970947 0.734516143798828 -4.90882968902588 9.30671215057373 -4.44216632843018 4.37956571578979 0.223628044128418 -2.12780380249023 -6.88367414474487 -4.1619815826416 -0.903674125671387 -0.765828132629395 -5.91705513000488 -7.54706382751465 -9.88027954101563 1.80991268157959 3.40069961547852 -1.44138431549072 -6.08189582824707 -6.48052024841309 2.12967777252197 -1.15952396392822 |
-0.797377586364746 -7.99836158752441 -6.99985504150391 -8.23738861083984 -7.54519271850586 1.47838687896729 3.63299822807312 -1.44210243225098 8.73862266540527 6.48087692260742 -0.389300346374512 8.88587188720703 3.19884061813354 1.95421600341797 5.85660696029663 -5.02613258361816 -2.65847778320313 -3.36838817596436 -6.15588188171387 -9.74700546264648 1.47230243682861 -7.97060966491699 -1.15635776519775 3.65921211242676 -3.99068450927734 4.7383189201355 5.04576683044434 0.892514228820801 -1.39694118499756 3.83354377746582 9.01872158050537 -5.12269973754883 -2.58692836761475 -5.79316902160645 -6.82100296020508 -3.115797996521 5.04767417907715 7.58170652389526 -7.69438743591309 -4.75798034667969 1.18890857696533 -9.96618461608887 0.12208366394043 0.970078468322754 4.37159729003906 0.196896553039551 -4.19261360168457 3.81264877319336 -3.13328170776367 7.68319845199585 1.7174711227417 -6.67500686645508 8.89324951171875 5.76889228820801 4.31105136871338 -4.02404403686523 6.00458860397339 4.56316709518433 4.92283058166504 3.98199796676636 6.13735580444336 8.16716384887695 -0.232361793518066 7.66669034957886 -5.38357543945313 -9.18130874633789 -3.29269313812256 2.93169474601746 1.0106143951416 9.68330574035645 -5.50642776489258 -1.70687770843506 4.49363708496094 7.73649930953979 2.33889675140381 9.81692123413086 7.68205642700195 -3.50496387481689 4.8557710647583 5.97805976867676 -5.47570037841797 -7.35151481628418 -2.40041637420654 -8.35353851318359 7.68671035766602 8.49907684326172 -2.15145015716553 -8.76218795776367 -6.86702537536621 -5.05626201629639 5.13820171356201 2.44839286804199 -8.46113204956055 -1.65565586090088 -6.87139320373535 5.02667903900146 1.70680904388428 8.27915573120117 -3.88905429840088 -1.91827392578125 -8.03054046630859 1.86691379547119 -2.91103744506836 9.18389511108398 5.56224346160889 -7.31814384460449 7.93232393264771 -6.64914655685425 -5.59462738037109 4.37186002731323 -1.34179210662842 -6.04102659225464 1.54307460784912 -4.71545600891113 6.17270469665527 -3.37672138214111 0.415750503540039 8.49442958831787 -7.43175935745239 -4.21055698394775 1.79209804534912 -7.25944089889526 -9.46772003173828 -5.97202301025391 2.7756519317627 0.317205429077148 -1.00058460235596 -4.54203701019287 3.34336256980896 4.39839553833008 -2.11974048614502 -7.05680847167969 -5.18456649780273 -0.757604598999023 4.09509420394897 -3.8650598526001 9.42435741424561 4.8447585105896 -4.85265350341797 -3.7623462677002 8.70831489562988 -1.11359214782715 9.88852977752686 6.47107124328613 -9.30223274230957 5.9564323425293 -4.59738826751709 -1.58263778686523 -8.69257354736328 -4.29886913299561 9.42215156555176 0.594898223876953 -4.17043304443359 -3.48719215393066 3.18880796432495 -8.84710502624512 -6.84139680862427 -2.97262096405029 4.41930961608887 0.159749031066895 -4.15474510192871 -2.62695407867432 -1.06587028503418 -3.0277738571167 4.66836166381836 -3.98841762542725 6.16396903991699 7.65361022949219 7.5700421333313 -2.04299545288086 9.87732124328613 -5.46352577209473 6.25267219543457 -6.77337837219238 -3.78815269470215 3.19408869743347 -7.70345687866211 8.32355499267578 6.69270277023315 -1.97105312347412 6.73357963562012 8.19451332092285 -0.718236923217773 4.32731628417969 -1.74669170379639 -2.1371374130249 -0.808943748474121 -4.16811370849609 8.66230010986328 7.35836029052734 -2.43761157989502 0.725408554077148 -7.30245161056519 -5.4868335723877 1.75316429138184 -5.32021999359131 -3.67849445343018 -2.51006984710693 0.976620674133301 -4.85866928100586 3.31308341026306 1.09925651550293 7.00619459152222 1.46068954467773 4.78692245483398 5.39263916015625 -1.001540184021 -3.06700801849365 -3.02785968780518 2.34797096252441 -7.95293807983398 -4.7633113861084 0.609840393066406 -8.23663330078125 -3.30795860290527 6.58376455307007 1.85686683654785 -3.95101642608643 6.9690089225769 -3.45227336883545 -5.61004447937012 -3.89859104156494 -4.52268505096436 -5.2848072052002 -2.51237297058105 8.32464408874512 -3.86095142364502 -7.27787446975708 0.963388442993164 5.46648740768433 7.0269889831543 -3.48481273651123 -3.70938873291016 8.03901195526123 -9.36960029602051 2.0048131942749 -6.03511381149292 -5.99636077880859 3.76948809623718 -8.93985366821289 6.89817428588867 -6.43191862106323 -4.75823020935059 -2.25657367706299 -8.85624122619629 -9.50027656555176 3.29071497917175 3.27932119369507 3.95472979545593 3.12611770629883 0.0384130477905273 -9.01948547363281 -1.19405841827393 -7.62950468063354 1.53129005432129 1.70394802093506 8.34908962249756 -3.67170906066895 2.11867904663086 4.91836738586426 -7.47047853469849 -5.82296848297119 6.94207191467285 2.66571974754334 1.68838596343994 7.58793830871582 9.12802886962891 -9.08378601074219 -1.13462066650391 5.44129133224487 -1.49685287475586 -9.80002975463867 5.77452182769775 2.8595826625824 -4.10817241668701 6.05769634246826 0.419281959533691 6.13871335983276 3.69298911094666 2.30631732940674 6.21521186828613 5.05937767028809 -1.6060676574707 6.79393529891968 5.8507251739502 2.28680038452148 0.954154968261719 9.71524238586426 -0.292316436767578 2.71219968795776 0.786775588989258 -7.0084285736084 2.14723968505859 6.04520559310913 6.05541610717773 -4.77490520477295 9.95626449584961 -9.02208137512207 9.37059211730957 -8.05058288574219 8.17412567138672 8.39948463439941 -4.73022079467773 6.15936040878296 -7.23661231994629 7.83530235290527 2.87506556510925 -8.06936073303223 -1.82174301147461 -0.157264709472656 4.05291080474854 -5.29251289367676 -6.33475112915039 4.28915214538574 -1.0810718536377 -1.28608131408691 2.68950438499451 -3.6923656463623 -4.08174896240234 0.651787757873535 -1.13835906982422 -7.75760221481323 -0.917886734008789 1.96613883972168 3.27414488792419 3.81747698783875 -5.08864593505859 4.54670143127441 4.34779167175293 -2.73945713043213 4.12928581237793 6.1654257774353 1.75599479675293 0.0339517593383789 3.15365290641785 9.98910903930664 -1.59336185455322 5.16577243804932 7.19213056564331 8.33476829528809 -8.96111297607422 -0.95488452911377 -5.45578479766846 7.02141761779785 2.74767637252808 -3.83754634857178 -7.2410774230957 -1.43247222900391 -5.40975761413574 -7.70087432861328 4.1586446762085 2.44002723693848 3.41773223876953 0.0453481674194336 9.8915958404541 8.61298561096191 -4.35891723632813 1.99099636077881 1.85991191864014 -4.38850975036621 3.17578768730164 3.54471921920776 -3.6665735244751 6.56006288528442 -1.7436466217041 -3.97670364379883 -8.03158569335938 5.84277868270874 7.67257690429688 -9.79296875 5.15596580505371 -3.57076263427734 -0.312942504882813 -4.10763168334961 -7.33422803878784 9.04902458190918 0.685602188110352 6.43432188034058 -2.34019660949707 -5.99710273742676 2.40979290008545 -6.92321348190308 -4.58129787445068 -0.378693580627441 3.81798934936523 -1.83426952362061 -1.29423999786377 1.63473701477051 2.7455518245697 4.79878425598145 -1.61091709136963 -5.09235191345215 6.5415210723877 6.10708236694336 -7.90779113769531 -8.55184745788574 2.98526000976563 2.56007170677185 -9.76095962524414 -7.29780006408691 |
-3.40787029266357 -8.69844436645508 -6.05048179626465 0.865808486938477 -6.36064958572388 -2.033616065979 -1.30123996734619 9.52800273895264 -7.77078437805176 2.35531902313232 -8.42042541503906 -2.24593257904053 -3.35794544219971 4.52893257141113 -5.31982898712158 8.35659408569336 8.81898403167725 7.05500364303589 4.25582408905029 4.84135627746582 3.87513136863709 8.58830451965332 -1.16854763031006 8.0230827331543 7.75664329528809 -8.74267959594727 -2.63822937011719 -8.1632022857666 5.52862358093262 8.16663551330566 9.24355697631836 -7.78626441955566 8.73920631408691 2.78067564964294 -3.20844078063965 6.7815375328064 -2.02363395690918 -4.4369421005249 -0.60230827331543 8.50976467132568 -2.58778953552246 1.57164001464844 -0.264264106750488 4.97168731689453 -6.73909711837769 8.39359474182129 -3.02766418457031 1.39169311523438 -4.44085025787354 1.81360149383545 -6.32650566101074 -9.71932411193848 1.97739505767822 -7.56429481506348 -1.69532203674316 9.96907424926758 -0.450858116149902 9.67912673950195 7.0057201385498 -3.10006999969482 -8.67281150817871 6.52949523925781 -4.2813024520874 -8.11862945556641 5.73137283325195 2.84845805168152 2.55498647689819 5.55374622344971 2.34541797637939 3.20026159286499 -2.014084815979 -5.05398750305176 -7.78074073791504 -7.69784498214722 -7.65173149108887 -7.67446088790894 0.881980895996094 9.07674789428711 9.69240188598633 9.39912796020508 -1.92944622039795 0.603490829467773 4.5807147026062 -2.33795547485352 1.00596046447754 -4.60629558563232 5.36442756652832 0.595854759216309 -6.5265040397644 6.31025743484497 0.852350234985352 -1.31617164611816 9.24039077758789 -7.90146064758301 7.4316234588623 6.18464660644531 2.01709842681885 0.315455436706543 -1.90212345123291 7.80477285385132 6.48771286010742 -5.88144779205322 2.07749938964844 2.09529304504395 -1.71758270263672 0.419782638549805 -4.63861560821533 -2.29249572753906 6.82279777526855 -1.07971096038818 -9.79122352600098 -1.79940605163574 -4.89133453369141 8.54148387908936 1.35854148864746 -5.0061559677124 -6.14380645751953 7.00189352035522 -9.20036315917969 -5.45866012573242 2.37111186981201 -8.31389617919922 1.43565082550049 -7.51000213623047 2.08454990386963 -9.78764533996582 8.12078666687012 2.97389006614685 -8.55504608154297 -8.71060562133789 0.588027000427246 8.60140037536621 4.54758834838867 4.53986167907715 -4.15769481658936 -6.83708381652832 -1.63180255889893 -0.165118217468262 9.72676467895508 8.73666286468506 9.30143165588379 8.91569137573242 7.89637565612793 -9.45692825317383 -0.45889949798584 5.42267799377441 -2.91571998596191 2.32327556610107 2.73163294792175 -6.78462219238281 -9.31796646118164 -9.83707618713379 6.62569761276245 -6.7573184967041 -0.407472610473633 -0.030421257019043 -9.97324752807617 0.630392074584961 -8.77360534667969 3.29216718673706 -9.80031776428223 9.84347343444824 -7.81802940368652 5.58572006225586 1.11128234863281 3.93446683883667 3.98348307609558 -0.636714935302734 4.45698738098145 4.49515342712402 5.29184532165527 0.710529327392578 -2.97839260101318 9.14701271057129 -0.29432201385498 -5.43949890136719 8.11154174804688 -8.91508293151855 9.12885189056396 -3.23473072052002 |
