-7.25891542434692 6.52963209152222 1.8924674987793 -8.95945739746094 -7.49099731445313 1.36993980407715 -6.78928804397583 8.34875297546387 3.60382056236267 3.9297981262207 4.10155057907104 -9.74811553955078 3.78357124328613 -3.2357063293457 9.45665740966797 7.10353422164917 -1.1493673324585 8.66383743286133 4.04837131500244 -9.74478149414063 -9.45116806030273 -2.23036670684814 8.36287689208984 9.15031814575195 8.00165176391602 4.57688331604004 -2.75125885009766 6.16215467453003 -3.55574703216553 -7.12268829345703 -5.52168083190918 9.56360244750977 0.128851890563965 -7.50154304504395 -4.7384033203125 -8.93701934814453 -4.11018753051758 2.48566055297852 -7.77305173873901 -3.546067237854 -2.62423896789551 3.33637690544128 -3.96801376342773 7.94987869262695 7.16555595397949 4.30550336837769 9.37838363647461 9.86677169799805 5.18089485168457 4.30353164672852 7.58488845825195 -0.957394599914551 5.51578521728516 2.95189356803894 5.69809913635254 6.45574760437012 -9.69385147094727 -4.37571907043457 -9.87801361083984 -0.290060997009277 6.66267156600952 -9.21331405639648 5.24970531463623 -8.24785041809082 7.22528028488159 0.649260520935059 9.28847503662109 8.23075294494629 0.566812515258789 -1.85968971252441 -0.478681564331055 -7.52556800842285 6.70391273498535 -8.9589729309082 7.86532592773438 1.91932582855225 -7.42231798171997 -4.37807941436768 -7.73247528076172 -5.59626579284668 -9.0543155670166 6.1295337677002 5.67142009735107 -5.90885925292969 1.88287162780762 3.91186213493347 8.23281478881836 3.99877309799194 -1.15429973602295 7.11958885192871 -5.39740371704102 2.53116798400879 5.65022230148315 -8.19051361083984 -2.42189979553223 -0.775433540344238 -5.52990913391113 0.305877685546875 -4.45805644989014 5.18440008163452 -4.52224159240723 3.0046534538269 7.27782249450684 8.94707107543945 -0.688997268676758 -2.39945030212402 -9.4414234161377 -6.37519836425781 7.20054626464844 3.63885116577148 -0.917381286621094 -7.10204124450684 1.98155307769775 -3.62827205657959 8.35812759399414 -8.33456802368164 3.23018789291382 9.84313201904297 2.53444170951843 3.81864047050476 -0.0354681015014648 -8.00300407409668 6.18559598922729 0.161429405212402 0.121683120727539 0.0264654159545898 -9.11182594299316 4.9718017578125 5.39780378341675 -8.22399520874023 -1.01577663421631 -2.87132835388184 9.01384162902832 1.55101203918457 -9.31965827941895 -0.320964813232422 6.18806838989258 -2.23120594024658 7.70169258117676 6.42029237747192 -5.60848712921143 7.41460561752319 4.15130138397217 6.60663604736328 -4.68982601165771 9.36340713500977 -8.84926605224609 5.90383052825928 -0.400270462036133 7.96960592269897 -8.1606502532959 5.55207443237305 1.44748115539551 -8.49623680114746 0.902844429016113 -9.86848068237305 8.62971115112305 -5.48463821411133 8.37536811828613 -7.24113893508911 8.0366039276123 0.14408016204834 -0.800891876220703 1.76313304901123 -1.57251930236816 9.58969116210938 4.80804920196533 -5.67468166351318 -6.21312141418457 9.93042182922363 -7.2407054901123 -9.57815933227539 3.04783582687378 -3.04641342163086 5.97766876220703 -9.31878662109375 -9.76513290405273 9.02069282531738 -8.5979118347168 -5.62389850616455 -5.01433372497559 -2.9050931930542 6.35555028915405 -3.55233287811279 -0.894495010375977 -5.29850482940674 7.62895774841309 9.13429641723633 -5.21533489227295 -1.90422439575195 1.67599773406982 5.93835592269897 -2.35084438323975 4.52903747558594 4.74628210067749 -3.32270240783691 -3.93023586273193 -1.10215282440186 3.69794344902039 -7.20334815979004 -9.56611824035645 -8.31487464904785 5.04961204528809 -6.27261161804199 -5.48904418945313 -7.57168579101563 -8.76762008666992 2.47500324249268 1.70699024200439 -0.815671920776367 -2.77497386932373 -5.89623260498047 -2.45722198486328 -5.97093105316162 4.82597541809082 -0.885709762573242 -7.86778974533081 -8.43876075744629 -2.60876750946045 -5.65229606628418 -5.46689033508301 -2.90545845031738 5.1162314414978 5.20037174224854 7.92155790328979 -4.79755020141602 -7.02136564254761 -5.28233051300049 4.77283000946045 3.93040633201599 -9.41803741455078 -5.9521369934082 -1.86546421051025 -0.895570755004883 -9.17850875854492 8.49284362792969 3.57551074028015 -1.14031219482422 1.96077728271484 -4.44449996948242 0.75227165222168 0.537566184997559 -6.54408264160156 -7.92484474182129 -5.08070945739746 -6.77007865905762 6.28729295730591 2.92241072654724 3.86433100700378 1.78682708740234 6.97131156921387 5.90862035751343 -8.83917045593262 -6.48590517044067 -3.33094215393066 0.936111450195313 3.63450241088867 9.71663284301758 -3.05656051635742 9.67479705810547 -3.30985641479492 -4.97675323486328 -5.78545570373535 4.42753982543945 -2.08495998382568 -2.2339973449707 -2.19244575500488 3.90161275863647 -6.60701322555542 -7.7137451171875 5.77408313751221 3.47645950317383 -8.87150764465332 -6.33579444885254 8.72640609741211 1.09029197692871 6.79054021835327 -6.09855651855469 8.93624114990234 -4.76952171325684 -3.16607093811035 4.37740325927734 2.55474281311035 2.4422492980957 6.30939245223999 2.78221321105957 -3.73846912384033 -9.07513046264648 3.90706777572632 7.96105575561523 7.25653648376465 -6.75898551940918 -0.652145385742188 8.90243911743164 7.99063682556152 -8.5438346862793 -1.30951976776123 -3.16304588317871 4.97690391540527 -8.00633239746094 8.02022743225098 -3.92577075958252 5.37698268890381 9.34095764160156 6.86100959777832 2.90252184867859 -8.06471824645996 -8.00194931030273 3.37760901451111 -2.0857515335083 -9.86174774169922 3.69796514511108 1.79644012451172 9.52226161956787 5.39460372924805 1.21493244171143 -7.3651270866394 -8.05438232421875 1.50274181365967 -4.308518409729 -7.02440071105957 2.09305858612061 -8.76485061645508 1.0521993637085 8.30198669433594 3.68111109733582 -7.64749526977539 9.41667938232422 -8.54362297058105 8.90564346313477 9.41650390625 -3.20197486877441 -5.4181022644043 5.17679691314697 -4.61740875244141 -7.21155595779419 -6.75464200973511 6.30666732788086 8.53815460205078 -9.44183731079102 -0.953716278076172 0.703653335571289 -0.75426197052002 -8.07980728149414 7.16626882553101 0.767311096191406 -4.03059577941895 4.76474761962891 -9.75126266479492 8.31064224243164 -4.03535938262939 -0.450407028198242 -6.65252256393433 -3.65548992156982 6.84111070632935 1.39684772491455 -9.78322982788086 5.29235363006592 1.794508934021 7.90674638748169 6.75112724304199 6.09472990036011 -9.74057769775391 3.72319936752319 -2.51328086853027 -9.33146476745605 8.43296241760254 9.75817680358887 -9.05739784240723 -4.47843456268311 -0.539923667907715 2.85233473777771 4.67646360397339 -2.4285306930542 9.62393188476563 8.59724998474121 -4.7535572052002 1.75528430938721 -0.119200706481934 3.23655581474304 -8.41211700439453 3.96040153503418 2.91588759422302 -7.99753952026367 5.56502532958984 -8.18430137634277 6.2889575958252 3.71819686889648 -0.122050285339355 -7.42242622375488 -1.90866374969482 0.661521911621094 5.88091373443604 9.29248046875 2.50973892211914 3.1345100402832 6.17789268493652 -6.53841972351074 7.52306699752808 -2.54320049285889 -4.80193996429443 6.7185230255127 -3.15855598449707 4.0384840965271 -6.24687623977661 7.65237379074097 9.12126731872559 -8.19198989868164 -5.57841491699219 -0.283614158630371 5.76884269714355 -0.305642127990723 -6.0635871887207 -8.6954231262207 -7.37170028686523 0.290240287780762 -9.18752288818359 2.33896160125732 -4.67100524902344 6.94378328323364 2.90058851242065 -3.46414470672607 -2.89060688018799 -5.84229469299316 0.201898574829102 7.39599657058716 -0.729645729064941 5.29391288757324 -0.563887596130371 5.02629470825195 -1.00439167022705 3.88444399833679 7.37220335006714 -9.91952896118164 8.45162200927734 -6.43174695968628 0.40009593963623 -1.03576564788818 9.310622215271 -7.9347972869873 -7.62898445129395 1.51326560974121 -5.89649200439453 2.94096708297729 7.02470779418945 -1.20464420318604 4.85175323486328 0.98955249786377 9.65754985809326 -3.65659618377686 9.73361015319824 5.25794744491577 -1.00529098510742 -5.2774829864502 -3.12480068206787 5.87469577789307 3.26052856445313 8.32241058349609 -2.5073299407959 -3.97985553741455 -4.52055358886719 -6.5938549041748 4.51424360275269 3.7272047996521 5.60218048095703 6.00773572921753 4.75193023681641 3.52184271812439 2.50802230834961 1.11101245880127 -1.07514953613281 -5.01494407653809 -9.61210060119629 2.8991961479187 7.73473930358887 -2.89317512512207 0.628992080688477 -4.45541000366211 5.36570310592651 -0.425280570983887 -5.32450675964355 7.93874311447144 -0.937191009521484 8.90819358825684 -6.76216554641724 3.32079124450684 9.36785888671875 3.26601481437683 -1.49146461486816 -5.12185287475586 4.0461540222168 -5.3577880859375 -9.24648475646973 5.84527015686035 -9.86953353881836 -3.0119571685791 5.63603162765503 -2.61071586608887 2.52361273765564 -6.12329912185669 4.39553022384644 -4.32732009887695 6.39357757568359 2.49706172943115 1.56750297546387 -8.36209297180176 5.60195446014404 3.56390714645386 -9.08673095703125 -5.60898590087891 8.22030830383301 -8.25166320800781 4.58061695098877 -9.8569450378418 -5.72956275939941 -2.31772994995117 6.83279466629028 0.782231330871582 3.29984641075134 7.22673845291138 3.75772666931152 -7.09059190750122 -6.08626890182495 4.59955215454102 7.6641845703125 3.09955358505249 -5.04326629638672 -9.80329322814941 3.94113039970398 -3.9853630065918 -0.627826690673828 -3.45200157165527 -1.65829753875732 -8.70388793945313 -3.79433059692383 -7.38269805908203 -8.38705825805664 6.27402830123901 7.8868842124939 -9.97263145446777 -5.11650276184082 6.291832447052 -4.22030353546143 0.555163383483887 -2.78214073181152 -9.14250946044922 -1.09381580352783 4.99160289764404 -4.5225772857666 -4.39613246917725 -6.12024307250977 4.08137321472168 -0.553158760070801 -4.30093383789063 6.91564321517944 -2.55561447143555 3.66245985031128 0.020960807800293 8.15074157714844 0.169659614562988 -9.96420669555664 -9.46525764465332 -5.69874286651611 4.48240280151367 -0.625885963439941 -4.75004291534424 -9.88037872314453 -2.35787773132324 5.7351541519165 -1.10930347442627 -5.02280712127686 0.485659599304199 -6.38054323196411 4.28259372711182 2.64171099662781 0.589522361755371 -0.741414070129395 -1.03466606140137 -3.68385219573975 2.75486183166504 -7.5889778137207 3.02466368675232 8.10702133178711 -5.06999492645264 1.46030521392822 6.99510335922241 2.35650157928467 -2.98758125305176 -3.48922824859619 7.11627960205078 2.71001315116882 -3.56329822540283 -4.04530906677246 0.289205551147461 -2.16587162017822 6.33028984069824 3.28153586387634 2.25162124633789 -7.7255916595459 -0.834192276000977 -0.805669784545898 -4.17825126647949 -2.6415548324585 1.44930458068848 -7.58184862136841 -5.18438339233398 7.91469573974609 -3.61962699890137 -0.418911933898926 2.93391942977905 -9.16461181640625 6.75909996032715 1.26815700531006 -0.491348266601563 2.39058113098145 -5.35315322875977 -6.17654037475586 5.62550735473633 8.46033477783203 -9.01241302490234 3.16207122802734 1.62812614440918 0.352400779724121 -9.29324722290039 9.82602596282959 -2.94663524627686 -1.74900150299072 -3.60288238525391 7.30820846557617 -6.45047950744629 -0.735918045043945 -3.77768135070801 0.850428581237793 9.17400169372559 -9.5034008026123 9.05748748779297 1.55914211273193 -7.03626441955566 -1.8493070602417 -4.17163944244385 -6.52297782897949 4.97257947921753 -4.95972537994385 -3.32548713684082 2.17330551147461 3.26519465446472 0.386585235595703 9.52500534057617 -7.27185773849487 -5.71467590332031 6.87955856323242 -5.61657905578613 -8.66285514831543 8.05952072143555 6.47577047348022 8.19972515106201 6.59898328781128 -8.08314323425293 0.137304306030273 1.69133567810059 0.229486465454102 3.38825941085815 5.17800092697144 -0.610409736633301 -2.50345802307129 8.73736190795898 -3.17672157287598 7.27300834655762 -3.80842781066895 -8.49397850036621 -0.939806938171387 -6.06202125549316 7.42578077316284 4.54907417297363 6.00531578063965 -3.18328952789307 4.19038534164429 8.73458099365234 1.30537414550781 5.73917579650879 -7.41364479064941 -9.87513732910156 -6.89651679992676 0.354770660400391 3.72081732749939 -7.82332229614258 3.07966423034668 7.82030534744263 -2.58356189727783 -1.75127410888672 8.25793075561523 -5.93372821807861 -6.3484148979187 3.41216063499451 7.95053052902222 1.28651714324951 1.26145935058594 8.80866527557373 6.53906583786011 1.60827541351318 0.27253532409668 -1.04721164703369 5.61682891845703 -3.63274955749512 0.295437812805176 -9.59713172912598 0.7021484375 2.8611466884613 -6.16452980041504 -7.21096467971802 -8.17465972900391 -9.01523399353027 -4.68850231170654 0.409201622009277 9.49567317962646 -5.55246162414551 -4.99404811859131 4.27355527877808 7.95642614364624 -3.60446834564209 -0.84565258026123 0.553532600402832 -1.45484352111816 -6.78494262695313 -8.15586853027344 -2.88552856445313 4.07274723052979 8.90057563781738 4.79683876037598 8.60639381408691 -6.95286226272583 4.31943655014038 7.15794324874878 0.888887405395508 -1.98830699920654 7.06354331970215 -5.48568916320801 -9.56966209411621 -8.14948272705078 -6.10273170471191 -7.14630556106567 -8.81484222412109 6.93903160095215 5.28256177902222 -6.65396690368652 7.54871368408203 -6.35488939285278 -0.0602731704711914 -5.3776912689209 -7.39842224121094 2.80211210250854 -8.70507049560547 0.931071281433105 8.3607006072998 -0.457481384277344 3.41925382614136 -9.40308380126953 2.49564075469971 5.53146839141846 2.43374443054199 -4.41831493377686 -9.52926635742188 -5.98730087280273 -7.97455596923828 -3.8453426361084 2.88500547409058 2.33429336547852 6.93232727050781 3.1694028377533 8.3629207611084 6.35780096054077 -1.86308479309082 -0.758830070495605 -1.62147426605225 -2.16003513336182 1.74648380279541 5.59034824371338 -0.698171615600586 -2.73123168945313 3.61139750480652 -4.09732246398926 -4.63395023345947 -2.28482151031494 -9.9200439453125 -2.92929744720459 2.10466957092285 -8.3186149597168 7.24128293991089 6.75181579589844 -1.32193470001221 -1.31504154205322 4.62479591369629 0.790494918823242 3.72185897827148 -4.41609477996826 1.27665138244629 -7.78383684158325 2.20151329040527 4.25210189819336 -0.351539611816406 9.6395149230957 -4.31208992004395 -7.48381805419922 -1.92293262481689 5.22647619247437 -1.32701778411865 0.121575355529785 1.30878829956055 -2.02495002746582 8.30246734619141 9.14252471923828 -2.00142478942871 -8.61693382263184 9.92291259765625 -9.67280197143555 6.09262466430664 6.6881251335144 5.33568382263184 -3.47437477111816 0.248733520507813 -7.5366063117981 -1.65567779541016 -4.74359130859375 0.151165962219238 1.83000183105469 0.459159851074219 0.324372291564941 -3.6138334274292 -1.13503837585449 4.66132164001465 -3.82629489898682 -6.67199325561523 1.16674518585205 -1.86301803588867 8.01133632659912 -9.82249450683594 5.0662899017334 2.32367134094238 3.98341369628906 -6.75077247619629 4.21414375305176 3.25926542282104 -2.27411842346191 -9.80625534057617 4.26703214645386 4.11924362182617 -6.93026542663574 6.72672986984253 1.58973121643066 8.66745185852051 6.29450035095215 -5.64461517333984 2.21813297271729 7.24809408187866 -7.67682075500488 1.33766269683838 5.13995361328125 7.62436628341675 -4.60195159912109 -3.72629737854004 6.47353887557983 -3.5855541229248 -1.23958015441895 -5.22428321838379 -0.145879745483398 -3.48265266418457 -6.32021903991699 -7.60498046875 -9.91278839111328 2.43499660491943 -6.4359073638916 3.14928245544434 -8.77384185791016 6.45211744308472 7.05704164505005 -6.84493064880371 9.48072814941406 -5.78142356872559 -0.941313743591309 5.14527797698975 4.77425336837769 8.5521297454834 1.59736251831055 -5.23787689208984 -2.91565990447998 -6.36994361877441 -3.59589004516602 -0.10181999206543 9.27568626403809 -3.63206958770752 -0.0692949295043945 8.10229301452637 -3.93407917022705 0.00387763977050781 -2.90495777130127 7.78285980224609 2.67542815208435 1.11746406555176 -9.98613166809082 -1.14313507080078 -1.91403770446777 -1.51296710968018 5.09933948516846 -1.80102443695068 6.54100608825684 5.01052093505859 8.16416931152344 3.95372366905212 -9.09805488586426 1.1402645111084 4.00209188461304 -0.347346305847168 7.78338193893433 -8.02905654907227 9.23179626464844 1.02854156494141 -8.91839027404785 5.16152572631836 1.36279487609863 -9.36895561218262 7.72724342346191 9.37318325042725 7.21862983703613 8.79561614990234 2.32776737213135 0.336566925048828 -5.16250133514404 8.66211128234863 -9.45317268371582 -6.28352689743042 -9.05685424804688 3.76916861534119 -0.951594352722168 -1.95715999603271 -9.11053848266602 -9.10691261291504 1.63527393341064 -9.54206657409668 7.66510725021362 -7.03365325927734 7.68707704544067 5.87160587310791 6.10542058944702 2.90106272697449 9.82067108154297 -1.89555549621582 3.72932195663452 9.58161354064941 -8.54563140869141 8.01482391357422 3.18330264091492 -6.03423881530762 -1.0290584564209 -4.06701469421387 -9.82220840454102 3.4045524597168 -0.370546340942383 -7.1246166229248 7.04140424728394 6.62374258041382 -7.59925651550293 1.66541957855225 2.94766402244568 3.09737396240234 -8.68536758422852 8.93229675292969 -8.00479507446289 1.13012886047363 7.37755250930786 3.95888781547546 -8.24373435974121 -0.659903526306152 6.82811498641968 -2.66870594024658 -8.58034324645996 7.40053176879883 7.80452919006348 6.29928159713745 4.58320140838623 -7.47321319580078 -4.1145601272583 -0.410112380981445 -8.95896530151367 -4.01506996154785 0.968113899230957 3.82379031181335 -4.91599464416504 -2.47878646850586 -2.56234550476074 -3.46607780456543 -3.49520587921143 -0.514913558959961 4.23064947128296 3.45067739486694 -1.36948013305664 7.73227453231812 2.94352293014526 -7.79520988464355 -1.78245449066162 -3.81674861907959 -1.10363864898682 6.98998641967773 5.88259220123291 1.49077320098877 -7.13579607009888 -5.8084602355957 -9.85574722290039 -3.33414459228516 7.33468770980835 4.91122436523438 -6.99969291687012 -0.109600067138672 0.852989196777344 2.3905668258667 -2.99248313903809 -2.0724925994873 3.43118858337402 -9.81488037109375 6.71449422836304 -9.15148544311523 8.69537353515625 4.77446746826172 9.98775482177734 1.69385051727295 3.10248351097107 -1.2367525100708 3.53738975524902 -9.50483703613281 -0.754905700683594 -9.2155647277832 4.78886795043945 -5.40213394165039 -6.41217422485352 -8.58847808837891 -6.03403282165527 -6.34883117675781 9.49524879455566 -1.94230937957764 4.1063117980957 1.39751052856445 9.13177299499512 4.23545837402344 -7.40792465209961 -5.80985832214355 3.55219602584839 9.72952842712402 -9.66493988037109 3.58274912834167 1.02841758728027 6.53846311569214 -9.54153823852539 -6.73038911819458 0.0364742279052734 3.31672859191895 -9.83543586730957 0.456720352172852 9.89321899414063 1.31091690063477 -6.10284376144409 -3.36858654022217 -9.80863761901855 -9.69204711914063 9.74098587036133 -0.892635345458984 -6.23304557800293 5.43819189071655 -7.99451065063477 -5.17365264892578 0.251153945922852 -0.513988494873047 -2.01513385772705 7.18834114074707 2.32789134979248 9.80554389953613 7.11817741394043 1.87084293365479 1.84249019622803 5.36782741546631 1.414231300354 -7.66608238220215 -3.30420398712158 -1.39045333862305 2.99707174301147 -5.45169830322266 0.0807056427001953 3.81165957450867 9.51149368286133 8.12653350830078 -6.38003158569336 0.407086372375488 1.21426010131836 -2.61806869506836 9.5145320892334 7.92065095901489 -3.18758869171143 -8.42562103271484 -4.15571308135986 0.0263509750366211 0.468631744384766 1.14068126678467 0.00946903228759766 8.32858085632324 -7.1904296875 2.52525091171265 -2.65623188018799 8.05068016052246 -9.50229263305664 2.34001731872559 -7.97782135009766 -9.6197509765625 -8.25982666015625 0.438822746276855 7.9192042350769 -9.19802665710449 -4.87611198425293 -4.28449535369873 -3.80514240264893 -5.74882316589355 0.599302291870117 8.99392890930176 2.73911666870117 -7.01914596557617 6.18642997741699 -6.61450910568237 7.26222229003906 -6.91019058227539 -9.00600051879883 7.32934522628784 -2.05587005615234 7.49295949935913 -7.22583341598511 2.2876033782959 -1.92201042175293 -6.14114570617676 -8.35979843139648 6.1919379234314 4.21088695526123 8.52860260009766 -0.551313400268555 -8.31252098083496 6.96946334838867 2.71032786369324 -4.28823852539063 -4.05750846862793 5.7151050567627 -8.98295974731445 -8.9918212890625 2.33655834197998 8.14165878295898 0.63485050201416 -3.42141532897949 3.85640120506287 9.89230918884277 -6.32366943359375 0.647946357727051 2.13673210144043 4.29763317108154 -8.70093536376953 -3.62230205535889 -4.33352375030518 8.43350410461426 -5.44196891784668 -6.93963050842285 0.755764007568359 -6.16419982910156 -5.39751815795898 -4.50146770477295 -5.40927886962891 -3.42642879486084 -2.19427013397217 3.77905607223511 -0.727940559387207 -9.06765365600586 6.61408948898315 -1.70804405212402 -4.69840145111084 9.58223724365234 2.9677791595459 -8.18996810913086 -8.55686950683594 -0.886474609375 3.32244849205017 -6.31353187561035 4.86546993255615 -7.09927749633789 -9.70323181152344 -8.82210922241211 -7.8340106010437 3.13886618614197 7.11755514144897 -2.41636657714844 3.15454936027527 -0.643926620483398 8.48966407775879 -1.00345516204834 7.99629640579224 -4.59244346618652 -1.8475399017334 -7.40253639221191 0.111309051513672 -6.61792945861816 -7.07461547851563 -8.09399032592773 0.952645301818848 0.13682746887207 0.554012298583984 -8.70624160766602 -2.46014499664307 0.71367359161377 -4.59719276428223 5.13768196105957 3.42042422294617 -8.75697898864746 7.26488304138184 -2.04275035858154 2.55184364318848 6.25602912902832 8.08509063720703 9.96700477600098 4.5909423828125 8.4854736328125 -4.43885231018066 8.34272575378418 -9.89209175109863 7.76776504516602 6.03838157653809 6.37493133544922 -1.1641845703125 2.78494811058044 -8.75840377807617 -0.42894458770752 -9.63555908203125 0.24924373626709 8.85025787353516 -9.68966484069824 9.57987976074219 -2.07881832122803 0.432108879089355 -7.89581298828125 -6.89947891235352 -5.50052165985107 0.85264778137207 -4.8858585357666 -1.95580577850342 -5.86466979980469 4.25306797027588 9.135009765625 7.05847930908203 -6.26325178146362 9.68911933898926 -7.06778526306152 8.91182327270508 2.95095896720886 6.73980903625488 1.9475040435791 3.16830825805664 -8.55710601806641 8.03138542175293 -4.65943431854248 -9.42742919921875 4.17349815368652 9.12624359130859 7.69541215896606 -3.37783718109131 -2.74294757843018 -9.00449562072754 8.78089904785156 -9.47065734863281 -2.95111560821533 -8.05932998657227 0.444516181945801 9.46503067016602 7.09988069534302 -2.0964994430542 6.56883955001831 -8.8343391418457 -2.34963321685791 -9.42920684814453 -7.5687427520752 8.4172420501709 0.213235855102539 9.80550289154053 4.19114589691162 -8.53257942199707 5.15340805053711 -2.57831478118896 -3.47214317321777 -9.01105499267578 -1.69293975830078 -3.51488208770752 -8.65125846862793 6.03046417236328 3.92456030845642 -8.42804718017578 1.1851634979248 -6.97394180297852 7.67359495162964 -0.0665435791015625 2.31045150756836 9.50935363769531 5.94181537628174 -7.90918159484863 4.01973724365234 1.57693958282471 0.909253120422363 -7.90762138366699 -4.11647891998291 9.69002723693848 -1.58492469787598 -6.45658493041992 8.89438152313232 -4.73264122009277 -6.71146392822266 -4.99114894866943 8.4456901550293 5.30773162841797 3.08303809165955 -6.09566688537598 5.09914398193359 -5.53654861450195 -4.95104885101318 -2.86281490325928 -8.43435478210449 8.80707550048828 5.03098011016846 -9.31642723083496 6.77054166793823 1.25106716156006 8.09023666381836 0.513276100158691 7.67281293869019 6.03641033172607 6.93461418151855 6.04645490646362 -2.95448207855225 3.61394381523132 -2.89876365661621 -5.58908462524414 8.6301326751709 -8.60195541381836 4.05487251281738 -1.97933578491211 -5.45908164978027 4.07463073730469 -4.19139766693115 7.74217796325684 -3.37924575805664 -1.57190418243408 7.27804899215698 -8.15920829772949 2.23122692108154 2.05693626403809 7.60751295089722 7.09945678710938 -7.59623003005981 -3.29664325714111 9.77750968933105 -8.11712265014648 7.94409513473511 -6.08575391769409 -7.94112014770508 5.23599624633789 -0.349422454833984 8.74368476867676 9.31301116943359 -8.94254302978516 4.71624374389648 -6.37781143188477 -4.22332668304443 9.80559825897217 -5.25385665893555 5.06185531616211 -6.18731498718262 4.40579605102539 -2.42552375793457 5.85784673690796 -7.6531810760498 -6.83405113220215 -2.4315128326416 2.09604167938232 -7.82744598388672 6.33486223220825 3.43063116073608 4.72478628158569 -5.63093662261963 -5.38198471069336 -0.47369384765625 -7.06349182128906 9.00446128845215 2.89922475814819 1.92312812805176 8.06708145141602 5.11160850524902 -2.23722362518311 -7.03072357177734 9.23077583312988 1.74831008911133 -7.01372575759888 -6.42240953445435 -1.93440532684326 4.93710708618164 2.78809309005737 -3.02571201324463 0.810441017150879 -1.479567527771 0.983723640441895 -2.15241813659668 -3.8835916519165 8.46602439880371 2.92502164840698 9.16135025024414 -4.6287956237793 -3.96697902679443 -3.28269577026367 2.82457113265991 7.05796766281128 -6.88632202148438 -6.36718320846558 2.84706830978394 -7.95041847229004 |
2.97419047355652 -9.33561706542969 7.7979564666748 9.26276683807373 2.28098964691162 -6.57687187194824 -2.28383445739746 -0.555519104003906 -9.68653869628906 7.03497123718262 0.631471633911133 -4.70324897766113 -2.04808330535889 -1.88883686065674 -0.196290969848633 1.76201248168945 -0.78534984588623 8.63721370697021 8.90880584716797 -8.01389694213867 -6.09478187561035 6.76922273635864 -0.0900449752807617 -3.16553497314453 -2.51991844177246 -5.08246421813965 -4.99869251251221 -8.30151557922363 9.95571327209473 1.97754955291748 -7.78706550598145 -0.786723136901855 -0.46779727935791 -9.75058746337891 -6.71272087097168 -2.78500652313232 4.13307189941406 -7.62123107910156 -1.2607421875 8.09431457519531 2.50992965698242 1.7097864151001 8.19116401672363 -1.96349239349365 0.555778503417969 -3.7255277633667 -5.79963684082031 -6.59427642822266 0.603479385375977 -0.577081680297852 -7.85479736328125 4.79472875595093 -2.46415233612061 4.31817770004272 -8.23086929321289 -4.82109928131104 7.68102407455444 8.66854667663574 -2.82580471038818 -0.666827201843262 -4.36033630371094 3.29261016845703 6.6587085723877 5.71268558502197 -0.972107887268066 -5.71788311004639 0.0601091384887695 -5.66892147064209 -8.51523208618164 1.85357666015625 9.32108306884766 4.93813514709473 -3.09592628479004 -8.37808227539063 -3.94059562683105 -6.12459182739258 -5.12237358093262 7.73975133895874 -8.18902587890625 4.67173099517822 -2.12803936004639 2.84926605224609 -8.78849983215332 -5.6895923614502 5.40785551071167 0.762638092041016 -6.20048093795776 9.38880157470703 -1.04777717590332 -7.19708967208862 3.93943023681641 -4.29356956481934 -5.211181640625 7.66917943954468 9.01854991912842 2.10844612121582 2.63825178146362 -0.811795234680176 6.37708425521851 4.89629936218262 2.1043119430542 -2.92834377288818 8.32082748413086 -5.20217895507813 -2.95980548858643 6.00417327880859 -6.95463180541992 8.50263977050781 -2.88772201538086 -7.87662076950073 8.00854110717773 -4.25448513031006 -8.86112976074219 -0.861934661865234 -2.45726013183594 -8.81589698791504 0.533987045288086 0.783406257629395 -8.98493003845215 5.62882900238037 -5.25213718414307 8.81822967529297 5.20874500274658 -8.95351219177246 -9.39212417602539 -9.00796127319336 9.10962104797363 1.79382419586182 2.83107733726501 -1.58571147918701 0.0880422592163086 -5.09053421020508 -0.523208618164063 2.70452475547791 1.86435127258301 5.25187492370605 -5.06942749023438 -0.88835620880127 -8.84266090393066 -0.824185371398926 6.61909532546997 1.80860424041748 9.02803230285645 -2.93111705780029 -0.674496650695801 5.20304679870605 1.71173477172852 5.04809141159058 6.72752571105957 8.68951320648193 -2.16819381713867 -2.41015338897705 -4.84158611297607 0.732521057128906 8.96595191955566 -4.61132144927979 6.33990478515625 -9.58421897888184 1.04324722290039 -5.62884140014648 2.65567541122437 4.48548793792725 -4.27479362487793 3.31152677536011 -0.780815124511719 -3.06194686889648 4.72453594207764 4.23350095748901 -7.72380828857422 -3.187180519104 1.08983135223389 9.95932006835938 -5.04222869873047 -5.6750659942627 3.03684425354004 7.12295961380005 6.86108064651489 -7.50131797790527 -1.77074813842773 -4.46353816986084 -1.61051845550537 2.51934242248535 8.85576629638672 -7.40905952453613 -7.26154327392578 -3.16930198669434 -4.80360889434814 7.98360061645508 -9.26495742797852 -9.72224998474121 8.22251319885254 6.34462118148804 -7.91428756713867 1.5231409072876 2.29345703125 -0.287565231323242 3.65940284729004 -6.5655689239502 8.3890552520752 -8.1705207824707 5.20517110824585 -4.74001312255859 -6.89413833618164 -8.87926483154297 5.81785202026367 -8.07875823974609 2.03279590606689 7.32787322998047 -9.48611831665039 1.60638236999512 3.40866541862488 -8.7402229309082 5.39217185974121 5.397629737854 9.69584465026855 1.83211898803711 7.90922880172729 7.81141710281372 8.07979393005371 8.19645118713379 7.84492063522339 3.22073912620544 -2.87174797058105 6.74357175827026 -5.28106689453125 -7.45354843139648 -5.7039909362793 1.75591373443604 -2.40829849243164 8.57841682434082 -3.7712230682373 1.44572830200195 -2.77650737762451 -8.1078052520752 -6.51200103759766 -1.22496032714844 9.78600692749023 4.71476745605469 -6.5523738861084 -0.553098678588867 -6.24624252319336 -0.636643409729004 -0.658637046813965 -2.13175868988037 7.83885192871094 0.0740947723388672 0.279983520507813 -9.47176361083984 6.26226186752319 4.97263145446777 -8.84823036193848 9.45663452148438 4.51444149017334 7.53029584884644 7.10247993469238 8.10126304626465 -3.61161327362061 9.63999557495117 -6.63117218017578 -1.76246070861816 7.21779584884644 6.12167549133301 -7.94261741638184 7.10670042037964 -3.32678699493408 -3.34385967254639 -3.0506649017334 3.4140944480896 -8.93178558349609 -0.39568042755127 7.45492172241211 0.368083953857422 -8.30051040649414 7.84804534912109 7.95454025268555 6.98275756835938 4.26327896118164 8.86215019226074 -6.36298942565918 2.80458641052246 5.331711769104 -6.40622329711914 -4.86011123657227 5.8733606338501 0.117598533630371 7.97882270812988 8.50537776947021 -7.59186935424805 8.59585189819336 -8.76199722290039 -3.6346492767334 -2.60408973693848 9.72091197967529 -3.90853500366211 -7.75155258178711 -7.2542839050293 8.68912696838379 5.8123779296875 -9.90401268005371 -6.76236152648926 -7.87041139602661 -2.4993953704834 2.08444023132324 -0.802193641662598 4.38465309143066 -3.30411529541016 5.4417085647583 -7.15560913085938 0.395532608032227 -0.940364837646484 -0.0290956497192383 3.56746864318848 9.15393829345703 6.46679639816284 6.91294860839844 -1.78912544250488 -9.18487358093262 9.86993789672852 9.13478374481201 4.94582176208496 9.09418487548828 -6.78168296813965 -3.47251319885254 5.27848434448242 -5.80769348144531 5.65328121185303 1.86533546447754 -1.61504650115967 -7.2441291809082 0.962711334228516 -9.95038223266602 4.03403759002686 1.51213264465332 -4.84618282318115 7.65106916427612 -6.46579933166504 -5.80788421630859 4.36546087265015 1.99949169158936 8.17611885070801 4.66287803649902 -5.46094417572021 8.43588638305664 9.5865650177002 -4.57052326202393 8.91472625732422 9.1786527633667 6.54232025146484 2.03362846374512 4.61079788208008 2.86519026756287 6.78983688354492 0.470704078674316 8.28100967407227 -6.59191560745239 -2.06691646575928 -0.220199584960938 -3.88100528717041 3.4319281578064 -9.11753082275391 8.89448165893555 -1.91010856628418 9.01928901672363 -1.31330394744873 4.88447904586792 3.40422391891479 -6.58903884887695 -9.30915832519531 -5.97797584533691 -7.70608901977539 1.00988292694092 -7.92201232910156 2.64003729820251 -1.79995441436768 5.20026397705078 6.00525093078613 -1.30952453613281 0.345207214355469 9.24571514129639 -3.38967704772949 -9.25382804870605 -0.67740535736084 -4.9256649017334 -0.44758415222168 3.51182174682617 2.13815784454346 -7.9049186706543 -4.28713703155518 -0.490850448608398 -3.81489372253418 6.42378807067871 9.29251480102539 -7.18260955810547 6.0105299949646 6.19683027267456 -7.94247817993164 1.39007186889648 4.05701160430908 -2.35807514190674 -2.53899002075195 |
-0.135632514953613 7.45539140701294 -3.26338672637939 -8.82104873657227 0.182346343994141 4.30399417877197 2.17345333099365 -3.90750503540039 0.524791717529297 -4.91015338897705 -3.28066921234131 -8.16565322875977 -4.84420394897461 3.27126955986023 6.37238502502441 8.23988342285156 -0.225051879882813 6.63937759399414 1.64233589172363 1.94427108764648 4.06866550445557 3.63825988769531 -8.67853546142578 6.36249542236328 -4.22863388061523 -7.45080757141113 7.22064971923828 -0.661596298217773 -0.84565258026123 8.21669387817383 4.84566450119019 5.55011940002441 -5.56671619415283 -9.17005920410156 -1.87335872650146 1.53824901580811 -7.10896682739258 0.236605644226074 -1.69789695739746 -2.22070789337158 2.44080924987793 1.70701885223389 1.2044563293457 -0.68159008026123 -6.53745222091675 2.86662292480469 -6.7005615234375 9.73549842834473 -5.47773361206055 9.49331474304199 5.20422172546387 -5.53812503814697 3.38522887229919 -7.77244758605957 -1.2062463760376 7.11828231811523 1.15574932098389 -5.18235015869141 3.03667521476746 -6.3519172668457 4.35856342315674 4.59575176239014 5.06305694580078 3.72749519348145 -7.76717948913574 -2.29390239715576 -1.15517997741699 -2.45395278930664 -8.07593536376953 -8.75196647644043 2.46712112426758 2.33897590637207 -3.25628185272217 1.65487670898438 -0.0286760330200195 -1.11726379394531 -6.20412635803223 -3.51842021942139 -5.28626441955566 4.58004188537598 5.6424880027771 -3.94316291809082 5.82565498352051 5.96482467651367 8.22041988372803 9.33731842041016 9.24809265136719 5.42076826095581 6.81490135192871 2.91714429855347 4.59453105926514 -6.68548154830933 5.84049940109253 -9.64817047119141 -9.04227066040039 -4.88958740234375 -0.120491027832031 -5.71779727935791 8.50200462341309 -4.85415077209473 -6.8737940788269 6.31301641464233 -9.70980834960938 5.21387100219727 -1.62717914581299 -7.37602424621582 -4.80039024353027 6.82333183288574 4.84599113464355 8.81709098815918 6.5499472618103 4.87844467163086 -7.77814102172852 4.77631568908691 -2.61987113952637 0.660017967224121 5.16642570495605 -6.19916486740112 -7.68146705627441 2.34865093231201 -4.26991844177246 1.3502893447876 1.89803981781006 -0.462936401367188 3.16192817687988 -5.55928993225098 0.748824119567871 9.23362731933594 5.00430107116699 6.70111417770386 2.39993476867676 7.67378997802734 4.62036609649658 1.13541698455811 -5.81725597381592 -8.4805908203125 3.12144255638123 -5.07982730865479 -5.84357070922852 8.01269340515137 -5.00492572784424 1.69021987915039 -4.34800243377686 -1.50809860229492 0.612701416015625 4.5296835899353 -8.31513214111328 -3.13431835174561 -7.38089752197266 -4.00362586975098 1.96333789825439 -6.55531358718872 -6.81985092163086 -7.78937530517578 -8.01641845703125 -2.52037620544434 -5.69601535797119 -4.35982608795166 5.95140647888184 -7.96926498413086 -3.28108882904053 1.6529598236084 1.25764274597168 -8.47504615783691 1.6222038269043 0.7381591796875 1.82787036895752 1.26825428009033 5.33485174179077 -7.4731593132019 6.80841016769409 7.26240873336792 -1.56354331970215 -8.38910675048828 9.54224586486816 0.0936784744262695 0.142937660217285 9.07667922973633 7.01857566833496 8.46034049987793 |
